2 0.0983936 0.901051 0.000377227 0.000126374 5.15095e-05 0 0 0 0 0 
3 0.0355116 0.956547 0 0 0.0079405 0 0 0 0 0 
4 0.0740424 0.899424 0.0210526 0.00269801 0.00131346 0.00146931 2.16855e-07 0 0 0 
5 0.133024 0.866172 0.000552103 0.000179502 7.31644e-05 0 0 0 0 0 
6 0.0746518 0.878153 0.0405519 0.00327031 0.00159208 0.00178098 2.62854e-07 0 0 0 
7 0.149951 0.849493 0.000383815 0.000122844 5.00706e-05 0 0 0 0 0 
8 0.151257 0.847271 0.00107283 0.000283729 0.000115647 0 0 0 0 0 
9 0.0935479 0.877632 0.0250769 0.00203063 0.00170139 1.0703e-05 0 0 0 0 
10 0.206754 0.793133 9.18499e-05 1.0849e-05 1.08495e-05 0 0 0 0 0 
11 0.258783 0.740709 0.000410017 4.88205e-05 4.88226e-05 0 0 0 0 0 
12 0.166951 0.833025 2.47493e-05 0 0 0 0 0 0 0 
13 0.0804875 0.880455 0.0228604 0.0161968 0 0 0 0 0 0 
14 0.0797323 0.896535 0.0148668 0.00696515 0.00190066 0 0 0 0 0 
15 0.133321 0.861537 0.00400673 0.000745591 0.00038978 0 0 0 0 0 
16 0.1195 0.880325 0.000175198 0 0 0 0 0 0 0 
17 0.0928261 0.86709 0.0243635 0.0157205 0 0 0 0 0 0 
18 0.109735 0.884253 0.00468479 0.000871768 0.000455743 0 0 0 0 0 
19 0.119675 0.88015 0.000175198 0 0 0 0 0 0 0 
20 0.172198 0.827791 1.07495e-05 0 0 0 0 0 0 0 
21 0.137756 0.861311 0.000633935 0.000212454 8.65956e-05 0 0 0 0 0 
22 0.14475 0.855149 6.85377e-05 2.29531e-05 9.35558e-06 0 0 0 0 0 
23 0.0943646 0.893075 0.00929111 0.00177359 0.00148602 9.34819e-06 0 0 0 0 
24 0.0647228 0.898389 0.0269543 0.00667216 0.00326212 0 0 0 0 0 
25 0.0733028 0.860057 0.043856 0.0227834 0 0 0 0 0 0 
26 0.081415 0.88885 0.0109552 0.00309234 0.0156764 1.10225e-05 0 0 0 0 
27 0.143936 0.853424 0.00205752 0.000382871 0.000200157 0 0 0 0 0 
28 0.113494 0.87521 0.00929444 0.00108615 0.000910044 5.72486e-06 0 0 0 0 
29 0.0735376 0.89478 0.0251374 0.0032215 0.00156831 0.0017544 2.58931e-07 0 0 0 
30 0.113253 0.884835 0.00129925 0.000435426 0.000177478 0 0 0 0 0 
31 0.193683 0.80621 8.57792e-05 1.02247e-05 1.02251e-05 0 0 0 0 0 
32 0.0747747 0.889774 0.0259042 0.00641221 0.00313502 0 0 0 0 0 
33 0.0758003 0.891543 0.0259109 0.00332063 0.00161657 0.00180838 2.66898e-07 0 0 0 
34 0.0486508 0.943758 0 0 0.00759019 0 0 0 0 0 
35 0.0853052 0.872406 0.0280441 0.0142446 0 0 0 0 0 0 
36 0.0865138 0.873828 0.023212 0.016446 0 0 0 0 0 0 
37 0.0840127 0.874339 0.0276192 0.0140287 0 0 0 0 0 0 
38 0.0809403 0.894968 0.015092 0.00707068 0.00192946 0 0 0 0 0 
39 0.121946 0.877871 0.000124918 4.1844e-05 1.70555e-05 0 0 0 0 0 
40 0.0970535 0.894538 0.00622033 0.0011874 0.000994879 6.25853e-06 0 0 0 0 
41 0.0895583 0.89105 0.0121472 0.00569103 0.00155298 0 0 0 0 0 
42 0.0670093 0.894543 0.0280933 0.00695409 0.00339996 0 0 0 0 0 
43 0.100461 0.894035 0.00428889 0.000798097 0.000417229 0 0 0 0 0 
44 0.00473548 0.995251 1.34452e-05 0 0 0 0 0 0 0 
45 0.0731948 0.884809 0.0306865 0.007596 0.0037138 0 0 0 0 0 
46 0.0693949 0.900708 0.0237212 0.00304001 0.00147996 0.00165556 2.44343e-07 0 0 0 
47 0.0852828 0.879882 0.020389 0.0144458 0 0 0 0 0 0 
48 0.0731948 0.884809 0.0306865 0.007596 0.0037138 0 0 0 0 0 
49 0.0799046 0.844068 0.0388559 0.0291736 0.00799704 0 0 0 0 0 
50 0.0777185 0.908306 0.010338 0.00197343 0.00165346 1.04015e-05 0 0 0 0 
51 0.272801 0.726742 0.000370805 4.33526e-05 4.33545e-05 0 0 0 0 0 
52 0.08392 0.900815 0.0112923 0.00215559 0.00180609 1.13616e-05 0 0 0 0 
53 0.0853052 0.872406 0.0280441 0.0142446 0 0 0 0 0 0 
54 0.12159 0.873241 0.00382336 0.000729757 0.000611436 3.84639e-06 0 0 0 0 
55 0.133527 0.860261 0.0060865 6.30199e-05 6.30152e-05 0 0 0 0 0 
56 0.08803 0.887507 0.0153242 0.00717946 0.00195915 0 0 0 0 0 
57 0.133903 0.864546 0.00120839 0.000224861 0.000117553 0 0 0 0 0 
58 0.0758003 0.891543 0.0259109 0.00332063 0.00161657 0.00180838 2.66898e-07 0 0 0 
59 0.0909871 0.89834 0.00789573 0.00150659 0.00126232 7.94094e-06 0 0 0 0 
60 0.183513 0.816243 0.000197906 2.34592e-05 2.34602e-05 0 0 0 0 0 
61 0.109974 0.88911 0.000622044 0.000208427 8.4954e-05 0 0 0 0 0 
62 0.157939 0.841922 0.000111963 1.32334e-05 1.3234e-05 0 0 0 0 0 
63 0.124311 0.874044 0.00112047 0.000372695 0.000151909 0 0 0 0 0 
64 0.108072 0.886007 0.00461381 0.000858559 0.000448838 0 0 0 0 0 
65 0.0804875 0.880455 0.0228604 0.0161968 0 0 0 0 0 0 
66 0.0710099 0.888248 0.0297705 0.00736926 0.00360294 0 0 0 0 0 
67 0.0735376 0.89478 0.0251374 0.0032215 0.00156831 0.0017544 2.58931e-07 0 0 0 
68 0.079212 0.88152 0.026041 0.0132271 0 0 0 0 0 0 
69 0.0528461 0.945842 0.00102217 0.000190151 9.9407e-05 0 0 0 0 0 
70 0.0817258 0.878616 0.023212 0.016446 0 0 0 0 0 0 
71 0.0746518 0.893186 0.0255183 0.00327031 0.00159208 0.00178098 2.62854e-07 0 0 0 
72 0.129451 0.869677 0.000699793 0.000113557 5.93653e-05 0 0 0 0 0 
73 0.135562 0.863366 0.000865882 0.00010322 0.000103225 0 0 0 0 0 
74 0.0758003 0.891543 0.0259109 0.00332063 0.00161657 0.00180838 2.66898e-07 0 0 0 
75 0.0710099 0.888248 0.0297705 0.00736926 0.00360294 0 0 0 0 0 
76 0.0720858 0.886554 0.0302215 0.00748091 0.00365753 0 0 0 0 0 
77 0.0817258 0.878616 0.023212 0.016446 0 0 0 0 0 0 
78 0.0731948 0.884809 0.0306865 0.007596 0.0037138 0 0 0 0 0 
79 0.229703 0.767339 0.00234588 0.000401879 0.000210094 0 0 0 0 0 
80 0.124874 0.861717 0.00991889 0.00189342 0.00158643 9.97982e-06 0 0 0 0 
81 0.165441 0.832174 0.00162016 0.000542939 0.0002213 0 0 0 0 0 
82 0.0712281 0.907571 0.013281 0.0062222 0.00169793 0 0 0 0 0 
83 0.0919139 0.885041 0.0144358 0.00676326 0.00184557 0 0 0 0 0 
84 0.0721922 0.862177 0.0431916 0.0224382 0 0 0 0 0 0 
85 0.0797329 0.896535 0.0148668 0.00696515 0.00190066 0 0 0 0 0 
86 0.081062 0.915812 0.0024361 0.000453319 0.000236986 0 0 0 0 0 
87 0.174408 0.823236 0.0016008 0.000536318 0.000218601 0 0 0 0 0 
88 0.0991636 0.859188 0.0276192 0.0140287 0 0 0 0 0 0 
89 0.0925671 0.898651 0.00649602 0.00123994 0.0010389 6.53546e-06 0 0 0 0 
90 0.0720858 0.886521 0.0302548 0.00748091 0.00365753 0 0 0 0 0 
91 0.112501 0.88523 0.00183086 0.000287639 0.000150372 0 0 0 0 0 
92 0.0788721 0.883705 0.0273527 0.00676356 0.00330681 0 0 0 0 0 
93 0.109478 0.873606 0.0105965 0.00496452 0.00135473 0 0 0 0 0 
94 0.135154 0.862338 0.0017042 0.000571144 0.000232796 0 0 0 0 0 
95 0.100407 0.894768 0.00375941 0.000699567 0.00036572 0 0 0 0 0 
96 0.08392 0.900815 0.0112923 0.00215559 0.00180609 1.13616e-05 0 0 0 0 
97 0.092542 0.898677 0.00649556 0.00123994 0.0010389 6.53546e-06 0 0 0 0 
98 0.0840127 0.874339 0.0276192 0.0140287 0 0 0 0 0 0 
99 0.0679666 0.893037 0.0284946 0.00705343 0.00344853 0 0 0 0 0 
100 0.0731948 0.884809 0.0306865 0.007596 0.0037138 0 0 0 0 0 
101 0.110458 0.879814 0.00719607 0.00137366 0.00115094 7.24026e-06 0 0 0 0 
102 0.112091 0.885334 0.00174965 0.000586374 0.000239004 0 0 0 0 0 
103 0.0659514 0.914418 0.0122972 0.00576129 0.00157215 0 0 0 0 0 
104 0.196974 0.801567 0.00113687 0.000211436 0.000110535 0 0 0 0 0 
105 0.129362 0.84016 0.0230526 0.00583344 0.00159181 0 0 0 0 0 
106 0.104893 0.88936 0.00447811 0.000833307 0.000435637 0 0 0 0 0 
107 0.0699656 0.889891 0.0293327 0.00726089 0.00354995 0 0 0 0 0 
108 0.0635218 0.919474 0.0134968 0.00172673 0.000840617 0.00094036 1.38787e-07 0 0 0 
109 0.103409 0.874195 0.0140292 0.00657274 0.00179358 0 0 0 0 0 
110 0.0823197 0.888198 0.0233917 0.00299779 0.0014594 0.00163257 2.4095e-07 0 0 0 
111 0.0896523 0.87069 0.023212 0.016446 0 0 0 0 0 0 
112 0.0913782 0.893357 0.0112923 0.00215559 0.00180609 1.13616e-05 0 0 0 0 
113 0.0758003 0.891543 0.0259109 0.00332063 0.00161657 0.00180838 2.66898e-07 0 0 0 
114 0.0817258 0.878616 0.023212 0.016446 0 0 0 0 0 0 
115 0.0853052 0.872406 0.0280441 0.0142446 0 0 0 0 0 0 
116 0.187977 0.811032 0.000673529 0.000225529 9.19246e-05 0 0 0 0 0 
117 0.113632 0.881544 0.0037594 0.000699567 0.00036572 0 0 0 0 0 
118 0.101262 0.894822 0.00305343 0.000566649 0.000296233 0 0 0 0 0 
119 0.0946576 0.88161 0.0148668 0.00696515 0.00190066 0 0 0 0 0 
120 0.0792862 0.882239 0.0225192 0.0159551 0 0 0 0 0 0 
121 0.0926321 0.889091 0.0114491 0.00536396 0.00146373 0 0 0 0 0 
122 0.111408 0.883239 0.00417139 0.000776231 0.000405799 0 0 0 0 0 
123 0.070386 0.89929 0.0240601 0.00308344 0.0015011 0.00167921 2.47834e-07 0 0 0 
124 0.145075 0.853852 0.000865882 0.00010322 0.000103225 0 0 0 0 0 
125 0.0784856 0.909427 0.0112574 0.000544855 0.000284839 0 0 0 0 0 
126 0.0651735 0.897433 0.0273236 0.00676356 0.00330681 0 0 0 0 0 
127 0.132579 0.866936 0.000391473 4.65156e-05 4.65177e-05 0 0 0 0 0 
128 0.103249 0.895155 0.00108451 0.000363455 0.000148143 0 0 0 0 0 
129 0.0684308 0.902087 0.0233917 0.00299779 0.0014594 0.00163257 2.4095e-07 0 0 0 
130 0.114503 0.883927 0.00122311 0.00022757 0.000118969 0 0 0 0 0 
131 0.172734 0.826672 0.000416094 0.000126738 5.16579e-05 0 0 0 0 0 
132 0.129336 0.867693 0.00201882 0.000676586 0.000275774 0 0 0 0 0 
133 0.0758003 0.891543 0.0259109 0.00332063 0.00161657 0.00180838 2.66898e-07 0 0 0 
134 0.0809403 0.879816 0.0302433 0.00707069 0.00192946 0 0 0 0 0 
135 0.0617878 0.902761 0.0259042 0.00641221 0.00313502 0 0 0 0 0 
136 0.0956897 0.899713 0.00358249 0.000666646 0.000348509 0 0 0 0 0 
137 0.0735376 0.89478 0.0251374 0.0032215 0.00156831 0.0017544 2.58931e-07 0 0 0 
138 0.0853052 0.872406 0.0280441 0.0142446 0 0 0 0 0 0 
139 0.101868 0.866916 0.0247677 0.00317413 0.00154525 0.0017286 2.55123e-07 0 0 0 
140 0.0821856 0.893352 0.0153242 0.00717946 0.00195915 0 0 0 0 0 
141 0.121889 0.874742 0.0026251 0.00048849 0.000255373 0 0 0 0 0 
142 0.0820358 0.884487 0.0195946 0.013883 0 0 0 0 0 0 
143 0.104893 0.88936 0.00447811 0.000833307 0.000435637 0 0 0 0 0 
144 0.0631678 0.909618 0.0215924 0.00276719 0.00134714 0.00150699 2.22415e-07 0 0 0 
145 0.0817258 0.878616 0.023212 0.016446 0 0 0 0 0 0 
146 0.0821856 0.893352 0.0153242 0.00717946 0.00195915 0 0 0 0 0 
147 0.140987 0.856819 0.00149118 0.000499751 0.000203696 0 0 0 0 0 
148 0.103373 0.890963 0.00441321 0.00082123 0.000429323 0 0 0 0 0 
149 0.153122 0.846513 0.000294232 3.50749e-05 3.50764e-05 0 0 0 0 0 
150 0.0720858 0.886554 0.0302215 0.00748091 0.00365753 0 0 0 0 0 
151 0.0816983 0.905742 0.00929111 0.00177359 0.00148602 9.34819e-06 0 0 0 0 
152 0.0735374 0.919364 0.00444679 0.00208333 0.000568503 0 0 0 0 0 
153 0.0792862 0.882239 0.0225192 0.0159551 0 0 0 0 0 0 
154 0.0828139 0.885024 0.0255183 0.00327031 0.00159208 0.00178098 2.62854e-07 0 0 0 
155 0.0728463 0.849957 0.0394536 0.0296224 0.00812007 0 0 0 0 0 
156 0.0852483 0.901522 0.00978663 0.00186818 0.00156528 9.84676e-06 0 0 0 0 
157 0.0758882 0.873001 0.0215549 0.0295562 0 0 0 0 0 0 
158 0.0809403 0.894968 0.015092 0.00707068 0.00192946 0 0 0 0 0 
159 0.203407 0.785091 0.00863269 0.00155681 0.0013044 8.20563e-06 0 0 0 0 
160 0.0731948 0.884809 0.0306865 0.007596 0.0037138 0 0 0 0 0 
161 0.0993974 0.887373 0.00978664 0.00186818 0.00156528 9.84676e-06 0 0 0 0 
162 0.0848223 0.913736 0.000979297 0.000328194 0.000133771 0 0 0 0 0 
163 0.0758004 0.891543 0.0259109 0.00332063 0.00161657 0.00180838 2.66898e-07 0 0 0 
164 0.10054 0.867865 0.0209525 0.0106425 0 0 0 0 0 0 
165 0.0846715 0.885004 0.0240601 0.00308344 0.0015011 0.00167921 2.47834e-07 0 0 0 
166 0.0977088 0.896938 0.00417139 0.000776231 0.000405799 0 0 0 0 0 
167 0.0720858 0.886554 0.0302215 0.00748091 0.00365753 0 0 0 0 0 
168 0.0689516 0.891487 0.0289076 0.00715566 0.00349851 0 0 0 0 0 
169 0.0884219 0.897986 0.0100548 0.00191936 0.00160816 1.01165e-05 0 0 0 0 
170 0.0689791 0.893627 0.0273236 0.00676356 0.00330681 0 0 0 0 0 
171 0.104205 0.894908 0.0007159 8.53397e-05 8.53435e-05 0 0 0 0 0 
172 0.139648 0.8534 0.0015487 0.00525525 0.000147563 0 0 0 0 0 
173 0.0747425 0.883898 0.0302215 0.00748091 0.00365753 0 0 0 0 0 
174 0.152503 0.842143 0.00417139 0.000776231 0.000405799 0 0 0 0 0 
175 0.0932656 0.883351 0.0146481 0.00686272 0.00187271 0 0 0 0 0 
176 0.115098 0.882279 0.0020437 0.000380301 0.000198814 0 0 0 0 0 
177 0.107797 0.889261 0.00240894 0.000349783 0.00018286 0 0 0 0 0 
178 0.138169 0.861195 0.000513939 6.12324e-05 6.12352e-05 0 0 0 0 0 
179 0.0974302 0.898812 0.00292799 0.000544855 0.000284839 0 0 0 0 0 
180 0.131732 0.865823 0.00166106 0.000556684 0.000226902 0 0 0 0 0 
181 0.151915 0.846622 0.00102358 0.000311901 0.00012713 0 0 0 0 0 
182 0.10731 0.888509 0.00326304 0.000602818 0.000315141 0 0 0 0 0 
183 0.108437 0.886347 0.00406596 0.000755532 0.000394977 0 0 0 0 0 
184 0.107517 0.887885 0.00358261 0.000666646 0.000348509 0 0 0 0 0 
185 0.0758003 0.891543 0.0259109 0.00332063 0.00161657 0.00180838 2.66898e-07 0 0 0 
186 0.0990659 0.895506 0.00422932 0.000787012 0.000411435 0 0 0 0 0 
187 0.104363 0.881049 0.00913828 0.00428133 0.0011683 0 0 0 0 0 
188 0.119074 0.878482 0.00166106 0.000556684 0.000226902 0 0 0 0 0 
189 0.177291 0.819387 0.00260326 0.000472207 0.000246861 0 0 0 0 0 
190 0.0942116 0.867314 0.0225192 0.0159551 0 0 0 0 0 0 
191 0.199204 0.793554 0.00535768 0.00102272 0.000856903 5.39056e-06 0 0 0 0 
192 0.0797323 0.896535 0.0148668 0.00696515 0.00190066 0 0 0 0 0 
193 0.0772318 0.912016 0.00982433 0.0006093 0.00031853 0 0 0 0 0 
194 0.0781502 0.907818 0.010494 0.00191936 0.00160816 1.01165e-05 0 0 0 0 
195 0.101896 0.892521 0.00435016 0.000809498 0.00042319 0 0 0 0 0 
196 0.193234 0.805835 0.000756481 8.74044e-05 8.74083e-05 0 0 0 0 0 
197 0.0747233 0.911684 0.0100548 0.00191936 0.00160816 1.01165e-05 0 0 0 0 
198 0.0925884 0.895825 0.00858345 0.00162922 0.00136507 8.58729e-06 0 0 0 0 
199 0.134555 0.864974 0.000382901 4.44186e-05 4.44206e-05 0 0 0 0 0 
200 0.115619 0.882896 0.00100942 0.000338293 0.000137887 0 0 0 0 0 
201 0.102522 0.895123 0.00160029 0.000536318 0.000218601 0 0 0 0 0 
202 0.1296 0.868658 0.00118399 0.000396199 0.000161489 0 0 0 0 0 
203 0.177922 0.821456 0.000502328 5.98792e-05 5.98819e-05 0 0 0 0 0 
204 0.0757822 0.910437 0.0101944 0.00194602 0.0016305 1.0257e-05 0 0 0 0 
205 0.104919 0.877261 0.0167142 0.000726473 0.000379786 0 0 0 0 0 
206 0.167659 0.81683 0.0146742 0.000594298 0.000242234 0 0 0 0 0 
207 0.112731 0.865782 0.0134605 0.00630628 0.00172087 0 0 0 0 0 
208 0.108072 0.886007 0.00461381 0.000858559 0.000448838 0 0 0 0 0 
209 0.129336 0.867693 0.00201882 0.000676586 0.000275774 0 0 0 0 0 
210 0.0817258 0.878616 0.023212 0.016446 0 0 0 0 0 0 
211 0.0944936 0.866849 0.0297919 0.00696527 0.00190066 0 0 0 0 0 
212 0.0960918 0.864665 0.0150926 0.0222216 0.00192947 0 0 0 0 0 
213 0.0792862 0.882239 0.0225192 0.0159551 0 0 0 0 0 0 
214 0.170213 0.82808 0.00137754 0.000164214 0.000164222 0 0 0 0 0 
215 0.050794 0.906774 0.0379114 0.00222516 0.00108327 0.0012118 1.78849e-07 0 0 0 
216 0.0684308 0.902087 0.0233917 0.00299779 0.0014594 0.00163257 2.4095e-07 0 0 0 
217 0.0802177 0.90519 0.0107941 0.00206049 0.00172641 1.08604e-05 0 0 0 0 
218 0.0810885 0.914471 0.00346036 0.000643919 0.000336628 0 0 0 0 0 
219 0.0792862 0.882239 0.0225192 0.0159551 0 0 0 0 0 0 
220 0.08392 0.900815 0.0112923 0.00215559 0.00180609 1.13616e-05 0 0 0 0 
221 0.0746518 0.893186 0.0255183 0.00327031 0.00159208 0.00178098 2.62854e-07 0 0 0 
222 0.0733028 0.860057 0.043856 0.0227834 0 0 0 0 0 0 
223 0.107971 0.868645 0.0146481 0.00686272 0.00187271 0 0 0 0 0 
224 0.0785597 0.898057 0.0146481 0.00686272 0.00187271 0 0 0 0 0 
225 0.128167 0.869663 0.00147442 0.000494136 0.000201408 0 0 0 0 0 
226 0.0786256 0.893656 0.0162235 0.0114945 0 0 0 0 0 0 
227 0.0683927 0.922504 0.00673394 0.00128544 0.00107703 6.77529e-06 0 0 0 0 
228 0.128861 0.868494 0.00179758 0.000602439 0.000245552 0 0 0 0 0 
229 0.0813116 0.886032 0.0259109 0.00332063 0.00161657 0.00180838 2.66898e-07 0 0 0 
230 0.0746518 0.893186 0.0255183 0.00327031 0.00159208 0.00178098 2.62854e-07 0 0 0 
231 0.0979847 0.866317 0.0236736 0.0120246 0 0 0 0 0 0 
232 0.070386 0.89929 0.0240601 0.00308344 0.0015011 0.00167921 2.47834e-07 0 0 0 
233 0.0746518 0.893186 0.0255183 0.00327031 0.00159208 0.00178098 2.62854e-07 0 0 0 
234 0.0962086 0.874159 0.0235427 0.00299779 0.0014594 0.00163257 2.4095e-07 0 0 0 
235 0.0731789 0.905039 0.0136448 0.00639267 0.00174445 0 0 0 0 0 
236 0.119599 0.874654 0.00447811 0.000833307 0.000435637 0 0 0 0 0 
237 0.0874618 0.908332 0.00327823 0.0006093 0.00031853 0 0 0 0 0 
238 0.0843882 0.885841 0.0229434 0.00536396 0.00146373 0 0 0 0 0 
239 0.123581 0.871648 0.00371942 0.000691035 0.00036126 0 0 0 0 0 
240 0.10036 0.895345 0.00334628 0.000622691 0.000325531 0 0 0 0 0 
241 0.0942628 0.872689 0.0193434 0.013705 0 0 0 0 0 0 
242 0.152429 0.840054 0.00556061 0.00106146 0.000889362 5.59475e-06 0 0 0 0 
243 0.0906009 0.886684 0.0142296 0.00666664 0.00181921 0 0 0 0 0 
244 0.148275 0.850937 0.000635787 7.57912e-05 7.57946e-05 0 0 0 0 0 
245 0.0712275 0.907571 0.013281 0.0062222 0.00169793 0 0 0 0 0 
246 0.0768282 0.909196 0.010338 0.00197343 0.00165346 1.04015e-05 0 0 0 0 
247 0.0867062 0.888611 0.0195838 0.00250978 0.00122183 0.0013668 2.01725e-07 0 0 0 
248 0.106459 0.8785 0.0137536 0.000845745 0.000442139 0 0 0 0 0 
249 0.0946052 0.873233 0.0255183 0.00327031 0.00159208 0.00178098 2.62854e-07 0 0 0 
250 0.0871838 0.897782 0.0111212 0.00212293 0.00177872 1.11895e-05 0 0 0 0 
251 0.130606 0.856397 0.0121913 0.000529578 0.000276853 0 0 0 0 0 
252 0.152261 0.821619 0.0235624 0.00138726 0.00116233 7.31195e-06 0 0 0 0 
253 0.097709 0.896909 0.00419997 0.000776231 0.000405799 0 0 0 0 0 
254 0.0925707 0.870035 0.0273236 0.00676356 0.00330681 0 0 0 0 0 
255 0.0840127 0.874339 0.0276192 0.0140287 0 0 0 0 0 0 
256 0.125035 0.852182 0.0199129 0.00155681 0.0013044 8.20563e-06 0 0 0 0 
257 0.140095 0.856608 0.00257167 0.000476175 0.000248935 0 0 0 0 0 
258 0.0821856 0.877967 0.0153243 0.0225638 0.00195926 0 0 0 0 0 
259 0.0990659 0.881617 0.0181182 0.000787012 0.000411435 0 0 0 0 0 
260 0.122066 0.872662 0.00413671 0.000745591 0.00038978 0 0 0 0 0 
261 0.28676 0.712696 0.000440745 5.18571e-05 5.18594e-05 0 0 0 0 0 
262 0.081753 0.904655 0.0100548 0.00191936 0.00160816 1.01165e-05 0 0 0 0 
263 0.0853052 0.872406 0.0280441 0.0142446 0 0 0 0 0 0 
264 0.0821856 0.893352 0.0153242 0.00717946 0.00195915 0 0 0 0 0 
265 0.194619 0.803725 0.00133702 0.000159384 0.000159391 0 0 0 0 0 
266 0.0821856 0.893352 0.0153242 0.00717946 0.00195915 0 0 0 0 0 
267 0.0758003 0.891543 0.0259109 0.00332063 0.00161657 0.00180838 2.66898e-07 0 0 0 
268 0.0792862 0.882239 0.0225192 0.0159551 0 0 0 0 0 0 
269 0.0746518 0.893186 0.0255183 0.00327031 0.00159208 0.00178098 2.62854e-07 0 0 0 
270 0.0919002 0.885055 0.0144358 0.00676326 0.00184557 0 0 0 0 0 
271 0.229434 0.76905 0.0012031 0.000205307 0.000107331 0 0 0 0 0 
272 0.0822001 0.893337 0.0153242 0.00717946 0.00195915 0 0 0 0 0 
273 0.233843 0.765433 0.000491607 0.000164712 6.71359e-05 0 0 0 0 0 
274 0.0821856 0.893352 0.0153242 0.00717946 0.00195915 0 0 0 0 0 
275 0.255701 0.736185 0.00769046 0.00030122 0.000122776 0 0 0 0 0 
276 0.100423 0.880419 0.0120009 0.00562247 0.00153427 0 0 0 0 0 
277 0.0758003 0.891543 0.0259109 0.00332063 0.00161657 0.00180838 2.66898e-07 0 0 0 
278 0.0949236 0.890485 0.0107941 0.00206049 0.00172641 1.08604e-05 0 0 0 0 
279 0.13262 0.865715 0.00113153 0.000379121 0.000154528 0 0 0 0 0 
280 0.101093 0.898788 0.000118335 0 0 0 0 0 0 0 
281 0.0739075 0.899551 0.0210604 0.00269801 0.00131346 0.00146931 2.16855e-07 0 0 0 
282 0.0817258 0.878616 0.0232122 0.016446 0 0 0 0 0 0 
283 0.166059 0.833712 0.000229509 0 0 0 0 0 0 0 
284 0.170904 0.827084 0.00136691 0.000458105 0.000186722 0 0 0 0 0 
285 0.0928261 0.869265 0.022188 0.0157205 0 0 0 0 0 0 
286 0.0821856 0.893352 0.0153242 0.00717946 0.00195915 0 0 0 0 0 
287 0.0657493 0.857054 0.0394536 0.0296224 0.00812007 0 0 0 0 0 
288 0.0758003 0.891543 0.0259109 0.00332063 0.00161657 0.00180838 2.66898e-07 0 0 0 
289 0.0821856 0.877969 0.0307073 0.00717946 0.00195915 0 0 0 0 0 
290 0.0847134 0.893799 0.0134604 0.00630628 0.00172087 0 0 0 0 0 
291 0.0714061 0.89783 0.0244088 0.00312813 0.00152286 0.00170355 2.51426e-07 0 0 0 
292 0.08392 0.900815 0.0112923 0.00215559 0.00180609 1.13616e-05 0 0 0 0 
293 0.0814173 0.903773 0.0109552 0.00209124 0.00175218 1.10225e-05 0 0 0 0 
294 0.081415 0.903775 0.0109552 0.00209124 0.00175218 1.10225e-05 0 0 0 0 
295 0.0797323 0.896535 0.0148668 0.00696515 0.00190066 0 0 0 0 0 
296 0.0853052 0.872406 0.0280441 0.0142446 0 0 0 0 0 0 
297 0.146703 0.849503 0.0029565 0.000550145 0.000287605 0 0 0 0 0 
298 0.0768282 0.909196 0.010338 0.00197343 0.00165346 1.04015e-05 0 0 0 0 
299 0.149196 0.849431 0.00110883 0.000132172 0.000132178 0 0 0 0 0 
300 0.127119 0.870271 0.00177329 0.000594298 0.000242234 0 0 0 0 0 
301 0.0779257 0.907899 0.0104857 0.00200162 0.00167708 1.05501e-05 0 0 0 0 
302 0.0802177 0.90519 0.0107941 0.00206049 0.00172641 1.08604e-05 0 0 0 0 
303 0.0758003 0.891543 0.0259109 0.00332063 0.00161657 0.00180838 2.66898e-07 0 0 0 
304 0.0797323 0.896535 0.0148668 0.00696515 0.00190066 0 0 0 0 0 
305 0.0724562 0.896328 0.0247677 0.00317413 0.00154525 0.0017286 2.55123e-07 0 0 0 
306 0.08392 0.900815 0.0112923 0.00215559 0.00180609 1.13616e-05 0 0 0 0 
307 0.0821856 0.893352 0.0153242 0.00717946 0.00195915 0 0 0 0 0 
308 0.0817258 0.878616 0.023212 0.016446 0 0 0 0 0 0 
309 0.109735 0.884253 0.00468479 0.000871768 0.000455743 0 0 0 0 0 
310 0.0853052 0.872406 0.0280441 0.0142446 0 0 0 0 0 0 
311 0.0797323 0.896535 0.0148668 0.00696515 0.00190066 0 0 0 0 0 
312 0.123374 0.875354 0.000864914 0.000289329 0.00011793 0 0 0 0 0 
313 0.129336 0.867693 0.00201882 0.000676586 0.000275774 0 0 0 0 0 
314 0.0817258 0.878616 0.023212 0.016446 0 0 0 0 0 0 
315 0.0991799 0.896054 0.00371355 0.000691035 0.00036126 0 0 0 0 0 
316 0.0809403 0.894968 0.015092 0.00707068 0.00192946 0 0 0 0 0 
317 0.0768429 0.909067 0.0104527 0.00197343 0.00165346 1.04015e-05 0 0 0 0 
318 0.126659 0.868456 0.00380639 0.000708311 0.000370291 0 0 0 0 0 
319 0.118893 0.875094 0.00468479 0.000871767 0.000455743 0 0 0 0 0 
320 0.0794205 0.878583 0.0306865 0.007596 0.0037138 0 0 0 0 0 
321 0.112955 0.881617 0.00422932 0.000787012 0.000411435 0 0 0 0 0 
322 0.109735 0.884253 0.00468479 0.000871768 0.000455743 0 0 0 0 0 
323 0.0758003 0.891543 0.0259109 0.00332063 0.00161657 0.00180838 2.66898e-07 0 0 0 
324 0.0879725 0.880811 0.0247677 0.00317413 0.00154525 0.0017286 2.55123e-07 0 0 0 
325 0.0720858 0.886546 0.0302301 0.00748091 0.00365753 0 0 0 0 0 
326 0.108451 0.885375 0.00462844 0.000839002 0.000702969 4.4222e-06 0 0 0 0 
327 0.103378 0.890959 0.00441321 0.00082123 0.000429323 0 0 0 0 0 
328 0.08392 0.900815 0.0112923 0.00215559 0.00180609 1.13616e-05 0 0 0 0 
329 0.0826485 0.902317 0.0111212 0.00212293 0.00177872 1.11895e-05 0 0 0 0 
330 0.0846715 0.875185 0.0293327 0.00726089 0.00354995 0 0 0 0 0 
331 0.0758003 0.891543 0.0259109 0.00332063 0.00161657 0.00180838 2.66898e-07 0 0 0 
332 0.172832 0.825436 0.00139873 0.000166741 0.000166748 0 0 0 0 0 
333 0.138336 0.858824 0.00192976 0.000646736 0.000263607 0 0 0 0 0 
334 0.0804875 0.880455 0.0228604 0.0161968 0 0 0 0 0 0 
335 0.136331 0.846378 0.016394 0.000637363 0.000259787 0 0 0 0 0 
336 0.10535 0.888986 0.00441321 0.00082123 0.000429323 0 0 0 0 0 
337 0.102619 0.892613 0.00371559 0.000691035 0.00036126 0 0 0 0 0 
338 0.132946 0.86558 0.00100171 0.00033571 0.000136834 0 0 0 0 0 
339 0.081415 0.903775 0.0109552 0.00209124 0.00175218 1.10225e-05 0 0 0 0 
340 0.070386 0.89929 0.0240601 0.00308344 0.0015011 0.00167921 2.47834e-07 0 0 0 
341 0.0838286 0.903285 0.00953243 0.00181965 0.00152462 9.591e-06 0 0 0 0 
342 0.0809403 0.894968 0.015092 0.00707068 0.00192946 0 0 0 0 0 
343 0.109735 0.884253 0.00468479 0.000871768 0.000455743 0 0 0 0 0 
344 0.0799675 0.882119 0.0277031 0.0068575 0.00335273 0 0 0 0 0 
345 0.0741953 0.90372 0.0138343 0.00648145 0.00176867 0 0 0 0 0 
346 0.0975075 0.897784 0.00366881 0.00068271 0.000356907 0 0 0 0 0 
347 0.0779257 0.907899 0.0104857 0.00200162 0.00167708 1.05501e-05 0 0 0 0 
348 0.152926 0.845666 0.00113647 0.000135477 0.000135483 0 0 0 0 0 
349 0.0826485 0.902317 0.0111212 0.00212293 0.00177872 1.11895e-05 0 0 0 0 
350 0.0821856 0.893352 0.0153242 0.00717946 0.00195915 0 0 0 0 0 
351 0.0733028 0.860057 0.043856 0.0227834 0 0 0 0 0 0 
352 0.0785599 0.898057 0.0146481 0.00686272 0.00187271 0 0 0 0 0 
353 0.120171 0.874687 0.00400673 0.000745591 0.00038978 0 0 0 0 0 
354 0.113146 0.882413 0.00346036 0.000643919 0.000336628 0 0 0 0 0 
355 0.0746518 0.893186 0.0255183 0.00327031 0.00159208 0.00178098 2.62854e-07 0 0 0 
356 0.114156 0.881857 0.00310726 0.000578213 0.000302279 0 0 0 0 0 
357 0.0839439 0.862918 0.0446385 0.00572495 0.00277468 0 0 0 0 0 
358 0.109735 0.884253 0.00468479 0.000871768 0.000455743 0 0 0 0 0 
359 0.0821856 0.893352 0.0153242 0.00717946 0.00195915 0 0 0 0 0 
360 0.0802177 0.90519 0.0107941 0.00206049 0.00172641 1.08604e-05 0 0 0 0 
361 0.0699656 0.889891 0.0293327 0.00726089 0.00354995 0 0 0 0 0 
362 0.0731948 0.884809 0.0306865 0.007596 0.0037138 0 0 0 0 0 
363 0.0941028 0.900755 0.00400687 0.000745591 0.00038978 0 0 0 0 0 
364 0.108072 0.886007 0.00461381 0.000858559 0.000448838 0 0 0 0 0 
365 0.0733028 0.860057 0.0438561 0.0227834 0 0 0 0 0 0 
366 0.106465 0.887702 0.00454495 0.000845745 0.000442139 0 0 0 0 0 
367 0.0699656 0.889891 0.0293327 0.00726089 0.00354995 0 0 0 0 0 
368 0.0710099 0.888248 0.0297705 0.00736926 0.00360294 0 0 0 0 0 
369 0.0843563 0.891911 0.0148669 0.00696514 0.00190066 0 0 0 0 0 
370 0.0383976 0.953661 0 0 0.0079405 0 0 0 0 0 
371 0.0844033 0.884381 0.0247677 0.00317413 0.00154525 0.0017286 2.55123e-07 0 0 0 
372 0.0809403 0.894968 0.015092 0.00707068 0.00192946 0 0 0 0 0 
373 0.0826485 0.902317 0.0111212 0.00212293 0.00177872 1.11895e-05 0 0 0 0 
374 0.0733028 0.860057 0.043856 0.0227834 0 0 0 0 0 0 
375 0.109735 0.884253 0.00468479 0.000871768 0.000455743 0 0 0 0 0 
376 0.0922115 0.893614 0.0104857 0.00200162 0.00167708 1.05501e-05 0 0 0 0 
377 0.0755007 0.903445 0.0139828 0.00555553 0.00151601 0 0 0 0 0 
378 0.106459 0.887708 0.00454495 0.000845745 0.000442139 0 0 0 0 0 
379 0.071727 0.851076 0.0394536 0.0296224 0.00812007 0 0 0 0 0 
380 0.0826637 0.885654 0.0251374 0.0032215 0.00156831 0.0017544 2.58931e-07 0 0 0 
381 0.127166 0.86955 0.00255892 0.000476176 0.000248935 0 0 0 0 0 
382 0.0746518 0.893186 0.0255183 0.00327031 0.00159208 0.00178098 2.62854e-07 0 0 0 
383 0.200543 0.799064 0.000318025 3.77636e-05 3.77652e-05 0 0 0 0 0 
384 0.101896 0.892521 0.00435016 0.000809498 0.00042319 0 0 0 0 0 
385 0.0853052 0.872406 0.0280441 0.0142446 0 0 0 0 0 0 
386 0.0776968 0.880307 0.0306865 0.007596 0.0037138 0 0 0 0 0 
387 0.11879 0.875289 0.00461381 0.000858559 0.000448838 0 0 0 0 0 
388 0.0781797 0.907645 0.0104857 0.00200162 0.00167708 1.05501e-05 0 0 0 0 
389 0.109735 0.884253 0.00468479 0.000871768 0.000455743 0 0 0 0 0 
390 0.108072 0.886007 0.00461381 0.000858559 0.000448838 0 0 0 0 0 
391 0.0758003 0.891543 0.0259109 0.00332063 0.00161657 0.00180838 2.66898e-07 0 0 0 
392 0.0826485 0.902317 0.0111212 0.00212293 0.00177872 1.11895e-05 0 0 0 0 
393 0.127376 0.869698 0.00198824 0.000666334 0.000271595 0 0 0 0 0 
394 0.088463 0.869199 0.0357937 0.0032215 0.00156831 0.0017544 2.58931e-07 0 0 0 
395 0.100404 0.894771 0.0037594 0.000699567 0.00036572 0 0 0 0 0 
396 0.108437 0.886353 0.00406015 0.000755532 0.000394977 0 0 0 0 0 
397 0.0946576 0.88161 0.0148668 0.00696515 0.00190066 0 0 0 0 0 
398 0.0781203 0.883971 0.022188 0.0157205 0 0 0 0 0 0 
399 0.082653 0.902309 0.0111255 0.00212293 0.00177872 1.11895e-05 0 0 0 0 
400 0.0785639 0.878258 0.0344431 0.00686272 0.00187271 0 0 0 0 0 
401 0.0659514 0.914418 0.0122972 0.00576129 0.00157215 0 0 0 0 0 
402 0.0837139 0.912974 0.00258069 0.000480211 0.000251045 0 0 0 0 0 
403 0.0817258 0.878616 0.023212 0.016446 0 0 0 0 0 0 
404 0.0970328 0.879895 0.0183066 0.0023461 0.00114214 0.00127766 1.88569e-07 0 0 0 
405 0.0774212 0.899534 0.0144358 0.00676326 0.00184557 0 0 0 0 0 
406 0.0785597 0.898057 0.0146481 0.00686272 0.00187271 0 0 0 0 0 
407 0.0735376 0.89478 0.0251374 0.0032215 0.00156831 0.0017544 2.58931e-07 0 0 0 
408 0.104893 0.88936 0.00447811 0.000833307 0.000435637 0 0 0 0 0 
409 0.0758003 0.891543 0.0259109 0.00332063 0.00161657 0.00180838 2.66898e-07 0 0 0 
410 0.0758003 0.891543 0.0259109 0.00332063 0.00161657 0.00180838 2.66898e-07 0 0 0 
411 0.184704 0.811711 0.00279368 0.000519861 0.000271773 0 0 0 0 0 
412 0.0710101 0.888247 0.0297705 0.00736926 0.00360294 0 0 0 0 0 
413 0.0834482 0.89563 0.0131062 0.00614033 0.00167559 0 0 0 0 0 
414 0.101659 0.893456 0.00380639 0.000708311 0.000370291 0 0 0 0 0 
415 0.111623 0.871094 0.0108269 0.00507244 0.00138418 0 0 0 0 0 
416 0.0884629 0.879855 0.0251374 0.0032215 0.00156831 0.0017544 2.58931e-07 0 0 0 
417 0.0864682 0.87822 0.0206683 0.0146437 0 0 0 0 0 0 
418 0.0778062 0.869822 0.042437 0.00667216 0.00326212 0 0 0 0 0 
419 0.0753749 0.902229 0.0140292 0.00657274 0.00179358 0 0 0 0 0 
420 0.0758003 0.891543 0.0259109 0.00332063 0.00161657 0.00180838 2.66898e-07 0 0 0 
421 0.0758003 0.891543 0.0259109 0.00332063 0.00161657 0.00180838 2.66898e-07 0 0 0 
422 0.0763152 0.900968 0.0142306 0.00666664 0.00181921 0 0 0 0 0 
423 0.0735376 0.89478 0.0251374 0.0032215 0.00156831 0.0017544 2.58931e-07 0 0 0 
424 0.0797323 0.896535 0.0148668 0.00696515 0.00190066 0 0 0 0 0 
425 0.0834444 0.876994 0.0289076 0.00715566 0.00349851 0 0 0 0 0 
426 0.0889041 0.873854 0.0221856 0.0150562 0 0 0 0 0 0 
427 0.124201 0.871032 0.00373925 0.000674582 0.000352658 0 0 0 0 0 
428 0.085388 0.874954 0.023212 0.016446 0 0 0 0 0 0 
429 0.0731948 0.884809 0.0306865 0.007596 0.0037138 0 0 0 0 0 
430 0.0768282 0.909196 0.010338 0.00197343 0.00165346 1.04015e-05 0 0 0 0 
431 0.095141 0.904648 0.000210718 0 0 0 0 0 0 0 
432 0.0799046 0.844068 0.0388559 0.0291736 0.00799704 0 0 0 0 0 
433 0.0817258 0.878616 0.023212 0.016446 0 0 0 0 0 0 
434 0.153152 0.845786 0.000857713 0.000102247 0.000102251 0 0 0 0 0 
435 0.10562 0.889305 0.00395469 0.000735908 0.000384718 0 0 0 0 0 
436 0.129336 0.867693 0.00201882 0.000676586 0.000275774 0 0 0 0 0 
437 0.121993 0.877659 0.000347741 0 0 0 0 0 0 0 
438 0.129336 0.867693 0.00201882 0.000676586 0.000275774 0 0 0 0 0 
439 0.0990665 0.895506 0.00422932 0.000787012 0.000411435 0 0 0 0 0 
440 0.0779257 0.907899 0.0104857 0.00200162 0.00167708 1.05501e-05 0 0 0 0 
441 0.0714061 0.89783 0.0244088 0.00312813 0.00152286 0.00170355 2.51426e-07 0 0 0 
442 0.0817258 0.878616 0.023212 0.016446 0 0 0 0 0 0 
443 0.0735213 0.860848 0.0431916 0.0224382 0 0 0 0 0 0 
444 0.109346 0.850817 0.0264184 0.0134188 0 0 0 0 0 0 
445 0.0817258 0.878616 0.023212 0.016446 0 0 0 0 0 0 
446 0.0757611 0.910458 0.0101944 0.00194602 0.0016305 1.0257e-05 0 0 0 0 
447 0.101896 0.892521 0.00435016 0.000809498 0.00042319 0 0 0 0 0 
448 0.120507 0.878438 0.000717107 0.000240317 9.79524e-05 0 0 0 0 0 
449 0.0746518 0.878035 0.0406658 0.00327444 0.00159208 0.00178098 2.62854e-07 0 0 0 
450 0.081415 0.903775 0.0109552 0.00209124 0.00175218 1.10225e-05 0 0 0 0 
451 0.0746312 0.893687 0.0251374 0.0032215 0.00156831 0.0017544 2.58931e-07 0 0 0 
452 0.112879 0.878783 0.00616805 0.00117742 0.000986519 6.20594e-06 0 0 0 0 
453 0.218327 0.779868 0.00122689 0.00041101 0.000167526 0 0 0 0 0 
454 0.0842702 0.887045 0.0227595 0.00291677 0.00141996 0.00158845 2.34438e-07 0 0 0 
455 0.0769743 0.895458 0.0218728 0.00280313 0.00136464 0.00152656 2.25304e-07 0 0 0 
456 0.0787171 0.909182 0.0089512 0.0017087 0.00143166 9.00618e-06 0 0 0 0 
457 0.139736 0.85615 0.00320584 0.000596472 0.000311824 0 0 0 0 0 
458 0.136863 0.862094 0.00084183 0.000100353 0.000100358 0 0 0 0 0 
459 0.0724562 0.896328 0.0247677 0.00317413 0.00154525 0.0017286 2.55123e-07 0 0 0 
460 0.10778 0.889744 0.00168235 0.000563821 0.000229811 0 0 0 0 0 
461 0.0647531 0.85922 0.0388559 0.0291736 0.00799704 0 0 0 0 0 
462 0.111375 0.883859 0.00371355 0.000691035 0.00036126 0 0 0 0 0 
463 0.0679453 0.92161 0.0077263 0.00147488 0.00123574 7.77376e-06 0 0 0 0 
464 0.135882 0.86017 0.00307598 0.000572373 0.000299225 0 0 0 0 0 
465 0.0869847 0.908248 0.00371447 0.000691035 0.00036126 0 0 0 0 0 
466 0.0724562 0.896328 0.0247678 0.00317413 0.00154525 0.0017286 2.55123e-07 0 0 0 
467 0.0890895 0.886448 0.0153242 0.00717946 0.00195915 0 0 0 0 0 
468 0.0906009 0.886684 0.0142296 0.00666664 0.00181921 0 0 0 0 0 
469 0.0899759 0.880542 0.0233917 0.00299779 0.0014594 0.00163257 2.4095e-07 0 0 0 
470 0.0821856 0.893352 0.0153242 0.00717946 0.00195915 0 0 0 0 0 
471 0.0985532 0.901167 0.000279889 0 0 0 0 0 0 0 
472 0.08392 0.900815 0.0112923 0.00215559 0.00180609 1.13616e-05 0 0 0 0 
473 0.078338 0.902031 0.0122972 0.00576129 0.00157215 0 0 0 0 0 
474 0.0758003 0.891543 0.0259109 0.00332063 0.00161657 0.00180838 2.66898e-07 0 0 0 
475 0.136361 0.859248 0.00342148 0.000636684 0.000332846 0 0 0 0 0 
476 0.080251 0.901042 0.0117185 0.00549017 0.00149817 0 0 0 0 0 
477 0.0734578 0.914058 0.00987552 0.00141529 0.00118582 7.45967e-06 0 0 0 0 
478 0.109206 0.890484 0.000310147 0 0 0 0 0 0 0 
479 0.0629615 0.931484 0.00555408 0 0 0 0 0 0 0 
480 0.07277 0.891918 0.0206683 0.0146437 0 0 0 0 0 0 
481 0.0746518 0.893186 0.0255183 0.00327031 0.00159208 0.00178098 2.62854e-07 0 0 0 
482 0.156029 0.842407 0.00126274 0.00015053 0.000150536 0 0 0 0 0 
483 0.152926 0.845666 0.00113647 0.000135477 0.000135483 0 0 0 0 0 
484 0.0959646 0.896403 0.00564614 0.00107779 0.000903044 5.68082e-06 0 0 0 0 
485 0.147904 0.851003 0.000882695 0.000105225 0.000105229 0 0 0 0 0 
486 0.0840127 0.859188 0.0276193 0.0291802 0 0 0 0 0 0 
487 0.103115 0.865203 0.0251374 0.0032215 0.00156831 0.0017544 2.58931e-07 0 0 0 
488 0.0817279 0.878614 0.023212 0.016446 0 0 0 0 0 0 
489 0.106949 0.872665 0.0127702 0.00598288 0.00163262 0 0 0 0 0 
490 0.109902 0.884817 0.00411507 0.000765742 0.000400315 0 0 0 0 0 
491 0.0960883 0.892636 0.00834088 0.0015922 0.00133404 8.39212e-06 0 0 0 0 
492 0.0853052 0.872406 0.0280441 0.0142446 0 0 0 0 0 0 
493 0.0714061 0.883338 0.0389015 0.00312813 0.00152286 0.00170355 2.51426e-07 0 0 0 
494 0.0802177 0.90519 0.0107941 0.00206049 0.00172641 1.08604e-05 0 0 0 0 
495 0.0617878 0.902761 0.0259042 0.00641221 0.00313502 0 0 0 0 0 
496 0.0906009 0.886684 0.0142297 0.00666664 0.00181921 0 0 0 0 0 
497 0.113335 0.884338 0.00158102 0.000529856 0.000215967 0 0 0 0 0 
498 0.0735376 0.879855 0.0400627 0.0032215 0.00156831 0.0017544 2.58931e-07 0 0 0 
499 0.109735 0.884253 0.00468479 0.000871768 0.000455743 0 0 0 0 0 
500 0.151812 0.846167 0.00172789 0.000146461 0.000146468 0 0 0 0 0 
501 0.0746518 0.893186 0.0255183 0.00327031 0.00159208 0.00178098 2.62854e-07 0 0 0 
502 0.104633 0.856893 0.0225192 0.0159551 0 0 0 0 0 0 
503 0.0849334 0.902011 0.00965786 0.0018436 0.00154468 9.7172e-06 0 0 0 0 
504 0.0932656 0.883351 0.0146481 0.00686272 0.00187271 0 0 0 0 0 
505 0.090174 0.873001 0.021554 0.0152713 0 0 0 0 0 0 
506 0.101448 0.863319 0.0302501 0.00245274 0.00119406 0.00133574 1.97141e-07 0 0 0 
507 0.0758003 0.891543 0.0259109 0.00332063 0.00161657 0.00180838 2.66898e-07 0 0 0 
508 0.0724562 0.896328 0.0247677 0.00317413 0.00154525 0.0017286 2.55123e-07 0 0 0 
509 0.0790551 0.906565 0.0106376 0.00203063 0.00170139 1.0703e-05 0 0 0 0 
510 0.0949236 0.890485 0.0107942 0.00206049 0.00172641 1.08604e-05 0 0 0 0 
511 0.0731948 0.884809 0.0306865 0.007596 0.0037138 0 0 0 0 0 
512 0.106459 0.887708 0.00454495 0.000845745 0.000442139 0 0 0 0 0 
513 0.113099 0.881154 0.00447811 0.000833307 0.000435637 0 0 0 0 0 
514 0.128609 0.868619 0.00215966 0.000401879 0.000210094 0 0 0 0 0 
515 0.0827588 0.876215 0.027207 0.0138194 0 0 0 0 0 0 
516 0.0858988 0.883338 0.0244088 0.00312813 0.00152286 0.00170355 2.51426e-07 0 0 0 
517 0.0735376 0.889593 0.0303245 0.0032215 0.00156831 0.0017544 2.58931e-07 0 0 0 
518 0.0817258 0.878616 0.023212 0.016446 0 0 0 0 0 0 
519 0.0785597 0.898057 0.0146481 0.00686272 0.00187271 0 0 0 0 0 
520 0.0884219 0.897986 0.0100548 0.00191936 0.00160816 1.01165e-05 0 0 0 0 
521 0.0720858 0.886554 0.0302215 0.00748091 0.00365753 0 0 0 0 0 
522 0.109735 0.884253 0.00468479 0.000871768 0.000455743 0 0 0 0 0 
523 0.0922115 0.865042 0.0247714 0.00200197 0.0152612 0.000711822 0 0 0 0 
524 0.0785597 0.898057 0.0146481 0.00686272 0.00187271 0 0 0 0 0 
525 0.102083 0.88664 0.00834194 0.0015922 0.00133404 8.39212e-06 0 0 0 0 
526 0.0733028 0.846027 0.0578865 0.0227834 0 0 0 0 0 0 
527 0.0733028 0.860057 0.043856 0.0227834 0 0 0 0 0 0 
528 0.0746518 0.878037 0.0406673 0.00327031 0.00159208 0.00178098 2.62854e-07 0 0 0 
529 0.08036 0.879803 0.0264184 0.0134188 0 0 0 0 0 0 
530 0.0758003 0.891543 0.0259109 0.00332063 0.00161657 0.00180838 2.66898e-07 0 0 0 
531 0.105679 0.866019 0.0224561 0.00287788 0.00140103 0.00156727 2.31312e-07 0 0 0 
532 0.0758003 0.891543 0.0259109 0.00332063 0.00161657 0.00180838 2.66898e-07 0 0 0 
533 0.0747233 0.911684 0.0100548 0.00191936 0.00160816 1.01165e-05 0 0 0 0 
534 0.0963884 0.898331 0.00411502 0.000765742 0.000400315 0 0 0 0 0 
535 0.100461 0.894035 0.00428889 0.000798097 0.00041723 0 0 0 0 0 
536 0.081415 0.903775 0.0109552 0.00209124 0.00175218 1.10225e-05 0 0 0 0 
537 0.0817258 0.878616 0.023212 0.016446 0 0 0 0 0 0 
538 0.0733029 0.860057 0.043856 0.0227834 0 0 0 0 0 0 
539 0.0834791 0.886624 0.0237212 0.00304001 0.00147996 0.00165556 2.44343e-07 0 0 0 
540 0.0826485 0.902317 0.0111212 0.00212293 0.00177872 1.11895e-05 0 0 0 0 
541 0.12133 0.845553 0.0219623 0.0111554 0 0 0 0 0 0 
542 0.0821856 0.893352 0.0153242 0.00717946 0.00195915 0 0 0 0 0 
543 0.0731948 0.883005 0.0324907 0.007596 0.0037138 0 0 0 0 0 
544 0.0792862 0.882239 0.0225192 0.0159551 0 0 0 0 0 0 
545 0.137561 0.860715 0.00117164 0.000392661 0.000160047 0 0 0 0 0 
546 0.0731948 0.884809 0.0306865 0.007596 0.0037138 0 0 0 0 0 
547 0.0817258 0.878616 0.023212 0.016446 0 0 0 0 0 0 
548 0.0710099 0.888248 0.0297705 0.00736926 0.00360294 0 0 0 0 0 
549 0.0891604 0.868551 0.0280441 0.0142446 0 0 0 0 0 0 
550 0.101366 0.889853 0.00649558 0.00123994 0.0010389 6.53546e-06 0 0 0 0 
551 0.0834791 0.886624 0.0237212 0.00304001 0.00147996 0.00165556 2.44343e-07 0 0 0 
552 0.0752403 0.902302 0.0140913 0.00657274 0.00179358 0 0 0 0 0 
553 0.0349736 0.957205 0 0 0.00782019 0 0 0 0 0 
554 0.0977539 0.900001 0.00152586 0.000511373 0.000208434 0 0 0 0 0 
555 0.0823197 0.888198 0.0233917 0.00299779 0.0014594 0.00163257 2.4095e-07 0 0 0 
556 0.0718205 0.850983 0.0394536 0.0296224 0.00812007 0 0 0 0 0 
557 0.0847748 0.851525 0.0419212 0.0217782 0 0 0 0 0 0 
558 0.0731948 0.884809 0.0306865 0.007596 0.0037138 0 0 0 0 0 
559 0.08392 0.900815 0.0112923 0.00215559 0.00180609 1.13616e-05 0 0 0 0 
560 0.070386 0.89929 0.0240601 0.00308344 0.0015011 0.00167921 2.47834e-07 0 0 0 
561 0.068185 0.919412 0.00917497 0.00175142 0.00146745 9.23134e-06 0 0 0 0 
562 0.0976842 0.86129 0.027207 0.0138194 0 0 0 0 0 0 
563 0.12363 0.87353 0.00192976 0.000646736 0.000263607 0 0 0 0 0 
564 0.104893 0.889359 0.0044782 0.000833307 0.000435637 0 0 0 0 0 
565 0.0344516 0.957844 0 0 0.00770347 0 0 0 0 0 
566 0.0884175 0.875276 0.0212505 0.0150562 0 0 0 0 0 0 
567 0.0714061 0.89783 0.0244088 0.00312813 0.00152286 0.00170355 2.51426e-07 0 0 0 
568 0.0799527 0.882134 0.0277032 0.0068575 0.00335273 0 0 0 0 0 
569 0.0834791 0.886624 0.0237212 0.00304001 0.00147996 0.00165556 2.44343e-07 0 0 0 
570 0.0792862 0.882239 0.0225192 0.0159551 0 0 0 0 0 0 
571 0.109735 0.884253 0.00468479 0.000871768 0.000455743 0 0 0 0 0 
572 0.0853052 0.872406 0.0280441 0.0142446 0 0 0 0 0 0 
573 0.0731948 0.884809 0.0306865 0.007596 0.0037138 0 0 0 0 0 
574 0.08392 0.900815 0.0112923 0.00215559 0.00180609 1.13616e-05 0 0 0 0 
575 0.0714227 0.889016 0.0289076 0.00715566 0.00349851 0 0 0 0 0 
576 0.0323417 0.960866 0 0 0.00679122 0 0 0 0 0 
577 0.0802177 0.90519 0.0107941 0.00206049 0.00172641 1.08604e-05 0 0 0 0 
578 0.0758003 0.891543 0.0259109 0.00332063 0.00161657 0.00180838 2.66898e-07 0 0 0 
579 0.0821856 0.893352 0.0153242 0.00717946 0.00195915 0 0 0 0 0 
580 0.101896 0.892521 0.00435016 0.000809498 0.00042319 0 0 0 0 0 
581 0.120615 0.879042 0.000342551 0 0 0 0 0 0 0 
582 0.0785597 0.898057 0.0146481 0.00686272 0.00187271 0 0 0 0 0 
583 0.0817258 0.863231 0.035544 0.0194986 0 0 0 0 0 0 
584 0.0962222 0.874296 0.0233917 0.00299779 0.0014594 0.00163257 2.4095e-07 0 0 0 
585 0.0763152 0.900969 0.0142296 0.00666664 0.00181921 0 0 0 0 0 
586 0.0804875 0.880455 0.0228604 0.0161968 0 0 0 0 0 0 
587 0.0817258 0.878616 0.023212 0.016446 0 0 0 0 0 0 
588 0.0648292 0.907241 0.0221606 0.00284001 0.00138259 0.00154664 2.28268e-07 0 0 0 
589 0.129336 0.867693 0.00201882 0.000676586 0.000275774 0 0 0 0 0 
590 0.0320591 0.960772 0 0 0.00716851 0 0 0 0 0 
591 0.0817258 0.878616 0.023212 0.016446 0 0 0 0 0 0 
592 0.0758004 0.891543 0.0259109 0.00332063 0.00161657 0.00180838 2.66898e-07 0 0 0 
593 0.104136 0.895527 0.000337646 0 0 0 0 0 0 0 
594 0.08392 0.900815 0.0112923 0.00215559 0.00180609 1.13616e-05 0 0 0 0 
595 0.109735 0.884253 0.00468479 0.000871768 0.000455743 0 0 0 0 0 
596 0.0797323 0.896535 0.0148668 0.00696515 0.00190066 0 0 0 0 0 
597 0.2379 0.635784 0.0703976 0.0559177 0 0 0 0 0 0 
598 0.094349 0.883567 0.0138343 0.00648145 0.00176867 0 0 0 0 0 
599 0.116182 0.878235 0.00435017 0.000809498 0.00042319 0 0 0 0 0 
600 0.0731948 0.884809 0.0306865 0.007596 0.0037138 0 0 0 0 0 
601 0.0733028 0.857159 0.0467544 0.0227834 0 0 0 0 0 0 
602 0.125087 0.870522 0.00342148 0.000636684 0.000332846 0 0 0 0 0 
603 0.174773 0.823619 0.00129882 0.000154831 0.000154837 0 0 0 0 0 
604 0.0721086 0.886521 0.0302319 0.00748091 0.00365753 0 0 0 0 0 
605 0.0710374 0.887977 0.0300131 0.00736926 0.00360294 0 0 0 0 0 
606 0.0959121 0.890239 0.0138485 0 0 0 0 0 0 0 
607 0.0861012 0.874631 0.026041 0.0132271 0 0 0 0 0 0 
608 0.109735 0.884253 0.00468479 0.000871768 0.000455743 0 0 0 0 0 
609 0.104893 0.875108 0.01873 0.000833307 0.000435637 0 0 0 0 0 
610 0.0894141 0.910465 0.000120795 0 0 0 0 0 0 0 
611 0.0990966 0.878188 0.0142296 0.00666664 0.00181921 0 0 0 0 0 
612 0.0758003 0.891543 0.0259109 0.00332063 0.00161657 0.00180838 2.66898e-07 0 0 0 
613 0.0735376 0.892004 0.0279141 0.0032215 0.00156831 0.0017544 2.58931e-07 0 0 0 
614 0.114546 0.87995 0.00428889 0.000798097 0.00041723 0 0 0 0 0 
615 0.0804882 0.865303 0.0228983 0.0313104 0 0 0 0 0 0 
616 0.0976842 0.86129 0.027207 0.0138194 0 0 0 0 0 0 
617 0.0700689 0.866231 0.0419212 0.0217782 0 0 0 0 0 0 
618 0.0774219 0.899533 0.0144358 0.00676326 0.00184557 0 0 0 0 0 
619 0.116177 0.87824 0.00435016 0.000809498 0.00042319 0 0 0 0 0 
620 0.0746518 0.893186 0.0255183 0.00327031 0.00159208 0.00178098 2.62854e-07 0 0 0 
621 0.081415 0.903775 0.0109552 0.00209124 0.00175218 1.10225e-05 0 0 0 0 
622 0.0785597 0.898057 0.0146481 0.00686272 0.00187271 0 0 0 0 0 
623 0.315833 0.683356 0.00065422 7.79722e-05 7.79757e-05 0 0 0 0 0 
624 0.0840127 0.874339 0.0276192 0.0140287 0 0 0 0 0 0 
625 0.0710099 0.888248 0.0297705 0.00736926 0.00360294 0 0 0 0 0 
626 0.0758003 0.891543 0.0259109 0.00332063 0.00161657 0.00180838 2.66898e-07 0 0 0 
627 0.0731948 0.884809 0.0306865 0.007596 0.0037138 0 0 0 0 0 
628 0.0774212 0.899534 0.0144358 0.00676326 0.00184557 0 0 0 0 0 
629 0.0746518 0.878 0.0407048 0.00327031 0.00159208 0.00178098 2.62854e-07 0 0 0 
630 0.0851491 0.911567 0.00255915 0.000476175 0.000248935 0 0 0 0 0 
631 0.0922115 0.893614 0.0104857 0.00200162 0.00167708 1.05501e-05 0 0 0 0 
632 0.129336 0.867693 0.00201882 0.000676586 0.000275774 0 0 0 0 0 
633 0.0758003 0.891543 0.0259109 0.00332063 0.00161657 0.00180838 2.66898e-07 0 0 0 
634 0.0758003 0.891543 0.0259109 0.00332063 0.00161657 0.00180838 2.66898e-07 0 0 0 
635 0.114884 0.854352 0.0244088 0.00312813 0.00152286 0.00170355 2.51426e-07 0 0 0 
636 0.0998909 0.859367 0.0297705 0.00736926 0.00360294 0 0 0 0 0 
637 0.108072 0.886007 0.00461381 0.000858559 0.000448838 0 0 0 0 0 
638 0.0821856 0.893352 0.0153242 0.00717946 0.00195915 0 0 0 0 0 
639 0.108437 0.886352 0.00406015 0.000755532 0.000394977 0 0 0 0 0 
640 0.0735376 0.89478 0.0251374 0.0032215 0.00156831 0.0017544 2.58931e-07 0 0 0 
641 0.0809403 0.894968 0.015092 0.00707068 0.00192946 0 0 0 0 0 
642 0.106459 0.887708 0.00454495 0.000845745 0.000442139 0 0 0 0 0 
643 0.122794 0.86432 0.00953244 0.00181965 0.00152462 9.591e-06 0 0 0 0 
644 0.0906009 0.886684 0.0142296 0.00666664 0.00181921 0 0 0 0 0 
645 0.0815418 0.863317 0.0415249 0.0136161 0 0 0 0 0 0 
646 0.0792862 0.882239 0.0225192 0.0159551 0 0 0 0 0 0 
647 0.0768408 0.909184 0.010338 0.00197343 0.00165346 1.04015e-05 0 0 0 0 
648 0.10918 0.888312 0.0017042 0.000571144 0.000232796 0 0 0 0 0 
649 0.127973 0.850245 0.0136448 0.00639267 0.00174445 0 0 0 0 0 
650 0.0758003 0.891543 0.0259109 0.00332063 0.00161657 0.00180838 2.66898e-07 0 0 0 
651 0.0758003 0.891543 0.0259109 0.00332063 0.00161657 0.00180838 2.66898e-07 0 0 0 
652 0.0750597 0.901778 0.0201593 0.00162922 0.00136507 8.58729e-06 0 0 0 0 
653 0.113 0.86013 0.0213191 0.00273216 0.00133009 0.00148791 2.196e-07 0 0 0 
654 0.0681864 0.91941 0.00917509 0.00175142 0.00146745 9.23134e-06 0 0 0 0 
655 0.0898033 0.878035 0.0255183 0.00327031 0.00159208 0.00178098 2.62854e-07 0 0 0 
656 0.0699656 0.889891 0.0293327 0.00726089 0.00354995 0 0 0 0 0 
657 0.0804875 0.880455 0.0228604 0.0161968 0 0 0 0 0 0 
658 0.0853052 0.872406 0.0280441 0.0142446 0 0 0 0 0 0 
659 0.0841623 0.881467 0.0201171 0.0142532 0 0 0 0 0 0 
660 0.129336 0.867693 0.00201882 0.000676586 0.000275774 0 0 0 0 0 
661 0.0821856 0.893352 0.0153242 0.00717946 0.00195915 0 0 0 0 0 
662 0.0840127 0.859188 0.0276193 0.0291802 0 0 0 0 0 0 
663 0.0978 0.887166 0.0111212 0.00212293 0.00177872 1.11895e-05 0 0 0 0 
664 0.0797323 0.896535 0.0148668 0.00696515 0.00190066 0 0 0 0 0 
665 0.08392 0.900815 0.0112923 0.00215559 0.00180609 1.13616e-05 0 0 0 0 
666 0.0867589 0.87779 0.0259043 0.00641221 0.00313502 0 0 0 0 0 
667 0.08392 0.900815 0.0112923 0.00215559 0.00180609 1.13616e-05 0 0 0 0 
668 0.0932656 0.883351 0.0146481 0.00686272 0.00187271 0 0 0 0 0 
669 0.0804875 0.880455 0.0228604 0.0161968 0 0 0 0 0 0 
670 0.0821856 0.893352 0.0153242 0.00717946 0.00195915 0 0 0 0 0 
671 0.151812 0.846666 0.00122862 0.000146461 0.000146468 0 0 0 0 0 
672 0.0821856 0.877967 0.0307087 0.00717946 0.00195915 0 0 0 0 0 
673 0.0735376 0.89478 0.0251374 0.0032215 0.00156831 0.0017544 2.58931e-07 0 0 0 
674 0.100461 0.894035 0.00428889 0.000798097 0.00041723 0 0 0 0 0 
675 0.121838 0.875363 0.00190179 0.000637363 0.000259787 0 0 0 0 0 
676 0.08392 0.900815 0.0112923 0.00215559 0.00180609 1.13616e-05 0 0 0 0 
677 0.125475 0.871642 0.00195856 0.000656389 0.000267542 0 0 0 0 0 
678 0.0821856 0.893352 0.0153242 0.00717946 0.00195915 0 0 0 0 0 
679 0.0785597 0.898035 0.0146694 0.00686272 0.00187271 0 0 0 0 0 
680 0.0853052 0.872406 0.0280441 0.0142446 0 0 0 0 0 0 
681 0.0889136 0.882008 0.0230713 0.00295672 0.00143941 0.0016102 2.37649e-07 0 0 0 
682 0.0758003 0.891543 0.0259109 0.00332063 0.00161657 0.00180838 2.66898e-07 0 0 0 
683 0.0758003 0.891543 0.0259109 0.00332063 0.00161657 0.00180838 2.66898e-07 0 0 0 
684 0.101836 0.895892 0.00154382 0.000517389 0.000210886 0 0 0 0 0 
685 0.106459 0.887708 0.00454495 0.000845745 0.000442139 0 0 0 0 0 
686 0.0731789 0.891338 0.0154703 0.0182654 0.00174771 0 0 0 0 0 
687 0.127377 0.869697 0.00198824 0.000666334 0.000271595 0 0 0 0 0 
688 0.0821856 0.893352 0.0153243 0.00717946 0.00195915 0 0 0 0 0 
689 0.077422 0.899533 0.0144358 0.00676326 0.00184557 0 0 0 0 0 
690 0.0821856 0.893352 0.0153242 0.00717946 0.00195915 0 0 0 0 0 
691 3.30437e-05 0.901505 0 0 0.0984615 0 0 0 0 0 
692 0.0909006 0.870922 0.0253176 0.0128597 0 0 0 0 0 0 
693 0.0884443 0.892398 0.0120009 0.00562247 0.00153427 0 0 0 0 0 
694 0.095988 0.902041 0.00133902 0.000448756 0.000182911 0 0 0 0 0 
695 0.089201 0.871141 0.023212 0.016446 0 0 0 0 0 0 
696 0.16752 0.831055 0.00115086 0.000137192 0.000137198 0 0 0 0 0 
697 0.070386 0.89929 0.0240601 0.00308344 0.0015011 0.00167921 2.47834e-07 0 0 0 
698 0.08392 0.900815 0.0112923 0.00215559 0.00180609 1.13616e-05 0 0 0 0 
699 0.0720858 0.886554 0.0302215 0.00748091 0.00365753 0 0 0 0 0 
700 0.0344516 0.957844 0 0 0.00770347 0 0 0 0 0 
701 0.0802179 0.895739 0.0202456 0.00206049 0.00172641 1.08604e-05 0 0 0 0 
702 0.108846 0.867827 0.0185078 0.00237188 0.00115469 0.0012917 1.90642e-07 0 0 0 
703 0.0978941 0.880905 0.013281 0.0062222 0.00169793 0 0 0 0 0 
704 0.0963403 0.88885 0.0109552 0.00209124 0.00175218 1.10225e-05 0 0 0 0 
705 0.0949261 0.890482 0.0107941 0.00206049 0.00172641 1.08604e-05 0 0 0 0 
706 0.0355116 0.956547 0 0 0.0079405 0 0 0 0 0 
707 0.0731948 0.884809 0.0306865 0.007596 0.0037138 0 0 0 0 0 
708 0.109735 0.884253 0.00468479 0.000871768 0.000455743 0 0 0 0 0 
709 0.0817258 0.878616 0.023212 0.016446 0 0 0 0 0 0 
710 0.0758003 0.891543 0.0259109 0.00332063 0.00161657 0.00180838 2.66898e-07 0 0 0 
711 0.0827588 0.86129 0.0272071 0.0287446 0 0 0 0 0 0 
712 0.0925707 0.870035 0.0273236 0.00676356 0.00330681 0 0 0 0 0 
713 0.0808549 0.887463 0.0251374 0.0032215 0.00156831 0.0017544 2.58931e-07 0 0 0 
714 0.0758003 0.876344 0.0411095 0.00332063 0.00161657 0.00180838 2.66898e-07 0 0 0 
715 0.225616 0.648068 0.0703976 0.0559177 0 0 0 0 0 0 
716 0.120098 0.877144 0.00187462 0.000628258 0.000256076 0 0 0 0 0 
717 0.0768291 0.909196 0.010338 0.00197343 0.00165346 1.04015e-05 0 0 0 0 
718 0.0739351 0.884492 0.0368895 0.0023144 0.00111784 0.00125048 1.84557e-07 0 0 0 
719 0.0746518 0.893186 0.0255183 0.00327031 0.00159208 0.00178098 2.62854e-07 0 0 0 
720 0.0821856 0.893352 0.0153242 0.00717946 0.00195915 0 0 0 0 0 
721 0.08392 0.900815 0.0112923 0.00215559 0.00180609 1.13616e-05 0 0 0 0 
722 0.0821856 0.893352 0.0153242 0.00717946 0.00195915 0 0 0 0 0 
723 0.142582 0.854773 0.00179792 0.000602439 0.000245552 0 0 0 0 0 
724 0.109735 0.884253 0.00468479 0.000871768 0.000455743 0 0 0 0 0 
725 0.127376 0.869698 0.00198824 0.000666334 0.000271595 0 0 0 0 0 
726 0.0731948 0.884809 0.0306865 0.007596 0.0037138 0 0 0 0 0 
727 0.081415 0.903775 0.0109552 0.00209124 0.00175218 1.10225e-05 0 0 0 0 
728 0.0797323 0.896535 0.0148668 0.00696515 0.00190066 0 0 0 0 0 
729 0.083834 0.90278 0.0100323 0.00181965 0.00152462 9.591e-06 0 0 0 0 
730 0.0720858 0.886554 0.0302215 0.00748091 0.00365753 0 0 0 0 0 
731 0.0768282 0.909196 0.010338 0.00197343 0.00165346 1.04015e-05 0 0 0 0 
732 0.0657493 0.857054 0.0394536 0.0296224 0.00812007 0 0 0 0 0 
733 0.0840127 0.859296 0.0426622 0.0140287 0 0 0 0 0 0 
734 0.0673432 0.920407 0.0090617 0.00172979 0.00144933 9.11737e-06 0 0 0 0 
735 0.0731948 0.884809 0.0306865 0.007596 0.0037138 0 0 0 0 0 
736 0.0860401 0.849309 0.0425469 0.0221033 0 0 0 0 0 0 
737 0.0804186 0.91648 0.00241676 0.000449721 0.000235106 0 0 0 0 0 
738 0.111408 0.86954 0.01787 0.000776231 0.000405799 0 0 0 0 0 
739 0.0813448 0.892888 0.0181519 0.00598288 0.00163262 0 0 0 0 0 
740 0.0731948 0.884809 0.0306865 0.007596 0.0037138 0 0 0 0 0 
741 0.10701 0.887848 0.00400673 0.000745591 0.00038978 0 0 0 0 0 
742 0.0809403 0.894968 0.015092 0.00707068 0.00192946 0 0 0 0 0 
743 0.087162 0.881622 0.0247677 0.00317413 0.00154525 0.0017286 2.55123e-07 0 0 0 
744 0.0731948 0.884809 0.0306865 0.007596 0.0037138 0 0 0 0 0 
745 0.0821856 0.893352 0.0153242 0.00717946 0.00195915 0 0 0 0 0 
746 0.0817258 0.878616 0.023212 0.016446 0 0 0 0 0 0 
747 0.101867 0.866917 0.0247677 0.00317413 0.00154525 0.0017286 2.55123e-07 0 0 0 
748 0.0809403 0.894968 0.015092 0.00707068 0.00192946 0 0 0 0 0 
749 0.180684 0.81662 0.00210038 0.000390792 0.000204299 0 0 0 0 0 
750 0.0817258 0.878616 0.023212 0.016446 0 0 0 0 0 0 
751 0.109735 0.884253 0.00468479 0.000871768 0.000455743 0 0 0 0 0 
752 0.0758003 0.891543 0.0259109 0.00332063 0.00161657 0.00180838 2.66898e-07 0 0 0 
753 0.0857035 0.892809 0.0134604 0.00630628 0.00172087 0 0 0 0 0 
754 0.0991665 0.859185 0.0276193 0.0140287 0 0 0 0 0 0 
755 0.0670093 0.894544 0.0280933 0.00695409 0.00339996 0 0 0 0 0 
756 0.0758003 0.891543 0.0259109 0.00332063 0.00161657 0.00180838 2.66898e-07 0 0 0 
757 0.0846717 0.870923 0.0381409 0.00308344 0.0015011 0.00167921 2.47834e-07 0 0 0 
758 0.051801 0.920625 0.0201483 0.00498727 0.00243835 0 0 0 0 0 
759 0.0909129 0.895112 0.010338 0.00197343 0.00165346 1.04015e-05 0 0 0 0 
760 0.0922114 0.893614 0.0104857 0.00200162 0.00167708 1.05501e-05 0 0 0 0 
761 0.08392 0.900815 0.0112923 0.00215559 0.00180609 1.13616e-05 0 0 0 0 
762 0.070386 0.89929 0.0240601 0.00308344 0.0015011 0.00167921 2.47834e-07 0 0 0 
763 0.0821856 0.893352 0.0153242 0.00717946 0.00195915 0 0 0 0 0 
764 0.0746518 0.893186 0.0255183 0.00327031 0.00159208 0.00178098 2.62854e-07 0 0 0 
765 0.123223 0.870855 0.00461381 0.000858559 0.000448838 0 0 0 0 0 
766 0.136331 0.86087 0.00190179 0.000637363 0.000259787 0 0 0 0 0 
767 0.0792862 0.882239 0.0225192 0.0159551 0 0 0 0 0 0 
768 0.08392 0.900815 0.0112923 0.00215559 0.00180609 1.13616e-05 0 0 0 0 
769 0.0731948 0.884809 0.0306865 0.007596 0.0037138 0 0 0 0 0 
770 0.0810938 0.880459 0.0280933 0.00695409 0.00339996 0 0 0 0 0 
771 0.0710099 0.888248 0.0297705 0.00736926 0.00360294 0 0 0 0 0 
772 0.0699656 0.889891 0.0293327 0.00726089 0.00354995 0 0 0 0 0 
773 0.0853052 0.872406 0.0280441 0.0142446 0 0 0 0 0 0 
774 0.0774212 0.899534 0.0144359 0.00676326 0.00184557 0 0 0 0 0 
775 0.0817258 0.878616 0.023212 0.016446 0 0 0 0 0 0 
776 0.070386 0.89929 0.0240601 0.00308344 0.0015011 0.00167921 2.47834e-07 0 0 0 
777 0.0741931 0.914402 0.00843675 0.0016105 0.00134938 8.48859e-06 0 0 0 0 
778 0.0797323 0.881615 0.0297869 0.00696515 0.00190066 0 0 0 0 0 
779 0.0922114 0.893614 0.0104857 0.00200162 0.00167708 1.05501e-05 0 0 0 0 
780 0.0840127 0.874339 0.0276192 0.0140287 0 0 0 0 0 0 
781 0.0817258 0.878616 0.023212 0.016446 0 0 0 0 0 0 
782 0.0826485 0.902317 0.0111212 0.00212293 0.00177872 1.11895e-05 0 0 0 0 
783 0.0758003 0.891543 0.0259109 0.00332063 0.00161657 0.00180838 2.66898e-07 0 0 0 
784 0.0827588 0.876214 0.0272074 0.0138194 0 0 0 0 0 0 
785 0.167673 0.830646 0.00135698 0.000161763 0.00016177 0 0 0 0 0 
786 0.104905 0.889346 0.0044794 0.000833307 0.000435637 0 0 0 0 0 
787 0.0821856 0.893352 0.0153242 0.00717946 0.00195915 0 0 0 0 0 
788 0.104907 0.889346 0.00447811 0.000833307 0.000435637 0 0 0 0 0 
789 0.0670093 0.894544 0.0280933 0.00695409 0.00339996 0 0 0 0 0 
790 0.0853052 0.872406 0.0280441 0.0142446 0 0 0 0 0 0 
791 0.0657493 0.857054 0.0394536 0.0296224 0.00812007 0 0 0 0 0 
792 0.0689516 0.891487 0.0289076 0.00715566 0.00349851 0 0 0 0 0 
793 0.0731948 0.884809 0.0306865 0.007596 0.0037138 0 0 0 0 0 
794 0 0.999999 0 0 0 0 0 0 0 0 
795 0.0670093 0.880466 0.0421711 0.00695409 0.00339996 0 0 0 0 0 
796 0.108072 0.886007 0.00461381 0.000858559 0.000448838 0 0 0 0 0 
797 0.103469 0.867889 0.0167643 0.0118777 0 0 0 0 0 0 
798 0.0685797 0.858698 0.0371672 0.0279052 0.00764934 0 0 0 0 0 
799 0.0792862 0.882239 0.0225192 0.0159551 0 0 0 0 0 0 
800 0.0758003 0.891543 0.0259109 0.00332063 0.00161657 0.00180838 2.66898e-07 0 0 0 
801 0.081192 0.88973 0.0230713 0.00295672 0.00143941 0.0016102 2.37649e-07 0 0 0 
802 0.0919139 0.885041 0.0144358 0.00676326 0.00184557 0 0 0 0 0 
803 0.0746518 0.893186 0.0255183 0.00327031 0.00159208 0.00178098 2.62854e-07 0 0 0 
804 0.0747233 0.911684 0.0100548 0.00191936 0.00160816 1.01165e-05 0 0 0 0 
805 0.109735 0.884253 0.00468479 0.000871768 0.000455743 0 0 0 0 0 
806 0.102522 0.895123 0.00160029 0.000536318 0.000218601 0 0 0 0 0 
807 0.106459 0.887708 0.00454495 0.000845745 0.000442139 0 0 0 0 0 
808 0.0840127 0.874339 0.0276192 0.0140287 0 0 0 0 0 0 
809 0.0960617 0.874032 0.0237303 0.00304001 0.00147996 0.00165556 2.44343e-07 0 0 0 
810 0.0880842 0.889831 0.0138344 0.00648145 0.00176867 0 0 0 0 0 
811 0.0802177 0.892109 0.0238758 0.0020607 0.00172641 1.08604e-05 0 0 0 0 
812 0.070386 0.885004 0.0383404 0.00308882 0.0015011 0.00167921 2.47834e-07 0 0 0 
813 0.090174 0.873001 0.0215541 0.0152713 0 0 0 0 0 0 
814 0.0815418 0.878035 0.0268069 0.0136161 0 0 0 0 0 0 
815 0.104266 0.890724 0.00390399 0.000726473 0.000379786 0 0 0 0 0 
816 0.0903112 0.890531 0.0120009 0.00562247 0.00153427 0 0 0 0 0 
817 0.0889235 0.874756 0.0212646 0.0150562 0 0 0 0 0 0 
818 0.0817258 0.878616 0.023212 0.016446 0 0 0 0 0 0 
819 0.0853052 0.872406 0.0280441 0.0142446 0 0 0 0 0 0 
820 0.0731948 0.884809 0.0306865 0.007596 0.0037138 0 0 0 0 0 
821 0.0853052 0.872406 0.0280441 0.0142446 0 0 0 0 0 0 
822 0.0898682 0.871074 0.0228603 0.0161968 0 0 0 0 0 0 
823 0.0821856 0.893352 0.0153242 0.00717946 0.00195915 0 0 0 0 0 
824 0.0731948 0.884809 0.0306865 0.007596 0.0037138 0 0 0 0 0 
825 0.0628486 0.86336 0.037713 0.0283156 0.00776183 0 0 0 0 0 
826 0.129336 0.867693 0.00201882 0.000676586 0.000275774 0 0 0 0 0 
827 0.104893 0.88936 0.00447811 0.000833307 0.000435637 0 0 0 0 0 
828 0.0758003 0.891543 0.0259109 0.00332063 0.00161657 0.00180838 2.66898e-07 0 0 0 
829 0.169431 0.828093 0.00168275 0.000563821 0.000229811 0 0 0 0 0 
830 0.0841343 0.883209 0.0259109 0.00332063 0.00161657 0.00180838 2.66898e-07 0 0 0 
831 0.0884625 0.879856 0.0251374 0.0032215 0.00156831 0.0017544 2.58931e-07 0 0 0 
832 0.0826485 0.902317 0.0111212 0.00212293 0.00177872 1.11895e-05 0 0 0 0 
833 0.0790551 0.906565 0.0106376 0.00203063 0.00170139 1.0703e-05 0 0 0 0 
834 0.127376 0.869698 0.00198824 0.000666334 0.000271595 0 0 0 0 0 
835 0.129336 0.867693 0.00201882 0.000676586 0.000275774 0 0 0 0 0 
836 0.0821856 0.893352 0.0153242 0.00717946 0.00195915 0 0 0 0 0 
837 0.0792862 0.882239 0.0225192 0.0159551 0 0 0 0 0 0 
838 0.127376 0.859234 0.0124518 0.000666334 0.000271595 0 0 0 0 0 
839 0.104893 0.876275 0.0175632 0.00083334 0.000435637 0 0 0 0 0 
840 0.0873437 0.832636 0.0575813 0.0224382 0 0 0 0 0 0 
841 0.112955 0.881617 0.00422932 0.000787012 0.000411435 0 0 0 0 0 
842 0.102615 0.881759 0.0146559 0.000636686 0.000332846 0 0 0 0 0 
843 0.0695398 0.900563 0.0237212 0.00304001 0.00147996 0.00165556 2.44343e-07 0 0 0 
844 0.0802177 0.90519 0.0107941 0.00206049 0.00172641 1.08604e-05 0 0 0 0 
845 0.120098 0.877144 0.00187462 0.000628258 0.000256076 0 0 0 0 0 
846 0.0892451 0.888359 0.0140294 0.00657274 0.00179359 0 0 0 0 0 
847 0.0785597 0.853946 0.0587587 0.00686272 0.00187271 0 0 0 0 0 
848 0.109735 0.884253 0.00468479 0.000871768 0.000455743 0 0 0 0 0 
849 0.105973 0.856668 0.0218664 0.0154926 0 0 0 0 0 0 
850 0.0708416 0.916272 0.00953245 0.00181965 0.00152462 9.591e-06 0 0 0 0 
851 0.0735376 0.89478 0.0251374 0.0032215 0.00156831 0.0017544 2.58931e-07 0 0 0 
852 0.070386 0.89929 0.0240601 0.00308344 0.0015011 0.00167921 2.47834e-07 0 0 0 
853 0.0960918 0.864665 0.015092 0.00708696 0.0170647 0 0 0 0 0 
854 0.0619378 0.865341 0.0371665 0.0279052 0.00764934 0 0 0 0 0 
855 0.0758003 0.889524 0.0279301 0.00332063 0.00161657 0.00180838 2.66898e-07 0 0 0 
856 0.0817258 0.878616 0.0232122 0.016446 0 0 0 0 0 0 
857 0.0779257 0.907899 0.0104857 0.00200162 0.00167708 1.05501e-05 0 0 0 0 
858 0.0747233 0.911082 0.0106569 0.00191936 0.00160816 1.01165e-05 0 0 0 0 
859 0.0802177 0.90519 0.0107941 0.00206049 0.00172641 1.08604e-05 0 0 0 0 
860 0.0919139 0.885041 0.0144358 0.00676326 0.00184557 0 0 0 0 0 
861 0.0741953 0.893629 0.023926 0.00648145 0.00176867 0 0 0 0 0 
862 0.0731948 0.884809 0.0306865 0.007596 0.0037138 0 0 0 0 0 
863 0.0720858 0.886554 0.0302215 0.00748091 0.00365753 0 0 0 0 0 
864 0.0644784 0.903559 0.0211962 0.0107662 0 0 0 0 0 0 
865 0.0810943 0.880458 0.0280933 0.00695409 0.00339996 0 0 0 0 0 
866 0.0817258 0.878616 0.023212 0.016446 0 0 0 0 0 0 
867 0.0731789 0.905039 0.0136448 0.00639267 0.00174445 0 0 0 0 0 
868 0.0797323 0.896535 0.0148668 0.00696515 0.00190066 0 0 0 0 0 
869 0.0758003 0.891543 0.0259109 0.00332063 0.00161657 0.00180838 2.66898e-07 0 0 0 
870 0.0727704 0.87845 0.0341357 0.0146437 0 0 0 0 0 0 
871 0.113868 0.85082 0.0206683 0.0146437 0 0 0 0 0 0 
872 0.0700689 0.866231 0.0419212 0.0217782 0 0 0 0 0 0 
873 0.08392 0.900815 0.0112923 0.00215559 0.00180609 1.13616e-05 0 0 0 0 
874 0.0758003 0.891543 0.0259109 0.00332063 0.00161657 0.00180838 2.66898e-07 0 0 0 
875 0.0860401 0.849309 0.0425469 0.0221033 0 0 0 0 0 0 
876 0.145689 0.848647 0.00441321 0.00082123 0.000429323 0 0 0 0 0 
877 0.08392 0.900815 0.0112923 0.00215559 0.00180609 1.13616e-05 0 0 0 0 
878 0.0758003 0.891543 0.0259109 0.00332063 0.00161657 0.00180838 2.66898e-07 0 0 0 
879 0.081415 0.903775 0.0109552 0.00209124 0.00175218 1.10225e-05 0 0 0 0 
880 0.0746518 0.893186 0.0255183 0.00327031 0.00159208 0.00178098 2.62854e-07 0 0 0 
881 0.121384 0.872783 0.00454495 0.000845745 0.000442139 0 0 0 0 0 
882 0.0710099 0.888248 0.0297705 0.00736926 0.00360294 0 0 0 0 0 
883 0.0821856 0.893352 0.0153242 0.00717946 0.00195915 0 0 0 0 0 
884 0.0731948 0.884809 0.0306865 0.007596 0.0037138 0 0 0 0 0 
885 0.0809403 0.894968 0.015092 0.00707068 0.00192946 0 0 0 0 0 
886 0.0763152 0.900969 0.0142296 0.00666664 0.00181921 0 0 0 0 0 
887 0.0821856 0.893352 0.0153242 0.00717946 0.00195915 0 0 0 0 0 
888 0.0735376 0.89478 0.0251374 0.0032215 0.00156831 0.0017544 2.58931e-07 0 0 0 
889 0.0758003 0.891543 0.0259109 0.00332063 0.00161657 0.00180838 2.66898e-07 0 0 0 
890 0.08392 0.88543 0.0266769 0.00215559 0.00180609 1.13616e-05 0 0 0 0 
891 0.0853052 0.872406 0.0280441 0.0142446 0 0 0 0 0 0 
892 0.0727695 0.891918 0.0206683 0.0146437 0 0 0 0 0 0 
893 0.0714061 0.89783 0.0244088 0.00312813 0.00152286 0.00170355 2.51426e-07 0 0 0 
894 0.0758003 0.891543 0.0259109 0.00332063 0.00161657 0.00180838 2.66898e-07 0 0 0 
895 0.0720858 0.886554 0.0302215 0.00748091 0.00365753 0 0 0 0 0 
896 0.0758003 0.891543 0.0259109 0.00332063 0.00161657 0.00180838 2.66898e-07 0 0 0 
897 0.0804875 0.880455 0.0228604 0.0161968 0 0 0 0 0 0 
898 0.104893 0.88936 0.00447811 0.000833307 0.000435637 0 0 0 0 0 
899 0.0853052 0.872406 0.0280441 0.0142446 0 0 0 0 0 0 
900 0.0826485 0.902317 0.0111212 0.00212293 0.00177872 1.11895e-05 0 0 0 0 
901 0.0724562 0.896328 0.0247678 0.00317413 0.00154525 0.0017286 2.55123e-07 0 0 0 
902 0.0946576 0.88161 0.0148668 0.00696515 0.00190066 0 0 0 0 0 
903 0.113606 0.883784 0.00177331 0.000594298 0.000242234 0 0 0 0 0 
904 0.104893 0.88936 0.00447811 0.000833307 0.000435637 0 0 0 0 0 
905 0.0817258 0.878616 0.023212 0.016446 0 0 0 0 0 0 
906 0.0758003 0.891543 0.0259109 0.00332063 0.00161657 0.00180838 2.66898e-07 0 0 0 
907 0.0724562 0.896328 0.0247677 0.00317413 0.00154525 0.0017286 2.55123e-07 0 0 0 
908 0.0928261 0.863691 0.0277623 0.0157205 0 0 0 0 0 0 
909 0.092357 0.867985 0.023212 0.016446 0 0 0 0 0 0 
910 0.0790551 0.906565 0.0106376 0.00203063 0.00170139 1.0703e-05 0 0 0 0 
911 0.081415 0.903775 0.0109552 0.00209124 0.00175218 1.10225e-05 0 0 0 0 
912 0.0758003 0.891543 0.0259109 0.00332063 0.00161657 0.00180838 2.66898e-07 0 0 0 
913 0.0792862 0.882239 0.0225192 0.0159551 0 0 0 0 0 0 
914 0.121896 0.872893 0.00406015 0.000755532 0.000394977 0 0 0 0 0 
915 0.0735376 0.89478 0.0251374 0.0032215 0.00156831 0.0017544 2.58931e-07 0 0 0 
916 0.0721922 0.862177 0.0431916 0.0224382 0 0 0 0 0 0 
917 0.0746518 0.893186 0.0255183 0.00327031 0.00159208 0.00178098 2.62854e-07 0 0 0 
918 0.108338 0.858063 0.0258848 0.00606058 0.00165383 0 0 0 0 0 
919 0.0821856 0.893352 0.0153242 0.00717946 0.00195915 0 0 0 0 0 
920 0.0817258 0.878616 0.023212 0.016446 0 0 0 0 0 0 
921 0.0821856 0.893352 0.0153242 0.00717946 0.00195915 0 0 0 0 0 
922 0.104893 0.88936 0.00447811 0.000833307 0.000435637 0 0 0 0 0 
923 0.125862 0.869726 0.00369798 0.000468305 0.000244821 0 0 0 0 0 
924 0.100461 0.894035 0.00428889 0.000798097 0.00041723 0 0 0 0 0 
925 0.0737135 0.912878 0.00991889 0.00189342 0.00158643 9.97982e-06 0 0 0 0 
926 0.109735 0.884253 0.00468479 0.000871768 0.000455743 0 0 0 0 0 
927 0.08392 0.900815 0.0112923 0.00215559 0.00180609 1.13616e-05 0 0 0 0 
928 0.0752403 0.902359 0.0140345 0.00657274 0.00179359 0 0 0 0 0 
929 0.0657493 0.841669 0.040338 0.0441227 0.00812007 0 0 0 0 0 
930 0.0817258 0.878616 0.023212 0.016446 0 0 0 0 0 0 
931 0.0821856 0.893352 0.0153242 0.00717946 0.00195915 0 0 0 0 0 
932 0.0758003 0.891543 0.0259109 0.00332063 0.00161657 0.00180838 2.66898e-07 0 0 0 
933 0.0821856 0.893352 0.0153242 0.00717946 0.00195915 0 0 0 0 0 
934 0.0731948 0.884809 0.0306865 0.007596 0.0037138 0 0 0 0 0 
935 0.125072 0.87259 0.00160075 0.000523548 0.000213396 0 0 0 0 0 
936 0.0355116 0.956547 0 0 0.0079405 0 0 0 0 0 
937 0.0789704 0.917063 0.00312865 0.000550145 0.000287605 0 0 0 0 0 
938 0.0880872 0.889828 0.0138348 0.00648145 0.00176867 0 0 0 0 0 
939 0.110089 0.888202 0.00116127 0.000389186 0.000158631 0 0 0 0 0 
940 0.0746518 0.893186 0.0255183 0.00327031 0.00159208 0.00178098 2.62854e-07 0 0 0 
941 0.123223 0.870855 0.00461381 0.000858559 0.000448838 0 0 0 0 0 
942 0.0942123 0.867313 0.0225192 0.0159551 0 0 0 0 0 0 
943 0.0978 0.887166 0.0111212 0.00212293 0.00177872 1.11895e-05 0 0 0 0 
944 0.0873437 0.847026 0.0431916 0.0224382 0 0 0 0 0 0 
945 0.0921314 0.86821 0.023212 0.016446 0 0 0 0 0 0 
946 0.0832608 0.850099 0.043856 0.0227834 0 0 0 0 0 0 
947 0.0921314 0.86821 0.023212 0.016446 0 0 0 0 0 0 
948 0.241523 0.639484 0.0663166 0.0526761 0 0 0 0 0 0 
949 0.0948528 0.86531 0.0264184 0.0134188 0 0 0 0 0 0 
950 0.0699656 0.889891 0.0293327 0.00726089 0.00354995 0 0 0 0 0 
951 0.0746518 0.893186 0.0255183 0.00327031 0.00159208 0.00178098 2.62854e-07 0 0 0 
952 0.129336 0.867693 0.00201882 0.000676586 0.000275774 0 0 0 0 0 
953 0.06819 0.919407 0.00917497 0.00175142 0.00146745 9.23134e-06 0 0 0 0 
954 0.0821856 0.893352 0.0153242 0.00717946 0.00195915 0 0 0 0 0 
955 0.0817258 0.878616 0.023212 0.016446 0 0 0 0 0 0 
956 0.0746518 0.893186 0.0255183 0.00327031 0.00159208 0.00178098 2.62854e-07 0 0 0 
957 0.153892 0.844566 0.00124545 0.000148468 0.000148474 0 0 0 0 0 
958 0.109802 0.877311 0.00953249 0.00181965 0.00152462 9.591e-06 0 0 0 0 
959 0.167673 0.830646 0.00135698 0.000161763 0.00016177 0 0 0 0 0 
960 0.0802177 0.90519 0.0107941 0.00206049 0.00172641 1.08604e-05 0 0 0 0 
961 0.147817 0.850701 0.00119628 0.000142607 0.000142613 0 0 0 0 0 
962 0.0821856 0.893352 0.0153242 0.00717946 0.00195915 0 0 0 0 0 
963 0.104136 0.895527 0.000337513 0 0 0 0 0 0 0 
964 0.0710099 0.888248 0.0297705 0.00736926 0.00360294 0 0 0 0 0 
965 0.0802177 0.90519 0.0107941 0.00206049 0.00172641 1.08604e-05 0 0 0 0 
966 0.0826485 0.902317 0.0111212 0.00212293 0.00177872 1.11895e-05 0 0 0 0 
967 0.0804875 0.880455 0.0228604 0.0161968 0 0 0 0 0 0 
968 0.0746518 0.878035 0.0268418 0.0170142 0.00167623 0.00178098 2.62854e-07 0 0 0 
969 0.0774212 0.899534 0.0144358 0.00676326 0.00184557 0 0 0 0 0 
970 0.070386 0.89929 0.0240601 0.00308344 0.0015011 0.00167921 2.47834e-07 0 0 0 
971 0.0724562 0.896328 0.0247677 0.00317413 0.00154525 0.0017286 2.55123e-07 0 0 0 
972 0.0804875 0.880455 0.0228604 0.0161968 0 0 0 0 0 0 
973 0.172832 0.825436 0.00139873 0.000166741 0.000166748 0 0 0 0 0 
974 0.103373 0.890963 0.00441321 0.00082123 0.000429323 0 0 0 0 0 
975 0.0853052 0.872406 0.0280441 0.0142446 0 0 0 0 0 0 
976 0.0758003 0.891543 0.0259109 0.00332063 0.00161657 0.00180838 2.66898e-07 0 0 0 
977 0.0884629 0.879855 0.0251375 0.0032215 0.00156831 0.0017544 2.58931e-07 0 0 0 
978 0.0710099 0.888248 0.0297705 0.00736926 0.00360294 0 0 0 0 0 
979 0.0746518 0.893186 0.0255183 0.00327031 0.00159208 0.00178098 2.62854e-07 0 0 0 
980 0.109735 0.884253 0.00468479 0.000871768 0.000455743 0 0 0 0 0 
981 0.0746518 0.893186 0.0255183 0.00327031 0.00159208 0.00178098 2.62854e-07 0 0 0 
982 0.0733028 0.860057 0.043856 0.0227834 0 0 0 0 0 0 
983 0.0809403 0.879816 0.0302435 0.00707068 0.00192946 0 0 0 0 0 
984 0.0781202 0.869273 0.0368861 0.0157205 0 0 0 0 0 0 
985 0.095639 0.865304 0.0228603 0.0161968 0 0 0 0 0 0 
986 0.0648292 0.907241 0.0221606 0.00284001 0.00138259 0.00154664 2.28268e-07 0 0 0 
987 0.183807 0.814629 0.00126274 0.00015053 0.000150536 0 0 0 0 0 
988 0.0880591 0.907116 0.0037594 0.000699567 0.00036572 0 0 0 0 0 
989 0.0774281 0.899527 0.0144358 0.00676326 0.00184557 0 0 0 0 0 
990 0.0746518 0.893186 0.0255183 0.00327031 0.00159208 0.00178098 2.62854e-07 0 0 0 
991 0.0804875 0.880338 0.022977 0.0161968 0 0 0 0 0 0 
992 0.107489 0.887746 0.00371355 0.000691035 0.00036126 0 0 0 0 0 
993 0.0802177 0.90519 0.0107942 0.00206049 0.00172641 1.08604e-05 0 0 0 0 
994 0.0821856 0.893298 0.0153781 0.00717946 0.00195915 0 0 0 0 0 
995 0.0891526 0.883983 0.0183788 0.00666664 0.00181921 0 0 0 0 0 
996 0.0896333 0.896586 0.0101944 0.00194602 0.0016305 1.0257e-05 0 0 0 0 
997 0.08392 0.900815 0.0112923 0.00215559 0.00180609 1.13616e-05 0 0 0 0 
998 0.0769705 0.895895 0.0158822 0.0112525 0 0 0 0 0 0 
999 0.0840127 0.859188 0.0276207 0.0291788 0 0 0 0 0 0 
1000 0.0712275 0.907562 0.0132902 0.0062222 0.00169793 0 0 0 0 0 
1001 0.109735 0.868869 0.00490213 0.0160389 0.000455865 0 0 0 0 0 
1002 0.08392 0.88543 0.017468 0.0113643 0.00180634 1.13616e-05 0 0 0 0 
1003 0.0708845 0.916229 0.00953246 0.00181965 0.00152462 9.591e-06 0 0 0 0 
1004 0.107689 0.886883 0.00422933 0.000787012 0.000411435 0 0 0 0 0 
1005 0.102544 0.893065 0.00342148 0.000636684 0.000332846 0 0 0 0 0 
1006 0.0714061 0.89783 0.0244088 0.00312813 0.00152286 0.00170355 2.51426e-07 0 0 0 
1007 0.0951033 0.899686 0.00406015 0.000755532 0.000394977 0 0 0 0 0 
1008 0.116228 0.881162 0.00177366 0.000594298 0.000242234 0 0 0 0 0 
1009 0.108174 0.889606 0.00150832 0.000505495 0.000206038 0 0 0 0 0 
1010 0.08392 0.900815 0.0112923 0.00215559 0.00180609 1.13616e-05 0 0 0 0 
1011 0.0840127 0.874339 0.0276192 0.0140287 0 0 0 0 0 0 
1012 0.0853052 0.85709 0.04336 0.0142446 0 0 0 0 0 0 
1013 0.0821457 0.885692 0.0255183 0.00327031 0.00159208 0.00178098 2.62854e-07 0 0 0 
1014 0.0746518 0.893186 0.0255183 0.00327031 0.00159208 0.00178098 2.62854e-07 0 0 0 
1015 0.091145 0.880925 0.0221606 0.00284001 0.00138259 0.00154664 2.28268e-07 0 0 0 
1016 0.0657493 0.857054 0.0394536 0.0296224 0.00812007 0 0 0 0 0 
1017 0.0719766 0.849457 0.0408237 0.0296224 0.00812007 0 0 0 0 0 
1018 0.130468 0.863949 0.00435016 0.000809498 0.00042319 0 0 0 0 0 
1019 0.0344516 0.957844 0 0 0.00770347 0 0 0 0 0 
1020 0.0990659 0.895506 0.00422932 0.000787012 0.000411435 0 0 0 0 0 
1021 0.0839235 0.900811 0.0112923 0.00215559 0.00180609 1.13616e-05 0 0 0 0 
1022 0.0758003 0.891543 0.0259109 0.00332063 0.00161657 0.00180838 2.66898e-07 0 0 0 
1023 0.0826485 0.902317 0.0111212 0.00212293 0.00177872 1.11895e-05 0 0 0 0 
1024 0.085891 0.883345 0.0244088 0.00312813 0.00152286 0.00170355 2.51426e-07 0 0 0 
1025 0.128573 0.870018 0.000982573 0.000303297 0.000123623 0 0 0 0 0 
1026 0.081415 0.903775 0.0109552 0.00209124 0.00175218 1.10225e-05 0 0 0 0 
1027 0.0803909 0.863105 0.0453654 0.00748098 0.00365753 0 0 0 0 0 
1028 0.105695 0.892135 0.00147442 0.000494136 0.000201408 0 0 0 0 0 
1029 0.136097 0.860475 0.00267116 0.00049706 0.000259853 0 0 0 0 0 
1030 0.0714061 0.89783 0.0244088 0.00312813 0.00152286 0.00170355 2.51426e-07 0 0 0 
1031 0.0779257 0.907899 0.0104857 0.00200162 0.00167708 1.05501e-05 0 0 0 0 
1032 0.0739906 0.899476 0.0210528 0.00269801 0.00131346 0.00146931 2.16855e-07 0 0 0 
1033 0.0758003 0.876158 0.0259109 0.00332859 0.0167109 0.0020907 2.66898e-07 0 0 0 
1034 0.0821856 0.877967 0.0156068 0.0222815 0.00195916 0 0 0 0 0 
1035 0.0744532 0.88655 0.0284946 0.00705343 0.00344853 0 0 0 0 0 
1036 0.170213 0.812929 0.00137754 0.000164226 0.0153157 0 0 0 0 0 
1037 0.0679666 0.893037 0.0284946 0.00705343 0.00344853 0 0 0 0 0 
1038 0.0757611 0.910458 0.0101944 0.00194602 0.0016305 1.0257e-05 0 0 0 0 
1039 0.0693946 0.900708 0.0237212 0.00304001 0.00147996 0.00165556 2.44343e-07 0 0 0 
1040 0.12447 0.870177 0.00417139 0.000776231 0.000405799 0 0 0 0 0 
1041 0.127376 0.869698 0.00198824 0.000666334 0.000271595 0 0 0 0 0 
1042 0.127376 0.869698 0.00198824 0.000666334 0.000271595 0 0 0 0 0 
1043 0.109381 0.885192 0.00422932 0.000787012 0.000411435 0 0 0 0 0 
1044 0.0958254 0.880082 0.015092 0.00707068 0.00192946 0 0 0 0 0 
1045 0.121384 0.872783 0.00454495 0.000845745 0.000442139 0 0 0 0 0 
1046 0.082456 0.893081 0.0153242 0.00717946 0.00195915 0 0 0 0 0 
1047 0.129336 0.867693 0.00201882 0.000676586 0.000275774 0 0 0 0 0 
1048 0.0768592 0.881145 0.0306865 0.007596 0.0037138 0 0 0 0 0 
1049 0.138823 0.858593 0.00175793 0.000586374 0.000239004 0 0 0 0 0 
1050 0.094028 0.863683 0.0280441 0.0142446 0 0 0 0 0 0 
1051 0.0841436 0.876799 0.0228604 0.0161968 0 0 0 0 0 0 
1052 0.106459 0.887708 0.00454495 0.000845745 0.000442139 0 0 0 0 0 
1053 0.0711147 0.864235 0.0425469 0.0221033 0 0 0 0 0 0 
1054 0.081415 0.903775 0.0109552 0.00209124 0.00175218 1.10225e-05 0 0 0 0 
1055 0.138336 0.858824 0.00192976 0.000646736 0.000263607 0 0 0 0 0 
1056 0.12363 0.87353 0.00192976 0.000646736 0.000263607 0 0 0 0 0 
1057 0.119577 0.87774 0.00182255 0.000610806 0.000248962 0 0 0 0 0 
1058 0.0990659 0.895506 0.00422932 0.000787012 0.000411435 0 0 0 0 0 
1059 0.101896 0.892521 0.00435016 0.000809498 0.00042319 0 0 0 0 0 
1060 0.108072 0.886007 0.00461381 0.000858559 0.000448838 0 0 0 0 0 
1061 0.0840127 0.874339 0.0276192 0.0140287 0 0 0 0 0 0 
1062 0.0962477 0.863329 0.0268069 0.0136161 0 0 0 0 0 0 
1063 0.0660786 0.896008 0.0277031 0.0068575 0.00335273 0 0 0 0 0 
1064 0.08392 0.900815 0.0112923 0.00215559 0.00180609 1.13616e-05 0 0 0 0 
1065 0.0797323 0.88161 0.0297921 0.00696515 0.00190066 0 0 0 0 0 
1066 0.0906009 0.886684 0.0142296 0.00666664 0.00181921 0 0 0 0 0 
1067 0.0807926 0.886551 0.0259109 0.00332063 0.00161657 0.00180838 2.66898e-07 0 0 0 
1068 0.149788 0.848711 0.00121224 0.000144509 0.000144515 0 0 0 0 0 
1069 0.132712 0.863041 0.00330991 0.000615923 0.000321992 0 0 0 0 0 
1070 0.0779257 0.907899 0.0104857 0.00200162 0.00167708 1.05501e-05 0 0 0 0 
1071 0.0774244 0.899531 0.0144358 0.00676326 0.00184557 0 0 0 0 0 
1072 0.0779258 0.907897 0.0104881 0.00200162 0.00167708 1.05501e-05 0 0 0 0 
1073 0.101504 0.876101 0.0140292 0.00657274 0.00179359 0 0 0 0 0 
1074 0.162813 0.835555 0.00131765 0.000157074 0.000157081 0 0 0 0 0 
1075 0.117864 0.876472 0.00441321 0.00082123 0.000429323 0 0 0 0 0 
1076 0.0758003 0.891543 0.0259109 0.00332063 0.00161657 0.00180838 2.66898e-07 0 0 0 
1077 0.104893 0.88936 0.00447811 0.000833307 0.000435637 0 0 0 0 0 
1078 0.0746518 0.893186 0.0255183 0.00327031 0.00159208 0.00178098 2.62854e-07 0 0 0 
1079 0.0758003 0.891543 0.0259109 0.00332063 0.00161657 0.00180838 2.66898e-07 0 0 0 
1080 0.0768537 0.912917 0.007567 0.00144447 0.00121027 7.61347e-06 0 0 0 0 
1081 0.119619 0.878161 0.00150832 0.000505495 0.000206038 0 0 0 0 0 
1082 0.10569 0.893967 0.000342551 0 0 0 0 0 0 0 
1083 0.120904 0.878202 0.000721573 8.6017e-05 8.60208e-05 0 0 0 0 0 
1084 0.0748194 0.888874 0.0212505 0.0150562 0 0 0 0 0 0 
1085 0.122338 0.873368 0.00334628 0.000622691 0.000325531 0 0 0 0 0 
1086 0.0746518 0.893171 0.0255337 0.00327031 0.00159208 0.00178098 2.62854e-07 0 0 0 
1087 0.0746518 0.863061 0.0556436 0.00327031 0.00159208 0.00178098 2.62854e-07 0 0 0 
1088 0.115162 0.882192 0.00179759 0.000602439 0.000245552 0 0 0 0 0 
1089 0.0923604 0.866005 0.0357876 0.00287788 0.00140103 0.00156727 2.31312e-07 0 0 0 
1090 0.104592 0.893213 0.00149122 0.000499751 0.000203696 0 0 0 0 0 
1091 0.0674934 0.876031 0.03677 0.00297037 0.0151244 0.00161021 2.37649e-07 0 0 0 
1092 0.0731948 0.884809 0.0306865 0.007596 0.0037138 0 0 0 0 0 
1093 0.0746518 0.893186 0.0255183 0.00327031 0.00159208 0.00178098 2.62854e-07 0 0 0 
1094 0.115775 0.880503 0.00290011 0.000539666 0.000282127 0 0 0 0 0 
1095 0.137707 0.839613 0.0219926 0.000488645 0.00019917 0 0 0 0 0 
1096 0.08392 0.886081 0.0260259 0.00215559 0.00180609 1.13616e-05 0 0 0 0 
1097 0.118423 0.878857 0.00184822 0.000619409 0.000252469 0 0 0 0 0 
1098 0.142727 0.852262 0.00390399 0.000726473 0.000379786 0 0 0 0 0 
1099 0.0737135 0.912878 0.0099189 0.00189342 0.00158643 9.97982e-06 0 0 0 0 
1100 0.0785597 0.898057 0.0146481 0.00686272 0.00187271 0 0 0 0 0 
1101 0.0747233 0.911684 0.0100548 0.00191936 0.00160816 1.01165e-05 0 0 0 0 
1102 0.105596 0.874277 0.0126085 0.00590715 0.00161196 0 0 0 0 0 
1103 0.0572909 0.906398 0.0312121 0.00250978 0.00122183 0.0013668 2.01725e-07 0 0 0 
1104 0.0826485 0.902317 0.0111212 0.00212293 0.00177872 1.11895e-05 0 0 0 0 
1105 0.11453 0.879966 0.00428889 0.000798097 0.00041723 0 0 0 0 0 
1106 0.101896 0.892521 0.00435016 0.000809498 0.00042319 0 0 0 0 0 
1107 0.0684308 0.902087 0.0233917 0.00299779 0.0014594 0.00163257 2.4095e-07 0 0 0 
1108 0.108437 0.886353 0.00406015 0.000755532 0.000394977 0 0 0 0 0 
1109 0.158227 0.840187 0.00128053 0.00015265 0.000152657 0 0 0 0 0 
1110 0.108072 0.886007 0.00461381 0.000858559 0.000448838 0 0 0 0 0 
1111 0.109735 0.884253 0.00468479 0.000871768 0.000455743 0 0 0 0 0 
1112 0.0722109 0.897465 0.0240601 0.00308344 0.0015011 0.00167921 2.47834e-07 0 0 0 
1113 0.08392 0.900815 0.0112923 0.00215559 0.00180609 1.13616e-05 0 0 0 0 
1114 0.100461 0.894035 0.00428889 0.000798097 0.00041723 0 0 0 0 0 
1115 0.182488 0.816068 0.00116561 0.000138951 0.000138957 0 0 0 0 0 
1116 0.0720858 0.871403 0.0302215 0.00748273 0.0188072 0 0 0 0 0 
1117 0.0978 0.887166 0.0111212 0.00212293 0.00177872 1.11895e-05 0 0 0 0 
1118 0.08392 0.900815 0.0112923 0.00215559 0.00180609 1.13616e-05 0 0 0 0 
1119 0.0710099 0.888248 0.0297705 0.00736926 0.00360294 0 0 0 0 0 
1120 0.0779881 0.902381 0.0122973 0.00576129 0.00157215 0 0 0 0 0 
1121 0.133326 0.861532 0.00400673 0.000745591 0.00038978 0 0 0 0 0 
1122 0.0822523 0.878751 0.0284946 0.00705343 0.00344853 0 0 0 0 0 
1123 0.108084 0.880641 0.00834088 0.0015922 0.00133404 8.39212e-06 0 0 0 0 
1124 0.0817258 0.863231 0.0236115 0.0314312 0 0 0 0 0 0 
1125 0.109735 0.871904 0.0168342 0.00107179 0.000455743 0 0 0 0 0 
1126 0.0657493 0.857054 0.0394537 0.0296224 0.00812007 0 0 0 0 0 
1127 0.0876838 0.885447 0.0213191 0.00273216 0.00133009 0.00148791 2.196e-07 0 0 0 
1128 0.0893248 0.88828 0.0140292 0.00657274 0.00179359 0 0 0 0 0 
1129 0.081415 0.903775 0.0109552 0.00209124 0.00175218 1.10225e-05 0 0 0 0 
1130 0.070386 0.89929 0.0240601 0.00308344 0.0015011 0.00167921 2.47834e-07 0 0 0 
1131 0.0746518 0.893186 0.0255183 0.00327031 0.00159208 0.00178098 2.62854e-07 0 0 0 
1132 0.0809403 0.894968 0.015092 0.00707068 0.00192946 0 0 0 0 0 
1133 0.0821856 0.893352 0.0153242 0.00717946 0.00195915 0 0 0 0 0 
1134 0.126844 0.867729 0.00422932 0.000787012 0.000411435 0 0 0 0 0 
1135 0.0758003 0.891543 0.0259109 0.00332063 0.00161657 0.00180838 2.66898e-07 0 0 0 
1136 0.0758838 0.8929 0.0247677 0.00317413 0.00154525 0.0017286 2.55123e-07 0 0 0 
1137 0.0927446 0.867597 0.023212 0.016446 0 0 0 0 0 0 
1138 0.0934689 0.866873 0.023212 0.016446 0 0 0 0 0 0 
1139 0.0889404 0.871401 0.023212 0.016446 0 0 0 0 0 0 
1140 0.0932656 0.883351 0.0146481 0.00686272 0.00187271 0 0 0 0 0 
1141 0.0858988 0.883337 0.0244089 0.00312813 0.00152286 0.00170355 2.51426e-07 0 0 0 
1142 0.141927 0.855102 0.00201882 0.000676586 0.000275774 0 0 0 0 0 
1143 0.100461 0.894035 0.00428889 0.000798097 0.00041723 0 0 0 0 0 
1144 0.120453 0.877672 0.00127402 0.000426971 0.000174032 0 0 0 0 0 
1145 0.0758003 0.891543 0.0259109 0.00332063 0.00161657 0.00180838 2.66898e-07 0 0 0 
1146 0.101519 0.867283 0.0224623 0.00686272 0.00187271 0 0 0 0 0 
1147 0.0699656 0.875188 0.0440357 0.00726088 0.00354995 0 0 0 0 0 
1148 0.0699663 0.889866 0.029357 0.00726089 0.00354995 0 0 0 0 0 
1149 0.0720858 0.886554 0.0302215 0.00748091 0.00365753 0 0 0 0 0 
1150 0.0790551 0.906565 0.0106376 0.00203063 0.00170139 1.0703e-05 0 0 0 0 
1151 0.0821856 0.893352 0.0153242 0.00717946 0.00195915 0 0 0 0 0 
1152 0.0826485 0.902317 0.0111212 0.00212293 0.00177872 1.11895e-05 0 0 0 0 
1153 0.0826485 0.902317 0.0111212 0.00212293 0.00177872 1.11895e-05 0 0 0 0 
1154 0.0826485 0.902317 0.0111212 0.00212293 0.00177872 1.11895e-05 0 0 0 0 
1155 0.088847 0.860762 0.0214001 0.0289911 0 0 0 0 0 0 
1156 0.138336 0.858824 0.00192976 0.000646736 0.000263607 0 0 0 0 0 
1157 0.0806911 0.906906 0.00917498 0.00175142 0.00146745 9.23134e-06 0 0 0 0 
1158 0.109735 0.884253 0.00468479 0.000871768 0.000455743 0 0 0 0 0 
1159 0.0871088 0.893161 0.0186775 0.000691035 0.00036126 0 0 0 0 0 
1160 0.0746518 0.893186 0.0255183 0.00327031 0.00159208 0.00178098 2.62854e-07 0 0 0 
1161 0.0735376 0.89478 0.0251374 0.0032215 0.00156831 0.0017544 2.58931e-07 0 0 0 
1162 0.0731948 0.884809 0.0306865 0.007596 0.0037138 0 0 0 0 0 
1163 0.0877042 0.900622 0.00863526 0.00164839 0.00138113 8.68832e-06 0 0 0 0 
1164 0.0936571 0.89394 0.00917497 0.00175142 0.00146745 9.23134e-06 0 0 0 0 
1165 0.109735 0.884253 0.00468479 0.000871768 0.000455743 0 0 0 0 0 
1166 0.0731948 0.869505 0.0459911 0.007596 0.0037138 0 0 0 0 0 
1167 0.0790551 0.906565 0.0106376 0.00203063 0.00170139 1.0703e-05 0 0 0 0 
1168 0.0746518 0.893186 0.0255183 0.00327031 0.00159208 0.00178098 2.62854e-07 0 0 0 
1169 0.109735 0.884253 0.00468479 0.000871768 0.000455743 0 0 0 0 0 
1170 0.0826485 0.902317 0.0111212 0.00212293 0.00177872 1.11895e-05 0 0 0 0 
1171 0.109735 0.884253 0.00468479 0.000871768 0.000455743 0 0 0 0 0 
1172 0.0846715 0.875185 0.0293327 0.00726089 0.00354995 0 0 0 0 0 
1173 0.081415 0.903775 0.0109552 0.00209124 0.00175218 1.10225e-05 0 0 0 0 
1174 0.0731948 0.884809 0.0306865 0.007596 0.0037138 0 0 0 0 0 
1175 0.0949236 0.890485 0.0107941 0.00206049 0.00172641 1.08604e-05 0 0 0 0 
1176 0.0820266 0.885317 0.0259109 0.00332063 0.00161657 0.00180838 2.66898e-07 0 0 0 
1177 0.118893 0.875095 0.00468479 0.000871768 0.000455743 0 0 0 0 0 
1178 0.117119 0.882548 0.000332622 0 0 0 0 0 0 0 
1179 0.0826485 0.902317 0.0111212 0.00212293 0.00177872 1.11895e-05 0 0 0 0 
1180 0.0731948 0.884809 0.0306865 0.007596 0.0037138 0 0 0 0 0 
1181 0.124452 0.869715 0.00454495 0.000845745 0.000442139 0 0 0 0 0 
1182 0.095222 0.889513 0.0112923 0.00215559 0.00180609 1.13616e-05 0 0 0 0 
1183 0.120957 0.873031 0.00468479 0.000871767 0.000455743 0 0 0 0 0 
1184 0.0834784 0.883865 0.0259109 0.00332063 0.00161657 0.00180838 2.66898e-07 0 0 0 
1185 0.142125 0.854904 0.00201882 0.000676585 0.000275774 0 0 0 0 0 
1186 0.0733028 0.860057 0.043856 0.0227834 0 0 0 0 0 0 
1187 0.0821856 0.893352 0.0153242 0.00717946 0.00195915 0 0 0 0 0 
1188 0.127376 0.869698 0.00198824 0.000666334 0.000271595 0 0 0 0 0 
1189 0.08392 0.900815 0.0112923 0.00215559 0.00180609 1.13616e-05 0 0 0 0 
1190 0.109735 0.884253 0.00468479 0.000871768 0.000455743 0 0 0 0 0 
1191 0.108072 0.886007 0.00461381 0.000858559 0.000448838 0 0 0 0 0 
1192 0.11653 0.878978 0.00350047 0.000651321 0.000340498 0 0 0 0 0 
1193 0.0724562 0.896328 0.0247677 0.00317413 0.00154525 0.0017286 2.55123e-07 0 0 0 
1194 0.0657493 0.857054 0.0394536 0.0296224 0.00812007 0 0 0 0 0 
1195 0.0827588 0.876215 0.027207 0.0138194 0 0 0 0 0 0 
1196 0.0797323 0.896535 0.0148668 0.00696515 0.00190066 0 0 0 0 0 
1197 0.0885791 0.869425 0.0306865 0.007596 0.0037138 0 0 0 0 0 
1198 0.08392 0.900815 0.0112923 0.00215559 0.00180609 1.13616e-05 0 0 0 0 
1199 0.0868775 0.891341 0.0136448 0.00639267 0.00174445 0 0 0 0 0 
1200 0.112955 0.881617 0.00422932 0.000787012 0.000411435 0 0 0 0 0 
1201 0.0928255 0.869266 0.022188 0.0157205 0 0 0 0 0 0 
1202 0.0840127 0.874339 0.0276192 0.0140287 0 0 0 0 0 0 
1203 0.0758003 0.891543 0.0259109 0.00332063 0.00161657 0.00180838 2.66898e-07 0 0 0 
1204 0.0763152 0.900969 0.0142296 0.00666664 0.00181921 0 0 0 0 0 
1205 0.0763154 0.900969 0.0142296 0.00666664 0.00181921 0 0 0 0 0 
1206 0.0753178 0.914659 0.00741416 0.00141529 0.00118582 7.45967e-06 0 0 0 0 
1207 0.100965 0.834385 0.0425469 0.0221033 0 0 0 0 0 0 
1208 0.0821856 0.893352 0.0153242 0.00717946 0.00195915 0 0 0 0 0 
1209 0.103539 0.88268 0.0101944 0.00194602 0.0016305 1.0257e-05 0 0 0 0 
1210 0.0826485 0.902317 0.0111212 0.00212293 0.00177872 1.11895e-05 0 0 0 0 
1211 0.0746518 0.893186 0.0255183 0.00327031 0.00159208 0.00178098 2.62854e-07 0 0 0 
1212 0.129336 0.867693 0.00201882 0.000676585 0.000275774 0 0 0 0 0 
1213 0.0946576 0.881608 0.0148684 0.00696515 0.00190066 0 0 0 0 0 
1214 0.0758003 0.891543 0.0259109 0.00332063 0.00161657 0.00180838 2.66898e-07 0 0 0 
1215 0.109382 0.888373 0.00152586 0.000511373 0.000208434 0 0 0 0 0 
1216 0.0705618 0.917338 0.00895119 0.0017087 0.00143166 9.00618e-06 0 0 0 0 
1217 0.0939497 0.863762 0.0280441 0.0142446 0 0 0 0 0 0 
1218 0.0898033 0.878035 0.0255183 0.00327031 0.00159208 0.00178098 2.62854e-07 0 0 0 
1219 0.0674788 0.897013 0.0259615 0.00641221 0.00313502 0 0 0 0 0 
1220 0.14257 0.846437 0.0102814 0.000505927 0.000206038 0 0 0 0 0 
1221 0.100461 0.894035 0.00428889 0.000798097 0.00041723 0 0 0 0 0 
1222 0.090459 0.885444 0.0150972 0.00707068 0.00192946 0 0 0 0 0 
1223 0.259793 0.619463 0.067293 0.0534508 0 0 0 0 0 0 
1224 0.0679667 0.893037 0.0284946 0.00705343 0.00344853 0 0 0 0 0 
1225 0.106005 0.888331 0.00441321 0.00082123 0.000429323 0 0 0 0 0 
1226 0.0840127 0.874339 0.0276192 0.0140287 0 0 0 0 0 0 
1227 0.0746518 0.893186 0.0255183 0.00327031 0.00159208 0.00178098 2.62854e-07 0 0 0 
1228 0.0938591 0.868228 0.0277031 0.0068575 0.00335273 0 0 0 0 0 
1229 0.0648292 0.907241 0.0221606 0.00284001 0.00138259 0.00154664 2.28268e-07 0 0 0 
1230 0.0785597 0.898057 0.0146481 0.00686272 0.00187271 0 0 0 0 0 
1231 0.0731948 0.884809 0.0306865 0.007596 0.0037138 0 0 0 0 0 
1232 0.106459 0.887708 0.00454495 0.000845745 0.000442139 0 0 0 0 0 
1233 0.0817258 0.878616 0.023212 0.016446 0 0 0 0 0 0 
1234 0.0898033 0.878035 0.0255183 0.00327031 0.00159208 0.00178098 2.62854e-07 0 0 0 
1235 0.08965 0.896569 0.0101944 0.00194602 0.0016305 1.0257e-05 0 0 0 0 
1236 0.0763428 0.910007 0.0101125 0.00191936 0.00160816 1.01165e-05 0 0 0 0 
1237 0.0781205 0.869295 0.0368637 0.0157205 0 0 0 0 0 0 
1238 0.0746518 0.878035 0.0406698 0.00327031 0.00159208 0.00178098 2.62854e-07 0 0 0 
1239 0.100461 0.894034 0.00428927 0.000798097 0.00041723 0 0 0 0 0 
1240 0.0853052 0.872406 0.0280441 0.0142446 0 0 0 0 0 0 
1241 0.172832 0.825436 0.00139873 0.000166741 0.000166748 0 0 0 0 0 
1242 0.0817258 0.878616 0.023212 0.016446 0 0 0 0 0 0 
1243 0.0731948 0.884809 0.0306865 0.007596 0.0037138 0 0 0 0 0 
1244 0.174773 0.823619 0.00129882 0.000154831 0.000154837 0 0 0 0 0 
1245 0.127376 0.869698 0.00198824 0.000666334 0.000271595 0 0 0 0 0 
1246 0.127376 0.869698 0.00198824 0.000666334 0.000271595 0 0 0 0 0 
1247 0.092163 0.873738 0.0207363 0.0133624 0 0 0 0 0 0 
1248 0.0758048 0.891538 0.0259109 0.00332063 0.00161657 0.00180838 2.66898e-07 0 0 0 
1249 0.0829131 0.884426 0.0259154 0.00332063 0.00161657 0.00180838 2.66898e-07 0 0 0 
1250 0.0886402 0.897766 0.0100563 0.00191936 0.00160816 1.01165e-05 0 0 0 0 
1251 0.156957 0.841542 0.00121223 0.000144509 0.000144515 0 0 0 0 0 
1252 0.0758003 0.891543 0.0259109 0.00332063 0.00161657 0.00180838 2.66898e-07 0 0 0 
1253 0.0932656 0.883351 0.0146481 0.00686272 0.00187271 0 0 0 0 0 
1254 0.129336 0.867693 0.00201882 0.000676586 0.000275774 0 0 0 0 0 
1255 0.08392 0.900815 0.0112923 0.00215559 0.00180609 1.13616e-05 0 0 0 0 
1256 0.0733028 0.860057 0.043856 0.0227834 0 0 0 0 0 0 
1257 0.111303 0.88331 0.00425169 0.000745591 0.00038978 0 0 0 0 0 
1258 0.0990659 0.895506 0.00422932 0.000787012 0.000411435 0 0 0 0 0 
1259 0.0853052 0.872406 0.0280441 0.0142446 0 0 0 0 0 0 
1260 0.10562 0.889305 0.00395469 0.000735908 0.000384718 0 0 0 0 0 
1261 0.081415 0.903775 0.0109552 0.00209124 0.00175218 1.10225e-05 0 0 0 0 
1262 0.0935479 0.892072 0.0106376 0.00203063 0.00170139 1.0703e-05 0 0 0 0 
1263 0.125475 0.871642 0.00195856 0.000656389 0.000267542 0 0 0 0 0 
1264 0.0720858 0.886554 0.0302215 0.00748091 0.00365753 0 0 0 0 0 
1265 0.0930683 0.895907 0.00815553 0.00155681 0.0013044 8.20563e-06 0 0 0 0 
1266 0.12863 0.865865 0.00428889 0.000798097 0.00041723 0 0 0 0 0 
1267 0.160983 0.811559 0.0271725 0.000142607 0.000142613 0 0 0 0 0 
1268 0.0680106 0.892993 0.0284946 0.00705343 0.00344853 0 0 0 0 0 
1269 0.115114 0.881458 0.00267117 0.00049706 0.000259853 0 0 0 0 0 
1270 0.12363 0.87353 0.00192976 0.000646736 0.000263607 0 0 0 0 0 
1271 0.0821856 0.893342 0.015334 0.00717946 0.00195915 0 0 0 0 0 
1272 0.125475 0.871642 0.00195856 0.000656389 0.000267542 0 0 0 0 0 
1273 0.0726214 0.882775 0.0335757 0.00784726 0.0015011 0.00167921 2.47834e-07 0 0 0 
1274 0.15391 0.844941 0.00092773 0.000110593 0.000110598 0 0 0 0 0 
1275 0.079486 0.907284 0.00978664 0.00186818 0.00156528 9.84676e-06 0 0 0 0 
1276 0.165007 0.833713 0.00103317 0.000123161 0.000123166 0 0 0 0 0 
1277 0.214565 0.783849 0.00128053 0.00015265 0.000152657 0 0 0 0 0 
1278 0.0790551 0.906565 0.0106377 0.00203063 0.00170139 1.0703e-05 0 0 0 0 
1279 0.0735376 0.89478 0.0251374 0.0032215 0.00156831 0.0017544 2.58931e-07 0 0 0 
1280 0.129336 0.867693 0.00201882 0.000676586 0.000275774 0 0 0 0 0 
1281 0.106459 0.887708 0.00454495 0.000845745 0.000442139 0 0 0 0 0 
1282 0.0735376 0.89478 0.0251374 0.0032215 0.00156831 0.0017544 2.58931e-07 0 0 0 
1283 0.0778069 0.885298 0.026961 0.00667216 0.00326212 0 0 0 0 0 
1284 0.0731948 0.884809 0.0306865 0.007596 0.0037138 0 0 0 0 0 
1285 0.049559 0.922006 0.0207773 0.00514313 0.00251455 0 0 0 0 0 
1286 0.0963907 0.898328 0.00411504 0.000765742 0.000400315 0 0 0 0 0 
1287 0.0699656 0.889891 0.0293327 0.00726089 0.00354995 0 0 0 0 0 
1288 0.0747233 0.911684 0.0100548 0.00191936 0.00160816 1.01165e-05 0 0 0 0 
1289 0.0746518 0.893186 0.0255183 0.00327031 0.00159208 0.00178098 2.62854e-07 0 0 0 
1290 0.108072 0.886007 0.00461381 0.000858559 0.000448838 0 0 0 0 0 
1291 0.0705597 0.90417 0.0200501 0.00256953 0.00125092 0.00139934 2.06528e-07 0 0 0 
1292 0.129336 0.867693 0.00201882 0.000676586 0.000275774 0 0 0 0 0 
1293 0.08392 0.900815 0.0112923 0.00215559 0.00180609 1.13616e-05 0 0 0 0 
1294 0.0821856 0.893352 0.0153242 0.00717946 0.00195915 0 0 0 0 0 
1295 0.0731948 0.884809 0.0306865 0.007596 0.0037138 0 0 0 0 0 
1296 0.0355116 0.956547 0 0 0.0079405 0 0 0 0 0 
1297 0.129336 0.852308 0.0174034 0.000676586 0.000275774 0 0 0 0 0 
1298 0.0763152 0.900969 0.0142296 0.00666664 0.00181921 0 0 0 0 0 
1299 0.10662 0.876988 0.0102688 0.00481098 0.00131283 0 0 0 0 0 
1300 0.0758882 0.887058 0.0217825 0.0152713 0 0 0 0 0 0 
1301 0.0673432 0.920407 0.00906171 0.00172979 0.00144933 9.11737e-06 0 0 0 0 
1302 0.0758994 0.891444 0.0259109 0.00332063 0.00161657 0.00180838 2.66898e-07 0 0 0 
1303 0.0735376 0.89478 0.0251374 0.0032215 0.00156831 0.0017544 2.58931e-07 0 0 0 
1304 0.0922115 0.893614 0.0104857 0.00200162 0.00167708 1.05501e-05 0 0 0 0 
1305 0.129336 0.867693 0.00201882 0.000676586 0.000275774 0 0 0 0 0 
1306 0.0724562 0.896328 0.0247677 0.00317413 0.00154525 0.0017286 2.55123e-07 0 0 0 
1307 0.123223 0.870855 0.00461381 0.000858559 0.000448838 0 0 0 0 0 
1308 0.127376 0.869698 0.00198824 0.000666334 0.000271595 0 0 0 0 0 
1309 0.0795833 0.879057 0.0302215 0.00748091 0.00365753 0 0 0 0 0 
1310 0.116424 0.850599 0.0196151 0.0133624 0 0 0 0 0 0 
1311 0.0809666 0.877037 0.0306865 0.007596 0.0037138 0 0 0 0 0 
1312 0.088463 0.865032 0.0399602 0.00322157 0.00156832 0.0017544 2.58931e-07 0 0 0 
1313 0.104893 0.88936 0.00447811 0.000833307 0.000435637 0 0 0 0 0 
1314 0.0853052 0.872406 0.0280441 0.0142446 0 0 0 0 0 0 
1315 0.0600856 0.914028 0.0205391 0.0026322 0.00128143 0.00143347 2.11566e-07 0 0 0 
1316 0.0797323 0.896535 0.0148668 0.00696515 0.00190066 0 0 0 0 0 
1317 0.0733028 0.844681 0.0592316 0.0227834 0 0 0 0 0 0 
1318 0.0993774 0.860479 0.0293328 0.00726088 0.00354995 0 0 0 0 0 
1319 0.0822446 0.893292 0.0153244 0.00717946 0.00195915 0 0 0 0 0 
1320 0.0853052 0.872406 0.0280441 0.0142446 0 0 0 0 0 0 
1321 0.109735 0.884253 0.00468479 0.000871768 0.000455743 0 0 0 0 0 
1322 0.0853052 0.872406 0.0280441 0.0142446 0 0 0 0 0 0 
1323 0.106459 0.887708 0.00454495 0.000845745 0.000442139 0 0 0 0 0 
1324 0.0837542 0.884084 0.0255183 0.00327031 0.00159208 0.00178098 2.62854e-07 0 0 0 
1325 0.0785597 0.898057 0.0146481 0.00686272 0.00187271 0 0 0 0 0 
1326 0.116182 0.878235 0.00435016 0.000809498 0.00042319 0 0 0 0 0 
1327 0.0922153 0.903076 0.00366881 0.00068271 0.000356907 0 0 0 0 0 
1328 0.0741992 0.903716 0.0138343 0.00648145 0.00176867 0 0 0 0 0 
1329 0.0888078 0.871158 0.0344126 0.00276719 0.00134714 0.00150699 2.22415e-07 0 0 0 
1330 0.0733028 0.860057 0.043856 0.0227834 0 0 0 0 0 0 
1331 0.0859352 0.873322 0.0297705 0.00736926 0.00360294 0 0 0 0 0 
1332 0.0993856 0.877569 0.0144367 0.00676326 0.00184557 0 0 0 0 0 
1333 0.0821856 0.893352 0.0153242 0.00717946 0.00195915 0 0 0 0 0 
1334 0.11253 0.882818 0.00362515 0.000674582 0.000352658 0 0 0 0 0 
1335 0.0785597 0.88613 0.0265746 0.00686272 0.00187271 0 0 0 0 0 
1336 0.0731948 0.884809 0.0306865 0.007596 0.0037138 0 0 0 0 0 
1337 0.0657493 0.857054 0.0394536 0.0296224 0.00812007 0 0 0 0 0 
1338 0.0826485 0.902317 0.0111212 0.00212293 0.00177872 1.11895e-05 0 0 0 0 
1339 0.0797323 0.896535 0.0148668 0.00696515 0.00190066 0 0 0 0 0 
1340 0.0731948 0.884809 0.0306867 0.007596 0.0037138 0 0 0 0 0 
1341 0.0708416 0.916272 0.00953244 0.00181965 0.00152462 9.591e-06 0 0 0 0 
1342 0.0733028 0.844672 0.0438675 0.0381565 0 0 0 0 0 0 
1343 0.0853052 0.871861 0.0285894 0.0142446 0 0 0 0 0 0 
1344 0.135374 0.861743 0.00195856 0.000656389 0.000267542 0 0 0 0 0 
1345 0.0906701 0.857528 0.0277031 0.00685819 0.0172409 0 0 0 0 0 
1346 0.0821856 0.893352 0.0153242 0.00717946 0.00195915 0 0 0 0 0 
1347 0.0731948 0.884809 0.0306865 0.007596 0.0037138 0 0 0 0 0 
1348 0.237349 0.638249 0.069331 0.0550705 0 0 0 0 0 0 
1349 0.033453 0.959066 0 0 0.00748018 0 0 0 0 0 
1350 0.129336 0.867693 0.00201882 0.000676586 0.000275774 0 0 0 0 0 
1351 0.0702906 0.895737 0.026157 0.00614033 0.00167559 0 0 0 0 0 
1352 0.0754606 0.912874 0.00866285 0.00162922 0.00136507 8.58729e-06 0 0 0 0 
1353 0.0737135 0.912878 0.00991889 0.00189342 0.00158643 9.97982e-06 0 0 0 0 
1354 0.0767688 0.886835 0.026595 0.0065832 0.00321862 0 0 0 0 0 
1355 0.100461 0.894035 0.0042889 0.000798097 0.00041723 0 0 0 0 0 
1356 0.0875385 0.898486 0.010338 0.00197343 0.00165346 1.04015e-05 0 0 0 0 
1357 0.0974778 0.890422 0.00895119 0.0017087 0.00143166 9.00618e-06 0 0 0 0 
1358 0.0876275 0.879716 0.0259109 0.00332063 0.00161657 0.00180838 2.66898e-07 0 0 0 
1359 0.0857035 0.892809 0.0134605 0.00630628 0.00172087 0 0 0 0 0 
1360 0.119599 0.874654 0.00447811 0.000833307 0.000435637 0 0 0 0 0 
1361 0.0729924 0.849811 0.0394536 0.0296224 0.00812007 0 0 0 0 0 
1362 0.121724 0.838439 0.0264184 0.0134188 0 0 0 0 0 0 
1363 0.0758003 0.891543 0.0259109 0.00332063 0.00161657 0.00180838 2.66898e-07 0 0 0 
1364 0.102163 0.827297 0.0378983 0.0326419 0 0 0 0 0 0 
1365 0.08392 0.900815 0.0112923 0.00215559 0.00180609 1.13616e-05 0 0 0 0 
1366 0.0826485 0.902317 0.0111212 0.00212293 0.00177872 1.11895e-05 0 0 0 0 
1367 0.0731948 0.869425 0.0460707 0.007596 0.0037138 0 0 0 0 0 
1368 0.0804877 0.880455 0.0228604 0.0161968 0 0 0 0 0 0 
1369 0.108072 0.886007 0.00461381 0.000858559 0.000448838 0 0 0 0 0 
1370 0.0651891 0.897416 0.0273243 0.00676356 0.00330681 0 0 0 0 0 
1371 0.08965 0.88268 0.0102084 0.0158209 0.0016305 1.0257e-05 0 0 0 0 
1372 0.0774212 0.899534 0.0144358 0.00676326 0.00184557 0 0 0 0 0 
1373 0.0962088 0.874309 0.0233917 0.00299779 0.0014594 0.00163257 2.4095e-07 0 0 0 
1374 0.140842 0.857035 0.00144216 0.000483275 0.000196981 0 0 0 0 0 
1375 0.0834444 0.876994 0.0289076 0.00715566 0.00349851 0 0 0 0 0 
1376 0.0845608 0.894238 0.013281 0.0062222 0.00169793 0 0 0 0 0 
1377 0.0790551 0.906565 0.0106376 0.00203063 0.00170139 1.0703e-05 0 0 0 0 
1378 0.0600053 0.908253 0.0231933 0.00574117 0.00280694 0 0 0 0 0 
1379 0.103373 0.890963 0.00441321 0.00082123 0.000429323 0 0 0 0 0 
1380 0.115162 0.882192 0.00179758 0.000602439 0.000245552 0 0 0 0 0 
1381 0.0905728 0.886712 0.0142296 0.00666664 0.00181921 0 0 0 0 0 
1382 0.0717737 0.91517 0.00965786 0.0018436 0.00154468 9.7172e-06 0 0 0 0 
1383 0.121838 0.875363 0.00190179 0.000637363 0.000259787 0 0 0 0 0 
1384 0.0758003 0.891543 0.0259109 0.00332063 0.00161657 0.00180838 2.66898e-07 0 0 0 
1385 0.0790627 0.906557 0.0106378 0.00203063 0.00170139 1.0703e-05 0 0 0 0 
1386 0.137932 0.858309 0.00292998 0.000544855 0.000284839 0 0 0 0 0 
1387 0.116776 0.863348 0.0124509 0.00583331 0.00159181 0 0 0 0 0 
1388 0.0853052 0.872406 0.0280441 0.0142446 0 0 0 0 0 0 
1389 0.08392 0.900815 0.0112923 0.00215559 0.00180609 1.13616e-05 0 0 0 0 
1390 0.0702903 0.908788 0.0131062 0.00614033 0.00167559 0 0 0 0 0 
1391 0.0779148 0.889362 0.0217008 0.0110226 0 0 0 0 0 0 
1392 0.087162 0.881622 0.0247677 0.00317413 0.00154525 0.0017286 2.55123e-07 0 0 0 
1393 0.0840127 0.874339 0.0276192 0.0140287 0 0 0 0 0 0 
1394 0.0821856 0.893352 0.0153242 0.00717946 0.00195915 0 0 0 0 0 
1395 0.081325 0.898289 0.0127705 0.00598288 0.00163262 0 0 0 0 0 
1396 0.0962477 0.863329 0.0268069 0.0136161 0 0 0 0 0 0 
1397 0.0779257 0.907899 0.0104857 0.00200162 0.00167708 1.05501e-05 0 0 0 0 
1398 0.0817258 0.878616 0.023212 0.016446 0 0 0 0 0 0 
1399 0.087162 0.881622 0.0247677 0.00317413 0.00154525 0.0017286 2.55123e-07 0 0 0 
1400 0.0699659 0.889891 0.0293327 0.00726089 0.00354995 0 0 0 0 0 
1401 0.0763556 0.900929 0.0142296 0.00666664 0.00181921 0 0 0 0 0 
1402 0.0847748 0.851525 0.0419212 0.0217782 0 0 0 0 0 0 
1403 0.0758003 0.891543 0.0259109 0.00332063 0.00161657 0.00180838 2.66898e-07 0 0 0 
1404 0.0960258 0.883323 0.0129366 0.00606058 0.00165383 0 0 0 0 0 
1405 0.0964724 0.862501 0.027207 0.0138194 0 0 0 0 0 0 
1406 0.0853053 0.872406 0.0280441 0.0142446 0 0 0 0 0 0 
1407 0.0804875 0.880455 0.0228604 0.0161968 0 0 0 0 0 0 
1408 0.0774212 0.899534 0.0144358 0.00676326 0.00184557 0 0 0 0 0 
1409 0.08392 0.900815 0.0112923 0.00215559 0.00180609 1.13616e-05 0 0 0 0 
1410 0.0817258 0.878616 0.023212 0.016446 0 0 0 0 0 0 
1411 0.0821856 0.893352 0.0153242 0.00717946 0.00195915 0 0 0 0 0 
1412 0.153042 0.844118 0.00192976 0.000646736 0.000263607 0 0 0 0 0 
1413 0.0657507 0.857053 0.0394536 0.0296224 0.00812007 0 0 0 0 0 
1414 0.0769699 0.922781 0.000249466 0 0 0 0 0 0 0 
1415 0.109902 0.875721 0.0132114 0.000765742 0.000400315 0 0 0 0 0 
1416 0.0731948 0.884809 0.0306865 0.007596 0.0037138 0 0 0 0 0 
1417 0.0735376 0.89478 0.0251374 0.0032215 0.00156831 0.0017544 2.58931e-07 0 0 0 
1418 0.0883994 0.907348 0.00331512 0.000615923 0.000321992 0 0 0 0 0 
1419 0.0965096 0.863067 0.0268069 0.0136161 0 0 0 0 0 0 
1420 0.087042 0.884273 0.0227595 0.00291677 0.00141996 0.00158845 2.34438e-07 0 0 0 
1421 0.125475 0.871642 0.00195856 0.000656389 0.000267542 0 0 0 0 0 
1422 0.109735 0.884253 0.00468479 0.000871768 0.000455743 0 0 0 0 0 
1423 0.0731948 0.884809 0.0306865 0.007596 0.0037138 0 0 0 0 0 
1424 0.0821856 0.893352 0.0153242 0.00717946 0.00195915 0 0 0 0 0 
1425 0.0959687 0.879939 0.015092 0.00707068 0.00192946 0 0 0 0 0 
1426 0.179913 0.818431 0.00133702 0.000159384 0.000159391 0 0 0 0 0 
1427 0.0991643 0.859188 0.0276192 0.0140287 0 0 0 0 0 0 
1428 0.109907 0.871386 0.0117188 0.00549017 0.00149817 0 0 0 0 0 
1429 0.0993774 0.860479 0.0293327 0.00726089 0.00354995 0 0 0 0 0 
1430 0.113068 0.881505 0.00422932 0.000787012 0.000411435 0 0 0 0 0 
1431 0.0833253 0.884008 0.0259204 0.00332063 0.00161657 0.00180838 2.66898e-07 0 0 0 
1432 0.11472 0.882925 0.00160032 0.000536318 0.000218601 0 0 0 0 0 
1433 0.1404 0.856717 0.00195856 0.000656389 0.000267542 0 0 0 0 0 
1434 0.172832 0.825436 0.00139873 0.000166741 0.000166748 0 0 0 0 0 
1435 0.0962086 0.87431 0.0233917 0.00299779 0.0014594 0.00163257 2.4095e-07 0 0 0 
1436 0.0758003 0.891543 0.0259109 0.00332063 0.00161657 0.00180838 2.66898e-07 0 0 0 
1437 0.0809403 0.894968 0.015092 0.00707068 0.00192946 0 0 0 0 0 
1438 0.0821856 0.893352 0.0153242 0.00717946 0.00195915 0 0 0 0 0 
1439 0.0817258 0.878616 0.023212 0.016446 0 0 0 0 0 0 
1440 0.0758003 0.891543 0.0259109 0.00332063 0.00161657 0.00180838 2.66898e-07 0 0 0 
1441 0.0758003 0.891543 0.0259109 0.00332063 0.00161657 0.00180838 2.66898e-07 0 0 0 
1442 0.172832 0.825436 0.00139873 0.000166741 0.000166748 0 0 0 0 0 
1443 0.108072 0.886007 0.00461381 0.000858559 0.000448838 0 0 0 0 0 
1444 0.0685683 0.855405 0.0388559 0.0291736 0.00799704 0 0 0 0 0 
1445 0.087162 0.881622 0.0247677 0.00317413 0.00154525 0.0017286 2.55123e-07 0 0 0 
1446 0.100741 0.885851 0.00991889 0.00189342 0.00158643 9.97982e-06 0 0 0 0 
1447 0.100461 0.894035 0.00428889 0.000798097 0.00041723 0 0 0 0 0 
1448 0.0724567 0.896327 0.0247677 0.00317413 0.00154525 0.0017286 2.55123e-07 0 0 0 
1449 0.0792862 0.882167 0.0225915 0.0159551 0 0 0 0 0 0 
1450 0.127376 0.869698 0.00198824 0.000666334 0.000271595 0 0 0 0 0 
1451 0.0846717 0.885004 0.0240601 0.00308344 0.0015011 0.00167921 2.47834e-07 0 0 0 
1452 0.0802177 0.890485 0.0107941 0.00208189 0.0164109 1.08604e-05 0 0 0 0 
1453 0.0758039 0.891539 0.0259109 0.00332063 0.00161657 0.00180838 2.66898e-07 0 0 0 
1454 0.0821856 0.893352 0.0153242 0.00717946 0.00195915 0 0 0 0 0 
