1 1 4 100 1
2 2 4 100 1
3 3 4 100 1
0 4 4 100 1
0 5 4 100 0.000942762
3 5 4 100 0.999057
0 6 4 100 0.0010501
3 6 4 100 0.99895
4 7 4 100 1
0 1 5 100 5.21112e-06
1 1 5 100 0.999995
2 2 5 100 0.333333
3 2 5 100 0.666667
4 3 5 100 1
0 4 5 100 0.0111783
1 4 5 100 0.488821
5 4 5 100 0.500001
0 5 5 100 0.000394131
2 5 5 100 0.999606
5 6 5 100 1
1 1 6 100 1
0 2 6 100 1.10119e-05
2 2 6 100 0.999989
3 3 6 100 0.672372
4 3 6 100 0.327628
4 4 6 100 0.333333
5 4 6 100 0.333333
6 4 6 100 0.333333
5 5 6 100 0.5
6 5 6 100 0.5
0 6 6 100 1
5 7 6 100 1
0 8 6 100 0.00172438
5 8 6 100 0.998276
6 9 6 100 1
1 1 7 100 0.9
3 1 7 100 0.0999999
0 2 7 100 0.000183727
1 2 7 100 0.0460409
2 2 7 100 0.753786
4 2 7 100 0.0999982
5 2 7 100 0.0999912
0 3 7 100 0.00747923
2 3 7 100 0.092522
3 3 7 100 0.699999
5 3 7 100 0.1
6 3 7 100 0.1
0 4 7 100 3.82826e-05
2 4 7 100 0.1
3 4 7 100 0.0999995
4 4 7 100 0.699962
6 4 7 100 0.1
0 5 7 100 1.71341e-05
3 5 7 100 0.1
4 5 7 100 0.3
5 5 7 100 0.499983
7 5 7 100 0.1
0 6 7 100 1.36016e-05
5 6 7 100 0.33332
6 6 7 100 0.555556
7 6 7 100 0.111111
0 7 7 100 0.125
6 7 7 100 0.375
7 7 7 100 0.5
0 8 7 100 0.248893
6 8 7 100 0.00110692
7 8 7 100 0.75
0 9 7 100 0.108077
6 9 7 100 0.891923
7 10 7 100 1
1 1 8 100 0.909091
2 1 8 100 0.0909091
0 2 8 100 0.000704049
1 2 8 100 0.179906
2 2 8 100 0.636406
3 2 8 100 0.0920753
4 2 8 100 0.0909091
0 3 8 100 2.34449e-05
2 3 8 100 0.0909101
3 3 8 100 0.552756
4 3 8 100 0.183066
5 3 8 100 0.173244
0 4 8 100 0.090909
3 4 8 100 0.0909091
4 4 8 100 0.545455
5 4 8 100 0.181818
6 4 8 100 0.0909091
0 5 8 100 3.5824e-05
2 5 8 100 0.00121217
4 5 8 100 0.0909063
5 5 8 100 0.544231
6 5 8 100 0.181797
7 5 8 100 0.181818
0 6 8 100 2.98878e-05
5 6 8 100 0.0909092
6 6 8 100 0.545424
7 6 8 100 0.181818
8 6 8 100 0.181818
6 7 8 100 0.111111
7 7 8 100 0.666667
8 7 8 100 0.222222
7 8 8 100 0.428571
8 8 8 100 0.571429
8 9 8 100 1
1 1 9 100 1
0 2 9 100 3.079e-05
2 2 9 100 0.833304
3 2 9 100 0.0833321
5 2 9 100 0.0833333
0 3 9 100 0.0668094
2 3 9 100 0.0833333
3 3 9 100 0.677226
4 3 9 100 0.0892765
5 3 9 100 0.0416925
6 3 9 100 0.0416622
0 4 9 100 0.103215
2 4 9 100 0.0425088
3 4 9 100 0.0833328
4 4 9 100 0.541793
5 4 9 100 0.187484
7 4 9 100 0.0416667
0 5 9 100 1.13936e-05
2 5 9 100 0.000289204
3 5 9 100 0.0833334
4 5 9 100 0.124998
5 5 9 100 0.624701
6 5 9 100 0.0833334
7 5 9 100 0.0416667
8 5 9 100 0.0416666
0 6 9 100 0.00113154
4 6 9 100 0.0416468
5 6 9 100 0.166665
6 6 9 100 0.569163
7 6 9 100 0.13806
8 6 9 100 0.0416667
9 6 9 100 0.0416667
0 7 9 100 0.0434846
5 7 9 100 0.0434783
6 7 9 100 0.173912
7 7 9 100 0.523719
8 7 9 100 0.171929
9 7 9 100 0.0434783
0 8 9 100 6.93126e-07
4 8 9 100 0.0454546
6 8 9 100 0.0454539
7 8 9 100 0.181818
8 8 9 100 0.5
9 8 9 100 0.227273
0 9 9 100 0.0882355
5 9 9 100 0.0294115
7 9 9 100 0.0588235
8 9 9 100 0.235294
9 9 9 100 0.588235
6 10 9 100 0.142854
7 10 9 100 2.76448e-06
8 10 9 100 0.285714
9 10 9 100 0.571429
0 11 9 100 0.000335391
7 11 9 100 0.333333
8 11 9 100 0.332998
9 11 9 100 0.333333
8 12 9 100 0.5
9 12 9 100 0.5
9 13 9 100 1
1 1 10 100 0.888909
2 1 10 100 0.0740825
3 1 10 100 0.0370035
5 1 10 100 4.988e-06
0 2 10 100 0.0459289
1 2 10 100 0.037037
2 2 10 100 0.769208
3 2 10 100 0.074084
4 2 10 100 0.0370601
6 2 10 100 0.0351199
7 2 10 100 7.67994e-05
9 2 10 100 0.00148533
0 3 10 100 0.074099
1 3 10 100 0.0734686
2 3 10 100 0.0370227
3 3 10 100 0.703687
4 3 10 100 0.0370371
5 3 10 100 0.0370371
6 3 10 100 0.0370365
7 3 10 100 0.000597309
8 3 10 100 1.42754e-05
9 3 10 100 8.31704e-07
0 4 10 100 0.112683
2 4 10 100 0.111093
3 4 10 100 0.037037
4 4 10 100 0.518436
5 4 10 100 0.147762
6 4 10 100 0.0370371
7 4 10 100 0.0357658
8 4 10 100 0.000185706
0 5 10 100 1.55771e-05
2 5 10 100 0.0367817
3 5 10 100 0.111111
4 5 10 100 0.148149
5 5 10 100 0.481466
6 5 10 100 0.111366
7 5 10 100 0.0370371
8 5 10 100 0.0740741
0 6 10 100 0.0370504
3 6 10 100 0.0370349
4 6 10 100 0.111111
5 6 10 100 0.185175
6 6 10 100 0.407406
7 6 10 100 0.111111
8 6 10 100 0.0370371
9 6 10 100 0.0740741
0 7 10 100 0.0370402
4 7 10 100 0.037037
5 7 10 100 0.0370683
6 7 10 100 0.259256
7 7 10 100 0.296299
8 7 10 100 0.222189
9 7 10 100 0.037037
10 7 10 100 0.0740741
0 8 10 100 0.0401423
2 8 10 100 1.49128e-06
5 8 10 100 6.59738e-05
6 8 10 100 0.04
7 8 10 100 0.279995
8 8 10 100 0.254152
9 8 10 100 0.305643
10 8 10 100 0.0800001
0 9 10 100 0.000349129
6 9 10 100 0.043377
7 9 10 100 0.0435512
8 9 10 100 0.347879
9 9 10 100 0.347453
10 9 10 100 0.217391
0 10 10 100 0.00387801
8 10 10 100 0.11111
9 10 10 100 0.66279
10 10 10 100 0.222222
0 11 10 100 8.56253e-05
6 11 10 100 0.00331456
8 11 10 100 0.0714286
9 11 10 100 0.282314
10 11 10 100 0.642857
0 12 10 100 0.2
10 12 10 100 0.8
3 13 10 100 0.000139342
9 13 10 100 0.999861
10 14 10 100 1
1 1 11 100 0.926921
2 1 11 100 0.03125
4 1 11 100 0.0105788
6 1 11 100 0.03125
0 2 11 100 0.0630629
2 2 11 100 0.843375
3 2 11 100 0.03125
5 2 11 100 0.03125
6 2 11 100 0.0310621
0 3 11 100 0.0844623
1 3 11 100 0.0312488
2 3 11 100 0.0617256
3 3 11 100 0.676775
4 3 11 100 0.0989051
5 3 11 100 0.0312405
6 3 11 100 0.0156273
10 3 11 100 1.50406e-05
0 4 11 100 0.0313226
1 4 11 100 0.0625
3 4 11 100 0.0312453
4 4 11 100 0.656188
5 4 11 100 0.0937498
6 4 11 100 0.03125
7 4 11 100 0.0937382
8 4 11 100 5.45808e-06
0 5 11 100 0.0312814
2 5 11 100 0.0625
4 5 11 100 0.03125
5 5 11 100 0.656233
6 5 11 100 0.09375
7 5 11 100 0.0312484
8 5 11 100 0.0935804
9 5 11 100 0.000156989
0 6 11 100 0.00486437
1 6 11 100 1.29399e-05
2 6 11 100 0.0312499
3 6 11 100 0.0624981
5 6 11 100 0.0312535
6 6 11 100 0.682627
7 6 11 100 0.0937421
8 6 11 100 0.03125
9 6 11 100 0.03125
10 6 11 100 0.0312525
0 7 11 100 0.00955169
3 7 11 100 0.0312508
4 7 11 100 0.0843151
6 7 11 100 0.0312502
7 7 11 100 0.656237
8 7 11 100 0.0937383
9 7 11 100 0.0624074
10 7 11 100 0.03125
0 8 11 100 5.03523e-05
4 8 11 100 0.03125
5 8 11 100 0.0937449
6 8 11 100 0.03125
7 8 11 100 0.03125
8 8 11 100 0.562489
9 8 11 100 0.156215
10 8 11 100 0.0625
11 8 11 100 0.03125
0 9 11 100 0.000171407
5 9 11 100 0.0322578
6 9 11 100 0.0967742
7 9 11 100 0.0322581
8 9 11 100 0.0643664
9 9 11 100 0.548366
10 9 11 100 0.16129
11 9 11 100 0.0645162
0 10 11 100 0.0350633
6 10 11 100 0.067178
7 10 11 100 0.0689648
8 10 11 100 0.00117447
9 10 11 100 0.06903
10 10 11 100 0.51721
11 10 11 100 0.241379
0 11 11 100 0.0821096
7 11 11 100 0.090458
8 11 11 100 0.0911249
9 11 11 100 1.57383e-05
10 11 11 100 0.145383
11 11 11 100 0.590909
0 12 11 100 4.38999e-06
5 12 11 100 0.111111
8 12 11 100 0.111111
9 12 11 100 0.111111
10 12 11 100 0.222218
11 12 11 100 0.444445
5 13 11 100 0.2
9 13 11 100 0.2
10 13 11 100 0.2
11 13 11 100 0.4
10 14 11 100 0.333333
11 14 11 100 0.666667
11 15 11 100 1
1 1 12 100 0.954513
2 1 12 100 0.0227273
11 1 12 100 0.0227593
0 2 12 100 0.0221499
1 2 12 100 0.0261
2 2 12 100 0.844299
3 2 12 100 0.0385958
4 2 12 100 0.0227262
6 2 12 100 0.0227221
10 2 12 100 0.000679861
11 2 12 100 0.0227273
0 3 12 100 0.0455437
1 3 12 100 0.0227273
2 3 12 100 0.0228851
3 3 12 100 0.727129
4 3 12 100 0.0908282
5 3 12 100 0.0231299
6 3 12 100 0.0450296
7 3 12 100 0.0227273
0 4 12 100 0.0807675
2 4 12 100 0.0454546
3 4 12 100 0.022726
4 4 12 100 0.672604
5 4 12 100 0.10221
6 4 12 100 1.90975e-06
7 4 12 100 0.0454546
8 4 12 100 0.00805226
9 4 12 100 0.022729
0 5 12 100 0.0401954
1 5 12 100 0.0227273
3 5 12 100 0.0681818
4 5 12 100 0.0421699
5 5 12 100 0.611928
6 5 12 100 0.101632
7 5 12 100 0.0227273
8 5 12 100 0.0449835
9 5 12 100 0.0227273
10 5 12 100 0.0227273
0 6 12 100 0.047015
2 6 12 100 0.0227273
3 6 12 100 0.0226899
4 6 12 100 0.0909061
5 6 12 100 0.068019
6 6 12 100 0.483293
7 6 12 100 0.128947
8 6 12 100 0.0227646
9 6 12 100 0.0909114
11 6 12 100 0.0227273
0 7 12 100 0.000141638
3 7 12 100 0.0227273
4 7 12 100 0.0227273
5 7 12 100 0.136364
6 7 12 100 0.0681785
7 7 12 100 0.463647
8 7 12 100 0.159087
10 7 12 100 0.0909076
11 7 12 100 0.0134919
12 7 12 100 0.0227273
0 8 12 100 6.6186e-05
3 8 12 100 3.79297e-07
4 8 12 100 0.0232558
5 8 12 100 0.0464917
6 8 12 100 0.116264
7 8 12 100 0.0697674
8 8 12 100 0.458494
9 8 12 100 0.139531
10 8 12 100 0.023247
11 8 12 100 0.099627
12 8 12 100 0.0232558
0 9 12 100 0.0327595
4 9 12 100 0.0237853
5 9 12 100 0.0238095
6 9 12 100 0.0172971
7 9 12 100 0.0952377
8 9 12 100 0.0239663
9 9 12 100 0.485024
10 9 12 100 0.157384
11 9 12 100 0.045499
12 9 12 100 0.0952382
0 10 12 100 0.0278429
5 10 12 100 0.0263157
6 10 12 100 0.0263117
7 10 12 100 0.0263158
8 10 12 100 0.0789474
9 10 12 100 0.105262
10 10 12 100 0.498479
11 10 12 100 0.18421
12 10 12 100 0.0263158
0 11 12 100 0.0270622
2 11 12 100 0.0270263
4 11 12 100 0.027027
7 11 12 100 0.027032
8 11 12 100 0.0268394
9 11 12 100 0.0810753
10 11 12 100 0.108084
11 11 12 100 0.513691
12 11 12 100 0.162162
0 12 12 100 0.00464989
2 12 12 100 0.0277508
3 12 12 100 0.000217136
5 12 12 100 0.0318978
6 12 12 100 5.11702e-07
8 12 12 100 0.0645161
10 12 12 100 0.0967741
11 12 12 100 0.129032
12 12 12 100 0.645162
0 13 12 100 0.0868388
4 13 12 100 0.00441043
7 13 12 100 0.0909091
9 13 12 100 0.0908957
10 13 12 100 0.181491
11 13 12 100 0.272727
12 13 12 100 0.272727
0 14 12 100 4.32609e-05
8 14 12 100 0.125
10 14 12 100 0.124957
11 14 12 100 0.375
12 14 12 100 0.375
11 15 12 100 0.2
12 15 12 100 0.8
12 16 12 100 1
1 1 13 100 1
0 2 13 100 7.66755e-05
2 2 13 100 0.928477
3 2 13 100 0.0476366
4 2 13 100 0.0238095
0 3 13 100 0.0476372
1 3 13 100 1.34128e-05
3 3 13 100 0.833107
4 3 13 100 0.11182
6 3 13 100 0.00742267
0 4 13 100 0.048467
1 4 13 100 0.0168102
2 4 13 100 0.00691524
4 4 13 100 0.784905
5 4 13 100 0.119041
7 4 13 100 0.0238095
8 4 13 100 4.98607e-05
10 4 13 100 2.66678e-06
0 5 13 100 0.0955763
3 5 13 100 2.94577e-07
4 5 13 100 0.0238095
5 5 13 100 0.68917
6 5 13 100 0.142857
8 5 13 100 0.0247774
10 5 13 100 0.0238095
0 6 13 100 0.0485078
3 6 13 100 0.0714285
5 6 13 100 0.0714286
6 6 13 100 0.474279
7 6 13 100 0.229226
8 6 13 100 0.0238094
9 6 13 100 0.0417846
10 6 13 100 0.0157263
11 6 13 100 0.0238095
0 7 13 100 0.095277
3 7 13 100 0.00683638
4 7 13 100 0.0645922
6 7 13 100 0.0952306
7 7 13 100 0.38093
8 7 13 100 0.21428
9 7 13 100 0.047619
10 7 13 100 0.0238069
11 7 13 100 0.0476177
12 7 13 100 0.0238095
0 8 13 100 0.0361481
1 8 13 100 0.0235525
3 8 13 100 1.79011e-05
4 8 13 100 0.0238093
5 8 13 100 0.0237923
6 8 13 100 6.41239e-07
7 8 13 100 0.237977
8 8 13 100 0.261902
9 8 13 100 0.249946
10 8 13 100 0.0476153
11 8 13 100 0.0238095
12 8 13 100 0.0476191
13 8 13 100 0.0238095
0 9 13 100 0.0247488
1 9 13 100 0.0243902
5 9 13 100 0.0487803
6 9 13 100 0.0243903
7 9 13 100 0.0242928
8 9 13 100 0.219498
9 9 13 100 0.268061
10 9 13 100 0.219497
11 9 13 100 0.0731704
12 9 13 100 0.0243903
13 9 13 100 0.0487805
0 10 13 100 0.0108327
1 10 13 100 0.025641
2 10 13 100 0.0256409
6 10 13 100 0.0512821
7 10 13 100 0.025641
8 10 13 100 0.0253956
9 10 13 100 0.239042
10 10 13 100 0.263192
11 10 13 100 0.230769
12 10 13 100 0.0769231
13 10 13 100 0.025641
0 11 13 100 0.0135056
3 11 13 100 0.0263158
4 11 13 100 0.0262913
7 11 13 100 0.0526314
9 11 13 100 0.0658148
10 11 13 100 0.236838
11 11 13 100 0.210269
12 11 13 100 0.289387
13 11 13 100 0.0789474
0 12 13 100 0.0591615
4 12 13 100 0.0285714
8 12 13 100 0.057418
10 12 13 100 0.083777
11 12 13 100 0.302187
12 12 13 100 0.183171
13 12 13 100 0.285714
0 13 13 100 0.000248041
5 13 13 100 0.0399952
9 13 13 100 0.119999
11 13 13 100 0.0799997
12 13 13 100 0.559758
13 13 13 100 0.2
0 14 13 100 0.100051
4 14 13 100 0.0423823
5 14 13 100 2.07578e-05
6 14 13 100 0.05
10 14 13 100 0.107546
12 14 13 100 0.0999999
13 14 13 100 0.6
0 15 13 100 0.122901
7 15 13 100 0.125
8 15 13 100 9.23351e-06
11 15 13 100 0.377089
12 15 13 100 0.125
13 15 13 100 0.25
8 16 13 100 0.166666
12 16 13 100 0.833334
9 17 13 100 0.166666
13 17 13 100 0.833334
10 18 13 100 1
0 19 13 100 0.000194687
11 19 13 100 0.999805
11 20 13 100 1
12 21 13 100 1
13 22 13 100 1
1 1 14 100 0.937501
2 1 14 100 0.0208188
3 1 14 100 0.0110871
5 1 14 100 0.00975985
8 1 14 100 0.0208333
0 2 14 100 0.0416747
2 2 14 100 0.770828
3 2 14 100 0.0827606
4 2 14 100 0.0109794
5 2 14 100 2.03731e-06
6 2 14 100 0.0312583
7 2 14 100 0.041664
9 2 14 100 0.0208333
0 3 14 100 0.0210146
2 3 14 100 0.0208524
3 3 14 100 0.749966
4 3 14 100 0.0625012
5 3 14 100 0.0208333
6 3 14 100 0.0208109
7 3 14 100 0.0416667
8 3 14 100 0.0208309
9 3 14 100 0.0208333
10 3 14 100 0.0206908
0 4 14 100 0.0832256
1 4 14 100 8.6496e-05
2 4 14 100 2.49437e-06
3 4 14 100 5.15457e-05
4 4 14 100 0.66679
5 4 14 100 0.0833473
6 4 14 100 0.0414966
7 4 14 100 0.0416667
8 4 14 100 0.0416667
9 4 14 100 0.0208333
11 4 14 100 0.0208333
0 5 14 100 8.37997e-05
2 5 14 100 0.0416667
3 5 14 100 0.0208333
4 5 14 100 0.0416666
5 5 14 100 0.596327
6 5 14 100 0.111986
7 5 14 100 0.0416667
8 5 14 100 0.0416634
9 5 14 100 0.0624398
10 5 14 100 0.0208333
12 5 14 100 0.0208333
0 6 14 100 0.0474803
3 6 14 100 0.0416745
4 6 14 100 0.0206024
5 6 14 100 0.0523125
6 6 14 100 0.562477
7 6 14 100 0.135412
8 6 14 100 0.0357944
9 6 14 100 0.0416667
10 6 14 100 0.0624974
11 6 14 100 2.85532e-06
13 6 14 100 8.04856e-05
0 7 14 100 0.0208584
4 7 14 100 0.0416662
5 7 14 100 0.0416961
6 7 14 100 0.0208334
7 7 14 100 0.480945
8 7 14 100 0.208304
9 7 14 100 0.0536017
10 7 14 100 0.0607055
11 7 14 100 0.0713902
0 8 14 100 0.0417428
5 8 14 100 0.041662
6 8 14 100 0.0573015
7 8 14 100 0.0260319
8 8 14 100 0.408816
9 8 14 100 0.216055
10 8 14 100 0.0209071
11 8 14 100 0.104152
12 8 14 100 0.0833316
0 9 14 100 0.0417433
1 9 14 100 0.0208333
6 9 14 100 0.0416667
7 9 14 100 0.0416667
8 9 14 100 0.0416052
9 9 14 100 0.374992
10 9 14 100 0.22916
11 9 14 100 0.0208333
12 9 14 100 0.104166
13 9 14 100 0.0833334
0 10 14 100 0.03105
2 10 14 100 0.0208333
6 10 14 100 1.18147e-06
7 10 14 100 0.0208333
8 10 14 100 0.0633147
9 10 14 100 0.0625049
10 10 14 100 0.32471
11 10 14 100 0.257916
13 10 14 100 0.11467
14 10 14 100 0.104167
0 11 14 100 0.024346
3 11 14 100 0.0232558
9 11 14 100 0.0930046
10 11 14 100 0.0919578
11 11 14 100 0.313699
12 11 14 100 0.278982
13 11 14 100 0.0352201
14 11 14 100 0.139535
0 12 14 100 1.72164e-05
4 12 14 100 0.027027
9 12 14 100 0.027027
10 12 14 100 0.108095
11 12 14 100 0.108106
12 12 14 100 0.297295
13 12 14 100 0.351351
14 12 14 100 0.0810811
0 13 14 100 3.68866e-07
5 13 14 100 0.0294118
10 13 14 100 0.0294118
11 13 14 100 0.117647
12 13 14 100 0.117647
13 13 14 100 0.323529
14 13 14 100 0.382353
0 14 14 100 5.6561e-06
6 14 14 100 0.047619
11 14 14 100 0.047619
12 14 14 100 0.190471
13 14 14 100 0.190475
14 14 14 100 0.52381
7 15 14 100 0.1
12 15 14 100 0.1
13 15 14 100 0.4
14 15 14 100 0.4
8 16 14 100 0.166667
13 16 14 100 0.166667
14 16 14 100 0.666667
9 17 14 100 0.359342
13 17 14 100 0.140658
14 17 14 100 0.5
14 18 14 100 1
0 1 15 100 0.000123032
1 1 15 100 0.964789
3 1 15 100 0.0350876
0 2 15 100 0.0179829
1 2 15 100 0.0698647
2 2 15 100 0.806906
3 2 15 100 0.0350884
4 2 15 100 0.052626
5 2 15 100 0.0175322
7 2 15 100 1.9365e-07
0 3 15 100 0.0176517
1 3 15 100 0.0175439
2 3 15 100 0.0402012
3 3 15 100 0.767073
4 3 15 100 0.0698116
5 3 15 100 0.0526314
6 3 15 100 0.0175439
8 3 15 100 0.017543
0 4 15 100 0.0549047
2 4 15 100 0.0175439
3 4 15 100 0.0678477
4 4 15 100 0.702975
5 4 15 100 0.104017
6 4 15 100 0.052712
9 4 15 100 3.09319e-07
0 5 15 100 0.0365907
2 5 15 100 0.0175401
3 5 15 100 0.0175439
4 5 15 100 0.0543231
5 5 15 100 0.663455
6 5 15 100 0.105287
7 5 15 100 0.0877168
8 5 15 100 0.0175439
0 6 15 100 0.00366063
2 6 15 100 0.01752
3 6 15 100 0.0175439
4 6 15 100 0.0139588
5 6 15 100 0.035088
6 6 15 100 0.613984
7 6 15 100 0.140351
8 6 15 100 0.0877184
9 6 15 100 0.0526316
12 6 15 100 0.0175439
0 7 15 100 0.00838182
3 7 15 100 0.0175409
4 7 15 100 0.0175468
5 7 15 100 0.0350875
6 7 15 100 0.0442906
7 7 15 100 0.587448
8 7 15 100 0.140341
9 7 15 100 0.0701713
10 7 15 100 0.0616484
13 7 15 100 0.0175439
0 8 15 100 9.29086e-05
5 8 15 100 0.0175439
6 8 15 100 0.0350875
7 8 15 100 0.0877154
8 8 15 100 0.526297
9 8 15 100 0.157836
10 8 15 100 0.0877164
11 8 15 100 0.0701674
14 8 15 100 0.0175439
0 9 15 100 0.0395804
6 9 15 100 0.0175439
7 9 15 100 0.0175439
8 9 15 100 0.105254
9 9 15 100 0.473543
10 9 15 100 0.170642
11 9 15 100 0.0706299
12 9 15 100 0.074735
13 9 15 100 0.0129843
15 9 15 100 0.0175439
0 10 15 100 8.50772e-05
7 10 15 100 0.0178563
8 10 15 100 0.0357143
9 10 15 100 0.124985
10 10 15 100 0.465152
11 10 15 100 0.177652
12 10 15 100 0.0892741
13 10 15 100 0.0714244
14 10 15 100 0.0178571
0 11 15 100 0.00019401
4 11 15 100 2.17454e-06
8 11 15 100 0.0178572
9 11 15 100 0.0357086
10 11 15 100 0.107136
11 11 15 100 0.4284
12 11 15 100 0.232142
13 11 15 100 0.0892805
14 11 15 100 0.0714234
15 11 15 100 0.0178572
0 12 15 100 0.0182388
9 12 15 100 0.0181662
10 12 15 100 0.0363637
11 12 15 100 0.109087
12 12 15 100 0.41126
13 12 15 100 0.243248
14 12 15 100 0.109091
15 12 15 100 0.0545455
0 13 15 100 0.000103372
6 13 15 100 2.02836e-07
10 13 15 100 0.0192308
11 13 15 100 0.0384616
12 13 15 100 0.134521
13 13 15 100 0.429974
14 13 15 100 0.243094
15 13 15 100 0.134615
0 14 15 100 0.0302461
9 14 15 100 7.86206e-06
11 14 15 100 0.0222222
12 14 15 100 0.0444418
13 14 15 100 0.111094
14 14 15 100 0.503099
15 14 15 100 0.288889
0 15 15 100 0.0375269
9 15 15 100 0.024937
11 15 15 100 4.19137e-05
12 15 15 100 0.0312478
13 15 15 100 0.0624964
14 15 15 100 0.15625
15 15 15 100 0.6875
12 16 15 100 0.1
13 16 15 100 0.1
14 16 15 100 0.3
15 16 15 100 0.5
13 17 15 100 0.2
14 17 15 100 0.2
15 17 15 100 0.6
14 18 15 100 0.5
15 18 15 100 0.5
15 19 15 100 1
1 1 16 100 0.920614
2 1 16 100 0.031746
3 1 16 100 0.0158737
6 1 16 100 2.51073e-05
7 1 16 100 0.0158679
12 1 16 100 0.015873
0 2 16 100 0.0286945
1 2 16 100 0.0158738
2 2 16 100 0.816831
3 2 16 100 0.015873
4 2 16 100 0.0158733
6 2 16 100 0.0586109
7 2 16 100 7.43862e-07
8 2 16 100 0.0164967
10 2 16 100 0.015873
13 2 16 100 0.015873
0 3 16 100 0.0344751
1 3 16 100 0.0158679
2 3 16 100 0.0467652
3 3 16 100 0.755641
4 3 16 100 0.0317408
5 3 16 100 0.0202666
7 3 16 100 0.0476242
8 3 16 100 0.0158729
10 3 16 100 7.4015e-07
11 3 16 100 0.015873
14 3 16 100 0.0158706
15 3 16 100 2.64014e-06
0 4 16 100 0.0161159
2 4 16 100 0.0158729
3 4 16 100 0.0634558
4 4 16 100 0.655495
5 4 16 100 0.080433
6 4 16 100 0.031746
7 4 16 100 0.0257717
8 4 16 100 0.0634887
9 4 16 100 0.015873
11 4 16 100 0.0158745
15 4 16 100 0.015873
0 5 16 100 0.0353699
2 5 16 100 0.00589739
3 5 16 100 0.0260504
4 5 16 100 0.0480007
5 5 16 100 0.619025
6 5 16 100 0.0969562
7 5 16 100 0.031746
8 5 16 100 0.046698
9 5 16 100 0.0743836
10 5 16 100 0.015873
0 6 16 100 0.0476384
2 6 16 100 2.4979e-05
3 6 16 100 0.000161765
4 6 16 100 0.015871
5 6 16 100 0.0938707
6 6 16 100 0.57267
7 6 16 100 0.111037
8 6 16 100 0.031742
9 6 16 100 0.0317454
10 6 16 100 0.0596269
11 6 16 100 0.0197381
13 6 16 100 0.015873
14 6 16 100 5.37402e-07
0 7 16 100 0.0478342
1 7 16 100 4.49607e-07
3 7 16 100 0.0158729
4 7 16 100 1.27545e-06
5 7 16 100 0.015873
6 7 16 100 0.0793668
7 7 16 100 0.571146
8 7 16 100 0.127045
9 7 16 100 0.0476247
10 7 16 100 0.0317461
11 7 16 100 0.047615
12 7 16 100 0.015873
14 7 16 100 1.45862e-06
0 8 16 100 0.0477831
2 8 16 100 0.0158739
4 8 16 100 0.0317445
6 8 16 100 0.0473718
7 8 16 100 0.0794677
8 8 16 100 0.497184
9 8 16 100 0.1377
10 8 16 100 0.0476355
11 8 16 100 0.047619
12 8 16 100 0.031746
13 8 16 100 0.015873
14 8 16 100 5.51323e-07
0 9 16 100 0.0162027
2 9 16 100 0.0317401
3 9 16 100 0.0158723
5 9 16 100 0.031746
6 9 16 100 0.0158729
7 9 16 100 0.0315767
8 9 16 100 0.0792888
9 9 16 100 0.460279
10 9 16 100 0.174571
11 9 16 100 0.047619
12 9 16 100 0.0317461
13 9 16 100 0.0476129
14 9 16 100 0.0158726
0 10 16 100 0.0324087
3 10 16 100 0.0317461
4 10 16 100 0.0158716
6 10 16 100 0.0634919
7 10 16 100 1.32127e-06
8 10 16 100 0.0158729
9 10 16 100 0.0865991
10 10 16 100 0.364121
11 10 16 100 0.215289
12 10 16 100 0.0793639
13 10 16 100 0.0317428
14 10 16 100 0.0476191
15 10 16 100 0.015873
0 11 16 100 0.0161391
4 11 16 100 0.0317456
5 11 16 100 0.015873
7 11 16 100 0.0791543
9 11 16 100 0.015873
10 11 16 100 0.0793518
11 11 16 100 0.333389
12 11 16 100 0.253875
13 11 16 100 0.079361
14 11 16 100 0.0317457
15 11 16 100 0.0476191
16 11 16 100 0.015873
0 12 16 100 0.0334934
5 12 16 100 0.0322581
6 12 16 100 0.0322796
8 12 16 100 0.0322599
10 12 16 100 0.0322298
11 12 16 100 0.0806438
12 12 16 100 0.320747
13 12 16 100 0.258669
14 12 16 100 0.0967738
15 12 16 100 0.0322581
16 12 16 100 0.0483871
0 13 16 100 0.0161373
6 13 16 100 0.0168199
7 13 16 100 0.0508446
8 13 16 100 0.000995568
9 13 16 100 0.0338983
10 13 16 100 0.016944
11 13 16 100 0.0338983
12 13 16 100 0.0847652
13 13 16 100 0.2917
14 13 16 100 0.284506
15 13 16 100 0.118644
16 13 16 100 0.0508475
0 14 16 100 0.0272868
2 14 16 100 0.0178552
7 14 16 100 0.0178571
8 14 16 100 0.0178651
10 14 16 100 0.0357138
11 14 16 100 0.0178571
12 14 16 100 0.0357105
13 14 16 100 0.0620156
14 14 16 100 0.303632
15 14 16 100 0.339207
16 14 16 100 0.125
0 15 16 100 0.0208132
3 15 16 100 0.0204082
8 15 16 100 0.0204082
9 15 16 100 0.000126478
11 15 16 100 0.0612263
12 15 16 100 0.020408
13 15 16 100 0.060694
14 15 16 100 0.0816313
15 15 16 100 0.326529
16 15 16 100 0.387755
4 16 16 100 0.0333333
9 16 16 100 0.0333333
12 16 16 100 0.0666667
13 16 16 100 0.0333333
14 16 16 100 0.0999999
15 16 16 100 0.2
16 16 16 100 0.533333
0 17 16 100 1.04069e-05
5 17 16 100 0.0714278
10 17 16 100 0.0714286
13 17 16 100 0.142854
14 17 16 100 0.071422
15 17 16 100 0.214286
16 17 16 100 0.428571
6 18 16 100 0.125
11 18 16 100 0.125
14 18 16 100 0.25
15 18 16 100 0.125
16 18 16 100 0.375
7 19 16 100 0.2
12 19 16 100 0.2
15 19 16 100 0.4
16 19 16 100 0.2
0 20 16 100 5.06937e-06
8 20 16 100 0.249995
13 20 16 100 0.25
16 20 16 100 0.5
0 21 16 100 5.63283e-05
9 21 16 100 0.5
14 21 16 100 0.499944
10 22 16 100 0.5
15 22 16 100 0.5
11 23 16 100 0.5
16 23 16 100 0.5
0 24 16 100 1.06811e-05
12 24 16 100 0.999989
13 25 16 100 1
14 26 16 100 1
15 27 16 100 1
16 28 16 100 1
1 1 17 100 0.957156
2 1 17 100 6.74532e-05
3 1 17 100 0.042776
0 2 17 100 0.0472801
1 2 17 100 0.00284998
2 2 17 100 0.813406
3 2 17 100 0.0545401
4 2 17 100 0.0590739
6 2 17 100 0.00466693
9 2 17 100 0.0181808
10 2 17 100 2.37277e-06
0 3 17 100 0.0185987
1 3 17 100 0.0181818
2 3 17 100 0.043291
3 3 17 100 0.780832
4 3 17 100 0.0367721
5 3 17 100 0.0727265
8 3 17 100 0.0108797
9 3 17 100 0.000535079
10 3 17 100 3.71808e-07
11 3 17 100 0.0181817
14 3 17 100 8.36636e-07
0 4 17 100 0.0542803
1 4 17 100 4.16676e-05
2 4 17 100 0.0184347
3 4 17 100 0.0545454
4 4 17 100 0.70907
5 4 17 100 0.0726474
6 4 17 100 0.054619
9 4 17 100 0.0181818
10 4 17 100 1.28818e-06
12 4 17 100 0.0181782
0 5 17 100 0.0323009
2 5 17 100 0.0363636
3 5 17 100 0.0181814
4 5 17 100 0.0907516
5 5 17 100 0.640353
6 5 17 100 0.0672623
7 5 17 100 0.0911442
8 5 17 100 0.00545895
10 5 17 100 1.6476e-06
11 5 17 100 6.98529e-07
13 5 17 100 0.0181818
0 6 17 100 0.0363867
3 6 17 100 0.0363637
4 6 17 100 0.0181818
5 6 17 100 0.0909106
6 6 17 100 0.581469
7 6 17 100 0.109419
8 6 17 100 0.109087
9 6 17 100 0.0181818
0 7 17 100 7.27534e-05
3 7 17 100 0.0181786
4 7 17 100 0.0181818
5 7 17 100 0.0363636
6 7 17 100 0.0909048
7 7 17 100 0.545148
8 7 17 100 0.145653
9 7 17 100 0.127309
10 7 17 100 0.0181848
11 7 17 100 3.13741e-06
0 8 17 100 0.00019376
4 8 17 100 0.0181818
5 8 17 100 0.0363137
6 8 17 100 0.0181818
7 8 17 100 0.0909074
8 8 17 100 0.514401
9 8 17 100 0.103645
10 8 17 100 0.145449
11 8 17 100 0.0363628
12 8 17 100 0.0181817
14 8 17 100 0.0181818
0 9 17 100 0.0289955
1 9 17 100 0.0181265
2 9 17 100 0.000542855
3 9 17 100 9.55871e-07
5 9 17 100 0.0181817
6 9 17 100 0.0363627
7 9 17 100 0.0181818
8 9 17 100 0.0909032
9 9 17 100 0.490828
10 9 17 100 0.0980484
11 9 17 100 0.127264
12 9 17 100 0.0363547
13 9 17 100 0.0181809
15 9 17 100 0.0180287
0 10 17 100 0.0533783
2 10 17 100 0.0181818
6 10 17 100 0.0181818
7 10 17 100 0.0374824
8 10 17 100 0.0182621
9 10 17 100 0.0912182
10 10 17 100 0.472398
11 10 17 100 0.109081
12 10 17 100 0.10909
13 10 17 100 0.0545443
14 10 17 100 0.0181818
0 11 17 100 0.01665
3 11 17 100 0.0181818
4 11 17 100 6.62491e-07
7 11 17 100 0.0181818
8 11 17 100 0.0545452
9 11 17 100 0.0363633
10 11 17 100 0.0922589
11 11 17 100 0.436511
12 11 17 100 0.145367
13 11 17 100 0.109086
14 11 17 100 0.0545454
15 11 17 100 0.0183086
0 12 17 100 0.0182018
8 12 17 100 0.0181821
9 12 17 100 0.0545455
10 12 17 100 0.0363631
11 12 17 100 0.109081
12 12 17 100 0.418176
13 12 17 100 0.145454
14 12 17 100 0.127274
15 12 17 100 0.0545407
16 12 17 100 0.0181818
0 13 17 100 0.0364314
8 13 17 100 7.73492e-07
9 13 17 100 0.0181811
10 13 17 100 0.0545446
11 13 17 100 0.0363634
12 13 17 100 0.127259
13 13 17 100 0.399865
14 13 17 100 0.145551
15 13 17 100 0.109079
16 13 17 100 0.0727242
0 14 17 100 0.0102138
5 14 17 100 6.42644e-07
8 14 17 100 0.0181818
10 14 17 100 1.4235e-05
11 14 17 100 0.0625389
12 14 17 100 0.0363631
13 14 17 100 0.127269
14 14 17 100 0.363608
15 14 17 100 0.181806
16 14 17 100 0.127277
17 14 17 100 0.0727273
0 15 17 100 0.0160422
10 15 17 100 3.02283e-05
11 15 17 100 0.0192486
12 15 17 100 0.0588235
13 15 17 100 0.0392151
14 15 17 100 0.156829
15 15 17 100 0.352888
16 15 17 100 0.200061
17 15 17 100 0.156863
0 16 17 100 0.0456689
12 16 17 100 0.0232556
13 16 17 100 0.0707135
14 16 17 100 0.0465115
15 16 17 100 0.16317
16 16 17 100 0.418122
17 16 17 100 0.232558
0 17 17 100 0.0303073
13 17 17 100 0.030303
14 17 17 100 0.121209
15 17 17 100 0.0909091
16 17 17 100 0.272726
17 17 17 100 0.454545
0 18 17 100 5.69674e-06
8 18 17 100 0.0555556
14 18 17 100 0.0555553
15 18 17 100 0.166667
16 18 17 100 0.222216
17 18 17 100 0.5
9 19 17 100 0.111111
13 19 17 100 0.111111
15 19 17 100 0.111121
16 19 17 100 0.444435
17 19 17 100 0.222222
0 20 17 100 0.000186503
14 20 17 100 0.142671
16 20 17 100 0.285714
17 20 17 100 0.571429
15 21 17 100 0.333333
17 21 17 100 0.666667
0 22 17 100 2.73061e-05
16 22 17 100 0.999973
17 23 17 100 1
1 1 18 100 0.908392
2 1 18 100 0.0166667
3 1 18 100 0.0321806
5 1 18 100 0.0212085
6 1 18 100 2.63434e-07
7 1 18 100 0.00357428
9 1 18 100 0.00131086
13 1 18 100 0.0166666
0 2 18 100 0.0338142
1 2 18 100 0.0144111
2 2 18 100 0.701776
3 2 18 100 0.0876775
4 2 18 100 0.0333333
5 2 18 100 0.0499977
6 2 18 100 0.0166666
7 2 18 100 0.0257506
10 2 18 100 0.0199052
11 2 18 100 9.29114e-07
14 2 18 100 0.0166665
0 3 18 100 0.032811
1 3 18 100 2.17264e-07
2 3 18 100 0.035715
3 3 18 100 0.629921
4 3 18 100 0.118313
5 3 18 100 0.0166667
6 3 18 100 0.0333399
7 3 18 100 0.0333494
8 3 18 100 0.0332179
9 3 18 100 0.0166667
11 3 18 100 0.0333323
15 3 18 100 0.0166667
0 4 18 100 0.0683981
2 4 18 100 0.00865674
3 4 18 100 0.0667564
4 4 18 100 0.551504
5 4 18 100 0.133483
6 4 18 100 0.0333433
7 4 18 100 0.0211913
8 4 18 100 0.0500002
9 4 18 100 1.21281e-06
10 4 18 100 0.0166667
12 4 18 100 0.0333327
16 4 18 100 0.0165857
17 4 18 100 8.08263e-05
0 5 18 100 0.0166534
1 5 18 100 0.0166667
2 5 18 100 0.0333332
3 5 18 100 0.0166667
4 5 18 100 0.0499944
5 5 18 100 0.533336
6 5 18 100 0.116684
7 5 18 100 0.0346001
8 5 18 100 0.0333326
9 5 18 100 0.0833325
10 5 18 100 0.0153997
11 5 18 100 1.79404e-07
12 5 18 100 0.0166667
13 5 18 100 0.0333333
15 5 18 100 9.00514e-07
0 6 18 100 0.0824788
2 6 18 100 0.0337356
4 6 18 100 0.0166667
5 6 18 100 0.0499987
6 6 18 100 0.533321
7 6 18 100 0.0938102
8 6 18 100 0.0499986
9 6 18 100 0.0167533
10 6 18 100 0.0565704
11 6 18 100 0.0166667
13 6 18 100 0.0166665
14 6 18 100 0.0333333
0 7 18 100 0.0349909
2 7 18 100 0.015154
3 7 18 100 0.066537
5 7 18 100 0.0166667
6 7 18 100 0.0500064
7 7 18 100 0.524334
8 7 18 100 0.09999
9 7 18 100 0.0500206
10 7 18 100 0.0423015
11 7 18 100 0.05
12 7 18 100 0.0166642
15 7 18 100 0.0333348
0 8 18 100 0.0333475
3 8 18 100 0.0166488
4 8 18 100 0.0666667
5 8 18 100 1.62936e-06
6 8 18 100 0.0167061
7 8 18 100 0.0499945
8 8 18 100 0.449894
9 8 18 100 0.116753
10 8 18 100 0.0833253
11 8 18 100 0.0333336
12 8 18 100 0.0666629
13 8 18 100 0.0166667
15 8 18 100 7.46481e-07
16 8 18 100 0.0333323
18 8 18 100 0.0166667
0 9 18 100 0.0167961
3 9 18 100 0.0169492
5 9 18 100 0.067796
7 9 18 100 0.033901
8 9 18 100 0.0677748
9 9 18 100 0.390023
10 9 18 100 0.135587
11 9 18 100 0.101643
12 9 18 100 0.0423626
13 9 18 100 0.0678447
14 9 18 100 0.0169492
15 9 18 100 0.00847501
17 9 18 100 0.0338983
0 10 18 100 0.0170063
3 10 18 100 0.0169492
6 10 18 100 0.0338982
8 10 18 100 0.0338927
9 10 18 100 0.0847454
10 10 18 100 0.423707
11 10 18 100 0.118634
12 10 18 100 0.0847445
13 10 18 100 0.0339288
14 10 18 100 0.101618
15 10 18 100 0.016978
16 10 18 100 0.0169492
18 10 18 100 0.0169492
0 11 18 100 0.0172643
3 11 18 100 0.0172414
7 11 18 100 0.0344826
9 11 18 100 0.0344828
10 11 18 100 0.0862236
11 11 18 100 0.431005
12 11 18 100 0.12069
13 11 18 100 0.0862051
14 11 18 100 0.0344801
15 11 18 100 0.0862015
16 11 18 100 0.0344827
17 11 18 100 0.0172414
0 12 18 100 0.0168023
2 12 18 100 0.0177584
7 12 18 100 2.01222e-05
8 12 18 100 0.0344816
10 12 18 100 0.0344828
11 12 18 100 0.10998
12 12 18 100 0.407177
13 12 18 100 0.120679
14 12 18 100 0.0862066
15 12 18 100 0.0344814
16 12 18 100 0.086206
17 12 18 100 0.0344828
18 12 18 100 0.0172414
0 13 18 100 0.0177687
2 13 18 100 0.00397823
6 13 18 100 2.17653e-06
7 13 18 100 0.0134924
8 13 18 100 0.0175438
9 13 18 100 0.0350892
11 13 18 100 0.0350877
12 13 18 100 0.122807
13 13 18 100 0.37796
14 13 18 100 0.130841
15 13 18 100 0.0877129
16 13 18 100 0.0357056
17 13 18 100 0.0869241
18 13 18 100 0.0350877
0 14 18 100 0.0182489
3 14 18 100 0.0181587
8 14 18 100 0.0181818
10 14 18 100 0.0363582
12 14 18 100 0.0363637
13 14 18 100 0.127273
14 14 18 100 0.381785
15 14 18 100 0.163632
16 14 18 100 0.0727261
17 14 18 100 0.0545455
18 14 18 100 0.0727273
0 15 18 100 0.0390224
4 15 18 100 0.0196079
6 15 18 100 3.13652e-06
9 15 18 100 0.0196079
11 15 18 100 0.0588233
13 15 18 100 0.0196095
14 15 18 100 0.156862
15 15 18 100 0.343859
16 15 18 100 0.185742
17 15 18 100 0.0980393
18 15 18 100 0.0588236
0 16 18 100 0.020926
5 16 18 100 0.0208321
7 16 18 100 1.14828e-06
10 16 18 100 0.020832
12 16 18 100 0.062431
14 16 18 100 0.0416666
15 16 18 100 0.16665
16 16 18 100 0.333071
17 16 18 100 0.229423
18 16 18 100 0.104167
0 17 18 100 5.4352e-06
6 17 18 100 0.0232558
11 17 18 100 0.0232555
13 17 18 100 0.0232558
15 17 18 100 0.0465084
16 17 18 100 0.186046
17 17 18 100 0.418603
18 17 18 100 0.27907
0 18 18 100 2.38394e-06
13 18 18 100 0.0322577
14 18 18 100 0.032256
16 18 18 100 0.0645161
17 18 18 100 0.258065
18 18 18 100 0.612903
0 19 18 100 1.65573e-05
14 19 18 100 0.0833168
15 19 18 100 0.0833333
17 19 18 100 0.166667
18 19 18 100 0.666667
0 20 18 100 1.12031e-05
15 20 18 100 0.249989
16 20 18 100 0.25
18 20 18 100 0.5
16 21 18 100 0.5
17 21 18 100 0.5
17 22 18 100 0.5
18 22 18 100 0.5
18 23 18 100 1
0 1 19 100 1.78404e-06
1 1 19 100 0.930286
2 1 19 100 0.0304726
3 1 19 100 0.0129235
11 1 19 100 0.0131579
14 1 19 100 0.0131579
0 2 19 100 0.0394653
1 2 19 100 0.0131581
2 2 19 100 0.789405
3 2 19 100 0.0394752
4 2 19 100 0.0527102
5 2 19 100 4.78199e-05
6 2 19 100 1.33571e-05
7 2 19 100 0.0130763
8 2 19 100 1.75749e-05
9 2 19 100 0.0263134
10 2 19 100 1.27525e-06
11 2 19 100 4.31888e-07
12 2 19 100 0.0131574
14 2 19 100 2.74185e-07
15 2 19 100 0.0131579
0 3 19 100 0.0387458
1 3 19 100 8.42822e-05
2 3 19 100 0.0263152
3 3 19 100 0.727499
4 3 19 100 0.0606313
5 3 19 100 0.0539177
6 3 19 100 0.0131579
9 3 19 100 0.0163607
10 3 19 100 0.0131579
13 3 19 100 0.0131047
15 3 19 100 0.0131579
16 3 19 100 0.0131579
18 3 19 100 0.0107099
0 4 19 100 0.026361
1 4 19 100 1.21194e-06
2 4 19 100 1.33486e-07
3 4 19 100 0.0394742
4 4 19 100 0.671018
5 4 19 100 0.0657855
6 4 19 100 0.052627
7 4 19 100 0.0394743
8 4 19 100 0.0131579
10 4 19 100 0.026312
11 4 19 100 0.0131579
14 4 19 100 0.0131579
16 4 19 100 0.0131579
17 4 19 100 0.0131579
18 4 19 100 0.0131567
0 5 19 100 0.0264351
2 5 19 100 0.0131579
3 5 19 100 0.0131579
4 5 19 100 0.0525616
5 5 19 100 0.631624
6 5 19 100 0.0762196
7 5 19 100 0.0657061
8 5 19 100 0.0131579
9 5 19 100 0.0131579
11 5 19 100 0.0263162
12 5 19 100 0.0131579
13 5 19 100 0.0158832
14 5 19 100 5.67244e-07
15 5 19 100 0.0131572
18 5 19 100 0.0263072
0 6 19 100 0.052655
3 6 19 100 0.0131579
4 6 19 100 0.013157
5 6 19 100 0.0401001
6 6 19 100 0.604621
7 6 19 100 0.131577
8 6 19 100 0.0526282
9 6 19 100 0.0131579
10 6 19 100 0.0131579
12 6 19 100 0.0263164
13 6 19 100 0.0131579
16 6 19 100 0.0131579
18 6 19 100 0.0131555
0 7 19 100 0.0281888
1 7 19 100 0.0259959
2 7 19 100 0.0131515
4 7 19 100 0.0131642
5 7 19 100 0.0263158
6 7 19 100 0.0526326
7 7 19 100 0.592072
8 7 19 100 0.103887
9 7 19 100 0.0526311
10 7 19 100 0.0131579
11 7 19 100 0.0276845
13 7 19 100 0.024802
14 7 19 100 0.0131579
17 7 19 100 0.0131579
18 7 19 100 3.19145e-07
0 8 19 100 0.0132916
2 8 19 100 0.0393972
3 8 19 100 0.0131579
5 8 19 100 0.0263147
6 8 19 100 0.0263154
7 8 19 100 0.0657267
8 8 19 100 0.539539
9 8 19 100 0.113613
10 8 19 100 0.0788399
11 8 19 100 0.0180107
12 8 19 100 0.0263232
14 8 19 100 0.0131579
15 8 19 100 0.0131551
18 8 19 100 0.0131579
0 9 19 100 0.0152874
3 9 19 100 0.0407202
4 9 19 100 0.0131579
6 9 19 100 0.0361947
7 9 19 100 0.0263158
8 9 19 100 0.0526301
9 9 19 100 0.52987
10 9 19 100 0.0965203
11 9 19 100 0.0824096
12 9 19 100 0.0395901
13 9 19 100 0.0402792
14 9 19 100 0.000709168
15 9 19 100 0.0131578
16 9 19 100 0.0131579
0 10 19 100 0.0262897
4 10 19 100 0.0394737
5 10 19 100 0.0131579
7 10 19 100 0.0263153
8 10 19 100 0.0526953
9 10 19 100 0.0526312
10 10 19 100 0.449712
11 10 19 100 0.118372
12 10 19 100 0.0789776
13 10 19 100 0.0494389
14 10 19 100 0.0526314
15 10 19 100 0.00755611
16 10 19 100 0.0131579
17 10 19 100 0.0195912
0 11 19 100 0.0264873
4 11 19 100 0.013157
5 11 19 100 0.0131583
6 11 19 100 0.0131583
8 11 19 100 0.0263158
9 11 19 100 0.0526307
10 11 19 100 0.0789123
11 11 19 100 0.416162
12 11 19 100 0.0968736
13 11 19 100 0.0921054
14 11 19 100 0.0526304
15 11 19 100 0.0526196
17 11 19 100 0.0263158
18 11 19 100 0.0263155
19 11 19 100 0.0131579
0 12 19 100 0.0404258
1 12 19 100 1.55116e-05
5 12 19 100 0.0133178
6 12 19 100 6.01003e-07
7 12 19 100 0.0266549
9 12 19 100 0.0266666
10 12 19 100 0.0666667
11 12 19 100 0.0670258
12 12 19 100 0.318335
13 12 19 100 0.121957
14 12 19 100 0.132824
15 12 19 100 0.0718214
16 12 19 100 0.0533333
17 12 19 100 0.00762214
18 12 19 100 0.0266667
19 12 19 100 0.0266667
0 13 19 100 0.0140484
6 13 19 100 0.0273956
8 13 19 100 0.0273592
10 13 19 100 0.0273957
11 13 19 100 0.0547932
12 13 19 100 0.136983
13 13 19 100 0.287386
14 13 19 100 0.109584
15 13 19 100 0.14448
16 13 19 100 0.0746909
17 13 19 100 0.0547872
19 13 19 100 0.0410959
0 14 19 100 0.0286503
1 14 19 100 1.69863e-05
2 14 19 100 0.0143175
3 14 19 100 0.000465978
4 14 19 100 0.000813547
7 14 19 100 0.0285661
9 14 19 100 0.0142857
10 14 19 100 2.59326e-06
11 14 19 100 0.0285714
12 14 19 100 0.0522188
13 14 19 100 0.102356
14 14 19 100 0.299631
15 14 19 100 0.11428
16 14 19 100 0.157133
17 14 19 100 0.0729766
18 14 19 100 0.0714286
19 14 19 100 0.0142857
0 15 19 100 0.0261163
3 15 19 100 0.0144928
5 15 19 100 0.0144928
8 15 19 100 0.0289855
10 15 19 100 0.0144928
12 15 19 100 0.0289855
13 15 19 100 0.043631
14 15 19 100 0.101449
15 15 19 100 0.260851
16 15 19 100 0.10871
17 15 19 100 0.159407
18 15 19 100 0.0969371
19 15 19 100 0.101449
0 16 19 100 2.63943e-05
4 16 19 100 0.0161279
6 16 19 100 0.016129
9 16 19 100 0.016129
11 16 19 100 0.0161268
13 16 19 100 0.0322581
14 16 19 100 0.0645147
15 16 19 100 0.112903
16 16 19 100 0.274174
17 16 19 100 0.12903
18 16 19 100 0.193548
19 16 19 100 0.129032
0 17 19 100 1.72684e-05
5 17 19 100 0.0185185
7 17 19 100 0.0185164
10 17 19 100 0.0185185
12 17 19 100 0.0185185
14 17 19 100 0.037037
15 17 19 100 0.0740701
16 17 19 100 0.140747
17 17 19 100 0.243194
18 17 19 100 0.208641
19 17 19 100 0.222222
0 18 19 100 0.0238361
2 18 19 100 1.20376e-05
8 18 19 100 0.0237802
11 18 19 100 0.0238091
13 18 19 100 0.0238095
15 18 19 100 0.0476191
16 18 19 100 0.0952378
17 18 19 100 0.166659
18 18 19 100 0.309523
19 18 19 100 0.285714
0 19 19 100 0.000774071
12 19 19 100 0.0333333
14 19 19 100 0.0333333
16 19 19 100 0.0666667
17 19 19 100 0.132569
18 19 19 100 0.266657
19 19 19 100 0.466667
0 20 19 100 7.73445e-06
13 20 19 100 0.0625
15 20 19 100 0.0625
17 20 19 100 0.124992
18 20 19 100 0.25
19 20 19 100 0.5
0 21 19 100 1.26911e-05
14 21 19 100 0.124992
16 21 19 100 0.124996
17 21 19 100 0.125
18 21 19 100 0.25
19 21 19 100 0.375
0 22 19 100 1.15245e-05
15 22 19 100 0.2
17 22 19 100 0.199989
18 22 19 100 0.199999
19 22 19 100 0.4
16 23 19 100 0.333333
18 23 19 100 0.333333
19 23 19 100 0.333333
17 24 19 100 0.5
19 24 19 100 0.5
0 25 19 100 1.15031e-05
18 25 19 100 0.999988
19 26 19 100 1
0 1 20 100 7.70612e-07
1 1 20 100 0.964705
5 1 20 100 0.0117647
7 1 20 100 0.0117647
8 1 20 100 0.0117647
0 2 20 100 0.0183716
1 2 20 100 1.40224e-05
2 2 20 100 0.863948
3 2 20 100 0.0588069
4 2 20 100 0.011784
6 2 20 100 0.0117644
8 2 20 100 0.0117646
9 2 20 100 0.0117668
10 2 20 100 1.41728e-05
13 2 20 100 0.0117651
0 3 20 100 0.000201497
1 3 20 100 0.0117647
2 3 20 100 0.0234599
3 3 20 100 0.815796
4 3 20 100 0.0762345
5 3 20 100 0.00197376
6 3 20 100 0.0117641
7 3 20 100 0.0117647
9 3 20 100 0.023513
10 3 20 100 0.0117646
16 3 20 100 0.0117638
0 4 20 100 0.0255152
1 4 20 100 0.0117645
2 4 20 100 0.0217071
3 4 20 100 0.0117656
4 4 20 100 0.756363
5 4 20 100 0.083613
6 4 20 100 0.0422009
8 4 20 100 2.90366e-06
10 4 20 100 0.02353
11 4 20 100 0.0117644
17 4 20 100 0.0117738
0 5 20 100 0.0233464
1 5 20 100 0.0120606
2 5 20 100 0.0122354
4 5 20 100 0.0372576
5 5 20 100 0.717611
6 5 20 100 0.115137
7 5 20 100 0.0352941
11 5 20 100 0.0235294
12 5 20 100 0.0117615
13 5 20 100 2.99014e-06
20 5 20 100 0.0117647
0 6 20 100 0.0119581
2 6 20 100 0.0119048
3 6 20 100 0.0238088
5 6 20 100 0.0476183
6 6 20 100 0.702342
7 6 20 100 0.130938
8 6 20 100 0.035715
12 6 20 100 0.0238086
13 6 20 100 0.011906
0 7 20 100 0.0130774
3 7 20 100 0.011903
5 7 20 100 0.0118729
6 7 20 100 0.0357143
7 7 20 100 0.681308
8 7 20 100 0.15707
9 7 20 100 0.0476147
10 7 20 100 0.00293886
12 7 20 100 0.00276853
13 7 20 100 0.0238086
14 7 20 100 0.0119044
19 7 20 100 1.92605e-05
0 8 20 100 0.0239763
3 8 20 100 1.15884e-06
4 8 20 100 0.0237605
6 8 20 100 0.0119048
7 8 20 100 0.0396986
8 8 20 100 0.651063
9 8 20 100 0.142431
10 8 20 100 0.0476147
11 8 20 100 0.00852684
13 8 20 100 0.0153085
14 8 20 100 0.0238095
15 8 20 100 0.0119047
0 9 20 100 0.0132882
5 9 20 100 0.0119048
6 9 20 100 0.0119035
7 9 20 100 0.0119048
8 9 20 100 0.0594884
9 9 20 100 0.608318
10 9 20 100 0.142038
11 9 20 100 0.063743
13 9 20 100 1.12421e-06
14 9 20 100 0.0178865
15 9 20 100 0.0357143
16 9 20 100 0.0119048
17 9 20 100 0.0119042
0 10 20 100 0.0210494
2 10 20 100 6.88424e-05
3 10 20 100 1.80674e-07
7 10 20 100 0.0119047
8 10 20 100 0.0119052
9 10 20 100 0.0831706
10 10 20 100 0.562862
11 10 20 100 0.138978
12 10 20 100 0.0628682
14 10 20 100 0.00283031
15 10 20 100 0.0238095
16 10 20 100 0.0476189
17 10 20 100 0.0119072
18 10 20 100 0.0119048
19 10 20 100 0.00912282
0 11 20 100 0.012197
5 11 20 100 1.43606e-07
6 11 20 100 0.0118991
8 11 20 100 0.0237899
9 11 20 100 2.63769e-07
10 11 20 100 0.0833227
11 11 20 100 0.535711
12 11 20 100 0.142602
13 11 20 100 0.0714306
14 11 20 100 1.81963e-07
16 11 20 100 0.0238095
17 11 20 100 0.0476187
18 11 20 100 0.0238093
19 11 20 100 0.0119048
20 11 20 100 0.0119048
0 12 20 100 0.00166444
2 12 20 100 3.19994e-06
7 12 20 100 0.0120481
9 12 20 100 0.0240964
10 12 20 100 0.0120636
11 12 20 100 0.107429
12 12 20 100 0.481211
13 12 20 100 0.132963
14 12 20 100 0.0602363
15 12 20 100 0.0478135
17 12 20 100 0.0361435
18 12 20 100 0.0602317
19 12 20 100 0.0120482
20 12 20 100 0.0120482
0 13 20 100 0.0356211
8 13 20 100 0.0121955
10 13 20 100 0.0238406
11 13 20 100 0.0121951
12 13 20 100 0.0984467
13 13 20 100 0.451308
14 13 20 100 0.146438
15 13 20 100 0.0730631
16 13 20 100 0.048777
18 13 20 100 0.036585
19 13 20 100 0.0493339
20 13 20 100 0.0121951
0 14 20 100 0.0330402
6 14 20 100 0.0123441
8 14 20 100 6.31722e-07
9 14 20 100 0.0123233
11 14 20 100 0.0123457
12 14 20 100 0.0123453
13 14 20 100 0.136135
14 14 20 100 0.423507
15 14 20 100 0.17278
16 14 20 100 0.0740686
17 14 20 100 0.0370353
19 14 20 100 0.0370371
20 14 20 100 0.0370371
0 15 20 100 0.046332
1 15 20 100 0.00243015
2 15 20 100 0.00132339
3 15 20 100 5.54729e-07
4 15 20 100 0.00880186
6 15 20 100 1.0189e-06
7 15 20 100 0.0128169
8 15 20 100 7.33556e-07
9 15 20 100 0.00429989
10 15 20 100 0.025641
12 15 20 100 0.0128205
13 15 20 100 0.025641
14 15 20 100 0.116337
15 15 20 100 0.38573
16 15 20 100 0.164385
17 15 20 100 0.0908715
18 15 20 100 0.0512812
19 15 20 100 4.66476e-06
20 15 20 100 0.0512821
0 16 20 100 0.0271111
1 16 20 100 5.14361e-07
2 16 20 100 1.05233e-06
3 16 20 100 1.43376e-07
6 16 20 100 1.59985e-05
8 16 20 100 0.0135154
9 16 20 100 3.75835e-07
10 16 20 100 9.5805e-05
11 16 20 100 0.0135123
13 16 20 100 0.027027
14 16 20 100 0.0135156
15 16 20 100 0.148566
16 16 20 100 0.418283
17 16 20 100 0.149267
18 16 20 100 0.108104
19 16 20 100 0.0674718
20 16 20 100 0.0135135
0 17 20 100 0.0274032
2 17 20 100 0.0115084
4 17 20 100 0.00022544
5 17 20 100 0.00196481
11 17 20 100 2.44874e-07
12 17 20 100 0.0136986
13 17 20 100 2.95638e-07
14 17 20 100 0.0410928
15 17 20 100 0.0137267
16 17 20 100 0.136985
17 17 20 100 0.39724
18 17 20 100 0.150675
19 17 20 100 0.123288
20 17 20 100 0.0821918
0 18 20 100 0.0149495
5 18 20 100 0.0149253
10 18 20 100 5.94988e-07
11 18 20 100 0.0149258
13 18 20 100 0.0149239
14 18 20 100 0.0149248
15 18 20 100 0.0298494
16 18 20 100 0.0149252
17 18 20 100 0.149248
18 18 20 100 0.402947
19 18 20 100 0.179126
20 18 20 100 0.149254
0 19 20 100 4.12267e-05
11 19 20 100 0.0175438
14 19 20 100 0.0175439
16 19 20 100 0.052606
17 19 20 100 0.0350877
18 19 20 100 0.175423
19 19 20 100 0.473684
20 19 20 100 0.22807
0 20 20 100 0.0227299
11 20 20 100 0.0227273
15 20 20 100 0.0227264
17 20 20 100 0.0681818
18 20 20 100 0.0454534
19 20 20 100 0.227272
20 20 20 100 0.590909
0 21 20 100 0.0555563
12 21 20 100 0.0555556
16 21 20 100 0.0555556
18 21 20 100 0.11111
19 21 20 100 0.111111
20 21 20 100 0.611111
19 22 20 100 0.428571
20 22 20 100 0.571429
19 23 20 100 0.333333
20 23 20 100 0.666667
20 24 20 100 1
1 1 21 100 0.952353
3 1 21 100 0.0121033
5 1 21 100 0.0114481
6 1 21 100 0.0120475
8 1 21 100 0.0120482
0 2 21 100 0.0192937
1 2 21 100 0.0120481
2 2 21 100 0.859446
3 2 21 100 0.0240678
4 2 21 100 0.0303047
6 2 21 100 0.0240977
9 2 21 100 2.35457e-05
10 2 21 100 0.0239527
11 2 21 100 0.0067664
0 3 21 100 0.046881
2 3 21 100 0.0236832
3 3 21 100 0.80867
4 3 21 100 0.0169474
5 3 21 100 0.0355832
6 3 21 100 0.0120482
7 3 21 100 0.0240573
11 3 21 100 0.0240965
12 3 21 100 0.00803245
17 3 21 100 2.89225e-07
0 4 21 100 0.0103446
3 4 21 100 0.0361441
4 4 21 100 0.766449
5 4 21 100 0.0481019
6 4 21 100 0.0545643
7 4 21 100 0.012047
8 4 21 100 0.0362047
12 4 21 100 0.0240964
13 4 21 100 0.0120482
0 5 21 100 0.00014204
4 5 21 100 0.0361923
5 5 21 100 0.783059
6 5 21 100 0.0481919
7 5 21 100 0.0361399
8 5 21 100 0.0240964
9 5 21 100 0.0240955
13 5 21 100 0.0119386
14 5 21 100 0.0240964
20 5 21 100 0.0120482
0 6 21 100 0.0122352
5 6 21 100 0.07215
6 6 21 100 0.758893
7 6 21 100 0.0362227
8 6 21 100 0.0482119
9 6 21 100 0.0240944
10 6 21 100 0.0240961
12 6 21 100 1.03166e-06
15 6 21 100 0.0240957
0 7 21 100 0.00028363
1 7 21 100 0.0120482
2 7 21 100 0.0120482
6 7 21 100 0.0720462
7 7 21 100 0.674662
8 7 21 100 0.0602393
9 7 21 100 0.0722877
10 7 21 100 0.0240964
11 7 21 100 0.0361443
16 7 21 100 0.0240955
20 7 21 100 0.0120483
0 8 21 100 0.000233277
1 8 21 100 0.0120482
2 8 21 100 0.0120482
3 8 21 100 0.0120482
7 8 21 100 0.0610306
8 8 21 100 0.674488
9 8 21 100 0.0481842
10 8 21 100 0.0722861
11 8 21 100 0.0120482
12 8 21 100 0.0361395
13 8 21 100 0.0120482
14 8 21 100 0.0118057
15 8 21 100 0.0114951
17 8 21 100 0.0240964
0 9 21 100 0.0124743
1 9 21 100 0.0120482
3 9 21 100 0.0120455
4 9 21 100 0.0120482
8 9 21 100 0.0843356
9 9 21 100 0.598478
10 9 21 100 0.0659549
11 9 21 100 0.072284
12 9 21 100 0.0219081
13 9 21 100 0.0481919
14 9 21 100 0.000909604
15 9 21 100 0.0111298
16 9 21 100 0.0120482
18 9 21 100 0.0240952
21 9 21 100 0.0120482
0 10 21 100 0.0490738
1 10 21 100 0.0121951
4 10 21 100 0.0121951
8 10 21 100 0.0119754
9 10 21 100 0.074191
10 10 21 100 0.577511
11 10 21 100 0.0921349
12 10 21 100 0.0731632
13 10 21 100 0.0365854
14 10 21 100 0.0243902
17 10 21 100 0.0121951
19 10 21 100 0.0243893
0 11 21 100 0.0251434
1 11 21 100 8.41561e-06
4 11 21 100 0.0120099
5 11 21 100 0.0121951
6 11 21 100 0.0121951
7 11 21 100 1.09932e-06
9 11 21 100 0.0241226
10 11 21 100 0.0975502
11 11 21 100 0.52421
12 11 21 100 0.1099
13 11 21 100 0.0729335
14 11 21 100 0.0487223
15 11 21 100 0.0243942
18 11 21 100 0.0122215
19 11 21 100 2.66461e-06
20 11 21 100 0.02439
0 12 21 100 0.036081
5 12 21 100 0.0121951
6 12 21 100 0.0121957
7 12 21 100 0.0121951
8 12 21 100 0.0121951
9 12 21 100 1.30324e-06
10 12 21 100 0.0365402
11 12 21 100 0.0834005
12 12 21 100 0.512148
13 12 21 100 0.0757298
14 12 21 100 0.0853658
15 12 21 100 0.0365854
16 12 21 100 0.036588
17 12 21 100 0.0121544
19 12 21 100 0.0244298
21 12 21 100 0.0121951
0 13 21 100 0.0246935
7 13 21 100 0.0123457
8 13 21 100 2.11432e-05
9 13 21 100 0.0122239
10 13 21 100 0.000120235
11 13 21 100 0.0493827
12 13 21 100 0.111106
13 13 21 100 0.456815
14 13 21 100 0.0863868
15 13 21 100 0.0987604
16 13 21 100 0.0370371
17 13 21 100 0.037037
18 13 21 100 0.024689
20 13 21 100 0.0493819
0 14 21 100 0.0149704
2 14 21 100 0.0123457
6 14 21 100 0.0123372
8 14 21 100 0.012343
10 14 21 100 0.0123456
12 14 21 100 0.0740699
13 14 21 100 0.0864171
14 14 21 100 0.422344
15 14 21 100 0.0987624
16 14 21 100 0.105907
17 14 21 100 0.037037
18 14 21 100 0.0370469
19 14 21 100 0.0246914
21 14 21 100 0.0493827
0 15 21 100 0.0390209
2 15 21 100 5.01822e-06
3 15 21 100 0.0129812
8 15 21 100 6.20581e-07
9 15 21 100 0.012987
12 15 21 100 0.025974
13 15 21 100 0.0908862
14 15 21 100 0.0909075
15 15 21 100 0.376598
16 15 21 100 0.104023
17 15 21 100 0.129868
18 15 21 100 0.0389566
19 15 21 100 0.0648028
20 15 21 100 0.0129888
0 16 21 100 0.0116267
3 16 21 100 0.000107821
4 16 21 100 0.012987
10 16 21 100 0.012987
11 16 21 100 0.012987
13 16 21 100 0.0259735
14 16 21 100 0.0911311
15 16 21 100 0.0837665
16 16 21 100 0.37418
17 16 21 100 0.117719
18 16 21 100 0.139651
19 16 21 100 0.0389606
20 16 21 100 0.0519481
21 16 21 100 0.025974
0 17 21 100 0.0269694
5 17 21 100 0.0132378
7 17 21 100 6.98187e-07
11 17 21 100 0.013332
12 17 21 100 5.94345e-05
13 17 21 100 0.0133333
14 17 21 100 0.0266667
15 17 21 100 0.117295
16 17 21 100 0.0664871
17 17 21 100 0.33322
18 17 21 100 0.13607
19 17 21 100 0.146662
20 17 21 100 0.0533338
21 17 21 100 0.0533334
0 18 21 100 0.0340358
6 18 21 100 0.0140845
7 18 21 100 6.14535e-07
12 18 21 100 0.0140845
13 18 21 100 6.37431e-07
14 18 21 100 0.0140843
15 18 21 100 0.0365024
16 18 21 100 0.112667
17 18 21 100 0.0703118
18 18 21 100 0.32395
19 18 21 100 0.140842
20 18 21 100 0.154929
21 18 21 100 0.0845071
0 19 21 100 0.047336
7 19 21 100 0.0153821
13 19 21 100 0.0153846
15 19 21 100 0.0307692
16 19 21 100 0.0307692
17 19 21 100 0.123069
18 19 21 100 0.0757885
19 19 21 100 0.323055
20 19 21 100 0.169216
21 19 21 100 0.169231
0 20 21 100 0.0371863
3 20 21 100 5.49485e-06
8 20 21 100 0.0185274
14 20 21 100 0.0185185
16 20 21 100 0.0740739
17 20 21 100 0.0185785
18 20 21 100 0.166655
19 20 21 100 0.110899
20 20 21 100 0.388889
21 20 21 100 0.166667
0 21 21 100 0.0666857
4 21 21 100 6.87956e-07
9 21 21 100 0.0222213
11 21 21 100 2.44554e-07
15 21 21 100 0.0222222
17 21 21 100 0.0666646
18 21 21 100 0.022223
19 21 21 100 0.199983
20 21 21 100 0.155555
21 21 21 100 0.444444
0 22 21 100 0.0799741
2 22 21 100 2.61691e-05
10 22 21 100 0.04
16 22 21 100 0.04
18 22 21 100 0.08
19 22 21 100 0.0799996
20 22 21 100 0.4
21 22 21 100 0.28
0 23 21 100 0.014015
2 23 21 100 0.00807244
3 23 21 100 4.89547e-06
11 23 21 100 0.0555553
14 23 21 100 1.87356e-06
17 23 21 100 0.0555523
18 23 21 100 0.0334647
19 23 21 100 0.111111
20 23 21 100 0.166667
21 23 21 100 0.555556
0 24 21 100 0.12189
3 24 21 100 0.00310974
12 24 21 100 0.125
18 24 21 100 0.125
20 24 21 100 0.25
21 24 21 100 0.375
0 25 21 100 3.86121e-05
1 25 21 100 2.66845e-06
13 25 21 100 0.199986
14 25 21 100 0.199972
19 25 21 100 0.2
21 25 21 100 0.4
0 26 21 100 0.665335
9 26 21 100 9.50491e-06
14 26 21 100 0.0013216
20 26 21 100 0.333334
0 27 21 100 5.70395e-05
14 27 21 100 0.333276
15 27 21 100 0.333333
21 27 21 100 0.333333
0 28 21 100 0.499954
16 28 21 100 0.5
18 28 21 100 4.59269e-05
2 29 21 100 1.07688e-05
17 29 21 100 0.5
18 29 21 100 0.49999
0 30 21 100 0.499964
3 30 21 100 3.55221e-05
18 30 21 100 0.500001
0 31 21 100 0.500284
19 31 21 100 0.499716
18 32 21 100 0.499999
20 32 21 100 0.500001
18 33 21 100 0.5
21 33 21 100 0.5
21 34 21 100 1
1 1 22 100 0.9881
4 1 22 100 0.0118996
0 2 22 100 0.0151302
1 2 22 100 0.0298188
2 2 22 100 0.88774
3 2 22 100 0.0226765
5 2 22 100 0.0147838
6 2 22 100 0.0149254
7 2 22 100 2.44499e-07
13 2 22 100 0.0149254
0 3 22 100 0.0348666
3 3 22 100 0.833455
4 3 22 100 0.070214
5 3 22 100 0.0166873
7 3 22 100 0.0149254
8 3 22 100 0.0149254
10 3 22 100 7.66534e-07
14 3 22 100 0.0149252
16 3 22 100 4.38545e-07
18 3 22 100 1.8811e-07
0 4 22 100 0.0311043
1 4 22 100 0.014926
2 4 22 100 0.0142132
3 4 22 100 3.72693e-07
4 4 22 100 0.695047
5 4 22 100 0.119317
6 4 22 100 0.0590975
7 4 22 100 2.60024e-07
8 4 22 100 0.0149258
9 4 22 100 0.0149254
10 4 22 100 2.57511e-05
11 4 22 100 0.014771
15 4 22 100 0.0216453
18 4 22 100 6.62418e-07
0 5 22 100 0.0450981
2 5 22 100 0.0146393
4 5 22 100 0.0149254
5 5 22 100 0.614952
6 5 22 100 0.119398
7 5 22 100 0.0865096
9 5 22 100 0.0149244
10 5 22 100 0.0149261
11 5 22 100 1.73904e-06
12 5 22 100 0.0298507
16 5 22 100 0.0298493
19 5 22 100 0.0149254
0 6 22 100 0.0150359
2 6 22 100 0.0297532
3 6 22 100 9.05809e-05
5 6 22 100 0.0298504
6 6 22 100 0.582064
7 6 22 100 0.083222
8 6 22 100 0.110298
9 6 22 100 0.000440399
10 6 22 100 0.0248707
11 6 22 100 0.0348299
13 6 22 100 0.0298481
15 6 22 100 0.0149226
17 6 22 100 0.0298508
20 6 22 100 0.0149241
0 7 22 100 0.0159002
3 7 22 100 0.0298504
5 7 22 100 0.0148809
6 7 22 100 0.0430838
7 7 22 100 0.552196
8 7 22 100 0.100531
9 7 22 100 0.0895549
10 7 22 100 0.0354883
11 7 22 100 0.0149254
12 7 22 100 0.0298508
14 7 22 100 0.0298463
15 7 22 100 0.014921
16 7 22 100 1.13126e-05
18 7 22 100 0.0149256
21 7 22 100 0.0140345
0 8 22 100 0.0148109
2 8 22 100 0.0149226
4 8 22 100 0.0298508
6 8 22 100 0.0149254
7 8 22 100 0.0442904
8 8 22 100 0.531555
9 8 22 100 0.110684
10 8 22 100 0.0748327
11 8 22 100 0.0447765
12 8 22 100 0.0149254
13 8 22 100 0.0298003
15 8 22 100 0.0298502
16 8 22 100 0.0149254
19 8 22 100 0.0149254
21 8 22 100 0.0149253
0 9 22 100 0.0162822
4 9 22 100 0.0149036
5 9 22 100 0.0446875
7 9 22 100 0.0149253
8 9 22 100 0.0298508
9 9 22 100 0.47611
10 9 22 100 0.158331
11 9 22 100 0.0809076
12 9 22 100 0.0447684
13 9 22 100 0.0149247
14 9 22 100 0.0447738
16 9 22 100 0.0298463
17 9 22 100 0.0147638
20 9 22 100 0.0149249
0 10 22 100 5.76927e-05
5 10 22 100 0.0298508
6 10 22 100 0.0447761
8 10 22 100 0.0149254
9 10 22 100 0.0895519
10 10 22 100 0.417875
11 10 22 100 0.16421
12 10 22 100 0.0745804
13 10 22 100 0.0596989
14 10 22 100 0.0149254
15 10 22 100 0.0596984
17 10 22 100 0.0149254
21 10 22 100 0.0149254
0 11 22 100 8.14837e-05
4 11 22 100 0.0148881
6 11 22 100 0.0298508
7 11 22 100 0.0447744
9 11 22 100 0.0149254
10 11 22 100 0.0782762
11 11 22 100 0.384389
12 11 22 100 0.179101
13 11 22 100 0.0756806
14 11 22 100 0.0735678
15 11 22 100 0.0149246
16 11 22 100 0.0596944
18 11 22 100 0.0149209
22 11 22 100 0.0149254
0 12 22 100 0.0154117
5 12 22 100 0.0151515
7 12 22 100 0.0302816
8 12 22 100 0.0303049
9 12 22 100 0.0151492
10 12 22 100 0.030303
11 12 22 100 0.0909009
12 12 22 100 0.338932
13 12 22 100 0.191188
14 12 22 100 0.0908703
15 12 22 100 0.0757576
16 12 22 100 0.015147
17 12 22 100 0.0302994
19 12 22 100 0.0303021
0 13 22 100 0.0158727
6 13 22 100 0.0151515
8 13 22 100 0.0303028
9 13 22 100 0.030303
10 13 22 100 0.0151515
11 13 22 100 0.030303
12 13 22 100 0.0986305
13 13 22 100 0.317665
14 13 22 100 0.166635
15 13 22 100 0.121212
16 13 22 100 0.0605974
17 13 22 100 0.0225781
18 13 22 100 0.0303025
20 13 22 100 0.0452949
0 14 22 100 0.0152618
3 14 22 100 5.45653e-07
7 14 22 100 0.0151521
9 14 22 100 0.0303026
10 14 22 100 0.0303003
11 14 22 100 0.0152618
12 14 22 100 0.0303277
13 14 22 100 0.121048
14 14 22 100 0.272714
15 14 22 100 0.167017
16 14 22 100 0.135996
17 14 22 100 0.060604
18 14 22 100 0.0454082
19 14 22 100 0.030303
21 14 22 100 0.030303
0 15 22 100 0.0155419
5 15 22 100 0.00373332
9 15 22 100 1.75883e-06
10 15 22 100 0.022047
11 15 22 100 0.00825449
12 15 22 100 0.0454339
13 15 22 100 0.0455518
14 15 22 100 0.120891
15 15 22 100 0.27272
16 15 22 100 0.151507
17 15 22 100 0.136251
18 15 22 100 0.0757526
19 15 22 100 0.0454395
20 15 22 100 0.0151531
21 15 22 100 0.0114182
22 15 22 100 0.030303
0 16 22 100 0.00835229
6 16 22 100 0.0156225
11 16 22 100 0.0156253
12 16 22 100 0.015625
13 16 22 100 0.0468728
14 16 22 100 0.0468378
15 16 22 100 0.116926
16 16 22 100 0.256324
17 16 22 100 0.171676
18 16 22 100 0.149888
19 16 22 100 0.0625002
20 16 22 100 0.0624999
21 16 22 100 0.015625
22 16 22 100 0.015625
0 17 22 100 0.000194181
7 17 22 100 3.19444e-07
8 17 22 100 0.0158722
12 17 22 100 0.015873
13 17 22 100 0.015873
14 17 22 100 0.0476189
15 17 22 100 0.0474593
16 17 22 100 0.111104
17 17 22 100 0.253957
18 17 22 100 0.168519
19 17 22 100 0.174594
20 17 22 100 0.0695697
21 17 22 100 0.0634921
22 17 22 100 0.015873
0 18 22 100 0.0322807
6 18 22 100 4.51666e-07
9 18 22 100 0.016129
13 18 22 100 0.0322578
14 18 22 100 0.016129
15 18 22 100 0.0322577
16 18 22 100 0.0161277
17 18 22 100 0.112903
18 18 22 100 0.234256
19 18 22 100 0.190526
20 18 22 100 0.17197
21 18 22 100 0.0806452
22 18 22 100 0.0645161
0 19 22 100 0.00845106
10 19 22 100 0.0172253
14 19 22 100 0.0172414
15 19 22 100 0.043318
16 19 22 100 0.0344797
17 19 22 100 0.0172414
18 19 22 100 0.109765
19 19 22 100 0.23265
20 19 22 100 0.206885
21 19 22 100 0.226536
22 19 22 100 0.0862069
0 20 22 100 0.000104743
15 20 22 100 4.71376e-06
16 20 22 100 0.0565953
17 20 22 100 0.0377361
18 20 22 100 0.0376583
19 20 22 100 0.113199
20 20 22 100 0.207532
21 20 22 100 0.245283
22 20 22 100 0.301887
0 21 22 100 0.0269138
3 21 22 100 3.40903e-07
4 21 22 100 0.000118606
15 21 22 100 0.027027
17 21 22 100 0.0540538
18 21 22 100 0.054053
19 21 22 100 0.027027
20 21 22 100 0.162158
21 21 22 100 0.297297
22 21 22 100 0.351351
0 22 22 100 0.0418839
14 22 22 100 0.0416667
18 22 22 100 0.124774
19 22 22 100 0.083345
20 22 22 100 0.0416633
21 22 22 100 0.25
22 22 22 100 0.416667
0 23 22 100 1.94015e-05
15 23 22 100 0.0714286
16 23 22 100 2.42264e-05
19 23 22 100 0.0714286
20 23 22 100 0.214266
21 23 22 100 0.142833
22 23 22 100 0.5
0 24 22 100 0.0012255
13 24 22 100 3.49533e-06
17 24 22 100 0.141628
20 24 22 100 0.142857
21 24 22 100 0.428572
22 24 22 100 0.285714
18 25 22 100 0.2
21 25 22 100 0.2
22 25 22 100 0.6
22 26 22 100 1
1 1 23 100 0.920917
3 1 23 100 0.0473369
4 1 23 100 0.015873
5 1 23 100 0.015873
0 2 23 100 0.00470568
1 2 23 100 0.015873
2 2 23 100 0.689922
3 2 23 100 0.0817244
4 2 23 100 0.0708567
5 2 23 100 0.0317456
6 2 23 100 0.0396179
7 2 23 100 1.69495e-05
8 2 23 100 0.015873
9 2 23 100 0.0158555
12 2 23 100 0.0158728
13 2 23 100 0.00657482
19 2 23 100 0.0113613
0 3 23 100 0.0160885
2 3 23 100 0.0159003
3 3 23 100 0.637478
4 3 23 100 0.108188
5 3 23 100 0.0476189
6 3 23 100 0.0160221
7 3 23 100 0.0555376
8 3 23 100 3.26914e-05
10 3 23 100 0.015873
11 3 23 100 0.00793812
13 3 23 100 0.015873
14 3 23 100 0.0158312
16 3 23 100 0.015873
21 3 23 100 0.0158729
22 3 23 100 0.015873
0 4 23 100 0.080071
2 4 23 100 4.47156e-05
3 4 23 100 0.015873
4 4 23 100 0.583109
5 4 23 100 0.13047
6 4 23 100 0.0634921
7 4 23 100 0.015873
8 4 23 100 0.015873
11 4 23 100 0.0158737
12 4 23 100 0.015873
14 4 23 100 0.015873
15 4 23 100 0.015873
17 4 23 100 0.015873
20 4 23 100 0.015828
0 5 23 100 0.0624785
3 5 23 100 0.0262586
4 5 23 100 0.0799501
5 5 23 100 0.507936
6 5 23 100 0.127474
7 5 23 100 0.079369
8 5 23 100 0.0158734
9 5 23 100 0.015873
12 5 23 100 0.015872
13 5 23 100 0.015873
15 5 23 100 0.0158737
16 5 23 100 5.25572e-07
18 5 23 100 0.015873
21 5 23 100 0.0212953
0 6 23 100 0.0443301
2 6 23 100 6.99997e-06
3 6 23 100 1.53666e-06
4 6 23 100 0.0317455
5 6 23 100 0.0952359
6 6 23 100 0.476196
7 6 23 100 0.158709
8 6 23 100 0.0667906
9 6 23 100 0.0317461
10 6 23 100 0.015873
11 6 23 100 0.0157889
13 6 23 100 0.015873
14 6 23 100 0.015873
16 6 23 100 0.0158731
19 6 23 100 0.015873
20 6 23 100 8.30648e-05
21 6 23 100 1.00021e-06
0 7 23 100 0.0175001
2 7 23 100 0.0158626
4 7 23 100 0.0158734
5 7 23 100 0.0317441
6 7 23 100 0.0951891
7 7 23 100 0.427037
8 7 23 100 0.190377
9 7 23 100 0.0635646
10 7 23 100 0.047618
11 7 23 100 0.015873
14 7 23 100 0.031746
15 7 23 100 0.015873
17 7 23 100 0.0158692
19 7 23 100 1.62543e-07
20 7 23 100 0.0158725
0 8 23 100 0.0158799
2 8 23 100 6.48544e-05
3 8 23 100 0.0158721
5 8 23 100 0.0158566
6 8 23 100 0.0317461
7 8 23 100 0.111107
8 8 23 100 0.39006
9 8 23 100 0.174591
10 8 23 100 0.101977
11 8 23 100 0.0317447
12 8 23 100 0.0158728
15 8 23 100 0.0317406
16 8 23 100 0.0158725
17 8 23 100 0.0158682
18 8 23 100 0.015873
21 8 23 100 0.015873
0 9 23 100 0.0318636
4 9 23 100 0.015873
7 9 23 100 0.0317429
8 9 23 100 0.0952376
9 9 23 100 0.367386
10 9 23 100 0.201849
11 9 23 100 0.0928588
12 9 23 100 0.015873
13 9 23 100 0.03623
14 9 23 100 0.0158734
15 9 23 100 9.53194e-07
16 9 23 100 0.0317186
17 9 23 100 0.0158739
18 9 23 100 0.015873
19 9 23 100 0.015873
22 9 23 100 0.015873
0 10 23 100 0.0159104
5 10 23 100 0.015873
6 10 23 100 0.0158009
8 10 23 100 0.0634877
9 10 23 100 0.0952346
10 10 23 100 0.333255
11 10 23 100 0.190615
12 10 23 100 0.0793616
13 10 23 100 0.0317424
14 10 23 100 0.0476169
15 10 23 100 0.015873
16 10 23 100 0.0317415
17 10 23 100 0.0158687
18 10 23 100 0.0158739
19 10 23 100 0.015873
20 10 23 100 0.0158725
0 11 23 100 0.0157905
2 11 23 100 5.80533e-05
6 11 23 100 0.0315322
9 11 23 100 0.0634833
10 11 23 100 0.0952322
11 11 23 100 0.33359
12 11 23 100 0.190474
13 11 23 100 0.0793656
14 11 23 100 0.0317435
15 11 23 100 0.0476191
16 11 23 100 0.0158729
17 11 23 100 0.031746
18 11 23 100 0.015873
19 11 23 100 0.015873
20 11 23 100 0.015873
21 11 23 100 0.015873
0 12 23 100 0.00191707
7 12 23 100 0.0158728
9 12 23 100 0.0158626
10 12 23 100 0.0634921
11 12 23 100 0.126981
12 12 23 100 0.301577
13 12 23 100 0.19047
14 12 23 100 0.0933556
15 12 23 100 0.0317461
16 12 23 100 0.0476179
17 12 23 100 0.015873
18 12 23 100 0.0317459
19 12 23 100 0.0158736
20 12 23 100 0.0158704
21 12 23 100 0.0158721
22 12 23 100 0.015873
0 13 23 100 0.0159135
2 13 23 100 6.43813e-07
8 13 23 100 0.0317458
10 13 23 100 0.015873
11 13 23 100 0.0477021
12 13 23 100 0.142855
13 13 23 100 0.285701
14 13 23 100 0.174593
15 13 23 100 0.0793591
16 13 23 100 0.0317433
17 13 23 100 0.047614
18 13 23 100 0.015873
19 13 23 100 0.0158704
20 13 23 100 0.0335114
21 13 23 100 0.0217996
22 13 23 100 0.023971
23 13 23 100 0.015873
0 14 23 100 0.0161303
9 14 23 100 0.0322581
11 14 23 100 0.016129
12 14 23 100 0.0322892
13 14 23 100 0.161296
14 14 23 100 0.259028
15 14 23 100 0.193325
16 14 23 100 0.0798817
17 14 23 100 0.0483861
18 14 23 100 0.0483871
19 14 23 100 0.0161242
20 14 23 100 0.0161245
21 14 23 100 0.0161246
22 14 23 100 0.016129
23 14 23 100 0.0483871
0 15 23 100 0.0174006
3 15 23 100 9.62212e-07
10 15 23 100 0.0338972
12 15 23 100 0.0334878
13 15 23 100 0.0508473
14 15 23 100 0.152541
15 15 23 100 0.271176
16 15 23 100 0.186421
17 15 23 100 0.084744
18 15 23 100 0.0508446
19 15 23 100 0.0508436
20 15 23 100 0.0169492
21 15 23 100 0.0169492
22 15 23 100 0.0169492
23 15 23 100 0.0169492
0 16 23 100 7.61082e-05
11 16 23 100 0.0172414
12 16 23 100 1.73823e-07
13 16 23 100 0.0172414
14 16 23 100 0.0344816
15 16 23 100 0.155166
16 16 23 100 0.310171
17 16 23 100 0.206875
18 16 23 100 0.0861995
19 16 23 100 0.051719
20 16 23 100 0.0517232
21 16 23 100 0.0172414
22 16 23 100 0.0173815
23 16 23 100 0.0344828
0 17 23 100 0.0188167
7 17 23 100 6.16994e-07
12 17 23 100 0.0348764
14 17 23 100 0.0178571
15 17 23 100 0.0357143
16 17 23 100 0.142901
17 17 23 100 0.267847
18 17 23 100 0.231992
19 17 23 100 0.0892854
20 17 23 100 0.0535709
21 17 23 100 0.0535675
22 17 23 100 0.0178571
23 17 23 100 0.0357143
0 18 23 100 0.0370942
8 18 23 100 3.12431e-07
13 18 23 100 0.0185185
15 18 23 100 0.0185052
16 18 23 100 0.0370371
17 18 23 100 0.148143
18 18 23 100 0.276251
19 18 23 100 0.242234
20 18 23 100 0.0925926
21 18 23 100 0.05555
22 18 23 100 0.0555556
23 18 23 100 0.0185185
0 19 23 100 0.00570156
14 19 23 100 0.0188674
16 19 23 100 0.0377359
17 19 23 100 0.0377359
18 19 23 100 0.150942
19 19 23 100 0.239605
20 19 23 100 0.282998
21 19 23 100 0.0754717
22 19 23 100 0.0566024
23 19 23 100 0.0943396
0 20 23 100 0.0421912
15 20 23 100 0.0208333
17 20 23 100 0.0416656
18 20 23 100 0.0416664
19 20 23 100 0.166663
20 20 23 100 0.291163
21 20 23 100 0.270818
22 20 23 100 0.0624996
23 20 23 100 0.0625
0 21 23 100 0.000935143
16 21 23 100 0.0222215
18 21 23 100 0.0444442
19 21 23 100 0.066486
20 21 23 100 0.199261
21 21 23 100 0.288874
22 21 23 100 0.311111
23 21 23 100 0.0666667
0 22 23 100 1.2025e-05
17 22 23 100 0.0238095
19 22 23 100 0.0476191
20 22 23 100 0.0712031
21 22 23 100 0.214499
22 22 23 100 0.285714
23 22 23 100 0.357143
0 23 23 100 0.00021672
18 23 23 100 0.0370371
19 23 23 100 7.53864e-05
20 23 23 100 0.073782
21 23 23 100 0.0740738
22 23 23 100 0.37037
23 23 23 100 0.444445
0 24 23 100 0.0666618
17 24 23 100 4.76565e-06
19 24 23 100 0.0666665
21 24 23 100 0.0666667
22 24 23 100 0.133333
23 24 23 100 0.666667
0 25 23 100 4.98371e-05
20 25 23 100 0.19995
21 25 23 100 0.2
22 25 23 100 0.2
23 25 23 100 0.4
21 26 23 100 0.333333
22 26 23 100 0.333334
23 26 23 100 0.333334
22 27 23 100 0.5
23 27 23 100 0.5
23 28 23 100 1
1 1 24 100 0.966433
2 1 24 100 0.0072083
4 1 24 100 0.00969196
6 1 24 100 0.000153483
8 1 24 100 0.0165132
0 2 24 100 0.0167467
1 2 24 100 0.0166699
2 2 24 100 0.849937
3 2 24 100 0.0499991
4 2 24 100 0.0166481
5 2 24 100 0.0333326
9 2 24 100 0.0166666
0 3 24 100 0.0335229
2 3 24 100 0.0332282
3 3 24 100 0.767822
4 3 24 100 0.0820932
5 3 24 100 0.0166667
6 3 24 100 0.0333339
7 3 24 100 0.0166667
10 3 24 100 0.0166665
11 3 24 100 2.02574e-07
0 4 24 100 0.0167194
2 4 24 100 0.0499978
3 4 24 100 0.0333333
4 4 24 100 0.683303
5 4 24 100 0.116654
6 4 24 100 0.0333298
7 4 24 100 0.0333294
8 4 24 100 4.16038e-05
9 4 24 100 0.0166251
11 4 24 100 0.0166667
0 5 24 100 0.0118265
2 5 24 100 0.016667
3 5 24 100 0.0333333
4 5 24 100 0.0333319
5 5 24 100 0.654846
6 5 24 100 0.149996
7 5 24 100 0.033333
8 5 24 100 0.0333333
10 5 24 100 0.0166667
12 5 24 100 0.016666
0 6 24 100 0.0261684
3 6 24 100 0.0166592
4 6 24 100 0.0166664
5 6 24 100 0.0500154
6 6 24 100 0.616903
7 6 24 100 0.150004
8 6 24 100 0.0411111
9 6 24 100 0.0405536
10 6 24 100 0.00858598
11 6 24 100 0.0166667
13 6 24 100 0.0166667
0 7 24 100 0.0340559
2 7 24 100 0.0166666
4 7 24 100 0.0166781
5 7 24 100 0.0166673
6 7 24 100 0.0666742
7 7 24 100 0.549111
8 7 24 100 0.183392
9 7 24 100 0.0167664
10 7 24 100 0.049997
12 7 24 100 0.0166655
14 7 24 100 0.016662
16 7 24 100 0.0166638
0 8 24 100 0.033603
3 8 24 100 0.0166667
5 8 24 100 0.0329711
6 8 24 100 0.0333334
7 8 24 100 0.0666667
8 8 24 100 0.466655
9 8 24 100 0.183323
10 8 24 100 0.0499941
11 8 24 100 0.0333334
12 8 24 100 2.89849e-05
13 8 24 100 0.0496714
15 8 24 100 0.0166667
17 8 24 100 0.0166667
19 8 24 100 0.000420167
0 9 24 100 0.0166996
4 9 24 100 1.47442e-05
6 9 24 100 0.0333315
7 9 24 100 0.0333332
8 9 24 100 0.0666566
9 9 24 100 0.499973
10 9 24 100 0.183329
11 9 24 100 0.05
12 9 24 100 0.0333294
14 9 24 100 0.05
16 9 24 100 0.0166663
18 9 24 100 0.0166667
0 10 24 100 0.0170874
2 10 24 100 4.10055e-07
5 10 24 100 0.0166667
7 10 24 100 0.0333368
8 10 24 100 0.0329068
9 10 24 100 0.0669818
10 10 24 100 0.46638
11 10 24 100 0.183318
12 10 24 100 0.0499902
13 10 24 100 0.0499978
15 10 24 100 0.05
17 10 24 100 0.0166667
19 10 24 100 0.016667
0 11 24 100 0.000208302
6 11 24 100 0.0166658
8 11 24 100 0.0333333
9 11 24 100 0.0166667
10 11 24 100 0.116647
11 11 24 100 0.449832
12 11 24 100 0.183325
13 11 24 100 0.05
14 11 24 100 0.0499945
16 11 24 100 0.05
18 11 24 100 0.0166633
20 11 24 100 0.0166639
21 11 24 100 4.35572e-07
0 12 24 100 0.0202749
7 12 24 100 0.0166652
9 12 24 100 0.0333329
10 12 24 100 0.0166667
11 12 24 100 0.133068
12 12 24 100 0.416354
13 12 24 100 0.180354
14 12 24 100 0.0499567
15 12 24 100 0.0666619
17 12 24 100 0.0333323
19 12 24 100 0.0166667
21 12 24 100 0.0166663
0 13 24 100 0.00128886
8 13 24 100 0.0333284
10 13 24 100 0.0333333
11 13 24 100 0.0166667
12 13 24 100 0.11665
13 13 24 100 0.395302
14 13 24 100 0.145019
15 13 24 100 0.0917547
16 13 24 100 0.0833298
18 13 24 100 0.05
20 13 24 100 0.0166608
22 13 24 100 0.0166667
0 14 24 100 0.0165929
9 14 24 100 0.0333334
11 14 24 100 0.0333319
12 14 24 100 0.0166666
13 14 24 100 0.14997
14 14 24 100 0.307161
15 14 24 100 0.168278
16 14 24 100 0.100018
17 14 24 100 0.0666661
18 14 24 100 0.0246337
19 14 24 100 0.0333286
20 14 24 100 0.0166667
21 14 24 100 0.0166871
23 14 24 100 0.0166667
0 15 24 100 0.0256371
2 15 24 100 4.51123e-07
5 15 24 100 2.21618e-07
10 15 24 100 0.030302
11 15 24 100 1.23982e-05
12 15 24 100 0.0447537
13 15 24 100 0.0332139
14 15 24 100 0.13328
15 15 24 100 0.291768
16 15 24 100 0.150126
17 15 24 100 0.116608
18 15 24 100 0.074298
20 15 24 100 0.0333334
22 15 24 100 0.0166667
23 15 24 100 0.0166666
24 15 24 100 0.0333334
0 16 24 100 0.000181003
12 16 24 100 0.0172414
13 16 24 100 0.0517233
14 16 24 100 0.051724
15 16 24 100 0.121103
16 16 24 100 0.309711
17 16 24 100 0.138036
18 16 24 100 0.137869
19 16 24 100 0.0862056
21 16 24 100 0.0344816
23 16 24 100 0.0172414
24 16 24 100 0.0344828
0 17 24 100 0.035932
12 17 24 100 6.12609e-07
13 17 24 100 0.0357143
14 17 24 100 0.0712496
15 17 24 100 0.0178571
16 17 24 100 0.107142
17 17 24 100 0.303555
18 17 24 100 0.142853
19 17 24 100 0.142846
20 17 24 100 0.089284
22 17 24 100 0.0357088
24 17 24 100 0.0178571
0 18 24 100 0.0546639
2 18 24 100 3.95004e-07
7 18 24 100 4.1675e-07
13 18 24 100 5.99154e-07
14 18 24 100 0.0363612
15 18 24 100 0.0727
16 18 24 100 0.000105085
17 18 24 100 0.109127
18 18 24 100 0.272512
19 18 24 100 0.163613
20 18 24 100 0.145471
21 18 24 100 0.0909002
23 18 24 100 0.0363637
24 18 24 100 0.0181818
0 19 24 100 0.0332576
4 19 24 100 1.78298e-06
14 19 24 100 0.0185225
15 19 24 100 0.0370041
16 19 24 100 0.0741028
17 19 24 100 0.0362167
18 19 24 100 0.111349
19 19 24 100 0.213042
20 19 24 100 0.134303
21 19 24 100 0.184898
22 19 24 100 0.111103
23 19 24 100 0.00916362
24 19 24 100 0.0370371
0 20 24 100 0.0190997
10 20 24 100 5.19649e-05
15 20 24 100 0.0191804
16 20 24 100 0.0384583
17 20 24 100 0.0769231
18 20 24 100 0.0384616
19 20 24 100 0.115527
20 20 24 100 0.211537
21 20 24 100 0.153844
22 20 24 100 0.192302
23 20 24 100 0.115384
24 20 24 100 0.0192308
0 21 24 100 0.0002261
11 21 24 100 5.13039e-07
16 21 24 100 0.0196078
17 21 24 100 0.0392153
18 21 24 100 0.0588194
19 21 24 100 0.0196071
20 21 24 100 0.156857
21 21 24 100 0.215476
22 21 24 100 0.156857
23 21 24 100 0.196078
24 21 24 100 0.137255
0 22 24 100 0.0228652
17 22 24 100 0.0227273
18 22 24 100 0.0227267
19 22 24 100 0.0681819
20 22 24 100 0.0227273
21 22 24 100 0.181691
22 22 24 100 0.227285
23 22 24 100 0.204523
24 22 24 100 0.227273
0 23 24 100 0.0405947
8 23 24 100 3.46305e-07
18 23 24 100 0.0588233
19 23 24 100 0.0588133
20 23 24 100 0.0882322
21 23 24 100 0.0294118
22 23 24 100 0.219565
23 23 24 100 0.269265
24 23 24 100 0.235294
0 24 24 100 0.0768029
13 24 24 100 4.89398e-05
19 24 24 100 0.0769184
20 24 24 100 0.038461
21 24 24 100 0.0769223
22 24 24 100 0.0385387
23 24 24 100 0.269231
24 24 24 100 0.423077
0 25 24 100 0.0321888
18 25 24 100 0.0666667
20 25 24 100 0.133333
21 25 24 100 0.0666667
22 25 24 100 0.167811
23 25 24 100 0.0666667
24 25 24 100 0.466667
0 26 24 100 2.43899e-05
19 26 24 100 0.124999
21 26 24 100 0.249989
22 26 24 100 0.124987
23 26 24 100 0.375
24 26 24 100 0.125
22 27 24 100 0.285713
23 27 24 100 0.285715
24 27 24 100 0.428572
23 28 24 100 0.5
24 28 24 100 0.5
24 29 24 100 1
1 1 25 100 0.958291
3 1 25 100 0.0138889
7 1 25 100 2.57792e-06
8 1 25 100 0.0138889
14 1 25 100 3.94208e-05
15 1 25 100 0.0138889
0 2 25 100 0.02647
1 2 25 100 0.0138889
2 2 25 100 0.733366
3 2 25 100 0.0595733
4 2 25 100 0.0277804
5 2 25 100 0.0277773
6 2 25 100 0.027778
7 2 25 100 9.14425e-06
8 2 25 100 0.0416463
9 2 25 100 0.0277775
12 2 25 100 7.7658e-06
13 2 25 100 4.27318e-05
16 2 25 100 0.0138833
0 3 25 100 0.0417888
1 3 25 100 0.0138889
2 3 25 100 0.0138966
3 3 25 100 0.654928
4 3 25 100 0.0559544
5 3 25 100 0.0529483
6 3 25 100 0.0416614
7 3 25 100 0.0277725
9 3 25 100 0.0554275
10 3 25 100 0.0277778
12 3 25 100 6.07382e-05
15 3 25 100 0.0138888
18 3 25 100 1.72025e-06
20 3 25 100 4.42721e-06
0 4 25 100 0.0549154
2 4 25 100 0.0277778
3 4 25 100 0.0284922
4 4 25 100 0.625054
5 4 25 100 0.0555508
6 4 25 100 0.0416667
7 4 25 100 0.0277949
8 4 25 100 0.0331212
9 4 25 100 0.00840552
10 4 25 100 0.0555548
11 4 25 100 0.0277771
13 4 25 100 2.97131e-07
16 4 25 100 0.0138888
21 4 25 100 5.45678e-07
0 5 25 100 0.0282878
2 5 25 100 0.0139956
3 5 25 100 0.0414315
4 5 25 100 0.020001
5 5 25 100 0.655704
6 5 25 100 0.0456021
7 5 25 100 0.041659
8 5 25 100 0.0205515
9 5 25 100 0.0138889
10 5 25 100 0.027777
11 5 25 100 0.0277778
12 5 25 100 0.041666
13 5 25 100 0.00776833
17 5 25 100 0.0138883
19 5 25 100 8.14425e-07
22 5 25 100 5.10919e-07
0 6 25 100 0.0269283
4 6 25 100 0.0565081
5 6 25 100 0.0277778
6 6 25 100 0.639364
7 6 25 100 0.0416718
8 6 25 100 0.0554697
9 6 25 100 0.0272363
10 6 25 100 0.0138889
11 6 25 100 0.0278252
12 6 25 100 0.0277753
13 6 25 100 0.0416659
18 6 25 100 0.0138889
0 7 25 100 0.0144999
3 7 25 100 0.0133644
5 7 25 100 0.0694071
6 7 25 100 0.0277778
7 7 25 100 0.587713
8 7 25 100 0.0455361
9 7 25 100 0.0555554
10 7 25 100 0.0611442
11 7 25 100 0.0221192
12 7 25 100 0.0138889
13 7 25 100 0.0334402
14 7 25 100 0.0416666
19 7 25 100 0.0138869
0 8 25 100 0.0105546
4 8 25 100 0.0138889
6 8 25 100 0.0555556
7 8 25 100 0.04162
8 8 25 100 0.497974
9 8 25 100 0.0970875
10 8 25 100 0.0752905
11 8 25 100 0.0468294
12 8 25 100 9.85124e-05
13 8 25 100 0.0374327
14 8 25 100 0.0484234
15 8 25 100 0.0608899
16 8 25 100 0.000378009
20 8 25 100 0.0138889
21 8 25 100 2.92037e-07
24 8 25 100 8.84092e-05
0 9 25 100 0.00891053
5 9 25 100 0.0138889
6 9 25 100 0.0138797
7 9 25 100 0.0555571
8 9 25 100 0.0416613
9 9 25 100 0.453256
10 9 25 100 0.107333
11 9 25 100 0.0833329
12 9 25 100 0.0416661
14 9 25 100 0.0138889
15 9 25 100 0.055554
16 9 25 100 0.0694441
17 9 25 100 0.0277386
21 9 25 100 0.0138889
0 10 25 100 0.0139534
6 10 25 100 0.0138889
7 10 25 100 0.0138889
8 10 25 100 0.0555563
9 10 25 100 0.0694405
10 10 25 100 0.444442
11 10 25 100 0.0694422
12 10 25 100 0.08031
13 10 25 100 0.0555556
15 10 25 100 0.0169138
16 10 25 100 0.0555513
17 10 25 100 0.069392
18 10 25 100 0.0277774
22 10 25 100 0.0138881
0 11 25 100 0.0139109
7 11 25 100 6.07585e-06
8 11 25 100 0.0138889
9 11 25 100 0.0555652
10 11 25 100 0.069435
11 11 25 100 0.458282
12 11 25 100 0.0555853
13 11 25 100 0.0833317
14 11 25 100 0.0555545
16 11 25 100 0.0277778
17 11 25 100 0.055552
18 11 25 100 0.0694444
19 11 25 100 0.0277778
23 11 25 100 0.0138889
0 12 25 100 0.000164406
1 12 25 100 0.01388
7 12 25 100 1.68581e-07
10 12 25 100 0.0555543
11 12 25 100 0.0811461
12 12 25 100 0.460385
13 12 25 100 0.0694399
14 12 25 100 0.0833321
15 12 25 100 0.0555471
17 12 25 100 0.0277762
18 12 25 100 0.0555502
19 12 25 100 0.0694379
20 12 25 100 0.0138977
24 12 25 100 0.0138889
0 13 25 100 0.013939
2 13 25 100 0.0138875
6 13 25 100 4.19763e-07
11 13 25 100 0.0416667
12 13 25 100 0.0940026
13 13 25 100 0.427084
14 13 25 100 0.0694343
15 13 25 100 0.0833298
16 13 25 100 0.0587365
17 13 25 100 0.0138884
18 13 25 100 0.0312566
19 13 25 100 0.0555527
20 13 25 100 0.0555549
21 13 25 100 0.0277771
25 13 25 100 0.0138889
0 14 25 100 6.76128e-05
3 14 25 100 0.014083
9 14 25 100 1.57206e-07
12 14 25 100 0.0563349
13 14 25 100 0.0985826
14 14 25 100 0.394337
15 14 25 100 0.0704225
16 14 25 100 0.0844943
17 14 25 100 0.070416
18 14 25 100 0.0140845
19 14 25 100 0.0422532
20 14 25 100 0.0563323
21 14 25 100 0.0704225
22 14 25 100 0.0140845
25 14 25 100 0.0140845
0 15 25 100 0.0144292
4 15 25 100 7.39209e-07
13 15 25 100 0.0570438
14 15 25 100 0.100005
15 15 25 100 0.366052
16 15 25 100 0.099999
17 15 25 100 0.0910674
18 15 25 100 0.0856916
20 15 25 100 0.0428571
21 15 25 100 0.0571423
22 15 25 100 0.0714258
23 15 25 100 0.0142857
0 16 25 100 0.0143364
11 16 25 100 2.02634e-07
12 16 25 100 8.53789e-07
14 16 25 100 0.0571429
15 16 25 100 0.0852021
16 16 25 100 0.336328
17 16 25 100 0.128542
18 16 25 100 0.0866527
19 16 25 100 0.0714287
20 16 25 100 0.034658
21 16 25 100 0.0428567
22 16 25 100 0.0571374
23 16 25 100 0.0571429
24 16 25 100 0.0285712
0 17 25 100 0.0286533
15 17 25 100 0.057138
16 17 25 100 0.0999827
17 17 25 100 0.285688
18 17 25 100 0.128546
19 17 25 100 0.100004
20 17 25 100 0.0714216
21 17 25 100 0.0142857
22 17 25 100 0.0571421
23 17 25 100 0.071425
24 17 25 100 0.0571429
25 17 25 100 0.0285714
0 18 25 100 0.031578
8 18 25 100 3.69098e-07
13 18 25 100 2.72319e-07
14 18 25 100 0.0145319
16 18 25 100 0.0735271
17 18 25 100 0.117398
18 18 25 100 0.264702
19 18 25 100 0.13235
20 18 25 100 0.102841
21 18 25 100 0.0735234
22 18 25 100 0.0277115
23 18 25 100 0.0588954
24 18 25 100 0.0735291
25 18 25 100 0.0294118
0 19 25 100 0.00243374
1 19 25 100 0.0122876
7 19 25 100 2.27104e-05
15 19 25 100 0.0151515
17 19 25 100 0.0456478
18 19 25 100 0.121303
19 19 25 100 0.257767
20 19 25 100 0.136325
21 19 25 100 0.151492
22 19 25 100 0.0606031
23 19 25 100 0.0302992
24 19 25 100 0.0757587
25 19 25 100 0.0909092
0 20 25 100 0.0334721
14 20 25 100 5.5929e-07
16 20 25 100 0.016666
17 20 25 100 0.016553
18 20 25 100 0.0499964
19 20 25 100 0.116663
20 20 25 100 0.249987
21 20 25 100 0.166665
22 20 25 100 0.183331
23 20 25 100 0.0666667
24 20 25 100 0.0333333
25 20 25 100 0.0666667
0 21 25 100 2.84289e-05
5 21 25 100 0.0178571
17 21 25 100 0.0178566
18 21 25 100 0.0178571
19 21 25 100 0.0714242
20 21 25 100 0.107142
21 21 25 100 0.277599
22 21 25 100 0.178568
23 21 25 100 0.196416
24 21 25 100 0.0795368
25 21 25 100 0.0357143
0 22 25 100 6.16725e-05
6 22 25 100 0.0183304
7 22 25 100 0.000146189
18 22 25 100 0.00875314
19 22 25 100 0.028282
20 22 25 100 0.0740735
21 22 25 100 0.111104
22 22 25 100 0.228227
23 22 25 100 0.19769
24 22 25 100 0.240739
25 22 25 100 0.0925926
0 23 25 100 0.0387628
1 23 25 100 7.14915e-07
3 23 25 100 3.14153e-06
7 23 25 100 3.97802e-07
8 23 25 100 4.44578e-07
12 23 25 100 0.000131867
20 23 25 100 0.0408163
21 23 25 100 0.0816321
22 23 25 100 0.122445
23 23 25 100 0.228843
24 23 25 100 0.242466
25 23 25 100 0.244898
0 24 25 100 1.30779e-05
2 24 25 100 0.027027
18 24 25 100 1.86435e-05
21 24 25 100 0.0270235
22 24 25 100 0.108104
23 24 25 100 0.162157
24 24 25 100 0.351333
25 24 25 100 0.324324
0 25 25 100 0.0799928
9 25 25 100 6.90817e-07
23 25 25 100 0.159995
24 25 25 100 0.240011
25 25 25 100 0.52
0 26 25 100 0.0833324
3 26 25 100 0.0833333
7 26 25 100 9.69941e-07
24 26 25 100 0.333333
25 26 25 100 0.5
0 27 25 100 0.166666
24 27 25 100 0.166667
25 27 25 100 0.666667
4 28 25 100 0.5
25 28 25 100 0.5
25 29 25 100 1
1 1 26 100 0.957746
2 1 26 100 0.0140845
7 1 26 100 0.028169
0 2 26 100 0.00169531
1 2 26 100 0.0140845
2 2 26 100 0.871072
3 2 26 100 0.0443812
4 2 26 100 0.0276179
5 2 26 100 0.0129862
8 2 26 100 0.0140845
10 2 26 100 0.0140778
24 2 26 100 1.01577e-06
0 3 26 100 0.0142495
2 3 26 100 0.028169
3 3 26 100 0.830821
4 3 26 100 0.0708937
5 3 26 100 0.0136131
6 3 26 100 0.028169
7 3 26 100 3.74676e-07
9 3 26 100 0.0140845
0 4 26 100 5.49798e-05
3 4 26 100 0.028169
4 4 26 100 0.802703
5 4 26 100 0.0845691
6 4 26 100 0.014084
7 4 26 100 0.0140823
8 4 26 100 0.0422528
10 4 26 100 0.0140845
0 5 26 100 0.0142034
1 5 26 100 4.84431e-07
4 5 26 100 0.0281687
5 5 26 100 0.784114
6 5 26 100 0.0814838
7 5 26 100 0.0281687
8 5 26 100 0.0140845
9 5 26 100 0.028169
11 5 26 100 0.0140819
12 5 26 100 0.00752531
16 5 26 100 3.51054e-07
0 6 26 100 8.25192e-05
2 6 26 100 0.0140845
5 6 26 100 0.0415363
6 6 26 100 0.710075
7 6 26 100 0.121547
8 6 26 100 0.0281676
9 6 26 100 0.028169
10 6 26 100 0.0140845
11 6 26 100 0.0140845
12 6 26 100 0.0140845
13 6 26 100 0.0140845
0 7 26 100 5.94661e-05
3 7 26 100 0.0140845
6 7 26 100 0.0422526
7 7 26 100 0.670791
8 7 26 100 0.140843
9 7 26 100 0.0333829
10 7 26 100 0.0281635
11 7 26 100 0.0140845
12 7 26 100 0.00908782
13 7 26 100 0.0140878
14 7 26 100 0.033162
0 8 26 100 0.0142824
4 8 26 100 0.0140845
7 8 26 100 0.0563351
8 8 26 100 0.633623
9 8 26 100 0.126818
10 8 26 100 0.0562739
11 8 26 100 0.0281652
12 8 26 100 0.0140845
13 8 26 100 9.70262e-06
14 8 26 100 0.01408
15 8 26 100 0.0422435
23 8 26 100 1.46087e-07
0 9 26 100 0.0424417
2 9 26 100 6.29471e-07
8 9 26 100 0.056338
9 9 26 100 0.619532
10 9 26 100 0.126758
11 9 26 100 0.056338
12 9 26 100 0.028169
13 9 26 100 0.0140845
15 9 26 100 0.0140845
16 9 26 100 0.0422528
18 9 26 100 4.95616e-07
20 9 26 100 7.85974e-07
0 10 26 100 0.0139564
2 10 26 100 1.853e-06
8 10 26 100 0.0281173
9 10 26 100 0.0563376
10 10 26 100 0.577617
11 10 26 100 0.140586
12 10 26 100 0.0704176
13 10 26 100 0.0422431
14 10 26 100 0.00030067
16 10 26 100 0.0140845
17 10 26 100 0.0563381
20 10 26 100 4.49954e-07
0 11 26 100 0.0141521
9 11 26 100 0.0140845
10 11 26 100 0.0704221
11 11 26 100 0.577406
12 11 26 100 0.11267
13 11 26 100 0.0845055
14 11 26 100 0.0422534
15 11 26 100 0.0140845
17 11 26 100 0.0140845
18 11 26 100 0.0563373
0 12 26 100 9.25071e-05
9 12 26 100 0.0281512
10 12 26 100 0.0140845
11 12 26 100 0.0563314
12 12 26 100 0.591505
13 12 26 100 0.0985862
14 12 26 100 0.0844974
15 12 26 100 0.0281668
16 12 26 100 0.0140845
18 12 26 100 0.0140789
19 12 26 100 0.0563373
25 12 26 100 0.0140845
0 13 26 100 0.0282728
10 13 26 100 0.028169
11 13 26 100 0.0140845
12 13 26 100 0.0422511
13 13 26 100 0.549203
14 13 26 100 0.0985847
15 13 26 100 0.0985906
16 13 26 100 0.028169
17 13 26 100 0.0140845
19 13 26 100 0.0281685
20 13 26 100 0.0563378
23 13 26 100 4.49141e-07
26 13 26 100 0.0140845
0 14 26 100 0.0286906
11 14 26 100 0.0285714
12 14 26 100 0.0285612
13 14 26 100 0.0571276
14 14 26 100 0.542008
15 14 26 100 0.10042
16 14 26 100 0.10034
17 14 26 100 0.0285666
18 14 26 100 0.0142849
20 14 26 100 0.0142857
21 14 26 100 0.0571429
24 14 26 100 1.28617e-06
0 15 26 100 0.0280048
3 15 26 100 4.59714e-07
10 15 26 100 4.38181e-07
12 15 26 100 0.0285698
13 15 26 100 0.0428458
14 15 26 100 0.0428539
15 15 26 100 0.514254
16 15 26 100 0.114279
17 15 26 100 0.0999885
18 15 26 100 0.0293242
19 15 26 100 0.0209862
20 15 26 100 0.00758525
21 15 26 100 0.0142857
22 15 26 100 0.0570215
0 16 26 100 0.0235922
10 16 26 100 4.83682e-06
13 16 26 100 0.0142857
14 16 26 100 0.0285705
15 16 26 100 0.0857156
16 16 26 100 0.499942
17 16 26 100 0.105019
18 16 26 100 0.1
19 16 26 100 0.0428572
20 16 26 100 0.0285714
21 16 26 100 0.0142986
22 16 26 100 0.0142858
23 16 26 100 0.0428568
0 17 26 100 0.0163605
4 17 26 100 0.0142857
10 17 26 100 1.92323e-07
14 17 26 100 0.0142857
15 17 26 100 0.0285697
16 17 26 100 0.0714215
17 17 26 100 0.47678
18 17 26 100 0.0849784
19 17 26 100 0.128563
20 17 26 100 0.028886
21 17 26 100 0.0286406
22 17 26 100 0.0215263
23 17 26 100 0.0285594
24 17 26 100 0.0428565
26 17 26 100 0.0142857
0 18 26 100 0.0129979
4 18 26 100 0.0144928
10 18 26 100 1.52835e-06
15 18 26 100 0.0144916
16 18 26 100 0.0289855
17 18 26 100 0.0595294
18 18 26 100 0.449112
19 18 26 100 0.101569
20 18 26 100 0.130423
21 18 26 100 0.0429212
22 18 26 100 0.0289855
23 18 26 100 2.07246e-05
24 18 26 100 0.0579692
25 18 26 100 0.044008
26 18 26 100 0.0144928
0 19 26 100 0.014988
4 19 26 100 3.41572e-07
5 19 26 100 0.0147059
16 19 26 100 0.0147059
17 19 26 100 0.044117
18 19 26 100 0.0734619
19 19 26 100 0.396851
20 19 26 100 0.102964
21 19 26 100 0.148346
22 19 26 100 0.0415071
23 19 26 100 0.0307054
25 19 26 100 0.0588235
26 19 26 100 0.0588236
0 20 26 100 0.0522118
6 20 26 100 0.0156026
9 20 26 100 4.20602e-07
17 20 26 100 0.015625
18 20 26 100 0.0624999
19 20 26 100 0.0781205
20 20 26 100 0.363429
21 20 26 100 0.121612
22 20 26 100 0.149268
23 20 26 100 0.0312516
24 20 26 100 0.0478797
26 20 26 100 0.0625001
0 21 26 100 0.0443994
4 21 26 100 0.0166666
15 21 26 100 3.87552e-07
18 21 26 100 0.0333941
19 21 26 100 0.0666628
20 21 26 100 0.0930275
21 21 26 100 0.355571
22 21 26 100 0.149992
23 21 26 100 0.133322
24 21 26 100 0.049992
25 21 26 100 0.0569716
0 22 26 100 0.00905585
19 22 26 100 0.0499993
20 22 26 100 0.0666653
21 22 26 100 0.0999965
22 22 26 100 0.300706
23 22 26 100 0.207087
24 22 26 100 0.149824
25 22 26 100 0.0333333
26 22 26 100 0.0833333
0 23 26 100 0.0364204
11 23 26 100 2.38272e-07
18 23 26 100 3.68532e-07
20 23 26 100 0.0545157
21 23 26 100 0.0545448
22 23 26 100 0.127271
23 23 26 100 0.272709
24 23 26 100 0.236356
25 23 26 100 0.181819
26 23 26 100 0.0363637
0 24 26 100 0.000205788
8 24 26 100 1.96026e-07
21 24 26 100 0.0377359
22 24 26 100 0.0943387
23 24 26 100 0.150748
24 24 26 100 0.283011
25 24 26 100 0.24528
26 24 26 100 0.188679
0 25 26 100 0.0232728
19 25 26 100 6.50919e-05
22 25 26 100 0.0465098
23 25 26 100 0.116181
24 25 26 100 0.162788
25 25 26 100 0.372114
26 25 26 100 0.27907
0 26 26 100 3.90329e-06
23 26 26 100 0.0645161
24 26 26 100 0.161287
25 26 26 100 0.225806
26 26 26 100 0.548387
0 27 26 100 5.74451e-06
24 27 26 100 0.142857
25 27 26 100 0.357137
26 27 26 100 0.5
25 28 26 100 0.285714
26 28 26 100 0.714286
26 29 26 100 1
1 1 27 100 0.9375
3 1 27 100 0.00627112
4 1 27 100 0.03125
9 1 27 100 0.00935387
18 1 27 100 0.015625
0 2 27 100 0.000472674
1 2 27 100 0.0153093
2 2 27 100 0.868761
3 2 27 100 0.0372274
4 2 27 100 0.015625
5 2 27 100 0.015625
7 2 27 100 0.015625
10 2 27 100 0.0156249
15 2 27 100 2.98976e-07
18 2 27 100 0.000104221
19 2 27 100 0.015625
0 3 27 100 0.0314324
1 3 27 100 0.015625
3 3 27 100 0.812388
4 3 27 100 0.0624298
5 3 27 100 0.015625
6 3 27 100 0.0156244
8 3 27 100 0.015625
11 3 27 100 0.015625
16 3 27 100 0.015625
0 4 27 100 0.0162326
1 4 27 100 0.0153979
2 4 27 100 0.015625
3 4 27 100 0.0156291
4 4 27 100 0.765172
5 4 27 100 0.0468748
6 4 27 100 0.0468747
7 4 27 100 0.015625
9 4 27 100 0.0156241
11 4 27 100 6.621e-06
12 4 27 100 0.0156221
16 4 27 100 0.0156246
17 4 27 100 0.015625
18 4 27 100 6.68927e-05
0 5 27 100 0.0460237
2 5 27 100 0.015625
3 5 27 100 0.015617
4 5 27 100 0.0316739
5 5 27 100 0.641523
6 5 27 100 0.0781211
7 5 27 100 0.0625028
8 5 27 100 0.0310976
10 5 27 100 0.0309675
12 5 27 100 3.21997e-06
13 5 27 100 0.031219
15 5 27 100 2.31381e-07
17 5 27 100 0.015625
18 5 27 100 6.1158e-07
0 6 27 100 0.0308926
2 6 27 100 2.98488e-07
3 6 27 100 0.015631
4 6 27 100 0.0156249
5 6 27 100 0.06248
6 6 27 100 0.641022
7 6 27 100 0.015625
8 6 27 100 0.0624947
9 6 27 100 0.078104
11 6 27 100 0.0156254
12 6 27 100 0.015625
14 6 27 100 0.0312504
16 6 27 100 3.44358e-07
18 6 27 100 0.0156241
20 6 27 100 3.2806e-07
22 6 27 100 3.16545e-07
0 7 27 100 0.000278467
3 7 27 100 0.000220567
4 7 27 100 0.015625
5 7 27 100 0.046875
6 7 27 100 0.03125
7 7 27 100 0.624931
8 7 27 100 0.0312745
9 7 27 100 0.0625
10 7 27 100 0.109369
11 7 27 100 0.0151779
12 7 27 100 0.015625
13 7 27 100 0.015625
15 7 27 100 0.0156233
19 7 27 100 0.015625
22 7 27 100 6.62914e-07
0 8 27 100 0.0304848
2 8 27 100 1.88851e-05
5 8 27 100 0.0156244
6 8 27 100 0.0468723
7 8 27 100 0.0624544
8 8 27 100 0.59381
9 8 27 100 0.0156179
10 8 27 100 0.0781192
11 8 27 100 0.0938949
12 8 27 100 2.92823e-05
13 8 27 100 0.0156276
14 8 27 100 0.0156238
15 8 27 100 3.90013e-07
16 8 27 100 0.0156221
18 8 27 100 1.31829e-05
19 8 27 100 0.000499508
20 8 27 100 0.0156199
25 8 27 100 6.77877e-05
0 9 27 100 7.54011e-05
3 9 27 100 0.0154384
6 9 27 100 0.0156224
7 9 27 100 0.0468681
8 9 27 100 0.0781249
9 9 27 100 0.539422
10 9 27 100 0.015625
11 9 27 100 0.0936852
12 9 27 100 0.109367
14 9 27 100 0.0158709
15 9 27 100 0.0156329
17 9 27 100 0.0230225
21 9 27 100 0.0156209
23 9 27 100 0.0156247
0 10 27 100 0.00354591
6 10 27 100 0.015625
7 10 27 100 0.015625
8 10 27 100 0.0468686
9 10 27 100 0.0624965
10 10 27 100 0.527725
11 10 27 100 0.0311746
12 10 27 100 0.0659116
13 10 27 100 0.124991
14 10 27 100 1.30856e-06
15 10 27 100 0.03125
16 10 27 100 0.0122976
18 10 27 100 0.0312385
22 10 27 100 0.015625
24 10 27 100 0.0156249
0 11 27 100 0.0159479
2 11 27 100 1.99008e-07
3 11 27 100 3.1892e-06
8 11 27 100 0.0308107
9 11 27 100 0.0780661
10 11 27 100 0.031306
11 11 27 100 0.472316
12 11 27 100 0.0650147
13 11 27 100 0.0624951
14 11 27 100 0.124995
16 11 27 100 0.0562527
17 11 27 100 0.015625
18 11 27 100 7.56668e-06
19 11 27 100 0.0159117
20 11 27 100 3.43009e-07
23 11 27 100 0.0312476
0 12 27 100 0.01572
9 12 27 100 0.0156248
10 12 27 100 0.0624925
11 12 27 100 0.0468734
12 12 27 100 0.42185
13 12 27 100 0.0665757
14 12 27 100 0.0781145
15 12 27 100 0.131589
17 12 27 100 0.0789531
18 12 27 100 0.0156249
19 12 27 100 0.004082
20 12 27 100 0.03125
24 12 27 100 0.03125
0 13 27 100 0.000113004
7 13 27 100 0.0156003
10 13 27 100 0.03125
11 13 27 100 0.0624975
12 13 27 100 0.03125
13 13 27 100 0.452516
14 13 27 100 0.0630384
15 13 27 100 0.0781166
16 13 27 100 0.124993
17 13 27 100 1.30856e-06
18 13 27 100 0.0468749
19 13 27 100 0.0156241
20 13 27 100 0.015625
21 13 27 100 0.03125
25 13 27 100 0.0312497
0 14 27 100 7.96977e-05
8 14 27 100 0.015625
9 14 27 100 0.015618
11 14 27 100 0.015625
12 14 27 100 0.0624979
13 14 27 100 0.031242
14 14 27 100 0.406324
15 14 27 100 0.078036
16 14 27 100 0.0937483
17 14 27 100 0.124993
18 14 27 100 0.0155902
19 14 27 100 0.0468745
20 14 27 100 0.015625
21 14 27 100 0.0156236
22 14 27 100 0.0312479
26 14 27 100 0.03125
0 15 27 100 0.0156643
5 15 27 100 0.015625
10 15 27 100 0.03125
12 15 27 100 0.0156246
13 15 27 100 0.0624994
14 15 27 100 0.0312485
15 15 27 100 0.406218
16 15 27 100 0.062525
17 15 27 100 0.078125
18 15 27 100 0.124975
19 15 27 100 0.0156249
20 15 27 100 0.0624978
21 15 27 100 0.015625
22 15 27 100 0.0156227
23 15 27 100 0.03125
27 15 27 100 0.015625
0 16 27 100 0.018835
6 16 27 100 0.015851
11 16 27 100 0.031736
13 16 27 100 0.0158723
14 16 27 100 0.0634896
15 16 27 100 0.0158835
16 16 27 100 0.425556
17 16 27 100 0.0634907
18 16 27 100 0.0794524
19 16 27 100 0.126977
20 16 27 100 0.015873
21 16 27 100 0.0634921
22 16 27 100 0.0158721
23 16 27 100 0.015873
24 16 27 100 0.031746
0 17 27 100 0.00922526
12 17 27 100 0.031767
14 17 27 100 0.015873
15 17 27 100 0.0792898
16 17 27 100 0.0158747
17 17 27 100 0.420384
18 17 27 100 0.0545949
19 17 27 100 0.0793641
20 17 27 100 0.119189
21 17 27 100 0.039519
22 17 27 100 0.0714275
23 17 27 100 0.015873
24 17 27 100 0.0158725
25 17 27 100 0.0317464
0 18 27 100 0.0159616
13 18 27 100 0.0317461
15 18 27 100 0.0158721
16 18 27 100 0.0634879
17 18 27 100 0.0793603
18 18 27 100 0.317424
19 18 27 100 0.063492
20 18 27 100 0.0793585
21 18 27 100 0.0952294
22 18 27 100 0.0476168
23 18 27 100 0.079362
24 18 27 100 0.0317409
25 18 27 100 0.0317297
26 18 27 100 0.0317461
27 18 27 100 0.015873
0 19 27 100 0.00865587
9 19 27 100 2.32388e-07
14 19 27 100 0.0322602
15 19 27 100 1.97897e-05
17 19 27 100 0.0806417
18 19 27 100 0.0560122
19 19 27 100 0.306431
20 19 27 100 0.0718984
21 19 27 100 0.0806416
22 19 27 100 0.112885
23 19 27 100 0.0731401
24 19 27 100 0.0806397
25 19 27 100 0.0322579
26 19 27 100 0.0322581
27 19 27 100 0.0322581
0 20 27 100 0.0260487
15 20 27 100 0.0166667
18 20 27 100 0.090636
19 20 27 100 0.0833333
20 20 27 100 0.283327
21 20 27 100 0.0666652
22 20 27 100 0.0833332
23 20 27 100 0.116657
24 20 27 100 0.0666667
25 20 27 100 0.0833324
26 20 27 100 0.0333333
27 20 27 100 0.05
0 21 27 100 0.0352994
2 21 27 100 0.0175439
13 21 27 100 3.80622e-07
16 21 27 100 0.0175439
18 21 27 100 0.01754
19 21 27 100 0.122806
20 21 27 100 0.105086
21 21 27 100 0.228053
22 21 27 100 0.0876055
23 21 27 100 0.0877137
24 21 27 100 0.122916
25 21 27 100 0.0526294
26 21 27 100 0.0701755
27 21 27 100 0.0350877
0 22 27 100 0.0338088
17 22 27 100 0.0181816
19 22 27 100 0.0181807
20 22 27 100 0.127268
21 22 27 100 0.148041
22 22 27 100 0.199995
23 22 27 100 0.0909076
24 22 27 100 0.0909025
25 22 27 100 0.145442
26 22 27 100 0.0545455
27 22 27 100 0.0727273
0 23 27 100 0.0392889
2 23 27 100 0.0196079
6 23 27 100 4.74945e-07
13 23 27 100 4.35568e-07
18 23 27 100 0.0196079
19 23 27 100 6.22597e-07
20 23 27 100 0.0196079
21 23 27 100 0.176468
22 23 27 100 0.117624
23 23 27 100 0.215673
24 23 27 100 0.0784218
25 23 27 100 0.098012
26 23 27 100 0.176471
27 23 27 100 0.0392157
0 24 27 100 0.0705652
7 24 27 100 8.67935e-07
8 24 27 100 3.94348e-07
11 24 27 100 4.0011e-07
13 24 27 100 6.36585e-07
19 24 27 100 0.0204079
21 24 27 100 0.0204036
22 24 27 100 0.163259
23 24 27 100 0.102036
24 24 27 100 0.22496
25 24 27 100 0.11265
26 24 27 100 0.102042
27 24 27 100 0.183674
0 25 27 100 0.0226592
20 25 27 100 0.025
22 25 27 100 0.025006
23 25 27 100 0.174992
24 25 27 100 0.124979
25 25 27 100 0.278135
26 25 27 100 0.174229
27 25 27 100 0.175
0 26 27 100 0.0568812
2 26 27 100 6.37742e-07
17 26 27 100 1.07372e-06
21 26 27 100 0.030303
24 26 27 100 0.215852
25 26 27 100 0.151508
26 26 27 100 0.333333
27 26 27 100 0.212121
0 27 27 100 2.33406e-06
22 27 27 100 0.0384611
25 27 27 100 0.30769
26 27 27 100 0.230769
27 27 27 100 0.423077
0 28 27 100 0.0666733
23 28 27 100 0.0666667
26 28 27 100 0.46666
27 28 27 100 0.4
24 29 27 100 0.111111
26 29 27 100 0.111111
27 29 27 100 0.777778
25 30 27 100 0.5
27 30 27 100 0.5
26 31 27 100 1
27 32 27 100 1
1 1 28 100 0.962264
2 1 28 100 0.0377359
0 2 28 100 0.0189367
1 2 28 100 0.037732
2 2 28 100 0.830124
3 2 28 100 0.0753278
4 2 28 100 0.0188656
5 2 28 100 0.0190139
0 3 28 100 0.0276593
1 3 28 100 0.0188667
2 3 28 100 0.0188517
3 3 28 100 0.835643
4 3 28 100 0.0566105
5 3 28 100 0.0209011
6 3 28 100 0.0214672
15 3 28 100 5.02807e-07
0 4 28 100 0.0376955
2 4 28 100 0.0188679
3 4 28 100 0.0188679
4 4 28 100 0.795693
5 4 28 100 0.0188677
6 4 28 100 0.056605
7 4 28 100 0.034409
8 4 28 100 0.00125149
9 4 28 100 0.0177416
13 4 28 100 5.25002e-07
24 4 28 100 4.88429e-07
25 4 28 100 2.44033e-07
0 5 28 100 4.72746e-05
1 5 28 100 1.57207e-06
4 5 28 100 0.0188682
5 5 28 100 0.79261
6 5 28 100 0.0375763
7 5 28 100 0.0377445
8 5 28 100 0.0565931
9 5 28 100 0.0188233
11 5 28 100 0.0188679
26 5 28 100 0.0188678
0 6 28 100 0.000677742
2 6 28 100 2.46935e-05
4 6 28 100 3.67202e-07
5 6 28 100 0.0350676
6 6 28 100 0.724968
7 6 28 100 0.105908
8 6 28 100 0.0562932
9 6 28 100 0.0377413
10 6 28 100 0.0188679
11 6 28 100 0.00151285
12 6 28 100 0.0188679
18 6 28 100 6.67127e-07
24 6 28 100 2.5549e-07
25 6 28 100 6.97115e-05
0 7 28 100 0.0378226
6 7 28 100 0.0188609
7 7 28 100 0.698157
8 7 28 100 0.094338
9 7 28 100 0.0377372
10 7 28 100 0.0735981
11 7 28 100 0.00175811
13 7 28 100 0.0377282
0 8 28 100 0.0149951
7 8 28 100 0.0188679
8 8 28 100 0.682967
9 8 28 100 0.113444
10 8 28 100 0.0377359
11 8 28 100 0.0754717
12 8 28 100 0.0188679
14 8 28 100 0.0188679
25 8 28 100 0.0187826
0 9 28 100 4.87292e-05
8 9 28 100 0.0188658
9 9 28 100 0.643095
10 9 28 100 0.168188
11 9 28 100 0.0377339
12 9 28 100 0.0566038
13 9 28 100 0.0188679
15 9 28 100 0.0188619
16 9 28 100 0.0188679
26 9 28 100 0.0188679
0 10 28 100 0.000570473
6 10 28 100 0.0188613
10 10 28 100 0.608386
11 10 28 100 0.188598
12 10 28 100 0.0566038
13 10 28 100 0.0566026
14 10 28 100 0.0137743
16 10 28 100 0.0188679
17 10 28 100 0.0188679
27 10 28 100 0.0188679
0 11 28 100 0.0190937
2 11 28 100 1.2342e-06
5 11 28 100 1.25147e-06
7 11 28 100 0.0188679
11 11 28 100 0.56599
12 11 28 100 0.188769
13 11 28 100 0.0377351
14 11 28 100 0.0754683
17 11 28 100 0.0188849
18 11 28 100 0.0189755
19 11 28 100 0.0209943
20 11 28 100 0.00419843
21 11 28 100 5.08535e-06
24 11 28 100 0.0163455
27 11 28 100 0.0146694
0 12 28 100 0.000137153
8 12 28 100 0.0188677
10 12 28 100 0.0188677
12 12 28 100 0.579429
13 12 28 100 0.187013
14 12 28 100 0.0377361
15 12 28 100 0.0565971
16 12 28 100 0.00920776
17 12 28 100 0.00966017
18 12 28 100 0.0258802
19 12 28 100 0.0188679
20 12 28 100 0.0188679
28 12 28 100 0.0188679
0 13 28 100 0.019327
8 13 28 100 2.94282e-07
9 13 28 100 0.0192306
11 13 28 100 0.0192293
12 13 28 100 0.0192308
13 13 28 100 0.499938
14 13 28 100 0.173081
15 13 28 100 0.0769166
16 13 28 100 0.0769141
18 13 28 100 0.0192265
19 13 28 100 0.0384479
20 13 28 100 0.0192306
21 13 28 100 0.0192272
0 14 28 100 0.00943528
9 14 28 100 2.11607e-07
10 14 28 100 0.0192308
12 14 28 100 0.0193367
13 14 28 100 0.0289649
14 14 28 100 0.476846
15 14 28 100 0.161647
16 14 28 100 0.0922401
17 14 28 100 0.0769159
18 14 28 100 0.0192308
19 14 28 100 0.0192307
20 14 28 100 0.0384601
21 14 28 100 0.0192308
22 14 28 100 0.0192308
0 15 28 100 0.0105277
13 15 28 100 0.0280276
14 15 28 100 0.0576818
15 15 28 100 0.42306
16 15 28 100 0.192258
17 15 28 100 0.0961463
18 15 28 100 0.0769156
19 15 28 100 0.0192308
20 15 28 100 0.0192308
21 15 28 100 0.0384616
22 15 28 100 0.0192294
23 15 28 100 0.0192308
0 16 28 100 0.00231301
10 16 28 100 1.02016e-05
14 16 28 100 0.0384593
15 16 28 100 0.0481074
16 16 28 100 0.440036
17 16 28 100 0.153729
18 16 28 100 0.124973
19 16 28 100 0.0769162
20 16 28 100 0.0193061
21 16 28 100 0.0192308
22 16 28 100 0.0384571
23 16 28 100 0.0192308
24 16 28 100 0.0192307
0 17 28 100 0.0188298
6 17 28 100 7.13619e-06
9 17 28 100 5.35924e-07
15 17 28 100 0.0384616
16 17 28 100 0.0384518
17 17 28 100 0.385561
18 17 28 100 0.159387
19 17 28 100 0.133519
20 17 28 100 0.0966216
21 17 28 100 0.0192278
22 17 28 100 0.0192265
23 17 28 100 0.0384574
24 17 28 100 0.0192308
25 17 28 100 0.0192308
27 17 28 100 0.0137865
0 18 28 100 0.0191537
16 18 28 100 0.0384592
17 18 28 100 0.0576835
18 18 28 100 0.384569
19 18 28 100 0.153974
20 18 28 100 0.115382
21 18 28 100 0.0961452
22 18 28 100 0.0192308
23 18 28 100 0.0192308
24 18 28 100 0.0384794
25 18 28 100 0.0192308
26 18 28 100 0.0192308
28 18 28 100 0.0192308
0 19 28 100 0.0197112
17 19 28 100 0.0196238
18 19 28 100 0.0698883
19 19 28 100 0.377252
20 19 28 100 0.160614
21 19 28 100 0.117641
22 19 28 100 0.117629
23 19 28 100 0.0196078
24 19 28 100 0.0196074
25 19 28 100 0.0392104
26 19 28 100 0.0196071
27 19 28 100 0.0196081
0 20 28 100 0.0196804
18 20 28 100 0.0261464
19 20 28 100 0.0588181
20 20 28 100 0.313694
21 20 28 100 0.156853
22 20 28 100 0.156858
23 20 28 100 0.117624
24 20 28 100 0.0196078
25 20 28 100 0.0196221
26 20 28 100 0.0392156
27 20 28 100 0.0522726
28 20 28 100 0.0196078
0 21 28 100 0.020069
12 21 28 100 4.98139e-07
18 21 28 100 0.0200006
19 21 28 100 0.0199989
20 21 28 100 0.0999897
21 21 28 100 0.279947
22 21 28 100 0.16
23 21 28 100 0.159994
24 21 28 100 0.1
25 21 28 100 0.0200006
26 21 28 100 0.04
27 21 28 100 0.06
28 21 28 100 0.02
0 22 28 100 5.76308e-05
19 22 28 100 0.0204079
20 22 28 100 0.061156
21 22 28 100 0.102086
22 22 28 100 0.306102
23 22 28 100 0.142849
24 22 28 100 0.142856
25 22 28 100 0.0816299
26 22 28 100 0.0204082
27 22 28 100 0.0612244
28 22 28 100 0.0612245
0 23 28 100 4.24368e-05
17 23 28 100 7.94306e-06
20 23 28 100 0.0434781
21 23 28 100 0.0217391
22 23 28 100 0.130434
23 23 28 100 0.282586
24 23 28 100 0.152165
25 23 28 100 0.152166
26 23 28 100 0.0869547
27 23 28 100 0.0434703
28 23 28 100 0.0869566
0 24 28 100 0.000146807
21 24 28 100 0.0238095
22 24 28 100 0.0238082
23 24 28 100 0.166547
24 24 28 100 0.2857
25 24 28 100 0.190464
26 24 28 100 0.142857
27 24 28 100 0.0952381
28 24 28 100 0.0714286
0 25 28 100 0.0255168
3 25 28 100 0.000147422
22 25 28 100 0.025641
23 25 28 100 0.025641
24 25 28 100 0.179475
25 25 28 100 0.298955
26 25 28 100 0.17947
27 25 28 100 0.162591
28 25 28 100 0.102564
0 26 28 100 5.83634e-05
23 26 28 100 0.0285714
24 26 28 100 0.0285714
25 26 28 100 0.199989
26 26 28 100 0.314258
27 26 28 100 0.228551
28 26 28 100 0.2
0 27 28 100 3.23004e-06
24 27 28 100 0.0357143
25 27 28 100 0.0357143
26 27 28 100 0.249997
27 27 28 100 0.428571
28 27 28 100 0.25
25 28 28 100 0.0476191
26 28 28 100 0.0476191
27 28 28 100 0.333333
28 28 28 100 0.571429
26 29 28 100 0.111111
27 29 28 100 0.111111
28 29 28 100 0.777778
28 30 28 100 1
1 1 29 100 0.967015
2 1 29 100 0.0161105
3 1 29 100 0.0148041
4 1 29 100 1.62234e-07
5 1 29 100 6.6706e-05
6 1 29 100 3.41194e-07
7 1 29 100 0.00051894
8 1 29 100 2.11653e-07
9 1 29 100 5.80355e-07
10 1 29 100 1.53859e-07
11 1 29 100 0.00148341
0 2 29 100 0.012093
1 2 29 100 0.0153416
2 2 29 100 0.843474
3 2 29 100 0.0461401
4 2 29 100 0.0153846
7 2 29 100 0.0012381
9 2 29 100 0.00768406
10 2 29 100 0.0304489
11 2 29 100 0.0128116
22 2 29 100 0.0153843
25 2 29 100 1.58686e-07
0 3 29 100 0.000293491
1 3 29 100 0.0153479
2 3 29 100 0.0153959
3 3 29 100 0.827303
4 3 29 100 0.0615349
5 3 29 100 0.0186024
6 3 29 100 1.13468e-06
9 3 29 100 2.13613e-06
10 3 29 100 0.01538
11 3 29 100 0.0153846
12 3 29 100 0.015381
20 3 29 100 4.37814e-07
23 3 29 100 0.0153731
0 4 29 100 0.0294553
1 4 29 100 0.00083512
3 4 29 100 0.0153846
4 4 29 100 0.77097
5 4 29 100 0.0757945
6 4 29 100 0.0307664
11 4 29 100 0.0153845
12 4 29 100 0.0153846
13 4 29 100 0.0306393
19 4 29 100 3.58714e-07
25 4 29 100 0.0153846
27 4 29 100 3.25771e-07
28 4 29 100 2.20671e-07
0 5 29 100 0.0154476
2 5 29 100 3.33202e-07
3 5 29 100 0.0152857
4 5 29 100 0.0153814
5 5 29 100 0.738403
6 5 29 100 0.0769474
7 5 29 100 0.0307683
8 5 29 100 0.0153555
9 5 29 100 0.0307689
10 5 29 100 2.76956e-07
11 5 29 100 3.62636e-06
12 5 29 100 0.0153844
13 5 29 100 0.0153848
14 5 29 100 0.0307698
21 5 29 100 9.82448e-05
26 5 29 100 2.16103e-07
0 6 29 100 0.000418535
1 6 29 100 0.0153841
4 6 29 100 0.0153843
5 6 29 100 0.0307692
6 6 29 100 0.692252
7 6 29 100 0.0615683
8 6 29 100 0.061538
9 6 29 100 0.0153846
10 6 29 100 0.0307691
13 6 29 100 0.0153832
14 6 29 100 0.0153845
15 6 29 100 0.0307692
16 6 29 100 0.0149947
0 7 29 100 0.00405964
2 7 29 100 0.0153846
5 7 29 100 0.0153846
6 7 29 100 0.030767
7 7 29 100 0.67555
8 7 29 100 0.0769285
9 7 29 100 0.0321145
10 7 29 100 0.0267684
11 7 29 100 0.0461539
13 7 29 100 1.14627e-06
14 7 29 100 0.0153846
15 7 29 100 0.0153843
16 7 29 100 0.0306245
17 7 29 100 0.0154946
0 8 29 100 0.0326318
3 8 29 100 0.0153846
5 8 29 100 0.015362
6 8 29 100 0.000203822
7 8 29 100 0.0307692
8 8 29 100 0.624372
9 8 29 100 0.0925807
10 8 29 100 0.0522501
11 8 29 100 0.0153846
12 8 29 100 0.0441366
15 8 29 100 0.0153846
16 8 29 100 0.0153845
17 8 29 100 0.0153846
18 8 29 100 0.0307693
21 8 29 100 1.05948e-06
0 9 29 100 0.000361184
4 9 29 100 0.0153846
6 9 29 100 0.0153846
7 9 29 100 0.0307689
8 9 29 100 0.0458837
9 9 29 100 0.553815
10 9 29 100 0.0922516
11 9 29 100 0.0749517
13 9 29 100 0.0642276
14 9 29 100 0.0153849
15 9 29 100 0.0146656
16 9 29 100 0.0153827
17 9 29 100 0.00765658
18 9 29 100 0.0153838
19 9 29 100 0.0307687
22 9 29 100 0.000686354
27 9 29 100 0.00704196
0 10 29 100 0.0748929
4 10 29 100 2.26433e-07
5 10 29 100 0.0154831
8 10 29 100 0.0153846
9 10 29 100 0.0615385
10 10 29 100 0.524998
11 10 29 100 0.0870228
12 10 29 100 0.0615388
13 10 29 100 0.00432277
14 10 29 100 0.0625158
16 10 29 100 0.0153837
17 10 29 100 0.0307692
19 10 29 100 0.015381
20 10 29 100 0.0153837
22 10 29 100 3.34178e-05
23 10 29 100 4.86856e-07
29 10 29 100 0.0153512
0 11 29 100 0.000167957
2 11 29 100 1.92615e-06
3 11 29 100 2.62178e-06
6 11 29 100 0.03125
9 11 29 100 0.015625
10 11 29 100 0.0781186
11 11 29 100 0.56245
12 11 29 100 0.096503
13 11 29 100 0.0624943
14 11 29 100 0.0186077
15 11 29 100 0.0468729
16 11 29 100 0.009782
18 11 29 100 0.0312489
20 11 29 100 0.03125
21 11 29 100 0.0156249
0 12 29 100 0.00011234
2 12 29 100 0.0155882
6 12 29 100 9.24897e-07
7 12 29 100 0.0312487
9 12 29 100 3.40144e-06
10 12 29 100 0.0156214
11 12 29 100 0.0781182
