1 1 4 100 1
1 2 4 100 1
0 3 4 100 1
1 4 4 100 1
2 5 4 100 1
3 6 4 100 1
3 7 4 100 1
0 8 4 100 2.15333e-05
1 8 4 100 0.999978
0 9 4 100 0.999987
3 9 4 100 1.26992e-05
3 10 4 100 1
4 11 4 100 1
1 1 6 100 1
2 2 6 100 1
4 3 6 100 1
5 4 6 100 1
6 5 6 100 1
1 1 7 100 1
2 2 7 100 1
3 3 7 100 1
4 4 7 100 0.541924
5 4 7 100 0.333333
6 4 7 100 0.124743
5 5 7 100 0.333333
6 5 7 100 0.333333
7 5 7 100 0.333333
0 6 7 100 0.499985
4 6 7 100 1.46091e-05
7 6 7 100 0.5
6 7 7 100 1
7 8 7 100 1
1 1 8 100 1
2 2 8 100 1
3 3 8 100 1
4 4 8 100 1
5 5 8 100 1
6 6 8 100 1
0 7 8 100 0.433363
7 7 8 100 0.566637
7 8 8 100 1
8 9 8 100 1
1 1 9 100 1
2 2 9 100 0.875
6 2 9 100 0.125
0 3 9 100 2.65254e-06
3 3 9 100 0.543624
4 3 9 100 0.206374
7 3 9 100 0.249999
0 4 9 100 1.79435e-05
4 4 9 100 0.5
5 4 9 100 0.249982
8 4 9 100 0.25
0 5 9 100 3.33119e-05
5 5 9 100 0.499967
6 5 9 100 0.25
9 5 9 100 0.25
0 6 9 100 1.90599e-05
6 6 9 100 0.666648
7 6 9 100 0.333333
7 7 9 100 0.666667
8 7 9 100 0.333333
8 8 9 100 0.666667
9 8 9 100 0.333333
9 9 9 100 1
1 1 10 100 1
2 2 10 100 0.857143
3 2 10 100 0.142857
0 3 10 100 1.36513e-05
3 3 10 100 0.428557
4 3 10 100 0.142802
5 3 10 100 0.28577
6 3 10 100 0.142857
0 4 10 100 0.00282252
3 4 10 100 0.000358318
4 4 10 100 0.285706
5 4 10 100 0.291644
6 4 10 100 0.273898
7 4 10 100 0.142857
8 4 10 100 0.00271351
0 5 10 100 2.70612e-06
5 5 10 100 0.285712
6 5 10 100 0.285714
7 5 10 100 0.142857
8 5 10 100 0.142857
9 5 10 100 0.142857
6 6 10 100 0.285715
7 6 10 100 0.285714
8 6 10 100 0.142857
9 6 10 100 0.142857
10 6 10 100 0.142857
7 7 10 100 0.333334
8 7 10 100 0.333333
9 7 10 100 0.166667
10 7 10 100 0.166667
8 8 10 100 0.399999
9 8 10 100 0.400001
10 8 10 100 0.2
9 9 10 100 0.5
10 9 10 100 0.5
10 10 10 100 1
1 1 11 100 1
0 2 11 100 0.142857
2 2 11 100 0.857143
0 3 11 100 0.142857
3 3 11 100 0.857143
0 4 11 100 0.142804
1 4 11 100 0.142857
3 4 11 100 5.53502e-05
4 4 11 100 0.714284
0 5 11 100 0.142856
2 5 11 100 0.142848
5 5 11 100 0.571429
7 5 11 100 0.142857
9 5 11 100 9.93945e-06
0 6 11 100 3.03852e-06
3 6 11 100 0.285714
6 6 11 100 0.571426
8 6 11 100 0.142857
0 7 11 100 0.142871
4 7 11 100 0.142857
7 7 11 100 0.571415
9 7 11 100 0.142857
0 8 11 100 0.142856
5 8 11 100 0.142857
8 8 11 100 0.571419
9 8 11 100 1.01527e-05
10 8 11 100 0.142857
0 9 11 100 0.00130088
4 9 11 100 0.142857
6 9 11 100 0.142857
9 9 11 100 0.570128
11 9 11 100 0.142857
0 10 11 100 0.166659
5 10 11 100 0.166667
7 10 11 100 0.166667
10 10 11 100 0.500008
0 11 11 100 0.166667
6 11 11 100 0.166667
8 11 11 100 0.166667
11 11 11 100 0.5
7 12 11 100 0.333333
9 12 11 100 0.666667
8 13 11 100 0.333333
10 13 11 100 0.666667
0 14 11 100 4.839e-05
9 14 11 100 0.333285
11 14 11 100 0.666667
10 15 11 100 1
11 16 11 100 1
1 1 12 100 1
0 2 12 100 6.72e-06
2 2 12 100 0.999993
0 3 12 100 2.93687e-06
3 3 12 100 0.999997
4 4 12 100 1
5 5 12 100 1
0 6 12 100 0.000276803
6 6 12 100 0.856875
7 6 12 100 0.142848
0 7 12 100 0.000614529
5 7 12 100 0.00132679
6 7 12 100 0.140916
7 7 12 100 0.714286
8 7 12 100 0.142857
0 8 12 100 2.47872e-05
6 8 12 100 0.142857
8 8 12 100 0.714267
9 8 12 100 0.142851
7 9 12 100 0.142857
9 9 12 100 0.576075
10 9 12 100 0.281068
8 10 12 100 0.142857
9 10 12 100 7.6974e-05
10 10 12 100 0.571351
11 10 12 100 0.285714
9 11 12 100 0.142857
11 11 12 100 0.571429
12 11 12 100 0.285714
0 12 12 100 0.199988
8 12 12 100 1.64693e-05
10 12 12 100 0.199996
11 12 12 100 0.2
12 12 12 100 0.4
11 13 12 100 1
11 14 12 100 0.333333
12 14 12 100 0.666667
12 15 12 100 1
1 1 13 100 1
2 2 13 100 0.979739
3 2 13 100 0.000110156
4 2 13 100 0.0200409
6 2 13 100 0.000110156
0 3 13 100 8.00459e-06
3 3 13 100 0.713607
4 3 13 100 0.0911992
6 3 13 100 0.118267
7 3 13 100 0.0769187
0 4 13 100 9.45269e-06
4 4 13 100 0.615376
5 4 13 100 0.0769231
7 4 13 100 0.230768
8 4 13 100 0.0769231
0 5 13 100 8.28579e-06
5 5 13 100 0.615376
6 5 13 100 0.0769231
8 5 13 100 0.230769
9 5 13 100 0.0769231
6 6 13 100 0.615385
7 6 13 100 0.0769232
9 6 13 100 0.230769
10 6 13 100 0.0769228
0 7 13 100 1.88583e-05
7 7 13 100 0.538455
8 7 13 100 0.0769231
10 7 13 100 0.307684
11 7 13 100 0.0769187
0 8 13 100 2.22519e-05
8 8 13 100 0.538444
9 8 13 100 0.0769231
11 8 13 100 0.307688
12 8 13 100 0.0769231
0 9 13 100 7.97816e-06
9 9 13 100 0.461538
10 9 13 100 0.153838
12 9 13 100 0.307692
13 9 13 100 0.0769231
0 10 13 100 0.000132893
10 10 13 100 0.416538
11 10 13 100 0.249996
13 10 13 100 0.333334
0 11 13 100 0.0955659
8 11 13 100 1.01193e-05
11 11 13 100 0.529424
12 11 13 100 0.375
11 12 13 100 0.125
12 12 13 100 0.5
13 12 13 100 0.375
12 13 13 100 0.2
13 13 13 100 0.8
13 14 13 100 1
1 1 14 100 1
0 2 14 100 1.31236e-05
2 2 14 100 0.958349
5 2 14 100 0.0416383
0 3 14 100 1.61282e-05
3 3 14 100 0.879854
4 3 14 100 0.0367963
5 3 14 100 5.03982e-05
6 3 14 100 0.083283
0 4 14 100 2.27267e-06
4 4 14 100 0.833333
5 4 14 100 0.0833311
7 4 14 100 0.0833331
0 5 14 100 1.0313e-05
4 5 14 100 0.082302
5 5 14 100 0.749993
6 5 14 100 0.0843611
8 5 14 100 0.0833333
0 6 14 100 1.51238e-05
4 6 14 100 0.0833333
6 6 14 100 0.74999
7 6 14 100 0.0833283
9 6 14 100 0.0833333
0 7 14 100 0.000139782
5 7 14 100 0.0831987
7 7 14 100 0.666661
8 7 14 100 0.166667
10 7 14 100 0.0833334
0 8 14 100 1.88261e-06
6 8 14 100 0.0833334
8 8 14 100 0.657598
9 8 14 100 0.166666
10 8 14 100 0.00906903
11 8 14 100 0.0833315
0 9 14 100 3.46007e-05
7 9 14 100 0.0833035
9 9 14 100 0.58011
10 9 14 100 0.217633
12 9 14 100 0.118919
0 10 14 100 0.000548569
8 10 14 100 0.0833304
10 10 14 100 0.499454
11 10 14 100 0.25
13 10 14 100 0.166667
0 11 14 100 0.00113612
9 11 14 100 0.0833334
11 11 14 100 0.498863
12 11 14 100 0.25
14 11 14 100 0.166667
0 12 14 100 0.00036205
2 12 14 100 0.0224862
6 12 14 100 0.0475787
9 12 14 100 0.0293595
10 12 14 100 0.00021352
11 12 14 100 0.1
12 12 14 100 0.4
13 12 14 100 0.3
14 12 14 100 0.1
0 13 14 100 0.111126
10 13 14 100 0.111102
12 13 14 100 0.111105
13 13 14 100 0.444445
14 13 14 100 0.222222
11 14 14 100 0.142857
13 14 14 100 0.142857
14 14 14 100 0.714286
12 15 14 100 0.5
14 15 14 100 0.5
13 16 14 100 1
14 17 14 100 1
1 1 15 100 0.923077
7 1 15 100 0.0769231
0 2 15 100 0.0683058
1 2 15 100 1.03848e-06
2 2 15 100 0.769231
4 2 15 100 0.0275903
5 2 15 100 0.0271656
8 2 15 100 0.0990903
10 2 15 100 0.00861628
0 3 15 100 0.0342045
3 3 15 100 0.769213
7 3 15 100 0.076923
9 3 15 100 0.0769231
11 3 15 100 0.0427364
0 4 15 100 8.69825e-06
4 4 15 100 0.769222
8 4 15 100 0.0769231
10 4 15 100 0.0769231
12 4 15 100 0.0769227
0 5 15 100 1.54053e-05
2 5 15 100 0.0769231
5 5 15 100 0.735606
7 5 15 100 0.110533
11 5 15 100 0.0769231
0 6 15 100 9.62121e-06
3 6 15 100 0.0769231
6 6 15 100 0.692298
8 6 15 100 0.153846
12 6 15 100 0.0769231
0 7 15 100 1.32286e-05
4 7 15 100 0.0769231
7 7 15 100 0.769217
9 7 15 100 0.0769231
13 7 15 100 0.0769231
0 8 15 100 6.61023e-06
4 8 15 100 0.0769231
8 8 15 100 0.769224
10 8 15 100 0.0769231
14 8 15 100 0.0769231
0 9 15 100 3.2881e-05
1 9 15 100 0.0769038
5 9 15 100 0.0769203
9 9 15 100 0.538452
11 9 15 100 0.153846
12 9 15 100 5.17826e-06
13 9 15 100 0.076917
15 9 15 100 0.0769231
0 10 15 100 6.11898e-06
2 10 15 100 0.0833334
6 10 15 100 0.0833334
10 10 15 100 0.583331
12 10 15 100 0.083329
14 10 15 100 0.0833334
15 10 15 100 0.0833334
3 11 15 100 0.0909091
7 11 15 100 0.090907
11 11 15 100 0.636364
13 11 15 100 0.0909111
15 11 15 100 0.0909091
0 12 15 100 1.68264e-05
4 12 15 100 0.1
8 12 15 100 0.1
12 12 15 100 0.699982
14 12 15 100 0.1
0 13 15 100 1.44599e-05
5 13 15 100 0.1
9 13 15 100 0.1
13 13 15 100 0.699986
15 13 15 100 0.1
0 14 15 100 0.0125
6 14 15 100 0.110992
10 14 15 100 0.0987302
14 14 15 100 0.777778
0 15 15 100 0.061835
5 15 15 100 2.49729e-06
7 15 15 100 0.111111
11 15 15 100 0.0492736
15 15 15 100 0.777778
8 16 15 100 0.500002
12 16 15 100 0.499998
7 17 15 100 1.12402e-05
9 17 15 100 0.5
13 17 15 100 0.499989
0 18 15 100 4.55536e-05
10 18 15 100 0.499954
14 18 15 100 0.5
11 19 15 100 0.5
15 19 15 100 0.5
0 20 15 100 1.36023e-05
12 20 15 100 0.999986
0 21 15 100 9.11072e-05
13 21 15 100 0.999909
14 22 15 100 1
15 23 15 100 1
0 1 16 100 9.16528e-05
1 1 16 100 0.99692
3 1 16 100 0.00298881
0 2 16 100 0.000626933
2 2 16 100 0.856599
3 2 16 100 0.0714482
4 2 16 100 0.0713257
0 3 16 100 0.000113141
2 3 16 100 0.0713249
3 3 16 100 0.785706
4 3 16 100 0.0714286
5 3 16 100 0.0714277
0 4 16 100 2.18668e-05
2 4 16 100 0.0714284
4 4 16 100 0.714272
5 4 16 100 0.0714254
6 4 16 100 0.0714286
8 4 16 100 0.0714239
0 5 16 100 9.06068e-06
3 5 16 100 0.0714286
5 5 16 100 0.714277
6 5 16 100 0.0714286
7 5 16 100 0.0714286
9 5 16 100 0.0714286
0 6 16 100 0.0717063
4 6 16 100 0.0714286
6 6 16 100 0.714017
7 6 16 100 0.000113494
8 6 16 100 0.0714198
10 6 16 100 0.0713145
0 7 16 100 0.142864
5 7 16 100 0.0714286
7 7 16 100 0.571542
9 7 16 100 0.0714286
10 7 16 100 0.0713084
11 7 16 100 0.0714286
0 8 16 100 2.38094e-06
1 8 16 100 0.071428
6 8 16 100 0.0714286
8 8 16 100 0.642858
10 8 16 100 0.0714283
11 8 16 100 0.0714271
12 8 16 100 0.0714278
0 9 16 100 0.00185837
2 9 16 100 0.0695772
7 9 16 100 0.142857
9 9 16 100 0.571422
11 9 16 100 0.0714277
12 9 16 100 0.0714284
13 9 16 100 0.0714286
0 10 16 100 6.30681e-06
6 10 16 100 0.142857
8 10 16 100 0.0714287
9 10 16 100 0.0714281
10 10 16 100 0.499994
12 10 16 100 0.0714287
13 10 16 100 0.0714287
14 10 16 100 0.0714287
0 11 16 100 0.0714324
1 11 16 100 3.75169e-06
6 11 16 100 0.0714239
9 11 16 100 0.0714305
10 11 16 100 0.0714231
11 11 16 100 0.500001
13 11 16 100 0.0714286
14 11 16 100 0.0714286
15 11 16 100 0.0714286
0 12 16 100 0.0715971
5 12 16 100 2.89339e-06
9 12 16 100 0.0714286
10 12 16 100 0.0714197
11 12 16 100 0.0714286
12 12 16 100 0.428409
13 12 16 100 0.00563179
14 12 16 100 0.137225
15 12 16 100 0.0714286
16 12 16 100 0.0714286
0 13 16 100 0.0769243
6 13 16 100 0.0769231
9 13 16 100 4.48543e-06
11 13 16 100 0.153846
12 13 16 100 0.0769231
13 13 16 100 0.38461
15 13 16 100 0.153846
16 13 16 100 0.0769231
0 14 16 100 4.65392e-06
7 14 16 100 0.0833334
12 14 16 100 0.25
13 14 16 100 0.0833288
14 14 16 100 0.416667
16 14 16 100 0.166667
0 15 16 100 0.100009
8 15 16 100 0.1
13 15 16 100 0.199998
14 15 16 100 0.0999923
15 15 16 100 0.4
16 15 16 100 0.1
9 16 16 100 0.111111
13 16 16 100 0.111111
14 16 16 100 0.222222
15 16 16 100 0.111111
16 16 16 100 0.444445
0 17 16 100 1.04835e-05
10 17 16 100 0.199989
14 17 16 100 0.2
15 17 16 100 0.4
16 17 16 100 0.2
12 18 16 100 0.25
15 18 16 100 0.25
16 18 16 100 0.5
13 19 16 100 0.5
16 19 16 100 0.5
14 20 16 100 1
15 21 16 100 1
16 22 16 100 1
0 1 17 100 0.000154099
1 1 17 100 0.962656
2 1 17 100 0.037037
5 1 17 100 0.000152625
2 2 17 100 0.888889
3 2 17 100 0.0370371
5 2 17 100 0.0370371
6 2 17 100 0.0370371
0 3 17 100 0.0370569
3 3 17 100 0.829302
4 3 17 100 0.0595675
6 3 17 100 0.0370371
8 3 17 100 0.0370369
0 4 17 100 5.22517e-05
2 4 17 100 8.4557e-05
4 4 17 100 0.777755
5 4 17 100 0.0740736
6 4 17 100 0.0370332
7 4 17 100 0.0370361
9 4 17 100 0.0370371
11 4 17 100 7.40619e-06
16 4 17 100 0.0369205
0 5 17 100 3.02534e-06
5 5 17 100 0.777752
6 5 17 100 0.0740741
7 5 17 100 0.0370593
8 5 17 100 0.0370371
10 5 17 100 0.074074
0 6 17 100 0.0370507
6 6 17 100 0.729175
7 6 17 100 0.0740738
8 6 17 100 0.0740741
9 6 17 100 0.0370371
10 6 17 100 0.0115521
11 6 17 100 0.0370371
0 7 17 100 0.00036823
7 7 17 100 0.679407
8 7 17 100 0.0740711
9 7 17 100 0.111111
10 7 17 100 0.0366731
11 7 17 100 0.0370374
12 7 17 100 0.0613314
0 8 17 100 0.0369797
2 8 17 100 0.0370363
8 8 17 100 0.666661
9 8 17 100 0.0740739
10 8 17 100 0.0740722
11 8 17 100 0.0371024
13 8 17 100 0.0740742
0 9 17 100 0.036714
2 9 17 100 0.037037
8 9 17 100 0.037037
9 9 17 100 0.629621
10 9 17 100 0.0744093
11 9 17 100 0.0740714
12 9 17 100 0.037037
14 9 17 100 0.0740727
0 10 17 100 2.09999e-05
3 10 17 100 0.0370371
9 10 17 100 0.0370365
10 10 17 100 0.581097
11 10 17 100 0.15963
12 10 17 100 0.0740741
13 10 17 100 0.0370329
15 10 17 100 0.0740713
0 11 17 100 1.22483e-05
4 11 17 100 0.037037
10 11 17 100 0.0740953
11 11 17 100 0.518489
12 11 17 100 0.185181
13 11 17 100 0.0740737
14 11 17 100 0.037037
16 11 17 100 0.0740741
0 12 17 100 0.000327952
4 12 17 100 0.036721
5 12 17 100 0.0370371
7 12 17 100 2.16692e-06
10 12 17 100 0.0370371
11 12 17 100 0.0370371
12 12 17 100 0.460343
13 12 17 100 0.222219
14 12 17 100 0.0740741
15 12 17 100 0.0581635
16 12 17 100 3.8232e-07
17 12 17 100 0.0370371
0 13 17 100 8.84182e-06
5 13 17 100 0.0384615
6 13 17 100 0.0384616
11 13 17 100 0.0384616
12 13 17 100 0.0384616
13 13 17 100 0.346152
14 13 17 100 0.307685
15 13 17 100 0.076923
16 13 17 100 0.0769231
17 13 17 100 0.0384616
0 14 17 100 0.000186326
1 14 17 100 0.039837
7 14 17 100 0.04
12 14 17 100 0.03999
13 14 17 100 0.039995
14 14 17 100 0.359997
15 14 17 100 0.319994
16 14 17 100 0.0800001
17 14 17 100 0.0800001
0 15 17 100 0.0869608
2 15 17 100 0.0434783
6 15 17 100 2.26982e-06
8 15 17 100 0.0434783
14 15 17 100 0.0434783
15 15 17 100 0.391297
16 15 17 100 0.347826
17 15 17 100 0.0434783
0 16 17 100 0.000309079
3 16 17 100 0.0454545
9 16 17 100 0.0452683
13 16 17 100 0.0454545
15 16 17 100 0.0454545
16 16 17 100 0.545332
17 16 17 100 0.272727
0 17 17 100 0.0626218
14 17 17 100 0.0625
16 17 17 100 0.124878
17 17 17 100 0.75
0 18 17 100 6.4614e-06
10 18 17 100 0.25
15 18 17 100 0.249994
17 18 17 100 0.5
11 19 17 100 0.5
16 19 17 100 0.5
10 20 17 100 0.5
17 20 17 100 0.5
11 21 17 100 1
0 22 17 100 0.000436725
12 22 17 100 0.999563
13 23 17 100 1
14 24 17 100 1
15 25 17 100 1
16 26 17 100 1
0 27 17 100 1
0 28 17 100 0.00283037
15 28 17 100 0.491452
16 28 17 100 0.505718
16 29 17 100 1
17 30 17 100 1
1 1 18 100 1
0 2 18 100 7.13818e-06
2 2 18 100 0.821809
3 2 18 100 0.0175926
4 2 18 100 0.0729203
5 2 18 100 0.0526316
6 2 18 100 0.0109846
7 2 18 100 0.0110156
9 2 18 100 0.0130387
0 3 18 100 1.79803e-05
3 3 18 100 0.801515
5 3 18 100 0.0932167
6 3 18 100 0.0526188
10 3 18 100 0.0526316
0 4 18 100 2.01108e-05
2 4 18 100 0.0526316
3 4 18 100 3.69948e-06
4 4 18 100 0.699094
5 4 18 100 6.01062e-06
6 4 18 100 0.195613
11 4 18 100 0.0526314
0 5 18 100 0.000923634
2 5 18 100 5.16809e-05
3 5 18 100 0.0870023
4 5 18 100 0.00227479
5 5 18 100 0.631576
6 5 18 100 0.0676477
7 5 18 100 0.157892
12 5 18 100 0.0526316
0 6 18 100 0.0526321
2 6 18 100 0.0526316
6 6 18 100 0.526315
7 6 18 100 0.157895
8 6 18 100 0.157895
13 6 18 100 0.0526315
0 7 18 100 0.0518342
3 7 18 100 0.000804151
6 7 18 100 0.0526316
7 7 18 100 0.526307
8 7 18 100 0.157895
9 7 18 100 0.157894
10 7 18 100 2.37508e-06
14 7 18 100 0.0526316
0 8 18 100 2.07664e-05
6 8 18 100 0.0526312
7 8 18 100 0.0526326
8 8 18 100 0.526308
9 8 18 100 0.157884
10 8 18 100 0.105263
11 8 18 100 0.0526294
15 8 18 100 0.0526308
0 9 18 100 0.000142724
7 9 18 100 0.0525006
8 9 18 100 0.105263
9 9 18 100 0.473674
10 9 18 100 0.157895
11 9 18 100 0.105261
12 9 18 100 0.0526316
16 9 18 100 0.0526316
0 10 18 100 3.08246e-06
4 10 18 100 4.13762e-06
8 10 18 100 0.0526316
9 10 18 100 0.105263
10 10 18 100 0.473678
11 10 18 100 0.15789
12 10 18 100 0.105262
13 10 18 100 0.0526316
14 10 18 100 5.15158e-06
17 10 18 100 0.0526316
0 11 18 100 4.0102e-05
9 11 18 100 0.0526316
10 11 18 100 0.105263
11 11 18 100 0.421606
12 11 18 100 0.209933
13 11 18 100 0.105263
14 11 18 100 0.0526316
18 11 18 100 0.0526316
0 12 18 100 1.17444e-05
10 12 18 100 0.0555517
11 12 18 100 0.111111
12 12 18 100 0.357853
13 12 18 100 0.277777
14 12 18 100 0.111111
15 12 18 100 0.0692926
16 12 18 100 0.017292
0 13 18 100 1.77956e-05
11 13 18 100 0.0555556
12 13 18 100 0.111108
13 13 18 100 0.333333
14 13 18 100 0.222209
15 13 18 100 0.166667
16 13 18 100 0.0555556
18 13 18 100 0.0555556
0 14 18 100 3.38677e-06
12 14 18 100 0.0588232
13 14 18 100 0.117647
14 14 18 100 0.352938
15 14 18 100 0.235294
16 14 18 100 0.176471
17 14 18 100 0.0588235
0 15 18 100 1.03655e-05
13 15 18 100 0.0588236
14 15 18 100 0.117647
15 15 18 100 0.352933
16 15 18 100 0.235291
17 15 18 100 0.176471
18 15 18 100 0.0588236
0 16 18 100 9.21526e-07
14 16 18 100 0.0625
15 16 18 100 0.125
16 16 18 100 0.349148
17 16 18 100 0.275851
18 16 18 100 0.1875
15 17 18 100 0.0769231
16 17 18 100 0.153846
17 17 18 100 0.384615
18 17 18 100 0.384615
16 18 18 100 0.125
17 18 18 100 0.25
18 18 18 100 0.625
17 19 18 100 0.333333
18 19 18 100 0.666667
18 20 18 100 1
1 1 19 100 0.933333
3 1 19 100 0.0666667
0 2 19 100 1.6306e-05
2 2 19 100 0.933317
6 2 19 100 0.0666667
0 3 19 100 1.19985e-05
2 3 19 100 0.0666609
3 3 19 100 0.866661
7 3 19 100 0.0666662
0 4 19 100 1.28064e-05
3 4 19 100 0.0651072
4 4 19 100 0.76401
5 4 19 100 0.0375369
8 4 19 100 0.0666667
17 4 19 100 0.0666667
0 5 19 100 5.45616e-06
4 5 19 100 0.0666667
5 5 19 100 0.733328
6 5 19 100 0.0666667
9 5 19 100 0.0666667
18 5 19 100 0.0666667
0 6 19 100 0.0675478
2 6 19 100 0.0666667
5 6 19 100 0.0666667
6 6 19 100 0.665789
7 6 19 100 0.0666667
10 6 19 100 0.0666632
0 7 19 100 7.2905e-05
3 7 19 100 0.0666041
6 7 19 100 0.199995
7 7 19 100 0.533333
8 7 19 100 0.0666667
10 7 19 100 0.0666667
11 7 19 100 0.0666618
0 8 19 100 1.34688e-05
4 8 19 100 0.0666667
7 8 19 100 0.2
8 8 19 100 0.533322
9 8 19 100 0.0666645
11 8 19 100 0.0666667
12 8 19 100 0.0666667
0 9 19 100 1.26329e-05
5 9 19 100 0.0666667
8 9 19 100 0.2
9 9 19 100 0.533329
10 9 19 100 0.0666667
12 9 19 100 0.0666659
13 9 19 100 0.066659
0 10 19 100 3.01214e-05
6 10 19 100 0.0666575
9 10 19 100 0.199991
10 10 19 100 0.533211
11 10 19 100 0.0666667
12 10 19 100 0.000110314
13 10 19 100 0.0666667
14 10 19 100 0.0666665
0 11 19 100 1.18312e-05
7 11 19 100 0.0666667
9 11 19 100 0.0666667
10 11 19 100 0.133325
11 11 19 100 0.433649
12 11 19 100 0.0905223
14 11 19 100 0.0943477
15 11 19 100 0.0666667
16 11 19 100 0.0151269
18 11 19 100 0.0330174
0 12 19 100 0.000720037
8 12 19 100 0.0666667
10 12 19 100 0.0666667
11 12 19 100 0.199297
12 12 19 100 0.330197
13 12 19 100 0.0697861
15 12 19 100 0.0666667
16 12 19 100 0.0666667
17 12 19 100 0.0666667
19 12 19 100 0.0666667
0 13 19 100 1.34759e-05
9 13 19 100 0.0714282
11 13 19 100 0.0714283
12 13 19 100 0.21428
13 13 19 100 0.285709
14 13 19 100 0.142855
16 13 19 100 0.0714286
17 13 19 100 0.0714286
18 13 19 100 0.0714286
0 14 19 100 1.45464e-05
10 14 19 100 0.0714286
12 14 19 100 0.0714286
13 14 19 100 0.214276
14 14 19 100 0.214284
15 14 19 100 0.142854
17 14 19 100 0.0714286
18 14 19 100 0.0714286
19 14 19 100 0.142857
0 15 19 100 1.34647e-05
11 15 19 100 0.0833334
13 15 19 100 0.0833334
14 15 19 100 0.249988
15 15 19 100 0.166667
16 15 19 100 0.166664
18 15 19 100 0.0833334
19 15 19 100 0.166667
0 16 19 100 1.32993e-05
12 16 19 100 0.1
14 16 19 100 0.1
15 16 19 100 0.299987
16 16 19 100 0.2
17 16 19 100 0.2
19 16 19 100 0.1
13 17 19 100 0.111111
15 17 19 100 0.111111
16 17 19 100 0.333334
17 17 19 100 0.222217
18 17 19 100 0.222227
0 18 19 100 1.05165e-05
14 18 19 100 0.111111
16 18 19 100 0.111111
17 18 19 100 0.333323
18 18 19 100 0.222222
19 18 19 100 0.222222
0 19 19 100 8.94703e-06
15 19 19 100 0.142848
17 19 19 100 0.142857
18 19 19 100 0.428571
19 19 19 100 0.285714
16 20 19 100 0.2
18 20 19 100 0.2
19 20 19 100 0.6
19 21 19 100 1
1 1 20 100 1
0 2 20 100 0.0555625
2 2 20 100 0.944438
0 3 20 100 0.00026853
2 3 20 100 0.0555556
3 3 20 100 0.943885
9 3 20 100 0.000290706
0 4 20 100 4.05167e-06
2 4 20 100 0.0555556
3 4 20 100 0.0555556
4 4 20 100 0.741423
5 4 20 100 0.0186153
6 4 20 100 0.0546783
8 4 20 100 0.0186121
10 4 20 100 0.0555556
0 5 20 100 3.02704e-05
3 5 20 100 0.0555551
4 5 20 100 0.0555556
5 5 20 100 0.72221
7 5 20 100 0.0555556
9 5 20 100 0.0555556
11 5 20 100 0.0555374
0 6 20 100 0.163614
6 6 20 100 0.666639
8 6 20 100 0.055551
10 6 20 100 0.0555546
18 6 20 100 0.00308631
19 6 20 100 0.0555544
0 7 20 100 0.0938807
4 7 20 100 0.0555581
5 7 20 100 0.0555568
7 7 20 100 0.666657
9 7 20 100 0.0555576
11 7 20 100 0.0555556
15 7 20 100 1.77306e-06
17 7 20 100 0.0172325
0 8 20 100 3.64701e-06
2 8 20 100 0.0555493
5 8 20 100 0.111111
6 8 20 100 0.0555556
8 8 20 100 0.666665
10 8 20 100 0.0555556
12 8 20 100 0.0555553
18 8 20 100 4.11289e-06
0 9 20 100 4.31859e-05
2 9 20 100 0.0555556
6 9 20 100 0.111108
7 9 20 100 0.0555556
9 9 20 100 0.611077
11 9 20 100 0.0555556
13 9 20 100 0.0555556
17 9 20 100 0.0555497
0 10 20 100 1.99725e-06
3 10 20 100 0.0555556
7 10 20 100 0.111109
8 10 20 100 0.0555556
10 10 20 100 0.611111
12 10 20 100 0.0555556
14 10 20 100 0.0555556
18 10 20 100 0.0555556
0 11 20 100 0.0555756
4 11 20 100 0.0555556
8 11 20 100 0.111111
9 11 20 100 0.0555556
11 11 20 100 0.55554
13 11 20 100 0.0555509
15 11 20 100 0.0555555
19 11 20 100 0.0555556
0 12 20 100 0.000292229
3 12 20 100 0.000290706
5 12 20 100 0.0555495
9 12 20 100 0.110542
10 12 20 100 0.0555556
11 12 20 100 0.0555556
12 12 20 100 0.555545
14 12 20 100 0.0555556
16 12 20 100 0.0555556
17 12 20 100 2.46302e-06
20 12 20 100 0.0555556
0 13 20 100 2.53057e-05
6 13 20 100 0.0588236
10 13 20 100 0.0588236
11 13 20 100 0.117642
12 13 20 100 0.0588236
13 13 20 100 0.529396
15 13 20 100 0.117642
17 13 20 100 0.0588236
0 14 20 100 5.06025e-06
7 14 20 100 0.0588236
11 14 20 100 0.0588235
12 14 20 100 0.117647
13 14 20 100 0.0588236
14 14 20 100 0.529408
16 14 20 100 0.117647
18 14 20 100 0.0588221
0 15 20 100 2.93774e-06
8 15 20 100 0.0588236
12 15 20 100 0.0588234
13 15 20 100 0.117645
14 15 20 100 0.117647
15 15 20 100 0.411764
17 15 20 100 0.117646
19 15 20 100 0.0588236
20 15 20 100 0.0588236
0 16 20 100 1.16215e-05
9 16 20 100 0.0624999
13 16 20 100 0.0625
14 16 20 100 0.125
15 16 20 100 0.125
16 16 20 100 0.330101
17 16 20 100 0.107392
18 16 20 100 0.124995
20 16 20 100 0.0625
0 17 20 100 5.45552e-06
10 17 20 100 0.0666664
14 17 20 100 0.0666667
15 17 20 100 0.133333
16 17 20 100 0.0666667
17 17 20 100 0.365368
18 17 20 100 0.133328
19 17 20 100 0.167965
0 18 20 100 1.3336e-05
11 18 20 100 0.0666668
15 18 20 100 0.0666631
16 18 20 100 0.133333
17 18 20 100 0.0666668
18 18 20 100 0.333323
19 18 20 100 0.133334
20 18 20 100 0.2
12 19 20 100 0.0833333
16 19 20 100 0.0833333
17 19 20 100 0.0833333
18 19 20 100 0.0833332
19 19 20 100 0.333333
20 19 20 100 0.333333
13 20 20 100 0.125
17 20 20 100 0.125
18 20 20 100 0.125
19 20 20 100 0.125
20 20 20 100 0.5
14 21 20 100 0.25
18 21 20 100 0.249999
19 21 20 100 0.25
20 21 20 100 0.25
15 22 20 100 0.333333
19 22 20 100 0.333333
20 22 20 100 0.333333
0 23 20 100 0.000357229
16 23 20 100 0.484892
18 23 20 100 0.0147506
20 23 20 100 0.5
20 24 20 100 1
1 1 21 100 1
0 2 21 100 0.0714329
2 2 21 100 0.928565
17 2 21 100 1.92909e-06
0 3 21 100 0.142897
3 3 21 100 0.857103
0 4 21 100 0.00736969
2 4 21 100 0.0642885
3 4 21 100 0.07122
4 4 21 100 0.785882
5 4 21 100 0.0712399
2 5 21 100 0.0714286
4 5 21 100 0.142857
5 5 21 100 0.714286
6 5 21 100 0.0714286
0 6 21 100 3.24992e-05
3 6 21 100 0.0714275
5 6 21 100 0.142847
6 6 21 100 0.714264
7 6 21 100 0.0714286
0 7 21 100 0.000703539
4 7 21 100 0.0714286
6 7 21 100 0.142857
7 7 21 100 0.713592
8 7 21 100 0.071419
5 8 21 100 0.0714286
7 8 21 100 0.142857
8 8 21 100 0.714286
9 8 21 100 0.0714286
0 9 21 100 1.90514e-05
6 9 21 100 0.0714275
8 9 21 100 0.142857
9 9 21 100 0.71427
10 9 21 100 0.0714267
0 10 21 100 2.83942e-05
7 10 21 100 0.0714286
9 10 21 100 0.142847
10 10 21 100 0.714267
11 10 21 100 0.0714286
0 11 21 100 2.25182e-05
8 11 21 100 0.0714285
10 11 21 100 0.142857
11 11 21 100 0.714263
12 11 21 100 0.0714286
0 12 21 100 3.84251e-05
9 12 21 100 0.0714286
11 12 21 100 0.142857
12 12 21 100 0.71428
13 12 21 100 0.0713963
0 13 21 100 6.17951e-06
10 13 21 100 0.0714284
12 13 21 100 0.142857
13 13 21 100 0.71428
14 13 21 100 0.0714286
0 14 21 100 1.20825e-05
11 14 21 100 0.0714287
13 14 21 100 0.142857
14 14 21 100 0.696411
15 14 21 100 0.089291
0 15 21 100 7.32601e-06
12 15 21 100 0.0714286
14 15 21 100 0.142857
15 15 21 100 0.64285
16 15 21 100 0.142857
0 16 21 100 2.06683e-05
13 16 21 100 0.0714286
15 16 21 100 0.142853
16 16 21 100 0.642843
17 16 21 100 0.142855
0 17 21 100 1.74475e-05
14 17 21 100 0.0714286
16 17 21 100 0.142857
17 17 21 100 0.642841
18 17 21 100 0.142856
0 18 21 100 2.14488e-05
15 18 21 100 0.0714286
17 18 21 100 0.142857
18 18 21 100 0.642835
19 18 21 100 0.142857
0 19 21 100 7.40078e-06
16 19 21 100 0.0714286
18 19 21 100 0.142854
19 19 21 100 0.499995
20 19 21 100 0.285714
0 20 21 100 4.33404e-06
17 20 21 100 0.0714242
19 20 21 100 0.142857
20 20 21 100 0.5
21 20 21 100 0.285714
18 21 21 100 0.1
20 21 21 100 0.2
21 21 21 100 0.7
19 22 21 100 0.333333
21 22 21 100 0.666667
20 23 21 100 1
21 24 21 100 1
1 1 22 100 1
0 2 22 100 4.53049e-06
2 2 22 100 0.928567
3 2 22 100 0.0714287
0 3 22 100 1.61675e-05
3 3 22 100 0.928555
6 3 22 100 0.0714287
0 4 22 100 1.29292e-05
4 4 22 100 0.85713
6 4 22 100 0.0714286
7 4 22 100 0.0714286
0 5 22 100 0.0714421
5 5 22 100 0.785701
7 5 22 100 0.0714286
8 5 22 100 0.0714286
0 6 22 100 2.85367e-05
6 6 22 100 0.714276
7 6 22 100 0.0714286
8 6 22 100 0.0714286
9 6 22 100 0.0714286
11 6 22 100 0.0714091
0 7 22 100 0.00030928
4 7 22 100 0.0714282
7 7 22 100 0.713977
8 7 22 100 0.0714286
9 7 22 100 0.0714286
10 7 22 100 0.0714285
0 8 22 100 5.92356e-06
5 8 22 100 0.0714286
8 8 22 100 0.642853
9 8 22 100 0.142856
10 8 22 100 0.0714286
11 8 22 100 0.071428
0 9 22 100 3.38504e-06
6 9 22 100 0.0714286
9 9 22 100 0.642854
10 9 22 100 0.142857
11 9 22 100 0.0714286
12 9 22 100 0.0714286
0 10 22 100 1.1921e-05
7 10 22 100 0.0714265
10 10 22 100 0.642851
11 10 22 100 0.142857
12 10 22 100 0.0714284
13 10 22 100 0.0714244
0 11 22 100 1.34329e-05
8 11 22 100 0.0714286
11 11 22 100 0.642844
12 11 22 100 0.142857
13 11 22 100 0.0346557
14 11 22 100 0.0714286
20 11 22 100 0.0367729
0 12 22 100 1.80001e-06
9 12 22 100 0.0714286
12 12 22 100 0.607833
13 12 22 100 0.142857
14 12 22 100 0.0350225
15 12 22 100 0.0714286
21 12 22 100 0.0714285
0 13 22 100 3.5511e-06
10 13 22 100 0.0714286
13 13 22 100 0.558559
14 13 22 100 0.142856
15 13 22 100 0.0714286
16 13 22 100 0.0842963
22 13 22 100 0.0714286
0 14 22 100 0.000268229
12 14 22 100 0.0766649
14 14 22 100 0.45376
15 14 22 100 0.153842
16 14 22 100 0.143648
17 14 22 100 0.0769231
18 14 22 100 0.0414072
19 14 22 100 0.0534868
0 15 22 100 1.00225e-05
13 15 22 100 0.0769231
15 15 22 100 0.384606
16 15 22 100 0.153846
17 15 22 100 0.153846
18 15 22 100 0.0769231
20 15 22 100 0.0769231
21 15 22 100 0.076923
0 16 22 100 2.85722e-06
14 16 22 100 0.0769227
16 16 22 100 0.384612
17 16 22 100 0.0769231
18 16 22 100 0.230769
19 16 22 100 0.0769231
21 16 22 100 0.0769231
22 16 22 100 0.0769231
0 17 22 100 5.85449e-06
15 17 22 100 0.0833334
17 17 22 100 0.416667
18 17 22 100 0.0833334
19 17 22 100 0.249994
20 17 22 100 0.0833326
22 17 22 100 0.0833334
0 18 22 100 1.85366e-05
16 18 22 100 0.0909031
18 18 22 100 0.454545
19 18 22 100 0.0908966
20 18 22 100 0.272727
21 18 22 100 0.0909091
0 19 22 100 9.43488e-07
17 19 22 100 0.0909091
19 19 22 100 0.454544
20 19 22 100 0.0909091
21 19 22 100 0.272727
22 19 22 100 0.0909091
0 20 22 100 1.05859e-05
18 20 22 100 0.1
20 20 22 100 0.499989
21 20 22 100 0.1
22 20 22 100 0.3
0 21 22 100 0.000190852
19 21 22 100 0.142856
21 21 22 100 0.714095
22 21 22 100 0.142857
0 22 22 100 0.332977
20 22 22 100 0.166667
21 22 22 100 0.000356295
22 22 22 100 0.5
0 23 22 100 0.331701
5 23 22 100 0.333333
21 23 22 100 0.334966
6 24 22 100 0.333333
22 24 22 100 0.666667
0 25 22 100 0.995957
7 25 22 100 0.00404277
8 26 22 100 1
0 27 22 100 0.999986
4 27 22 100 1.44943e-05
0 28 22 100 0.00460973
5 28 22 100 0.99539
6 29 22 100 1
0 30 22 100 1.85475e-05
8 30 22 100 0.999981
0 31 22 100 0.999985
12 31 22 100 1.48566e-05
0 32 22 100 0.0245158
5 32 22 100 0.975484
0 33 22 100 3.71452e-05
21 33 22 100 0.999963
22 34 22 100 1
1 1 23 100 0.96
2 1 23 100 0.04
0 2 23 100 1.41098e-05
2 2 23 100 0.959988
3 2 23 100 0.0399976
0 3 23 100 3.33653e-05
3 3 23 100 0.959968
4 3 23 100 0.0399983
0 4 23 100 1.88978e-05
4 4 23 100 0.947001
5 4 23 100 0.0529803
0 5 23 100 1.24924e-05
5 5 23 100 0.879987
6 5 23 100 0.12
0 6 23 100 0.0401356
5 6 23 100 7.41418e-06
6 6 23 100 0.839861
7 6 23 100 0.119996
0 7 23 100 1.57083e-05
6 7 23 100 0.04
7 7 23 100 0.839985
8 7 23 100 0.12
0 8 23 100 0.0400084
7 8 23 100 0.04
8 8 23 100 0.799991
9 8 23 100 0.12
0 9 23 100 9.36997e-05
8 9 23 100 0.0800083
9 9 23 100 0.800698
10 9 23 100 0.0800155
11 9 23 100 0.000106951
12 9 23 100 0.0390773
0 10 23 100 0.00599586
9 10 23 100 0.152177
10 10 23 100 0.759994
11 10 23 100 0.04
12 10 23 100 0.0418331
0 11 23 100 0.000227622
10 11 23 100 0.119994
11 11 23 100 0.679988
12 11 23 100 0.0622626
13 11 23 100 0.137527
0 12 23 100 0.0386704
4 12 23 100 1.43095e-06
11 12 23 100 0.121353
12 12 23 100 0.571409
13 12 23 100 0.0971336
14 12 23 100 0.131432
16 12 23 100 0.0270055
17 12 23 100 0.0129942
0 13 23 100 2.11898e-06
12 13 23 100 0.119999
13 13 23 100 0.52
14 13 23 100 0.159999
15 13 23 100 0.16
18 13 23 100 0.04
0 14 23 100 0.0371247
13 14 23 100 0.12
14 14 23 100 0.416185
15 14 23 100 0.12
16 14 23 100 0.160002
17 14 23 100 0.103787
19 14 23 100 0.0429012
0 15 23 100 1.32449e-05
14 15 23 100 0.12
15 15 23 100 0.399992
16 15 23 100 0.12
17 15 23 100 0.199997
18 15 23 100 0.04
20 15 23 100 0.0799979
23 15 23 100 0.04
0 16 23 100 3.82908e-06
15 16 23 100 0.124999
16 16 23 100 0.416667
17 16 23 100 0.124998
18 16 23 100 0.208333
19 16 23 100 0.0416667
21 16 23 100 0.0833318
0 17 23 100 1.50327e-05
16 17 23 100 0.124997
17 17 23 100 0.374994
18 17 23 100 0.147149
19 17 23 100 0.208333
20 17 23 100 0.0611783
22 17 23 100 0.0833334
0 18 23 100 8.89698e-06
14 18 23 100 0.0416667
17 18 23 100 0.11642
18 18 23 100 0.383576
19 18 23 100 0.125
20 18 23 100 0.208328
21 18 23 100 0.0416667
23 18 23 100 0.0833334
0 19 23 100 9.10638e-06
15 19 23 100 0.0454546
18 19 23 100 0.090909
19 19 23 100 0.409087
20 19 23 100 0.136359
21 19 23 100 0.272727
22 19 23 100 0.0454546
0 20 23 100 3.85783e-05
16 20 23 100 0.0454533
19 20 23 100 0.136328
20 20 23 100 0.363634
21 20 23 100 0.136364
22 20 23 100 0.271066
23 20 23 100 0.0471162
0 21 23 100 1.04848e-05
17 21 23 100 0.0499982
20 21 23 100 0.149992
21 21 23 100 0.399999
22 21 23 100 0.15
23 21 23 100 0.25
0 22 23 100 2.71498e-06
18 22 23 100 0.0666667
21 22 23 100 0.199997
22 22 23 100 0.533333
23 22 23 100 0.2
22 23 23 100 0.333333
23 23 23 100 0.666667
0 24 23 100 0.25
23 24 23 100 0.75
22 25 23 100 1
23 26 23 100 1
1 1 24 100 0.947368
5 1 24 100 0.0526316
0 2 24 100 1.41507e-05
2 2 24 100 0.894723
4 2 24 100 0.0526278
6 2 24 100 0.0526353
0 3 24 100 1.66453e-05
3 3 24 100 0.894727
5 3 24 100 6.36121e-05
7 3 24 100 0.105192
0 4 24 100 2.90489e-05
4 4 24 100 0.894708
8 4 24 100 0.105263
0 5 24 100 8.54488e-06
5 5 24 100 0.8421
9 5 24 100 0.157892
0 6 24 100 3.3537e-05
5 6 24 100 9.91974e-07
6 6 24 100 0.711872
7 6 24 100 0.0866624
8 6 24 100 1.21507e-06
9 6 24 100 0.0435008
10 6 24 100 0.157905
11 6 24 100 2.48706e-05
0 7 24 100 0.0518558
6 7 24 100 0.000799703
7 7 24 100 0.631567
8 7 24 100 0.0526276
10 7 24 100 0.0526314
11 7 24 100 0.105256
12 7 24 100 0.105263
0 8 24 100 2.03426e-05
7 8 24 100 0.0526316
8 8 24 100 0.631563
9 8 24 100 0.0526316
11 8 24 100 0.0526316
12 8 24 100 0.105262
13 8 24 100 0.10526
0 9 24 100 6.93215e-06
8 9 24 100 0.0526301
9 9 24 100 0.631574
10 9 24 100 0.0526314
12 9 24 100 0.0526316
13 9 24 100 0.105263
14 9 24 100 0.105263
0 10 24 100 1.05589e-05
9 10 24 100 0.0526316
10 10 24 100 0.631569
11 10 24 100 0.0526316
13 10 24 100 0.0526316
14 10 24 100 0.105263
15 10 24 100 0.105263
0 11 24 100 0.00015375
10 11 24 100 0.0526316
11 11 24 100 0.578939
12 11 24 100 0.105119
14 11 24 100 0.0526316
15 11 24 100 0.105263
16 11 24 100 0.105261
0 12 24 100 1.71344e-05
11 12 24 100 0.0526316
12 12 24 100 0.578911
13 12 24 100 0.105261
15 12 24 100 0.0526295
16 12 24 100 0.105263
17 12 24 100 0.105261
21 12 24 100 2.6387e-05
0 13 24 100 2.61964e-05
12 13 24 100 0.0526281
13 13 24 100 0.526301
14 13 24 100 0.105267
15 13 24 100 0.0526272
16 13 24 100 0.0526313
17 13 24 100 0.105256
18 13 24 100 0.105263
0 14 24 100 3.15828e-06
13 14 24 100 0.0526316
14 14 24 100 0.526313
15 14 24 100 0.105263
16 14 24 100 0.0526316
17 14 24 100 0.0526316
18 14 24 100 0.105263
19 14 24 100 0.105263
0 15 24 100 0.000309707
14 15 24 100 0.0526316
15 15 24 100 0.526296
16 15 24 100 0.104974
17 15 24 100 0.0526316
18 15 24 100 0.0526316
19 15 24 100 0.105262
20 15 24 100 0.105262
0 16 24 100 8.70945e-06
11 16 24 100 0.0382695
15 16 24 100 0.0526316
16 16 24 100 0.500011
17 16 24 100 0.0932939
18 16 24 100 0.052627
19 16 24 100 0.0526316
20 16 24 100 0.105263
21 16 24 100 0.105263
0 17 24 100 1.80788e-05
10 17 24 100 0.0399745
16 17 24 100 0.0526316
17 17 24 100 0.461981
18 17 24 100 0.105263
19 17 24 100 0.0526316
20 17 24 100 0.0526316
21 17 24 100 0.105263
22 17 24 100 0.105263
23 17 24 100 0.0243415
0 18 24 100 1.33508e-05
11 18 24 100 0.0139696
17 18 24 100 0.0912934
18 18 24 100 0.421044
19 18 24 100 0.105263
20 18 24 100 0.0526317
21 18 24 100 0.0526317
22 18 24 100 0.105258
23 18 24 100 0.105263
24 18 24 100 0.0526317
0 19 24 100 1.6846e-05
18 19 24 100 0.0555556
19 19 24 100 0.499519
20 19 24 100 0.111583
21 19 24 100 0.0555477
22 19 24 100 0.0555555
23 19 24 100 0.111111
24 19 24 100 0.111111
0 20 24 100 1.64872e-05
19 20 24 100 0.0625
20 20 24 100 0.457786
21 20 24 100 0.1875
22 20 24 100 0.104698
23 20 24 100 0.0624997
24 20 24 100 0.125
0 21 24 100 2.71795e-05
20 21 24 100 0.0714286
21 21 24 100 0.499982
22 21 24 100 0.214276
23 21 24 100 0.142857
24 21 24 100 0.0714286
0 22 24 100 1.07395e-06
21 22 24 100 0.0769229
22 22 24 100 0.461538
23 22 24 100 0.230769
24 22 24 100 0.230769
22 23 24 100 0.1
23 23 24 100 0.6
24 23 24 100 0.3
23 24 24 100 0.142857
24 24 24 100 0.857143
24 25 24 100 1
1 1 25 100 1
0 2 25 100 8.83017e-05
2 2 25 100 0.888874
5 2 25 100 0.0369711
6 2 25 100 0.0370292
20 2 25 100 0.0370371
0 3 25 100 0.0366223
2 3 25 100 0.037037
3 3 25 100 0.852265
7 3 25 100 0.037037
12 3 25 100 1.23722e-06
18 3 25 100 1.16807e-06
21 3 25 100 0.0370365
0 4 25 100 0.0368773
3 4 25 100 0.0370334
4 4 25 100 0.851846
6 4 25 100 0.037037
8 4 25 100 0.000164988
21 4 25 100 4.00994e-06
22 4 25 100 0.037037
0 5 25 100 9.42919e-06
1 5 25 100 0.0370367
4 5 25 100 0.0370371
5 5 25 100 0.832144
7 5 25 100 0.0567356
23 5 25 100 0.0370367
0 6 25 100 2.41193e-05
2 6 25 100 0.037036
5 6 25 100 0.0370368
6 6 25 100 0.777754
7 6 25 100 0.0171624
8 6 25 100 0.0740741
9 6 25 100 0.0198746
20 6 25 100 1.09949e-06
24 6 25 100 0.0370371
0 7 25 100 0.0526567
2 7 25 100 0.0214367
3 7 25 100 0.037037
4 7 25 100 9.02387e-07
6 7 25 100 0.037037
7 7 25 100 0.738818
9 7 25 100 0.0740741
10 7 25 100 0.0389396
0 8 25 100 0.037363
2 8 25 100 2.3692e-06
4 8 25 100 0.0370361
7 8 25 100 0.0737524
8 8 25 100 0.629625
10 8 25 100 0.0740741
11 8 25 100 0.148146
21 8 25 100 9.16462e-07
0 9 25 100 0.108551
3 9 25 100 0.0370343
4 9 25 100 0.00257036
8 9 25 100 0.0370385
9 9 25 100 0.592579
10 9 25 100 4.95347e-07
11 9 25 100 0.0740739
12 9 25 100 0.148148
21 9 25 100 4.01646e-06
0 10 25 100 5.71826e-05
5 10 25 100 0.0740739
7 10 25 100 0.0370371
9 10 25 100 0.0740741
10 10 25 100 0.555521
12 10 25 100 0.111092
13 10 25 100 0.148145
0 11 25 100 0.0277328
2 11 25 100 0.00932524
7 11 25 100 0.0370371
9 11 25 100 0.0370356
10 11 25 100 0.0740737
11 11 25 100 0.518502
12 11 25 100 5.71061e-07
13 11 25 100 0.259254
14 11 25 100 0.0370371
22 11 25 100 1.42806e-06
0 12 25 100 0.0370521
4 12 25 100 7.78604e-07
6 12 25 100 0.0370322
11 12 25 100 0.148148
12 12 25 100 0.481471
14 12 25 100 0.259259
15 12 25 100 0.0370371
0 13 25 100 2.90687e-05
7 13 25 100 0.0370371
8 13 25 100 0.0370371
12 13 25 100 0.148142
13 13 25 100 0.481462
15 13 25 100 0.222222
16 13 25 100 0.0740708
0 14 25 100 0.0370436
7 14 25 100 7.70428e-07
8 14 25 100 0.0370367
9 14 25 100 0.0370371
13 14 25 100 0.148147
14 14 25 100 0.460948
16 14 25 100 0.185185
17 14 25 100 0.0740741
19 14 25 100 0.0205279
0 15 25 100 2.56448e-05
9 15 25 100 0.037037
10 15 25 100 0.037037
14 15 25 100 0.222212
15 15 25 100 0.370362
16 15 25 100 0.0370306
17 15 25 100 0.185185
18 15 25 100 0.074074
25 15 25 100 0.037037
0 16 25 100 0.0384804
2 16 25 100 8.64732e-07
10 16 25 100 0.0384616
11 16 25 100 0.0384616
15 16 25 100 0.192302
16 16 25 100 0.384607
17 16 25 100 0.0384616
18 16 25 100 0.192304
19 16 25 100 0.0769213
0 17 25 100 3.31319e-05
11 17 25 100 0.0384615
12 17 25 100 0.038461
15 17 25 100 0.0384615
16 17 25 100 0.192302
17 17 25 100 0.384596
18 17 25 100 0.0384615
19 17 25 100 0.192306
20 17 25 100 0.0769176
0 18 25 100 0.0384666
2 18 25 100 8.1568e-07
12 18 25 100 0.0384598
13 18 25 100 0.0384616
17 18 25 100 0.192412
18 18 25 100 0.384504
19 18 25 100 0.0384647
20 18 25 100 0.192308
21 18 25 100 0.0769231
0 19 25 100 4.42202e-05
13 19 25 100 0.0384616
14 19 25 100 0.0384614
16 19 25 100 0.0384245
18 19 25 100 0.230769
19 19 25 100 0.346148
20 19 25 100 0.0384615
21 19 25 100 0.192308
22 19 25 100 0.0769225
0 20 25 100 0.00173827
14 20 25 100 0.0384615
15 20 25 100 0.0384616
17 20 25 100 0.0384616
19 20 25 100 0.153843
20 20 25 100 0.38288
21 20 25 100 0.0148312
22 20 25 100 0.215938
23 20 25 100 0.0769231
25 20 25 100 0.0384616
0 21 25 100 1.40469e-05
15 21 25 100 0.04
16 21 25 100 0.0399995
18 21 25 100 0.04
20 21 25 100 0.19998
21 21 25 100 0.359902
23 21 25 100 0.24
24 21 25 100 0.0801042
0 22 25 100 7.1005e-06
16 22 25 100 0.04
17 22 25 100 0.0399993
19 22 25 100 0.04
21 22 25 100 0.16
22 22 25 100 0.319993
23 22 25 100 0.04
24 22 25 100 0.24
25 22 25 100 0.12
0 23 25 100 1.46324e-05
17 23 25 100 0.0454546
18 23 25 100 0.0454546
20 23 25 100 0.0454546
22 23 25 100 0.181808
23 23 25 100 0.363632
24 23 25 100 0.0454546
25 23 25 100 0.272727
18 24 25 100 0.0625
19 24 25 100 0.0625
21 24 25 100 0.0625
23 24 25 100 0.25
24 24 25 100 0.375
25 24 25 100 0.1875
0 25 25 100 1.04594e-06
19 25 25 100 0.0769231
20 25 25 100 0.076922
22 25 25 100 0.0769231
24 25 25 100 0.307692
25 25 25 100 0.461538
21 26 25 100 0.142857
23 26 25 100 0.142857
25 26 25 100 0.714286
22 27 25 100 0.5
24 27 25 100 0.5
23 28 25 100 0.499999
25 28 25 100 0.500001
24 29 25 100 1
25 30 25 100 1
1 1 26 100 0.944444
4 1 26 100 0.00197168
5 1 26 100 0.0351745
7 1 26 100 0.0184093
0 2 26 100 1.62305e-05
2 2 26 100 0.944428
8 2 26 100 0.0555555
0 3 26 100 2.03442e-05
3 3 26 100 0.888869
6 3 26 100 0.0555556
9 3 26 100 0.0555553
0 4 26 100 0.0555662
4 4 26 100 0.833321
7 4 26 100 0.0555556
10 4 26 100 0.0555576
0 5 26 100 8.14097e-06
5 5 26 100 0.807337
7 5 26 100 0.0815434
8 5 26 100 0.0555556
11 5 26 100 0.0555556
0 6 26 100 1.54103e-05
6 6 26 100 0.777765
8 6 26 100 0.111109
9 6 26 100 0.0555546
12 6 26 100 0.0555556
0 7 26 100 1.28268e-05
7 7 26 100 0.777765
9 7 26 100 0.111111
10 7 26 100 0.0555556
13 7 26 100 0.0555556
0 8 26 100 2.49758e-05
8 8 26 100 0.752021
10 8 26 100 0.111103
11 8 26 100 0.055554
12 8 26 100 0.0257424
14 8 26 100 0.0555555
0 9 26 100 1.16271e-06
9 9 26 100 0.666666
10 9 26 100 0.0477042
11 9 26 100 0.111111
12 9 26 100 0.0634069
15 9 26 100 0.111111
0 10 26 100 1.64676e-05
10 10 26 100 0.611101
11 10 26 100 0.0555563
12 10 26 100 0.111111
13 10 26 100 0.111108
16 10 26 100 0.111107
11 11 26 100 0.611111
12 11 26 100 0.0555556
13 11 26 100 0.111111
14 11 26 100 0.111111
17 11 26 100 0.111111
0 12 26 100 1.25518e-05
12 12 26 100 0.570272
13 12 26 100 0.0963846
14 12 26 100 0.111111
15 12 26 100 0.111111
18 12 26 100 0.111109
0 13 26 100 1.37457e-05
13 13 26 100 0.555547
14 13 26 100 0.111106
15 13 26 100 0.111111
16 13 26 100 0.111111
19 13 26 100 0.111111
0 14 26 100 0.0555747
14 14 26 100 0.446675
15 14 26 100 0.164429
16 14 26 100 0.111111
17 14 26 100 0.111103
20 14 26 100 0.111107
0 15 26 100 2.34625e-05
13 15 26 100 0.0555523
14 15 26 100 3.12381e-06
15 15 26 100 0.444432
16 15 26 100 0.166663
17 15 26 100 0.111105
18 15 26 100 0.11111
21 15 26 100 0.111111
0 16 26 100 1.95771e-06
14 16 26 100 0.0555556
16 16 26 100 0.444444
17 16 26 100 0.166666
18 16 26 100 0.111111
19 16 26 100 0.111111
22 16 26 100 0.11111
0 17 26 100 0.0345122
15 17 26 100 0.0555516
17 17 26 100 0.404047
18 17 26 100 0.166661
19 17 26 100 0.117014
20 17 26 100 0.111103
23 17 26 100 0.111111
0 18 26 100 1.28279e-05
16 18 26 100 0.0555556
18 18 26 100 0.407268
19 18 26 100 0.179508
20 18 26 100 0.111111
21 18 26 100 0.135424
23 18 26 100 9.00258e-06
24 18 26 100 0.111111
0 19 26 100 1.36577e-05
17 19 26 100 0.0555556
19 19 26 100 0.333321
20 19 26 100 0.166658
21 19 26 100 0.111118
22 19 26 100 0.21242
24 19 26 100 0.00980179
25 19 26 100 0.111111
0 20 26 100 1.14793e-05
19 20 26 100 0.0555556
20 20 26 100 0.277777
21 20 26 100 0.190774
22 20 26 100 0.0555556
23 20 26 100 0.222215
24 20 26 100 0.0314444
25 20 26 100 0.0555556
26 20 26 100 0.111111
0 21 26 100 1.3302e-05
20 21 26 100 0.0671602
21 21 26 100 0.245334
22 21 26 100 0.187494
23 21 26 100 0.0625
24 21 26 100 0.187498
25 21 26 100 0.0625
26 21 26 100 0.1875
0 22 26 100 6.7186e-06
21 22 26 100 0.153846
22 22 26 100 0.230769
23 22 26 100 0.230765
24 22 26 100 0.0769204
25 22 26 100 0.230769
26 22 26 100 0.0769231
0 23 26 100 1.52083e-05
22 23 26 100 0.166666
23 23 26 100 0.166658
24 23 26 100 0.249994
25 23 26 100 0.166667
26 23 26 100 0.25
0 24 26 100 9.93963e-06
23 24 26 100 0.222214
24 24 26 100 0.222454
25 24 26 100 0.333099
26 24 26 100 0.222222
0 25 26 100 0.142853
22 25 26 100 3.64321e-06
24 25 26 100 0.285714
25 25 26 100 0.285714
26 25 26 100 0.285714
25 26 26 100 0.6
26 26 26 100 0.4
26 27 26 100 1
0 1 27 100 1.39835e-05
1 1 27 100 0.857131
2 1 27 100 0.0714286
5 1 27 100 0.0714255
6 1 27 100 1.2063e-06
0 2 27 100 0.0714584
2 2 27 100 0.785696
3 2 27 100 0.0714283
7 2 27 100 0.0714174
0 3 27 100 0.0714251
1 3 27 100 0.0714286
3 3 27 100 0.785713
4 3 27 100 0.0195384
6 3 27 100 0.0444133
10 3 27 100 0.00747844
18 3 27 100 1.37495e-06
21 3 27 100 1.36963e-06
0 4 27 100 7.22468e-06
1 4 27 100 0.0714285
2 4 27 100 0.0714281
4 4 27 100 0.785709
11 4 27 100 0.0714272
0 5 27 100 3.23109e-05
2 5 27 100 0.0714099
3 5 27 100 0.0714286
5 5 27 100 0.785703
12 5 27 100 0.0714265
0 6 27 100 4.36665e-05
3 6 27 100 0.0714286
6 6 27 100 0.78567
9 6 27 100 0.0714286
13 6 27 100 0.0714286
0 7 27 100 4.3473e-05
4 7 27 100 0.0714238
7 7 27 100 0.785682
10 7 27 100 0.0714219
14 7 27 100 0.0714286
0 8 27 100 1.25166e-05
5 8 27 100 0.0714286
8 8 27 100 0.714278
9 8 27 100 0.0714273
11 8 27 100 0.0714286
15 8 27 100 0.0714252
0 9 27 100 7.00627e-06
6 9 27 100 0.0714284
9 9 27 100 0.714279
10 9 27 100 0.0714286
12 9 27 100 0.0714286
16 9 27 100 0.0714286
0 10 27 100 3.16362e-05
7 10 27 100 0.0714286
10 10 27 100 0.714254
11 10 27 100 0.0714286
13 10 27 100 0.0714286
17 10 27 100 0.0714286
0 11 27 100 1.83789e-05
8 11 27 100 0.0714286
11 11 27 100 0.714278
12 11 27 100 0.0714174
14 11 27 100 0.0714286
18 11 27 100 0.0714286
0 12 27 100 1.83089e-05
9 12 27 100 0.0714286
12 12 27 100 0.714272
13 12 27 100 0.0714286
15 12 27 100 0.0714238
19 12 27 100 0.0714282
0 13 27 100 1.30064e-05
10 13 27 100 0.0714286
13 13 27 100 0.714273
14 13 27 100 0.0714286
16 13 27 100 0.0714286
20 13 27 100 0.0714286
0 14 27 100 1.29369e-05
11 14 27 100 0.0714286
14 14 27 100 0.642846
15 14 27 100 0.142855
17 14 27 100 0.0714286
21 14 27 100 0.0714286
0 15 27 100 0.0224216
12 15 27 100 0.0714286
15 15 27 100 0.571416
16 15 27 100 0.142857
18 15 27 100 0.0714219
22 15 27 100 0.0714283
25 15 27 100 0.0490265
0 16 27 100 1.47823e-05
13 16 27 100 0.0714271
16 16 27 100 0.571415
17 16 27 100 0.142857
19 16 27 100 0.0714286
23 16 27 100 0.0529045
24 16 27 100 0.0185241
26 16 27 100 0.0714286
0 17 27 100 0.000398821
14 17 27 100 0.0714286
15 17 27 100 0.0710366
17 17 27 100 0.483383
18 17 27 100 0.159467
19 17 27 100 0.0714286
20 17 27 100 0.0714286
25 17 27 100 0.0714286
0 18 27 100 3.84353e-05
15 18 27 100 0.0714286
16 18 27 100 0.0714286
18 18 27 100 0.428542
19 18 27 100 0.214277
20 18 27 100 0.0714286
21 18 27 100 0.0714286
26 18 27 100 0.0714286
0 19 27 100 1.27643e-05
16 19 27 100 0.0714265
17 19 27 100 0.071425
19 19 27 100 0.428564
20 19 27 100 0.214286
21 19 27 100 0.0714286
22 19 27 100 0.0714286
27 19 27 100 0.0714286
0 20 27 100 1.94322e-05
4 20 27 100 4.92565e-06
17 20 27 100 0.0769231
18 20 27 100 0.0769231
20 20 27 100 0.384596
21 20 27 100 0.230769
22 20 27 100 0.153846
23 20 27 100 0.0769175
0 21 27 100 2.00167e-05
18 21 27 100 0.0769181
19 21 27 100 0.0769231
21 21 27 100 0.384615
22 21 27 100 0.230761
23 21 27 100 0.153839
24 21 27 100 0.0769231
0 22 27 100 1.96225e-05
19 22 27 100 0.0769209
20 22 27 100 0.0769231
22 22 27 100 0.307687
23 22 27 100 0.230769
24 22 27 100 0.230758
25 22 27 100 0.0769226
0 23 27 100 7.54094e-06
20 23 27 100 0.0769231
21 23 27 100 0.0769231
23 23 27 100 0.230769
24 23 27 100 0.230767
25 23 27 100 0.307687
26 23 27 100 0.0769231
0 24 27 100 7.03638e-06
21 24 27 100 0.0769181
22 24 27 100 0.0769231
24 24 27 100 0.230768
25 24 27 100 0.230768
26 24 27 100 0.230769
27 24 27 100 0.153846
0 25 27 100 2.60487e-06
22 25 27 100 0.0909065
23 25 27 100 0.0909091
25 25 27 100 0.272727
26 25 27 100 0.272727
27 25 27 100 0.272727
23 26 27 100 0.125
24 26 27 100 0.125
26 26 27 100 0.375
27 26 27 100 0.375
24 27 27 100 0.199999
27 27 27 100 0.800001
0 28 27 100 2.86535e-05
25 28 27 100 0.999971
26 29 27 100 1
27 30 27 100 1
1 1 28 100 1
0 2 28 100 1.39149e-05
2 2 28 100 0.999986
0 3 28 100 1.71829e-05
3 3 28 100 0.999983
0 4 28 100 9.58939e-06
4 4 28 100 0.962251
7 4 28 100 0.0377398
0 5 28 100 1.56944e-05
5 5 28 100 0.929663
6 5 28 100 0.0217415
8 5 28 100 0.0485799
0 6 28 100 1.59548e-05
6 6 28 100 0.883812
7 6 28 100 0.0384579
8 6 28 100 0.00665561
9 6 28 100 0.0605694
10 6 28 100 0.0104882
11 6 28 100 8.50399e-07
0 7 28 100 1.54155e-05
7 7 28 100 0.855357
8 7 28 100 0.0384615
10 7 28 100 0.0384589
11 7 28 100 0.0384607
13 7 28 100 0.0104113
21 7 28 100 0.00921535
26 7 28 100 0.00961953
0 8 28 100 9.29213e-06
8 8 28 100 0.846148
9 8 28 100 0.0384615
11 8 28 100 0.0384579
12 8 28 100 0.0384615
28 8 28 100 0.0384615
0 9 28 100 3.255e-05
9 9 28 100 0.879967
10 9 28 100 0.04
12 9 28 100 0.04
13 9 28 100 0.04
0 10 28 100 4.32855e-06
10 10 28 100 0.839998
11 10 28 100 0.0400001
12 10 28 100 0.0400001
13 10 28 100 0.0399973
14 10 28 100 0.0399999
0 11 28 100 5.17384e-06
11 11 28 100 0.821238
12 11 28 100 0.0587571
13 11 28 100 0.0399994
14 11 28 100 0.04
15 11 28 100 0.04
0 12 28 100 2.4938e-05
12 12 28 100 0.793921
13 12 28 100 0.0799977
14 12 28 100 0.0460595
15 12 28 100 0.0399973
16 12 28 100 0.0399992
0 13 28 100 0.0400086
8 13 28 100 7.1775e-06
13 13 28 100 0.713469
14 13 28 100 0.0843241
15 13 28 100 0.04
16 13 28 100 0.04
17 13 28 100 0.04
18 13 28 100 0.0201648
24 13 28 100 0.0220264
0 14 28 100 0.000424642
13 14 28 100 0.04
14 14 28 100 0.639575
15 14 28 100 0.0799997
16 14 28 100 0.04
17 14 28 100 0.04
18 14 28 100 0.0399999
20 14 28 100 0.0231913
22 14 28 100 0.0168087
27 14 28 100 0.04
28 14 28 100 0.04
0 15 28 100 1.19281e-05
14 15 28 100 0.0833334
15 15 28 100 0.583321
16 15 28 100 0.125
17 15 28 100 0.0416667
18 15 28 100 0.0416667
19 15 28 100 0.0416667
23 15 28 100 0.0416667
28 15 28 100 0.0416667
0 16 28 100 1.8136e-05
15 16 28 100 0.0869551
16 16 28 100 0.608686
17 16 28 100 0.130435
18 16 28 100 0.0434715
19 16 28 100 0.0434783
20 16 28 100 0.0434783
24 16 28 100 0.0434783
0 17 28 100 2.97233e-05
16 17 28 100 0.0869488
17 17 28 100 0.608681
18 17 28 100 0.130428
19 17 28 100 0.0434783
20 17 28 100 0.0434783
21 17 28 100 0.0434783
25 17 28 100 0.0434783
0 18 28 100 2.29706e-05
17 18 28 100 0.0869561
18 18 28 100 0.564519
19 18 28 100 0.130435
20 18 28 100 0.065211
21 18 28 100 0.0434753
22 18 28 100 0.0434783
25 18 28 100 0.00914866
26 18 28 100 0.0434783
27 18 28 100 0.0132753
0 19 28 100 1.00048e-05
18 19 28 100 0.0869565
19 19 28 100 0.410446
20 19 28 100 0.130434
21 19 28 100 0.173811
22 19 28 100 0.0679088
23 19 28 100 0.043477
25 19 28 100 3.76207e-05
27 19 28 100 0.0434783
28 19 28 100 0.0434406
0 20 28 100 1.42777e-05
19 20 28 100 0.0909088
20 20 28 100 0.409081
21 20 28 100 0.136361
22 20 28 100 0.181817
23 20 28 100 0.0909092
24 20 28 100 0.0454546
28 20 28 100 0.0454546
0 21 28 100 1.66102e-05
20 21 28 100 0.0952381
21 21 28 100 0.404696
22 21 28 100 0.166723
23 21 28 100 0.190472
24 21 28 100 0.0952353
25 21 28 100 0.0476181
0 22 28 100 9.0619e-06
21 22 28 100 0.0952345
22 22 28 100 0.380947
23 22 28 100 0.190476
24 22 28 100 0.190476
25 22 28 100 0.0952381
26 22 28 100 0.047619
0 23 28 100 2.18541e-05
22 23 28 100 0.0952379
23 23 28 100 0.380939
24 23 28 100 0.142855
25 23 28 100 0.19047
26 23 28 100 0.0952382
27 23 28 100 0.0476191
28 23 28 100 0.0476191
0 24 28 100 1.40845e-05
23 24 28 100 0.149999
24 24 28 100 0.313851
25 24 28 100 0.15
26 24 28 100 0.236135
27 24 28 100 0.1
28 24 28 100 0.05
0 25 28 100 8.07698e-07
24 25 28 100 0.157895
25 25 28 100 0.315788
26 25 28 100 0.157895
27 25 28 100 0.263158
28 25 28 100 0.105263
0 26 28 100 9.02925e-07
25 26 28 100 0.117647
26 26 28 100 0.411764
27 26 28 100 0.17647
28 26 28 100 0.294118
0 27 28 100 0.0833419
26 27 28 100 0.166658
27 27 28 100 0.5
28 27 28 100 0.25
27 28 28 100 0.333333
28 28 28 100 0.666667
28 29 28 100 1
1 1 29 100 1
0 2 29 100 3.05159e-05
2 2 29 100 0.971585
7 2 29 100 0.0283842
0 3 29 100 1.55847e-05
3 3 29 100 0.949986
8 3 29 100 0.0499981
0 4 29 100 0.0064593
2 4 29 100 0.000189895
3 4 29 100 0.0329679
4 4 29 100 0.910383
9 4 29 100 0.05
0 5 29 100 0.0488393
3 5 29 100 0.00116825
5 5 29 100 0.899983
6 5 29 100 9.14695e-06
10 5 29 100 0.05
0 6 29 100 7.15032e-06
4 6 29 100 0.05
6 6 29 100 0.899995
11 6 29 100 0.0499981
0 7 29 100 3.51263e-05
7 7 29 100 0.899965
8 7 29 100 0.0168414
10 7 29 100 0.0165789
12 7 29 100 0.05
16 7 29 100 0.0165797
0 8 29 100 1.07038e-05
8 8 29 100 0.800657
11 8 29 100 0.0993322
13 8 29 100 0.05
17 8 29 100 0.05
0 9 29 100 6.31665e-06
9 9 29 100 0.749994
10 9 29 100 0.05
12 9 29 100 0.1
14 9 29 100 0.05
18 9 29 100 0.05
0 10 29 100 1.18322e-05
10 10 29 100 0.749988
12 10 29 100 0.05
13 10 29 100 0.1
15 10 29 100 0.0500001
19 10 29 100 0.0500001
0 11 29 100 2.63178e-05
11 11 29 100 0.749976
13 11 29 100 0.05
14 11 29 100 0.1
16 11 29 100 0.0499981
20 11 29 100 0.05
0 12 29 100 2.01941e-05
12 12 29 100 0.699987
14 12 29 100 0.05
15 12 29 100 0.1
16 12 29 100 1.03071e-06
17 12 29 100 0.05
19 12 29 100 0.0499919
21 12 29 100 0.05
0 13 29 100 1.14183e-05
13 13 29 100 0.611487
15 13 29 100 0.099992
16 13 29 100 0.138511
18 13 29 100 0.0499981
20 13 29 100 0.05
22 13 29 100 0.0499998
0 14 29 100 3.43648e-06
13 14 29 100 1.01493e-05
14 14 29 100 0.599989
16 14 29 100 0.05
17 14 29 100 0.2
19 14 29 100 0.0499974
21 14 29 100 0.05
23 14 29 100 0.05
0 15 29 100 2.47209e-06
14 15 29 100 0.05
15 15 29 100 0.549998
17 15 29 100 0.05
18 15 29 100 0.2
20 15 29 100 0.05
22 15 29 100 0.05
24 15 29 100 0.05
0 16 29 100 1.89751e-05
15 16 29 100 0.0499979
16 16 29 100 0.549994
18 16 29 100 0.049992
19 16 29 100 0.199998
21 16 29 100 0.0499996
23 16 29 100 0.05
25 16 29 100 0.049999
0 17 29 100 0.0500078
4 17 29 100 9.98545e-07
16 17 29 100 0.05
17 17 29 100 0.549991
19 17 29 100 0.05
20 17 29 100 0.15
22 17 29 100 0.05
24 17 29 100 0.05
26 17 29 100 0.05
0 18 29 100 5.08286e-06
17 18 29 100 0.05
18 18 29 100 0.549999
19 18 29 100 0.049998
20 18 29 100 0.05
21 18 29 100 0.149999
23 18 29 100 0.05
25 18 29 100 0.05
27 18 29 100 0.049999
0 19 29 100 0.0502026
18 19 29 100 0.05
19 19 29 100 0.421501
20 19 29 100 0.0499994
21 19 29 100 0.0782982
22 19 29 100 0.199997
24 19 29 100 0.05
26 19 29 100 0.05
27 19 29 100 1.01183e-06
28 19 29 100 0.05
0 20 29 100 1.33074e-05
19 20 29 100 0.1
20 20 29 100 0.391093
21 20 29 100 0.05
22 20 29 100 0.1
23 20 29 100 0.2
25 20 29 100 0.0588964
27 20 29 100 0.0499968
29 20 29 100 0.05
0 21 29 100 1.79174e-05
20 21 29 100 0.105263
21 21 29 100 0.385327
23 21 29 100 0.157894
24 21 29 100 0.210526
25 21 29 100 0.00941959
26 21 29 100 0.0526296
27 21 29 100 0.0262903
28 21 29 100 0.0526316
0 22 29 100 8.31556e-06
21 22 29 100 0.075031
22 22 29 100 0.368421
23 22 29 100 0.0302322
24 22 29 100 0.157894
25 22 29 100 0.210519
27 22 29 100 0.0526316
28 22 29 100 0.0526316
29 22 29 100 0.0526316
0 23 29 100 1.60633e-05
22 23 29 100 0.0555553
23 23 29 100 0.388882
24 23 29 100 0.055555
25 23 29 100 0.166658
26 23 29 100 0.222222
28 23 29 100 0.0555556
29 23 29 100 0.0555556
0 24 29 100 1.33026e-05
23 24 29 100 0.0588235
24 24 29 100 0.411752
25 24 29 100 0.0588235
26 24 29 100 0.17647
27 24 29 100 0.2135
28 24 29 100 0.021794
29 24 29 100 0.0588235
0 25 29 100 9.37647e-07
24 25 29 100 0.0625
25 25 29 100 0.4375
26 25 29 100 0.0625
27 25 29 100 0.187499
28 25 29 100 0.1875
29 25 29 100 0.0625
0 26 29 100 1.65549e-05
25 26 29 100 0.0666643
26 26 29 100 0.466653
27 26 29 100 0.0666659
28 26 29 100 0.2
29 26 29 100 0.2
0 27 29 100 1.88726e-05
26 27 29 100 0.0833334
27 27 29 100 0.583314
28 27 29 100 0.0833334
29 27 29 100 0.25
0 28 29 100 7.61368e-06
27 28 29 100 0.111103
28 28 29 100 0.777778
29 28 29 100 0.111111
28 29 29 100 0.125
29 29 29 100 0.875
29 30 29 100 1
1 1 30 100 1
0 2 30 100 9.34692e-06
2 2 30 100 0.949991
20 2 30 100 0.05
0 3 30 100 0.0220169
3 3 30 100 0.949982
16 3 30 100 0.0280013
0 4 30 100 1.54504e-05
4 4 30 100 0.94999
15 4 30 100 0.0499942
0 5 30 100 2.8559e-05
2 5 30 100 0.05
5 5 30 100 0.949971
0 6 30 100 2.23413e-06
3 6 30 100 0.05
6 6 30 100 0.949998
0 7 30 100 0.0500077
4 7 30 100 0.0499985
7 7 30 100 0.749993
9 7 30 100 0.1
10 7 30 100 0.05
17 7 30 100 1.12744e-06
0 8 30 100 2.46851e-05
5 8 30 100 0.05
7 8 30 100 0.0499966
8 8 30 100 0.699978
9 8 30 100 0.05
10 8 30 100 0.1
11 8 30 100 0.0499996
19 8 30 100 6.05324e-07
0 9 30 100 0.0999997
3 9 30 100 1.06909e-06
4 9 30 100 1.25982e-06
6 9 30 100 0.0500001
8 9 30 100 0.0500001
9 9 30 100 0.65
11 9 30 100 0.0999964
12 9 30 100 0.0500013
0 10 30 100 0.0422519
6 10 30 100 6.28931e-07
9 10 30 100 0.143105
10 10 30 100 0.609334
12 10 30 100 0.107445
13 10 30 100 0.0593159
15 10 30 100 0.00931951
16 10 30 100 0.0146738
18 10 30 100 0.00727135
20 10 30 100 0.00728253
0 11 30 100 1.22046e-05
7 11 30 100 0.0500001
9 11 30 100 0.05
10 11 30 100 0.0999999
11 11 30 100 0.569024
13 11 30 100 0.130964
14 11 30 100 0.0500001
21 11 30 100 0.0500001
0 12 30 100 6.07114e-07
8 12 30 100 0.05
10 12 30 100 0.05
11 12 30 100 0.1
12 12 30 100 0.549999
14 12 30 100 0.15
15 12 30 100 0.05
22 12 30 100 0.0499999
0 13 30 100 2.17359e-05
9 13 30 100 0.0499989
11 13 30 100 0.0499991
12 13 30 100 0.0999971
13 13 30 100 0.54999
15 13 30 100 0.149997
16 13 30 100 0.049995
21 13 30 100 1.07571e-06
23 13 30 100 0.05
0 14 30 100 5.93627e-07
10 14 30 100 0.0499996
12 14 30 100 0.05
13 14 30 100 0.1
14 14 30 100 0.55
16 14 30 100 0.15
17 14 30 100 0.05
24 14 30 100 0.05
0 15 30 100 8.02503e-06
11 15 30 100 0.05
13 15 30 100 0.05
14 15 30 100 0.0999999
15 15 30 100 0.530173
17 15 30 100 0.15
18 15 30 100 0.049992
24 15 30 100 0.0142628
25 15 30 100 0.05
26 15 30 100 0.00556416
0 16 30 100 8.42579e-06
12 16 30 100 0.05
14 16 30 100 0.05
15 16 30 100 0.0999999
16 16 30 100 0.499997
18 16 30 100 0.149995
19 16 30 100 0.05
26 16 30 100 0.0600541
27 16 30 100 0.0399459
0 17 30 100 0.000282113
13 17 30 100 0.05
15 17 30 100 0.0499952
16 17 30 100 0.0999988
17 17 30 100 0.499733
19 17 30 100 0.149992
20 17 30 100 0.0499991
27 17 30 100 0.05
29 17 30 100 0.05
0 18 30 100 6.42926e-06
14 18 30 100 0.012695
16 18 30 100 0.05
17 18 30 100 0.1
18 18 30 100 0.449997
19 18 30 100 3.00067e-06
20 18 30 100 0.199993
21 18 30 100 0.05
24 18 30 100 0.037305
28 18 30 100 0.05
30 18 30 100 0.05
0 19 30 100 2.71629e-05
17 19 30 100 0.0526279
18 19 30 100 0.105263
19 19 30 100 0.439303
21 19 30 100 0.223338
22 19 30 100 0.0627491
25 19 30 100 0.0526315
28 19 30 100 0.0114282
29 19 30 100 0.0526316
0 20 30 100 6.78525e-07
18 20 30 100 0.0526316
19 20 30 100 0.105263
20 20 30 100 0.36858
21 20 30 100 0.0524664
22 20 30 100 0.210526
23 20 30 100 0.0526369
26 20 30 100 0.0526316
30 20 30 100 0.105263
0 21 30 100 2.37658e-05
19 21 30 100 0.0588246
20 21 30 100 0.117647
21 21 30 100 0.376732
22 21 30 100 0.0350296
23 21 30 100 0.235275
24 21 30 100 0.117646
27 21 30 100 0.0588217
0 22 30 100 0.0221816
20 22 30 100 0.0588225
21 22 30 100 0.0588235
22 22 30 100 0.36396
23 22 30 100 0.0588224
24 22 30 100 0.260919
25 22 30 100 0.117647
28 22 30 100 0.0588235
0 23 30 100 0.000178833
21 23 30 100 0.0588236
22 23 30 100 0.117493
23 23 30 100 0.294106
24 23 30 100 0.0588236
25 23 30 100 0.294104
26 23 30 100 0.117647
29 23 30 100 0.0588236
0 24 30 100 0.0587544
4 24 30 100 8.27874e-07
22 24 30 100 0.117647
23 24 30 100 8.17965e-05
24 24 30 100 0.29411
25 24 30 100 0.0588235
26 24 30 100 0.294112
27 24 30 100 0.117647
30 24 30 100 0.0588235
0 25 30 100 0.00515869
23 25 30 100 0.182362
25 25 30 100 0.291292
26 25 30 100 0.0625
27 25 30 100 0.333692
28 25 30 100 0.124995
0 26 30 100 0.0625075
13 26 30 100 8.59138e-07
22 26 30 100 1.46871e-06
24 26 30 100 0.125
26 26 30 100 0.267155
27 26 30 100 0.0624961
28 26 30 100 0.357841
29 26 30 100 0.124998
0 27 30 100 0.000192588
23 27 30 100 0.0624999
25 27 30 100 0.124996
27 27 30 100 0.249812
28 27 30 100 0.0625
29 27 30 100 0.375
30 27 30 100 0.125
0 28 30 100 0.000171457
24 28 30 100 0.071264
26 28 30 100 0.14285
28 28 30 100 0.285714
29 28 30 100 0.0714286
30 28 30 100 0.428572
25 29 30 100 0.125
27 29 30 100 0.25
29 29 30 100 0.5
30 29 30 100 0.125
0 30 30 100 1.99175e-05
26 30 30 100 0.142857
28 30 30 100 0.285695
30 30 30 100 0.571429
27 31 30 100 0.333333
29 31 30 100 0.666667
28 32 30 100 0.333333
30 32 30 100 0.666667
29 33 30 100 1
30 34 30 100 1
1 1 31 100 1
0 2 31 100 0.083339
1 2 31 100 2.98916e-06
2 2 31 100 0.916658
0 3 31 100 1.75132e-05
2 3 31 100 0.0833333
3 3 31 100 0.916649
0 4 31 100 1.75439e-05
3 4 31 100 0.0833333
4 4 31 100 0.916649
0 5 31 100 2.13559e-06
4 5 31 100 0.0833333
5 5 31 100 0.916665
0 6 31 100 1.52015e-05
5 6 31 100 0.0833332
6 6 31 100 0.916652
0 7 31 100 3.55726e-05
6 7 31 100 0.0833334
7 7 31 100 0.916631
0 8 31 100 1.5973e-05
7 8 31 100 0.0833333
8 8 31 100 0.916651
0 9 31 100 2.38342e-05
8 9 31 100 0.0833266
9 9 31 100 0.91665
0 10 31 100 2.1277e-05
9 10 31 100 0.0833329
10 10 31 100 0.916646
0 11 31 100 5.87062e-05
10 11 31 100 0.0833334
11 11 31 100 0.916608
0 12 31 100 2.24552e-05
11 12 31 100 0.0833266
12 12 31 100 0.916651
0 13 31 100 2.11475e-05
12 13 31 100 0.0833333
13 13 31 100 0.916646
0 14 31 100 1.5762e-05
13 14 31 100 0.0833333
14 14 31 100 0.916651
0 15 31 100 3.00281e-05
14 15 31 100 0.0833333
15 15 31 100 0.916637
0 16 31 100 5.36563e-06
15 16 31 100 0.166667
16 16 31 100 0.833328
0 17 31 100 2.73315e-06
15 17 31 100 0.0833334
16 17 31 100 0.0833328
17 17 31 100 0.833331
0 18 31 100 3.47727e-05
16 18 31 100 0.0832986
17 18 31 100 0.0833334
18 18 31 100 0.833333
0 19 31 100 2.48841e-05
18 19 31 100 0.166667
19 19 31 100 0.833308
0 20 31 100 3.20496e-05
19 20 31 100 0.166667
20 20 31 100 0.833301
0 21 31 100 1.39314e-06
20 21 31 100 0.166665
21 21 31 100 0.833333
0 22 31 100 2.68024e-05
21 22 31 100 0.166664
22 22 31 100 0.749976
31 22 31 100 0.0833334
0 23 31 100 1.48919e-06
22 23 31 100 0.181818
23 23 31 100 0.81818
23 24 31 100 0.181818
24 24 31 100 0.818182
0 25 31 100 3.18777e-05
24 25 31 100 0.181817
25 25 31 100 0.818151
0 26 31 100 1.1741e-05
25 26 31 100 0.181818
26 26 31 100 0.727263
27 26 31 100 0.000212239
28 26 31 100 0.0906951
0 27 31 100 2.84889e-05
26 27 31 100 0.181801
27 27 31 100 0.727261
29 27 31 100 0.0909092
0 28 31 100 2.43358e-05
27 28 31 100 0.250337
28 28 31 100 0.63645
29 28 31 100 0.0222803
30 28 31 100 0.0909091
28 29 31 100 0.181818
29 29 31 100 0.636364
30 29 31 100 0.0909091
31 29 31 100 0.0909091
29 30 31 100 0.2
30 30 31 100 0.7
31 30 31 100 0.1
30 31 31 100 0.222222
31 31 31 100 0.777778
31 32 31 100 1
1 1 32 100 0.958333
27 1 32 100 0.0416666
0 2 32 100 0.000166345
2 2 32 100 0.830523
3 2 32 100 0.127638
5 2 32 100 6.57009e-06
28 2 32 100 0.0416664
0 3 32 100 1.88428e-05
2 3 32 100 0.0416667
3 3 32 100 0.749982
4 3 32 100 0.166666
29 3 32 100 0.0416666
0 4 32 100 4.72189e-05
3 4 32 100 0.0416619
4 4 32 100 0.749961
5 4 32 100 0.0833301
6 4 32 100 0.0416667
8 4 32 100 0.0227641
10 4 32 100 0.0189026
30 4 32 100 0.0416667
0 5 32 100 8.26448e-05
4 5 32 100 0.083262
5 5 32 100 0.708326
6 5 32 100 0.0833301
7 5 32 100 0.0416662
11 5 32 100 0.0416667
31 5 32 100 0.0416667
0 6 32 100 0.0227721
5 6 32 100 0.0833329
6 6 32 100 0.624981
7 6 32 100 0.166655
8 6 32 100 0.0416659
12 6 32 100 0.0416664
26 6 32 100 0.0189266
0 7 32 100 0.041625
1 7 32 100 5.95854e-05
6 7 32 100 0.0833334
7 7 32 100 0.624986
8 7 32 100 0.166663
9 7 32 100 0.0416667
13 7 32 100 0.0416663
0 8 32 100 5.88988e-05
2 8 32 100 0.0416667
7 8 32 100 0.0886776
8 8 32 100 0.618559
9 8 32 100 0.167704
10 8 32 100 0.0416667
14 8 32 100 0.0416667
0 9 32 100 2.03001e-05
3 9 32 100 0.0416667
8 9 32 100 0.0833299
9 9 32 100 0.62499
10 9 32 100 0.166659
11 9 32 100 0.0416667
15 9 32 100 0.0416667
0 10 32 100 1.36068e-05
4 10 32 100 0.0416667
9 10 32 100 0.0833319
10 10 32 100 0.458342
11 10 32 100 0.208327
12 10 32 100 0.0416664
14 10 32 100 0.0284667
15 10 32 100 0.0416666
16 10 32 100 0.0965189
0 11 32 100 2.34102e-05
5 11 32 100 0.0416667
10 11 32 100 0.0833334
11 11 32 100 0.458317
12 11 32 100 0.208333
13 11 32 100 0.0416667
16 11 32 100 0.0416636
17 11 32 100 0.0833298
18 11 32 100 0.0195757
20 11 32 100 0.0220908
0 12 32 100 4.1632e-05
6 12 32 100 0.0416667
11 12 32 100 0.0833334
12 12 32 100 0.499948
13 12 32 100 0.166678
14 12 32 100 0.0416661
17 12 32 100 0.0416667
18 12 32 100 0.0833331
23 12 32 100 0.0416667
0 13 32 100 1.59067e-05
7 13 32 100 0.0416667
12 13 32 100 0.0833327
13 13 32 100 0.416662
14 13 32 100 0.238994
15 13 32 100 0.0416667
16 13 32 100 0.0110018
18 13 32 100 0.0416625
19 13 32 100 0.0833334
24 13 32 100 0.0416648
0 14 32 100 0.000910994
8 14 32 100 0.0416667
13 14 32 100 0.0833334
14 14 32 100 0.415756
15 14 32 100 0.208333
16 14 32 100 0.0416667
17 14 32 100 0.0416667
19 14 32 100 0.0416667
20 14 32 100 0.0833334
25 14 32 100 0.0416667
0 15 32 100 1.98871e-05
9 15 32 100 0.0416667
14 15 32 100 0.124999
15 15 32 100 0.374995
16 15 32 100 0.20833
17 15 32 100 0.0416664
18 15 32 100 0.0416657
20 15 32 100 0.0416637
21 15 32 100 0.0833274
26 15 32 100 0.0416664
0 16 32 100 1.68737e-05
10 16 32 100 0.0416667
15 16 32 100 0.124997
16 16 32 100 0.374993
17 16 32 100 0.20833
18 16 32 100 0.0416667
19 16 32 100 0.0416634
21 16 32 100 0.0416667
22 16 32 100 0.0833333
27 16 32 100 0.0416667
0 17 32 100 1.80266e-05
11 17 32 100 0.0416667
16 17 32 100 0.124992
17 17 32 100 0.374997
18 17 32 100 0.208326
19 17 32 100 0.0416667
20 17 32 100 0.0416667
22 17 32 100 0.0416667
23 17 32 100 0.0710813
24 17 32 100 0.012252
28 17 32 100 0.0416667
0 18 32 100 1.81812e-05
12 18 32 100 0.0416664
17 18 32 100 0.124999
18 18 32 100 0.334638
19 18 32 100 0.208333
20 18 32 100 0.0820217
21 18 32 100 0.0416644
23 18 32 100 0.0416637
24 18 32 100 0.0416645
26 18 32 100 0.0416652
29 18 32 100 0.0416666
0 19 32 100 0.00188274
13 19 32 100 0.0416658
18 19 32 100 0.125
19 19 32 100 0.373118
20 19 32 100 0.166667
21 19 32 100 0.0416667
22 19 32 100 0.0416667
23 19 32 100 0.0416667
24 19 32 100 0.0416667
25 19 32 100 0.0416667
27 19 32 100 0.0416667
30 19 32 100 0.0416667
0 20 32 100 9.55674e-06
14 20 32 100 0.0416667
19 20 32 100 0.124997
20 20 32 100 0.374995
21 20 32 100 0.166667
22 20 32 100 0.0416667
23 20 32 100 0.0416667
24 20 32 100 0.0416663
25 20 32 100 0.0416667
26 20 32 100 0.0416664
28 20 32 100 0.0416656
31 20 32 100 0.0416667
0 21 32 100 1.19019e-05
15 21 32 100 0.0416664
20 21 32 100 0.124999
21 21 32 100 0.35081
22 21 32 100 0.125
23 21 32 100 0.0924645
24 21 32 100 0.0416667
25 21 32 100 0.0416667
26 21 32 100 0.0416667
27 21 32 100 0.0416667
29 21 32 100 0.0416667
31 21 32 100 0.0150474
32 21 32 100 0.0416667
0 22 32 100 8.53892e-06
16 22 32 100 0.0434783
21 22 32 100 0.130431
22 22 32 100 0.347826
23 22 32 100 0.130434
24 22 32 100 0.0869533
25 22 32 100 0.0434778
26 22 32 100 0.0434783
27 22 32 100 0.0434783
28 22 32 100 0.0434783
30 22 32 100 0.0434783
32 22 32 100 0.0434783
0 23 32 100 1.82091e-05
17 23 32 100 0.0454524
22 23 32 100 0.136363
23 23 32 100 0.363626
24 23 32 100 0.136358
25 23 32 100 0.0909091
26 23 32 100 0.0454555
27 23 32 100 0.0454543
28 23 32 100 0.0454546
29 23 32 100 0.0454546
31 23 32 100 0.0454546
0 24 32 100 1.42569e-05
18 24 32 100 0.0454546
23 24 32 100 0.136364
24 24 32 100 0.354231
25 24 32 100 0.136363
26 24 32 100 0.0909014
27 24 32 100 0.0454542
28 24 32 100 0.0196228
29 24 32 100 0.0712827
30 24 32 100 0.0548575
32 24 32 100 0.0454546
0 25 32 100 9.94703e-06
19 25 32 100 0.0476167
24 25 32 100 0.142848
25 25 32 100 0.333333
26 25 32 100 0.142858
27 25 32 100 0.114115
28 25 32 100 0.0476191
30 25 32 100 0.0952381
31 25 32 100 0.0763611
0 26 32 100 4.56706e-06
20 26 32 100 0.0476191
25 26 32 100 0.142857
26 26 32 100 0.328465
27 26 32 100 0.142857
28 26 32 100 0.0952376
29 26 32 100 0.0476191
31 26 32 100 0.100103
32 26 32 100 0.0952382
0 27 32 100 7.65387e-06
21 27 32 100 0.0526315
26 27 32 100 0.157892
27 27 32 100 0.287536
28 27 32 100 0.157891
29 27 32 100 0.133515
30 27 32 100 0.0526316
32 27 32 100 0.157895
0 28 32 100 1.93245e-05
22 28 32 100 0.0625001
27 28 32 100 0.1875
28 28 32 100 0.312488
29 28 32 100 0.187499
30 28 32 100 0.187493
31 28 32 100 0.0625001
0 29 32 100 0.0817216
22 29 32 100 0.000556163
28 29 32 100 0.167732
29 29 32 100 0.312492
30 29 32 100 0.187498
31 29 32 100 0.1875
32 29 32 100 0.0625001
0 30 32 100 0.0558464
23 30 32 100 0.0666667
28 30 32 100 0.0108331
29 30 32 100 0.133333
30 30 32 100 0.33332
31 30 32 100 0.2
32 30 32 100 0.2
0 31 32 100 0.0833321
24 31 32 100 0.0833335
30 31 32 100 0.166667
31 31 32 100 0.416667
32 31 32 100 0.25
25 32 32 100 0.111111
29 32 32 100 0.111111
31 32 32 100 0.222222
32 32 32 100 0.555556
30 33 32 100 0.25
32 33 32 100 0.75
31 34 32 100 1
32 35 32 100 1
1 1 33 100 1
0 2 33 100 1.05446e-05
2 2 33 100 0.857132
3 2 33 100 0.104328
5 2 33 100 0.014991
6 2 33 100 0.00565629
11 2 33 100 0.00475967
12 2 33 100 0.0131222
0 3 33 100 0.0697441
3 3 33 100 0.853419
4 3 33 100 0.00162963
6 3 33 100 0.0138092
7 3 33 100 6.90903e-05
10 3 33 100 2.21589e-06
11 3 33 100 0.00715455
13 3 33 100 0.0541726
0 4 33 100 7.71231e-06
4 4 33 100 0.785707
5 4 33 100 0.0714286
6 4 33 100 0.014018
8 4 33 100 2.58325e-05
10 4 33 100 0.0235488
14 4 33 100 0.0890665
16 4 33 100 0.016198
0 5 33 100 1.86426e-05
5 5 33 100 0.759781
6 5 33 100 0.0973436
15 5 33 100 0.0714284
17 5 33 100 0.0714286
0 6 33 100 0.000229349
6 6 33 100 0.642845
7 6 33 100 0.142639
8 6 33 100 0.026802
9 6 33 100 0.0446266
16 6 33 100 0.0714286
18 6 33 100 0.0714286
0 7 33 100 0.0115105
4 7 33 100 0.0599363
7 7 33 100 0.571416
8 7 33 100 0.121911
9 7 33 100 0.0209402
10 7 33 100 0.0714286
17 7 33 100 0.0714286
19 7 33 100 0.0714286
8 8 33 100 0.642857
9 8 33 100 0.0714287
10 8 33 100 0.0714287
11 8 33 100 0.0714281
18 8 33 100 0.0714287
20 8 33 100 0.0714284
0 9 33 100 1.43905e-05
9 9 33 100 0.642849
10 9 33 100 0.0714277
11 9 33 100 0.0714227
12 9 33 100 0.0714287
19 9 33 100 0.0714285
21 9 33 100 0.0714287
0 10 33 100 6.13341e-06
10 10 33 100 0.642851
11 10 33 100 0.0714286
12 10 33 100 0.0714286
13 10 33 100 0.0714286
20 10 33 100 0.0714286
22 10 33 100 0.0714286
0 11 33 100 3.26182e-06
11 11 33 100 0.642854
12 11 33 100 0.0714286
13 11 33 100 0.0714286
14 11 33 100 0.0714286
21 11 33 100 0.0714286
23 11 33 100 0.0714284
0 12 33 100 1.69006e-05
12 12 33 100 0.64285
14 12 33 100 0.142857
15 12 33 100 0.0714209
22 12 33 100 0.0714263
24 12 33 100 0.0714286
0 13 33 100 1.48719e-05
13 13 33 100 0.524761
14 13 33 100 0.0225968
15 13 33 100 0.095487
16 13 33 100 0.142857
19 13 33 100 0.0714262
23 13 33 100 0.0714286
25 13 33 100 0.0714286
0 14 33 100 1.21925e-05
14 14 33 100 0.428565
15 14 33 100 0.0714286
16 14 33 100 0.142857
17 14 33 100 0.142853
20 14 33 100 0.0714286
24 14 33 100 0.0714275
26 14 33 100 0.0714286
0 15 33 100 0.0439233
15 15 33 100 0.384653
16 15 33 100 0.0714286
17 15 33 100 0.142853
18 15 33 100 0.142857
21 15 33 100 0.0714286
25 15 33 100 0.0714272
27 15 33 100 0.0714286
0 16 33 100 0.0711912
2 16 33 100 1.60332e-06
6 16 33 100 1.52917e-06
13 16 33 100 0.000132526
15 16 33 100 0.0714412
16 16 33 100 0.357112
17 16 33 100 0.0714272
18 16 33 100 0.142986
19 16 33 100 0.14285
26 16 33 100 0.0714286
28 16 33 100 0.0714286
0 17 33 100 1.12283e-05
16 17 33 100 0.0714286
17 17 33 100 0.357136
18 17 33 100 0.0714286
19 17 33 100 0.142857
20 17 33 100 0.142854
22 17 33 100 0.0714273
27 17 33 100 0.0714286
29 17 33 100 0.0714285
0 18 33 100 7.52344e-06
17 18 33 100 0.0714286
18 18 33 100 0.357142
19 18 33 100 0.0714286
20 18 33 100 0.142854
21 18 33 100 0.142852
23 18 33 100 0.0714286
28 18 33 100 0.0714286
30 18 33 100 0.0714286
0 19 33 100 0.000916064
18 19 33 100 0.0705125
19 19 33 100 0.357143
20 19 33 100 0.0714283
21 19 33 100 0.142857
22 19 33 100 0.142857
24 19 33 100 0.0714286
29 19 33 100 0.0714286
31 19 33 100 0.0714286
0 20 33 100 1.61231e-05
18 20 33 100 0.0714286
20 20 33 100 0.285708
21 20 33 100 0.0714287
22 20 33 100 0.142857
23 20 33 100 0.142857
25 20 33 100 0.0714287
30 20 33 100 0.142847
32 20 33 100 0.0714287
0 21 33 100 8.41351e-06
19 21 33 100 0.0714286
21 21 33 100 0.229731
22 21 33 100 0.0714286
23 21 33 100 0.19884
24 21 33 100 0.142852
26 21 33 100 0.0714262
31 21 33 100 0.142857
33 21 33 100 0.0714286
20 22 33 100 0.0769232
22 22 33 100 0.230769
23 22 33 100 0.0769232
24 22 33 100 0.230769
25 22 33 100 0.153846
27 22 33 100 0.0769225
32 22 33 100 0.153846
0 23 33 100 2.25855e-05
21 23 33 100 0.0769231
23 23 33 100 0.230756
24 23 33 100 0.0769228
25 23 33 100 0.214737
26 23 33 100 0.153842
27 23 33 100 0.0160271
28 23 33 100 0.0769231
33 23 33 100 0.153846
0 24 33 100 2.79067e-05
22 24 33 100 0.0909089
24 24 33 100 0.272718
25 24 33 100 0.0909092
26 24 33 100 0.181811
27 24 33 100 0.181807
28 24 33 100 0.0909092
29 24 33 100 0.0909092
0 25 33 100 4.79157e-06
23 25 33 100 0.0909091
25 25 33 100 0.272727
26 25 33 100 0.0909091
27 25 33 100 0.181813
28 25 33 100 0.181818
29 25 33 100 0.0909091
30 25 33 100 0.0909091
0 26 33 100 2.46977e-05
24 26 33 100 0.0909091
26 26 33 100 0.185693
27 26 33 100 0.17794
28 26 33 100 0.181815
29 26 33 100 0.181812
30 26 33 100 0.0909015
31 26 33 100 0.0909049
0 27 33 100 8.43847e-06
25 27 33 100 0.0909091
27 27 33 100 0.181818
28 27 33 100 0.181816
29 27 33 100 0.181813
30 27 33 100 0.181817
31 27 33 100 0.0909089
32 27 33 100 0.0909091
26 28 33 100 0.0909091
27 28 33 100 2.03886e-05
28 28 33 100 0.0909119
29 28 33 100 0.181818
30 28 33 100 0.272704
31 28 33 100 0.181818
32 28 33 100 0.090909
33 28 33 100 0.0909091
0 29 33 100 3.271e-06
27 29 33 100 0.0999968
29 29 33 100 0.1
30 29 33 100 0.199999
31 29 33 100 0.271695
32 29 33 100 0.228306
33 29 33 100 0.1
0 30 33 100 1.14834e-05
28 30 33 100 0.111111
30 30 33 100 0.111102
31 30 33 100 0.22222
32 30 33 100 0.222222
33 30 33 100 0.333333
0 31 33 100 1.90551e-05
29 31 33 100 0.166667
31 31 33 100 0.166648
32 31 33 100 0.333333
33 31 33 100 0.333333
30 32 33 100 0.249999
32 32 33 100 0.25
33 32 33 100 0.500001
31 33 33 100 0.5
33 33 33 100 0.5
32 34 33 100 1
33 35 33 100 1
1 1 34 100 0.846154
2 1 34 100 0.0769227
5 1 34 100 0.0327129
10 1 34 100 0.0258326
11 1 34 100 0.0183775
0 2 34 100 4.74386e-06
2 2 34 100 0.769226
4 2 34 100 0.0769231
8 2 34 100 0.0769229
13 2 34 100 0.0769231
0 3 34 100 1.97623e-05
3 3 34 100 0.769219
5 3 34 100 0.0769205
9 3 34 100 0.0769206
14 3 34 100 0.0769201
0 4 34 100 3.14335e-05
4 4 34 100 0.769207
6 4 34 100 0.0769231
10 4 34 100 0.0769152
15 4 34 100 0.0769231
0 5 34 100 1.1271e-05
5 5 34 100 0.769223
7 5 34 100 0.076922
11 5 34 100 0.0769231
16 5 34 100 0.076921
0 6 34 100 8.13983e-06
6 6 34 100 0.769223
8 6 34 100 0.0769232
12 6 34 100 0.0769232
17 6 34 100 0.0769226
0 7 34 100 2.05234e-05
7 7 34 100 0.692288
9 7 34 100 0.0769232
10 7 34 100 0.0441713
11 7 34 100 0.0327508
13 7 34 100 0.0769232
18 7 34 100 0.0769232
0 8 34 100 1.01934e-05
8 8 34 100 0.615375
9 8 34 100 0.0769231
10 8 34 100 0.0769231
12 8 34 100 0.076923
14 8 34 100 0.0769231
19 8 34 100 0.0769229
0 9 34 100 5.09646e-06
9 9 34 100 0.615379
10 9 34 100 0.0769231
11 9 34 100 0.0769231
13 9 34 100 0.0769231
15 9 34 100 0.0769231
20 9 34 100 0.0769231
0 10 34 100 1.02386e-05
10 10 34 100 0.615377
11 10 34 100 0.0769218
12 10 34 100 0.0769231
14 10 34 100 0.0769222
16 10 34 100 0.0769231
21 10 34 100 0.0769231
0 11 34 100 1.62966e-05
11 11 34 100 0.615369
12 11 34 100 0.0769232
13 11 34 100 0.0769226
15 11 34 100 0.0769232
17 11 34 100 0.0769226
22 11 34 100 0.0769232
0 12 34 100 5.78034e-05
2 12 34 100 9.17737e-07
12 12 34 100 0.615384
13 12 34 100 0.0769231
16 12 34 100 0.0769197
18 12 34 100 0.0769231
19 12 34 100 0.0768678
23 12 34 100 0.0769231
0 13 34 100 0.0763303
13 13 34 100 0.615384
14 13 34 100 0.0772187
17 13 34 100 0.0769232
18 13 34 100 0.0002955
19 13 34 100 0.0769232
24 13 34 100 0.0769232
25 13 34 100 1.82906e-06
0 14 34 100 8.99714e-06
14 14 34 100 0.615377
15 14 34 100 0.0769231
18 14 34 100 0.0769231
20 14 34 100 0.153845
25 14 34 100 0.0769231
0 15 34 100 1.1785e-05
15 15 34 100 0.615373
16 15 34 100 0.0769231
19 15 34 100 0.0769231
21 15 34 100 0.153846
26 15 34 100 0.0769231
0 16 34 100 8.23736e-06
16 16 34 100 0.515305
17 16 34 100 0.0769168
18 16 34 100 0.0231913
20 16 34 100 0.0769225
22 16 34 100 0.153846
27 16 34 100 0.0769232
28 16 34 100 0.0768499
29 16 34 100 3.63407e-05
0 17 34 100 1.66453e-06
17 17 34 100 0.397294
18 17 34 100 0.0769232
19 17 34 100 0.0178442
21 17 34 100 0.165181
23 17 34 100 0.188911
28 17 34 100 0.0769232
34 17 34 100 0.0769225
0 18 34 100 1.76531e-05
18 18 34 100 0.416666
19 18 34 100 0.0833304
22 18 34 100 0.166666
24 18 34 100 0.249987
29 18 34 100 0.0833328
0 19 34 100 1.92167e-05
19 19 34 100 0.416657
20 19 34 100 0.0833333
23 19 34 100 0.166667
25 19 34 100 0.249991
30 19 34 100 0.0833333
0 20 34 100 1.41417e-05
20 20 34 100 0.416659
21 20 34 100 0.0833333
24 20 34 100 0.166663
26 20 34 100 0.25
31 20 34 100 0.083331
0 21 34 100 3.83441e-06
21 21 34 100 0.416663
22 21 34 100 0.0833334
25 21 34 100 0.166667
27 21 34 100 0.25
32 21 34 100 0.0833334
0 22 34 100 9.39464e-06
22 22 34 100 0.416657
23 22 34 100 0.0833334
26 22 34 100 0.166667
28 22 34 100 0.25
33 22 34 100 0.0833334
0 23 34 100 2.76957e-05
23 23 34 100 0.416662
24 23 34 100 0.0833178
27 23 34 100 0.166666
29 23 34 100 0.249992
34 23 34 100 0.0833335
0 24 34 100 1.34049e-05
24 24 34 100 0.400761
25 24 34 100 0.0908988
26 24 34 100 0.0537821
28 24 34 100 0.181818
30 24 34 100 0.272728
25 25 34 100 0.363635
26 25 34 100 0.0909092
27 25 34 100 0.0909092
29 25 34 100 0.181818
31 25 34 100 0.272728
0 26 34 100 2.00849e-05
26 26 34 100 0.363622
27 26 34 100 0.0909081
28 26 34 100 0.0909087
30 26 34 100 0.181818
32 26 34 100 0.272723
0 27 34 100 2.27168e-05
27 27 34 100 0.363629
28 27 34 100 0.0909091
29 27 34 100 0.0909031
31 27 34 100 0.181809
33 27 34 100 0.272727
28 28 34 100 0.363636
29 28 34 100 0.0909092
30 28 34 100 0.0909092
32 28 34 100 0.181818
34 28 34 100 0.272728
0 29 34 100 3.587e-05
29 29 34 100 0.424009
30 29 34 100 0.127019
31 29 34 100 0.124987
33 29 34 100 0.32395
0 30 34 100 1.03493e-05
30 30 34 100 0.306818
31 30 34 100 0.193172
32 30 34 100 0.125
34 30 34 100 0.375
0 31 34 100 6.01152e-05
31 31 34 100 0.399963
32 31 34 100 0.399977
33 31 34 100 0.2
32 32 34 100 0.399999
33 32 34 100 0.400001
34 32 34 100 0.2
33 33 34 100 0.5
34 33 34 100 0.5
34 34 34 100 1
1 1 35 100 0.9375
2 1 35 100 0.0177867
3 1 35 100 0.0447133
0 2 35 100 0.0586444
1 2 35 100 0.00181951
2 2 35 100 0.874977
5 2 35 100 0.0624977
26 2 35 100 5.30115e-06
27 2 35 100 0.00205612
0 3 35 100 0.000214068
1 3 35 100 0.0624999
3 3 35 100 0.812232
6 3 35 100 0.125
27 3 35 100 2.24262e-05
31 3 35 100 2.01826e-05
32 3 35 100 1.1293e-05
0 4 35 100 7.70736e-05
2 4 35 100 0.0624333
4 4 35 100 0.81249
7 4 35 100 0.102651
11 4 35 100 0.0223491
0 5 35 100 2.6556e-05
3 5 35 100 0.0625
5 5 35 100 0.812478
8 5 35 100 0.000145754
12 5 35 100 0.0623537
13 5 35 100 0.0624964
0 6 35 100 2.34978e-05
4 6 35 100 0.0624986
6 6 35 100 0.812478
13 6 35 100 0.0625
14 6 35 100 0.0625
0 7 35 100 3.65784e-05
5 7 35 100 0.0625
7 7 35 100 0.812463
14 7 35 100 0.0625
15 7 35 100 0.0625
0 8 35 100 0.000253474
6 8 35 100 0.062355
8 8 35 100 0.749979
9 8 35 100 0.0624125
15 8 35 100 0.0624998
16 8 35 100 0.0625001
0 9 35 100 0.125017
2 9 35 100 8.18133e-07
4 9 35 100 2.25561e-06
6 9 35 100 1.15692e-06
9 9 35 100 0.714432
10 9 35 100 0.035545
14 9 35 100 7.82256e-07
16 9 35 100 0.0624994
17 9 35 100 0.0625001
23 9 35 100 8.91102e-07
0 10 35 100 0.0580574
7 10 35 100 0.0669333
10 10 35 100 0.625011
11 10 35 100 0.0625001
12 10 35 100 0.0622039
14 10 35 100 0.000296139
17 10 35 100 0.0625001
18 10 35 100 0.0624978
0 11 35 100 0.0625241
8 11 35 100 0.0625
11 11 35 100 0.624983
12 11 35 100 0.0624934
15 11 35 100 0.0625
18 11 35 100 0.062499
19 11 35 100 0.0625
0 12 35 100 2.53031e-05
9 12 35 100 0.0624982
10 12 35 100 0.0625
12 12 35 100 0.624988
13 12 35 100 0.0625
17 12 35 100 0.0624894
19 12 35 100 0.0624994
20 12 35 100 0.0625
0 13 35 100 2.19703e-05
10 13 35 100 0.0625
11 13 35 100 0.0625
13 13 35 100 0.585028
14 13 35 100 0.102451
18 13 35 100 0.062499
20 13 35 100 0.0625
21 13 35 100 0.0625
0 14 35 100 4.03864e-05
11 14 35 100 0.0624987
12 14 35 100 0.0625
14 14 35 100 0.547918
15 14 35 100 0.124993
16 14 35 100 0.0145587
19 14 35 100 0.0624933
21 14 35 100 0.0625
22 14 35 100 0.0624978
0 15 35 100 3.63722e-06
12 15 35 100 0.0625001
13 15 35 100 0.0625001
15 15 35 100 0.499997
16 15 35 100 0.145646
17 15 35 100 0.0418531
20 15 35 100 0.0625001
22 15 35 100 0.0625001
23 15 35 100 0.0625001
0 16 35 100 1.25843e-05
13 16 35 100 0.0625001
14 16 35 100 0.0624979
16 16 35 100 0.499997
17 16 35 100 0.124995
18 16 35 100 0.0625001
21 16 35 100 0.0624979
23 16 35 100 0.0625001
24 16 35 100 0.0624984
0 17 35 100 1.35205e-06
14 17 35 100 0.0625
15 17 35 100 0.0625
17 17 35 100 0.499998
18 17 35 100 0.125
19 17 35 100 0.0625
22 17 35 100 0.0625
24 17 35 100 0.0625
25 17 35 100 0.0625
0 18 35 100 3.03085e-05
15 18 35 100 0.0624971
16 18 35 100 0.0625
18 18 35 100 0.499973
19 18 35 100 0.125
20 18 35 100 0.0625
23 18 35 100 0.0625
25 18 35 100 0.0625
26 18 35 100 0.0624993
0 19 35 100 0.0625022
16 19 35 100 0.0625
17 19 35 100 0.0624978
19 19 35 100 0.499902
20 19 35 100 0.125
21 19 35 100 0.0625
24 19 35 100 0.0625
25 19 35 100 9.82075e-05
27 19 35 100 0.0625
0 20 35 100 8.20018e-06
2 20 35 100 1.63888e-05
17 20 35 100 0.0624972
18 20 35 100 0.0625001
20 20 35 100 0.467154
21 20 35 100 0.125
22 20 35 100 0.0625001
25 20 35 100 0.124984
28 20 35 100 0.0625001
34 20 35 100 0.0328398
0 21 35 100 7.62681e-06
3 21 35 100 0.0625
18 21 35 100 0.0625
19 21 35 100 0.0625
21 21 35 100 0.374998
22 21 35 100 0.187496
23 21 35 100 0.0624996
26 21 35 100 0.062499
29 21 35 100 0.0625
35 21 35 100 0.0625
0 22 35 100 3.25324e-05
4 22 35 100 0.0666665
19 22 35 100 0.0666667
20 22 35 100 0.0666667
22 22 35 100 0.333307
23 22 35 100 0.266662
24 22 35 100 0.0666667
27 22 35 100 0.0666667
30 22 35 100 0.0666643
0 23 35 100 3.12627e-05
5 23 35 100 0.0666667
20 23 35 100 0.0666635
21 23 35 100 0.0666667
23 23 35 100 0.333313
24 23 35 100 0.219775
25 23 35 100 0.113551
28 23 35 100 0.0666667
31 23 35 100 0.0666667
0 24 35 100 3.62766e-05
21 24 35 100 0.0666667
22 24 35 100 0.0666667
24 24 35 100 0.333308
25 24 35 100 0.266666
26 24 35 100 0.133322
29 24 35 100 0.0666667
32 24 35 100 0.0666665
0 25 35 100 7.84525e-05
23 25 35 100 0.133332
25 25 35 100 0.333317
26 25 35 100 0.266606
27 25 35 100 0.133333
30 25 35 100 0.0666667
33 25 35 100 0.0666667
0 26 35 100 5.35608e-06
24 26 35 100 0.133333
26 26 35 100 0.333333
27 26 35 100 0.266667
28 26 35 100 0.133328
31 26 35 100 0.0666667
34 26 35 100 0.0666667
0 27 35 100 1.32263e-05
25 27 35 100 0.133333
27 27 35 100 0.333333
28 27 35 100 0.266656
29 27 35 100 0.133331
32 27 35 100 0.0666668
35 27 35 100 0.0666668
0 28 35 100 2.93531e-05
26 28 35 100 0.0714286
28 28 35 100 0.357121
29 28 35 100 0.285714
30 28 35 100 0.214286
33 28 35 100 0.0714209
0 29 35 100 1.63732e-05
27 29 35 100 0.0714286
29 29 35 100 0.357128
30 29 35 100 0.285713
31 29 35 100 0.214286
34 29 35 100 0.0714286
0 30 35 100 1.70264e-05
28 30 35 100 0.0714261
30 30 35 100 0.357143
31 30 35 100 0.2857
32 30 35 100 0.214285
35 30 35 100 0.0714286
0 31 35 100 2.32772e-05
29 31 35 100 0.0769231
31 31 35 100 0.384614
32 31 35 100 0.307682
33 31 35 100 0.230758
0 32 35 100 1.93782e-05
30 32 35 100 0.0769228
32 32 35 100 0.384262
33 32 35 100 0.308026
34 32 35 100 0.230769
0 33 35 100 1.69629e-06
31 33 35 100 0.0769232
33 33 35 100 0.307744
34 33 35 100 0.384561
35 33 35 100 0.23077
0 34 35 100 3.47599e-06
32 34 35 100 0.0999965
34 34 35 100 0.4
35 34 35 100 0.5
33 35 35 100 0.2
35 35 35 100 0.8
34 36 35 100 1
35 37 35 100 1
1 1 36 100 0.909091
23 1 36 100 0.0909091
0 2 36 100 1.58646e-05
2 2 36 100 0.90909
24 2 36 100 0.0908944
0 3 36 100 7.75264e-05
1 3 36 100 0.0908381
3 3 36 100 0.909084
0 4 36 100 2.80767e-05
2 4 36 100 0.00111858
4 4 36 100 0.909063
24 4 36 100 0.0897905
0 5 36 100 2.21729e-05
3 5 36 100 0.0908946
5 5 36 100 0.909083
0 6 36 100 1.88961e-05
5 6 36 100 0.0909092
6 6 36 100 0.909072
0 7 36 100 3.4889e-06
6 7 36 100 0.0909091
7 7 36 100 0.909087
0 8 36 100 9.19117e-06
7 8 36 100 0.0909091
8 8 36 100 0.909082
0 9 36 100 4.43995e-05
8 9 36 100 0.0909091
9 9 36 100 0.829738
12 9 36 100 0.0793083
0 10 36 100 2.04467e-06
9 10 36 100 0.0909091
10 10 36 100 0.81818
13 10 36 100 0.0909091
0 11 36 100 0.000762363
10 11 36 100 0.0488682
11 11 36 100 0.818147
14 11 36 100 0.0909091
15 11 36 100 0.0411262
18 11 36 100 0.000187546
0 12 36 100 0.0909922
12 12 36 100 0.727254
15 12 36 100 0.0909034
16 12 36 100 0.0908489
17 12 36 100 1.30261e-06
11 13 36 100 0.0909084
13 13 36 100 0.727273
16 13 36 100 0.0909092
17 13 36 100 0.0909092
0 14 36 100 0.0917142
10 14 36 100 0.000187546
14 14 36 100 0.72727
15 14 36 100 0.000196252
17 14 36 100 0.0909106
18 14 36 100 0.0897212
0 15 36 100 3.61033e-05
11 15 36 100 0.0908854
12 15 36 100 0.0909091
15 15 36 100 0.727273
18 15 36 100 0.0908967
0 16 36 100 1.69953e-05
12 16 36 100 0.0909085
13 16 36 100 0.090906
16 16 36 100 0.727259
19 16 36 100 0.0909092
0 17 36 100 1.71885e-05
14 17 36 100 0.181818
17 17 36 100 0.727227
18 17 36 100 2.84943e-05
20 17 36 100 0.0909091
0 18 36 100 2.18566e-05
15 18 36 100 0.0909091
18 18 36 100 0.727251
21 18 36 100 0.181818
0 19 36 100 3.15092e-05
16 19 36 100 0.0909091
19 19 36 100 0.727241
22 19 36 100 0.181818
0 20 36 100 3.74186e-05
17 20 36 100 0.0909016
20 20 36 100 0.818152
25 20 36 100 0.0909092
0 21 36 100 0.00143344
18 21 36 100 0.090909
20 21 36 100 0.0418327
21 21 36 100 0.643901
23 21 36 100 0.0401055
24 21 36 100 0.0909088
31 21 36 100 0.0909092
0 22 36 100 3.16374e-06
18 22 36 100 4.6422e-06
19 22 36 100 0.0909041
21 22 36 100 0.0909091
22 22 36 100 0.545452
24 22 36 100 0.0909091
25 22 36 100 0.0909092
32 22 36 100 0.0909091
0 23 36 100 3.69111e-05
19 23 36 100 0.0909092
22 23 36 100 0.0909084
23 23 36 100 0.545436
25 23 36 100 0.0909092
26 23 36 100 0.0909032
33 23 36 100 0.0908968
0 24 36 100 7.35871e-06
20 24 36 100 0.0909091
23 24 36 100 0.0909091
24 24 36 100 0.46481
25 24 36 100 0.0806413
26 24 36 100 0.0909048
27 24 36 100 0.0909091
34 24 36 100 0.0909091
0 25 36 100 3.85654e-06
21 25 36 100 0.0909093
24 25 36 100 0.090909
25 25 36 100 0.454545
26 25 36 100 0.0909093
27 25 36 100 0.0909093
28 25 36 100 0.0909054
35 25 36 100 0.0909093
0 26 36 100 1.10174e-05
22 26 36 100 0.0909087
25 26 36 100 0.0909091
26 26 36 100 0.454535
27 26 36 100 0.0909091
28 26 36 100 0.0909091
29 26 36 100 0.0909091
36 26 36 100 0.0909091
0 27 36 100 4.71932e-06
23 27 36 100 0.1
26 27 36 100 0.1
27 27 36 100 0.5
28 27 36 100 0.1
29 27 36 100 0.0999953
30 27 36 100 0.0999999
0 28 36 100 5.00577e-05
26 28 36 100 0.0999966
27 28 36 100 0.0999991
28 28 36 100 0.499962
29 28 36 100 0.0999981
30 28 36 100 0.0999936
31 28 36 100 0.1
27 29 36 100 0.1
28 29 36 100 0.0999999
29 29 36 100 0.4
30 29 36 100 0.134055
31 29 36 100 0.131878
32 29 36 100 0.1
33 29 36 100 0.0340659
0 30 36 100 4.32882e-06
28 30 36 100 0.0999975
29 30 36 100 0.1
30 30 36 100 0.399998
31 30 36 100 0.1
32 30 36 100 0.1
33 30 36 100 0.1
34 30 36 100 0.1
0 31 36 100 1.61894e-05
29 31 36 100 0.1
30 31 36 100 0.0999898
31 31 36 100 0.400001
32 31 36 100 0.1
33 31 36 100 0.0999996
34 31 36 100 0.0999935
35 31 36 100 0.1
0 32 36 100 1.25003e-06
30 32 36 100 7.49699e-06
31 32 36 100 0.199993
32 32 36 100 0.4
33 32 36 100 0.0999987
34 32 36 100 0.1
35 32 36 100 0.1
36 32 36 100 0.1
0 33 36 100 1.14809e-05
32 33 36 100 0.222211
33 33 36 100 0.444444
34 33 36 100 0.111111
35 33 36 100 0.111111
36 33 36 100 0.111111
0 34 36 100 2.78766e-05
33 34 36 100 0.249996
34 34 36 100 0.499976
35 34 36 100 0.125
36 34 36 100 0.125
34 35 36 100 0.285714
35 35 36 100 0.571429
36 35 36 100 0.142857
35 36 36 100 0.333333
36 36 36 100 0.666667
36 37 36 100 1
1 1 37 100 0.926424
2 1 37 100 0.00214756
4 1 37 100 0.0714286
0 2 37 100 2.49948e-05
2 2 37 100 0.858845
3 2 37 100 0.069701
8 2 37 100 0.0714286
0 3 37 100 2.37005e-05
3 3 37 100 0.857119
4 3 37 100 0.0714285
9 3 37 100 0.0714286
0 4 37 100 0.0714531
4 4 37 100 0.857116
5 4 37 100 0.0714286
10 4 37 100 1.80697e-06
0 5 37 100 0.000172438
5 5 37 100 0.857091
6 5 37 100 0.0714286
7 5 37 100 8.30779e-07
18 5 37 100 0.0713069
0 6 37 100 0.00016097
5 6 37 100 0.0713045
6 6 37 100 0.766272
7 6 37 100 0.0908336
19 6 37 100 0.0714286
0 7 37 100 1.00367e-05
6 7 37 100 0.0714286
7 7 37 100 0.714276
8 7 37 100 0.0714286
9 7 37 100 0.0714286
20 7 37 100 0.0714286
0 8 37 100 1.2037e-05
7 8 37 100 0.0714286
8 8 37 100 0.714279
9 8 37 100 0.0714237
10 8 37 100 0.071428
21 8 37 100 0.0714286
0 9 37 100 0.0317381
6 9 37 100 6.50819e-05
8 9 37 100 0.0714286
9 9 37 100 0.714271
10 9 37 100 0.111077
11 9 37 100 0.0714206
0 10 37 100 1.81397e-05
5 10 37 100 0.00013575
9 10 37 100 0.0714286
10 10 37 100 0.714267
11 10 37 100 0.0714286
12 10 37 100 0.0714286
22 10 37 100 0.0712929
0 11 37 100 0.00124671
10 11 37 100 0.0714286
11 11 37 100 0.713045
12 11 37 100 0.0714263
13 11 37 100 0.0714274
14 11 37 100 0.0714261
0 12 37 100 1.78846e-05
8 12 37 100 0.0714286
11 12 37 100 0.0714269
12 12 37 100 0.499999
13 12 37 100 0.214271
14 12 37 100 0.0714286
15 12 37 100 0.0714286
0 13 37 100 0.0708244
4 13 37 100 1.13015e-06
8 13 37 100 0.071424
12 13 37 100 0.0714286
13 13 37 100 0.499986
14 13 37 100 0.0714286
15 13 37 100 0.142857
16 13 37 100 0.000310881
19 13 37 100 0.0714286
20 13 37 100 0.000310881
0 14 37 100 3.71669e-05
12 14 37 100 0.0714286
13 14 37 100 0.0714145
14 14 37 100 0.543047
15 14 37 100 0.0714286
16 14 37 100 0.142844
17 14 37 100 0.0283653
20 14 37 100 0.0714286
21 14 37 100 6.25226e-06
0 15 37 100 1.71524e-05
13 15 37 100 0.0714285
14 15 37 100 0.0714286
15 15 37 100 0.499991
16 15 37 100 0.0714284
17 15 37 100 0.142857
21 15 37 100 0.14285
0 16 37 100 3.16782e-05
15 16 37 100 0.0714286
16 16 37 100 0.571405
17 16 37 100 0.0714286
18 16 37 100 0.142849
22 16 37 100 0.142857
0 17 37 100 1.65733e-05
16 17 37 100 0.0714286
17 17 37 100 0.571421
18 17 37 100 0.0714286
19 17 37 100 0.142857
23 17 37 100 0.142656
31 17 37 100 1.41579e-06
34 17 37 100 0.000190348
0 18 37 100 0.0567861
6 18 37 100 7.92049e-05
10 18 37 100 0.0145789
15 18 37 100 8.17877e-07
17 18 37 100 0.0714286
18 18 37 100 0.473777
19 18 37 100 0.0976485
20 18 37 100 0.142844
24 18 37 100 0.0714286
27 18 37 100 0.0714286
0 19 37 100 1.92433e-05
3 19 37 100 2.52442e-05
18 19 37 100 0.0714222
19 19 37 100 0.428564
20 19 37 100 0.142857
21 19 37 100 0.142857
23 19 37 100 0.0714033
25 19 37 100 0.071423
29 19 37 100 0.0714286
0 20 37 100 3.58437e-05
19 20 37 100 0.0714286
20 20 37 100 0.428543
21 20 37 100 0.142857
22 20 37 100 0.142849
24 20 37 100 0.0714286
26 20 37 100 0.0714286
32 20 37 100 0.0714102
33 20 37 100 1.8373e-05
0 21 37 100 0.0154198
20 21 37 100 0.0714286
21 21 37 100 0.428557
22 21 37 100 0.127457
23 21 37 100 0.143048
25 21 37 100 0.0714286
27 21 37 100 0.0714272
31 21 37 100 1.38627e-06
34 21 37 100 0.071232
0 22 37 100 1.68024e-05
21 22 37 100 0.0714273
22 22 37 100 0.388579
23 22 37 100 0.182841
24 22 37 100 0.21428
26 22 37 100 0.0714276
28 22 37 100 0.0714286
0 23 37 100 7.75005e-06
22 23 37 100 0.0714286
23 23 37 100 0.357141
24 23 37 100 0.214281
25 23 37 100 0.214284
27 23 37 100 0.0714286
29 23 37 100 0.0714286
0 24 37 100 0.000146094
23 24 37 100 0.0714286
24 24 37 100 0.357125
25 24 37 100 0.214286
26 24 37 100 0.214169
28 24 37 100 0.0714286
30 24 37 100 0.0714163
0 25 37 100 8.66094e-06
24 25 37 100 0.071428
25 25 37 100 0.31732
26 25 37 100 0.214285
27 25 37 100 0.142857
29 25 37 100 0.111243
31 25 37 100 0.0714286
36 25 37 100 0.0714286
0 26 37 100 3.08708e-05
25 26 37 100 0.0714286
26 26 37 100 0.2857
27 26 37 100 0.214286
28 26 37 100 0.142843
30 26 37 100 0.142854
33 26 37 100 0.0714286
37 26 37 100 0.0714286
0 27 37 100 2.94778e-06
26 27 37 100 0.0769217
27 27 37 100 0.307693
28 27 37 100 0.230769
29 27 37 100 0.153846
31 27 37 100 0.153846
34 27 37 100 0.0769216
0 28 37 100 3.00887e-05
27 28 37 100 0.0769231
28 28 37 100 0.307662
29 28 37 100 0.230769
30 28 37 100 0.153846
32 28 37 100 0.153846
35 28 37 100 0.0769231
0 29 37 100 4.34864e-05
28 29 37 100 0.0769079
29 29 37 100 0.307683
30 29 37 100 0.230764
31 29 37 100 0.153832
33 29 37 100 0.153846
36 29 37 100 0.0769231
0 30 37 100 5.59596e-05
29 30 37 100 0.0769231
30 30 37 100 0.305888
31 30 37 100 0.232519
32 30 37 100 0.153845
34 30 37 100 0.153846
37 30 37 100 0.0769231
0 31 37 100 2.17627e-05
30 31 37 100 0.0833259
31 31 37 100 0.333323
32 31 37 100 0.249998
33 31 37 100 0.166667
35 31 37 100 0.166665
0 32 37 100 1.93102e-05
31 32 37 100 0.0833333
32 32 37 100 0.333327
33 32 37 100 0.249987
34 32 37 100 0.166667
36 32 37 100 0.166667
0 33 37 100 1.91173e-06
32 33 37 100 0.0833334
33 33 37 100 0.333332
34 33 37 100 0.25
35 33 37 100 0.166667
37 33 37 100 0.166667
0 34 37 100 0.000685007
34 34 37 100 0.399322
35 34 37 100 0.399993
36 34 37 100 0.2
0 35 37 100 2.43858e-05
35 35 37 100 0.399976
36 35 37 100 0.4
37 35 37 100 0.2
0 36 37 100 0.126195
36 36 37 100 0.498805
37 36 37 100 0.375
0 37 37 100 0.00131254
36 37 37 100 0.398687
37 37 37 100 0.6
0 38 37 100 0.000392184
36 38 37 100 0.499608
37 38 37 100 0.5
36 39 37 100 1
37 40 37 100 1
1 1 38 100 1
0 2 38 100 2.16987e-06
2 2 38 100 0.999998
0 3 38 100 2.97261e-06
3 3 38 100 0.999997
0 4 38 100 1.04878e-05
4 4 38 100 0.993213
6 4 38 100 0.00677347
7 4 38 100 2.71418e-06
0 5 38 100 2.53265e-06
5 5 38 100 0.909092
6 5 38 100 0.0259376
7 5 38 100 0.0359338
10 5 38 100 0.0290341
0 6 38 100 0.0909249
6 6 38 100 0.818153
11 6 38 100 0.0909101
21 6 38 100 9.66439e-07
24 6 38 100 1.37455e-06
25 6 38 100 1.5619e-06
28 6 38 100 6.79906e-06
30 6 38 100 9.45346e-07
0 7 38 100 4.83789e-06
6 7 38 100 0.090909
7 7 38 100 0.818177
12 7 38 100 0.0909091
7 8 38 100 0.0909091
8 8 38 100 0.727275
10 8 38 100 0.0909072
13 8 38 100 0.0909091
0 9 38 100 1.23392e-05
8 9 38 100 0.0909091
9 9 38 100 0.727266
11 9 38 100 0.0909091
14 9 38 100 0.0909038
0 10 38 100 1.98184e-05
9 10 38 100 0.0909088
10 10 38 100 0.727253
12 10 38 100 0.0909091
15 10 38 100 0.0909091
0 11 38 100 1.75845e-05
10 11 38 100 0.0909091
11 11 38 100 0.636364
12 11 38 100 0.0909091
13 11 38 100 0.0908915
16 11 38 100 0.0909091
0 12 38 100 6.37922e-06
11 12 38 100 0.0909038
12 12 38 100 0.636362
13 12 38 100 0.0909091
14 12 38 100 0.0909091
17 12 38 100 0.0909091
0 13 38 100 8.70359e-06
12 13 38 100 0.0909091
13 13 38 100 0.636362
14 13 38 100 0.0909074
15 13 38 100 0.0909091
18 13 38 100 0.0909038
0 14 38 100 1.32517e-05
13 14 38 100 0.0909091
14 14 38 100 0.63635
15 14 38 100 0.0909091
16 14 38 100 0.0909091
19 14 38 100 0.0909091
0 15 38 100 0.0909213
11 15 38 100 1.24843e-06
15 15 38 100 0.636364
16 15 38 100 0.0908912
17 15 38 100 0.0909011
20 15 38 100 0.0909091
21 15 38 100 1.06456e-06
24 15 38 100 1.46652e-06
25 15 38 100 1.66641e-06
28 15 38 100 7.25398e-06
30 15 38 100 9.26854e-07
0 16 38 100 5.06461e-06
14 16 38 100 0.090909
16 16 38 100 0.63636
17 16 38 100 0.0909074
18 16 38 100 0.0909091
21 16 38 100 0.0909091
0 17 38 100 2.46668e-05
15 17 38 100 0.0909092
17 17 38 100 0.545435
18 17 38 100 0.181818
19 17 38 100 0.0909092
22 17 38 100 0.0909038
0 18 38 100 1.70665e-06
16 18 38 100 0.0909091
18 18 38 100 0.545453
19 18 38 100 0.181818
20 18 38 100 0.0909091
23 18 38 100 0.0909091
0 19 38 100 2.64031e-05
17 19 38 100 0.0909088
19 19 38 100 0.545439
20 19 38 100 0.18181
21 19 38 100 0.0909091
24 19 38 100 0.0909067
18 20 38 100 0.0909092
20 20 38 100 0.545454
21 20 38 100 0.181818
22 20 38 100 0.0909092
25 20 38 100 0.0909092
0 21 38 100 4.08729e-05
19 21 38 100 0.0909091
21 21 38 100 0.545441
22 21 38 100 0.181808
23 21 38 100 0.0908916
26 21 38 100 0.0909086
0 22 38 100 0.0909462
20 22 38 100 0.0909091
22 22 38 100 0.524387
23 22 38 100 0.0909091
24 22 38 100 0.0908981
26 22 38 100 0.0210413
27 22 38 100 0.0909091
0 23 38 100 0.0512381
16 23 38 100 0.0397035
21 23 38 100 0.0599927
23 23 38 100 0.319502
24 23 38 100 0.0952577
25 23 38 100 0.116516
26 23 38 100 0.0898529
28 23 38 100 0.201416
35 23 38 100 0.0130621
37 23 38 100 0.0134588
0 24 38 100 1.64378e-05
17 24 38 100 0.090904
24 24 38 100 0.272727
25 24 38 100 0.0909091
26 24 38 100 0.0909011
29 24 38 100 0.272724
31 24 38 100 0.0166731
33 24 38 100 0.0235969
35 24 38 100 5.37135e-05
37 24 38 100 0.0506391
38 24 38 100 0.0908554
0 25 38 100 0.100006
25 25 38 100 0.299999
26 25 38 100 0.1
27 25 38 100 0.1
30 25 38 100 0.299995
38 25 38 100 0.1
0 26 38 100 0.000180912
23 26 38 100 0.110952
26 26 38 100 0.333333
27 26 38 100 0.111111
28 26 38 100 0.11109
31 26 38 100 0.333333
0 27 38 100 8.59005e-06
24 27 38 100 0.111111
27 27 38 100 0.333331
28 27 38 100 0.111111
29 27 38 100 0.111111
32 27 38 100 0.333327
0 28 38 100 2.49773e-05
25 28 38 100 0.111111
28 28 38 100 0.33333
29 28 38 100 0.111089
30 28 38 100 0.111111
33 28 38 100 0.333333
0 29 38 100 2.00905e-06
26 29 38 100 0.111111
29 29 38 100 0.333333
30 29 38 100 0.111111
31 29 38 100 0.111109
34 29 38 100 0.333333
0 30 38 100 2.19053e-05
27 30 38 100 0.111111
30 30 38 100 0.249789
31 30 38 100 0.111089
32 30 38 100 0.111111
33 30 38 100 0.0279843
34 30 38 100 0.0275669
35 30 38 100 0.333332
36 30 38 100 0.0279938
0 31 38 100 2.23198e-05
28 31 38 100 0.111111
31 31 38 100 0.222199
32 31 38 100 0.111111
33 31 38 100 0.111111
36 31 38 100 0.333334
38 31 38 100 0.111111
0 32 38 100 3.98963e-05
29 32 38 100 0.125
32 32 38 100 0.249984
33 32 38 100 0.125
34 32 38 100 0.124976
37 32 38 100 0.375
0 33 38 100 2.64015e-05
30 33 38 100 0.125
33 33 38 100 0.25
34 33 38 100 0.124989
35 33 38 100 0.124985
38 33 38 100 0.375
31 34 38 100 0.2
34 34 38 100 0.4
35 34 38 100 0.2
36 34 38 100 0.2
0 35 38 100 4.39303e-05
32 35 38 100 0.2
35 35 38 100 0.399956
36 35 38 100 0.2
37 35 38 100 0.199999
0 36 38 100 2.91796e-06
33 36 38 100 0.199997
36 36 38 100 0.4
37 36 38 100 0.2
38 36 38 100 0.2
34 37 38 100 0.25
37 37 38 100 0.5
38 37 38 100 0.25
35 38 38 100 0.333333
38 38 38 100 0.666667
36 39 38 100 1
37 40 38 100 1
38 41 38 100 1
1 1 39 100 1
0 2 39 100 2.35013e-05
2 2 39 100 0.83331
4 2 39 100 0.166666
0 3 39 100 5.08534e-05
3 3 39 100 0.833302
6 3 39 100 0.166647
0 4 39 100 3.60526e-06
4 4 39 100 0.83333
7 4 39 100 0.166667
0 5 39 100 4.84247e-05
5 5 39 100 0.833299
8 5 39 100 0.166652
6 6 39 100 0.833333
9 6 39 100 0.166667
0 7 39 100 6.21284e-05
7 7 39 100 0.833271
10 7 39 100 0.166667
0 8 39 100 4.07354e-05
8 8 39 100 0.833324
11 8 39 100 0.166635
0 9 39 100 1.39868e-05
9 9 39 100 0.833319
13 9 39 100 0.166667
0 10 39 100 1.4354e-05
10 10 39 100 0.833333
14 10 39 100 0.166652
0 11 39 100 1.98163e-05
11 11 39 100 0.833333
15 11 39 100 0.166647
0 12 39 100 2.13316e-05
12 12 39 100 0.833312
16 12 39 100 0.166667
0 13 39 100 3.30981e-05
13 13 39 100 0.708774
15 13 39 100 0.082394
16 13 39 100 0.0421322
17 13 39 100 0.166667
0 14 39 100 3.96013e-06
14 14 39 100 0.666663
17 14 39 100 0.166667
18 14 39 100 0.166667
15 15 39 100 0.666667
18 15 39 100 0.166667
19 15 39 100 0.166667
0 16 39 100 6.83196e-05
16 16 39 100 0.666614
19 16 39 100 0.166651
20 16 39 100 0.166667
0 17 39 100 2.13316e-05
17 17 39 100 0.666646
20 17 39 100 0.166667
21 17 39 100 0.166665
0 18 39 100 1.54521e-05
18 18 39 100 0.666652
21 18 39 100 0.166666
22 18 39 100 0.166667
0 19 39 100 3.91296e-05
19 19 39 100 0.666629
22 19 39 100 0.166665
23 19 39 100 0.166667
0 20 39 100 2.68377e-06
20 20 39 100 0.666664
23 20 39 100 0.166667
24 20 39 100 0.166667
0 21 39 100 2.44055e-05
21 21 39 100 0.666642
24 21 39 100 0.166667
25 21 39 100 0.166667
22 22 39 100 0.666667
25 22 39 100 0.166666
26 22 39 100 0.166667
0 23 39 100 1.85278e-06
23 23 39 100 0.666666
26 23 39 100 0.166665
27 23 39 100 0.166667
0 24 39 100 3.62725e-05
24 24 39 100 0.66663
27 24 39 100 0.166667
28 24 39 100 0.166667
0 25 39 100 3.95754e-06
25 25 39 100 0.666664
28 25 39 100 0.166665
29 25 39 100 0.166667
0 26 39 100 2.10463e-05
26 26 39 100 0.666649
29 26 39 100 0.166667
30 26 39 100 0.166663
0 27 39 100 5.54242e-05
27 27 39 100 0.666611
30 27 39 100 0.166667
31 27 39 100 0.166667
0 28 39 100 3.60458e-05
28 28 39 100 0.666631
31 28 39 100 0.166667
32 28 39 100 0.166666
0 29 39 100 1.94096e-05
29 29 39 100 0.666648
32 29 39 100 0.166666
33 29 39 100 0.166667
0 30 39 100 1.4185e-05
30 30 39 100 0.666653
33 30 39 100 0.166667
34 30 39 100 0.166667
0 31 39 100 1.85278e-06
31 31 39 100 0.666667
34 31 39 100 0.166665
35 31 39 100 0.166667
0 32 39 100 1.5452e-05
32 32 39 100 0.666651
35 32 39 100 0.166667
36 32 39 100 0.166667
0 33 39 100 4.0933e-05
33 33 39 100 0.666629
36 33 39 100 0.166667
37 33 39 100 0.166663
0 34 39 100 3.18479e-06
34 34 39 100 0.499997
37 34 39 100 0.166667
38 34 39 100 0.166667
39 34 39 100 0.166667
35 35 39 100 0.6
38 35 39 100 0.2
39 35 39 100 0.2
0 36 39 100 5.58832e-05
36 36 39 100 0.749944
39 36 39 100 0.25
37 37 39 100 1
38 38 39 100 1
39 39 39 100 1
1 1 40 100 1
0 2 40 100 1.82589e-06
2 2 40 100 0.999998
0 3 40 100 5.82484e-05
3 3 40 100 0.999942
0 4 40 100 2.04137e-05
4 4 40 100 0.99998
0 5 40 100 2.19503e-05
5 5 40 100 0.999978
0 6 40 100 2.04479e-05
6 6 40 100 0.99998
0 7 40 100 5.48999e-05
7 7 40 100 0.999942
25 7 40 100 3.42405e-06
8 8 40 100 0.857143
9 8 40 100 0.038152
11 8 40 100 0.0617792
13 8 40 100 0.042926
0 9 40 100 1.97771e-05
8 9 40 100 5.4783e-06
9 9 40 100 0.714266
11 9 40 100 0.142852
14 9 40 100 0.142857
0 10 40 100 2.8679e-05
10 10 40 100 0.714257
12 10 40 100 0.142857
15 10 40 100 0.142857
11 11 40 100 0.714286
13 11 40 100 0.142857
16 11 40 100 0.142857
0 12 40 100 9.57787e-06
12 12 40 100 0.714276
14 12 40 100 0.142857
17 12 40 100 0.142857
0 13 40 100 3.88691e-05
13 13 40 100 0.714247
15 13 40 100 0.142857
18 13 40 100 0.142857
14 14 40 100 0.714286
16 14 40 100 0.142857
19 14 40 100 0.142857
0 15 40 100 1.62449e-05
15 15 40 100 0.714283
17 15 40 100 0.142855
20 15 40 100 0.142846
0 16 40 100 8.26512e-06
16 16 40 100 0.714277
18 16 40 100 0.142857
21 16 40 100 0.142857
0 17 40 100 3.19505e-05
17 17 40 100 0.665613
18 17 40 100 0.0486435
19 17 40 100 0.142854
22 17 40 100 0.142857
0 18 40 100 1.44784e-05
18 18 40 100 0.571426
19 18 40 100 0.142845
20 18 40 100 0.142857
23 18 40 100 0.142857
0 19 40 100 3.24184e-05
19 19 40 100 0.571396
20 19 40 100 0.142857
21 19 40 100 0.142857
24 19 40 100 0.142857
0 20 40 100 1.2872e-05
20 20 40 100 0.571429
21 20 40 100 0.142858
22 20 40 100 0.142845
25 20 40 100 0.142856
0 21 40 100 4.11672e-05
21 21 40 100 0.428539
22 21 40 100 0.142857
23 21 40 100 0.142857
24 21 40 100 0.142849
26 21 40 100 0.142857
0 22 40 100 7.30791e-06
22 22 40 100 0.428571
23 22 40 100 0.142857
24 22 40 100 0.142855
25 22 40 100 0.142857
27 22 40 100 0.142852
0 23 40 100 3.35367e-05
23 23 40 100 0.428557
24 23 40 100 0.142838
26 23 40 100 0.285714
28 23 40 100 0.142857
0 24 40 100 2.28381e-05
24 24 40 100 0.428571
25 24 40 100 0.142856
27 24 40 100 0.285694
29 24 40 100 0.142857
0 25 40 100 3.68876e-05
25 25 40 100 0.428571
26 25 40 100 0.142838
28 25 40 100 0.285697
30 25 40 100 0.142857
0 26 40 100 2.94614e-05
26 26 40 100 0.285714
27 26 40 100 0.142857
28 26 40 100 0.142839
29 26 40 100 0.285714
31 26 40 100 0.142846
0 27 40 100 2.8164e-05
27 27 40 100 0.285714
28 27 40 100 0.142857
29 27 40 100 0.142857
30 27 40 100 0.285686
32 27 40 100 0.142857
0 28 40 100 2.5555e-05
28 28 40 100 0.142857
29 28 40 100 0.215288
