2 0.0706441 0.922013 0.00734272 0 0 0 0 0 0 0 
3 0.0763493 0.922152 0.00120904 0.000289422 0 0 0 0 0 0 
4 0.127164 0.872836 0 0 0 0 0 0 0 0 
5 0.119854 0.878638 0.000152441 0.00135465 1.29582e-07 0 0 0 0 0 
6 0.103813 0.874316 0.0218697 0 0 0 0 0 0 0 
7 0.0554949 0.933005 0.00844129 0.00305836 0 0 0 0 0 0 
8 0.0863364 0.899523 0.0141401 0 0 0 0 0 0 0 
9 0.0282868 0.950073 0.0108198 0 0 0.01082 0 0 0 0 
10 0.0988281 0.900895 0.000223764 5.35493e-05 0 0 0 0 0 0 
11 0.0882772 0.90607 0.0056532 0 0 0 0 0 0 0 
12 0.0680293 0.925054 0.00691706 0 0 0 0 0 0 0 
13 0.14297 0.856899 0.000130246 0 0 0 0 0 0 0 
14 0.0683009 0.916533 0.00975422 0.0040533 0 0.00135819 0 0 0 0 
15 0.0791648 0.902155 0.0144251 0.00176567 0.00248983 0 0 0 0 0 
16 0.0677302 0.918393 0.00679527 0.00708193 0 0 0 0 0 0 
17 0.118248 0.828673 0.053078 0 0 0 0 0 0 0 
18 0.117039 0.882804 0.000157977 0 0 0 0 0 0 0 
19 0.0872517 0.906385 0.00636376 0 0 0 0 0 0 0 
20 0.0515876 0.933692 0.00946733 0.00393408 0 0.00131824 0 0 0 0 
21 0.0588637 0.927576 0.00995316 0.00360613 0 0 0 0 0 0 
22 0.124276 0.875073 0.000651 0 0 0 0 0 0 0 
23 0.0873659 0.885664 0.0205982 0.00265632 0.00371559 0 0 0 0 0 
24 0.0873659 0.899784 0.00649981 0.00263492 0.00371559 0 0 0 0 0 
25 0.127717 0.871541 0.000742024 0 0 0 0 0 0 0 
26 0.0876647 0.897977 0.0143577 0 0 0 0 0 0 0 
27 0.00852974 0.99147 0 0 0 0 0 0 0 0 
28 0.0677302 0.918393 0.00679527 0.00708193 0 0 0 0 0 0 
29 0.0933378 0.905716 0.000763616 0.000182793 0 0 0 0 0 0 
30 0.0597556 0.926479 0.010104 0.00366077 0 0 0 0 0 0 
31 0.121378 0.877922 0.000564232 0.000135063 0 0 0 0 0 0 
32 0.0687722 0.917137 0.00689982 0.00719088 0 0 0 0 0 0 
33 0.0926668 0.90576 0.0012695 0.000303893 0 0 0 0 0 0 
34 0.0606749 0.925348 0.0102594 0.00371709 0 0 0 0 0 0 
35 0.0804018 0.897644 0.0119737 0.00997995 0 0 0 0 0 0 
36 0.0706441 0.922013 0.00734272 0 0 0 0 0 0 0 
37 0.0706441 0.922013 0.00734272 0 0 0 0 0 0 0 
38 0.0706441 0.922013 0.00734272 0 0 0 0 0 0 0 
39 0.0606749 0.925348 0.0102594 0.00371709 0 0 0 0 0 0 
40 0.0539686 0.930632 0.00990429 0.00411566 0 0.00137908 0 0 0 0 
41 0.0588637 0.927576 0.00995316 0.00360613 0 0 0 0 0 0 
42 0.0732598 0.900854 0.0141183 0.0117674 0 0 0 0 0 0 
43 0.168621 0.831244 0.000134963 0 0 0 0 0 0 0 
44 0.0539686 0.930632 0.00990429 0.00411566 0 0.00137908 0 0 0 0 
45 0.0282868 0.950073 0.0108198 0 0 0.01082 0 0 0 0 
46 0.0655981 0.927584 0.00681824 0 0 0 0 0 0 0 
47 0.15776 0.841869 0.000371021 0 0 0 0 0 0 0 
48 0.0706441 0.922013 0.00734272 0 0 0 0 0 0 0 
49 0.0755139 0.897803 0.0145527 0.0121295 0 0 0 0 0 0 
50 0.0729986 0.922412 0.0045892 0 0 0 0 0 0 0 
51 0.0809752 0.911901 0.00712354 0 0 0 0 0 0 0 
52 0.0683025 0.916531 0.00975422 0.0040533 0 0.00135819 0 0 0 0 
53 0.121277 0.878245 0.000477919 0 0 0 0 0 0 0 
54 0.0687722 0.917137 0.00689982 0.00719088 0 0 0 0 0 0 
55 0.0924378 0.900484 0.0035804 0.00145144 0.00204672 0 0 0 0 0 
56 0.0606749 0.925348 0.0102594 0.00371709 0 0 0 0 0 0 
57 0.0890793 0.904471 0.00644969 0 0 0 0 0 0 0 
58 0.0940676 0.894168 0.00595053 0.00241225 0.00340159 0 0 0 0 0 
59 0.0958851 0.902905 0.000976535 0.000233764 0 0 0 0 0 0 
60 0.0774335 0.915224 0.00734272 0 0 0 0 0 0 0 
61 0.0842432 0.914326 0.00115409 0.000276266 0 0 0 0 0 0 
62 0.0873659 0.899784 0.00649981 0.00263492 0.00371559 0 0 0 0 0 
63 0.0792782 0.907448 0.00649983 0.00677402 0 0 0 0 0 0 
64 0.0531509 0.931683 0.00975422 0.0040533 0 0.00135819 0 0 0 0 
65 0.0755139 0.897803 0.0145527 0.0121295 0 0 0 0 0 0 
66 0.0539686 0.930632 0.00990429 0.00411566 0 0.00137908 0 0 0 0 
67 0.0588637 0.927576 0.00995316 0.00360613 0 0 0 0 0 0 
68 0.0876647 0.897977 0.0143577 0 0 0 0 0 0 0 
69 0.053354 0.940845 0.00293396 0.00118937 0.00167717 0 0 0 0 0 
70 0.0677302 0.918393 0.00679527 0.00708193 0 0 0 0 0 0 
71 0.108472 0.890216 0.00105791 0.000253244 0 0 0 0 0 0 
72 0.0685353 0.924341 0.00712354 0 0 0 0 0 0 0 
73 0.0539686 0.930632 0.00990429 0.00411566 0 0.00137908 0 0 0 0 
74 0.096794 0.891101 0.00612301 0.00248217 0.00350019 0 0 0 0 0 
75 0.0787587 0.914519 0.00672221 0 0 0 0 0 0 0 
76 0.0606749 0.925348 0.0102594 0.00371709 0 0 0 0 0 0 
77 0.0948174 0.881966 0.0232155 0 0 0 0 0 0 0 
78 0.0687722 0.917137 0.00689982 0.00719088 0 0 0 0 0 0 
79 0.0727269 0.927273 0 0 0 0 0 0 0 0 
80 0.0579981 0.928641 0.00980679 0.0035531 0 0 0 0 0 0 
81 0.0539686 0.930632 0.00990429 0.00411566 0 0.00137908 0 0 0 0 
82 0.0606749 0.925348 0.0102594 0.00371709 0 0 0 0 0 0 
83 0.0687722 0.917137 0.00689982 0.00719088 0 0 0 0 0 0 
84 0.0539686 0.930632 0.00990429 0.00411566 0 0.00137908 0 0 0 0 
85 0.0755139 0.897803 0.0145527 0.0121295 0 0 0 0 0 0 
86 0.0727264 0.927274 0 0 0 0 0 0 0 0 
87 0.0743698 0.899352 0.0143322 0.0119457 0 0 0 0 0 0 
88 0.0753864 0.910523 0.00689982 0.00719088 0 0 0 0 0 0 
89 0.153373 0.846115 0.000512671 0 0 0 0 0 0 0 
90 0.0964351 0.889206 0.0143577 0 0 0 0 0 0 0 
91 0.0948174 0.881966 0.0232155 0 0 0 0 0 0 0 
92 0.123811 0.871883 0.00217777 0.000882835 0.00124491 0 0 0 0 0 
93 0.124443 0.874834 0.000723028 0 0 0 0 0 0 0 
94 0.0606749 0.925348 0.0102594 0.00371709 0 0 0 0 0 0 
95 0.0531509 0.931683 0.00975422 0.0040533 0 0.00135819 0 0 0 0 
96 0.0539686 0.930632 0.00990429 0.00411566 0 0.00137908 0 0 0 0 
97 0.0743698 0.899352 0.0143322 0.0119457 0 0 0 0 0 0 
98 0.138238 0.861471 0.000290692 0 0 0 0 0 0 0 
99 0.0539686 0.930632 0.00990429 0.00411566 0 0.00137908 0 0 0 0 
100 0.10123 0.89877 0 0 0 0 0 0 0 0 
101 0.0752342 0.910889 0.00679527 0.00708193 0 0 0 0 0 0 
102 0.0860422 0.901302 0.00640133 0.002595 0.00365929 0 0 0 0 0 
103 0.131556 0.859743 0.00440091 0.00178406 0.00251576 0 0 0 0 0 
104 0.0675275 0.925454 0.00701878 0 0 0 0 0 0 0 
105 0.110702 0.887642 0.00133651 0.000319887 0 0 0 0 0 0 
106 0.0687722 0.917137 0.00689982 0.00719088 0 0 0 0 0 0 
107 0.0667193 0.919611 0.00669385 0.00697623 0 0 0 0 0 0 
108 0.0933808 0.883755 0.0228637 0 0 0 0 0 0 0 
109 0.0667193 0.919611 0.00669385 0.00697623 0 0 0 0 0 0 
110 0.0833638 0.906195 0.0052811 0.00214087 0.00301891 0 0 0 0 0 
111 0.0943138 0.903835 0.00149352 0.000357521 0 0 0 0 0 0 
112 0.0876647 0.897977 0.0143577 0 0 0 0 0 0 0 
113 0.0606749 0.925348 0.0102594 0.00371709 0 0 0 0 0 0 
114 0.0876647 0.897977 0.0143577 0 0 0 0 0 0 0 
115 0.0606749 0.925348 0.0102594 0.00371709 0 0 0 0 0 0 
116 0.0606749 0.925348 0.0102594 0.00371709 0 0 0 0 0 0 
117 0.0755139 0.897803 0.0145527 0.0121295 0 0 0 0 0 0 
118 0.113209 0.873066 0.0137243 0 0 0 0 0 0 0 
119 0.108455 0.884727 0.00681824 0 0 0 0 0 0 0 
120 0.0765374 0.909372 0.00689982 0.00719088 0 0 0 0 0 0 
121 0.0539686 0.930632 0.00990429 0.00411566 0 0.00137908 0 0 0 0 
122 0.0539686 0.930632 0.00990429 0.00411566 0 0.00137908 0 0 0 0 
123 0.0597556 0.926479 0.010104 0.00366077 0 0 0 0 0 0 
124 0.0492984 0.939345 0.00833577 0.00302013 0 0 0 0 0 0 
125 0.137818 0.861788 0.000394362 0 0 0 0 0 0 0 
126 0.0957215 0.9024 0.00151582 0.000362857 0 0 0 0 0 0 
127 0.0606749 0.925348 0.0102594 0.00371709 0 0 0 0 0 0 
128 0.0687722 0.917137 0.00689982 0.00719088 0 0 0 0 0 0 
129 0.0948174 0.881966 0.0232155 0 0 0 0 0 0 0 
130 0.0847143 0.889399 0.0141183 0.0117674 0 0 0 0 0 0 
131 0.0915227 0.906923 0.00125382 0.000300141 0 0 0 0 0 0 
132 0.0687722 0.917137 0.00689982 0.00719088 0 0 0 0 0 0 
133 0.0873659 0.899784 0.00649981 0.00263492 0.00371559 0 0 0 0 0 
134 0.0755139 0.897803 0.0145527 0.0121295 0 0 0 0 0 0 
135 0.0685353 0.924341 0.00712354 0 0 0 0 0 0 0 
136 0.0687722 0.917137 0.00689982 0.00719088 0 0 0 0 0 0 
137 0.0685353 0.924341 0.00712354 0 0 0 0 0 0 0 
138 0.110983 0.888155 0.000695625 0.000166517 0 0 0 0 0 0 
139 0.0755139 0.882419 0.0299373 0.0121295 0 0 0 0 0 0 
140 0.127717 0.871541 0.000742024 0 0 0 0 0 0 0 
141 0.0747208 0.901131 0.00555912 0.0154087 0.00318051 0 0 0 0 0 
142 0.0531509 0.916543 0.0248942 0.0040533 0 0.00135819 0 0 0 0 
143 0.204542 0.794984 0.000473929 0 0 0 0 0 0 0 
144 0.0858504 0.912865 0.00103632 0.000248076 0 0 0 0 0 0 
145 0.095594 0.903903 0.000503516 0 0 0 0 0 0 0 
146 0.096784 0.901918 0.00104714 0.000250633 0 0 0 0 0 0 
147 0.0571575 0.929676 0.00966468 0.00350161 0 0 0 0 0 0 
148 0.084814 0.907838 0.00372659 0.00150237 0.00211854 0 0 0 0 0 
149 0.0986668 0.899397 0.00156246 0.000374022 0 0 0 0 0 0 
150 0.0606749 0.925348 0.0102594 0.00371709 0 0 0 0 0 0 
151 0.0665488 0.926534 0.00691706 0 0 0 0 0 0 0 
152 0.236526 0.762886 0.000587435 0 0 0 0 0 0 0 
153 0.0501137 0.935587 0.00919684 0.00382168 0 0.00128058 0 0 0 0 
154 0.103767 0.884946 0.00570929 0.00231446 0.00326369 0 0 0 0 0 
155 0.0588637 0.927576 0.00995316 0.00360613 0 0 0 0 0 0 
156 0.0876647 0.897977 0.0143577 0 0 0 0 0 0 0 
157 0.0903288 0.907898 0.00143042 0.000342414 0 0 0 0 0 0 
158 0.0539686 0.930632 0.00990429 0.00411566 0 0.00137908 0 0 0 0 
159 0.119986 0.870629 0.00474705 0.00192438 0.00271363 0 0 0 0 0 
160 0.125228 0.836997 0.0377746 0 0 0 0 0 0 0 
161 0.139515 0.854723 0.00291513 0.00118117 0.00166561 0 0 0 0 0 
162 0.0655981 0.927584 0.00681824 0 0 0 0 0 0 0 
163 0.0823012 0.905593 0.00612301 0.00248217 0.00350019 0 0 0 0 0 
164 0.0971718 0.900921 0.00153878 0.000368355 0 0 0 0 0 0 
165 0.0657381 0.920793 0.00659541 0.00687363 0 0 0 0 0 0 
166 0.0873659 0.899784 0.00649981 0.00263492 0.00371559 0 0 0 0 0 
167 0.0986668 0.899397 0.00156246 0.000374022 0 0 0 0 0 0 
168 0.0755139 0.897803 0.0145527 0.0121295 0 0 0 0 0 0 
169 0.112544 0.882823 0.00463376 0 0 0 0 0 0 0 
170 0.0667193 0.904685 0.0216132 0.00698224 0 0 0 0 0 0 
171 0.0677302 0.918393 0.00679527 0.00708193 0 0 0 0 0 0 
172 0.0743698 0.899352 0.0143322 0.0119457 0 0 0 0 0 0 
173 0.133947 0.865186 0.000867597 0 0 0 0 0 0 0 
174 0.0525849 0.935302 0.00889149 0.00322148 0 0 0 0 0 0 
175 0.0571575 0.929676 0.00966467 0.00350161 0 0 0 0 0 0 
176 0.0706441 0.922013 0.00734272 0 0 0 0 0 0 0 
177 0.0629605 0.92414 0.00631673 0.0065832 0 0 0 0 0 0 
178 0.0579981 0.928641 0.00980679 0.0035531 0 0 0 0 0 0 
179 0.0724381 0.922317 0.0052448 0 0 0 0 0 0 0 
180 0.0687722 0.917137 0.00689982 0.00719088 0 0 0 0 0 0 
181 0.185252 0.813409 0.00108042 0.000258632 0 0 0 0 0 0 
182 0.0597556 0.926479 0.010104 0.00366077 0 0 0 0 0 0 
183 0.0696265 0.917578 0.00939242 0.00340297 0 0 0 0 0 0 
184 0.0755658 0.917985 0.00644969 0 0 0 0 0 0 0 
185 0.0902538 0.898459 0.00570929 0.00231446 0.00326369 0 0 0 0 0 
186 0.132966 0.866261 0.000772518 0 0 0 0 0 0 0 
187 0.0606749 0.925348 0.0102594 0.00371709 0 0 0 0 0 0 
188 0.10744 0.890736 0.00147188 0.00035234 0 0 0 0 0 0 
189 0.0282868 0.950073 0.0108198 0 0 0.01082 0 0 0 0 
190 0.0673719 0.926878 0.00575034 0 0 0 0 0 0 0 
191 0.0823012 0.905593 0.00612301 0.00248217 0.00350019 0 0 0 0 0 
192 0.0811255 0.906942 0.00603554 0.00244671 0.00345019 0 0 0 0 0 
193 0.0675275 0.925454 0.00701878 0 0 0 0 0 0 0 
194 0.0902538 0.898459 0.00570929 0.00231446 0.00326369 0 0 0 0 0 
195 0.096794 0.891101 0.00612301 0.00248217 0.00350019 0 0 0 0 0 
196 0.139871 0.859554 0.000575447 0 0 0 0 0 0 0 
197 0.0675275 0.925454 0.00701878 0 0 0 0 0 0 0 
198 0.0916192 0.906583 0.00145085 0.000347306 0 0 0 0 0 0 
199 0.129948 0.86921 0.000841698 0 0 0 0 0 0 0 
200 0.0704011 0.929599 0 0 0 0 0 0 0 0 
201 0.0777917 0.897068 0.0057875 0.00235517 0.0169979 1.70095e-07 0 0 0 0 
202 0.0914902 0.897067 0.00578832 0.00234616 0.0033084 0 0 0 0 0 
203 0.0657381 0.920793 0.00659541 0.00687363 0 0 0 0 0 0 
204 0.128037 0.871134 0.000829321 0 0 0 0 0 0 0 
205 0.0667193 0.919611 0.00669385 0.00697623 0 0 0 0 0 0 
206 0.0597556 0.926479 0.010104 0.00366077 0 0 0 0 0 0 
207 0.0876647 0.897977 0.0143577 0 0 0 0 0 0 0 
208 0.0612355 0.926218 0.00614367 0.00640284 0 0 0 0 0 0 
209 0.0579981 0.928641 0.00980679 0.0035531 0 0 0 0 0 0 
210 0.0618779 0.932003 0.00611931 0 0 0 0 0 0 0 
211 0.0825228 0.911027 0.00644969 0 0 0 0 0 0 0 
212 0.0770449 0.910055 0.00631673 0.0065832 0 0 0 0 0 0 
213 0.0867374 0.902415 0.00548685 0.00222429 0.00313653 0 0 0 0 0 
214 0.0749071 0.911328 0.010104 0.00366077 0 0 0 0 0 0 
215 0.0774913 0.910554 0.00877466 0.00317909 0 0 0 0 0 0 
216 0.124989 0.874668 0.000343865 0 0 0 0 0 0 0 
217 0.0771963 0.91568 0.00712354 0 0 0 0 0 0 0 
218 0.130262 0.831963 0.0377746 0 0 0 0 0 0 0 
219 0.0871964 0.905277 0.00380802 0.00154297 0.00217579 0 0 0 0 0 
220 0.0977655 0.893797 0.00426757 0.00173 0.00243953 0 0 0 0 0 
221 0.162093 0.837476 0.000430489 0 0 0 0 0 0 0 
222 0.112323 0.885769 0.00153878 0.000368355 0 0 0 0 0 0 
223 0.0853426 0.887975 0.0145527 0.0121295 0 0 0 0 0 0 
224 0.0597556 0.926479 0.010104 0.00366077 0 0 0 0 0 0 
225 0.112323 0.885769 0.00153878 0.000368355 0 0 0 0 0 0 
226 0.0687722 0.917137 0.00689982 0.00719088 0 0 0 0 0 0 
227 0.109943 0.888121 0.00156246 0.000374022 0 0 0 0 0 0 
228 0.0749071 0.911328 0.010104 0.00366077 0 0 0 0 0 0 
229 0.0694064 0.916616 0.0102594 0.00371709 0 0 0 0 0 0 
230 0.0894754 0.901914 0.00435554 0.00176567 0.00248983 0 0 0 0 0 
231 0.0981277 0.889022 0.00649981 0.00263492 0.00371559 0 0 0 0 0 
232 0.0728049 0.916486 0.00541651 0.00219577 0.00309632 0 0 0 0 0 
233 0.0712109 0.928789 0 0 0 0 0 0 0 0 
234 0.131917 0.867229 0.000854451 0 0 0 0 0 0 0 
235 0.0539686 0.930632 0.00990429 0.00411566 0 0.00137908 0 0 0 0 
236 0.0822333 0.910748 0.00701878 0 0 0 0 0 0 0 
237 0.107652 0.891009 0.00108042 0.000258632 0 0 0 0 0 0 
238 0.0781456 0.90877 0.00640697 0.00667724 0 0 0 0 0 0 
239 0.0657381 0.920793 0.00659541 0.00687363 0 0 0 0 0 0 
240 0.0706441 0.922013 0.00734272 0 0 0 0 0 0 0 
241 0.0706441 0.922013 0.00734272 0 0 0 0 0 0 0 
242 0.0876647 0.897977 0.0143577 0 0 0 0 0 0 0 
243 0.0539686 0.930632 0.00990429 0.00411566 0 0.00137908 0 0 0 0 
244 0.0873659 0.884399 0.0214365 0.0030828 0.00371559 0 0 0 0 0 
245 0.0515876 0.933692 0.00946733 0.00393408 0 0.00131824 0 0 0 0 
246 0.0869937 0.911433 0.0012695 0.000303893 0 0 0 0 0 0 
247 0.0873659 0.899784 0.00649981 0.00263492 0.00371559 0 0 0 0 0 
248 0.0873659 0.899784 0.00649981 0.00263492 0.00371559 0 0 0 0 0 
249 0.0539686 0.930632 0.00990429 0.00411566 0 0.00137908 0 0 0 0 
250 0.0539686 0.930632 0.00990429 0.00411566 0 0.00137908 0 0 0 0 
251 0.0706441 0.922013 0.00734272 0 0 0 0 0 0 0 
252 0.0685353 0.924341 0.00712354 0 0 0 0 0 0 0 
253 0.0539686 0.930632 0.00990429 0.00411566 0 0.00137908 0 0 0 0 
254 0.118887 0.86967 0.0057875 0.00234616 0.0033084 0 0 0 0 0 
255 0.0677302 0.903241 0.00679555 0.0222332 0 0 0 0 0 0 
256 0.0903924 0.882925 0.0145527 0.0121295 0 0 0 0 0 0 
257 0.111287 0.876608 0.00612301 0.00248217 0.00350019 0 0 0 0 0 
258 0.0667193 0.919611 0.00669385 0.00697623 0 0 0 0 0 0 
259 0.0971718 0.900921 0.00153878 0.000368355 0 0 0 0 0 0 
260 0.0677302 0.903241 0.00695026 0.0220785 0 0 0 0 0 0 
261 0.124379 0.874813 0.000808276 0 0 0 0 0 0 0 
262 0.0606749 0.925348 0.0102594 0.00371709 0 0 0 0 0 0 
263 0.0695737 0.923195 0.00723147 0 0 0 0 0 0 0 
264 0.0843541 0.910343 0.00530329 0 0 0 0 0 0 0 
265 0.0606749 0.925348 0.0102594 0.00371709 0 0 0 0 0 0 
266 0.0854128 0.913422 0.000940369 0.000225106 0 0 0 0 0 0 
267 0.0539686 0.930632 0.00990429 0.00411566 0 0.00137908 0 0 0 0 
268 0.0971718 0.900921 0.00153878 0.000368355 0 0 0 0 0 0 
269 0.0835115 0.904205 0.00621305 0.00251868 0.00355166 0 0 0 0 0 
270 0.0539686 0.930632 0.00990429 0.00411566 0 0.00137908 0 0 0 0 
271 0.0539686 0.930632 0.00990429 0.00411566 0 0.00137908 0 0 0 0 
272 0.0597556 0.926479 0.010104 0.00366077 0 0 0 0 0 0 
273 0.049408 0.936438 0.00912278 0.00376786 0 0.00126254 0 0 0 0 
274 0.0863364 0.899523 0.0141401 0 0 0 0 0 0 0 
275 0.0539686 0.930632 0.00990429 0.00411566 0 0.00137908 0 0 0 0 
276 0.119762 0.874141 0.00308385 0.00125015 0.00176287 0 0 0 0 0 
277 0.0539686 0.930632 0.00990429 0.00411566 0 0.00137908 0 0 0 0 
278 0.0665488 0.926534 0.00691706 0 0 0 0 0 0 0 
279 0.0579981 0.928641 0.00980679 0.0035531 0 0 0 0 0 0 
280 0.0539686 0.930632 0.00990429 0.00411566 0 0.00137908 0 0 0 0 
281 0.0687722 0.917137 0.00689982 0.00719088 0 0 0 0 0 0 
282 0.0678828 0.925667 0.00644969 0 0 0 0 0 0 0 
283 0.0837971 0.902478 0.0137243 0 0 0 0 0 0 0 
284 0.0677302 0.918393 0.00679527 0.00708193 0 0 0 0 0 0 
285 0.0755139 0.897803 0.0145527 0.0121295 0 0 0 0 0 0 
286 0.0638599 0.923056 0.00640697 0.00667724 0 0 0 0 0 0 
287 0.0876647 0.897977 0.0143577 0 0 0 0 0 0 0 
288 0.0948174 0.881966 0.0232155 0 0 0 0 0 0 0 
289 0.0609183 0.925555 0.00869971 0.00361511 0 0.00121136 0 0 0 0 
290 0.101194 0.886151 0.00640133 0.002595 0.00365929 0 0 0 0 0 
291 0.0901624 0.89596 0.00679527 0.00708193 0 0 0 0 0 0 
292 0.0604334 0.924167 0.00990429 0.00411566 0 0.00137908 0 0 0 0 
293 0.0876647 0.897977 0.0143577 0 0 0 0 0 0 0 
294 0.0960545 0.902661 0.00103635 0.000248076 0 0 0 0 0 0 
295 0.101553 0.896723 0.00139123 0.000333033 0 0 0 0 0 0 
296 0.0588637 0.927576 0.00995316 0.00360613 0 0 0 0 0 0 
297 0.0282868 0.950073 0.0108198 0 0 0.01082 0 0 0 0 
298 0.0948174 0.881966 0.0232155 0 0 0 0 0 0 0 
299 0.0531509 0.931683 0.00975422 0.0040533 0 0.00135819 0 0 0 0 
300 0.0706441 0.922013 0.00734272 0 0 0 0 0 0 0 
301 0.0597556 0.926479 0.010104 0.00366077 0 0 0 0 0 0 
302 0.0685353 0.924341 0.00712354 0 0 0 0 0 0 0 
303 0.0956566 0.889985 0.0143577 0 0 0 0 0 0 0 
304 0.106177 0.893135 0.000687729 0 0 0 0 0 0 0 
305 0.0706441 0.922013 0.00734272 0 0 0 0 0 0 0 
306 0.105198 0.893735 0.000860675 0.000206029 0 0 0 0 0 0 
307 0.0755139 0.897803 0.0145527 0.0121295 0 0 0 0 0 0 
308 0.0996833 0.88785 0.00630578 0.00255627 0.00360467 0 0 0 0 0 
309 0.0687722 0.917137 0.00689982 0.00719088 0 0 0 0 0 0 
310 0.0834607 0.909416 0.00712354 0 0 0 0 0 0 0 
311 0.0982174 0.889499 0.00621305 0.00251868 0.00355166 0 0 0 0 0 
312 0.0675275 0.925454 0.00701878 0 0 0 0 0 0 0 
313 0.0665491 0.926534 0.00691706 0 0 0 0 0 0 0 
314 0.0675275 0.925454 0.00701878 0 0 0 0 0 0 0 
315 0.0706441 0.922013 0.00734272 0 0 0 0 0 0 0 
316 0.10075 0.876034 0.0232155 0 0 0 0 0 0 0 
317 0.0750779 0.924094 0.000668157 0.000159944 0 0 0 0 0 0 
318 0.0889964 0.904185 0.00681824 0 0 0 0 0 0 0 
319 0.0876647 0.897977 0.0143577 0 0 0 0 0 0 0 
320 0.0933808 0.883755 0.0228637 0 0 0 0 0 0 0 
321 0.0776846 0.922315 0 0 0 0 0 0 0 0 
322 0.0539686 0.930632 0.00990429 0.00411566 0 0.00137908 0 0 0 0 
323 0.0687722 0.917137 0.00689982 0.00719088 0 0 0 0 0 0 
324 0.0873659 0.899784 0.00649981 0.00263492 0.00371559 0 0 0 0 0 
325 0.0860422 0.901302 0.00640133 0.002595 0.00365929 0 0 0 0 0 
326 0.0873659 0.899784 0.00649981 0.00263492 0.00371559 0 0 0 0 0 
327 0.109759 0.889349 0.000720311 0.000172421 0 0 0 0 0 0 
328 0.0606749 0.925348 0.0102594 0.00371709 0 0 0 0 0 0 
329 0.0873659 0.899784 0.00649981 0.00263492 0.00371559 0 0 0 0 0 
330 0.0795093 0.910547 0.00502961 0.00203893 0.00287516 0 0 0 0 0 
331 0.0646742 0.928604 0.00672221 0 0 0 0 0 0 0 
332 0.0282868 0.950073 0.0108198 0 0 0.01082 0 0 0 0 
333 0.0816447 0.904685 0.00669385 0.00697623 0 0 0 0 0 0 
334 0.0876647 0.897977 0.0143577 0 0 0 0 0 0 0 
335 0.0588637 0.927576 0.00995316 0.00360613 0 0 0 0 0 0 
336 0.0687722 0.917137 0.00689982 0.00719088 0 0 0 0 0 0 
337 0.0695737 0.923195 0.00723147 0 0 0 0 0 0 0 
338 0.0539686 0.930632 0.00990429 0.00411566 0 0.00137908 0 0 0 0 
339 0.150796 0.84841 0.000794279 0 0 0 0 0 0 0 
340 0.0646742 0.914519 0.0208066 0 0 0 0 0 0 0 
341 0.0799829 0.908253 0.00595053 0.00241225 0.00340159 0 0 0 0 0 
342 0.0809371 0.895304 0.0129579 0.0108002 0 0 0 0 0 0 
343 0.0695737 0.923195 0.00723147 0 0 0 0 0 0 0 
344 0.0701085 0.91958 0.0052159 0.00211444 0.00298164 0 0 0 0 0 
345 0.0706441 0.922013 0.00734272 0 0 0 0 0 0 0 
346 0.133947 0.865186 0.000867597 0 0 0 0 0 0 0 
347 0.0783998 0.914257 0.00734272 0 0 0 0 0 0 0 
348 0.0749071 0.911328 0.010104 0.00366077 0 0 0 0 0 0 
349 0.0764011 0.909508 0.00689982 0.00719088 0 0 0 0 0 0 
350 0.0749071 0.911328 0.010104 0.00366077 0 0 0 0 0 0 
351 0.138117 0.86127 0.000612976 0 0 0 0 0 0 0 
352 0.0844058 0.890817 0.0135132 0.0112631 0 0 0 0 0 0 
353 0.0873659 0.899784 0.00649981 0.00263492 0.00371559 0 0 0 0 0 
354 0.0755139 0.897803 0.0145527 0.0121295 0 0 0 0 0 0 
355 0.0629605 0.92414 0.00631673 0.0065832 0 0 0 0 0 0 
356 0.0606749 0.925348 0.0102594 0.00371709 0 0 0 0 0 0 
357 0.0863364 0.899523 0.0141401 0 0 0 0 0 0 0 
358 0.0695737 0.923195 0.00723147 0 0 0 0 0 0 0 
359 0.0834606 0.909416 0.00712354 0 0 0 0 0 0 0 
360 0.107278 0.881222 0.00844129 0.00305836 0 0 0 0 0 0 
361 0.0687722 0.917137 0.00689982 0.00719088 0 0 0 0 0 0 
362 0.0667187 0.922112 0.00546937 0.00570009 0 0 0 0 0 0 
363 0.0494078 0.936494 0.0090673 0.00376786 0 0.00126254 0 0 0 0 
364 0.0606749 0.909963 0.0103198 0.0190413 0 0 0 0 0 0 
365 0.0606749 0.925348 0.0102594 0.00371709 0 0 0 0 0 0 
366 5.88805e-05 0.99994 0 0 0 0 0 0 0 0 
367 0.0986668 0.899397 0.00156246 0.000374022 0 0 0 0 0 0 
368 0.0685353 0.924341 0.00712354 0 0 0 0 0 0 0 
369 0.0597556 0.926479 0.010104 0.00366077 0 0 0 0 0 0 
370 0.0687722 0.917137 0.00689982 0.00719088 0 0 0 0 0 0 
371 0.0606749 0.925348 0.0102594 0.00371709 0 0 0 0 0 0 
372 0.0657381 0.920793 0.00659541 0.00687363 0 0 0 0 0 0 
373 0.0863364 0.899523 0.0141401 0 0 0 0 0 0 0 
374 0.0515876 0.919012 0.0241477 0.00393408 0 0.00131824 0 0 0 0 
375 0.0863364 0.899523 0.0141401 0 0 0 0 0 0 0 
376 0.0606749 0.925348 0.0102594 0.00371709 0 0 0 0 0 0 
377 0.0835115 0.904205 0.00621305 0.00251868 0.00355166 0 0 0 0 0 
378 0.0467728 0.939881 0.00858371 0.0035669 0 0.00119521 0 0 0 0 
379 0.0675275 0.925454 0.00701878 0 0 0 0 0 0 0 
380 0.0706441 0.922013 0.00734272 0 0 0 0 0 0 0 
381 0.0606749 0.925348 0.0102594 0.00371709 0 0 0 0 0 0 
382 0.0687722 0.917137 0.00689982 0.00719088 0 0 0 0 0 0 
383 0.0606749 0.925348 0.0102594 0.00371709 0 0 0 0 0 0 
384 0.0860422 0.901302 0.00640133 0.002595 0.00365929 0 0 0 0 0 
385 0.0971718 0.900921 0.00153878 0.000368355 0 0 0 0 0 0 
386 0.0695737 0.923195 0.00723147 0 0 0 0 0 0 0 
387 0.0597556 0.926479 0.010104 0.00366077 0 0 0 0 0 0 
388 0.0606749 0.925348 0.0102594 0.00371709 0 0 0 0 0 0 
389 0.0706441 0.922013 0.00734272 0 0 0 0 0 0 0 
390 0.0823012 0.905593 0.00612302 0.00248217 0.00350019 0 0 0 0 0 
391 0.0873659 0.899784 0.00649981 0.00263492 0.00371559 0 0 0 0 0 
392 0.0539686 0.930632 0.00990429 0.00411566 0 0.00137908 0 0 0 0 
393 0.0606749 0.925348 0.0102594 0.00371709 0 0 0 0 0 0 
394 0.0971718 0.900921 0.00153878 0.000368355 0 0 0 0 0 0 
395 0.090897 0.88242 0.0145527 0.0121295 0 0 0 0 0 0 
396 0.0706441 0.922013 0.00734272 0 0 0 0 0 0 0 
397 0.0531509 0.931683 0.00975422 0.0040533 0 0.00135819 0 0 0 0 
398 0.0606749 0.925348 0.0102594 0.00371709 0 0 0 0 0 0 
399 0.128349 0.871081 0.000569673 0 0 0 0 0 0 0 
400 0.0282868 0.950073 0.0108198 0 0 0.01082 0 0 0 0 
401 0.0523576 0.932703 0.00960864 0.0039928 0 0.00133792 0 0 0 0 
402 0.0709464 0.914963 0.00689982 0.00719088 0 0 0 0 0 0 
403 0.0661611 0.918673 0.00975422 0.0040533 0 0.00135819 0 0 0 0 
404 0.0539686 0.930632 0.00990429 0.00411566 0 0.00137908 0 0 0 0 
405 0 0.999999 0 0 0 0 0 0 0 0 
406 0.05084 0.92016 0.00955429 0.0181457 0 0.00129914 0 0 0 0 
407 0.0873659 0.899784 0.00649981 0.00263492 0.00371559 0 0 0 0 0 
408 0.0278582 0.950829 0.0106559 0 0 0.0106561 0 0 0 0 
409 0.0755139 0.897803 0.0145527 0.0121295 0 0 0 0 0 0 
410 0.0873659 0.899784 0.00649981 0.00263492 0.00371559 0 0 0 0 0 
411 0.0706441 0.922013 0.00734272 0 0 0 0 0 0 0 
412 0.0957499 0.902371 0.00151582 0.000362857 0 0 0 0 0 0 
413 0.0580544 0.930051 0.00582452 0.00607022 0 0 0 0 0 0 
414 0.0539686 0.930632 0.00990429 0.00411566 0 0.00137908 0 0 0 0 
415 0.131917 0.867229 0.000854451 0 0 0 0 0 0 0 
416 0.0902538 0.898459 0.00570929 0.00231446 0.00326369 0 0 0 0 0 
417 0.0755139 0.897803 0.0145527 0.0121295 0 0 0 0 0 0 
418 0.0965161 0.890634 0.00649981 0.00263492 0.00371559 0 0 0 0 0 
419 0.0669093 0.919114 0.0102594 0.00371709 0 0 0 0 0 0 
420 0.0683024 0.916531 0.00975422 0.0040533 0 0.00135819 0 0 0 0 
421 0.144873 0.854285 0.000841698 0 0 0 0 0 0 0 
422 0.0685353 0.924341 0.00712354 0 0 0 0 0 0 0 
423 0.0986668 0.899397 0.00156246 0.000374022 0 0 0 0 0 0 
424 0.0986668 0.899397 0.00156246 0.000374022 0 0 0 0 0 0 
425 0.0687722 0.917137 0.00689982 0.00719088 0 0 0 0 0 0 
426 0.0743698 0.899352 0.0143322 0.0119457 0 0 0 0 0 0 
427 0.0531509 0.931683 0.00975422 0.0040533 0 0.00135819 0 0 0 0 
428 0.0986668 0.899397 0.00156246 0.000374022 0 0 0 0 0 0 
429 0.0766884 0.923312 0 0 0 0 0 0 0 0 
430 0.0706444 0.922013 0.00734272 0 0 0 0 0 0 0 
431 0.0983861 0.89449 0.00712354 0 0 0 0 0 0 0 
432 0.0804476 0.906653 0.00631673 0.0065832 0 0 0 0 0 0 
433 0.112284 0.885809 0.00153878 0.000368355 0 0 0 0 0 0 
434 0.075514 0.897803 0.0145527 0.0121295 0 0 0 0 0 0 
435 0.084758 0.902775 0.00630578 0.00255627 0.00360467 0 0 0 0 0 
436 0.0914902 0.897068 0.0057875 0.00234616 0.0033084 0 0 0 0 0 
437 0.10785 0.891523 0.000626605 0 0 0 0 0 0 0 
438 0.0716503 0.915183 0.00966468 0.00350161 0 0 0 0 0 0 
439 0.0887144 0.897726 0.00995316 0.00360613 0 0 0 0 0 0 
440 0.0683024 0.916531 0.00975422 0.0040533 0 0.00135819 0 0 0 0 
441 0.0982174 0.889499 0.00621305 0.00251868 0.00355166 0 0 0 0 0 
442 0.0582817 0.933195 0.0043111 0.00174765 0.00246442 0 0 0 0 0 
443 0.0706441 0.922013 0.00734272 0 0 0 0 0 0 0 
444 0.105214 0.881886 0.00631673 0.0065832 0 0 0 0 0 0 
445 0.0687722 0.917137 0.00689982 0.00719088 0 0 0 0 0 0 
446 0.0579981 0.928641 0.00980679 0.0035531 0 0 0 0 0 0 
447 0.0539686 0.930632 0.00990429 0.00411566 0 0.00137908 0 0 0 0 
448 0.0743698 0.899352 0.0143322 0.0119457 0 0 0 0 0 0 
449 0.0625612 0.922039 0.00990429 0.00411566 0 0.00137908 0 0 0 0 
450 0.0781815 0.908734 0.00640753 0.00667724 0 0 0 0 0 0 
451 0.106398 0.870386 0.0232155 0 0 0 0 0 0 0 
452 0.08611 0.887207 0.0145527 0.0121295 0 0 0 0 0 0 
453 0.0881852 0.885929 0.0141183 0.0117674 0 0 0 0 0 0 
454 0.0732598 0.900854 0.0141183 0.0117674 0 0 0 0 0 0 
455 0.0873659 0.899784 0.00649981 0.00263492 0.00371559 0 0 0 0 0 
456 0.0948174 0.881966 0.0232155 0 0 0 0 0 0 0 
457 0.0873659 0.899784 0.00649981 0.00263492 0.00371559 0 0 0 0 0 
458 0.0687722 0.917137 0.00689982 0.00719088 0 0 0 0 0 0 
459 0.0687722 0.917137 0.00689982 0.00719088 0 0 0 0 0 0 
460 0.063744 0.930574 0.00568224 0 0 0 0 0 0 0 
461 0.0873659 0.899784 0.00649981 0.00263492 0.00371559 0 0 0 0 0 
462 0.0706441 0.922013 0.00734272 0 0 0 0 0 0 0 
463 0.080444 0.906087 0.00659541 0.00687363 0 0 0 0 0 0 
464 0.0890742 0.909178 0.00141055 0.000337659 0 0 0 0 0 0 
465 0.0860422 0.901302 0.00640133 0.002595 0.00365929 0 0 0 0 0 
466 0.0523576 0.932703 0.00960864 0.0039928 0 0.00133792 0 0 0 0 
467 0.0822333 0.910748 0.00701878 0 0 0 0 0 0 0 
468 0.090987 0.894654 0.0143577 0 0 0 0 0 0 0 
469 0.10738 0.869403 0.0232155 0 0 0 0 0 0 0 
470 0.0801635 0.905746 0.00689982 0.00719088 0 0 0 0 0 0 
471 0.0607835 0.923817 0.00990429 0.00411566 0 0.00137908 0 0 0 0 
472 0.0606749 0.925348 0.0102594 0.00371709 0 0 0 0 0 0 
473 0.0933808 0.883755 0.0228637 0 0 0 0 0 0 0 
474 0.0860422 0.901302 0.00640133 0.002595 0.00365929 0 0 0 0 0 
475 0.0706441 0.922013 0.00734272 0 0 0 0 0 0 0 
476 0.0606749 0.925348 0.0102594 0.00371709 0 0 0 0 0 0 
477 0.0695737 0.923195 0.00723147 0 0 0 0 0 0 0 
478 0.0531509 0.916531 0.00975423 0.0192048 0 0.00135819 0 0 0 0 
479 0.0531509 0.931683 0.00975422 0.0040533 0 0.00135819 0 0 0 0 
480 0.0687722 0.917137 0.00689982 0.00719088 0 0 0 0 0 0 
481 0.0539686 0.930632 0.00990429 0.00411566 0 0.00137908 0 0 0 0 
482 0.0687722 0.917137 0.00689982 0.00719088 0 0 0 0 0 0 
483 0.0667193 0.919611 0.00669385 0.00697623 0 0 0 0 0 0 
484 0.0687722 0.917137 0.00689982 0.00719088 0 0 0 0 0 0 
485 0.0597556 0.926479 0.010104 0.00366077 0 0 0 0 0 0 
486 0.0687722 0.917137 0.00689982 0.00719088 0 0 0 0 0 0 
487 0.0683024 0.916531 0.00975422 0.0040533 0 0.00135819 0 0 0 0 
488 0.0629023 0.93056 0.00653804 0 0 0 0 0 0 0 
489 0.131917 0.867229 0.000854451 0 0 0 0 0 0 0 
490 0.0655981 0.927584 0.00681824 0 0 0 0 0 0 0 
491 0.0798838 0.913298 0.00681824 0 0 0 0 0 0 0 
492 0.0798975 0.907825 0.00901165 0.00326501 0 0 0 0 0 0 
493 0.0657381 0.920793 0.00659541 0.00687363 0 0 0 0 0 0 
494 0.0936437 0.89617 0.00515229 0.00208866 0.00294528 0 0 0 0 0 
495 0.0916192 0.906583 0.00145085 0.000347306 0 0 0 0 0 0 
496 0.0606749 0.925348 0.0102594 0.00371709 0 0 0 0 0 0 
497 0.0706441 0.922013 0.00734272 0 0 0 0 0 0 0 
498 0.0672829 0.917777 0.00960864 0.0039928 0 0.00133792 0 0 0 0 
499 0.0606749 0.925348 0.0102594 0.00371709 0 0 0 0 0 0 
500 0.0547759 0.932606 0.00926197 0.00335571 0 0 0 0 0 0 
501 0.0706441 0.922013 0.00734272 0 0 0 0 0 0 0 
502 0.0531509 0.931683 0.00975422 0.0040533 0 0.00135819 0 0 0 0 
503 0.0685353 0.924341 0.00712354 0 0 0 0 0 0 0 
504 0.0606749 0.925348 0.0102594 0.00371709 0 0 0 0 0 0 
505 0.0606749 0.925348 0.0102594 0.00371709 0 0 0 0 0 0 
506 0.0657381 0.920793 0.00659542 0.00687363 0 0 0 0 0 0 
507 0.0824004 0.911634 0.00596597 0 0 0 0 0 0 0 
508 0.0695737 0.923195 0.00723147 0 0 0 0 0 0 0 
509 0.0986668 0.899397 0.00156246 0.000374022 0 0 0 0 0 0 
510 0.0841543 0.901755 0.00689982 0.00719088 0 0 0 0 0 0 
511 0.0755139 0.897803 0.0145527 0.0121295 0 0 0 0 0 0 
512 0.0687722 0.917137 0.00689982 0.00719088 0 0 0 0 0 0 
513 0.0860422 0.901302 0.00640133 0.002595 0.00365929 0 0 0 0 0 
514 0.0755139 0.897803 0.0145527 0.0121295 0 0 0 0 0 0 
515 0.0606749 0.925348 0.0102594 0.00371709 0 0 0 0 0 0 
516 0.0597556 0.926479 0.010104 0.00366077 0 0 0 0 0 0 
517 0.0743698 0.899352 0.0143322 0.0119457 0 0 0 0 0 0 
518 0.0766522 0.913284 0.00509021 0.00206349 0.0029098 0 0 0 0 0 
519 0.0755139 0.897803 0.0145527 0.0121295 0 0 0 0 0 0 
520 0.0614491 0.933306 0.0052448 0 0 0 0 0 0 0 
521 0.0834607 0.909416 0.00712354 0 0 0 0 0 0 0 
522 0.0822333 0.910748 0.00701878 0 0 0 0 0 0 0 
523 0.0685353 0.924341 0.00712354 0 0 0 0 0 0 0 
524 0.0606749 0.925348 0.0102594 0.00371709 0 0 0 0 0 0 
525 0.0755139 0.897803 0.0145527 0.0121295 0 0 0 0 0 0 
526 0.0823012 0.905593 0.00612301 0.00248217 0.00350019 0 0 0 0 0 
527 0.0588637 0.927576 0.00995316 0.00360613 0 0 0 0 0 0 
528 0.091987 0.88549 0.0225225 0 0 0 0 0 0 0 
529 0.0677302 0.918393 0.00679527 0.00708193 0 0 0 0 0 0 
530 0.0667193 0.919611 0.00669385 0.00697623 0 0 0 0 0 0 
531 0.0822333 0.910748 0.00701878 0 0 0 0 0 0 0 
532 0.128037 0.871134 0.000829321 0 0 0 0 0 0 0 
533 0.0282868 0.950073 0.0108198 0 0 0.01082 0 0 0 0 
534 0.0597556 0.926479 0.010104 0.00366077 0 0 0 0 0 0 
535 0.0755139 0.897803 0.0145527 0.0121295 0 0 0 0 0 0 
536 0.0788395 0.919821 0.00108042 0.000258632 0 0 0 0 0 0 
537 0.0643994 0.921301 0.00919684 0.00382168 0 0.00128058 0 0 0 0 
538 0.0667193 0.919611 0.00669385 0.00697623 0 0 0 0 0 0 
539 0.131169 0.868069 0.000762078 0 0 0 0 0 0 0 
540 0.084758 0.902775 0.00630578 0.00255627 0.00360467 0 0 0 0 0 
541 0.0687722 0.917137 0.00689982 0.00719088 0 0 0 0 0 0 
542 0.0776846 0.922315 0 0 0 0 0 0 0 0 
543 0.0971718 0.900921 0.00153878 0.000368355 0 0 0 0 0 0 
544 0.0863364 0.899523 0.0141401 0 0 0 0 0 0 0 
545 0.0755139 0.897803 0.0145527 0.0121295 0 0 0 0 0 0 
546 0.0674637 0.932536 0 0 0 0 0 0 0 0 
547 0.0675275 0.925454 0.00701878 0 0 0 0 0 0 0 
548 0.0790018 0.906907 0.00689982 0.00719088 0 0 0 0 0 0 
549 0.0809532 0.911704 0.00734272 0 0 0 0 0 0 0 
550 0.0790027 0.906907 0.00689982 0.00719088 0 0 0 0 0 0 
551 0.0606749 0.925348 0.0102594 0.00371709 0 0 0 0 0 0 
552 0.084758 0.887936 0.0211453 0.00255627 0.00360467 0 0 0 0 0 
553 0.0971718 0.900921 0.00153878 0.000368355 0 0 0 0 0 0 
554 0.0986668 0.899397 0.00156246 0.000374022 0 0 0 0 0 0 
555 0.062086 0.925193 0.006229 0.00649177 0 0 0 0 0 0 
556 0.0706441 0.922013 0.00734272 0 0 0 0 0 0 0 
557 0.0873659 0.899784 0.00649981 0.00263492 0.00371559 0 0 0 0 0 
558 0.0687722 0.917137 0.00689982 0.00719088 0 0 0 0 0 0 
559 0.0986668 0.899397 0.00156246 0.000374022 0 0 0 0 0 0 
560 0.0539686 0.930632 0.00990429 0.00411566 0 0.00137908 0 0 0 0 
561 0.104413 0.893813 0.00143117 0.000342414 0 0 0 0 0 0 
562 0.0687722 0.917137 0.00689982 0.00719088 0 0 0 0 0 0 
563 0.0755139 0.897803 0.0145527 0.0121295 0 0 0 0 0 0 
564 0.0610619 0.930462 0.00418817 0.00428814 0 0 0 0 0 0 
565 0.0878315 0.910738 0.00115416 0.000276266 0 0 0 0 0 0 
566 0.127354 0.861656 0.00555905 0.00225355 0.0031778 0 0 0 0 0 
567 0.0873659 0.899784 0.00649981 0.00263492 0.00371559 0 0 0 0 0 
568 0.0948174 0.881966 0.0232155 0 0 0 0 0 0 0 
569 0.0608004 0.9238 0.00990429 0.00411566 0 0.00137908 0 0 0 0 
570 0.0768328 0.916044 0.00712354 0 0 0 0 0 0 0 
571 0.0957215 0.9024 0.00151582 0.000362857 0 0 0 0 0 0 
572 0.0971718 0.900921 0.00153878 0.000368355 0 0 0 0 0 0 
573 0.0957215 0.9024 0.00151582 0.000362857 0 0 0 0 0 0 
574 0.0860422 0.901302 0.00640133 0.002595 0.00365929 0 0 0 0 0 
575 0.0755139 0.897803 0.0145527 0.0121295 0 0 0 0 0 0 
576 0.0718833 0.917544 0.00534794 0.00216797 0.00305713 0 0 0 0 0 
577 0.0860422 0.901302 0.00640133 0.002595 0.00365929 0 0 0 0 0 
578 0.104898 0.894422 0.00067993 0 0 0 0 0 0 0 
579 0.0579981 0.928641 0.00980679 0.0035531 0 0 0 0 0 0 
580 0.0677302 0.918393 0.00679527 0.00708193 0 0 0 0 0 0 
581 0.0743698 0.899352 0.0143322 0.0119457 0 0 0 0 0 0 
582 0.0606749 0.925348 0.0102594 0.00371709 0 0 0 0 0 0 
583 0.0876647 0.897977 0.0143577 0 0 0 0 0 0 0 
584 0.0948174 0.881966 0.0232155 0 0 0 0 0 0 0 
585 0.0860422 0.901302 0.00640133 0.002595 0.00365929 0 0 0 0 0 
586 0.101488 0.884371 0.0141401 0 0 0 0 0 0 0 
587 0.0606749 0.925348 0.0102594 0.00371709 0 0 0 0 0 0 
588 0.0792782 0.907448 0.00649983 0.00677402 0 0 0 0 0 0 
589 0.075566 0.917984 0.00644969 0 0 0 0 0 0 0 
590 0.105905 0.892297 0.00145085 0.000347306 0 0 0 0 0 0 
591 0.0876647 0.897977 0.0143577 0 0 0 0 0 0 0 
592 0.0606749 0.925348 0.0102594 0.00371709 0 0 0 0 0 0 
593 0.084758 0.902775 0.00630578 0.00255627 0.00360467 0 0 0 0 0 
594 0.0608498 0.924643 0.00933012 0.00387707 0 0.00129914 0 0 0 0 
595 0.0747209 0.901131 0.00555932 0.015381 0.00320798 0 0 0 0 0 
596 0.0660558 0.921148 0.00939242 0.00340297 0 0 0 0 0 0 
597 0.0677349 0.918388 0.00679527 0.00708193 0 0 0 0 0 0 
598 0.0743698 0.899347 0.0143369 0.0119457 0 0 0 0 0 0 
599 0.0811255 0.906942 0.00603554 0.00244671 0.00345019 0 0 0 0 0 
600 0.0873659 0.899784 0.00649981 0.00263492 0.00371559 0 0 0 0 0 
601 0.0755139 0.897803 0.0145527 0.0121295 0 0 0 0 0 0 
602 0.0606749 0.925348 0.0102594 0.00371709 0 0 0 0 0 0 
603 0.0687722 0.917137 0.00689982 0.00719088 0 0 0 0 0 0 
604 0.0523576 0.917777 0.0245339 0.0039928 0 0.00133792 0 0 0 0 
605 0.0843861 0.913958 0.00133631 0.000319887 0 0 0 0 0 0 
606 0.0665488 0.926534 0.00691706 0 0 0 0 0 0 0 
607 0.0957215 0.9024 0.00151582 0.000362857 0 0 0 0 0 0 
608 0.0666629 0.926519 0.00681824 0 0 0 0 0 0 0 
609 0.0597556 0.926479 0.010104 0.00366077 0 0 0 0 0 0 
610 0.0833571 0.892215 0.0133229 0.0111044 0 0 0 0 0 0 
611 0.0606749 0.925348 0.0102594 0.00371709 0 0 0 0 0 0 
612 0.0860422 0.901302 0.00640133 0.002595 0.00365929 0 0 0 0 0 
613 0.0876647 0.897977 0.0143577 0 0 0 0 0 0 0 
614 0.115224 0.874833 0.00502961 0.00203893 0.00287516 0 0 0 0 0 
615 0.133947 0.865186 0.000867597 0 0 0 0 0 0 0 
616 0.0743698 0.899352 0.0143322 0.0119457 0 0 0 0 0 0 
617 0.0755139 0.897803 0.0145527 0.0121295 0 0 0 0 0 0 
618 0.0539686 0.930632 0.00990429 0.00411566 0 0.00137908 0 0 0 0 
619 0.129948 0.86921 0.000841698 0 0 0 0 0 0 0 
620 0.0986668 0.899397 0.00156246 0.000374022 0 0 0 0 0 0 
621 0.0986668 0.899397 0.00156246 0.000374022 0 0 0 0 0 0 
622 0.0943138 0.903835 0.00149353 0.000357521 0 0 0 0 0 0 
623 0.0755139 0.897803 0.0145527 0.0121295 0 0 0 0 0 0 
624 5.79883e-05 0.999941 0 0 0 0 0 0 0 0 
625 0.0606749 0.925348 0.0102594 0.00371709 0 0 0 0 0 0 
626 0.0606749 0.925348 0.0102594 0.00371709 0 0 0 0 0 0 
627 0.0637759 0.929595 0.00662885 0 0 0 0 0 0 0 
628 0.131917 0.867229 0.000854451 0 0 0 0 0 0 0 
629 0.0570434 0.942957 0 0 0 0 0 0 0 0 
630 0.0597556 0.926479 0.010104 0.00366077 0 0 0 0 0 0 
631 0.0810416 0.912041 0.00691706 0 0 0 0 0 0 0 
632 0.122627 0.876579 0.000794279 0 0 0 0 0 0 0 
633 0.0941701 0.899012 0.00681824 0 0 0 0 0 0 0 
634 0.133947 0.865186 0.000867597 0 0 0 0 0 0 0 
635 0.0539686 0.930632 0.00990429 0.00411566 0 0.00137908 0 0 0 0 
636 0.0665488 0.926534 0.00691706 0 0 0 0 0 0 0 
637 0.102384 0.886479 0.00563317 0.0022836 0.00322018 0 0 0 0 0 
638 0.0767403 0.911972 0.00570929 0.00231446 0.00326369 0 0 0 0 0 
639 0.0597556 0.926479 0.010104 0.00366077 0 0 0 0 0 0 
640 0.0890285 0.869547 0.0294779 0.0119457 0 0 0 0 0 0 
641 0.1458 0.852832 0.00110391 0.000264255 0 0 0 0 0 0 
642 0.0718833 0.917544 0.00534794 0.00216797 0.00305713 0 0 0 0 0 
643 0.0933808 0.883755 0.0228637 0 0 0 0 0 0 0 
644 0.0480542 0.938234 0.00881889 0.00366463 0 0.00122795 0 0 0 0 
645 0.0873659 0.899784 0.00649981 0.00263492 0.00371559 0 0 0 0 0 
646 0.0531508 0.931683 0.00975425 0.0040533 0 0.00135819 0 0 0 0 
647 0.0876647 0.897977 0.0143577 0 0 0 0 0 0 0 
648 0.089481 0.898052 0.00630578 0.00255627 0.00360467 0 0 0 0 0 
649 0.0701138 0.916121 0.010104 0.00366077 0 0 0 0 0 0 
650 0.0860422 0.901302 0.00640133 0.002595 0.00365929 0 0 0 0 0 
651 0.0835115 0.904205 0.00621305 0.00251868 0.00355166 0 0 0 0 0 
652 0.0667193 0.904685 0.00669386 0.0219016 0 0 0 0 0 0 
653 0.056341 0.93068 0.0095266 0.00345158 0 0 0 0 0 0 
654 0.0933808 0.883755 0.0228637 0 0 0 0 0 0 0 
655 0.0539686 0.930632 0.00990429 0.00411566 0 0.00137908 0 0 0 0 
656 0.0687722 0.917137 0.00689982 0.00719088 0 0 0 0 0 0 
657 0.0667193 0.919611 0.00669385 0.00697623 0 0 0 0 0 0 
658 0.0860422 0.901302 0.00640133 0.002595 0.00365929 0 0 0 0 0 
659 0.119383 0.878938 0.00135435 0.000324152 0 0 0 0 0 0 
660 0.0860422 0.901302 0.00640133 0.002595 0.00365929 0 0 0 0 0 
661 0.0597556 0.926479 0.010104 0.00366077 0 0 0 0 0 0 
662 0.0743698 0.899352 0.0143322 0.0119457 0 0 0 0 0 0 
663 0.0873659 0.899784 0.00649981 0.00263492 0.00371559 0 0 0 0 0 
664 0.0515876 0.933692 0.00946733 0.00393408 0 0.00131824 0 0 0 0 
665 0.0695737 0.923195 0.00723147 0 0 0 0 0 0 0 
666 0.0677302 0.918393 0.00679527 0.00708193 0 0 0 0 0 0 
667 0.0815715 0.9074 0.0110287 0 0 0 0 0 0 0 
668 0.0606749 0.925348 0.0102594 0.00371709 0 0 0 0 0 0 
669 0.105839 0.883975 0.00515229 0.00208866 0.00294528 0 0 0 0 0 
670 0.0706441 0.922013 0.00734272 0 0 0 0 0 0 0 
671 0.0706441 0.922013 0.00734272 0 0 0 0 0 0 0 
672 0.0867375 0.902415 0.00548685 0.00222429 0.00313653 0 0 0 0 0 
673 0.0687722 0.917137 0.00689982 0.00719088 0 0 0 0 0 0 
674 0.0873659 0.899784 0.00649981 0.00263492 0.00371559 0 0 0 0 0 
675 0.10902 0.889129 0.00149352 0.000357521 0 0 0 0 0 0 
676 0.0902014 0.898034 0.00595053 0.00241225 0.00340159 0 0 0 0 0 
677 0.128416 0.833809 0.0377746 0 0 0 0 0 0 0 
678 0.0648977 0.921125 0.0102594 0.00371709 0 0 0 0 0 0 
679 0.0677303 0.918392 0.00679527 0.00708193 0 0 0 0 0 0 
680 0.0687722 0.917137 0.00689982 0.00719088 0 0 0 0 0 0 
681 0.113377 0.865664 0.0209584 0 0 0 0 0 0 0 
682 0.0638599 0.923056 0.00640697 0.00667724 0 0 0 0 0 0 
683 0.0863364 0.899523 0.0141401 0 0 0 0 0 0 0 
684 0.0655487 0.920474 0.0102594 0.00371709 0 0 0 0 0 0 
685 0.0695737 0.923195 0.00723147 0 0 0 0 0 0 0 
686 0.0687722 0.917137 0.00689982 0.00719088 0 0 0 0 0 0 
687 0.0876647 0.897977 0.0143577 0 0 0 0 0 0 0 
688 0.0800378 0.893279 0.0145527 0.0121295 0 0 0 0 0 0 
689 0.0597556 0.926479 0.010104 0.00366077 0 0 0 0 0 0 
690 0.0531509 0.931683 0.00975422 0.0040533 0 0.00135819 0 0 0 0 
691 0.0905163 0.883358 0.026125 0 0 0 0 0 0 0 
692 0.0755139 0.897803 0.0145527 0.0121295 0 0 0 0 0 0 
693 0.0685353 0.924341 0.00712354 0 0 0 0 0 0 0 
694 0.0671213 0.918372 0.00933012 0.00387707 0 0.00129914 0 0 0 0 
695 0.0579981 0.928641 0.00980679 0.0035531 0 0 0 0 0 0 
696 0.0948174 0.881966 0.0232155 0 0 0 0 0 0 0 
697 0.0606749 0.925348 0.0102594 0.00371709 0 0 0 0 0 0 
698 0.0743698 0.899352 0.0143322 0.0119457 0 0 0 0 0 0 
699 0.0933808 0.883755 0.0228637 0 0 0 0 0 0 0 
700 0.0850478 0.901022 0.0139291 0 0 0 0 0 0 0 
701 0.0876647 0.897977 0.0143577 0 0 0 0 0 0 0 
702 0.0579981 0.928641 0.00980679 0.0035531 0 0 0 0 0 0 
703 0.0873539 0.885963 0.0145527 0.0121295 0 0 0 0 0 0 
704 0.0828817 0.903241 0.00679527 0.00708193 0 0 0 0 0 0 
705 0.0847253 0.908043 0.00723147 0 0 0 0 0 0 0 
706 0.064338 0.921685 0.0102594 0.00371709 0 0 0 0 0 0 
707 0.0876647 0.897977 0.0143577 0 0 0 0 0 0 0 
708 0.0606749 0.925348 0.0102594 0.00371709 0 0 0 0 0 0 
709 0.0755139 0.897803 0.0145527 0.0121295 0 0 0 0 0 0 
710 0.0687722 0.917137 0.00689982 0.00719088 0 0 0 0 0 0 
711 0.111287 0.876608 0.00612301 0.00248217 0.00350019 0 0 0 0 0 
712 0.0685353 0.924341 0.00712354 0 0 0 0 0 0 0 
713 0.0741767 0.901735 0.0131378 0.0109502 0 0 0 0 0 0 
714 0.1591 0.840177 0.000722997 0 0 0 0 0 0 0 
715 0.0665488 0.926534 0.00691706 0 0 0 0 0 0 0 
716 0.0282868 0.950073 0.0108198 0 0 0.01082 0 0 0 0 
717 0.0755139 0.897803 0.0145527 0.0121295 0 0 0 0 0 0 
718 0.0847253 0.908043 0.00723147 0 0 0 0 0 0 0 
719 0.0597556 0.926479 0.010104 0.00366077 0 0 0 0 0 0 
720 0.0996833 0.88785 0.00630578 0.00255627 0.00360467 0 0 0 0 0 
721 0.132116 0.86725 0.000633734 0 0 0 0 0 0 0 
722 0.117656 0.881582 0.000762078 0 0 0 0 0 0 0 
723 0.0706441 0.922013 0.00734272 0 0 0 0 0 0 0 
724 0.0606749 0.925348 0.0102594 0.00371709 0 0 0 0 0 0 
725 0.0706441 0.922013 0.00734272 0 0 0 0 0 0 0 
726 0.10902 0.889129 0.00149352 0.000357521 0 0 0 0 0 0 
727 0.0706446 0.922013 0.00734272 0 0 0 0 0 0 0 
728 0.0539686 0.930632 0.00990429 0.00411566 0 0.00137908 0 0 0 0 
729 0.101488 0.884371 0.0141401 0 0 0 0 0 0 0 
730 0.0873659 0.899784 0.00649981 0.00263492 0.00371559 0 0 0 0 0 
731 0.0876647 0.897977 0.0143577 0 0 0 0 0 0 0 
732 0.0685355 0.924341 0.00712354 0 0 0 0 0 0 0 
733 0.084758 0.902775 0.00630578 0.00255627 0.00360467 0 0 0 0 0 
734 0.0781456 0.90877 0.00640697 0.00667724 0 0 0 0 0 0 
735 0.0885889 0.899969 0.0057875 0.00234616 0.0033084 0 0 0 0 0 
736 0.0606749 0.925348 0.0102594 0.00371709 0 0 0 0 0 0 
737 0.0743698 0.899352 0.0143322 0.0119457 0 0 0 0 0 0 
738 0.0675275 0.925454 0.00701878 0 0 0 0 0 0 0 
739 0.140674 0.858508 0.000817301 0 0 0 0 0 0 0 
740 0.0606749 0.925348 0.0102594 0.00371709 0 0 0 0 0 0 
741 0.0685353 0.924341 0.00712354 0 0 0 0 0 0 0 
742 0.0687722 0.917137 0.00689982 0.00719088 0 0 0 0 0 0 
743 0.0706441 0.922013 0.00734272 0 0 0 0 0 0 0 
744 0.0677302 0.918393 0.00679527 0.00708193 0 0 0 0 0 0 
745 0.0597556 0.926479 0.010104 0.00366077 0 0 0 0 0 0 
746 0.0706441 0.922013 0.00734272 0 0 0 0 0 0 0 
747 0.0695737 0.923195 0.00723147 0 0 0 0 0 0 0 
748 0.0954064 0.892661 0.00603554 0.00244671 0.00345019 0 0 0 0 0 
749 0.132582 0.865645 0.00143042 0.000342414 0 0 0 0 0 0 
750 0.0847253 0.908043 0.00723147 0 0 0 0 0 0 0 
751 0.0836706 0.889647 0.0145527 0.0121295 0 0 0 0 0 0 
752 0.0778721 0.914785 0.00734272 0 0 0 0 0 0 0 
753 0.0675275 0.925454 0.00701878 0 0 0 0 0 0 0 
754 0.078872 0.909527 0.00586788 0.00237875 0.00335435 0 0 0 0 0 
755 0.0706441 0.922013 0.00734272 0 0 0 0 0 0 0 
756 0.0778308 0.915046 0.00712354 0 0 0 0 0 0 0 
757 0.0523576 0.932703 0.00960864 0.0039928 0 0.00133792 0 0 0 0 
758 0.0588637 0.927576 0.00995316 0.00360613 0 0 0 0 0 0 
759 0.0757171 0.913146 0.00563317 0.0022836 0.00322018 0 0 0 0 0 
760 0.111854 0.881788 0.00635826 0 0 0 0 0 0 0 
761 0.0732598 0.900854 0.0141183 0.0117674 0 0 0 0 0 0 
762 0.0873659 0.899784 0.00649981 0.00263492 0.00371559 0 0 0 0 0 
763 0.0695737 0.923195 0.00723147 0 0 0 0 0 0 0 
764 0.0677302 0.918393 0.00679527 0.00708193 0 0 0 0 0 0 
765 0.0940674 0.894168 0.00595053 0.00241225 0.00340159 0 0 0 0 0 
766 0.0982174 0.889499 0.00621305 0.00251868 0.00355166 0 0 0 0 0 
767 0.0890742 0.909178 0.00141055 0.000337659 0 0 0 0 0 0 
768 0.0687722 0.917137 0.00689982 0.00719088 0 0 0 0 0 0 
769 0.0706441 0.922013 0.00734272 0 0 0 0 0 0 0 
770 0.062086 0.92519 0.00623215 0.00649177 0 0 0 0 0 0 
771 0.0881852 0.885929 0.0141183 0.0117674 0 0 0 0 0 0 
772 0.0986668 0.899397 0.00156246 0.000374022 0 0 0 0 0 0 
773 0.0706441 0.906629 0.0227273 0 0 0 0 0 0 0 
774 0.0737891 0.912651 0.00995316 0.00360613 0 0 0 0 0 0 
775 0.0606749 0.925348 0.0102594 0.00371709 0 0 0 0 0 0 
776 0.0908329 0.894809 0.0143577 0 0 0 0 0 0 0 
777 0.0717869 0.914448 0.010104 0.00366077 0 0 0 0 0 0 
778 0.0769373 0.911775 0.00570929 0.00231446 0.00326369 0 0 0 0 0 
779 0.131917 0.867229 0.000854451 0 0 0 0 0 0 0 
780 0.133947 0.865186 0.000867597 0 0 0 0 0 0 0 
781 0.0860422 0.901302 0.00640133 0.002595 0.00365929 0 0 0 0 0 
782 0.0687722 0.917137 0.00689982 0.00719088 0 0 0 0 0 0 
783 0.0695737 0.923195 0.00723147 0 0 0 0 0 0 0 
784 0.128037 0.871134 0.000829321 0 0 0 0 0 0 0 
785 0.0539686 0.930632 0.00990429 0.00411566 0 0.00137908 0 0 0 0 
786 0.0765252 0.923475 0 0 0 0 0 0 0 0 
787 0.0811255 0.906942 0.00603554 0.00244671 0.00345019 0 0 0 0 0 
788 0.0860422 0.901302 0.00640133 0.002595 0.00365929 0 0 0 0 0 
789 0.0606749 0.909963 0.012381 0.0169801 0 0 0 0 0 0 
790 0.0890742 0.909178 0.00141055 0.000337659 0 0 0 0 0 0 
791 0.0823012 0.905593 0.00612301 0.00248217 0.00350019 0 0 0 0 0 
792 0.0743698 0.899352 0.0143322 0.0119457 0 0 0 0 0 0 
793 0.0873659 0.899784 0.00649981 0.00263492 0.00371559 0 0 0 0 0 
794 0.0706441 0.922013 0.00734272 0 0 0 0 0 0 0 
795 0.0606749 0.925348 0.0102594 0.00371709 0 0 0 0 0 0 
796 0.0766496 0.917801 0.00554973 0 0 0 0 0 0 0 
797 0.0873659 0.899784 0.00649981 0.00263492 0.00371559 0 0 0 0 0 
798 0.0911302 0.89597 0.00631673 0.0065832 0 0 0 0 0 0 
799 0.0531509 0.931683 0.00975422 0.0040533 0 0.00135819 0 0 0 0 
800 0.0655981 0.927584 0.00681824 0 0 0 0 0 0 0 
801 0.0667193 0.919611 0.00669385 0.00697623 0 0 0 0 0 0 
802 0.0604193 0.933301 0.00627996 0 0 0 0 0 0 0 
803 0.0999732 0.886097 0.0139291 0 0 0 0 0 0 0 
804 0.0743698 0.899352 0.0143322 0.0119457 0 0 0 0 0 0 
805 0.0667193 0.919611 0.00669385 0.00697623 0 0 0 0 0 0 
806 0.0706441 0.922013 0.00734272 0 0 0 0 0 0 0 
807 0.0933808 0.883755 0.0228637 0 0 0 0 0 0 0 
808 0.129948 0.86921 0.000841698 0 0 0 0 0 0 0 
809 0.0677302 0.918393 0.00679527 0.00708193 0 0 0 0 0 0 
810 0 0.999999 0 0 0 0 0 0 0 0 
811 0.0687722 0.917137 0.00689982 0.00719088 0 0 0 0 0 0 
812 0.0986668 0.899397 0.00156246 0.000374022 0 0 0 0 0 0 
813 0.0663298 0.910233 0.0127828 0.0106543 0 0 0 0 0 0 
814 0.0873659 0.899784 0.00649981 0.00263492 0.00371559 0 0 0 0 0 
815 0.0677302 0.918393 0.00679527 0.00708193 0 0 0 0 0 0 
816 0.0515876 0.933692 0.00946734 0.00393408 0 0.00131824 0 0 0 0 
817 0.0876647 0.897977 0.0143577 0 0 0 0 0 0 0 
818 0.0531509 0.931683 0.00975422 0.0040533 0 0.00135819 0 0 0 0 
819 0.0606749 0.925348 0.0102594 0.00371709 0 0 0 0 0 0 
820 0.0282868 0.950073 0.0108198 0 0 0.01082 0 0 0 0 
821 0.0539686 0.930632 0.00990429 0.00411566 0 0.00137908 0 0 0 0 
822 0.0860422 0.901302 0.00640133 0.002595 0.00365929 0 0 0 0 0 
823 0.0781456 0.90877 0.00640697 0.00667724 0 0 0 0 0 0 
824 0.0777916 0.910766 0.0057875 0.00234616 0.0033084 0 0 0 0 0 
825 0.0743698 0.899352 0.0143322 0.0119457 0 0 0 0 0 0 
826 0.0571575 0.929676 0.00966467 0.00350161 0 0 0 0 0 0 
827 0.0732598 0.900854 0.0141183 0.0117674 0 0 0 0 0 0 
828 0.116457 0.84634 0.0372022 0 0 0 0 0 0 0 
829 0.0747208 0.914289 0.00555905 0.00225355 0.0031778 0 0 0 0 0 
830 0.0860422 0.901302 0.00640133 0.002595 0.00365929 0 0 0 0 0 
831 0.0606749 0.925348 0.0102594 0.00371709 0 0 0 0 0 0 
832 0.0606749 0.925348 0.0102594 0.00371709 0 0 0 0 0 0 
833 0.0539686 0.930632 0.00990429 0.00411566 0 0.00137908 0 0 0 0 
834 0.0789027 0.913755 0.00734272 0 0 0 0 0 0 0 
835 0.0678009 0.918222 0.0102594 0.00371709 0 0 0 0 0 0 
836 0.0638613 0.923054 0.00640697 0.00667724 0 0 0 0 0 0 
837 0.115251 0.883024 0.00139123 0.000333033 0 0 0 0 0 0 
838 0.0706441 0.922013 0.00734272 0 0 0 0 0 0 0 
839 0.127738 0.836154 0.0361081 0 0 0 0 0 0 0 
840 0.0606749 0.925348 0.0102594 0.00371709 0 0 0 0 0 0 
841 0.0873659 0.899784 0.00649981 0.00263492 0.00371559 0 0 0 0 0 
842 0.0677302 0.918393 0.00679527 0.00708193 0 0 0 0 0 0 
843 0.0687722 0.917137 0.00689982 0.00719088 0 0 0 0 0 0 
844 0.0946885 0.898188 0.00712354 0 0 0 0 0 0 0 
845 0.0816146 0.891703 0.0145527 0.0121295 0 0 0 0 0 0 
846 0.080444 0.906087 0.00659541 0.00687363 0 0 0 0 0 0 
847 0.0860929 0.887224 0.0145527 0.0121295 0 0 0 0 0 0 
848 0.0637685 0.922254 0.0102594 0.00371709 0 0 0 0 0 0 
849 0.0606749 0.925348 0.0102594 0.00371709 0 0 0 0 0 0 
850 0.0971718 0.900921 0.00153878 0.000368355 0 0 0 0 0 0 
851 0.0677302 0.918393 0.00679527 0.00708193 0 0 0 0 0 0 
852 0.0629605 0.92414 0.00631673 0.0065832 0 0 0 0 0 0 
853 0.0606749 0.925348 0.0102594 0.00371709 0 0 0 0 0 0 
854 0.0597556 0.926479 0.010104 0.00366077 0 0 0 0 0 0 
855 0.0606749 0.925348 0.0102594 0.00371709 0 0 0 0 0 0 
856 0.0687722 0.917137 0.00689982 0.00719088 0 0 0 0 0 0 
857 0.0706441 0.922013 0.00734272 0 0 0 0 0 0 0 
858 0.109697 0.878371 0.00603554 0.00244671 0.00345019 0 0 0 0 0 
859 0.0539686 0.930632 0.00990429 0.00411566 0 0.00137908 0 0 0 0 
860 0.0657381 0.910252 0.0171358 0.00687363 0 0 0 0 0 0 
861 0.0606749 0.925348 0.0102594 0.00371709 0 0 0 0 0 0 
862 0.0687722 0.917137 0.00689982 0.00719088 0 0 0 0 0 0 
863 0.0807089 0.91206 0.00723147 0 0 0 0 0 0 0 
864 0.0687722 0.917137 0.00689982 0.00719088 0 0 0 0 0 0 
865 0.0873659 0.899784 0.00649981 0.00263492 0.00371559 0 0 0 0 0 
866 0.0606749 0.925348 0.0102594 0.00371709 0 0 0 0 0 0 
867 0.0873659 0.899784 0.00649981 0.00263492 0.00371559 0 0 0 0 0 
868 0.0695737 0.923195 0.00723147 0 0 0 0 0 0 0 
869 0.0539686 0.930632 0.00990429 0.00411566 0 0.00137908 0 0 0 0 
870 0.0873659 0.899784 0.00649981 0.00263492 0.00371559 0 0 0 0 0 
871 0.0687722 0.917137 0.00689982 0.00719088 0 0 0 0 0 0 
872 0.111287 0.876608 0.00612301 0.00248217 0.00350019 0 0 0 0 0 
873 0.131917 0.867229 0.000854451 0 0 0 0 0 0 0 
874 0.0943138 0.903835 0.00149352 0.000357521 0 0 0 0 0 0 
875 0.0798838 0.913298 0.00681824 0 0 0 0 0 0 0 
876 0.0908931 0.882424 0.0145527 0.0121295 0 0 0 0 0 0 
877 0.0531509 0.931683 0.00975422 0.0040533 0 0.00135819 0 0 0 0 
878 0.125544 0.872577 0.00151582 0.000362857 0 0 0 0 0 0 
879 0.0706441 0.922013 0.00734272 0 0 0 0 0 0 0 
880 0.0907258 0.902825 0.00644969 0 0 0 0 0 0 0 
881 0.0695737 0.923195 0.00723147 0 0 0 0 0 0 0 
882 0.0755139 0.897803 0.0145527 0.0121295 0 0 0 0 0 0 
883 0.0685353 0.924341 0.00712354 0 0 0 0 0 0 0 
884 0.0687722 0.917137 0.00689982 0.00719088 0 0 0 0 0 0 
885 0.0755139 0.897803 0.0145527 0.0121295 0 0 0 0 0 0 
886 0.0677302 0.918393 0.00679528 0.00708193 0 0 0 0 0 0 
887 0.0695737 0.923195 0.00723147 0 0 0 0 0 0 0 
888 0.0606749 0.925348 0.0102594 0.00371709 0 0 0 0 0 0 
889 0.0606749 0.925348 0.0102594 0.00371709 0 0 0 0 0 0 
890 0.0667193 0.919611 0.00669385 0.00697623 0 0 0 0 0 0 
891 0.0531509 0.931683 0.00975422 0.0040533 0 0.00135819 0 0 0 0 
892 0.0685353 0.923438 0.00802653 0 0 0 0 0 0 0 
893 0.0677302 0.904494 0.0206935 0.00708193 0 0 0 0 0 0 
894 0.0606749 0.925348 0.0102594 0.00371709 0 0 0 0 0 0 
895 0.0687722 0.917137 0.00689982 0.00719088 0 0 0 0 0 0 
896 0.0743698 0.8842 0.0294836 0.0119457 0 0 0 0 0 0 
897 0.0606749 0.921727 0.0138808 0.00371709 0 0 0 0 0 0 
898 0.0873659 0.899784 0.00649981 0.00263492 0.00371559 0 0 0 0 0 
899 0.068536 0.92434 0.00712354 0 0 0 0 0 0 0 
900 0.0850478 0.901022 0.0139291 0 0 0 0 0 0 0 
901 0.0876647 0.897977 0.0143577 0 0 0 0 0 0 0 
902 0.0539686 0.930632 0.00990429 0.00411566 0 0.00137908 0 0 0 0 
903 0.0680424 0.92542 0.00653804 0 0 0 0 0 0 0 
904 0.0887133 0.897727 0.00995318 0.00360613 0 0 0 0 0 0 
905 0.0706441 0.922013 0.00734272 0 0 0 0 0 0 0 
906 0.0927609 0.89156 0.00994558 0.00237875 0.00335435 0 0 0 0 0 
907 0.0873659 0.899784 0.00649981 0.00263492 0.00371559 0 0 0 0 0 
908 0.0777916 0.910766 0.0057875 0.00234616 0.0033084 0 0 0 0 0 
909 0.0539686 0.930632 0.00990429 0.00411566 0 0.00137908 0 0 0 0 
910 0.0835115 0.904205 0.00621305 0.00251868 0.00355166 0 0 0 0 0 
911 0.0531509 0.931683 0.00975422 0.0040533 0 0.00135819 0 0 0 0 
912 0.0282868 0.950073 0.0108198 0 0 0.01082 0 0 0 0 
913 0.0835115 0.904205 0.00621305 0.00251868 0.00355166 0 0 0 0 0 
914 0.0606749 0.925348 0.0102594 0.00371709 0 0 0 0 0 0 
915 0.0755139 0.897803 0.0145527 0.0121295 0 0 0 0 0 0 
916 0.0318644 0.946495 0.0108198 0 0 0.01082 0 0 0 0 
917 0.0799829 0.908253 0.00595053 0.00241225 0.00340159 0 0 0 0 0 
918 0.0755139 0.897803 0.0145527 0.0121295 0 0 0 0 0 0 
919 0.0539686 0.930632 0.00990429 0.00411566 0 0.00137908 0 0 0 0 
920 0.0677302 0.918389 0.00679925 0.00708193 0 0 0 0 0 0 
921 0.0706441 0.922013 0.00734272 0 0 0 0 0 0 0 
922 0.0706441 0.922013 0.00734272 0 0 0 0 0 0 0 
923 0.0687722 0.917137 0.00689982 0.00719088 0 0 0 0 0 0 
924 0.0798838 0.913298 0.00681824 0 0 0 0 0 0 0 
925 0.0706441 0.922013 0.00734272 0 0 0 0 0 0 0 
926 0.088798 0.897477 0.0137243 0 0 0 0 0 0 0 
927 0.0539686 0.930632 0.00990429 0.00411566 0 0.00137908 0 0 0 0 
928 0.0606749 0.925348 0.0102594 0.00371709 0 0 0 0 0 0 
929 0.0873659 0.899784 0.00649981 0.00263492 0.00371559 0 0 0 0 0 
930 0.0606749 0.925348 0.0102594 0.00371709 0 0 0 0 0 0 
931 0.0755139 0.882419 0.0145568 0.0275099 0 0 0 0 0 0 
932 0.0606749 0.925348 0.0102594 0.00371709 0 0 0 0 0 0 
933 0.101194 0.886151 0.00640133 0.002595 0.00365929 0 0 0 0 0 
934 0.0755139 0.897803 0.0145527 0.0121295 0 0 0 0 0 0 
935 0.0706441 0.922013 0.00734272 0 0 0 0 0 0 0 
936 0.084758 0.887849 0.00630643 0.00299091 0.0180954 0 0 0 0 0 
937 0.0873659 0.899784 0.00649981 0.00263492 0.00371559 0 0 0 0 0 
938 0.0860422 0.901302 0.00640133 0.002595 0.00365929 0 0 0 0 0 
939 0.0695737 0.908044 0.0223822 0 0 0 0 0 0 0 
940 0.0695737 0.923195 0.00723147 0 0 0 0 0 0 0 
941 0.0675275 0.925454 0.00701878 0 0 0 0 0 0 0 
942 0.0873659 0.899784 0.00649981 0.00263492 0.00371559 0 0 0 0 0 
943 0.0712485 0.928751 0 0 0 0 0 0 0 0 
944 0.096794 0.891101 0.00612301 0.00248217 0.00350019 0 0 0 0 0 
945 0.0828817 0.903241 0.00679527 0.00708193 0 0 0 0 0 0 
946 0.0539686 0.930632 0.00990429 0.00411566 0 0.00137908 0 0 0 0 
947 0.0638234 0.929543 0.00663357 0 0 0 0 0 0 0 
948 0.0539686 0.930632 0.00990429 0.00411566 0 0.00137908 0 0 0 0 
949 0.0687722 0.917137 0.00689982 0.00719088 0 0 0 0 0 0 
950 0.0606749 0.925348 0.0102594 0.00371709 0 0 0 0 0 0 
951 0.0606749 0.925348 0.0102594 0.00371709 0 0 0 0 0 0 
952 0.0837971 0.902478 0.0137243 0 0 0 0 0 0 0 
953 0.0629023 0.93056 0.00653804 0 0 0 0 0 0 0 
954 0.0539686 0.930632 0.00990429 0.00411566 0 0.00137908 0 0 0 0 
955 0.0687722 0.917137 0.00689982 0.00719088 0 0 0 0 0 0 
956 0.0755139 0.897803 0.0145527 0.0121295 0 0 0 0 0 0 
957 0.0687722 0.917137 0.00689982 0.00719088 0 0 0 0 0 0 
958 0.0755139 0.897803 0.0145527 0.0121295 0 0 0 0 0 0 
959 0.0876647 0.897977 0.0143577 0 0 0 0 0 0 0 
960 0.0685353 0.924341 0.00712354 0 0 0 0 0 0 0 
961 0.0928362 0.907164 0 0 0 0 0 0 0 0 
962 0.0756416 0.917016 0.00734272 0 0 0 0 0 0 0 
963 0.0788798 0.92112 0 0 0 0 0 0 0 0 
964 0.0672829 0.917777 0.00960864 0.0039928 0 0.00133792 0 0 0 0 
965 0.0606749 0.925348 0.0102594 0.00371709 0 0 0 0 0 0 
966 0.0667193 0.919611 0.00669385 0.00697623 0 0 0 0 0 0 
967 0.0747209 0.914289 0.00555905 0.00225355 0.0031778 0 0 0 0 0 
968 0.0698983 0.924136 0.00596598 0 0 0 0 0 0 0 
969 0.0996833 0.88785 0.00630578 0.00255627 0.00360467 0 0 0 0 0 
970 0.0792865 0.90744 0.00649983 0.00677402 0 0 0 0 0 0 
971 0.0996833 0.88785 0.00630578 0.00255627 0.00360467 0 0 0 0 0 
972 0.0982174 0.889499 0.00621305 0.00251868 0.00355166 0 0 0 0 0 
973 0.0675275 0.925454 0.00701878 0 0 0 0 0 0 0 
974 0.0606749 0.925348 0.0102594 0.00371709 0 0 0 0 0 0 
975 0.0687722 0.917137 0.00689982 0.00719088 0 0 0 0 0 0 
976 0.0706441 0.922013 0.00734272 0 0 0 0 0 0 0 
977 0.0873659 0.899784 0.00649981 0.00263492 0.00371559 0 0 0 0 0 
978 0.0597556 0.926479 0.010104 0.00366077 0 0 0 0 0 0 
979 0.0860422 0.886151 0.00640266 0.0177452 0.00365929 0 0 0 0 0 
980 0.0757171 0.913146 0.00563329 0.0022836 0.00322018 0 0 0 0 0 
981 0.0721824 0.902312 0.0139106 0.0115944 0 0 0 0 0 0 
982 0.077861 0.908262 0.00679527 0.00708193 0 0 0 0 0 0 
983 0.0539686 0.930632 0.00990429 0.00411566 0 0.00137908 0 0 0 0 
984 0.0606749 0.925348 0.0102594 0.00371709 0 0 0 0 0 0 
985 0.0755139 0.897803 0.0145527 0.0121295 0 0 0 0 0 0 
986 0.0588637 0.927576 0.00995316 0.00360613 0 0 0 0 0 0 
987 0.0579981 0.928641 0.00980679 0.0035531 0 0 0 0 0 0 
988 0.0531508 0.931683 0.00975424 0.0040533 0 0.00135819 0 0 0 0 
989 0.0606749 0.925348 0.0102594 0.00371709 0 0 0 0 0 0 
990 0.0914902 0.897068 0.0057875 0.00234616 0.0033084 0 0 0 0 0 
991 0.0687296 0.923613 0.00765748 0 0 0 0 0 0 0 
992 0.0539686 0.930632 0.00990429 0.00411566 0 0.00137908 0 0 0 0 
993 0.0873659 0.899784 0.00649981 0.00263492 0.00371559 0 0 0 0 0 
994 0.0936702 0.895339 0.00555911 0.00225355 0.0031778 0 0 0 0 0 
995 0.0667193 0.919611 0.00669385 0.00697623 0 0 0 0 0 0 
996 0.0638599 0.90877 0.00640702 0.0209629 0 0 0 0 0 0 
997 0.0665488 0.926534 0.00691706 0 0 0 0 0 0 0 
998 0.0835115 0.904205 0.00621305 0.00251868 0.00355166 0 0 0 0 0 
999 0.0873659 0.899784 0.00649981 0.00263492 0.00371559 0 0 0 0 0 
1000 0.0709171 0.915106 0.0102594 0.00371709 0 0 0 0 0 0 
1001 0.106991 0.869793 0.0232155 0 0 0 0 0 0 0 
1002 0.110831 0.887232 0.00156246 0.000374022 0 0 0 0 0 0 
1003 0.0539686 0.930632 0.00990429 0.00411566 0 0.00137908 0 0 0 0 
1004 0.0860422 0.901302 0.00640133 0.002595 0.00365929 0 0 0 0 0 
1005 0.0588637 0.927576 0.00995316 0.00360613 0 0 0 0 0 0 
1006 0.0983861 0.89449 0.00712354 0 0 0 0 0 0 0 
1007 0.0755139 0.897803 0.0145527 0.0121295 0 0 0 0 0 0 
1008 0.0606749 0.925348 0.0102594 0.00371709 0 0 0 0 0 0 
1009 0.0860422 0.901302 0.00640133 0.002595 0.00365929 0 0 0 0 0 
1010 0.0873659 0.899784 0.00649981 0.00263492 0.00371559 0 0 0 0 0 
1011 0.0706441 0.922013 0.00734272 0 0 0 0 0 0 0 
1012 0.0789062 0.913751 0.00734272 0 0 0 0 0 0 0 
1013 0.0677974 0.918225 0.0102594 0.00371709 0 0 0 0 0 0 
1014 0.0706441 0.922013 0.00734272 0 0 0 0 0 0 0 
1015 0.0743698 0.899352 0.0143322 0.0119457 0 0 0 0 0 0 
1016 0.0606749 0.925348 0.0102594 0.00371709 0 0 0 0 0 0 
1017 0.0606749 0.925348 0.0102594 0.00371709 0 0 0 0 0 0 
1018 0.0691325 0.90644 0.0133229 0.0111044 0 0 0 0 0 0 
1019 0.0706441 0.922013 0.00734272 0 0 0 0 0 0 0 
1020 0.118248 0.843976 0.0377746 0 0 0 0 0 0 0 
1021 0.0282868 0.950073 0.0108198 0 0 0.01082 0 0 0 0 
1022 0.084758 0.902775 0.00630578 0.00255627 0.00360467 0 0 0 0 0 
1023 0.0695559 0.917544 0.00631673 0.0065832 0 0 0 0 0 0 
1024 0.109974 0.876693 0.0133321 0 0 0 0 0 0 0 
1025 0.0873659 0.899784 0.00649981 0.00263492 0.00371559 0 0 0 0 0 
1026 0.0647854 0.921941 0.00649983 0.00677402 0 0 0 0 0 0 
1027 0.0903288 0.907898 0.00143042 0.000342414 0 0 0 0 0 0 
1028 0.0971718 0.900921 0.00153878 0.000368355 0 0 0 0 0 0 
1029 0.0677302 0.918393 0.0067953 0.00708193 0 0 0 0 0 0 
1030 0.0706441 0.922013 0.00734272 0 0 0 0 0 0 0 
1031 0.0986668 0.899397 0.00156246 0.000374022 0 0 0 0 0 0 
1032 0.0571575 0.929344 0.00999601 0.00350161 0 0 0 0 0 0 
1033 0.0811255 0.906942 0.00603554 0.00244671 0.00345019 0 0 0 0 0 
1034 0.0606749 0.925348 0.0102594 0.00371709 0 0 0 0 0 0 
1035 0.0842211 0.889096 0.0145527 0.0121295 0 0 0 0 0 0 
1036 0.0673524 0.918671 0.0102594 0.00371709 0 0 0 0 0 0 
1037 0.0579981 0.928641 0.00980679 0.0035531 0 0 0 0 0 0 
1038 0.0850478 0.901022 0.0139291 0 0 0 0 0 0 0 
1039 0.0687722 0.917137 0.00689982 0.00719088 0 0 0 0 0 0 
1040 0.084758 0.902775 0.00630578 0.00255627 0.00360467 0 0 0 0 0 
1041 0.0822333 0.910748 0.00701878 0 0 0 0 0 0 0 
1042 0.0706441 0.922013 0.00734272 0 0 0 0 0 0 0 
1043 0.0755139 0.897803 0.0145527 0.0121295 0 0 0 0 0 0 
1044 0.0706441 0.922013 0.00734272 0 0 0 0 0 0 0 
1045 0.0706441 0.922013 0.00734272 0 0 0 0 0 0 0 
1046 0.0539686 0.930632 0.00990429 0.00411566 0 0.00137908 0 0 0 0 
1047 0.0695737 0.923195 0.00723147 0 0 0 0 0 0 0 
1048 0.0835115 0.904205 0.00621305 0.00251868 0.00355166 0 0 0 0 0 
1049 0.0606749 0.925348 0.0102594 0.00371709 0 0 0 0 0 0 
1050 0.0755139 0.897803 0.0145527 0.0121295 0 0 0 0 0 0 
1051 0.0687722 0.917137 0.00689982 0.00719088 0 0 0 0 0 0 
1052 0.0677302 0.918393 0.00679527 0.00708193 0 0 0 0 0 0 
1053 0.0687722 0.901752 0.00689996 0.0225754 0 0 0 0 0 0 
1054 0.0799829 0.908253 0.00595059 0.00241225 0.00340159 0 0 0 0 0 
1055 0.0687722 0.917137 0.00689982 0.00719088 0 0 0 0 0 0 
1056 0.0588637 0.927576 0.00995316 0.00360613 0 0 0 0 0 0 
1057 0.0706441 0.922013 0.00734272 0 0 0 0 0 0 0 
1058 0.0539686 0.930632 0.00990429 0.00411566 0 0.00137908 0 0 0 0 
1059 0.0743698 0.899352 0.0143322 0.0119457 0 0 0 0 0 0 
1060 0.0755139 0.882419 0.0299373 0.0121295 0 0 0 0 0 0 
1061 0.0606749 0.925348 0.0102594 0.00371709 0 0 0 0 0 0 
1062 0.0706441 0.922013 0.00734272 0 0 0 0 0 0 0 
1063 0.0539686 0.930632 0.00990429 0.00411566 0 0.00137908 0 0 0 0 
1064 0.0706441 0.922013 0.00734272 0 0 0 0 0 0 0 
1065 0.0823012 0.891101 0.00612301 0.00638559 0.0140895 0 0 0 0 0 
1066 0.0677302 0.918393 0.00679527 0.00708193 0 0 0 0 0 0 
1067 0.116457 0.84634 0.0372022 0 0 0 0 0 0 0 
1068 0.0531508 0.931683 0.00975437 0.0040533 0 0.00135819 0 0 0 0 
1069 0.0876647 0.897977 0.0143577 0 0 0 0 0 0 0 
1070 0.0727039 0.89923 0.0245127 0.0035531 0 0 0 0 0 0 
1071 0.0539686 0.930632 0.00990429 0.00411566 0 0.00137908 0 0 0 0 
1072 0.0278582 0.950829 0.0106559 0 0 0.0106561 0 0 0 0 
1073 0.0606774 0.925345 0.0102594 0.00371709 0 0 0 0 0 0 
1074 0.0637759 0.929595 0.00662885 0 0 0 0 0 0 0 
1075 0.0876647 0.897977 0.0143577 0 0 0 0 0 0 0 
1076 0.0597556 0.926479 0.010104 0.00366077 0 0 0 0 0 0 
1077 0.0606749 0.925348 0.0102594 0.00371709 0 0 0 0 0 0 
1078 0.0523576 0.932703 0.00960864 0.0039928 0 0.00133792 0 0 0 0 
1079 0.0508399 0.934653 0.00933012 0.00387707 0 0.00129914 0 0 0 0 
1080 0.0687722 0.917137 0.00689982 0.00719088 0 0 0 0 0 0 
1081 0.0755139 0.882419 0.0147445 0.0273223 0 0 0 0 0 0 
1082 0.0539686 0.930632 0.00990429 0.00411566 0 0.00137908 0 0 0 0 
1083 0.0531509 0.931683 0.00975422 0.0040533 0 0.00135819 0 0 0 0 
1084 0.0706441 0.922013 0.00734272 0 0 0 0 0 0 0 
1085 0.0588637 0.927576 0.00995316 0.00360613 0 0 0 0 0 0 
1086 0.0539686 0.930632 0.00990429 0.00411566 0 0.00137908 0 0 0 0 
1087 0.0876647 0.897977 0.0143577 0 0 0 0 0 0 0 
1088 0.0695737 0.923195 0.00723147 0 0 0 0 0 0 0 
1089 0.128037 0.871134 0.000829321 0 0 0 0 0 0 0 
1090 0.0873659 0.899784 0.00649981 0.00263492 0.00371559 0 0 0 0 0 
1091 0.0629605 0.92414 0.00631673 0.0065832 0 0 0 0 0 0 
1092 0.133947 0.865186 0.000867597 0 0 0 0 0 0 0 
1093 0.0860422 0.901302 0.00640133 0.002595 0.00365929 0 0 0 0 0 
1094 0.0677302 0.918393 0.00679527 0.00708193 0 0 0 0 0 0 
1095 0.0606749 0.925348 0.0102594 0.00371709 0 0 0 0 0 0 
1096 0.0876647 0.897977 0.0143577 0 0 0 0 0 0 0 
1097 0 0.999999 0 0 0 0 0 0 0 0 
1098 0.0755139 0.897803 0.0145527 0.0121295 0 0 0 0 0 0 
1099 0.0755139 0.897803 0.0145527 0.0121295 0 0 0 0 0 0 
1100 0.0685353 0.924341 0.00712354 0 0 0 0 0 0 0 
1101 0.0873659 0.899784 0.00649981 0.00263492 0.00371559 0 0 0 0 0 
1102 0.0606749 0.925348 0.0102594 0.00371709 0 0 0 0 0 0 
1103 0.0706441 0.922013 0.00734272 0 0 0 0 0 0 0 
1104 0.0588637 0.927576 0.00995318 0.00360613 0 0 0 0 0 0 
1105 0.0873659 0.899784 0.00649981 0.00263492 0.00371559 0 0 0 0 0 
1106 0.0835115 0.904205 0.00621305 0.00251868 0.00355166 0 0 0 0 0 
1107 0.0606749 0.925348 0.0102594 0.00371709 0 0 0 0 0 0 
1108 0.0606749 0.925348 0.0102594 0.00371709 0 0 0 0 0 0 
1109 0.0823012 0.891101 0.00612301 0.00248317 0.0179919 0 0 0 0 0 
1110 0.0706441 0.922013 0.00734272 0 0 0 0 0 0 0 
1111 0.0749071 0.911328 0.010104 0.00366077 0 0 0 0 0 0 
1112 0.0606749 0.925348 0.0102594 0.00371709 0 0 0 0 0 0 
1113 0.131917 0.867229 0.000854451 0 0 0 0 0 0 0 
1114 0.0927609 0.895638 0.00586788 0.00237875 0.00335435 0 0 0 0 0 
1115 0.0539686 0.930632 0.00990429 0.00411566 0 0.00137908 0 0 0 0 
1116 0.0876647 0.897977 0.0143577 0 0 0 0 0 0 0 
1117 0.0687722 0.917137 0.00689982 0.00719088 0 0 0 0 0 0 
1118 0.0971718 0.900921 0.00153878 0.000368355 0 0 0 0 0 0 
1119 0.0685353 0.924341 0.00712354 0 0 0 0 0 0 0 
1120 0.131917 0.867229 0.000854451 0 0 0 0 0 0 0 
1121 0.0965701 0.88976 0.00669385 0.00697623 0 0 0 0 0 0 
1122 0.0588637 0.927576 0.00995316 0.00360613 0 0 0 0 0 0 
1123 0.0834607 0.909416 0.00712354 0 0 0 0 0 0 0 
1124 0.0687722 0.905542 0.0184953 0.00719088 0 0 0 0 0 0 
1125 0.0971718 0.900921 0.00153878 0.000368355 0 0 0 0 0 0 
1126 0.0755139 0.897803 0.0145527 0.0121295 0 0 0 0 0 0 
1127 0.0986668 0.899397 0.00156246 0.000374022 0 0 0 0 0 0 
1128 0.0860422 0.901302 0.00640133 0.002595 0.00365929 0 0 0 0 0 
1129 0.0531509 0.931683 0.00975422 0.0040533 0 0.00135819 0 0 0 0 
1130 0.0597556 0.926479 0.010104 0.00366077 0 0 0 0 0 0 
1131 0.0588637 0.927576 0.00995316 0.00360613 0 0 0 0 0 0 
1132 0.087854 0.910422 0.00139123 0.000333033 0 0 0 0 0 0 
1133 0.0588637 0.927576 0.00995316 0.00360613 0 0 0 0 0 0 
1134 0.0873659 0.899784 0.00649981 0.00263492 0.00371559 0 0 0 0 0 
1135 0.0685353 0.924341 0.00712354 0 0 0 0 0 0 0 
1136 0.0282868 0.950073 0.0108198 0 0 0.01082 0 0 0 0 
1137 0.0687722 0.917137 0.00689982 0.00719088 0 0 0 0 0 0 
1138 0.0876647 0.897977 0.0143577 0 0 0 0 0 0 0 
1139 0.0811255 0.892766 0.0202119 0.00244671 0.00345019 0 0 0 0 0 
1140 0.0606749 0.925348 0.0102594 0.00371709 0 0 0 0 0 0 
1141 0.133947 0.865186 0.000867597 0 0 0 0 0 0 0 
1142 0.0539686 0.930632 0.00990429 0.00411566 0 0.00137908 0 0 0 0 
1143 0.131917 0.867229 0.000854451 0 0 0 0 0 0 0 
1144 0.0706441 0.922013 0.00734272 0 0 0 0 0 0 0 
1145 0.0926668 0.90576 0.0012695 0.000303893 0 0 0 0 0 0 
1146 0.10812 0.890107 0.00143042 0.000342414 0 0 0 0 0 0 
1147 0.0687722 0.917137 0.00689982 0.00719088 0 0 0 0 0 0 
1148 0.080444 0.906087 0.00659541 0.00687363 0 0 0 0 0 0 
1149 0.0986668 0.899397 0.00156246 0.000374022 0 0 0 0 0 0 
1150 0.133947 0.865186 0.000867597 0 0 0 0 0 0 0 
1151 0.0597556 0.926479 0.010104 0.00366077 0 0 0 0 0 0 
1152 0.0539686 0.930632 0.00990429 0.00411566 0 0.00137908 0 0 0 0 
1153 0.0873659 0.899784 0.00649981 0.00263492 0.00371559 0 0 0 0 0 
1154 0.0606749 0.925348 0.0102594 0.00371709 0 0 0 0 0 0 
1155 0.0539686 0.930632 0.00990429 0.00411566 0 0.00137908 0 0 0 0 
1156 0.0606749 0.925348 0.0102594 0.00371709 0 0 0 0 0 0 
1157 0.129948 0.86921 0.000841698 0 0 0 0 0 0 0 
1158 0.0695737 0.923195 0.00723147 0 0 0 0 0 0 0 
1159 0.0531509 0.931683 0.00975422 0.0040533 0 0.00135819 0 0 0 0 
1160 0.0677302 0.918393 0.00679527 0.00708193 0 0 0 0 0 0 
1161 0.0706441 0.922013 0.00734272 0 0 0 0 0 0 0 
1162 0.128037 0.871134 0.000829321 0 0 0 0 0 0 0 
1163 0.0860422 0.901302 0.00640133 0.002595 0.00365929 0 0 0 0 0 
1164 0.0765252 0.923475 0 0 0 0 0 0 0 0 
1165 0.0876647 0.897977 0.0143577 0 0 0 0 0 0 0 
1166 0.0606749 0.925348 0.0102594 0.00371709 0 0 0 0 0 0 
1167 0.0706441 0.922013 0.00734272 0 0 0 0 0 0 0 
1168 0.0539686 0.930632 0.00990429 0.00411566 0 0.00137908 0 0 0 0 
1169 0.0606749 0.925348 0.0102594 0.00371709 0 0 0 0 0 0 
1170 0.0986668 0.899397 0.00156246 0.000374022 0 0 0 0 0 0 
1171 0.0606749 0.925348 0.0102594 0.00371709 0 0 0 0 0 0 
1172 0 0.999999 0 0 0 0 0 0 0 0 
1173 0.0738963 0.900217 0.0141183 0.0117674 0 0 0 0 0 0 
1174 0.0915227 0.900856 0.00732114 0.000300141 0 0 0 0 0 0 
1175 0.0860422 0.901302 0.00640133 0.002595 0.00365929 0 0 0 0 0 
1176 0.0539686 0.930632 0.00990429 0.00411566 0 0.00137908 0 0 0 0 
1177 0.0706441 0.922013 0.00734272 0 0 0 0 0 0 0 
1178 0.0539686 0.930632 0.00990429 0.00411566 0 0.00137908 0 0 0 0 
1179 0.0706441 0.922013 0.00734272 0 0 0 0 0 0 0 
1180 0.0687722 0.917137 0.00689982 0.00719088 0 0 0 0 0 0 
1181 0.0706441 0.922013 0.00734272 0 0 0 0 0 0 0 
1182 0.0606749 0.925348 0.0102594 0.00371709 0 0 0 0 0 0 
1183 0.0886328 0.898821 0.00614367 0.00640284 0 0 0 0 0 0 
1184 0.0606749 0.925348 0.0102594 0.00371709 0 0 0 0 0 0 
1185 0.0646742 0.928604 0.00672221 0 0 0 0 0 0 0 
1186 0.0687722 0.917137 0.00689982 0.00719088 0 0 0 0 0 0 
1187 0.0853881 0.902328 0.00621305 0.00251868 0.00355166 0 0 0 0 0 
1188 0.0685353 0.924341 0.00712354 0 0 0 0 0 0 0 
1189 0.0873659 0.899784 0.00649981 0.00263492 0.00371559 0 0 0 0 0 
1190 0.0523576 0.932703 0.00960864 0.0039928 0 0.00133792 0 0 0 0 
1191 0.0677302 0.918393 0.00679527 0.00708193 0 0 0 0 0 0 
1192 0.131917 0.867229 0.000854451 0 0 0 0 0 0 0 
1193 0.131917 0.867229 0.000854451 0 0 0 0 0 0 0 
1194 0.0706441 0.922013 0.00734272 0 0 0 0 0 0 0 
1195 0.0863364 0.899523 0.0141401 0 0 0 0 0 0 0 
1196 0.0606749 0.925348 0.0102594 0.00371709 0 0 0 0 0 0 
1197 0.0873659 0.899784 0.00649981 0.00263492 0.00371559 0 0 0 0 0 
1198 0.0659135 0.920109 0.0102594 0.00371709 0 0 0 0 0 0 
1199 0.113032 0.85086 0.0361081 0 0 0 0 0 0 0 
1200 0.0755139 0.897803 0.0145527 0.0121295 0 0 0 0 0 0 
1201 0.0695737 0.923195 0.00723147 0 0 0 0 0 0 0 
1202 0.0695737 0.923195 0.00723147 0 0 0 0 0 0 0 
1203 0.0647854 0.921941 0.00649983 0.00677402 0 0 0 0 0 0 
1204 0.0539686 0.930632 0.00990429 0.00411566 0 0.00137908 0 0 0 0 
1205 0.0706441 0.922013 0.00734272 0 0 0 0 0 0 0 
1206 0.0606749 0.925348 0.0102594 0.00371709 0 0 0 0 0 0 
1207 0.0716503 0.915183 0.00966467 0.00350161 0 0 0 0 0 0 
1208 0.0695737 0.892892 0.0375345 0 0 0 0 0 0 0 
1209 0.0677302 0.918393 0.00679527 0.00708193 0 0 0 0 0 0 
1210 0.0523576 0.932703 0.00960864 0.0039928 0 0.00133792 0 0 0 0 
1211 0.0687722 0.917137 0.00689982 0.00719088 0 0 0 0 0 0 
1212 0.056341 0.93068 0.0095266 0.00345158 0 0 0 0 0 0 
1213 0.0948174 0.881966 0.0232155 0 0 0 0 0 0 0 
1214 0.0683024 0.916531 0.00975422 0.0040533 0 0.00135819 0 0 0 0 
1215 0.0657381 0.920793 0.00659541 0.00687363 0 0 0 0 0 0 
1216 0.0539686 0.930632 0.00990429 0.00411566 0 0.00137908 0 0 0 0 
1217 0.0687722 0.917137 0.00689982 0.00719088 0 0 0 0 0 0 
1218 0.0948174 0.881966 0.0232155 0 0 0 0 0 0 0 
1219 0.0706441 0.922013 0.00734272 0 0 0 0 0 0 0 
1220 0.0531509 0.931683 0.00975422 0.0040533 0 0.00135819 0 0 0 0 
1221 0.131917 0.867229 0.000854451 0 0 0 0 0 0 0 
1222 0.0629605 0.92414 0.00631673 0.0065832 0 0 0 0 0 0 
1223 0.0876647 0.897977 0.0143577 0 0 0 0 0 0 0 
1224 0.0655981 0.927584 0.00681824 0 0 0 0 0 0 0 
1225 0.0887144 0.897726 0.00995316 0.00360613 0 0 0 0 0 0 
1226 0.0606749 0.925348 0.0102594 0.00371709 0 0 0 0 0 0 
1227 0.0677302 0.918393 0.00679527 0.00708193 0 0 0 0 0 0 
1228 0.0811255 0.906942 0.00603554 0.00244671 0.00345019 0 0 0 0 0 
1229 0.0687722 0.917137 0.00689982 0.00719088 0 0 0 0 0 0 
1230 0.0971718 0.900921 0.00153878 0.000368355 0 0 0 0 0 0 
1231 0.0953678 0.902954 0.00135413 0.000324152 0 0 0 0 0 0 
1232 0.0687722 0.917137 0.00689982 0.00719088 0 0 0 0 0 0 
1233 0.0706441 0.922013 0.00734272 0 0 0 0 0 0 0 
1234 0.0606749 0.925348 0.0102594 0.00371709 0 0 0 0 0 0 
1235 0.073789 0.912651 0.00995316 0.00360613 0 0 0 0 0 0 
1236 0.0971718 0.900921 0.00153878 0.000368355 0 0 0 0 0 0 
1237 0.0940678 0.893082 0.00649981 0.00263492 0.00371559 0 0 0 0 0 
1238 0.0996817 0.89852 0.00145085 0.000347306 0 0 0 0 0 0 
1239 0.0687722 0.917137 0.00689982 0.00719088 0 0 0 0 0 0 
1240 0.0687722 0.917137 0.00689982 0.00719088 0 0 0 0 0 0 
1241 0.0606749 0.925348 0.0102594 0.00371709 0 0 0 0 0 0 
1242 0.0873659 0.899784 0.00649981 0.00263492 0.00371559 0 0 0 0 0 
1243 0.0755139 0.897803 0.0145527 0.0121295 0 0 0 0 0 0 
1244 0.0687722 0.917137 0.00689982 0.00719088 0 0 0 0 0 0 
1245 0.0657381 0.920793 0.00659541 0.00687363 0 0 0 0 0 0 
1246 0.0755139 0.897803 0.0145527 0.0121295 0 0 0 0 0 0 
1247 0.0687722 0.917137 0.00689982 0.00719088 0 0 0 0 0 0 
1248 0.0695737 0.923195 0.00723147 0 0 0 0 0 0 0 
1249 0.0606749 0.925348 0.0102594 0.00371709 0 0 0 0 0 0 
1250 0.101194 0.886151 0.00640133 0.002595 0.00365929 0 0 0 0 0 
1251 0.0677302 0.918393 0.00679527 0.00708193 0 0 0 0 0 0 
1252 0.099549 0.889878 0.00534794 0.00216797 0.00305713 0 0 0 0 0 
1253 0.0687722 0.917137 0.00689982 0.00719088 0 0 0 0 0 0 
1254 0.0665488 0.926534 0.00691706 0 0 0 0 0 0 0 
1255 0.0675275 0.925454 0.00701878 0 0 0 0 0 0 0 
1256 0.1011 0.875683 0.0232155 0 0 0 0 0 0 0 
1257 0.0685353 0.924341 0.00712354 0 0 0 0 0 0 0 
1258 0.0706441 0.922013 0.00734272 0 0 0 0 0 0 0 
1259 0.0597556 0.926479 0.010104 0.00366077 0 0 0 0 0 0 
1260 0.0685353 0.924341 0.00712354 0 0 0 0 0 0 0 
1261 0.0912484 0.894393 0.0143577 0 0 0 0 0 0 0 
1262 0.0754909 0.910418 0.00689982 0.00719088 0 0 0 0 0 0 
1263 0.0687722 0.917137 0.00689982 0.00719088 0 0 0 0 0 0 
1264 0.0687722 0.917137 0.00689982 0.00719088 0 0 0 0 0 0 
1265 0.084758 0.902775 0.00630578 0.00255627 0.00360467 0 0 0 0 0 
1266 0.0873659 0.899784 0.00649981 0.00263492 0.00371559 0 0 0 0 0 
1267 0.0597556 0.926479 0.010104 0.00366077 0 0 0 0 0 0 
1268 0.0873659 0.899784 0.00649981 0.00263492 0.00371559 0 0 0 0 0 
1269 0.0531509 0.931683 0.00975422 0.0040533 0 0.00135819 0 0 0 0 
1270 5.88805e-05 0.99994 0 0 0 0 0 0 0 0 
1271 0.0588637 0.927576 0.00995316 0.00360613 0 0 0 0 0 0 
1272 0.0706441 0.922013 0.00734272 0 0 0 0 0 0 0 
1273 0.0876647 0.897977 0.0143577 0 0 0 0 0 0 0 
1274 0.0539686 0.930632 0.00990429 0.00411566 0 0.00137908 0 0 0 0 
1275 0.0749071 0.911328 0.010104 0.00366077 0 0 0 0 0 0 
1276 0.0873659 0.899784 0.00649981 0.00263492 0.00371559 0 0 0 0 0 
1277 0.0873659 0.899784 0.00649981 0.00263492 0.00371559 0 0 0 0 0 
1278 0.0957215 0.9024 0.00151582 0.000362857 0 0 0 0 0 0 
1279 0.0948174 0.881966 0.0232155 0 0 0 0 0 0 0 
1280 0.0873659 0.899784 0.00649981 0.00263492 0.00371559 0 0 0 0 0 
1281 0.0863364 0.899523 0.0141401 0 0 0 0 0 0 0 
1282 0.0695737 0.923195 0.00723147 0 0 0 0 0 0 0 
1283 0.0677302 0.918393 0.00679527 0.00708193 0 0 0 0 0 0 
1284 0.0743698 0.899352 0.0143322 0.0119457 0 0 0 0 0 0 
1285 0.0282868 0.950073 0.0108198 0 0 0.01082 0 0 0 0 
1286 0.0876647 0.897977 0.0143577 0 0 0 0 0 0 0 
1287 0.0687722 0.917137 0.00689982 0.00719088 0 0 0 0 0 0 
1288 0.0956886 0.890978 0.0133321 0 0 0 0 0 0 0 
1289 0.0606749 0.925348 0.0102594 0.00371709 0 0 0 0 0 0 
1290 0.0539686 0.930632 0.00990429 0.00411566 0 0.00137908 0 0 0 0 
1291 0.120924 0.865002 0.0140738 0 0 0 0 0 0 0 
1292 0.0835115 0.904205 0.00621305 0.00251868 0.00355166 0 0 0 0 0 
1293 0.0687722 0.916045 0.00799224 0.00719088 0 0 0 0 0 0 
1294 0.0695737 0.923192 0.00723427 0 0 0 0 0 0 0 
1295 0.0637759 0.929595 0.00662885 0 0 0 0 0 0 0 
1296 0.0606749 0.925348 0.0102594 0.00371709 0 0 0 0 0 0 
1297 0.0862692 0.901519 0.00597984 0.00623209 0 0 0 0 0 0 
1298 0.0982174 0.889499 0.00621305 0.00251868 0.00355166 0 0 0 0 0 
1299 0.0948174 0.881966 0.0232155 0 0 0 0 0 0 0 
1300 0.0677302 0.918393 0.00679527 0.00708193 0 0 0 0 0 0 
1301 0.0687722 0.917137 0.00689982 0.00719088 0 0 0 0 0 0 
1302 0.0755139 0.897803 0.0145527 0.0121295 0 0 0 0 0 0 
1303 0.0685353 0.924341 0.00712354 0 0 0 0 0 0 0 
1304 0.0606749 0.925348 0.0102594 0.00371709 0 0 0 0 0 0 
1305 0.0687722 0.917137 0.00689982 0.00719088 0 0 0 0 0 0 
1306 0.0971718 0.900921 0.00153878 0.000368355 0 0 0 0 0 0 
1307 0.0606749 0.925348 0.0102594 0.00371709 0 0 0 0 0 0 
1308 0.0606749 0.925348 0.0102594 0.00371709 0 0 0 0 0 0 
1309 0.0677302 0.918393 0.00679527 0.00708193 0 0 0 0 0 0 
1310 0.0706441 0.922013 0.00734272 0 0 0 0 0 0 0 
1311 5.88805e-05 0.99994 0 0 0 0 0 0 0 0 
1312 0.0933808 0.883755 0.0228637 0 0 0 0 0 0 0 
1313 0.10501 0.871774 0.0232155 0 0 0 0 0 0 0 
1314 0.0687722 0.917137 0.00689982 0.00719088 0 0 0 0 0 0 
1315 0.0706441 0.922013 0.00734272 0 0 0 0 0 0 0 
1316 0.0606749 0.925348 0.0102594 0.00371709 0 0 0 0 0 0 
1317 0.0786147 0.907508 0.00679527 0.00708193 0 0 0 0 0 0 
1318 0.118248 0.843976 0.0377746 0 0 0 0 0 0 0 
1319 0.0811255 0.906942 0.00603554 0.00244671 0.00345019 0 0 0 0 0 
1320 0.0687722 0.917137 0.00689982 0.00719088 0 0 0 0 0 0 
1321 0.0687722 0.917137 0.00689982 0.00719088 0 0 0 0 0 0 
1322 0.084758 0.902775 0.00630578 0.00255627 0.00360467 0 0 0 0 0 
1323 0.0274424 0.951563 0.0104969 0 0 0.010497 0 0 0 0 
1324 0.0986668 0.899397 0.00156246 0.000374022 0 0 0 0 0 0 
1325 0.0873659 0.899784 0.00649981 0.00263492 0.00371559 0 0 0 0 0 
1326 0.0282868 0.950073 0.0108198 0 0 0.01082 0 0 0 0 
1327 0.0677302 0.918393 0.00679527 0.00708193 0 0 0 0 0 0 
1328 0.0743698 0.899352 0.0143322 0.0119457 0 0 0 0 0 0 
1329 0.0539686 0.930632 0.00990429 0.00411566 0 0.00137908 0 0 0 0 
1330 0.0539686 0.930632 0.00990429 0.00411566 0 0.00137908 0 0 0 0 
1331 0.0687722 0.917137 0.00689982 0.00719088 0 0 0 0 0 0 
1332 0.0539686 0.930632 0.00990429 0.00411566 0 0.00137908 0 0 0 0 
1333 0.0677302 0.918393 0.00679527 0.00708193 0 0 0 0 0 0 
1334 0.0655981 0.927584 0.00681824 0 0 0 0 0 0 0 
1335 0.0588637 0.927576 0.00995316 0.00360613 0 0 0 0 0 0 
1336 0.0539686 0.930632 0.00990429 0.00411566 0 0.00137908 0 0 0 0 
1337 0.0706441 0.922013 0.00734272 0 0 0 0 0 0 0 
1338 0.118248 0.843976 0.0377746 0 0 0 0 0 0 0 
1339 0.105905 0.892297 0.00145085 0.000347306 0 0 0 0 0 0 
1340 0.0971718 0.900921 0.00153878 0.000368355 0 0 0 0 0 0 
1341 0.0755139 0.897803 0.0145527 0.0121295 0 0 0 0 0 0 
1342 0.0480542 0.938234 0.00881889 0.00366463 0 0.00122795 0 0 0 0 
1343 0.0539686 0.930632 0.00990429 0.00411566 0 0.00137908 0 0 0 0 
1344 0.0687722 0.917137 0.00689982 0.00719088 0 0 0 0 0 0 
1345 0.0957215 0.9024 0.00151582 0.000362857 0 0 0 0 0 0 
1346 0.0539686 0.930632 0.00990429 0.00411566 0 0.00137908 0 0 0 0 
1347 0.0677302 0.918393 0.00679527 0.00708193 0 0 0 0 0 0 
1348 0.0667193 0.919611 0.00669385 0.00697623 0 0 0 0 0 0 
1349 0.0588637 0.927576 0.00995316 0.00360613 0 0 0 0 0 0 
1350 0.0677302 0.918393 0.00679527 0.00708193 0 0 0 0 0 0 
1351 0.0687722 0.917137 0.00689982 0.00719088 0 0 0 0 0 0 
1352 0.0973015 0.878271 0.0133229 0.0111044 0 0 0 0 0 0 
1353 0.0876647 0.897977 0.0143577 0 0 0 0 0 0 0 
1354 0.0531509 0.931683 0.00975422 0.0040533 0 0.00135819 0 0 0 0 
1355 0.0940674 0.894168 0.00595053 0.00241225 0.00340159 0 0 0 0 0 
1356 0.0999729 0.886097 0.0139291 0 0 0 0 0 0 0 
1357 0.108532 0.853453 0.0380142 0 0 0 0 0 0 0 
1358 0.0606752 0.925348 0.0102594 0.00371709 0 0 0 0 0 0 
1359 0.0706441 0.922013 0.00734272 0 0 0 0 0 0 0 
1360 0.0743698 0.899352 0.0143322 0.0119457 0 0 0 0 0 0 
1361 0.0606749 0.925348 0.0102594 0.00371709 0 0 0 0 0 0 
1362 0.0539686 0.930632 0.00990429 0.00411566 0 0.00137908 0 0 0 0 
1363 0.0687722 0.917137 0.00689982 0.00719088 0 0 0 0 0 0 
1364 0.0606749 0.925348 0.0102594 0.00371709 0 0 0 0 0 0 
1365 0.0687722 0.917137 0.00689982 0.00719088 0 0 0 0 0 0 
1366 0.0873659 0.899784 0.00649981 0.00263492 0.00371559 0 0 0 0 0 
1367 0.0755139 0.897803 0.0145527 0.0121295 0 0 0 0 0 0 
1368 0.0830536 0.904841 0.00612301 0.00248217 0.00350019 0 0 0 0 0 
1369 0.0706441 0.922013 0.00734272 0 0 0 0 0 0 0 
1370 0.0606749 0.925348 0.0102597 0.00371709 0 0 0 0 0 0 
1371 0.0282868 0.950073 0.0108198 0 0 0.01082 0 0 0 0 
1372 0.0971718 0.900921 0.00153878 0.000368355 0 0 0 0 0 0 
1373 0.0850478 0.901022 0.0139291 0 0 0 0 0 0 0 
1374 0.0755139 0.897803 0.0145527 0.0121295 0 0 0 0 0 0 
1375 0.084758 0.902775 0.00630578 0.00255627 0.00360467 0 0 0 0 0 
1376 0.0606749 0.925348 0.0102594 0.00371709 0 0 0 0 0 0 
1377 0.0685353 0.924341 0.00712354 0 0 0 0 0 0 0 
1378 0.0539686 0.930632 0.00990429 0.00411566 0 0.00137908 0 0 0 0 
1379 0.0948174 0.881966 0.0232155 0 0 0 0 0 0 0 
1380 0.0539686 0.930632 0.00990429 0.00411566 0 0.00137908 0 0 0 0 
1381 0.133947 0.865186 0.000867597 0 0 0 0 0 0 0 
1382 0.0665488 0.926534 0.00691706 0 0 0 0 0 0 0 
1383 0.0860422 0.901302 0.00640133 0.002595 0.00365929 0 0 0 0 0 
1384 0.096794 0.891101 0.00612301 0.00248217 0.00350019 0 0 0 0 0 
1385 0.0860422 0.901302 0.00640133 0.002595 0.00365929 0 0 0 0 0 
1386 0.0732598 0.900839 0.0141329 0.0117674 0 0 0 0 0 0 
1387 0.0687722 0.917137 0.00689982 0.00719088 0 0 0 0 0 0 
1388 0.0706441 0.922013 0.00734272 0 0 0 0 0 0 0 
1389 0.0539686 0.930632 0.00990429 0.00411566 0 0.00137908 0 0 0 0 
1390 0.0873659 0.899784 0.00649981 0.00263492 0.00371559 0 0 0 0 0 
1391 0.0677302 0.918393 0.00679527 0.00708193 0 0 0 0 0 0 
1392 0.0606749 0.925348 0.0102594 0.00371709 0 0 0 0 0 0 
1393 0.0971718 0.900921 0.00153878 0.000368355 0 0 0 0 0 0 
1394 0.0823012 0.905593 0.00612301 0.00248217 0.00350019 0 0 0 0 0 
1395 0.0933808 0.868603 0.0380153 0 0 0 0 0 0 0 
1396 0.0755139 0.897803 0.0145527 0.0121295 0 0 0 0 0 0 
1397 0.0677302 0.918393 0.00679527 0.00708193 0 0 0 0 0 0 
1398 0.0755139 0.897803 0.0145527 0.0121295 0 0 0 0 0 0 
1399 0.0687722 0.917137 0.00689982 0.00719088 0 0 0 0 0 0 
1400 0.0876647 0.897977 0.0143577 0 0 0 0 0 0 0 
1401 0.0706441 0.922013 0.00734272 0 0 0 0 0 0 0 
1402 0.0531509 0.931683 0.00975422 0.0040533 0 0.00135819 0 0 0 0 
1403 0.0278582 0.950829 0.0106559 0 0 0.0106561 0 0 0 0 
1404 0.0539686 0.930632 0.00990429 0.00411566 0 0.00137908 0 0 0 0 
1405 0.0687722 0.917137 0.00689982 0.00719088 0 0 0 0 0 0 
1406 0.0743698 0.899352 0.0143322 0.0119457 0 0 0 0 0 0 
1407 0.0675275 0.925454 0.00701878 0 0 0 0 0 0 0 
1408 0.0588637 0.927576 0.00995316 0.00360613 0 0 0 0 0 0 
1409 0.101594 0.8729 0.0139106 0.0115944 0 0 0 0 0 0 
1410 0.0655981 0.927584 0.00681826 0 0 0 0 0 0 0 
1411 0.0914902 0.897068 0.0057875 0.00234616 0.0033084 0 0 0 0 0 
1412 0.0638599 0.923056 0.00640697 0.00667724 0 0 0 0 0 0 
1413 0.0695737 0.923195 0.00723147 0 0 0 0 0 0 0 
1414 0.087854 0.910422 0.00139123 0.000333033 0 0 0 0 0 0 
1415 0.0860422 0.901302 0.00640133 0.002595 0.00365929 0 0 0 0 0 
1416 0.0732598 0.900854 0.0141183 0.0117674 0 0 0 0 0 0 
1417 0.0685353 0.924341 0.00712354 0 0 0 0 0 0 0 
1418 0.0539686 0.930632 0.00990429 0.00411566 0 0.00137908 0 0 0 0 
1419 0.0835115 0.904205 0.00621305 0.00251868 0.00355166 0 0 0 0 0 
1420 0.0695737 0.923195 0.00723147 0 0 0 0 0 0 0 
1421 0.0822333 0.910748 0.00701878 0 0 0 0 0 0 0 
1422 0.0629084 0.923925 0.00966467 0.00350161 0 0 0 0 0 0 
1423 0.0606749 0.925348 0.0102594 0.00371709 0 0 0 0 0 0 
1424 0.0828817 0.903241 0.00679527 0.00708193 0 0 0 0 0 0 
1425 0.0873659 0.899784 0.00649981 0.00263492 0.00371559 0 0 0 0 0 
1426 0.0740652 0.918811 0.00712354 0 0 0 0 0 0 0 
1427 0.0873659 0.899784 0.00649981 0.00263492 0.00371559 0 0 0 0 0 
1428 0.130794 0.857919 0.00570929 0.00231446 0.00326369 0 0 0 0 0 
1429 0.0986668 0.899397 0.00156246 0.000374022 0 0 0 0 0 0 
1430 0.0948174 0.881966 0.0232155 0 0 0 0 0 0 0 
1431 0.0531509 0.931683 0.00975422 0.0040533 0 0.00135819 0 0 0 0 
1432 0.0776323 0.915136 0.00723147 0 0 0 0 0 0 0 
1433 0.067877 0.918146 0.0102594 0.00371709 0 0 0 0 0 0 
1434 0.0657381 0.920793 0.00659541 0.00687363 0 0 0 0 0 0 
1435 0.0539686 0.930632 0.00990429 0.00411566 0 0.00137908 0 0 0 0 
1436 0.0677302 0.918393 0.00679527 0.00708193 0 0 0 0 0 0 
1437 0.0943138 0.903835 0.00149352 0.000357521 0 0 0 0 0 0 
1438 0.0695738 0.923193 0.00723279 0 0 0 0 0 0 0 
1439 0.0747208 0.914289 0.00555905 0.00225355 0.0031778 0 0 0 0 0 
1440 0.0706696 0.921988 0.00734272 0 0 0 0 0 0 0 
1441 0.0804974 0.91216 0.00734272 0 0 0 0 0 0 0 
1442 0.0696716 0.916351 0.0102594 0.00371709 0 0 0 0 0 0 
1443 0.0606749 0.925348 0.0102594 0.00371709 0 0 0 0 0 0 
1444 0.0755139 0.897803 0.0145527 0.0121295 0 0 0 0 0 0 
1445 0.0606749 0.925348 0.0102594 0.00371709 0 0 0 0 0 0 
1446 0.0813317 0.90638 0.0060566 0.00623209 0 0 0 0 0 0 
1447 0.085305 0.888012 0.0145527 0.0121295 0 0 0 0 0 0 
1448 0.0916192 0.906583 0.00145085 0.000347306 0 0 0 0 0 0 
1449 0.0706441 0.922013 0.00734272 0 0 0 0 0 0 0 
1450 0.0687722 0.917137 0.00689982 0.00719088 0 0 0 0 0 0 
1451 0.0687722 0.917137 0.00689982 0.00719088 0 0 0 0 0 0 
1452 6.81051e-05 0.999931 0 0 0 0 0 0 0 0 
1453 0.0760503 0.909973 0.0102594 0.00371709 0 0 0 0 0 0 
1454 0.0835115 0.904205 0.00621305 0.00251868 0.00355166 0 0 0 0 0 
1455 0.0873659 0.899784 0.00649981 0.00263492 0.00371559 0 0 0 0 0 
1456 0.0986668 0.899397 0.00156246 0.000374022 0 0 0 0 0 0 
1457 0.0606749 0.925348 0.0102594 0.00371709 0 0 0 0 0 0 
1458 0.0706441 0.922013 0.00734272 0 0 0 0 0 0 0 
1459 0.0657381 0.920793 0.00659541 0.00687363 0 0 0 0 0 0 
1460 0.0606749 0.925348 0.0102594 0.00371709 0 0 0 0 0 0 
1461 0.0606749 0.925348 0.0102594 0.00371709 0 0 0 0 0 0 
1462 0.0539686 0.930632 0.00990429 0.00411566 0 0.00137908 0 0 0 0 
1463 0.0531509 0.931683 0.00975422 0.0040533 0 0.00135819 0 0 0 0 
1464 0.0986668 0.899397 0.00156246 0.000374022 0 0 0 0 0 0 
1465 0.0677302 0.918393 0.00679527 0.00708193 0 0 0 0 0 0 
1466 0.0732598 0.900849 0.0141227 0.0117674 0 0 0 0 0 0 
1467 0.0873705 0.899779 0.00649981 0.00263492 0.00371559 0 0 0 0 0 
1468 0.0706441 0.922013 0.00734272 0 0 0 0 0 0 0 
1469 0.0685353 0.924341 0.00712354 0 0 0 0 0 0 0 
1470 0.0944584 0.892886 0.00640133 0.002595 0.00365929 0 0 0 0 0 
1471 0.0774831 0.915174 0.00734272 0 0 0 0 0 0 0 
1472 0.0539686 0.930632 0.00990429 0.00411566 0 0.00137908 0 0 0 0 
1473 0.0638599 0.923056 0.00640697 0.00667724 0 0 0 0 0 0 
1474 0.0597556 0.926479 0.010104 0.00366077 0 0 0 0 0 0 
1475 0.0902538 0.871446 0.0327217 0.00231446 0.00326369 0 0 0 0 0 
1476 0.0687722 0.917137 0.00689982 0.00719088 0 0 0 0 0 0 
1477 0.0687722 0.917137 0.00689982 0.00719088 0 0 0 0 0 0 
1478 0.0606749 0.925348 0.0102594 0.00371709 0 0 0 0 0 0 
1479 0.0687722 0.917137 0.00689982 0.00719088 0 0 0 0 0 0 
1480 0.0706268 0.916394 0.0095266 0.00345158 0 0 0 0 0 0 
1481 0.0282868 0.950073 0.0108198 0 0 0.01082 0 0 0 0 
1482 0.0755139 0.891084 0.0212715 0.0121295 0 0 0 0 0 0 
1483 0.0986677 0.899396 0.00156246 0.000374022 0 0 0 0 0 0 
1484 0.0282868 0.950073 0.0108198 0 0 0.01082 0 0 0 0 
1485 0.0772594 0.915922 0.00681824 0 0 0 0 0 0 0 
1486 0.0282868 0.950073 0.0108198 0 0 0.01082 0 0 0 0 
1487 0.0606749 0.925348 0.0102594 0.00371709 0 0 0 0 0 0 
1488 0.0706441 0.922013 0.00734272 0 0 0 0 0 0 0 
1489 0.0597556 0.926479 0.010104 0.00366077 0 0 0 0 0 0 
1490 0.0665488 0.926534 0.00691706 0 0 0 0 0 0 0 
1491 0.0687722 0.917137 0.00689982 0.00719088 0 0 0 0 0 0 
1492 0.0687722 0.917137 0.00689982 0.00719088 0 0 0 0 0 0 
1493 0.0948174 0.881966 0.0232155 0 0 0 0 0 0 0 
1494 0.0606749 0.925348 0.0102594 0.00371709 0 0 0 0 0 0 
1495 0.0842635 0.889054 0.0145527 0.0121295 0 0 0 0 0 0 
1496 0.0776377 0.915131 0.00723147 0 0 0 0 0 0 0 
1497 0.0606749 0.925348 0.0102594 0.00371709 0 0 0 0 0 0 
1498 0.0755139 0.897803 0.0145527 0.0121295 0 0 0 0 0 0 
1499 0.0876647 0.897977 0.0143577 0 0 0 0 0 0 0 
1500 0.0539686 0.930632 0.00990429 0.00411566 0 0.00137908 0 0 0 0 
1501 0.0766009 0.916861 0.00653804 0 0 0 0 0 0 0 
1502 0.0957215 0.9024 0.00151582 0.000362857 0 0 0 0 0 0 
1503 0.0712202 0.913614 0.00975422 0.0040533 0 0.00135819 0 0 0 0 
1504 0.0860778 0.901639 0.00621305 0.00251868 0.00355166 0 0 0 0 0 
1505 0.0811255 0.906942 0.00603554 0.00244671 0.00345019 0 0 0 0 0 
1506 0.0687722 0.917137 0.00689982 0.00719088 0 0 0 0 0 0 
1507 0.0873659 0.899784 0.00649981 0.00263492 0.00371559 0 0 0 0 0 
1508 0.0863364 0.899491 0.014172 0 0 0 0 0 0 0 
1509 0.0873659 0.899784 0.00649981 0.00263492 0.00371559 0 0 0 0 0 
1510 0.0873659 0.899784 0.00649981 0.00263492 0.00371559 0 0 0 0 0 
1511 0.0677302 0.918393 0.00679527 0.00708193 0 0 0 0 0 0 
1512 0.0755139 0.897803 0.0145527 0.0121295 0 0 0 0 0 0 
1513 0.0655981 0.927584 0.00681824 0 0 0 0 0 0 0 
1514 0.0876647 0.897977 0.0143577 0 0 0 0 0 0 0 
1515 0.0531509 0.931683 0.00975422 0.0040533 0 0.00135819 0 0 0 0 
1516 0.0749071 0.911328 0.010104 0.00366077 0 0 0 0 0 0 
1517 0.0606749 0.925348 0.0102594 0.00371709 0 0 0 0 0 0 
1518 0.0706441 0.922013 0.00734272 0 0 0 0 0 0 0 
1519 0.0606749 0.925348 0.0102594 0.00371709 0 0 0 0 0 0 
1520 0.0677302 0.918393 0.00679527 0.00708193 0 0 0 0 0 0 
1521 0.0828817 0.903241 0.00679527 0.00708193 0 0 0 0 0 0 
1522 0.0706441 0.922013 0.00734272 0 0 0 0 0 0 0 
1523 0.0539686 0.930632 0.00990429 0.00411566 0 0.00137908 0 0 0 0 
1524 0.0667193 0.919611 0.00669385 0.00697623 0 0 0 0 0 0 
1525 0.100648 0.886696 0.00640133 0.002595 0.00365929 0 0 0 0 0 
1526 0.0606749 0.925348 0.0102594 0.00371709 0 0 0 0 0 0 
1527 0.0873659 0.899784 0.00649981 0.00263492 0.00371559 0 0 0 0 0 
1528 0.0687722 0.917137 0.00689982 0.00719088 0 0 0 0 0 0 
1529 0.131917 0.867229 0.000854451 0 0 0 0 0 0 0 
1530 0.0749071 0.911328 0.010104 0.00366077 0 0 0 0 0 0 
1531 0.0948174 0.881966 0.0232155 0 0 0 0 0 0 0 
1532 0.0695737 0.923195 0.00723147 0 0 0 0 0 0 0 
1533 0.0515876 0.933692 0.00946733 0.00393408 0 0.00131824 0 0 0 0 
1534 0.0677302 0.918393 0.00679527 0.00708193 0 0 0 0 0 0 
1535 0.0835115 0.8895 0.0209183 0.00251868 0.00355166 0 0 0 0 0 
1536 0.0873659 0.899784 0.00649981 0.00263492 0.00371559 0 0 0 0 0 
1537 0 0.999999 0 0 0 0 0 0 0 0 
1538 0.0755139 0.897803 0.0145527 0.0121295 0 0 0 0 0 0 
1539 0.0606749 0.910214 0.0253938 0.00371709 0 0 0 0 0 0 
1540 0.0606749 0.925348 0.0102594 0.00371709 0 0 0 0 0 0 
1541 0.0647854 0.921941 0.00649983 0.00677402 0 0 0 0 0 0 
1542 0.0588637 0.927576 0.00995316 0.00360613 0 0 0 0 0 0 
1543 0.0685353 0.924341 0.00712354 0 0 0 0 0 0 0 
1544 0.0687722 0.917137 0.00689982 0.00719088 0 0 0 0 0 0 
1545 5.88805e-05 0.99994 0 0 0 0 0 0 0 0 
1546 0.0755139 0.897803 0.0145527 0.0121295 0 0 0 0 0 0 
1547 0.0282868 0.950073 0.0108198 0 0 0.01082 0 0 0 0 
1548 0.0706441 0.922013 0.00734272 0 0 0 0 0 0 0 
1549 0.0687722 0.917137 0.00689982 0.00719088 0 0 0 0 0 0 
1550 0.0539686 0.930632 0.00990429 0.00411566 0 0.00137908 0 0 0 0 
1551 0.0706441 0.922013 0.00734272 0 0 0 0 0 0 0 
1552 0.0860422 0.901302 0.00640133 0.002595 0.00365929 0 0 0 0 0 
1553 0.0876647 0.897977 0.0143577 0 0 0 0 0 0 0 
1554 0.0755139 0.897803 0.0145527 0.0121295 0 0 0 0 0 0 
1555 0.0677302 0.918393 0.00679527 0.00708193 0 0 0 0 0 0 
1556 0.0539686 0.930632 0.00990429 0.00411566 0 0.00137908 0 0 0 0 
1557 0.0711067 0.921551 0.00734272 0 0 0 0 0 0 0 
1558 0.0685164 0.916084 0.00990429 0.00411566 0 0.00137908 0 0 0 0 
1559 0.0847253 0.908043 0.00723147 0 0 0 0 0 0 0 
1560 0.0706441 0.922002 0.00735416 0 0 0 0 0 0 0 
1561 0.0606749 0.925348 0.0102594 0.00371709 0 0 0 0 0 0 
1562 0.0695737 0.923195 0.00723158 0 0 0 0 0 0 0 
1563 0.0873659 0.899784 0.00649981 0.00263492 0.00371559 0 0 0 0 0 
1564 0.084758 0.902775 0.00630578 0.00255627 0.00360467 0 0 0 0 0 
1565 0.0873659 0.899784 0.00649981 0.00263492 0.00371559 0 0 0 0 0 
1566 0.131917 0.867229 0.000854451 0 0 0 0 0 0 0 
1567 0.0890742 0.909178 0.00141055 0.000337659 0 0 0 0 0 0 
1568 0.0873659 0.899784 0.00649981 0.00263492 0.00371559 0 0 0 0 0 
1569 0.0531509 0.931683 0.00975422 0.0040533 0 0.00135819 0 0 0 0 
1570 0.0788244 0.913833 0.00734272 0 0 0 0 0 0 0 
1571 0.0270389 0.952275 0.0103425 0 0 0.0103427 0 0 0 0 
1572 0.0606749 0.925348 0.0102594 0.00371709 0 0 0 0 0 0 
1573 0.0531509 0.931683 0.00975422 0.0040533 0 0.00135819 0 0 0 0 
1574 0.0755139 0.897803 0.0145527 0.0121295 0 0 0 0 0 0 
1575 0.0860422 0.901302 0.00640133 0.002595 0.00365929 0 0 0 0 0 
1576 0.0687722 0.917137 0.00689982 0.00719088 0 0 0 0 0 0 
1577 0.0539686 0.930632 0.00990429 0.00411566 0 0.00137908 0 0 0 0 
1578 0.0687722 0.917137 0.00689982 0.00719088 0 0 0 0 0 0 
1579 0.0539686 0.930632 0.00990429 0.00411566 0 0.00137908 0 0 0 0 
1580 0.0792888 0.913369 0.00734272 0 0 0 0 0 0 0 
1581 0.0737891 0.912651 0.00995316 0.00360613 0 0 0 0 0 0 
1582 0.0607085 0.923892 0.00990429 0.00411566 0 0.00137908 0 0 0 0 
1583 0.0638599 0.923056 0.00640697 0.00667724 0 0 0 0 0 0 
1584 0.0667193 0.919611 0.00669385 0.00697623 0 0 0 0 0 0 
1585 0.0986668 0.899397 0.00156246 0.000374022 0 0 0 0 0 0 
1586 0.0860422 0.901302 0.00640133 0.002595 0.00365929 0 0 0 0 0 
1587 0.0606749 0.925348 0.0102594 0.00371709 0 0 0 0 0 0 
1588 0.0685353 0.924341 0.00712354 0 0 0 0 0 0 0 
1589 0.0685353 0.924341 0.00712354 0 0 0 0 0 0 0 
1590 0.123524 0.864544 0.00603554 0.00244671 0.00345019 0 0 0 0 0 
1591 0.0860422 0.901302 0.00640133 0.002595 0.00365929 0 0 0 0 0 
1592 0.0948174 0.881966 0.0232155 0 0 0 0 0 0 0 
1593 0.0687722 0.917137 0.00689982 0.00719088 0 0 0 0 0 0 
1594 0.0986668 0.899397 0.00156246 0.000374022 0 0 0 0 0 0 
1595 0.0755139 0.897803 0.0145527 0.0121295 0 0 0 0 0 0 
1596 0.0755139 0.897803 0.0145527 0.0121295 0 0 0 0 0 0 
1597 0.0539686 0.930632 0.00990429 0.00411566 0 0.00137908 0 0 0 0 
1598 0.0675275 0.925454 0.00701878 0 0 0 0 0 0 0 
1599 0.0597556 0.926479 0.010104 0.00366077 0 0 0 0 0 0 
1600 0.0539686 0.930632 0.00990429 0.00411566 0 0.00137908 0 0 0 0 
1601 0.0687722 0.917137 0.00689982 0.00719088 0 0 0 0 0 0 
1602 0.0606749 0.925348 0.0102594 0.00371709 0 0 0 0 0 0 
1603 0.0948174 0.881966 0.0232155 0 0 0 0 0 0 0 
1604 0.0677302 0.918393 0.00679527 0.00708193 0 0 0 0 0 0 
1605 0.0588637 0.927576 0.00995316 0.00360613 0 0 0 0 0 0 
1606 0.0755139 0.897803 0.0145527 0.0121295 0 0 0 0 0 0 
1607 0.100879 0.88498 0.0141401 0 0 0 0 0 0 0 
1608 0.0667193 0.919611 0.00669385 0.00697623 0 0 0 0 0 0 
1609 0.0531509 0.931682 0.00975515 0.0040533 0 0.00135819 0 0 0 0 
1610 0.0876647 0.897977 0.0143577 0 0 0 0 0 0 0 
1611 0.0539711 0.930629 0.00990429 0.00411566 0 0.00137908 0 0 0 0 
1612 0.074883 0.911026 0.00689982 0.00719088 0 0 0 0 0 0 
1613 0.104093 0.872691 0.0232155 0 0 0 0 0 0 0 
1614 0.0606749 0.925348 0.0102594 0.00371709 0 0 0 0 0 0 
1615 0.0755139 0.897803 0.0145527 0.0121295 0 0 0 0 0 0 
1616 0.0539725 0.930628 0.00990429 0.00411566 0 0.00137908 0 0 0 0 
1617 0.0687735 0.917136 0.00689982 0.00719088 0 0 0 0 0 0 
1618 0.0755139 0.897803 0.0145527 0.0121295 0 0 0 0 0 0 
1619 0.0539686 0.930632 0.00990429 0.00411566 0 0.00137908 0 0 0 0 
1620 0.0695713 0.916338 0.00689982 0.00719088 0 0 0 0 0 0 
1621 0.0989327 0.888217 0.00649981 0.00263492 0.00371559 0 0 0 0 0 
1622 0.0709875 0.915035 0.0102599 0.00371709 0 0 0 0 0 0 
1623 0.0803579 0.905551 0.00689982 0.00719088 0 0 0 0 0 0 
1624 0.0743698 0.899352 0.0143322 0.0119457 0 0 0 0 0 0 
1625 0.0539686 0.930632 0.00990429 0.00411566 0 0.00137908 0 0 0 0 
1626 0.0687722 0.917137 0.00689982 0.00719088 0 0 0 0 0 0 
1627 0.0755139 0.897803 0.0145527 0.0121295 0 0 0 0 0 0 
1628 0.0755139 0.897803 0.0145527 0.0121295 0 0 0 0 0 0 
1629 0.0677302 0.918393 0.00679527 0.00708193 0 0 0 0 0 0 
1630 0.0687722 0.917137 0.00689982 0.00719088 0 0 0 0 0 0 
1631 0.0677302 0.918393 0.00679527 0.00708193 0 0 0 0 0 0 
1632 0.0687722 0.917137 0.00689982 0.00719088 0 0 0 0 0 0 
1633 0.028287 0.950072 0.0108198 0 0 0.01082 0 0 0 0 
1634 0.0758259 0.916831 0.00734272 0 0 0 0 0 0 0 
1635 0.115861 0.872538 0.00586788 0.00237875 0.00335435 0 0 0 0 0 
1636 0.0539686 0.930632 0.00990429 0.00411566 0 0.00137908 0 0 0 0 
1637 0.0539686 0.930632 0.00990429 0.00411566 0 0.00137908 0 0 0 0 
1638 0.0685353 0.924341 0.00712354 0 0 0 0 0 0 0 
1639 0.0873659 0.899784 0.00649981 0.00263492 0.00371559 0 0 0 0 0 
1640 0.0755139 0.897803 0.0145527 0.0121295 0 0 0 0 0 0 
1641 0.0863364 0.899523 0.0141401 0 0 0 0 0 0 0 
1642 0.0677302 0.918393 0.00679527 0.00708193 0 0 0 0 0 0 
1643 0.0759749 0.911304 0.006229 0.00649177 0 0 0 0 0 0 
1644 0.0986668 0.899397 0.00156246 0.000374022 0 0 0 0 0 0 
1645 0.0657381 0.920793 0.00659541 0.00687363 0 0 0 0 0 0 
1646 0.0687722 0.917137 0.00689982 0.00719088 0 0 0 0 0 0 
1647 0.0684539 0.917569 0.0102594 0.00371709 0 0 0 0 0 0 
1648 0.0860422 0.901302 0.00640133 0.002595 0.00365929 0 0 0 0 0 
1649 0.0687722 0.917137 0.00689982 0.00719088 0 0 0 0 0 0 
1650 0.0677302 0.918393 0.00679527 0.00708193 0 0 0 0 0 0 
1651 0.0916192 0.906583 0.00145085 0.000347306 0 0 0 0 0 0 
1652 0.0835115 0.889499 0.00621305 0.00983384 0.0109424 0 0 0 0 0 
1653 0.0986668 0.899397 0.00156246 0.000374022 0 0 0 0 0 0 
1654 0.0986668 0.899397 0.00156246 0.000374022 0 0 0 0 0 0 
1655 0.0706441 0.922013 0.00734272 0 0 0 0 0 0 0 
1656 0.0755139 0.882419 0.0145527 0.0275141 0 0 0 0 0 0 
1657 0.0706441 0.922013 0.00734272 0 0 0 0 0 0 0 
1658 0.0606749 0.925348 0.0102594 0.00371709 0 0 0 0 0 0 
1659 0.0531509 0.931683 0.00975422 0.0040533 0 0.00135819 0 0 0 0 
1660 0.0282868 0.950073 0.0108198 0 0 0.01082 0 0 0 0 
1661 0.0860422 0.901302 0.00640133 0.002595 0.00365929 0 0 0 0 0 
1662 0.0531509 0.931683 0.00975422 0.0040533 0 0.00135819 0 0 0 0 
1663 0.085629 0.889235 0.013709 0.0114263 0 0 0 0 0 0 
1664 0.0710382 0.914859 0.00691197 0.00719088 0 0 0 0 0 0 
1665 0.0539686 0.930632 0.00990429 0.00411566 0 0.00137908 0 0 0 0 
1666 0.0828817 0.903241 0.00679527 0.00708193 0 0 0 0 0 0 
1667 0.0578747 0.926726 0.00990429 0.00411566 0 0.00137908 0 0 0 0 
1668 0.0755139 0.897803 0.0145527 0.0121295 0 0 0 0 0 0 
1669 0.0597556 0.926479 0.010104 0.00366077 0 0 0 0 0 0 
1670 0.0606749 0.909964 0.0256439 0.00371709 0 0 0 0 0 0 
1671 0.0820241 0.893887 0.0131378 0.0109502 0 0 0 0 0 0 
1672 0.0706441 0.922013 0.00734272 0 0 0 0 0 0 0 
1673 0.109697 0.878371 0.00603554 0.00244671 0.00345019 0 0 0 0 0 
1674 0.0606749 0.925348 0.0102594 0.00371709 0 0 0 0 0 0 
1675 0.0667546 0.918079 0.00975422 0.0040533 0 0.00135819 0 0 0 0 
1676 0.0860422 0.901302 0.00640133 0.002595 0.00365929 0 0 0 0 0 
1677 0.0677302 0.918393 0.00679527 0.00708193 0 0 0 0 0 0 
1678 0.0597556 0.926479 0.010104 0.00366077 0 0 0 0 0 0 
1679 0.0677302 0.918393 0.00679527 0.00708193 0 0 0 0 0 0 
1680 0.0606749 0.925348 0.0102594 0.00371709 0 0 0 0 0 0 
1681 0.0539686 0.930632 0.00990429 0.00411566 0 0.00137908 0 0 0 0 
1682 0.0531509 0.931683 0.00975422 0.0040533 0 0.00135819 0 0 0 0 
1683 0.0588637 0.927576 0.00995316 0.00360613 0 0 0 0 0 0 
1684 0.142743 0.856428 0.000829321 0 0 0 0 0 0 0 
1685 0.0539686 0.930632 0.00990429 0.00411566 0 0.00137908 0 0 0 0 
1686 0.0743698 0.899352 0.0143322 0.0119457 0 0 0 0 0 0 
1687 0.0539686 0.930632 0.00990429 0.00411566 0 0.00137908 0 0 0 0 
1688 0.0606749 0.925348 0.0102594 0.00371709 0 0 0 0 0 0 
1689 0.0873659 0.899784 0.00649981 0.00263492 0.00371559 0 0 0 0 0 
1690 0.0860422 0.901302 0.00640133 0.002595 0.00365929 0 0 0 0 0 
1691 0.0706441 0.922013 0.00734272 0 0 0 0 0 0 0 
1692 0.0588637 0.927576 0.00995316 0.00360613 0 0 0 0 0 0 
1693 0.0523576 0.932703 0.00960864 0.0039928 0 0.00133792 0 0 0 0 
1694 0.0606749 0.925348 0.0102594 0.00371709 0 0 0 0 0 0 
1695 0.0933808 0.883755 0.0228637 0 0 0 0 0 0 0 
1696 0.0706441 0.922013 0.00734272 0 0 0 0 0 0 0 
1697 0.0706441 0.922013 0.00734272 0 0 0 0 0 0 0 
1698 0.0971718 0.900921 0.00153878 0.000368355 0 0 0 0 0 0 
1699 0.0606749 0.925348 0.0102594 0.00371709 0 0 0 0 0 0 
1700 0.0706441 0.922013 0.00734272 0 0 0 0 0 0 0 
1701 0.0539686 0.930632 0.00990429 0.00411566 0 0.00137908 0 0 0 0 
1702 0.0687722 0.917137 0.00689982 0.00719088 0 0 0 0 0 0 
1703 0.0685353 0.924341 0.00712354 0 0 0 0 0 0 0 
1704 0.0755139 0.897803 0.0145527 0.0121295 0 0 0 0 0 0 
1705 0.0876647 0.897977 0.0143577 0 0 0 0 0 0 0 
1706 0.0687722 0.917137 0.00689982 0.00719088 0 0 0 0 0 0 
1707 0.0873659 0.899784 0.00649981 0.00263492 0.00371559 0 0 0 0 0 
1708 0.0687722 0.917137 0.00689982 0.00719088 0 0 0 0 0 0 
1709 0.0948174 0.881966 0.0232155 0 0 0 0 0 0 0 
1710 0.0531509 0.931683 0.00975422 0.0040533 0 0.00135819 0 0 0 0 
1711 0.0606749 0.925348 0.0102594 0.00371709 0 0 0 0 0 0 
1712 0.0282868 0.950073 0.0108198 0 0 0.01082 0 0 0 0 
1713 0.0706441 0.922013 0.00734272 0 0 0 0 0 0 0 
1714 0.0876647 0.897977 0.0143577 0 0 0 0 0 0 0 
1715 0.0960283 0.891121 0.00649981 0.00263492 0.00371559 0 0 0 0 0 
1716 0.0754945 0.910415 0.00689982 0.00719088 0 0 0 0 0 0 
1717 0.0860422 0.901302 0.00640133 0.002595 0.00365929 0 0 0 0 0 
1718 0.0687722 0.917137 0.00689982 0.00719088 0 0 0 0 0 0 
1719 0.0759749 0.911304 0.006229 0.00649177 0 0 0 0 0 0 
1720 0.0755139 0.897803 0.0145527 0.0121295 0 0 0 0 0 0 
1721 0.0667193 0.919584 0.00672015 0.00697623 0 0 0 0 0 0 
1722 0.0873659 0.899784 0.00649981 0.00263492 0.00371559 0 0 0 0 0 
1723 0.0687722 0.917137 0.00689982 0.00719088 0 0 0 0 0 0 
1724 0.0606749 0.925348 0.0102594 0.00371709 0 0 0 0 0 0 
1725 0.0755139 0.897803 0.0145527 0.0121295 0 0 0 0 0 0 
1726 0.0755139 0.897803 0.0145527 0.0121295 0 0 0 0 0 0 
1727 0.084758 0.902775 0.00630578 0.00255627 0.00360467 0 0 0 0 0 
1728 0.0685353 0.924341 0.00712354 0 0 0 0 0 0 0 
1729 0.104711 0.872072 0.0232155 0 0 0 0 0 0 0 
1730 0.0539686 0.930632 0.00990429 0.00411566 0 0.00137908 0 0 0 0 
1731 0.0873659 0.899784 0.00649981 0.00263492 0.00371559 0 0 0 0 0 
1732 0.0685353 0.924341 0.00712354 0 0 0 0 0 0 0 
1733 0.0873659 0.899784 0.00649981 0.00263492 0.00371559 0 0 0 0 0 
1734 0.0755139 0.897803 0.0145527 0.0121295 0 0 0 0 0 0 
1735 0.118248 0.843976 0.0377746 0 0 0 0 0 0 0 
1736 0.0986668 0.899397 0.00156246 0.000374022 0 0 0 0 0 0 
1737 0.0515876 0.933692 0.00946733 0.00393408 0 0.00131824 0 0 0 0 
1738 0.0695737 0.923195 0.00723147 0 0 0 0 0 0 0 
1739 0.0902538 0.898459 0.00570929 0.00231446 0.00326369 0 0 0 0 0 
1740 0.0860422 0.901302 0.00640133 0.002595 0.00365929 0 0 0 0 0 
1741 0.0863364 0.899523 0.0141401 0 0 0 0 0 0 0 
1742 0.0687722 0.917137 0.00689982 0.00719088 0 0 0 0 0 0 
1743 0.0835115 0.904205 0.00621305 0.00251868 0.00355166 0 0 0 0 0 
1744 0.0539686 0.930632 0.00990429 0.00411566 0 0.00137908 0 0 0 0 
1745 0.0811255 0.906942 0.00603554 0.00244671 0.00345019 0 0 0 0 0 
1746 0.0579981 0.928641 0.00980679 0.0035531 0 0 0 0 0 0 
