1 1 100 3 1
2 2 100 3 1
3 4 100 3 1
2 0 100 4 1
1 1 100 4 1
2 2 100 4 1
2 3 100 4 0.500604
3 3 100 4 0.499396
3 4 100 4 1
3 5 100 4 0.666935
4 5 100 4 0.333065
4 6 100 4 1
2 0 100 5 0.648668
3 0 100 5 0.351332
1 1 100 5 1
2 2 100 5 1
1 3 100 5 0.37287
3 3 100 5 0.62713
2 4 100 5 0.844323
3 4 100 5 0.0301187
4 4 100 5 0.125558
3 5 100 5 0.510728
4 5 100 5 0.489272
2 6 100 5 0.0846727
4 6 100 5 0.237956
5 6 100 5 0.677372
3 7 100 5 0.333213
5 7 100 5 0.666787
4 8 100 5 1
5 9 100 5 1
1 0 100 6 0.240121
2 0 100 6 0.000139384
3 0 100 6 0.613478
4 0 100 6 0.146262
1 1 100 6 0.939307
4 1 100 6 0.0606926
1 2 100 6 0.214288
2 2 100 6 0.499995
4 2 100 6 0.214288
5 2 100 6 0.0714293
2 3 100 6 0.125002
3 3 100 6 0.375005
4 3 100 6 0.124989
5 3 100 6 0.375005
1 4 100 6 0.140932
2 4 100 6 0.234333
3 4 100 6 0.312343
4 4 100 6 0.234333
5 4 100 6 0.0780592
2 5 100 6 0.375819
3 5 100 6 0.188303
4 5 100 6 0.185288
5 5 100 6 0.187952
6 5 100 6 0.0626373
3 6 100 6 0.666657
4 6 100 6 0.333343
4 7 100 6 0.25
5 7 100 6 0.250001
6 7 100 6 0.499999
4 8 100 6 0.00251999
5 8 100 6 0.427477
6 8 100 6 0.570003
5 9 100 6 0.500001
6 9 100 6 0.499999
6 10 100 6 1
2 0 100 7 0.000346969
3 0 100 7 4.46884e-05
4 0 100 7 0.994537
5 0 100 7 0.00285009
6 0 100 7 0.00222155
1 1 100 7 1
2 2 100 7 1
2 3 100 7 0.0909304
3 3 100 7 0.727591
5 3 100 7 0.0907341
6 3 100 7 0.0907448
2 4 100 7 0.0909702
3 4 100 7 0.18194
4 4 100 7 0.636114
7 4 100 7 0.0909758
3 5 100 7 0.142861
4 5 100 7 0.285722
5 5 100 7 0.571417
3 6 100 7 0.333345
5 6 100 7 0.222194
6 6 100 7 0.44446
4 7 100 7 0.333907
6 7 100 7 0.222031
7 7 100 7 0.444062
5 8 100 7 0.75
7 8 100 7 0.25
4 9 100 7 0.142857
6 9 100 7 0.857143
5 10 100 7 0.142857
7 10 100 7 0.857143
6 11 100 7 1
7 12 100 7 1
2 0 100 8 5.50223e-05
3 0 100 8 0.249416
4 0 100 8 0.00194227
5 0 100 8 7.92457e-05
6 0 100 8 0.748485
7 0 100 8 2.2192e-05
1 1 100 8 0.948325
2 1 100 8 0.0516754
2 2 100 8 0.929031
4 2 100 8 0.0709693
2 3 100 8 0.0740758
3 3 100 8 0.851848
4 3 100 8 0.0740761
3 4 100 8 0.166767
4 4 100 8 0.666466
5 4 100 8 0.166767
3 5 100 8 0.0625238
4 5 100 8 0.312582
5 5 100 8 0.500183
6 5 100 8 0.124711
2 6 100 8 0.102812
3 6 100 8 0.0777097
4 6 100 8 0.0518514
5 6 100 8 0.259256
6 6 100 8 0.249115
7 6 100 8 0.259257
4 7 100 8 0.0712832
5 7 100 8 0.0712832
6 7 100 8 0.370321
7 7 100 8 0.130697
8 7 100 8 0.356416
5 8 100 8 0.111093
6 8 100 8 0.111114
7 8 100 8 0.666678
8 8 100 8 0.111115
6 9 100 8 0.142857
7 9 100 8 0.142857
8 9 100 8 0.714286
3 10 100 8 1.83838e-06
7 10 100 8 0.333333
8 10 100 8 0.666665
8 11 100 8 1
7 13 100 8 1
2 16 100 8 1
3 17 100 8 1
4 18 100 8 1
5 19 100 8 1
6 20 100 8 1
7 21 100 8 1
7 26 100 8 1
8 28 100 8 1
2 0 100 9 0.14175
3 0 100 9 0.13197
4 0 100 9 0.214006
5 0 100 9 3.6692e-05
6 0 100 9 0.127745
7 0 100 9 0.383042
8 0 100 9 0.00145012
1 1 100 9 0.978863
2 1 100 9 0.0211374
2 2 100 9 0.910783
3 2 100 9 0.089215
5 2 100 9 1.96442e-06
3 3 100 9 0.93749
4 3 100 9 0.0312669
5 3 100 9 0.0312434
2 4 100 9 0.0475382
3 4 100 9 2.97684e-05
4 4 100 9 0.825566
5 4 100 9 0.063431
6 4 100 9 0.0317173
7 4 100 9 0.0317173
2 5 100 9 0.030807
3 5 100 9 0.115471
4 5 100 9 0.173663
5 5 100 9 0.593562
6 5 100 9 0.0288686
7 5 100 9 0.0289977
8 5 100 9 0.0286313
4 6 100 9 0.0468412
5 6 100 9 0.219988
6 6 100 9 0.623293
7 6 100 9 0.0366646
8 6 100 9 0.0365491
9 6 100 9 0.0366646
3 7 100 9 0.0877153
4 7 100 9 0.0877459
5 7 100 9 0.116979
6 7 100 9 0.17547
7 7 100 9 0.298129
8 7 100 9 0.23396
2 8 100 9 0.0265089
4 8 100 9 0.0878606
5 8 100 9 0.15929
6 8 100 9 0.117148
7 8 100 9 0.228463
8 8 100 9 0.146434
9 8 100 9 0.234295
3 9 100 9 0.103448
5 9 100 9 0.103448
6 9 100 9 0.206897
7 9 100 9 0.13793
8 9 100 9 0.310345
9 9 100 9 0.137931
3 10 100 9 0.0344829
4 10 100 9 0.103449
6 10 100 9 0.206892
7 10 100 9 0.206898
8 10 100 9 0.137932
9 10 100 9 0.310347
2 11 100 9 1.02895e-06
3 11 100 9 0.00128788
4 11 100 9 0.0416863
5 11 100 9 0.130979
7 11 100 9 0.389453
8 11 100 9 0.261957
9 11 100 9 0.174636
4 12 100 9 1.62927e-06
5 12 100 9 0.0622995
6 12 100 9 0.18754
8 12 100 9 0.562621
9 12 100 9 0.187538
2 13 100 9 1.24369e-07
3 13 100 9 1.9129e-06
6 13 100 9 0.0790304
7 13 100 9 0.230242
9 13 100 9 0.690725
2 14 100 9 2.2216e-06
4 14 100 9 9.12873e-06
7 14 100 9 4.10098e-07
8 14 100 9 0.749992
9 14 100 9 0.249996
9 15 100 9 1
7 20 100 9 1
9 21 100 9 1
2 0 100 10 0.0018603
3 0 100 10 0.00106872
4 0 100 10 0.103106
5 0 100 10 0.000655913
6 0 100 10 0.017339
7 0 100 10 0.385623
8 0 100 10 0.386665
9 0 100 10 0.103682
1 1 100 10 1
1 2 100 10 0.0871278
2 2 100 10 0.853106
4 2 100 10 0.0597613
9 2 100 10 4.53866e-06
2 3 100 10 0.154943
3 3 100 10 0.845036
4 3 100 10 1.49426e-05
5 3 100 10 4.30261e-06
8 3 100 10 1.61324e-06
2 4 100 10 0.0294634
3 4 100 10 0.281419
4 4 100 10 0.614011
6 4 100 10 0.0751065
1 5 100 10 0.022223
3 5 100 10 0.0666687
4 5 100 10 0.177784
5 5 100 10 0.599986
6 5 100 10 0.0666691
7 5 100 10 0.0666691
2 6 100 10 0.124059
3 6 100 10 0.0464803
4 6 100 10 0.0678257
5 6 100 10 0.11305
6 6 100 10 0.541645
7 6 100 10 0.0904395
8 6 100 10 5.42424e-07
9 6 100 10 0.0164998
2 7 100 10 0.0618939
3 7 100 10 0.144413
4 7 100 10 0.154172
5 7 100 10 0.0618912
6 7 100 10 0.103143
7 7 100 10 0.371335
8 7 100 10 0.0825216
10 7 100 10 0.0206304
3 8 100 10 0.0769139
4 8 100 10 0.102583
5 8 100 10 0.205129
6 8 100 10 0.0769245
7 8 100 10 0.128192
8 8 100 10 0.307691
9 8 100 10 0.102566
4 9 100 10 0.0611699
5 9 100 10 0.142727
6 9 100 10 0.163119
7 9 100 10 0.0967067
8 9 100 10 0.224242
9 9 100 10 0.230475
10 9 100 10 0.0815599
2 10 100 10 0.0101094
5 10 100 10 0.0695563
6 10 100 10 0.162283
7 10 100 10 0.208634
8 10 100 10 0.0695563
9 10 100 10 0.271192
10 10 100 10 0.208669
3 11 100 10 0.0261431
7 11 100 10 0.215824
8 11 100 10 0.3136
9 11 100 10 0.0784293
10 11 100 10 0.366004
4 12 100 10 0.0394213
6 12 100 10 3.64699e-05
8 12 100 10 0.432829
9 12 100 10 0.527713
1 13 100 10 1.98354e-05
5 13 100 10 0.0434774
9 13 100 10 0.434775
10 13 100 10 0.521728
6 14 100 10 0.090909
7 14 100 10 2.84936e-06
10 14 100 10 0.909088
7 15 100 10 1
8 16 100 10 1
9 17 100 10 1
10 18 100 10 1
10 19 100 10 1
2 0 100 11 0.228133
3 0 100 11 0.167721
4 0 100 11 0.251678
5 0 100 11 8.27511e-05
6 0 100 11 0.0839714
7 0 100 11 0.0789482
8 0 100 11 0.00137308
9 0 100 11 0.0842041
10 0 100 11 0.103889
1 1 100 11 0.940001
2 1 100 11 0.02
4 1 100 11 0.02
8 1 100 11 0.0199989
2 2 100 11 0.978203
4 2 100 11 5.66919e-05
5 2 100 11 0.0217401
9 2 100 11 2.85119e-07
1 3 100 11 0.0555565
2 3 100 11 5.04827e-05
3 3 100 11 0.814809
4 3 100 11 0.0740274
6 3 100 11 0.0185189
7 3 100 11 0.0185189
10 3 100 11 0.0185189
2 4 100 11 0.00567764
3 4 100 11 0.0608808
4 4 100 11 0.771095
5 4 100 11 0.142053
11 4 100 11 0.0202936
4 5 100 11 0.0669939
5 5 100 11 0.776697
6 5 100 11 0.156309
2 6 100 11 0.00800202
5 6 100 11 0.139249
6 6 100 11 0.672275
7 6 100 11 0.180474
2 7 100 11 0.00553282
6 7 100 11 0.137862
7 7 100 11 0.608703
8 7 100 11 0.207297
9 7 100 11 0.0230663
10 7 100 11 0.0175391
6 8 100 11 0.0755563
7 8 100 11 0.151108
8 8 100 11 0.546746
9 8 100 11 0.201403
11 8 100 11 0.0251862
2 9 100 11 0.0110188
7 9 100 11 0.0820686
8 9 100 11 0.164121
9 9 100 11 0.49653
10 9 100 11 0.246262
3 10 100 11 0.0256308
6 10 100 11 0.0256308
7 10 100 11 0.0668965
8 10 100 11 0.0782144
9 10 100 11 0.18854
10 10 100 11 0.38441
11 10 100 11 0.230677
4 11 100 11 0.0294126
7 11 100 11 0.0294122
8 11 100 11 0.176435
9 11 100 11 0.0882393
10 11 100 11 0.264718
11 11 100 11 0.411783
5 12 100 11 0.0460157
8 12 100 11 0.103041
9 12 100 11 0.298755
10 12 100 11 0.138047
11 12 100 11 0.414141
6 13 100 11 0.0670879
9 13 100 11 0.272602
10 13 100 11 0.455552
11 13 100 11 0.204758
7 14 100 11 0.0833333
8 14 100 11 2.40563e-06
10 14 100 11 0.25
11 14 100 11 0.666664
7 15 100 11 6.68559e-06
8 15 100 11 0.245606
11 15 100 11 0.754387
9 16 100 11 1
10 17 100 11 1
11 18 100 11 1
11 19 100 11 1
1 0 100 12 0.000279118
2 0 100 12 0.257303
3 0 100 12 0.302847
4 0 100 12 0.00154038
5 0 100 12 0.129856
6 0 100 12 0.00011269
7 0 100 12 0.130322
8 0 100 12 0.000933837
9 0 100 12 0.17372
10 0 100 12 0.00302686
11 0 100 12 5.81654e-05
1 1 100 12 0.862731
2 1 100 12 0.0344621
3 1 100 12 0.0682642
4 1 100 12 0.0345422
2 2 100 12 0.825896
4 2 100 12 0.12053
5 2 100 12 0.0535738
2 3 100 12 0.0417931
3 3 100 12 0.7455
5 3 100 12 0.119656
6 3 100 12 0.093051
3 4 100 12 0.0727611
4 4 100 12 0.747316
6 4 100 12 0.124558
7 4 100 12 0.055359
9 4 100 12 6.16487e-06
1 5 100 12 1.39312e-06
4 5 100 12 0.109054
5 5 100 12 0.739188
7 5 100 12 0.110689
8 5 100 12 0.0410679
2 6 100 12 0.0519095
5 6 100 12 0.0558082
6 6 100 12 0.750982
8 6 100 12 0.0837159
9 6 100 12 0.0555646
11 6 100 12 0.00201985
3 7 100 12 0.0583282
6 7 100 12 0.0982806
7 7 100 12 0.714085
9 7 100 12 0.0862872
10 7 100 12 0.0430187
3 8 100 12 4.31314e-07
4 8 100 12 0.0567503
7 8 100 12 0.149369
8 8 100 12 0.623664
9 8 100 12 1.93969e-05
10 8 100 12 0.113455
11 8 100 12 0.0567425
1 9 100 12 0.0136319
2 9 100 12 0.0154924
5 9 100 12 0.0545274
6 9 100 12 1.34646e-05
8 9 100 12 0.228797
9 9 100 12 0.457768
10 9 100 12 0.0817917
11 9 100 12 0.134346
12 9 100 12 0.013632
2 10 100 12 0.00103117
5 10 100 12 5.36094e-06
6 10 100 12 0.0235611
7 10 100 12 2.88233e-05
8 10 100 12 7.35238e-06
9 10 100 12 0.316129
10 10 100 12 0.480755
11 10 100 12 0.0535448
12 10 100 12 0.124938
1 11 100 12 0.0550681
2 11 100 12 0.00607736
7 11 100 12 0.034903
8 11 100 12 0.0178712
10 11 100 12 0.364663
11 11 100 12 0.466714
12 11 100 12 0.0547031
3 12 100 12 0.012742
7 12 100 12 0.012616
8 12 100 12 0.0763937
9 12 100 12 0.0191074
11 12 100 12 0.363123
12 12 100 12 0.516018
4 13 100 12 0.0390905
7 13 100 12 2.59126e-06
8 13 100 12 0.056042
9 13 100 12 0.222461
10 13 100 12 0.0390906
11 13 100 12 0.0178641
12 13 100 12 0.625449
3 14 100 12 5.83823e-05
5 14 100 12 0.0728279
6 14 100 12 8.68841e-06
8 14 100 12 0.0731461
9 14 100 12 0.0528253
10 14 100 12 0.291322
11 14 100 12 0.0728308
12 14 100 12 0.43698
2 15 100 12 1.79866e-06
6 15 100 12 0.157797
9 15 100 12 0.227172
10 15 100 12 0.0929753
11 15 100 12 0.432421
12 15 100 12 0.0896324
3 16 100 12 2.18179e-06
7 16 100 12 0.0999144
9 16 100 12 0.000855588
10 16 100 12 0.299743
11 16 100 12 0.0999144
12 16 100 12 0.49957
6 17 100 12 2.12177e-06
8 17 100 12 0.119199
9 17 100 12 0.219113
10 17 100 12 0.184867
11 17 100 12 0.357615
12 17 100 12 0.119203
9 18 100 12 0.100966
10 18 100 12 0.214871
11 18 100 12 0.361856
12 18 100 12 0.322306
10 19 100 12 0.111111
11 19 100 12 0.222223
12 19 100 12 0.666666
9 20 100 12 3.44848e-06
11 20 100 12 0.332416
12 20 100 12 0.667581
12 21 100 12 1
1 0 100 13 0.000156794
2 0 100 13 0.0729974
3 0 100 13 0.293269
4 0 100 13 0.29496
5 0 100 13 0.0426821
6 0 100 13 0.000109347
7 0 100 13 9.5293e-05
8 0 100 13 0.000654998
9 0 100 13 5.76537e-05
10 0 100 13 0.000167245
11 0 100 13 0.221074
12 0 100 13 0.0737768
1 1 100 13 0.943395
2 1 100 13 0.0566053
1 2 100 13 0.0666675
2 2 100 13 0.822216
3 2 100 13 0.0888901
4 2 100 13 0.0222225
5 2 100 13 4.06072e-06
1 3 100 13 0.0407989
2 3 100 13 0.114436
3 3 100 13 0.742571
4 3 100 13 0.0204373
5 3 100 13 0.0817566
2 4 100 13 0.0884513
3 4 100 13 0.104051
4 4 100 13 0.729786
5 4 100 13 0.0260044
6 4 100 13 0.051708
1 5 100 13 0.0245108
3 5 100 13 0.0653685
4 5 100 13 0.176228
5 5 100 13 0.648049
6 5 100 13 0.0367891
7 5 100 13 0.0490545
1 6 100 13 2.30831e-06
2 6 100 13 0.0444898
4 6 100 13 0.0978549
5 6 100 13 0.195711
6 6 100 13 0.613014
8 6 100 13 0.0489273
4 7 100 13 0.0658695
5 7 100 13 0.0954201
6 7 100 13 0.249055
7 7 100 13 0.381671
9 7 100 13 0.0477087
11 7 100 13 0.0715617
12 7 100 13 0.0887134
1 8 100 13 0.0227212
5 8 100 13 0.0908859
6 8 100 13 0.0911653
7 8 100 13 0.408982
8 8 100 13 0.363522
10 8 100 13 0.0227212
12 8 100 13 3.38929e-06
2 9 100 13 0.0888974
3 9 100 13 0.0578131
6 9 100 13 0.0963529
7 9 100 13 0.0770842
8 9 100 13 0.346733
9 9 100 13 0.308335
10 9 100 13 0.0192699
11 9 100 13 0.00551426
3 10 100 13 0.0181945
4 10 100 13 0.107054
5 10 100 13 0.0535586
7 10 100 13 0.142814
8 10 100 13 0.0714114
9 10 100 13 0.303488
10 10 100 13 0.232068
11 10 100 13 0.0178529
12 10 100 13 0.0535585
2 11 100 13 0.00788177
4 11 100 13 0.0203665
5 11 100 13 0.0610992
6 11 100 13 0.0610996
8 11 100 13 0.162921
9 11 100 13 0.101832
10 11 100 13 0.346231
11 11 100 13 0.157102
12 11 100 13 0.0203665
13 11 100 13 0.0610996
3 12 100 13 0.0200018
5 12 100 13 0.0199633
6 12 100 13 0.0600055
7 12 100 13 0.0599979
9 12 100 13 0.160015
10 12 100 13 0.160009
11 12 100 13 0.360031
12 12 100 13 0.139974
13 12 100 13 0.0200018
2 13 100 13 0.000224699
4 13 100 13 0.0219425
5 13 100 13 4.22856e-05
6 13 100 13 0.0219425
7 13 100 13 0.0658276
8 13 100 13 0.0658276
10 13 100 13 0.175529
11 13 100 13 0.115877
12 13 100 13 0.401132
13 13 100 13 0.131655
1 14 100 13 0.000102701
2 14 100 13 0.00475022
5 14 100 13 0.0261882
7 14 100 13 0.0261867
8 14 100 13 0.0785645
9 14 100 13 0.0785645
11 14 100 13 0.209503
12 14 100 13 0.104753
13 14 100 13 0.471387
2 15 100 13 5.05978e-05
3 15 100 13 0.0383888
6 15 100 13 0.0503458
8 15 100 13 0.0517491
9 15 100 13 0.1545
10 15 100 13 0.152975
12 15 100 13 0.241487
13 15 100 13 0.310504
4 16 100 13 0.0338655
6 16 100 13 5.68567e-05
7 16 100 13 0.0352451
9 16 100 13 0.0665024
10 16 100 13 0.19931
11 16 100 13 0.199507
13 16 100 13 0.465513
3 17 100 13 4.65271e-07
5 17 100 13 0.0996801
8 17 100 13 0.0987808
10 17 100 13 0.100193
11 17 100 13 0.300578
12 17 100 13 0.300578
13 17 100 13 0.10019
2 18 100 13 1.1432e-07
4 18 100 13 5.98288e-07
6 18 100 13 0.110307
8 18 100 13 0.00708356
9 18 100 13 2.74536e-05
11 18 100 13 0.11105
12 18 100 13 0.440614
13 18 100 13 0.330917
7 19 100 13 0.123301
9 19 100 13 0.219134
13 19 100 13 0.657565
8 20 100 13 0.190595
10 20 100 13 0.190151
11 20 100 13 0.428658
12 20 100 13 0.190595
9 21 100 13 0.138856
11 21 100 13 0.138949
12 21 100 13 0.583249
13 21 100 13 0.138946
10 22 100 13 0.0788946
12 22 100 13 0.131587
13 22 100 13 0.789519
11 23 100 13 0.500001
13 23 100 13 0.499999
9 24 100 13 0.000674836
12 24 100 13 0.999325
13 25 100 13 1
2 0 100 14 0.0321628
3 0 100 14 0.032406
4 0 100 14 0.238336
5 0 100 14 0.15686
6 0 100 14 0.0973264
7 0 100 14 0.0673433
8 0 100 14 0.0323498
9 0 100 14 0.0969829
10 0 100 14 0.0573808
11 0 100 14 0.12876
12 0 100 14 0.06001
13 0 100 14 8.14778e-05
1 1 100 14 0.999912
2 1 100 14 3.6644e-05
4 1 100 14 5.09336e-05
2 2 100 14 0.949883
5 2 100 14 0.0501167
10 2 100 14 9.00382e-07
2 3 100 14 0.0382279
3 3 100 14 0.913279
6 3 100 14 0.0484872
9 3 100 14 6.04942e-06
2 4 100 14 0.0151492
3 4 100 14 0.0393458
4 4 100 14 0.883623
5 4 100 14 0.011105
7 4 100 14 0.0507772
2 5 100 14 0.058594
3 5 100 14 0.0113611
4 5 100 14 0.0568119
5 5 100 14 0.795093
6 5 100 14 0.031913
7 5 100 14 0.000788925
8 5 100 14 0.045438
2 6 100 14 0.000888613
3 6 100 14 0.0404619
4 6 100 14 0.0455302
5 6 100 14 0.0455316
6 6 100 14 0.709423
7 6 100 14 0.0669674
8 6 100 14 0.0341604
9 6 100 14 0.0569357
10 6 100 14 6.75983e-05
12 6 100 14 2.07948e-06
13 6 100 14 3.17523e-05
2 7 100 14 0.0447408
4 7 100 14 0.0495393
5 7 100 14 0.0123949
6 7 100 14 0.0930499
7 7 100 14 0.681653
8 7 100 14 0.0566687
9 7 100 14 0.0371631
10 7 100 14 0.0247898
2 8 100 14 0.0363993
3 8 100 14 0.0363993
5 8 100 14 0.0485324
6 8 100 14 0.0121265
7 8 100 14 0.0970646
8 8 100 14 0.660356
9 8 100 14 0.0363982
10 8 100 14 0.0484556
11 8 100 14 0.0242677
3 9 100 14 0.0345227
4 9 100 14 0.0345087
6 9 100 14 0.0460199
7 9 100 14 0.0781472
8 9 100 14 0.0920325
9 9 100 14 0.575253
10 9 100 14 0.0690354
11 9 100 14 0.0460183
12 9 100 14 0.0244621
5 10 100 14 0.0523318
6 10 100 14 0.00644973
7 10 100 14 0.0153616
8 10 100 14 0.0130843
9 10 100 14 0.10468
10 10 100 14 0.585488
11 10 100 14 0.0915925
12 10 100 14 0.0786957
13 10 100 14 0.0523165
3 11 100 14 0.0365667
4 11 100 14 2.24385e-06
5 11 100 14 0.00341997
6 11 100 14 0.0462642
7 11 100 14 0.0365757
8 11 100 14 0.0853427
9 11 100 14 0.0487706
10 11 100 14 0.100384
11 11 100 14 0.471903
12 11 100 14 0.0853428
13 11 100 14 0.0366601
14 11 100 14 0.0487676
6 12 100 14 0.0364258
7 12 100 14 0.0364223
8 12 100 14 0.0364258
9 12 100 14 0.084988
10 12 100 14 0.0849987
11 12 100 14 0.113681
12 12 100 14 0.437099
13 12 100 14 0.133534
14 12 100 14 0.0364258
6 13 100 14 0.00102823
7 13 100 14 0.0446079
8 13 100 14 0.0446116
9 13 100 14 0.044592
10 13 100 14 0.10407
11 13 100 14 0.123415
12 13 100 14 0.0743503
13 13 100 14 0.399749
14 13 100 14 0.163576
6 14 100 14 0.0174675
7 14 100 14 0.0174744
8 14 100 14 0.0524232
9 14 100 14 0.052431
10 14 100 14 0.0565605
11 14 100 14 0.130401
12 14 100 14 0.227163
13 14 100 14 0.114066
14 14 100 14 0.332014
7 15 100 14 8.6894e-07
8 15 100 14 0.0263177
9 15 100 14 0.0788801
10 15 100 14 0.0789509
11 15 100 14 0.0789583
12 15 100 14 0.184223
13 15 100 14 0.342127
14 15 100 14 0.210541
3 16 100 14 2.05426e-06
5 16 100 14 0.000424912
6 16 100 14 2.74918e-06
7 16 100 14 2.30148e-06
9 16 100 14 0.141137
10 16 100 14 0.0978885
11 16 100 14 0.110145
12 16 100 14 0.0979267
13 16 100 14 0.226061
14 16 100 14 0.326411
1 17 100 14 0.0675386
2 17 100 14 1.81393e-07
10 17 100 14 0.114395
11 17 100 14 0.114206
12 17 100 14 0.152088
13 17 100 14 0.133533
14 17 100 14 0.418239
2 18 100 14 0.130392
6 18 100 14 2.06893e-06
10 18 100 14 8.94158e-05
11 18 100 14 0.219757
12 18 100 14 0.286744
13 18 100 14 0.363015
2 19 100 14 6.76059e-06
5 19 100 14 9.13994e-07
9 19 100 14 1.97239e-06
10 19 100 14 7.10441e-05
12 19 100 14 0.301103
13 19 100 14 0.384032
14 19 100 14 0.314784
5 20 100 14 1.87094e-07
10 20 100 14 5.62032e-05
13 20 100 14 0.130669
14 20 100 14 0.869274
3 21 100 14 7.09165e-06
6 21 100 14 0.126394
9 21 100 14 0.276779
10 21 100 14 2.05174e-05
12 21 100 14 0.0418254
13 21 100 14 0.041947
14 21 100 14 0.513027
11 22 100 14 1
13 23 100 14 0.741135
14 23 100 14 0.258865
14 24 100 14 1
14 28 100 14 1
2 0 100 15 0.0398293
3 0 100 15 0.000433907
4 0 100 15 0.0477035
5 0 100 15 0.183785
6 0 100 15 0.000350982
7 0 100 15 0.039983
8 0 100 15 0.119831
9 0 100 15 0.112898
10 0 100 15 0.109776
11 0 100 15 0.123957
12 0 100 15 0.0400716
13 0 100 15 0.180493
14 0 100 15 0.000888563
1 1 100 15 0.978399
2 1 100 15 0.0216011
1 2 100 15 0.0145276
2 2 100 15 0.942934
3 2 100 15 0.0317672
10 2 100 15 1.22196e-05
13 2 100 15 0.000164273
14 2 100 15 0.0105944
1 3 100 15 0.0164488
2 3 100 15 0.051954
3 3 100 15 0.890174
4 3 100 15 0.0396297
8 3 100 15 9.95842e-07
13 3 100 15 0.00179257
1 4 100 15 0.0255592
2 4 100 15 0.0317245
3 4 100 15 0.0848958
4 4 100 15 0.846473
5 4 100 15 0.00962221
11 4 100 15 1.37835e-06
13 4 100 15 0.00172429
1 5 100 15 0.00971079
2 5 100 15 0.0485533
3 5 100 15 0.0319742
4 5 100 15 0.0873868
5 5 100 15 0.74469
6 5 100 15 0.0387876
7 5 100 15 0.0097108
8 5 100 15 0.0291423
10 5 100 15 4.3901e-05
2 6 100 15 0.021832
3 6 100 15 0.021832
4 6 100 15 0.0430557
5 6 100 15 0.0523068
6 6 100 15 0.766602
7 6 100 15 0.0488239
8 6 100 15 0.010916
9 6 100 15 0.0346315
2 7 100 15 1.02573e-07
3 7 100 15 0.0312216
4 7 100 15 0.0194653
5 7 100 15 0.0973265
6 7 100 15 0.0778506
7 7 100 15 0.657435
8 7 100 15 0.0486375
9 7 100 15 0.00966775
10 7 100 15 0.0583943
13 7 100 15 8.59413e-07
2 8 100 15 0.00740781
3 8 100 15 0.00979557
4 8 100 15 0.0489797
5 8 100 15 0.0195919
6 8 100 15 0.0881757
7 8 100 15 0.0829819
8 8 100 15 0.615828
9 8 100 15 0.0882572
10 8 100 15 0.00970102
11 8 100 15 0.0291865
12 8 100 15 9.51942e-05
4 9 100 15 1.0867e-07
5 9 100 15 0.048173
6 9 100 15 0.0932503
7 9 100 15 0.0674404
8 9 100 15 0.0590647
9 9 100 15 0.578025
10 9 100 15 0.115509
11 9 100 15 0.0096346
12 9 100 15 0.0289038
6 10 100 15 0.04031
7 10 100 15 0.111438
8 10 100 15 0.059187
9 10 100 15 0.0789089
10 10 100 15 0.522913
11 10 100 15 0.147878
12 10 100 15 0.00976927
13 10 100 15 0.0295963
3 11 100 15 0.0168975
5 11 100 15 0.00942947
7 11 100 15 0.0377153
8 11 100 15 0.113148
9 11 100 15 0.0565731
10 11 100 15 0.0754361
11 11 100 15 0.424033
12 11 100 15 0.188589
13 11 100 15 0.0123809
14 11 100 15 0.0657974
4 12 100 15 0.0287925
6 12 100 15 4.34099e-05
7 12 100 15 0.00199052
8 12 100 15 0.0479866
9 12 100 15 0.086369
10 12 100 15 0.0671392
11 12 100 15 0.134297
12 12 100 15 0.393452
13 12 100 15 0.16315
14 12 100 15 0.00959747
15 12 100 15 0.0671826
5 13 100 15 0.0314512
8 13 100 15 0.0104829
9 13 100 15 0.0524127
10 13 100 15 0.0943532
11 13 100 15 0.083434
12 13 100 15 0.157259
13 13 100 15 0.423835
14 13 100 15 0.136288
15 13 100 15 0.0104837
6 14 100 15 0.0328051
9 14 100 15 0.0109351
10 14 100 15 0.0546737
11 14 100 15 0.0984134
12 14 100 15 0.0874804
13 14 100 15 0.153079
14 14 100 15 0.409523
15 14 100 15 0.153091
7 15 100 15 0.0434372
10 15 100 15 0.0182063
11 15 100 15 0.07949
12 15 100 15 0.0785157
13 15 100 15 0.115824
14 15 100 15 0.201197
15 15 100 15 0.46333
8 16 100 15 0.0692463
11 16 100 15 0.0348452
12 16 100 15 0.184666
13 16 100 15 0.134157
14 16 100 15 0.253918
15 16 100 15 0.323168
1 17 100 15 8.71629e-05
4 17 100 15 7.56689e-07
8 17 100 15 0.000279036
9 17 100 15 0.133096
12 17 100 15 0.0443652
13 17 100 15 0.311488
14 17 100 15 0.333223
15 17 100 15 0.17746
4 18 100 15 2.21276e-06
9 18 100 15 1.03068e-07
10 18 100 15 0.132527
11 18 100 15 0.0102247
12 18 100 15 0.000358742
13 18 100 15 0.0441759
14 18 100 15 0.325056
15 18 100 15 0.487655
3 19 100 15 0.000122873
7 19 100 15 1.54347e-06
11 19 100 15 0.189378
12 19 100 15 0.0620187
14 19 100 15 0.117217
15 19 100 15 0.631262
3 20 100 15 2.65209e-06
5 20 100 15 9.3377e-07
12 20 100 15 0.478011
13 20 100 15 0.168502
15 20 100 15 0.353483
13 21 100 15 0.743393
14 21 100 15 0.256607
7 22 100 15 1.3215e-06
10 22 100 15 4.86964e-05
14 22 100 15 0.743631
15 22 100 15 0.256319
15 23 100 15 1
12 24 100 15 0.435102
13 24 100 15 0.551579
14 24 100 15 0.0133191
11 25 100 15 2.76363e-06
15 25 100 15 0.999997
1 26 100 15 6.53865e-06
12 26 100 15 0.916253
13 26 100 15 0.0837406
1 27 100 15 2.53282e-05
13 27 100 15 0.513499
14 27 100 15 0.486476
15 28 100 15 1
1 29 100 15 0.00442106
13 29 100 15 7.23994e-05
14 29 100 15 0.995507
13 30 100 15 9.92609e-06
15 30 100 15 0.99999
1 0 100 16 0.103462
2 0 100 16 0.000123634
3 0 100 16 0.0104845
4 0 100 16 0.2461
5 0 100 16 0.0352749
6 0 100 16 0.0104564
7 0 100 16 0.0354196
8 0 100 16 0.0422598
9 0 100 16 0.246027
10 0 100 16 0.13436
11 0 100 16 0.134053
12 0 100 16 0.000190482
13 0 100 16 0.00156023
14 0 100 16 0.000213294
15 0 100 16 1.48838e-05
1 1 100 16 0.893273
2 1 100 16 0.0380156
5 1 100 16 0.0687114
1 2 100 16 0.0362456
2 2 100 16 0.820399
3 2 100 16 0.0698224
6 2 100 16 0.0724943
10 2 100 16 0.00103882
1 3 100 16 0.012775
2 3 100 16 0.0383364
3 3 100 16 0.747041
4 3 100 16 0.0766501
6 3 100 16 0.0127756
7 3 100 16 0.0766501
8 3 100 16 0.035731
10 3 100 16 3.28292e-07
11 3 100 16 4.00412e-05
1 4 100 16 0.0404212
2 4 100 16 0.0643817
3 4 100 16 0.087221
4 4 100 16 0.673224
5 4 100 16 0.0808509
8 4 100 16 0.0404261
9 4 100 16 0.0134754
2 5 100 16 0.0698543
3 5 100 16 0.0931519
4 5 100 16 0.106129
5 5 100 16 0.547113
6 5 100 16 0.102255
7 5 100 16 0.0349276
9 5 100 16 0.0349276
10 5 100 16 0.0116422
3 6 100 16 0.0731048
4 6 100 16 0.146209
5 6 100 16 0.0852889
6 6 100 16 0.535143
7 6 100 16 0.0730869
8 6 100 16 0.0365524
10 6 100 16 0.036545
11 6 100 16 0.0140703
4 7 100 16 0.0379747
5 7 100 16 0.113917
6 7 100 16 0.0886113
7 7 100 16 0.544309
8 7 100 16 0.126577
9 7 100 16 0.0379763
11 7 100 16 0.0379763
12 7 100 16 0.0126587
1 8 100 16 0.000626175
2 8 100 16 0.038455
3 8 100 16 0.0380965
5 8 100 16 0.038455
6 8 100 16 0.0768941
7 8 100 16 0.089642
8 8 100 16 0.499919
9 8 100 16 0.115365
10 8 100 16 0.0512734
12 8 100 16 0.038455
13 8 100 16 0.0128183
4 9 100 16 0.000319408
5 9 100 16 0.0769641
6 9 100 16 0.0769289
7 9 100 16 0.0769278
8 9 100 16 0.089744
9 9 100 16 0.461416
10 9 100 16 0.153802
11 9 100 16 0.0131242
13 9 100 16 0.0379537
14 9 100 16 0.0128193
6 10 100 16 0.0434869
7 10 100 16 0.101497
8 10 100 16 0.0869963
9 10 100 16 0.0580109
10 10 100 16 0.362419
11 10 100 16 0.217125
12 10 100 16 0.0724666
14 10 100 16 0.0434984
15 10 100 16 0.0144997
7 11 100 16 0.0387001
8 11 100 16 0.0903003
9 11 100 16 0.097262
10 11 100 16 0.141899
11 11 100 16 0.322484
12 11 100 16 0.193235
13 11 100 16 0.0645002
14 11 100 16 1.93133e-05
15 11 100 16 0.0387001
16 11 100 16 0.0129
4 12 100 16 0.0128303
8 12 100 16 0.043529
9 12 100 16 0.101568
10 12 100 16 0.0870523
11 12 100 16 0.159968
12 12 100 16 0.31921
13 12 100 16 0.174274
14 12 100 16 0.0580375
16 12 100 16 0.0435308
5 13 100 16 0.0471051
9 13 100 16 0.0471051
10 13 100 16 0.157012
11 13 100 16 0.0942095
12 13 100 16 0.220122
13 13 100 16 0.230324
14 13 100 16 0.141315
15 13 100 16 0.0628068
6 14 100 16 0.0414853
10 14 100 16 0.0414978
11 14 100 16 0.138277
12 14 100 16 0.0829697
13 14 100 16 0.294779
14 14 100 16 0.221222
15 14 100 16 0.124456
16 14 100 16 0.0553138
7 15 100 16 0.042398
11 15 100 16 0.0423951
12 15 100 16 0.141324
13 15 100 16 0.123808
14 15 100 16 0.339159
15 15 100 16 0.22612
16 15 100 16 0.084796
8 16 100 16 0.0463623
9 16 100 16 0.0225653
12 16 100 16 0.0463685
13 16 100 16 0.158264
14 16 100 16 0.123649
15 16 100 16 0.355492
16 16 100 16 0.247299
9 17 100 16 0.0624872
10 17 100 16 0.062497
13 17 100 16 0.0625018
14 17 100 16 0.229164
15 17 100 16 0.187505
16 17 100 16 0.395844
1 18 100 16 4.7934e-06
6 18 100 16 0.0944138
9 18 100 16 7.48188e-07
10 18 100 16 0.0944142
11 18 100 16 0.0944138
14 18 100 16 0.0873299
15 18 100 16 0.346184
16 18 100 16 0.283239
2 19 100 16 2.5519e-07
7 19 100 16 0.176172
10 19 100 16 0.00169275
11 19 100 16 0.176172
12 19 100 16 0.176172
15 19 100 16 0.176172
16 19 100 16 0.293617
8 20 100 16 0.181872
12 20 100 16 0.160955
13 20 100 16 0.11153
14 20 100 16 4.15944e-05
16 20 100 16 0.545602
2 21 100 16 6.0251e-06
9 21 100 16 0.302749
13 21 100 16 0.348622
14 21 100 16 0.348622
7 22 100 16 0.0529233
10 22 100 16 0.315692
14 22 100 16 0.315692
15 22 100 16 0.315692
10 23 100 16 2.04807e-06
11 23 100 16 0.336295
14 23 100 16 0.000634748
15 23 100 16 0.326776
16 23 100 16 0.336292
12 24 100 16 0.499856
14 24 100 16 4.31217e-05
15 24 100 16 0.000247018
16 24 100 16 0.499854
9 25 100 16 1.71937e-07
13 25 100 16 0.416833
16 25 100 16 0.583167
14 26 100 16 1
14 27 100 16 0.00246051
15 27 100 16 0.997539
16 28 100 16 1
16 32 100 16 1
1 0 100 17 5.92207e-06
2 0 100 17 8.4682e-05
3 0 100 17 0.000202307
4 0 100 17 0.139119
5 0 100 17 0.15646
6 0 100 17 0.0149047
7 0 100 17 0.139096
8 0 100 17 0.0700457
9 0 100 17 0.122643
10 0 100 17 0.0443267
11 0 100 17 0.00028939
12 0 100 17 0.000990734
13 0 100 17 0.104828
14 0 100 17 0.105119
15 0 100 17 0.101885
1 1 100 17 0.949442
2 1 100 17 0.0249434
3 1 100 17 0.0124937
13 1 100 17 0.00087712
14 1 100 17 0.0122436
1 2 100 17 0.0861301
2 2 100 17 0.889008
4 2 100 17 0.0124308
15 2 100 17 0.0124306
2 3 100 17 0.0843425
3 3 100 17 0.835339
5 3 100 17 0.0130066
6 3 100 17 0.0520259
7 3 100 17 0.00227934
9 3 100 17 1.98789e-07
16 3 100 17 0.0130066
2 4 100 17 0.0259253
3 4 100 17 0.191465
4 4 100 17 0.71294
6 4 100 17 0.00744033
7 4 100 17 0.0106916
8 4 100 17 0.03889
12 4 100 17 0.0126478
1 5 100 17 0.00103351
3 5 100 17 0.0133327
4 5 100 17 0.173323
5 5 100 17 0.726593
7 5 100 17 0.0133325
9 5 100 17 0.0599884
13 5 100 17 0.0123966
2 6 100 17 0.0129857
3 6 100 17 0.0129859
4 6 100 17 0.0649206
5 6 100 17 0.181799
6 6 100 17 0.649275
8 6 100 17 0.0131043
10 6 100 17 0.0649296
4 7 100 17 0.047635
5 7 100 17 0.0476372
6 7 100 17 0.226264
7 7 100 17 0.571458
8 7 100 17 0.0474585
9 7 100 17 0.0119093
11 7 100 17 0.0476371
12 7 100 17 7.4332e-07
3 8 100 17 0.0116661
4 8 100 17 6.82033e-07
5 8 100 17 0.0466643
6 8 100 17 0.0466643
7 8 100 17 0.221622
8 8 100 17 0.501562
9 8 100 17 0.0466602
10 8 100 17 0.0434924
11 8 100 17 4.09913e-06
12 8 100 17 0.0816617
15 8 100 17 2.64594e-06
4 9 100 17 0.0119109
6 9 100 17 0.0476419
7 9 100 17 0.0476434
8 9 100 17 0.214364
9 9 100 17 0.476142
10 9 100 17 0.0476291
11 9 100 17 0.0595448
13 9 100 17 0.0833756
15 9 100 17 0.011748
4 10 100 17 2.74371e-06
5 10 100 17 0.0128872
7 10 100 17 0.0561487
8 10 100 17 0.0555513
9 10 100 17 0.206164
10 10 100 17 0.488834
11 10 100 17 0.0515484
12 10 100 17 0.0257744
14 10 100 17 0.0902021
16 10 100 17 0.0128872
6 11 100 17 0.0140778
8 11 100 17 0.0563064
9 11 100 17 0.0703627
10 11 100 17 0.198051
11 11 100 17 0.491074
12 11 100 17 1.25192e-05
13 11 100 17 0.0281556
15 11 100 17 0.0997262
16 11 100 17 0.0422335
7 12 100 17 0.0132861
9 12 100 17 0.0529028
10 12 100 17 0.066112
11 12 100 17 0.192934
12 12 100 17 0.502535
13 12 100 17 0.0130718
14 12 100 17 0.0269011
16 12 100 17 0.0925798
17 12 100 17 0.0396771
8 13 100 17 0.0147829
10 13 100 17 0.0591313
11 13 100 17 0.0968958
12 13 100 17 0.1645
13 13 100 17 0.502585
14 13 100 17 0.029059
15 13 100 17 0.0295657
17 13 100 17 0.10348
9 14 100 17 0.0169877
11 14 100 17 0.0807874
12 14 100 17 0.150693
13 14 100 17 0.186823
14 14 100 17 0.526594
15 14 100 17 0.00413948
16 14 100 17 0.0339753
9 15 100 17 0.0170542
10 15 100 17 0.017049
11 15 100 17 0.00775982
12 15 100 17 0.0454538
13 15 100 17 0.170538
14 15 100 17 0.187578
15 15 100 17 0.503404
16 15 100 17 0.0341084
17 15 100 17 0.0170542
10 16 100 17 0.0668031
11 16 100 17 0.0167051
12 16 100 17 1.61637e-05
13 16 100 17 0.0167051
14 16 100 17 0.195179
15 16 100 17 0.196054
16 16 100 17 0.458423
17 16 100 17 0.0501153
11 17 100 17 0.0689672
12 17 100 17 0.0517087
14 17 100 17 0.0172406
15 17 100 17 0.189654
16 17 100 17 0.18966
17 17 100 17 0.48277
7 18 100 17 0.0212589
8 18 100 17 0.0036338
12 18 100 17 0.130013
13 18 100 17 0.0975123
15 18 100 17 0.0324929
16 18 100 17 0.357544
17 18 100 17 0.357545
3 19 100 17 3.16105e-06
13 19 100 17 0.187653
14 19 100 17 0.227121
15 19 100 17 1.15279e-06
16 19 100 17 0.0644724
17 19 100 17 0.52075
2 20 100 17 1.13231e-07
3 20 100 17 1.91624e-06
7 20 100 17 2.16592e-06
10 20 100 17 0.00600638
11 20 100 17 0.0169612
14 20 100 17 0.294954
15 20 100 17 0.584636
17 20 100 17 0.0974381
11 21 100 17 0.0223192
15 21 100 17 0.352001
16 21 100 17 0.625679
8 22 100 17 0.22017
16 22 100 17 0.294085
17 22 100 17 0.485745
3 23 100 17 5.57214e-07
9 23 100 17 0.426983
10 23 100 17 5.89394e-07
11 23 100 17 0.000174809
12 23 100 17 0.000162067
17 23 100 17 0.572679
10 24 100 17 0.957922
11 24 100 17 0.0420784
3 25 100 17 1.2983e-06
11 25 100 17 0.514956
12 25 100 17 0.485043
4 26 100 17 1.63601e-06
12 26 100 17 0.133436
13 26 100 17 0.649943
17 26 100 17 0.216619
12 27 100 17 1.34751e-06
14 27 100 17 0.999999
15 28 100 17 0.940724
16 28 100 17 0.0592756
2 29 100 17 1.81144e-06
11 29 100 17 7.24473e-05
16 29 100 17 0.749946
17 29 100 17 0.24998
12 30 100 17 0.439916
17 30 100 17 0.560084
13 31 100 17 1
14 32 100 17 1
15 33 100 17 1
16 34 100 17 1
14 35 100 17 1
16 36 100 17 1
17 37 100 17 1
2 0 100 18 0.00856545
3 0 100 18 0.210924
4 0 100 18 0.0266039
5 0 100 18 0.000398349
6 0 100 18 0.0337726
7 0 100 18 0.134767
8 0 100 18 0.0017258
9 0 100 18 0.000292799
10 0 100 18 0.0338278
11 0 100 18 0.0364709
12 0 100 18 0.101408
13 0 100 18 0.000424708
14 0 100 18 0.193394
15 0 100 18 0.209249
16 0 100 18 0.00774368
17 0 100 18 0.000431826
1 1 100 18 0.893277
2 1 100 18 0.0357267
4 1 100 18 0.0352026
5 1 100 18 0.0357282
11 1 100 18 6.53626e-05
1 2 100 18 0.035396
2 2 100 18 0.823287
3 2 100 18 0.0232669
4 2 100 18 0.0354151
5 2 100 18 0.0354148
6 2 100 18 0.0354147
12 2 100 18 0.011805
2 3 100 18 0.0130609
3 3 100 18 0.779156
4 3 100 18 0.0779344
5 3 100 18 0.0389614
6 3 100 18 0.0389614
7 3 100 18 0.0389614
14 3 100 18 0.012965
1 4 100 18 0.0805747
3 4 100 18 0.0671942
4 4 100 18 0.677648
5 4 100 18 0.0402884
6 4 100 18 0.0402885
7 4 100 18 0.0402885
8 4 100 18 0.0402885
15 4 100 18 0.0134295
2 5 100 18 0.0650065
3 5 100 18 0.0356318
4 5 100 18 0.0260392
5 5 100 18 0.66502
6 5 100 18 0.0781083
7 5 100 18 0.0390593
8 5 100 18 0.0390593
9 5 100 18 0.0390573
16 5 100 18 0.0130187
2 6 100 18 0.0324256
4 6 100 18 0.103064
5 6 100 18 0.0324085
6 6 100 18 0.529565
7 6 100 18 0.0648516
8 6 100 18 0.0971949
9 6 100 18 0.0324258
10 6 100 18 0.0648516
12 6 100 18 0.0324016
15 6 100 18 1.95416e-06
17 6 100 18 0.0108086
2 7 100 18 0.0123904
3 7 100 18 0.0468091
5 7 100 18 0.116207
6 7 100 18 0.0232423
7 7 100 18 0.51129
8 7 100 18 0.0809399
9 7 100 18 0.104534
10 7 100 18 0.0348592
11 7 100 18 0.0348635
13 7 100 18 0.0348633
14 7 100 18 1.18534e-06
4 8 100 18 0.0663499
5 8 100 18 0.0378542
6 8 100 18 0.126176
7 8 100 18 1.50399e-07
8 8 100 18 0.517291
9 8 100 18 0.0883248
10 8 100 18 0.0378542
11 8 100 18 0.0756734
12 8 100 18 0.037851
13 8 100 18 0.012618
14 8 100 18 6.80455e-06
1 9 100 18 0.0132479
5 9 100 18 0.0519029
6 9 100 18 0.0399079
7 9 100 18 0.106344
9 9 100 18 0.505663
10 9 100 18 0.11122
11 9 100 18 0.0521136
12 9 100 18 0.079724
13 9 100 18 0.0398764
2 10 100 18 0.0138603
3 10 100 18 0.0554412
6 10 100 18 0.0415809
7 10 100 18 0.0831619
8 10 100 18 0.0970141
9 10 100 18 0.00121964
10 10 100 18 0.485103
11 10 100 18 0.0831599
12 10 100 18 0.0554228
13 10 100 18 0.0415809
14 10 100 18 0.0424556
3 11 100 18 0.0130721
4 11 100 18 0.0522868
7 11 100 18 0.0392195
8 11 100 18 0.0392195
9 11 100 18 0.129012
10 11 100 18 0.06053
11 11 100 18 0.41827
12 11 100 18 0.078439
13 11 100 18 0.0915118
14 11 100 18 0.0392195
15 11 100 18 0.0392195
4 12 100 18 0.0131614
5 12 100 18 0.0526364
8 12 100 18 0.0394843
9 12 100 18 0.0394843
10 12 100 18 0.131614
11 12 100 18 0.0789686
12 12 100 18 0.355326
13 12 100 18 0.118336
14 12 100 18 0.0921301
15 12 100 18 0.0394738
16 12 100 18 0.0393843
1 13 100 18 0.0389643
2 13 100 18 0.0122178
5 13 100 18 0.0129881
6 13 100 18 0.0519523
8 13 100 18 0.0129877
10 13 100 18 0.0389643
11 13 100 18 0.129876
12 13 100 18 0.0976083
13 13 100 18 0.311702
14 13 100 18 0.116867
15 13 100 18 0.126682
16 13 100 18 0.0491486
17 13 100 18 4.10222e-05
2 14 100 18 0.0405561
6 14 100 18 0.0135187
7 14 100 18 0.0540749
9 14 100 18 0.0135187
11 14 100 18 0.0811072
12 14 100 18 0.0946311
13 14 100 18 0.0946311
14 14 100 18 0.310562
15 14 100 18 0.12166
16 14 100 18 0.135185
17 14 100 18 0.0405562
3 15 100 18 0.0345015
7 15 100 18 0.0459964
8 15 100 18 0.0804805
9 15 100 18 0.0345
10 15 100 18 0.0115005
12 15 100 18 0.069001
13 15 100 18 0.114999
14 15 100 18 0.0920024
15 15 100 18 0.229978
16 15 100 18 0.137533
17 15 100 18 0.115005
18 15 100 18 0.0345015
4 16 100 18 0.00851933
8 16 100 18 0.0485826
9 16 100 18 0.0850625
10 16 100 18 0.0364554
12 16 100 18 0.00588843
13 16 100 18 0.0728895
14 16 100 18 0.121518
15 16 100 18 0.0976729
16 16 100 18 0.267782
17 16 100 18 0.134112
18 16 100 18 0.121518
4 17 100 18 0.0325999
9 17 100 18 0.0567221
10 17 100 18 0.0567253
11 17 100 18 0.0567211
13 17 100 18 0.0141813
14 17 100 18 0.045694
15 17 100 18 0.141793
16 17 100 18 0.113445
17 17 100 18 0.340305
18 17 100 18 0.141813
10 18 100 18 0.0974554
11 18 100 18 0.064982
12 18 100 18 0.0649648
13 18 100 18 0.0162455
14 18 100 18 0.0162452
15 18 100 18 0.048725
16 18 100 18 0.162437
17 18 100 18 0.122808
18 18 100 18 0.406137
11 19 100 18 0.171987
12 19 100 18 0.114641
13 19 100 18 0.085995
14 19 100 18 0.028665
15 19 100 18 0.028665
16 19 100 18 0.0859945
17 19 100 18 0.283398
18 19 100 18 0.200655
6 20 100 18 1.57995e-07
7 20 100 18 4.86923e-07
8 20 100 18 3.19546e-06
12 20 100 18 0.215543
13 20 100 18 0.151722
14 20 100 18 0.121886
15 20 100 18 0.0467927
16 20 100 18 0.0382586
17 20 100 18 0.119716
18 20 100 18 0.306077
5 21 100 18 1.36126e-05
6 21 100 18 1.09974e-07
8 21 100 18 4.55055e-06
9 21 100 18 0.000550861
13 21 100 18 0.341697
14 21 100 18 0.227798
15 21 100 18 0.131649
16 21 100 18 0.056949
17 21 100 18 0.070492
18 21 100 18 0.170846
2 22 100 18 4.04458e-05
4 22 100 18 1.41458e-05
5 22 100 18 4.64837e-05
9 22 100 18 0.000984534
14 22 100 18 0.367448
15 22 100 18 0.245608
16 22 100 18 0.1842
17 22 100 18 0.154114
18 22 100 18 0.0475432
1 23 100 18 1.51959e-06
2 23 100 18 5.90808e-05
6 23 100 18 1.51713e-06
15 23 100 18 0.386354
16 23 100 18 0.266048
17 23 100 18 0.199537
18 23 100 18 0.147999
2 24 100 18 0.000129147
15 24 100 18 0.0162873
16 24 100 18 0.376915
17 24 100 18 0.346669
18 24 100 18 0.259999
2 25 100 18 2.02444e-05
3 25 100 18 2.32595e-06
8 25 100 18 8.36696e-07
16 25 100 18 0.190841
17 25 100 18 0.346773
18 25 100 18 0.462362
2 26 100 18 4.11589e-05
17 26 100 18 0.499981
18 26 100 18 0.499978
3 27 100 18 0.000259712
18 27 100 18 0.99974
4 28 100 18 0.278339
9 28 100 18 0.721571
17 28 100 18 8.97943e-05
5 29 100 18 0.999991
17 29 100 18 8.95449e-06
5 30 100 18 8.00196e-05
6 30 100 18 0.0376839
18 30 100 18 0.962236
11 31 100 18 1
18 34 100 18 1
2 0 100 19 0.0259315
3 0 100 19 0.180641
4 0 100 19 0.000773269
5 0 100 19 0.0772159
6 0 100 19 0.0258631
7 0 100 19 0.00147546
8 0 100 19 0.0269151
9 0 100 19 0.0777614
10 0 100 19 0.0780146
11 0 100 19 6.79074e-05
12 0 100 19 0.0788232
13 0 100 19 0.0778785
14 0 100 19 0.180203
15 0 100 19 0.105951
16 0 100 19 0.0272743
17 0 100 19 0.0349779
18 0 100 19 0.000233999
1 1 100 19 1
2 2 100 19 0.962742
3 2 100 19 0.0124195
5 2 100 19 0.0124167
13 2 100 19 6.78848e-06
18 2 100 19 0.0124151
2 3 100 19 0.0916585
3 3 100 19 0.832431
4 3 100 19 0.0252287
6 3 100 19 0.0504571
9 3 100 19 0.000213146
16 3 100 19 1.14209e-05
1 4 100 19 0.0340088
2 4 100 19 0.0476969
3 4 100 19 0.0456046
4 4 100 19 0.747991
5 4 100 19 0.0226725
7 4 100 19 0.0453445
8 4 100 19 0.0113363
13 4 100 19 0.0340088
15 4 100 19 0.0113363
1 5 100 19 0.011238
2 5 100 19 1.65227e-06
3 5 100 19 0.0674086
4 5 100 19 0.0785343
5 5 100 19 0.730436
6 5 100 19 0.0224745
8 5 100 19 0.0337198
9 5 100 19 0.0112341
15 5 100 19 0.0337147
17 5 100 19 0.0112379
2 6 100 19 0.0467872
3 6 100 19 0.0350904
4 6 100 19 0.0350881
5 6 100 19 0.0818776
6 6 100 19 0.672497
7 6 100 19 0.035088
9 6 100 19 0.046785
10 6 100 19 0.0116968
16 6 100 19 0.0350904
1 7 100 19 0.0123458
3 7 100 19 0.0494026
4 7 100 19 0.0370373
5 7 100 19 0.0370373
6 7 100 19 0.160494
7 7 100 19 0.58023
8 7 100 19 0.0370373
10 7 100 19 0.0370373
11 7 100 19 0.0123458
14 7 100 19 2.71834e-06
17 7 100 19 0.0370298
2 8 100 19 0.0446286
3 8 100 19 2.38271e-06
4 8 100 19 0.0781076
5 8 100 19 0.0334746
6 8 100 19 0.0334746
7 8 100 19 0.164338
8 8 100 19 0.534488
9 8 100 19 0.0334737
11 8 100 19 0.0334747
12 8 100 19 0.0111582
18 8 100 19 0.0333798
3 9 100 19 0.048784
5 9 100 19 0.0975668
6 9 100 19 0.0365876
7 9 100 19 0.0731727
8 9 100 19 0.0857924
9 9 100 19 0.57275
10 9 100 19 0.036587
12 9 100 19 0.0365604
13 9 100 19 0.0121985
16 9 100 19 6.39265e-07
2 10 100 19 0.0105039
4 10 100 19 0.0735242
6 10 100 19 0.0840307
7 10 100 19 0.0763687
8 10 100 19 0.0840232
9 10 100 19 0.114724
10 10 100 19 0.462291
11 10 100 19 0.0630229
13 10 100 19 0.0315115
2 11 100 19 6.2287e-07
3 11 100 19 0.0108215
5 11 100 19 0.0433161
6 11 100 19 1.20912e-05
7 11 100 19 0.081803
8 11 100 19 0.064949
9 11 100 19 0.0541137
10 11 100 19 0.173028
11 11 100 19 0.443829
12 11 100 19 0.0324732
13 11 100 19 0.0324755
14 11 100 19 4.89703e-07
15 11 100 19 0.0312223
16 11 100 19 0.0318955
17 11 100 19 6.01798e-05
4 12 100 19 0.0111811
6 12 100 19 0.05031
7 12 100 19 0.0111811
8 12 100 19 0.0447231
9 12 100 19 0.0670806
10 12 100 19 0.0558972
11 12 100 19 0.178876
12 12 100 19 0.424199
13 12 100 19 0.0670867
14 12 100 19 0.0447239
16 12 100 19 0.0447258
17 12 100 19 1.49654e-05
3 13 100 19 0.0324874
7 13 100 19 0.0590471
8 13 100 19 0.0659758
9 13 100 19 0.044698
10 13 100 19 0.0764514
11 13 100 19 0.054807
12 13 100 19 0.173556
13 13 100 19 0.350477
14 13 100 19 0.0657679
16 13 100 19 0.0328864
17 13 100 19 0.0438459
4 14 100 19 0.0334091
8 14 100 19 0.0669224
9 14 100 19 0.066818
10 14 100 19 0.0556805
11 14 100 19 0.0668172
12 14 100 19 0.0576685
13 14 100 19 0.111361
14 14 100 19 0.378595
15 14 100 19 0.0668176
16 14 100 19 1.2113e-05
17 14 100 19 0.0513532
18 14 100 19 0.0445454
5 15 100 19 0.0303
7 15 100 19 2.75081e-05
8 15 100 19 0.0302066
9 15 100 19 0.0606023
10 15 100 19 0.0605958
11 15 100 19 0.0606053
12 15 100 19 0.0908059
13 15 100 19 0.111095
14 15 100 19 0.11111
15 15 100 19 0.313054
16 15 100 19 0.0606046
17 15 100 19 0.000287469
18 15 100 19 0.0303026
19 15 100 19 0.0404035
6 16 100 19 0.0336918
9 16 100 19 0.0336918
10 16 100 19 0.0673709
11 16 100 19 0.0673822
12 16 100 19 0.0673835
13 16 100 19 0.0673835
14 16 100 19 0.123532
15 16 100 19 0.1236
16 16 100 19 0.281198
17 16 100 19 0.067383
18 16 100 19 0.0336918
19 16 100 19 0.0336918
7 17 100 19 0.0341486
11 17 100 19 0.0682948
12 17 100 19 0.0682954
13 17 100 19 0.0682928
14 17 100 19 0.0682909
15 17 100 19 0.124044
16 17 100 19 0.22716
17 17 100 19 0.273176
18 17 100 19 0.0682971
8 18 100 19 0.0352559
12 18 100 19 0.070486
13 18 100 19 0.0705118
14 18 100 19 0.07051
15 18 100 19 0.0705051
16 18 100 19 0.0939939
17 18 100 19 0.242354
18 18 100 19 0.275872
19 18 100 19 0.0705118
13 19 100 19 0.0800016
14 19 100 19 0.079989
15 19 100 19 0.119998
16 19 100 19 0.0800031
17 19 100 19 0.106664
18 19 100 19 0.226671
19 19 100 19 0.306673
11 20 100 19 0.0564368
14 20 100 19 0.0940563
15 20 100 19 0.112874
16 20 100 19 0.108772
17 20 100 19 0.11993
18 20 100 19 0.150498
19 20 100 19 0.357433
3 21 100 19 9.81068e-07
10 21 100 19 1.02207e-05
12 21 100 19 0.0834061
15 21 100 19 0.192796
16 21 100 19 0.170836
17 21 100 19 0.154591
18 21 100 19 0.19917
19 21 100 19 0.19919
10 22 100 19 2.06983e-06
12 22 100 19 4.66436e-06
13 22 100 19 0.122492
16 22 100 19 0.180019
17 22 100 19 0.244187
18 22 100 19 0.167484
19 22 100 19 0.28581
8 23 100 19 2.80346e-07
12 23 100 19 3.22987e-06
13 23 100 19 5.37709e-06
14 23 100 19 0.130724
15 23 100 19 1.91705e-07
16 23 100 19 1.48477e-07
17 23 100 19 0.21609
18 23 100 19 0.435305
19 23 100 19 0.217872
6 24 100 19 1.48525e-06
15 24 100 19 9.3177e-07
17 24 100 19 1.31748e-05
18 24 100 19 0.277777
19 24 100 19 0.722207
6 25 100 19 6.17374e-07
9 25 100 19 1.81925e-06
16 25 100 19 0.00499927
17 25 100 19 0.00404452
18 25 100 19 1.71131e-05
19 25 100 19 0.990937
10 26 100 19 0.000291985
15 26 100 19 0.999683
16 26 100 19 2.42037e-05
17 26 100 19 5.61805e-07
16 27 100 19 0.771591
17 27 100 19 0.0895527
18 27 100 19 0.138856
17 28 100 19 0.434033
18 28 100 19 0.131937
19 28 100 19 0.43403
7 29 100 19 5.12034e-06
14 29 100 19 0.00104734
18 29 100 19 0.749098
19 29 100 19 0.24985
19 30 100 19 1
2 0 100 20 0.0211378
3 0 100 20 0.000342225
4 0 100 20 0.024266
5 0 100 20 0.0678859
6 0 100 20 0.0244306
7 0 100 20 0.02926
8 0 100 20 0.14307
9 0 100 20 0.0597432
10 0 100 20 0.0961613
11 0 100 20 0.0970522
12 0 100 20 0.0733494
13 0 100 20 0.0976851
14 0 100 20 0.0731273
15 0 100 20 0.0967473
16 0 100 20 0.0232358
17 0 100 20 0.000218521
18 0 100 20 0.0722874
1 1 100 20 0.952156
2 1 100 20 0.00149643
3 1 100 20 0.0229222
5 1 100 20 0.0117127
6 1 100 20 0.0117129
1 2 100 20 0.0204185
2 2 100 20 0.920042
3 2 100 20 0.0243959
6 2 100 20 0.0119493
7 2 100 20 0.0231937
8 2 100 20 3.51847e-07
1 3 100 20 0.0229886
2 3 100 20 0.0344753
3 3 100 20 0.88505
4 3 100 20 0.0459801
8 3 100 20 0.0114952
15 3 100 20 1.10976e-05
1 4 100 20 0.0477873
2 4 100 20 0.0358399
3 4 100 20 0.047742
4 4 100 20 0.844737
5 4 100 20 0.0119468
9 4 100 20 0.0119468
1 5 100 20 0.0717562
2 5 100 20 4.39441e-05
3 5 100 20 0.0358922
4 5 100 20 0.0733352
5 5 100 20 0.789274
6 5 100 20 0.0119594
9 5 100 20 0.00578108
10 5 100 20 0.0119585
2 6 100 20 0.040651
4 6 100 20 0.0692983
5 6 100 20 0.060106
6 6 100 20 0.760195
7 6 100 20 0.034564
8 6 100 20 0.0121438
10 6 100 20 0.0115211
11 6 100 20 0.0115211
2 7 100 20 6.69248e-06
3 7 100 20 0.0382966
4 7 100 20 0.00174623
5 7 100 20 0.0512459
6 7 100 20 0.0638988
7 7 100 20 0.777309
8 7 100 20 0.0165387
9 7 100 20 0.0254723
10 7 100 20 1.57292e-06
11 7 100 20 0.0126976
12 7 100 20 0.0127745
15 7 100 20 9.20503e-07
17 7 100 20 1.11706e-05
2 8 100 20 0.0354498
4 8 100 20 0.0354276
5 8 100 20 0.0206302
6 8 100 20 0.0590461
7 8 100 20 0.0471971
8 8 100 20 0.672004
9 8 100 20 0.0472419
10 8 100 20 0.0236185
12 8 100 20 0.0472369
13 8 100 20 0.0118095
16 8 100 20 0.000338733
2 9 100 20 0.0354227
3 9 100 20 0.03541
5 9 100 20 0.0847409
6 9 100 20 0.0118033
7 9 100 20 0.10623
8 9 100 20 0.0354107
9 9 100 20 0.549583
10 9 100 20 0.0120044
11 9 100 20 0.0472136
13 9 100 20 0.0467951
14 9 100 20 0.0235784
15 9 100 20 4.61244e-06
17 9 100 20 4.40424e-07
19 9 100 20 0.0118033
2 10 100 20 0.00455901
3 10 100 20 0.0320721
4 10 100 20 0.0320846
5 10 100 20 8.54231e-05
6 10 100 20 0.0641667
7 10 100 20 0.0106954
8 10 100 20 0.118628
9 10 100 20 0.0641636
10 10 100 20 0.481143
11 10 100 20 0.0321474
12 10 100 20 0.0855568
13 10 100 20 0.0106949
14 10 100 20 0.0427794
15 10 100 20 0.0105296
18 10 100 20 0.0106944
2 11 100 20 0.0117475
4 11 100 20 0.0339474
5 11 100 20 0.0555538
6 11 100 20 6.01872e-07
7 11 100 20 0.0678816
8 11 100 20 0.0113168
9 11 100 20 0.107454
10 11 100 20 0.0791986
11 11 100 20 0.508837
12 11 100 20 0.056167
13 11 100 20 0.056579
15 11 100 20 0.0113158
17 11 100 20 6.86044e-07
18 11 100 20 4.23242e-07
3 12 100 20 0.0112167
5 12 100 20 0.0336529
6 12 100 20 0.0785235
8 12 100 20 0.0752703
9 12 100 20 0.0448661
10 12 100 20 0.0897393
11 12 100 20 0.0673062
12 12 100 20 0.408976
13 12 100 20 0.0785189
14 12 100 20 0.0334191
15 12 100 20 0.0448702
16 12 100 20 0.0224346
17 12 100 20 0.0112059
4 13 100 20 0.0113665
6 13 100 20 0.0340994
7 13 100 20 0.0795561
9 13 100 20 0.0566922
10 13 100 20 0.0795652
11 13 100 20 0.0909294
12 13 100 20 0.0680982
13 13 100 20 0.409068
14 13 100 20 0.0795576
15 13 100 20 0.0227471
16 13 100 20 0.0455874
17 13 100 20 0.0227329
1 14 100 20 0.0332028
2 14 100 20 3.20707e-07
7 14 100 20 0.0331988
8 14 100 20 0.0442574
9 14 100 20 0.0331932
10 14 100 20 0.055338
11 14 100 20 0.055319
12 14 100 20 0.127735
13 14 100 20 0.0885025
14 14 100 20 0.352181
15 14 100 20 0.0885316
16 14 100 20 0.0221352
17 14 100 20 0.0442704
18 14 100 20 0.0221352
2 15 100 20 0.0367854
5 15 100 20 4.74506e-07
7 15 100 20 5.15183e-06
8 15 100 20 0.0367939
9 15 100 20 0.0490579
10 15 100 20 0.0367924
11 15 100 20 0.049055
12 15 100 20 0.060999
13 15 100 20 0.159381
14 15 100 20 0.104966
15 15 100 20 0.306584
16 15 100 20 0.0981047
17 15 100 20 0.024527
18 15 100 20 0.0124195
19 15 100 20 0.024529
8 16 100 20 0.0336748
9 16 100 20 0.067305
10 16 100 20 0.0448997
11 16 100 20 0.0336744
12 16 100 20 0.0451949
13 16 100 20 0.0561148
14 16 100 20 0.152836
15 16 100 20 0.157149
16 16 100 20 0.274455
17 16 100 20 0.0785731
18 16 100 20 0.0224491
19 16 100 20 0.0112249
20 16 100 20 0.0224499
5 17 100 20 0.0118278
9 17 100 20 0.0340296
10 17 100 20 0.0680598
11 17 100 20 0.0453728
13 17 100 20 0.0340061
14 17 100 20 0.0582319
15 17 100 20 0.14746
16 17 100 20 0.158799
17 17 100 20 0.283558
18 17 100 20 0.113282
19 17 100 20 0.0226864
20 17 100 20 0.0226864
6 18 100 20 0.0119711
10 18 100 20 0.0359133
11 18 100 20 0.0718547
12 18 100 20 0.0478591
14 18 100 20 0.07011
15 18 100 20 0.0718096
16 18 100 20 0.162164
17 18 100 20 0.16756
18 18 100 20 0.257874
19 18 100 20 0.0789423
20 18 100 20 0.0239422
7 19 100 20 0.0133849
11 19 100 20 0.0401554
12 19 100 20 0.0803107
13 19 100 20 0.0535413
15 19 100 20 0.0802825
16 19 100 20 0.0803107
17 19 100 20 0.187327
18 19 100 20 0.161649
19 19 100 20 0.222728
20 19 100 20 0.0803107
9 20 100 20 0.0147062
12 20 100 20 0.0441187
13 20 100 20 0.0441019
14 20 100 20 0.058825
16 20 100 20 0.132356
17 20 100 20 0.0882298
18 20 100 20 0.191181
19 20 100 20 0.2353
20 20 100 20 0.191181
10 21 100 20 0.0162853
13 21 100 20 0.0488496
14 21 100 20 0.0488584
15 21 100 20 0.0651392
16 21 100 20 0.0488557
17 21 100 20 0.146568
18 21 100 20 0.0977102
19 21 100 20 0.26717
20 21 100 20 0.260565
3 22 100 20 1.48984e-07
6 22 100 20 1.04987e-07
7 22 100 20 1.14802e-06
11 22 100 20 0.0216437
13 22 100 20 0.0131855
14 22 100 20 0.175552
15 22 100 20 0.0638826
16 22 100 20 0.0213975
17 22 100 20 0.0649317
18 22 100 20 0.141785
19 22 100 20 0.129906
20 22 100 20 0.367714
2 23 100 20 2.19864e-07
5 23 100 20 3.31418e-07
11 23 100 20 2.56696e-06
12 23 100 20 0.0376122
13 23 100 20 3.84683e-05
15 23 100 20 0.225673
16 23 100 20 0.208924
17 23 100 20 0.0376363
18 23 100 20 0.00452398
19 23 100 20 0.297529
20 23 100 20 0.188059
5 24 100 20 1.84475e-07
9 24 100 20 1.5227e-06
11 24 100 20 3.1166e-07
13 24 100 20 0.0410384
16 24 100 20 0.235825
17 24 100 20 0.0938895
18 24 100 20 0.275301
20 24 100 20 0.353944
1 25 100 20 0.000802182
2 25 100 20 8.2712e-05
5 25 100 20 0.00123188
9 25 100 20 1.81648e-06
14 25 100 20 0.0541886
17 25 100 20 0.325132
18 25 100 20 0.162555
19 25 100 20 0.40182
20 25 100 20 0.0541862
5 26 100 20 2.73182e-05
11 26 100 20 1.40332e-06
15 26 100 20 0.0538388
17 26 100 20 4.85974e-07
18 26 100 20 0.407747
19 26 100 20 0.161517
20 26 100 20 0.376869
1 27 100 20 0.00132162
5 27 100 20 0.000830585
11 27 100 20 9.62908e-07
16 27 100 20 0.0701287
17 27 100 20 3.39208e-07
18 27 100 20 0.0763908
19 27 100 20 0.586559
20 27 100 20 0.264768
3 28 100 20 0.000152573
5 28 100 20 1.37461e-05
17 28 100 20 0.103908
18 28 100 20 0.000102829
19 28 100 20 0.258044
20 28 100 20 0.637778
1 29 100 20 0.118532
4 29 100 20 5.66063e-07
18 29 100 20 0.237954
19 29 100 20 0.221577
20 29 100 20 0.421937
3 30 100 20 2.18183e-06
8 30 100 20 2.45586e-06
9 30 100 20 1.58695e-06
17 30 100 20 5.87507e-06
19 30 100 20 0.33333
20 30 100 20 0.666658
19 31 100 20 0.0973688
20 31 100 20 0.902631
7 32 100 20 7.33188e-05
19 32 100 20 0.999927
19 33 100 20 0.0951325
20 33 100 20 0.904868
12 35 100 20 5.88599e-05
20 35 100 20 0.999941
20 39 100 20 1
1 0 100 21 0.00825745
2 0 100 21 0.0846554
3 0 100 21 0.00022644
4 0 100 21 0.0254853
5 0 100 21 7.28316e-05
6 0 100 21 0.108543
7 0 100 21 0.0272028
8 0 100 21 0.0277917
9 0 100 21 0.000747373
10 0 100 21 0.215516
11 0 100 21 0.167906
12 0 100 21 0.0220981
13 0 100 21 0.139621
14 0 100 21 0.00659741
15 0 100 21 0.110545
16 0 100 21 0.0541204
17 0 100 21 0.000172159
18 0 100 21 0.000259597
19 0 100 21 0.000102302
20 0 100 21 8.06301e-05
1 1 100 21 0.95329
3 1 100 21 0.0348744
4 1 100 21 0.000210358
5 1 100 21 0.0116248
1 2 100 21 0.0117191
2 2 100 21 0.888885
3 2 100 21 0.0247011
4 2 100 21 0.0370416
5 2 100 21 0.0123491
6 2 100 21 0.0253009
8 2 100 21 1.3936e-06
11 2 100 21 2.62636e-07
14 2 100 21 1.30062e-06
3 3 100 21 0.881389
4 3 100 21 0.0263783
5 3 100 21 0.0526658
6 3 100 21 0.013189
7 3 100 21 0.0263775
1 4 100 21 0.0379838
3 4 100 21 0.037988
4 4 100 21 0.810098
5 4 100 21 0.0253183
6 4 100 21 0.050634
7 4 100 21 0.0126591
8 4 100 21 0.0253183
4 5 100 21 0.0764513
5 5 100 21 0.815457
6 5 100 21 0.0131731
7 5 100 21 0.0509673
8 5 100 21 0.0127418
9 5 100 21 0.0254806
10 5 100 21 0.00308114
11 5 100 21 1.5894e-07
12 5 100 21 0.00264715
13 5 100 21 1.57703e-07
2 6 100 21 0.0369212
3 6 100 21 0.00202901
4 6 100 21 0.00106433
5 6 100 21 0.07383
6 6 100 21 0.750662
7 6 100 21 0.0615308
8 6 100 21 0.0369261
9 6 100 21 0.0123071
10 6 100 21 0.0246097
12 6 100 21 7.50545e-07
15 6 100 21 0.00011854
1 7 100 21 9.70686e-05
2 7 100 21 0.0370355
3 7 100 21 0.0370351
6 7 100 21 0.0740762
7 7 100 21 0.678911
8 7 100 21 0.0616808
9 7 100 21 0.0493793
10 7 100 21 0.012345
11 7 100 21 0.0371358
14 7 100 21 0.0123016
19 7 100 21 3.12814e-06
2 8 100 21 0.0123497
3 8 100 21 0.0370499
4 8 100 21 0.0370465
7 8 100 21 0.0740979
8 8 100 21 0.678932
9 8 100 21 0.0493999
11 8 100 21 0.01235
12 8 100 21 0.0987315
14 8 100 21 4.24963e-05
3 9 100 21 0.0124851
4 9 100 21 0.0374527
5 9 100 21 0.0374554
7 9 100 21 0.0374554
8 9 100 21 0.0752063
9 9 100 21 0.647525
10 9 100 21 0.0650088
11 9 100 21 4.04155e-05
12 9 100 21 0.0124851
13 9 100 21 0.0624004
15 9 100 21 0.0124851
1 10 100 21 6.10525e-05
2 10 100 21 0.0116288
4 10 100 21 0.0184618
5 10 100 21 0.0363186
6 10 100 21 0.0363186
8 10 100 21 0.036325
9 10 100 21 0.0860748
10 10 100 21 0.545895
11 10 100 21 0.0957509
12 10 100 21 0.0363186
13 10 100 21 0.0121062
14 10 100 21 0.0605294
16 10 100 21 0.0242119
1 11 100 21 1.64919e-07
2 11 100 21 1.40909e-05
3 11 100 21 0.0135321
5 11 100 21 0.0135321
7 11 100 21 0.0405963
10 11 100 21 0.174584
11 11 100 21 0.554763
12 11 100 21 0.0676587
13 11 100 21 0.0405956
14 11 100 21 0.0135313
15 11 100 21 0.0676605
17 11 100 21 0.0135321
6 12 100 21 0.0443973
8 12 100 21 0.0233421
9 12 100 21 0.0443934
11 12 100 21 0.20718
12 12 100 21 0.458716
13 12 100 21 0.073995
14 12 100 21 0.0443971
15 12 100 21 0.014799
16 12 100 21 0.0739811
18 12 100 21 0.0147987
7 13 100 21 0.043492
9 13 100 21 0.0434937
10 13 100 21 8.47624e-07
11 13 100 21 0.0431888
12 13 100 21 0.217455
13 13 100 21 0.391423
14 13 100 21 0.115977
15 13 100 21 0.043492
16 13 100 21 0.0144932
17 13 100 21 0.0724867
19 13 100 21 0.0144971
4 14 100 21 0.00346477
5 14 100 21 5.51473e-07
7 14 100 21 0.00029204
8 14 100 21 0.0387915
10 14 100 21 0.0387868
12 14 100 21 0.133124
13 14 100 21 0.193936
14 14 100 21 0.371779
15 14 100 21 0.0905196
16 14 100 21 0.0387916
17 14 100 21 0.0129305
18 14 100 21 0.0646527
20 14 100 21 0.0129305
2 15 100 21 0.00576994
9 15 100 21 0.0374515
11 15 100 21 0.0374515
12 15 100 21 0.0212741
13 15 100 21 0.111899
14 15 100 21 0.174764
15 15 100 21 0.349524
16 15 100 21 0.124556
17 15 100 21 0.0499251
18 15 100 21 0.0124838
19 15 100 21 0.0624178
21 15 100 21 0.0124838
3 16 100 21 0.00490625
4 16 100 21 0.00151812
7 16 100 21 0.0377782
10 16 100 21 0.0222703
12 16 100 21 0.0377694
13 16 100 21 0.0377765
14 16 100 21 0.113332
15 16 100 21 0.151073
16 16 100 21 0.352553
17 16 100 21 0.125927
18 16 100 21 0.0503709
19 16 100 21 0.00760877
20 16 100 21 0.0571161
1 17 100 21 0.00925841
4 17 100 21 0.00123781
5 17 100 21 0.0126104
8 17 100 21 0.0453503
11 17 100 21 0.0378313
13 17 100 21 0.037816
14 17 100 21 0.0378336
15 17 100 21 0.111958
16 17 100 21 0.1387
17 17 100 21 0.353031
18 17 100 21 0.1261
19 17 100 21 0.0504417
21 17 100 21 0.0378313
1 18 100 21 3.79559e-07
2 18 100 21 0.0133784
6 18 100 21 0.0133784
7 18 100 21 1.08251e-06
9 18 100 21 0.0401366
12 18 100 21 0.0401348
14 18 100 21 0.0401351
15 18 100 21 0.0417553
16 18 100 21 0.108009
17 18 100 21 0.14716
18 18 100 21 0.362441
19 18 100 21 0.133777
20 18 100 21 0.0596916
2 19 100 21 0.00687743
3 19 100 21 0.0128126
7 19 100 21 0.0128127
8 19 100 21 0.0043024
9 19 100 21 0.00991019
10 19 100 21 0.0384382
13 19 100 21 0.0384363
15 19 100 21 0.0384382
16 19 100 21 0.0384355
17 19 100 21 0.128127
18 19 100 21 0.146102
19 19 100 21 0.33312
20 19 100 21 0.128123
21 19 100 21 0.0640637
3 20 100 21 0.0149211
8 20 100 21 0.0149205
9 20 100 21 9.52838e-07
11 20 100 21 3.71707e-05
12 20 100 21 6.29164e-05
13 20 100 21 0.00181655
14 20 100 21 0.0447635
16 20 100 21 0.0447531
17 20 100 21 0.0447635
18 20 100 21 0.149195
19 20 100 21 0.16686
20 20 100 21 0.353773
21 20 100 21 0.164133
3 21 100 21 0.000721373
4 21 100 21 0.036501
5 21 100 21 0.000126596
9 21 100 21 0.0185292
11 21 100 21 0.000614147
13 21 100 21 0.0532483
14 21 100 21 3.65231e-05
15 21 100 21 0.0555877
17 21 100 21 0.0555877
18 21 100 21 0.0648344
19 21 100 21 0.129706
20 21 100 21 0.232452
21 21 100 21 0.352056
2 22 100 21 0.0501619
5 22 100 21 0.0251146
9 22 100 21 3.98394e-07
10 22 100 21 0.0251183
14 22 100 21 0.0753422
16 22 100 21 0.0753493
18 22 100 21 0.0753548
19 22 100 21 0.196311
20 22 100 21 0.175828
21 22 100 21 0.301419
3 23 100 21 0.0275521
6 23 100 21 0.035316
8 23 100 21 0.0268897
10 23 100 21 3.11419e-06
11 23 100 21 0.0494754
14 23 100 21 8.57415e-06
15 23 100 21 0.107694
17 23 100 21 0.107694
19 23 100 21 0.106908
20 23 100 21 0.287177
21 23 100 21 0.251283
1 24 100 21 0.0261462
3 24 100 21 2.47302e-07
4 24 100 21 1.09352e-06
7 24 100 21 0.00737606
8 24 100 21 0.0402992
9 24 100 21 0.126131
10 24 100 21 2.69152e-07
12 24 100 21 0.0577394
14 24 100 21 3.85045e-05
16 24 100 21 0.135599
18 24 100 21 0.109913
19 24 100 21 2.72499e-06
20 24 100 21 0.140683
21 24 100 21 0.356071
1 25 100 21 0.0389447
2 25 100 21 5.35884e-07
4 25 100 21 0.0633975
9 25 100 21 0.0637173
10 25 100 21 0.193113
13 25 100 21 0.064371
17 25 100 21 0.185408
19 25 100 21 0.193084
20 25 100 21 0.00485323
21 25 100 21 0.19311
2 26 100 21 8.48314e-05
10 26 100 21 0.0661863
11 26 100 21 0.198559
13 26 100 21 2.61397e-06
14 26 100 21 0.073178
17 26 100 21 4.97674e-05
18 26 100 21 0.198559
19 26 100 21 1.47752e-05
20 26 100 21 0.198628
21 26 100 21 0.264738
3 27 100 21 0.00424655
4 27 100 21 1.42093e-05
5 27 100 21 7.19906e-07
6 27 100 21 6.4757e-06
11 27 100 21 0.0895027
12 27 100 21 0.270234
15 27 100 21 0.0900866
19 27 100 21 0.275653
21 27 100 21 0.270256
12 28 100 21 0.0708453
13 28 100 21 0.372573
16 28 100 21 0.124191
20 28 100 21 0.432391
3 29 100 21 0.00179811
4 29 100 21 0.000752346
8 29 100 21 2.47142e-07
13 29 100 21 0.0981369
14 29 100 21 0.343319
17 29 100 21 0.0652499
19 29 100 21 6.35425e-05
21 29 100 21 0.49068
14 30 100 21 0.166775
15 30 100 21 0.499882
18 30 100 21 0.166775
20 30 100 21 0.166568
15 31 100 21 0.166667
16 31 100 21 0.500002
19 31 100 21 0.166666
21 31 100 21 0.166665
16 32 100 21 0.20431
17 32 100 21 0.59138
20 32 100 21 0.20431
9 33 100 21 2.45043e-06
17 33 100 21 0.5
21 33 100 21 0.499998
5 34 100 21 1.26834e-05
18 34 100 21 0.999987
18 35 100 21 0.75
19 35 100 21 0.25
19 36 100 21 0.75
20 36 100 21 0.25
20 37 100 21 0.750001
21 37 100 21 0.249999
21 38 100 21 1
2 0 100 22 0.0931686
3 0 100 22 0.0934764
4 0 100 22 0.0729717
5 0 100 22 0.140033
6 0 100 22 0.0727128
7 0 100 22 0.0172478
8 0 100 22 0.0232261
9 0 100 22 0.000108633
10 0 100 22 0.140628
11 0 100 22 0.0644959
12 0 100 22 0.0429327
13 0 100 22 0.0698687
14 0 100 22 0.000631016
15 0 100 22 0.000160316
16 0 100 22 0.0234952
17 0 100 22 0.000267281
18 0 100 22 8.5502e-05
19 0 100 22 0.0238633
20 0 100 22 0.116486
21 0 100 22 0.00413982
1 1 100 22 0.952833
2 1 100 22 0.00943393
3 1 100 22 0.00943399
4 1 100 22 0.0282995
2 2 100 22 0.86194
3 2 100 22 0.0465675
4 2 100 22 0.044883
5 2 100 22 0.0466095
1 3 100 22 0.0112169
2 3 100 22 0.134602
3 3 100 22 0.743524
4 3 100 22 0.0224835
5 3 100 22 0.0110268
6 3 100 22 0.0547857
7 3 100 22 0.0223489
10 3 100 22 1.56557e-06
11 3 100 22 1.07634e-05
2 4 100 22 0.0716629
3 4 100 22 0.160697
4 4 100 22 0.62437
5 4 100 22 0.0716679
6 4 100 22 0.0102347
7 4 100 22 0.0409388
8 4 100 22 0.0204283
16 4 100 22 4.57212e-07
3 5 100 22 0.075271
4 5 100 22 0.161295
5 5 100 22 0.591392
6 5 100 22 0.0860248
7 5 100 22 0.010753
8 5 100 22 0.053759
9 5 100 22 0.021506
2 6 100 22 0.006666
4 6 100 22 0.105665
5 6 100 22 0.137385
6 6 100 22 0.581207
7 6 100 22 0.084545
8 6 100 22 0.0105638
9 6 100 22 0.0528394
10 6 100 22 0.0105681
11 6 100 22 0.0105614
5 7 100 22 0.122481
6 7 100 22 0.111333
7 7 100 22 0.588028
8 7 100 22 0.0890803
9 7 100 22 0.011135
10 7 100 22 0.0556723
11 7 100 22 0.0111348
12 7 100 22 0.011135
6 8 100 22 0.144361
7 8 100 22 0.135651
8 8 100 22 0.511535
9 8 100 22 0.0835162
10 8 100 22 0.0208791
11 8 100 22 0.0727396
12 8 100 22 0.0104395
13 8 100 22 0.0208791
4 9 100 22 1.64832e-07
5 9 100 22 0.0120576
6 9 100 22 0.0120575
7 9 100 22 0.0844056
8 9 100 22 0.13262
9 9 100 22 0.590796
10 9 100 22 0.0602768
11 9 100 22 0.0233307
12 9 100 22 0.060286
14 9 100 22 0.0240894
20 9 100 22 8.03701e-05
4 10 100 22 5.14898e-05
5 10 100 22 2.3955e-05
6 10 100 22 0.0145546
7 10 100 22 0.0290427
8 10 100 22 0.136898
9 10 100 22 0.136902
10 10 100 22 0.47096
11 10 100 22 0.0746737
12 10 100 22 0.0497822
13 10 100 22 0.0622195
15 10 100 22 0.0248913
2 11 100 22 0.00479396
7 11 100 22 0.0518593
8 11 100 22 0.0259592
9 11 100 22 0.116847
10 11 100 22 0.123511
11 11 100 22 0.469256
12 11 100 22 0.064945
13 11 100 22 0.051934
14 11 100 22 0.0649164
16 11 100 22 0.025965
20 11 100 22 5.65262e-07
21 11 100 22 1.31525e-05
3 12 100 22 0.0137054
5 12 100 22 1.69228e-05
7 12 100 22 0.00179059
8 12 100 22 0.0137054
9 12 100 22 0.0274108
10 12 100 22 0.159292
11 12 100 22 0.0855818
12 12 100 22 0.438128
13 12 100 22 0.0958804
14 12 100 22 0.068523
15 12 100 22 0.0685214
16 12 100 22 3.37912e-05
17 12 100 22 0.0274108
2 13 100 22 0.0384203
4 13 100 22 0.0128065
7 13 100 22 2.57107e-05
8 13 100 22 0.0128073
9 13 100 22 0.0512155
10 13 100 22 0.0384134
11 13 100 22 0.153676
12 13 100 22 0.0868866
13 13 100 22 0.375222
14 13 100 22 0.0768375
15 13 100 22 0.0640359
16 13 100 22 0.0640367
18 13 100 22 0.0256117
19 13 100 22 5.23352e-06
3 14 100 22 0.0367049
5 14 100 22 0.0122348
7 14 100 22 0.0367049
8 14 100 22 0.0367049
9 14 100 22 0.012235
10 14 100 22 0.0856265
11 14 100 22 0.036709
12 14 100 22 0.136402
13 14 100 22 0.0682899
14 14 100 22 0.318198
15 14 100 22 0.0734015
16 14 100 22 0.0611446
17 14 100 22 0.0611743
19 14 100 22 0.02447
4 15 100 22 0.0388199
6 15 100 22 0.0129415
9 15 100 22 0.0291218
10 15 100 22 0.0129352
11 15 100 22 0.0880264
12 15 100 22 0.051752
13 15 100 22 0.11822
14 15 100 22 0.078835
15 15 100 22 0.336429
16 15 100 22 0.0776366
17 15 100 22 0.0646998
18 15 100 22 0.0646997
19 15 100 22 3.7139e-06
20 15 100 22 0.0258793
5 16 100 22 0.0314093
6 16 100 22 4.29888e-07
7 16 100 22 0.0104772
9 16 100 22 0.00785273
10 16 100 22 0.0312915
11 16 100 22 0.0827104
12 16 100 22 0.0734773
13 16 100 22 0.0523868
14 16 100 22 0.144642
15 16 100 22 0.0942884
16 16 100 22 0.272389
17 16 100 22 0.0733437
18 16 100 22 0.0523874
19 16 100 22 0.0523885
20 16 100 22 2.57817e-07
21 16 100 22 0.0209554
4 17 100 22 7.53967e-06
6 17 100 22 0.0373029
8 17 100 22 0.0124329
10 17 100 22 0.0373029
12 17 100 22 0.0545136
13 17 100 22 0.0870358
14 17 100 22 0.0746842
15 17 100 22 0.0994745
16 17 100 22 0.111881
17 17 100 22 0.261565
18 17 100 22 0.0870383
19 17 100 22 0.0621715
20 17 100 22 0.0621557
22 17 100 22 0.0124343
7 18 100 22 0.0317656
9 18 100 22 0.0105885
11 18 100 22 0.0661139
12 18 100 22 0.0449383
13 18 100 22 0.0423541
14 18 100 22 0.0741185
15 18 100 22 0.0952925
16 18 100 22 0.0847058
17 18 100 22 0.137215
18 18 100 22 0.232916
19 18 100 22 0.074114
20 18 100 22 0.052935
21 18 100 22 0.0529427
7 19 100 22 3.46757e-05
8 19 100 22 0.0321141
10 19 100 22 0.0105774
12 19 100 22 0.0805348
13 19 100 22 0.0633954
14 19 100 22 0.0423078
15 19 100 22 0.0740355
16 19 100 22 0.0951921
17 19 100 22 0.0846103
18 19 100 22 0.126928
19 19 100 22 0.199923
20 19 100 22 0.0845727
21 19 100 22 0.0528869
22 19 100 22 0.0528869
9 20 100 22 0.032713
11 20 100 22 0.0109082
12 20 100 22 0.0327245
13 20 100 22 0.0872554
14 20 100 22 0.0654489
15 20 100 22 0.0436267
16 20 100 22 0.0654242
17 20 100 22 0.10907
18 20 100 22 0.0872942
19 20 100 22 0.141792
20 20 100 22 0.171029
21 20 100 22 0.0872652
22 20 100 22 0.0654489
10 21 100 22 0.0371377
12 21 100 22 0.0123792
13 21 100 22 0.00014677
14 21 100 22 0.0990295
15 21 100 22 0.0742475
16 21 100 22 0.0495168
17 21 100 22 0.0742645
18 21 100 22 0.123791
19 21 100 22 0.100109
20 21 100 22 0.164894
21 21 100 22 0.16545
22 21 100 22 0.0990338
11 22 100 22 0.0441202
13 22 100 22 0.0147037
15 22 100 22 0.117654
16 22 100 22 0.0882403
17 22 100 22 0.0588234
18 22 100 22 0.0882403
19 22 100 22 0.16173
20 22 100 22 0.0588204
21 22 100 22 0.235307
22 22 100 22 0.13236
12 23 100 22 0.0466493
13 23 100 22 0.0464587
14 23 100 22 0.0155518
16 23 100 22 0.12441
17 23 100 22 0.0932643
18 23 100 22 0.0622071
19 23 100 22 0.0932627
20 23 100 22 0.191609
21 23 100 22 0.0622071
22 23 100 22 0.26438
5 24 100 22 8.65101e-07
10 24 100 22 1.2651e-05
12 24 100 22 1.50869e-06
13 24 100 22 0.0422958
14 24 100 22 0.0373333
15 24 100 22 0.023736
17 24 100 22 0.198726
18 24 100 22 0.150578
19 24 100 22 0.0701849
20 24 100 22 0.182766
21 24 100 22 0.199423
22 24 100 22 0.0949411
1 25 100 22 3.15103e-05
4 25 100 22 2.90556e-07
7 25 100 22 2.44118e-05
8 25 100 22 1.06486e-05
9 25 100 22 1.11672e-06
11 25 100 22 5.71409e-05
12 25 100 22 2.94583e-05
14 25 100 22 0.0508358
15 25 100 22 0.0816261
16 25 100 22 0.0299346
18 25 100 22 0.145001
19 25 100 22 0.142921
20 25 100 22 0.108823
21 25 100 22 0.277453
22 25 100 22 0.16325
2 26 100 22 0.000164108
5 26 100 22 2.49956e-07
6 26 100 22 0.00844977
11 26 100 22 2.59964e-06
13 26 100 22 1.06407e-07
14 26 100 22 0.0618384
15 26 100 22 0.0902368
16 26 100 22 0.0892269
17 26 100 22 0.0384766
18 26 100 22 7.87516e-05
19 26 100 22 0.150308
20 26 100 22 0.180893
21 26 100 22 0.13913
22 26 100 22 0.241195
6 27 100 22 7.49049e-07
7 27 100 22 0.0467644
11 27 100 22 1.4175e-05
13 27 100 22 6.60438e-06
16 27 100 22 0.113362
17 27 100 22 0.113358
18 27 100 22 0.0232489
20 27 100 22 0.174333
21 27 100 22 0.226627
22 27 100 22 0.302285
4 28 100 22 2.25625e-06
8 28 100 22 0.141836
11 28 100 22 8.4867e-07
12 28 100 22 9.68168e-07
16 28 100 22 8.6794e-07
17 28 100 22 0.143033
18 28 100 22 0.285899
19 28 100 22 0.047701
21 28 100 22 0.238455
22 28 100 22 0.143071
5 29 100 22 1.84164e-06
9 29 100 22 0.169201
12 29 100 22 2.18633e-07
13 29 100 22 3.37634e-06
18 29 100 22 0.129452
19 29 100 22 0.337688
20 29 100 22 0.00063524
21 29 100 22 0.081018
22 29 100 22 0.282
7 30 100 22 8.18008e-07
10 30 100 22 0.230809
11 30 100 22 5.3765e-07
19 30 100 22 0.230809
20 30 100 22 0.461263
21 30 100 22 0.000182107
22 30 100 22 0.0769357
17 31 100 22 2.03066e-06
20 31 100 22 0.168964
21 31 100 22 0.493918
22 31 100 22 0.337116
21 32 100 22 0.250001
22 32 100 22 0.749999
22 33 100 22 1
1 0 100 23 7.11529e-05
2 0 100 23 0.0772678
3 0 100 23 0.0709458
4 0 100 23 0.0578444
5 0 100 23 0.0582303
6 0 100 23 0.134623
7 0 100 23 0.0720707
8 0 100 23 0.116878
9 0 100 23 0.0579168
10 0 100 23 0.000506852
11 0 100 23 0.0383986
12 0 100 23 0.0299221
13 0 100 23 0.00267165
14 0 100 23 0.0251034
15 0 100 23 0.0581345
16 0 100 23 0.137474
17 0 100 23 0.0219459
18 0 100 23 0.0194006
19 0 100 23 0.020317
20 0 100 23 0.000176222
21 0 100 23 0.000101422
1 1 100 23 0.924477
3 1 100 23 0.000348209
4 1 100 23 0.0373866
9 1 100 23 0.0377886
1 2 100 23 0.00145084
2 2 100 23 0.878054
3 2 100 23 0.0128657
4 2 100 23 0.0139392
5 2 100 23 3.28224e-07
6 2 100 23 0.0100565
9 2 100 23 0.0418085
10 2 100 23 0.0418178
16 2 100 23 5.03315e-06
17 2 100 23 2.18775e-06
1 3 100 23 0.0501438
3 3 100 23 0.853178
5 3 100 23 0.0138093
10 3 100 23 0.0414339
11 3 100 23 0.0414339
14 3 100 23 5.20826e-07
2 4 100 23 0.0833198
4 4 100 23 0.791508
5 4 100 23 0.0140865
6 4 100 23 0.0277498
7 4 100 23 2.3456e-06
8 4 100 23 8.77792e-07
11 4 100 23 0.041665
12 4 100 23 0.0416665
15 4 100 23 6.77178e-07
20 4 100 23 6.28852e-07
2 5 100 23 0.0129036
3 5 100 23 0.0528651
5 5 100 23 0.727758
6 5 100 23 0.0644308
7 5 100 23 0.0258146
8 5 100 23 0.0387218
12 5 100 23 0.0387219
13 5 100 23 0.0387219
16 5 100 23 6.27709e-05
2 6 100 23 0.0667962
3 6 100 23 5.34594e-06
4 6 100 23 0.0937852
5 6 100 23 0.0134256
6 6 100 23 0.63505
7 6 100 23 0.0575675
8 6 100 23 0.0133898
9 6 100 23 0.0401753
13 6 100 23 0.0398684
14 6 100 23 0.0399191
16 6 100 23 9.93989e-07
17 6 100 23 1.60509e-05
1 7 100 23 0.0632535
3 7 100 23 0.0947372
4 7 100 23 0.0320237
5 7 100 23 0.122292
6 7 100 23 0.00931157
7 7 100 23 0.51996
8 7 100 23 0.0528081
9 7 100 23 0.0105619
10 7 100 23 0.0316796
14 7 100 23 0.0316861
15 7 100 23 0.0316857
17 7 100 23 6.28226e-07
2 8 100 23 0.037482
4 8 100 23 0.074963
5 8 100 23 0.0374815
6 8 100 23 0.112445
7 8 100 23 0.0749473
8 8 100 23 0.438072
9 8 100 23 0.0624691
10 8 100 23 0.0496964
11 8 100 23 0.0374815
15 8 100 23 0.0374815
16 8 100 23 0.0374815
5 9 100 23 0.0418475
6 9 100 23 0.0697526
7 9 100 23 0.0939343
8 9 100 23 0.0969534
9 9 100 23 0.44639
10 9 100 23 0.0697557
11 9 100 23 0.0558055
12 9 100 23 0.0418489
16 9 100 23 0.0418541
17 9 100 23 0.0418541
20 9 100 23 3.95596e-06
6 10 100 23 0.0379884
7 10 100 23 0.0633129
8 10 100 23 0.151712
9 10 100 23 0.0759743
10 10 100 23 0.405201
11 10 100 23 0.0506215
12 10 100 23 0.101241
13 10 100 23 0.0379884
17 10 100 23 0.0379884
18 10 100 23 0.0379721
2 11 100 23 0.00337993
3 11 100 23 0.00536775
7 11 100 23 0.036262
8 11 100 23 0.0604391
9 11 100 23 0.15716
10 11 100 23 0.108796
11 11 100 23 0.374741
12 11 100 23 0.0483528
13 11 100 23 0.0966202
14 11 100 23 0.0363454
18 11 100 23 0.0362677
19 11 100 23 0.0362677
2 12 100 23 0.00929356
3 12 100 23 9.44625e-07
4 12 100 23 9.29609e-05
8 12 100 23 0.0380565
9 12 100 23 0.0634313
10 12 100 23 0.164913
11 12 100 23 0.103749
12 12 100 23 0.392114
13 12 100 23 0.0507452
14 12 100 23 0.0634315
15 12 100 23 0.0380599
19 12 100 23 0.0380589
20 12 100 23 0.0380538
1 13 100 23 0.0338642
3 13 100 23 0.0298892
4 13 100 23 2.41891e-07
9 13 100 23 0.0350814
10 13 100 23 0.0935368
11 13 100 23 0.16169
12 13 100 23 0.0754608
13 13 100 23 0.35997
14 13 100 23 0.0467752
15 13 100 23 0.058469
16 13 100 23 0.0351148
18 13 100 23 4.87539e-07
20 13 100 23 0.0350814
21 13 100 23 0.0350663
4 14 100 23 0.0417828
6 14 100 23 1.40744e-06
8 14 100 23 1.45355e-06
11 14 100 23 0.111419
12 14 100 23 0.153232
13 14 100 23 0.0572604
14 14 100 23 0.357753
15 14 100 23 0.0696381
16 14 100 23 0.0696381
17 14 100 23 0.0417828
19 14 100 23 0.0139276
20 14 100 23 4.62557e-06
21 14 100 23 0.0417768
22 14 100 23 0.0417828
5 15 100 23 0.0384829
7 15 100 23 1.45598e-06
8 15 100 23 0.0377435
12 15 100 23 0.102613
13 15 100 23 0.141106
14 15 100 23 0.0901556
15 15 100 23 0.333369
16 15 100 23 0.0641342
17 15 100 23 0.064139
18 15 100 23 0.0384778
20 15 100 23 0.0128104
22 15 100 23 0.0384834
23 15 100 23 0.0384834
2 16 100 23 0.0370383
3 16 100 23 0.00651582
6 16 100 23 0.0370383
9 16 100 23 0.0370383
12 16 100 23 0.0075842
13 16 100 23 0.0987635
14 16 100 23 0.148146
15 16 100 23 0.0864183
16 16 100 23 0.306889
17 16 100 23 0.0740711
18 16 100 23 0.0617288
19 16 100 23 0.0370383
20 16 100 23 0.0123461
21 16 100 23 0.0123461
23 16 100 23 0.0370383
3 17 100 23 0.0393288
7 17 100 23 0.0393286
11 17 100 23 1.09335e-05
12 17 100 23 0.00621337
13 17 100 23 0.00209225
14 17 100 23 0.144164
15 17 100 23 0.144155
16 17 100 23 0.104878
17 17 100 23 0.296997
18 17 100 23 0.0917421
19 17 100 23 0.0655435
20 17 100 23 0.0393281
21 17 100 23 0.0131095
22 17 100 23 0.0131095
3 18 100 23 9.12812e-07
4 18 100 23 0.0400352
6 18 100 23 2.07874e-06
8 18 100 23 0.0400434
13 18 100 23 0.0133425
15 18 100 23 0.106776
16 18 100 23 0.17354
17 18 100 23 0.118036
18 18 100 23 0.295013
19 18 100 23 0.0796996
20 18 100 23 0.0800868
21 18 100 23 0.0400425
22 18 100 23 3.4032e-05
23 18 100 23 0.0133478
5 19 100 23 0.043591
9 19 100 23 0.0435893
13 19 100 23 0.0412703
14 19 100 23 0.0145302
15 19 100 23 0.0145301
16 19 100 23 0.072655
17 19 100 23 0.18893
18 19 100 23 0.1163
19 19 100 23 0.261191
20 19 100 23 0.072649
21 19 100 23 0.0871729
22 19 100 23 0.0435911
10 20 100 23 0.0465127
14 20 100 23 0.0465126
15 20 100 23 0.0155042
16 20 100 23 0.0155042
17 20 100 23 0.0831299
18 20 100 23 0.203783
19 20 100 23 0.139537
20 20 100 23 0.216992
21 20 100 23 0.0775211
22 20 100 23 0.10849
23 20 100 23 0.0465127
6 21 100 23 0.0430106
11 21 100 23 0.0430129
12 21 100 23 3.38685e-05
15 21 100 23 0.0430106
16 21 100 23 0.0573369
17 21 100 23 0.0143369
18 21 100 23 0.0680791
19 21 100 23 0.229389
20 21 100 23 0.143369
21 21 100 23 0.186378
22 21 100 23 0.0716844
23 21 100 23 0.100358
7 22 100 23 0.0461561
12 22 100 23 0.0461452
17 22 100 23 0.107691
18 22 100 23 0.0307705
19 22 100 23 0.0615415
20 22 100 23 0.276928
21 22 100 23 0.169215
22 22 100 23 0.20001
23 22 100 23 0.0615415
8 23 100 23 0.0483881
13 23 100 23 0.0483881
18 23 100 23 0.112894
19 23 100 23 0.0483815
20 23 100 23 0.0806468
21 23 100 23 0.290326
22 23 100 23 0.177423
23 23 100 23 0.193552
3 24 100 23 3.55283e-07
9 24 100 23 0.0613259
11 24 100 23 0.000122699
13 24 100 23 2.91906e-06
14 24 100 23 0.0613191
18 24 100 23 2.44592e-07
19 24 100 23 0.141332
20 24 100 23 0.0613259
21 24 100 23 0.102196
22 24 100 23 0.347513
23 24 100 23 0.224862
3 25 100 23 2.73991e-07
4 25 100 23 0.00264281
6 25 100 23 4.41147e-05
10 25 100 23 0.0827498
11 25 100 23 6.4966e-07
12 25 100 23 1.67891e-07
13 25 100 23 0.0272077
15 25 100 23 0.0802917
19 25 100 23 0.00234734
20 25 100 23 0.0851883
21 25 100 23 0.0818629
22 25 100 23 0.138626
23 25 100 23 0.499039
5 26 100 23 5.70334e-05
6 26 100 23 8.20685e-05
8 26 100 23 3.41846e-05
11 26 100 23 0.16202
12 26 100 23 4.43786e-06
13 26 100 23 6.029e-07
14 26 100 23 0.0276389
15 26 100 23 2.16465e-07
16 26 100 23 0.162019
17 26 100 23 1.44257e-06
19 26 100 23 6.19903e-05
20 26 100 23 3.96404e-06
21 26 100 23 0.216027
22 26 100 23 0.162019
23 26 100 23 0.27003
2 27 100 23 1.11121e-06
6 27 100 23 2.30857e-05
12 27 100 23 0.166751
15 27 100 23 0.0555835
17 27 100 23 0.166747
20 27 100 23 0.166234
22 27 100 23 0.277912
23 27 100 23 0.166748
3 28 100 23 1.28376e-06
13 28 100 23 0.165916
16 28 100 23 0.0641643
18 28 100 23 0.192442
21 28 100 23 0.192493
23 28 100 23 0.384983
8 29 100 23 3.38927e-07
13 29 100 23 2.73485e-07
14 29 100 23 0.359569
17 29 100 23 0.0675218
19 29 100 23 0.329968
22 29 100 23 0.242941
9 30 100 23 4.42236e-07
13 30 100 23 4.3171e-06
15 30 100 23 0.429852
18 30 100 23 0.140291
20 30 100 23 0.429852
5 31 100 23 5.89877e-05
11 31 100 23 3.10484e-06
12 31 100 23 9.26163e-06
17 31 100 23 0.418828
19 31 100 23 0.144627
21 31 100 23 0.433882
22 31 100 23 0.00259152
11 32 100 23 3.97127e-07
12 32 100 23 4.83443e-07
18 32 100 23 0.384624
19 32 100 23 1.99125e-05
20 32 100 23 0.128271
22 32 100 23 0.487084
19 33 100 23 0.300024
21 33 100 23 0.100007
23 33 100 23 0.599969
6 34 100 23 9.34678e-05
20 34 100 23 0.966292
22 34 100 23 0.0336144
8 35 100 23 9.89099e-07
13 35 100 23 6.97892e-07
14 35 100 23 3.62514e-06
17 35 100 23 8.00911e-06
21 35 100 23 0.999987
22 36 100 23 1
23 37 100 23 1
22 41 100 23 1
23 42 100 23 1
2 0 100 24 0.0828454
3 0 100 24 0.0224798
4 0 100 24 0.0635213
5 0 100 24 0.00235883
6 0 100 24 0.0210703
7 0 100 24 0.103372
8 0 100 24 0.0208811
9 0 100 24 0.000146754
10 0 100 24 0.0419186
11 0 100 24 0.00104434
12 0 100 24 0.0642805
13 0 100 24 0.000168372
14 0 100 24 0.0160788
15 0 100 24 0.0832726
16 0 100 24 0.0920594
17 0 100 24 0.067912
18 0 100 24 0.00207528
19 0 100 24 0.0639689
20 0 100 24 0.0605589
21 0 100 24 0.127599
22 0 100 24 0.0623638
23 0 100 24 2.37114e-05
1 1 100 24 0.942723
2 1 100 24 0.0286386
3 1 100 24 0.0286386
2 2 100 24 0.922474
3 2 100 24 0.0443082
4 2 100 24 0.0332152
13 2 100 24 3.489e-07
14 2 100 24 1.93059e-06
21 2 100 24 3.31609e-07
1 3 100 24 0.00302589
2 3 100 24 0.024179
3 3 100 24 0.874257
4 3 100 24 0.0547003
5 3 100 24 0.0328179
6 3 100 24 0.0109393
7 3 100 24 8.04067e-05
22 3 100 24 6.16484e-07
2 4 100 24 0.0362687
3 4 100 24 0.0433369
4 4 100 24 0.812109
5 4 100 24 0.0974341
6 4 100 24 1.96066e-05
7 4 100 24 0.0108317
14 4 100 24 3.48392e-07
1 5 100 24 0.00785968
3 5 100 24 0.032569
4 5 100 24 0.0434919
5 5 100 24 0.796585
6 5 100 24 0.097764
8 5 100 24 0.010865
12 5 100 24 4.48758e-07
15 5 100 24 0.010865
2 6 100 24 0.0112323
4 6 100 24 0.0346767
5 6 100 24 0.0455369
6 6 100 24 0.738904
7 6 100 24 0.100323
8 6 100 24 0.0346769
9 6 100 24 0.011559
10 6 100 24 0.0115554
16 6 100 24 0.0115354
1 7 100 24 0.000760001
2 7 100 24 0.0280501
3 7 100 24 0.011009
5 7 100 24 0.0401962
6 7 100 24 0.0770628
7 7 100 24 0.671502
8 7 100 24 0.105388
9 7 100 24 0.0330269
10 7 100 24 1.06941e-06
11 7 100 24 0.022018
13 7 100 24 0.0109862
1 8 100 24 0.00185262
2 8 100 24 0.00133572
3 8 100 24 0.0313528
4 8 100 24 0.0104543
6 8 100 24 0.0627023
7 8 100 24 0.0764506
8 8 100 24 0.606925
9 8 100 24 0.0522627
10 8 100 24 0.0313324
12 8 100 24 0.0209084
13 8 100 24 0.0313628
14 8 100 24 0.0104543
20 8 100 24 0.0313609
22 8 100 24 0.0312449
4 9 100 24 0.0331955
5 9 100 24 0.0110652
6 9 100 24 0.0663531
7 9 100 24 0.0664083
8 9 100 24 0.0927462
9 9 100 24 0.619584
10 9 100 24 0.0553222
13 9 100 24 0.0221296
14 9 100 24 0.0331955
17 9 100 24 3.81432e-07
2 10 100 24 0.00590328
5 10 100 24 0.0425411
6 10 100 24 0.0220358
7 10 100 24 0.0640909
8 10 100 24 0.0641493
9 10 100 24 0.106871
10 10 100 24 0.555497
11 10 100 24 0.117536
14 10 100 24 0.0213752
2 11 100 24 0.010729
3 11 100 24 0.010729
5 11 100 24 4.42349e-07
6 11 100 24 0.0429057
7 11 100 24 0.01081
8 11 100 24 0.0534088
9 11 100 24 0.0965593
10 11 100 24 0.111047
11 11 100 24 0.52522
12 11 100 24 0.12786
13 11 100 24 4.45344e-07
15 11 100 24 0.010729
21 11 100 24 8.29352e-07
3 12 100 24 0.0107023
4 12 100 24 0.0107036
7 12 100 24 0.0428145
8 12 100 24 0.0428145
9 12 100 24 0.0642218
10 12 100 24 0.107034
11 12 100 24 0.101211
12 12 100 24 0.481622
13 12 100 24 0.0963278
15 12 100 24 0.0318456
16 12 100 24 0.0107036
1 13 100 24 0.0100916
4 13 100 24 0.0100916
5 13 100 24 0.0100916
8 13 100 24 0.0403665
9 13 100 24 0.0605453
10 13 100 24 0.0389987
11 13 100 24 0.111008
12 13 100 24 0.11105
13 13 100 24 0.464154
14 13 100 24 0.0931453
16 13 100 24 0.0403665
17 13 100 24 0.0100916
5 14 100 24 0.0109585
6 14 100 24 0.0109585
9 14 100 24 0.0438341
10 14 100 24 0.0524364
11 14 100 24 0.0331823
12 14 100 24 0.0986211
13 14 100 24 0.0876891
14 14 100 24 0.504063
15 14 100 24 0.0987241
17 14 100 24 0.032872
18 14 100 24 0.0157023
19 14 100 24 0.0109585
4 15 100 24 0.0119766
7 15 100 24 0.0119762
10 15 100 24 0.0957968
11 15 100 24 0.0479048
12 15 100 24 0.0359259
13 15 100 24 0.107784
14 15 100 24 0.0958014
15 15 100 24 0.443098
16 15 100 24 0.089847
18 15 100 24 0.0359298
19 15 100 24 0.0119766
20 15 100 24 0.0119766
22 15 100 24 6.46811e-06
5 16 100 24 0.0107493
8 16 100 24 0.0107493
11 16 100 24 0.102271
12 16 100 24 0.0427537
13 16 100 24 0.0752444
14 16 100 24 0.085968
15 16 100 24 0.161239
16 16 100 24 0.371301
17 16 100 24 0.0752317
19 16 100 24 0.0429941
20 16 100 24 0.0107487
21 16 100 24 0.0107481
23 16 100 24 1.69013e-06
7 17 100 24 2.4887e-06
9 17 100 24 0.0113918
11 17 100 24 0.0113918
12 17 100 24 0.113908
13 17 100 24 0.0113918
14 17 100 24 0.06835
15 17 100 24 0.125285
16 17 100 24 0.148231
17 17 100 24 0.361545
18 17 100 24 0.0797287
19 17 100 24 0.000449998
20 17 100 24 0.045537
21 17 100 24 0.0113912
22 17 100 24 0.0113896
23 17 100 24 6.4908e-06
4 18 100 24 3.83499e-05
6 18 100 24 1.60561e-07
7 18 100 24 2.01295e-05
10 18 100 24 0.00971313
12 18 100 24 0.00971607
13 18 100 24 0.116584
14 18 100 24 0.0194305
15 18 100 24 0.0291427
16 18 100 24 0.140857
17 18 100 24 0.162475
18 18 100 24 0.339939
19 18 100 24 0.095352
20 18 100 24 0.0291326
22 18 100 24 0.037885
23 18 100 24 0.0097153
11 19 100 24 0.0106953
13 19 100 24 0.0106939
14 19 100 24 0.0962452
15 19 100 24 0.0534743
16 19 100 24 0.0320858
17 19 100 24 0.152518
18 19 100 24 0.181788
19 19 100 24 0.342917
20 19 100 24 0.075737
21 19 100 24 6.48992e-07
22 19 100 24 0.00107243
23 19 100 24 0.0427729
12 20 100 24 0.0101792
13 20 100 24 0.0101894
14 20 100 24 0.0407577
15 20 100 24 0.0916803
16 20 100 24 0.0611366
17 20 100 24 0.0407577
18 20 100 24 0.144903
19 20 100 24 0.142627
20 20 100 24 0.295461
21 20 100 24 0.101172
23 20 100 24 0.0305683
24 20 100 24 0.0305683
6 21 100 24 1.25421e-07
11 21 100 24 7.72345e-07
13 21 100 24 6.43823e-07
14 21 100 24 0.0100057
15 21 100 24 0.0100049
16 21 100 24 0.0900466
17 21 100 24 0.0800367
18 21 100 24 0.0400222
19 21 100 24 0.140071
20 21 100 24 0.170095
21 21 100 24 0.299628
22 21 100 24 0.100055
23 21 100 24 0.0300155
24 21 100 24 0.0300171
15 22 100 24 0.0118305
16 22 100 24 0.0118356
17 22 100 24 0.106425
18 22 100 24 0.0946828
19 22 100 24 0.0473423
20 22 100 24 0.13019
21 22 100 24 0.171622
22 22 100 24 0.272209
23 22 100 24 0.118356
24 22 100 24 0.0355067
12 23 100 24 1.26479e-05
16 23 100 24 0.0130726
17 23 100 24 0.0131775
18 23 100 24 0.117646
19 23 100 24 0.0784308
20 23 100 24 0.052289
21 23 100 24 0.156829
22 23 100 24 0.235296
23 23 100 24 0.228666
24 23 100 24 0.104581
5 24 100 24 4.47917e-05
6 24 100 24 2.22898e-07
13 24 100 24 0.0157588
17 24 100 24 0.0157612
18 24 100 24 0.0199135
19 24 100 24 0.0945478
20 24 100 24 0.0945489
21 24 100 24 0.0551448
22 24 100 24 0.184239
23 24 100 24 0.283659
24 24 100 24 0.236382
4 25 100 24 0.0151172
6 25 100 24 1.13585e-06
7 25 100 24 9.46759e-07
14 25 100 24 0.0155899
19 25 100 24 0.077901
20 25 100 24 0.0935445
21 25 100 24 0.140304
22 25 100 24 0.0623626
23 25 100 24 0.236592
24 25 100 24 0.358587
2 26 100 24 3.65379e-05
3 26 100 24 6.19492e-07
4 26 100 24 4.6064e-07
5 26 100 24 1.53276e-05
6 26 100 24 6.64293e-07
7 26 100 24 4.24224e-06
10 26 100 24 3.60693e-06
11 26 100 24 7.46329e-07
12 26 100 24 1.3717e-07
13 26 100 24 1.20195e-06
14 26 100 24 1.53457e-06
15 26 100 24 0.0257629
17 26 100 24 4.96197e-07
18 26 100 24 4.75639e-05
20 26 100 24 0.128202
21 26 100 24 0.178001
22 26 100 24 0.231203
23 26 100 24 0.128447
24 26 100 24 0.308271
1 27 100 24 1.49193e-05
2 27 100 24 6.54008e-07
3 27 100 24 1.34814e-06
8 27 100 24 5.21923e-06
10 27 100 24 3.4716e-07
15 27 100 24 2.69956e-07
16 27 100 24 0.0335766
18 27 100 24 4.07052e-07
21 27 100 24 0.183304
22 27 100 24 0.276589
23 27 100 24 0.322571
24 27 100 24 0.183937
8 28 100 24 3.86122e-07
10 28 100 24 1.11502e-07
13 28 100 24 4.20993e-07
16 28 100 24 6.3812e-07
17 28 100 24 0.0391756
21 28 100 24 1.1907e-06
22 28 100 24 0.207373
23 28 100 24 0.255335
24 28 100 24 0.498114
14 29 100 24 5.64376e-07
16 29 100 24 7.68399e-06
22 29 100 24 0.000216514
23 29 100 24 0.512022
24 29 100 24 0.487754
3 30 100 24 5.72457e-07
18 30 100 24 0.177486
21 30 100 24 0.112574
24 30 100 24 0.709939
6 31 100 24 0.0001812
15 31 100 24 0.0034738
19 31 100 24 0.498208
22 31 100 24 0.498137
8 32 100 24 1.20105e-05
10 32 100 24 4.54848e-06
13 32 100 24 2.24452e-05
16 32 100 24 0.000190435
20 32 100 24 0.496533
21 32 100 24 0.000472521
23 32 100 24 0.502765
7 33 100 24 2.70966e-06
10 33 100 24 1.88637e-05
12 33 100 24 0.000181395
21 33 100 24 0.490546
24 33 100 24 0.509251
10 34 100 24 0.000672952
17 34 100 24 0.00747427
22 34 100 24 0.541987
23 34 100 24 0.449866
23 35 100 24 0.250001
24 35 100 24 0.749999
6 36 100 24 0.00031333
7 36 100 24 1.28053e-05
15 36 100 24 0.152776
24 36 100 24 0.846898
23 37 100 24 1
13 38 100 24 0.000117117
24 38 100 24 0.999883
6 40 100 24 0.99155
15 40 100 24 0.00845012
10 41 100 24 1
7 42 100 24 1
23 43 100 24 1
24 44 100 24 1
2 0 100 25 0.000299026
3 0 100 25 0.0274771
4 0 100 25 0.0921545
5 0 100 25 0.0274559
6 0 100 25 5.47792e-05
7 0 100 25 0.000748506
8 0 100 25 0.0996918
9 0 100 25 0.0436152
10 0 100 25 0.146626
11 0 100 25 0.0345807
12 0 100 25 0.105573
13 0 100 25 0.0822176
14 0 100 25 0.0758285
15 0 100 25 0.082144
16 0 100 25 0.00040295
17 0 100 25 0.101039
18 0 100 25 0.027255
19 0 100 25 0.0291868
20 0 100 25 8.65919e-05
21 0 100 25 0.0233787
22 0 100 25 3.9867e-05
23 0 100 25 0.000144455
1 1 100 25 1
2 2 100 25 0.98276
3 2 100 25 0.0172401
2 3 100 25 0.0161854
3 3 100 25 0.890096
4 3 100 25 0.074786
7 3 100 25 0.0160691
9 3 100 25 0.000440192
21 3 100 25 0.00242368
3 4 100 25 0.016983
4 4 100 25 0.830486
5 4 100 25 0.118633
8 4 100 25 0.0169488
10 4 100 25 0.0169488
4 5 100 25 0.0184533
5 5 100 25 0.817946
6 5 100 25 0.127245
9 5 100 25 0.0181779
11 5 100 25 0.0181779
1 6 100 25 0.0160983
5 6 100 25 0.0848231
6 6 100 25 0.746438
7 6 100 25 0.118708
10 6 100 25 0.0169646
12 6 100 25 0.0169646
17 6 100 25 3.65251e-06
3 7 100 25 7.59899e-07
6 7 100 25 0.0570348
7 7 100 25 0.779596
8 7 100 25 0.133187
9 7 100 25 0.0110976
11 7 100 25 2.91524e-06
12 7 100 25 4.21194e-07
13 7 100 25 0.0190222
15 7 100 25 5.86238e-05
4 8 100 25 0.0170764
6 8 100 25 0.0514142
7 8 100 25 0.102816
8 8 100 25 0.640201
9 8 100 25 0.154224
10 8 100 25 0.0171293
14 8 100 25 0.0171397
1 9 100 25 0.0124038
8 9 100 25 0.110621
9 9 100 25 0.607378
10 9 100 25 0.177398
11 9 100 25 0.0737536
12 9 100 25 3.03929e-06
15 9 100 25 0.0184385
16 9 100 25 2.11015e-06
21 9 100 25 1.88644e-06
2 10 100 25 0.017952
5 10 100 25 0.0182289
9 10 100 25 0.161824
10 10 100 25 0.492101
11 10 100 25 0.218749
12 10 100 25 0.0729158
16 10 100 25 0.0182289
5 11 100 25 5.06402e-06
6 11 100 25 0.0196413
7 11 100 25 0.0589246
10 11 100 25 0.176728
11 11 100 25 0.451735
12 11 100 25 0.194771
13 11 100 25 0.0785534
17 11 100 25 0.0196415
8 12 100 25 0.0564379
11 12 100 25 0.220729
12 12 100 25 0.415265
13 12 100 25 0.150452
14 12 100 25 0.131606
16 12 100 25 1.71746e-06
17 12 100 25 0.00670744
18 12 100 25 0.018801
6 13 100 25 0.0172054
9 13 100 25 0.0856538
11 13 100 25 0.0172054
12 13 100 25 0.208997
13 13 100 25 0.378477
14 13 100 25 0.120407
15 13 100 25 0.120437
16 13 100 25 0.0516161
7 14 100 25 0.0187766
10 14 100 25 0.0943921
12 14 100 25 0.0187738
13 14 100 25 0.206516
14 14 100 25 0.436251
15 14 100 25 0.150212
16 14 100 25 0.0750775
8 15 100 25 0.0178585
11 15 100 25 0.0714338
13 15 100 25 0.0535754
14 15 100 25 0.142848
15 15 100 25 0.446398
16 15 100 25 0.142842
17 15 100 25 0.0178926
18 15 100 25 0.0714338
20 15 100 25 0.0178585
22 15 100 25 0.0178584
11 16 100 25 0.00362123
12 16 100 25 0.0751779
13 16 100 25 0.0188038
14 16 100 25 0.0564116
15 16 100 25 0.0940099
16 16 100 25 0.526291
17 16 100 25 0.131627
19 16 100 25 0.0752538
20 16 100 25 0.0188038
3 17 100 25 0.0188754
13 17 100 25 0.094382
14 17 100 25 0.0188764
15 17 100 25 0.056629
16 17 100 25 0.0943739
17 17 100 25 0.414928
18 17 100 25 0.207637
20 17 100 25 0.075423
21 17 100 25 0.0188752
11 18 100 25 0.00390406
14 18 100 25 0.0810898
17 18 100 25 0.262903
18 18 100 25 0.347926
19 18 100 25 0.222997
21 18 100 25 0.0608159
22 18 100 25 0.020364
11 19 100 25 0.0120222
14 19 100 25 0.0195466
15 19 100 25 0.0977532
16 19 100 25 0.0586412
18 19 100 25 0.244976
19 19 100 25 0.293289
20 19 100 25 0.195551
22 19 100 25 0.0586669
23 19 100 25 0.0195533
1 20 100 25 0.0261351
10 20 100 25 1.43195e-06
15 20 100 25 0.0189807
16 20 100 25 0.0948929
17 20 100 25 0.0759229
18 20 100 25 0.0249794
19 20 100 25 0.227674
20 20 100 25 0.265698
21 20 100 25 0.189792
23 20 100 25 0.0569422
24 20 100 25 0.0189807
12 21 100 25 0.0201636
13 21 100 25 5.79792e-07
16 21 100 25 0.020201
17 21 100 25 0.100813
18 21 100 25 0.0604784
19 21 100 25 0.0794699
20 21 100 25 0.241953
21 21 100 25 0.221774
22 21 100 25 0.154329
23 21 100 25 0.0201636
24 21 100 25 0.0604907
25 21 100 25 0.0201636
13 22 100 25 0.0196487
17 22 100 25 0.0196487
18 22 100 25 0.117823
19 22 100 25 0.0785799
20 22 100 25 0.0786787
21 22 100 25 0.235772
22 22 100 25 0.233715
23 22 100 25 0.137539
24 22 100 25 0.0196487
25 22 100 25 0.0589462
13 23 100 25 1.52442e-06
14 23 100 25 0.0202236
18 23 100 25 0.0202806
19 23 100 25 0.101092
20 23 100 25 0.0808871
21 23 100 25 0.101117
22 23 100 25 0.29215
23 23 100 25 0.222457
24 23 100 25 0.141567
25 23 100 25 0.0202239
2 24 100 25 0.0548164
15 24 100 25 0.0182721
19 24 100 25 0.0365343
20 24 100 25 0.109629
21 24 100 25 0.0730885
22 24 100 25 0.073086
23 24 100 25 0.287426
24 24 100 25 0.219242
25 24 100 25 0.127905
3 25 100 25 0.0665352
16 25 100 25 0.0221784
20 25 100 25 0.0443568
21 25 100 25 0.192258
22 25 100 25 0.0536489
23 25 100 25 0.0887136
24 25 100 25 0.288347
25 25 100 25 0.243962
4 26 100 25 0.090909
17 26 100 25 0.030303
21 26 100 25 0.060606
22 26 100 25 0.242424
23 26 100 25 0.030303
24 26 100 25 0.151516
25 26 100 25 0.393939
5 27 100 25 7.06474e-06
6 27 100 25 2.20078e-07
9 27 100 25 1.00744e-05
14 27 100 25 2.54339e-07
18 27 100 25 0.0548884
21 27 100 25 0.0308223
22 27 100 25 0.239284
23 27 100 25 0.443132
24 27 100 25 0.0654746
25 27 100 25 0.166381
5 28 100 25 0.166645
6 28 100 25 4.01851e-07
9 28 100 25 4.10072e-07
10 28 100 25 2.5262e-07
15 28 100 25 2.89461e-07
17 28 100 25 2.97335e-07
19 28 100 25 0.0555838
21 28 100 25 3.45182e-06
22 28 100 25 0.0554408
23 28 100 25 0.222074
24 28 100 25 0.44467
25 28 100 25 0.0555803
6 29 100 25 0.166612
7 29 100 25 3.4319e-07
17 29 100 25 0.000139937
18 29 100 25 0.000887724
20 29 100 25 0.0557882
22 29 100 25 3.27337e-06
23 29 100 25 0.107114
24 29 100 25 0.223153
25 29 100 25 0.446302
7 30 100 25 0.321924
11 30 100 25 1.1322e-05
16 30 100 25 3.63707e-07
17 30 100 25 9.92751e-07
18 30 100 25 6.9221e-06
21 30 100 25 0.106997
23 30 100 25 0.0355204
24 30 100 25 0.1062
25 30 100 25 0.429339
5 31 100 25 6.83648e-07
7 31 100 25 3.53492e-07
8 31 100 25 0.400288
12 31 100 25 2.98022e-06
16 31 100 25 5.07659e-05
17 31 100 25 1.68165e-06
22 31 100 25 0.156914
24 31 100 25 0.285731
25 31 100 25 0.157011
6 32 100 25 3.71261e-07
9 32 100 25 0.500109
11 32 100 25 1.97977e-06
18 32 100 25 8.07746e-07
23 32 100 25 0.166121
25 32 100 25 0.333767
10 33 100 25 0.749968
24 33 100 25 0.250032
11 34 100 25 0.749989
25 34 100 25 0.250011
8 35 100 25 3.37508e-06
12 35 100 25 0.468975
17 35 100 25 2.95512e-06
25 35 100 25 0.531019
13 36 100 25 1
14 37 100 25 0.999988
16 37 100 25 1.23956e-05
15 38 100 25 1
14 39 100 25 1.24519e-05
16 39 100 25 0.999988
8 40 100 25 3.80008e-06
12 40 100 25 5.89598e-06
17 40 100 25 0.99999
18 41 100 25 1
19 42 100 25 1
20 43 100 25 0.999994
24 43 100 25 5.78411e-06
21 44 100 25 1
22 45 100 25 1
6 46 100 25 2.80032e-06
23 46 100 25 0.999997
20 47 100 25 6.29952e-06
24 47 100 25 0.999994
25 48 100 25 1
1 0 100 26 2.09304e-05
2 0 100 26 0.134636
3 0 100 26 0.0584348
4 0 100 26 0.133017
5 0 100 26 0.0550335
6 0 100 26 0.0781318
7 0 100 26 0.0419494
8 0 100 26 0.0194477
9 0 100 26 0.119402
10 0 100 26 0.0193022
11 0 100 26 0.0206879
12 0 100 26 0.0568789
13 0 100 26 0.000544254
14 0 100 26 0.000241068
15 0 100 26 0.0189083
16 0 100 26 0.0192934
17 0 100 26 0.000123063
18 0 100 26 0.0192449
19 0 100 26 0.000265195
20 0 100 26 0.0569661
21 0 100 26 0.055559
22 0 100 26 0.000117675
23 0 100 26 0.000187588
24 0 100 26 0.0191916
25 0 100 26 0.0724163
1 1 100 26 0.942827
2 1 100 26 4.45567e-07
3 1 100 26 0.0341709
5 1 100 26 0.0115006
7 1 100 26 0.0115006
1 2 100 26 0.0513319
2 2 100 26 0.782164
3 2 100 26 0.0513322
4 2 100 26 0.0384973
5 2 100 26 0.012833
6 2 100 26 0.0384989
7 2 100 26 0.012507
8 2 100 26 0.0127497
11 2 100 26 7.56937e-05
12 2 100 26 1.01646e-05
20 2 100 26 1.64891e-07
2 3 100 26 0.0945828
3 3 100 26 0.679937
4 3 100 26 0.0663079
5 3 100 26 0.0398218
6 3 100 26 0.0132739
7 3 100 26 0.0398218
8 3 100 26 0.0132482
9 3 100 26 0.0131865
11 3 100 26 0.0398197
16 3 100 26 1.92745e-07
1 4 100 26 0.0120495
2 4 100 26 0.0361484
3 4 100 26 0.144563
4 4 100 26 0.614477
5 4 100 26 0.0481667
6 4 100 26 0.0361484
7 4 100 26 0.0120495
8 4 100 26 0.0361502
9 4 100 26 5.64787e-07
10 4 100 26 0.0120495
12 4 100 26 0.0481979
2 5 100 26 0.0125681
3 5 100 26 0.0467067
4 5 100 26 0.0619679
5 5 100 26 0.668077
6 5 100 26 0.0495781
7 5 100 26 0.0743494
8 5 100 26 0.0123931
9 5 100 26 0.0495721
10 5 100 26 0.0123935
11 5 100 26 0.0123936
3 6 100 26 0.0127477
4 6 100 26 0.0911414
5 6 100 26 0.0260434
6 6 100 26 0.572876
7 6 100 26 0.101896
8 6 100 26 0.0781223
9 6 100 26 0.0130178
10 6 100 26 0.0781223
12 6 100 26 0.0130122
13 6 100 26 0.0130206
18 6 100 26 3.54974e-07
2 7 100 26 1.14634e-06
4 7 100 26 0.0136867
5 7 100 26 0.0969294
6 7 100 26 0.0273709
7 7 100 26 0.560977
8 7 100 26 0.136748
9 7 100 26 0.0821053
10 7 100 26 0.0136855
11 7 100 26 0.0411242
13 7 100 26 0.0136855
14 7 100 26 0.0136855
1 8 100 26 0.000267521
2 8 100 26 0.014456
5 8 100 26 0.0144553
6 8 100 26 0.11564
7 8 100 26 0.0578648
8 8 100 26 0.494618
9 8 100 26 0.187046
10 8 100 26 0.0433691
11 8 100 26 5.85562e-07
12 8 100 26 0.0433685
14 8 100 26 0.0144545
15 8 100 26 0.0144562
20 8 100 26 1.11204e-06
22 8 100 26 2.33504e-06
2 9 100 26 0.0239692
3 9 100 26 0.0132336
6 9 100 26 0.0132356
7 9 100 26 0.11908
8 9 100 26 0.0661762
9 9 100 26 0.380916
10 9 100 26 0.26462
11 9 100 26 0.0525913
13 9 100 26 0.0397067
15 9 100 26 0.0132356
16 9 100 26 0.0132356
3 10 100 26 0.0411137
4 10 100 26 0.0137058
7 10 100 26 0.0137103
8 10 100 26 0.109681
9 10 100 26 0.0685515
10 10 100 26 0.329025
11 10 100 26 0.27456
12 10 100 26 0.0411123
13 10 100 26 1.51801e-06
14 10 100 26 0.041131
15 10 100 26 0.0399872
16 10 100 26 0.0137103
17 10 100 26 0.0137103
2 11 100 26 7.05312e-05
3 11 100 26 9.55718e-07
4 11 100 26 0.0402921
5 11 100 26 0.0552793
8 11 100 26 0.0910138
9 11 100 26 0.107445
10 11 100 26 0.0332751
11 11 100 26 0.322322
12 11 100 26 0.282027
13 11 100 26 0.0402921
15 11 100 26 0.00112087
17 11 100 26 0.0134307
18 11 100 26 0.0134302
4 12 100 26 1.53905e-06
5 12 100 26 0.0374933
6 12 100 26 0.0500047
8 12 100 26 5.45305e-07
9 12 100 26 0.0874868
10 12 100 26 0.137513
11 12 100 26 0.0249898
12 12 100 26 0.287492
13 12 100 26 0.262514
14 12 100 26 0.0375036
16 12 100 26 0.0375035
17 12 100 26 0.0124998
18 12 100 26 0.0124962
19 12 100 26 0.0125011
6 13 100 26 0.0415483
7 13 100 26 0.0138556
10 13 100 26 0.124569
11 13 100 26 0.165059
12 13 100 26 0.0415659
13 13 100 26 0.253102
14 13 100 26 0.24938
15 13 100 26 0.0416422
17 13 100 26 0.0415668
19 13 100 26 0.0138556
20 13 100 26 0.0138556
24 13 100 26 3.50553e-07
2 14 100 26 0.0378218
7 14 100 26 0.0378213
8 14 100 26 0.0126071
10 14 100 26 0.0444129
11 14 100 26 0.0756608
12 14 100 26 0.13877
13 14 100 26 0.0595539
14 14 100 26 0.227753
15 14 100 26 0.226921
16 14 100 26 0.0504284
18 14 100 26 0.0378213
20 14 100 26 0.0126079
21 14 100 26 0.025213
23 14 100 26 0.0126071
25 14 100 26 4.60719e-07
3 15 100 26 0.0370712
8 15 100 26 0.0370712
9 15 100 26 0.0123571
12 15 100 26 0.0741423
13 15 100 26 0.135928
14 15 100 26 0.110344
15 15 100 26 0.222394
16 15 100 26 0.234765
17 15 100 26 0.0494291
19 15 100 26 0.0494272
21 15 100 26 0.0123571
22 15 100 26 0.0247141
4 16 100 26 0.0380348
6 16 100 26 0.0365941
9 16 100 26 0.0380348
10 16 100 26 0.0126783
13 16 100 26 0.114088
14 16 100 26 0.139406
15 16 100 26 0.0887456
16 16 100 26 0.177458
17 16 100 26 0.240858
18 16 100 26 0.0380333
19 16 100 26 3.06732e-07
20 16 100 26 0.050713
22 16 100 26 0.0126783
23 16 100 26 0.0126783
5 17 100 26 0.0389416
7 17 100 26 0.0389418
9 17 100 26 2.10705e-07
11 17 100 26 0.0649035
13 17 100 26 0.0389296
14 17 100 26 0.116828
15 17 100 26 0.130724
16 17 100 26 0.0778791
17 17 100 26 0.129529
18 17 100 26 0.246619
19 17 100 26 0.0389428
21 17 100 26 0.0389428
23 17 100 26 0.0129809
24 17 100 26 0.0258375
6 18 100 26 0.0384587
8 18 100 26 0.0384587
10 18 100 26 5.45031e-06
12 18 100 26 0.0513627
14 18 100 26 0.0384587
15 18 100 26 0.128178
16 18 100 26 0.140996
17 18 100 26 0.0771923
18 18 100 26 0.127961
19 18 100 26 0.243553
20 18 100 26 0.0384587
22 18 100 26 0.0384587
24 18 100 26 0.0128196
25 18 100 26 0.0256391
2 19 100 26 0.0127986
5 19 100 26 5.38054e-07
7 19 100 26 0.0130385
11 19 100 26 0.038224
12 19 100 26 4.00602e-06
13 19 100 26 0.0511726
15 19 100 26 0.0465847
16 19 100 26 0.153413
17 19 100 26 0.179101
18 19 100 26 0.0895495
19 19 100 26 0.115121
20 19 100 26 0.235114
21 19 100 26 0.000695374
23 19 100 26 0.0383794
25 19 100 26 0.0140116
26 19 100 26 0.0127931
2 20 100 26 0.0124615
3 20 100 26 0.0122447
6 20 100 26 0.0373839
7 20 100 26 0.0246832
13 20 100 26 0.0373844
14 20 100 26 0.0498344
15 20 100 26 0.00362773
16 20 100 26 0.0373848
17 20 100 26 0.161994
18 20 100 26 0.174424
19 20 100 26 0.0747689
20 20 100 26 0.112123
21 20 100 26 0.224301
24 20 100 26 0.0373844
3 21 100 26 0.0126546
8 21 100 26 0.0379716
11 21 100 26 1.64834e-07
14 21 100 26 0.0379716
15 21 100 26 0.0506288
16 21 100 26 0.0126554
17 21 100 26 0.037939
18 21 100 26 0.16469
19 21 100 26 0.189756
20 21 100 26 0.0506288
21 21 100 26 0.101256
22 21 100 26 0.2658
25 21 100 26 0.0380491
4 22 100 26 0.0120108
9 22 100 26 0.0360237
15 22 100 26 0.0360323
16 22 100 26 0.048043
17 22 100 26 0.0120108
18 22 100 26 0.0360323
19 22 100 26 0.168146
20 22 100 26 0.171431
21 22 100 26 0.0960833
22 22 100 26 0.0960819
23 22 100 26 0.228171
25 22 100 26 0.0118895
26 22 100 26 0.048043
5 23 100 26 0.013417
10 23 100 26 0.0402556
16 23 100 26 0.0402374
17 23 100 26 0.0536631
18 23 100 26 0.0134173
19 23 100 26 0.0402211
20 23 100 26 0.18786
21 23 100 26 0.187859
22 23 100 26 0.120756
23 23 100 26 0.0805953
24 23 100 26 0.2083
26 23 100 26 0.0134185
6 24 100 26 0.0139492
11 24 100 26 0.00252428
16 24 100 26 1.61575e-05
17 24 100 26 0.0418475
18 24 100 26 0.0557883
19 24 100 26 0.0139492
20 24 100 26 0.0467327
21 24 100 26 0.181339
22 24 100 26 0.195269
23 24 100 26 0.141703
24 24 100 26 0.097644
25 24 100 26 0.209237
11 25 100 26 0.0374721
12 25 100 26 1.43707e-06
18 25 100 26 0.0398613
19 25 100 26 0.053169
20 25 100 26 0.0132926
21 25 100 26 0.0664286
22 25 100 26 0.172762
23 25 100 26 0.223727
24 25 100 26 0.119631
25 25 100 26 0.0609741
26 25 100 26 0.212681
12 26 100 26 0.0765881
19 26 100 26 0.0575267
20 26 100 26 0.0766907
21 26 100 26 0.0195908
22 26 100 26 0.095878
23 26 100 26 0.249277
24 26 100 26 0.213486
25 26 100 26 0.115084
26 26 100 26 0.095878
13 27 100 26 0.0825516
20 27 100 26 0.061919
21 27 100 26 0.0825617
22 27 100 26 0.0206403
23 27 100 26 0.103189
24 27 100 26 0.330231
25 27 100 26 0.174424
26 27 100 26 0.144483
3 28 100 26 1.97997e-07
5 28 100 26 0.0364274
9 28 100 26 1.07662e-07
10 28 100 26 7.08125e-07
12 28 100 26 0.0230511
14 28 100 26 0.0873383
15 28 100 26 2.41403e-07
18 28 100 26 1.65106e-05
21 28 100 26 0.0691226
22 28 100 26 0.092212
23 28 100 26 0.0374228
24 28 100 26 0.121689
25 28 100 26 0.394392
26 28 100 26 0.138327
2 29 100 26 3.75382e-07
4 29 100 26 1.37815e-07
5 29 100 26 2.8195e-06
6 29 100 26 7.59291e-07
7 29 100 26 1.97488e-07
8 29 100 26 6.3741e-07
11 29 100 26 4.71232e-06
13 29 100 26 0.0177379
15 29 100 26 0.113954
22 29 100 26 0.0852006
23 29 100 26 0.108164
24 29 100 26 0.0284896
25 29 100 26 0.162144
26 29 100 26 0.4843
2 30 100 26 5.42697e-06
3 30 100 26 2.75279e-06
11 30 100 26 1.51644e-07
16 30 100 26 0.150336
17 30 100 26 1.02285e-07
18 30 100 26 4.87714e-07
23 30 100 26 0.137051
24 30 100 26 0.301527
25 30 100 26 0.0456293
26 30 100 26 0.365447
3 31 100 26 1.23593e-05
5 31 100 26 8.37418e-07
6 31 100 26 0.000106704
10 31 100 26 4.54632e-06
11 31 100 26 2.26322e-07
17 31 100 26 0.254396
23 31 100 26 1.27317e-06
24 31 100 26 0.323904
25 31 100 26 0.421573
10 32 100 26 4.78527e-06
14 32 100 26 2.32054e-06
17 32 100 26 1.16289e-06
18 32 100 26 0.363241
19 32 100 26 9.64244e-07
26 32 100 26 0.63675
4 33 100 26 1.88148e-07
12 33 100 26 8.39601e-05
19 33 100 26 0.467247
24 33 100 26 7.92624e-05
25 33 100 26 0.53259
11 34 100 26 9.37381e-06
12 34 100 26 5.60012e-07
16 34 100 26 2.92082e-06
20 34 100 26 0.499435
26 34 100 26 0.500552
3 35 100 26 2.12379e-06
10 35 100 26 1.39533e-05
16 35 100 26 5.04008e-07
21 35 100 26 0.999983
2 36 100 26 4.04949e-07
5 36 100 26 2.38085e-06
12 36 100 26 8.48644e-06
13 36 100 26 1.85724e-06
19 36 100 26 2.72234e-05
22 36 100 26 0.749385
26 36 100 26 0.250574
6 37 100 26 2.2098e-06
14 37 100 26 1.74912e-06
23 37 100 26 0.702122
25 37 100 26 0.297874
23 38 100 26 2.34233e-06
24 38 100 26 0.499999
26 38 100 26 0.499998
25 39 100 26 1
21 40 100 26 0.0002008
26 40 100 26 0.999799
25 42 100 26 1
26 43 100 26 1
26 44 100 26 1
2 0 100 27 0.0066084
3 0 100 27 0.000854393
4 0 100 27 0.000187416
5 0 100 27 0.000392559
6 0 100 27 0.0331105
7 0 100 27 0.000104051
8 0 100 27 0.0984936
9 0 100 27 0.131298
10 0 100 27 0.131409
11 0 100 27 0.000187291
12 0 100 27 0.032974
13 0 100 27 0.107437
14 0 100 27 0.0985082
15 0 100 27 0.054261
16 0 100 27 0.000284583
17 0 100 27 0.000295559
18 0 100 27 0.000381247
19 0 100 27 0.0313041
20 0 100 27 0.00570647
21 0 100 27 0.10129
22 0 100 27 0.000202154
23 0 100 27 0.0329255
24 0 100 27 0.000124882
25 0 100 27 0.131651
26 0 100 27 1.00456e-05
1 1 100 27 0.972988
3 1 100 27 0.0135058
5 1 100 27 0.0135058
1 2 100 27 0.0145995
2 2 100 27 0.759422
3 2 100 27 0.0355499
4 2 100 27 0.0476128
5 2 100 27 0.0833219
6 2 100 27 0.0357096
7 2 100 27 0.0118807
12 2 100 27 6.55619e-07
13 2 100 27 0.0119032
1 3 100 27 0.0104388
2 3 100 27 0.0043525
3 3 100 27 0.828105
5 3 100 27 0.0428393
6 3 100 27 0.042839
7 3 100 27 0.0428661
8 3 100 27 0.0142798
14 3 100 27 0.0142798
3 4 100 27 0.0436687
4 4 100 27 0.810646
5 4 100 27 0.0436332
6 4 100 27 0.0437254
7 4 100 27 0.043728
8 4 100 27 5.2209e-07
9 4 100 27 2.24931e-05
15 4 100 27 0.0145756
2 5 100 27 0.061007
4 5 100 27 0.0973192
5 5 100 27 0.719646
6 5 100 27 0.0457597
7 5 100 27 0.0457597
8 5 100 27 2.3166e-06
10 5 100 27 0.0152526
16 5 100 27 0.0152532
3 6 100 27 0.0627596
5 6 100 27 0.154007
6 6 100 27 0.673398
7 6 100 27 0.0470713
8 6 100 27 0.0470714
9 6 100 27 1.00777e-06
11 6 100 27 0.0156893
12 6 100 27 1.92782e-06
21 6 100 27 7.6245e-07
2 7 100 27 0.0142824
4 7 100 27 0.0519212
5 7 100 27 0.0142787
6 7 100 27 0.185652
7 7 100 27 0.585511
8 7 100 27 0.0428667
9 7 100 27 0.0428482
10 7 100 27 0.0483579
12 7 100 27 0.0142814
4 8 100 27 0.0440367
6 8 100 27 0.0155188
7 8 100 27 0.191622
8 8 100 27 0.601988
9 8 100 27 0.0440502
10 8 100 27 0.0440502
11 8 100 27 0.0440502
13 8 100 27 0.0146834
23 8 100 27 3.7298e-07
25 8 100 27 3.65307e-07
2 9 100 27 0.0102746
3 9 100 27 0.0147794
6 9 100 27 0.0150766
7 9 100 27 0.0147794
8 9 100 27 0.236469
9 9 100 27 0.59114
10 9 100 27 0.0442993
11 9 100 27 0.0443383
12 9 100 27 0.014064
