0 4 1.74059e-05
0 5 0.02424
0 6 1.19629e-06
0 7 0.000410026
0 8 4.94186e-05
0 9 0.0681492
0 11 0.0148153
0 14 0.00265008
0 18 0.215455
0 19 0.0129658
0 20 0.167234
0 24 0.00103717
0 25 0.00253498
0 28 0.00130345
0 29 0.0647903
0 36 0.0449164
0 37 0.00312764
0 43 0.00479571
0 50 8.31054e-07
0 53 0.0302785
0 55 0.000201224
0 77 6.23091e-05
0 80 0.0162598
0 81 6.33002e-07
0 88 0.000379215
0 103 0.056824
0 109 1.71752e-07
0 111 0.00313411
0 113 7.15323e-07
0 125 0.00053596
0 126 0.036374
0 136 0.00779031
0 138 0.0309718
0 143 2.68629e-05
0 144 0.00926164
0 145 0.00105854
0 147 0.0376023
0 157 0.00625925
0 162 0.00883156
0 165 0.000225117
0 166 0.00104884
0 167 0.00224232
0 169 7.32597e-07
0 171 0.00200387
0 174 5.63448e-07
0 176 1.37358e-07
0 177 0.00325211
0 179 1.89017e-06
0 191 0.000889043
0 208 1.48652e-05
0 221 0.0101658
0 222 0.00104933
0 225 8.99443e-06
0 227 0.00414343
0 236 2.9228e-07
0 247 4.04583e-07
0 255 0.0018008
0 256 1.00501e-07
0 260 8.57081e-05
0 273 0.0271971
0 286 0.000343984
0 322 6.77106e-07
0 378 0.0126796
0 447 1.37115e-06
0 452 3.39578e-05
0 458 0.00348252
0 484 0.000684216
0 500 1.18811e-07
0 501 0.00104823
0 519 1.12624e-06
0 547 1.04427e-06
0 551 0.0022045
0 597 4.37686e-06
0 602 0.00594126
0 613 3.27272e-05
0 635 1.57533e-07
0 708 9.25388e-06
0 723 2.10922e-05
0 748 0.000982995
0 749 0.00282088
0 760 2.81544e-05
0 763 0.00103954
0 791 2.62361e-06
0 794 5.82611e-07
0 864 5.11099e-07
0 865 5.09957e-05
0 894 7.82842e-07
0 908 0.00140679
0 919 0.00300369
0 925 0.00399714
0 984 1.38115e-07
0 1001 1.37091e-07
0 1049 0.00106032
0 1124 2.17383e-06
0 1127 1.01294e-07
0 1169 4.07132e-06
0 1212 0.000258626
0 1228 0.00218271
0 1271 0.00167294
0 1341 0.000110386
0 1482 0.000231356
0 1588 0.00301954
0 1695 0.00090152
0 1728 0.000223433
0 1768 0.000967867
0 1990 0.00311153
0 2058 3.24899e-05
0 2110 0.000217098
0 2226 0.00311736
0 2306 2.73392e-07
0 2310 0.00103558
0 2312 5.9692e-07
0 2322 0.00103482
0 2386 9.57315e-05
0 2437 1.77112e-07
0 2615 0.000536629
0 2642 1.40784e-06
0 2700 8.73931e-05
0 2768 1.7532e-07
0 2931 0.000432904
0 2957 8.00004e-06
0 3028 3.5829e-07
0 3098 8.61498e-05
0 3181 0.000512537
0 3195 0.000309991
0 3471 4.74975e-07
0 3613 0.000760489
0 3614 0.00103744
0 3669 4.13401e-06
0 3682 0.000974622
0 3786 0.000184761
0 3806 3.31496e-05
0 3835 1.44698e-06
0 3848 1.13891e-07
0 3897 5.05736e-05
0 4231 5.6671e-07
0 4253 0.00292351
0 4283 9.95955e-06
0 4334 6.75399e-06
0 4587 0.00123552
0 4659 1.96527e-07
0 4726 1.92431e-06
0 4963 0.00310666
0 5020 9.44213e-07
0 5171 0.000105582
2 11 1.73619e-05
2 20 2.93718e-07
2 104 4.09255e-07
2 158 0.0158173
2 325 0.936386
2 397 0.00951076
2 427 0.00954415
2 458 0.0125581
2 606 0.00316347
2 699 1.16597e-06
2 891 0.00949023
2 1730 0.000336902
2 1854 0.0031634
2 2210 1.06972e-05
3 2 1
4 7 1
5 3 0.923525
5 80 0.0437976
5 190 1.51205e-06
5 273 7.128e-05
5 378 0.0326044
6 4 0.374999
6 59 0.500001
6 2711 0.125
7 5 0.951437
7 9 0.0180394
7 18 1.94459e-07
7 109 6.79583e-07
7 125 0.00907891
7 267 0.00908085
7 676 0.000252617
7 954 0.00908085
7 1483 2.54793e-06
7 2409 0.00302691
8 6 0.888842
8 20 0.00320038
8 121 0.0249217
8 145 0.0248914
8 167 0.00830244
8 1042 0.0498417
9 7 0.395068
9 8 0.443083
9 2139 0.161849
10 5 0.00691275
10 9 0.971996
10 11 0.000216587
10 20 1.89181e-06
10 29 0.0006898
10 36 0.00316048
10 53 8.34751e-06
10 103 1.25572e-07
10 121 0.00330983
10 147 0.000211558
10 171 0.00724167
10 468 1.05412e-05
10 602 0.00623561
10 894 3.88442e-06
10 1341 2.0073e-07
11 10 0.894905
11 138 0.0337382
11 172 2.51572e-05
11 309 0.0242221
11 468 3.11558e-05
11 534 0.00807814
11 632 1.23043e-07
11 794 0.0333362
11 908 2.65748e-06
11 984 0.00566052
11 1454 1.26181e-07
11 4558 2.45423e-07
12 9 5.4699e-07
12 11 0.985041
12 77 8.50107e-06
12 121 0.00406582
12 378 0.00096451
12 484 0.003304
12 555 0.00330752
12 581 0.0033077
12 4849 1.85684e-07
13 12 1
14 13 1
15 8 1
16 14 1
17 15 0.750002
17 3079 0.249998
18 16 0.706783
18 28 0.293217
19 17 1
20 5 1.37427e-05
20 9 2.09525e-06
20 18 0.9938
20 19 0.000302648
20 25 0.000503383
20 36 0.00244772
20 74 7.64231e-06
20 80 4.71291e-06
20 126 1.51223e-05
20 136 1.61482e-07
20 144 0.000279015
20 147 0.000326261
20 157 1.35597e-07
20 273 2.27155e-05
20 277 1.16294e-07
20 978 2.97919e-05
20 1294 1.73512e-07
20 2058 1.11453e-07
20 2669 0.000367614
20 3195 0.000283833
20 3471 5.06923e-06
20 3897 0.000384301
20 4726 0.0012033
21 19 0.999982
21 20 7.64172e-07
21 36 4.19909e-07
21 165 1.69844e-05
22 5 3.1243e-07
22 9 8.23645e-07
22 11 1.96265e-05
22 20 0.994671
22 53 1.81374e-06
22 80 0.000550883
22 138 6.45223e-05
22 147 6.38264e-06
22 486 3.55318e-06
22 629 4.56074e-07
22 649 0.00153859
22 791 6.21133e-05
22 1507 1.3322e-07
22 1665 2.20175e-06
22 2058 1.40537e-06
22 5150 0.00307618
23 21 0.960447
23 2896 0.0395531
24 22 0.947369
24 882 0.0526314
25 23 1
26 24 0.999777
26 29 0.000222767
27 25 0.956989
27 1873 0.0322581
27 3150 0.0107527
28 26 0.833186
28 138 0.0337773
28 147 0.039693
28 227 0.0793249
28 826 0.0132276
28 1437 0.000227239
28 1769 0.000564275
29 27 0.428571
29 3148 0.571429
30 28 0.974359
30 172 0.0256412
31 9 0.00164147
31 29 0.988753
31 53 0.00304203
31 138 1.23853e-07
31 399 1.268e-07
31 486 6.46515e-06
31 954 0.000934715
31 1093 7.80382e-05
31 1124 0.00272442
31 1252 2.1617e-05
31 4696 0.00279804
32 30 1
33 31 0.875
33 618 0.125
34 32 1
35 33 1
36 18 1
37 34 1
38 35 1
39 9 6.36631e-07
39 18 1.75146e-06
39 36 0.993777
39 147 0.00150825
39 174 1.63926e-06
39 230 0.00215427
39 1294 0.00255653
40 37 0.982483
40 50 1.13777e-06
40 1169 0.0175159
40 1298 3.37866e-07
41 38 0.994844
41 167 0.00515334
41 191 2.97859e-06
42 39 1
43 40 0.961809
43 144 0.0381906
44 41 1
45 42 1
46 43 0.982607
46 103 0.017393
47 44 0.999998
47 126 2.01267e-06
48 6 3.79937e-06
48 45 0.862889
48 77 0.0455059
48 1048 0.0457314
48 1224 0.0457313
48 1770 0.000138321
49 46 1
50 47 1
51 48 1
52 49 0.750332
52 273 0.249668
53 20 0.00926393
53 50 0.828527
53 80 0.0290346
53 138 0.00969205
53 158 0.000179297
53 162 0.0876199
53 791 7.08474e-07
53 826 0.0290663
53 1049 3.00193e-05
53 2116 0.00658628
54 51 0.375001
54 1228 0.624999
55 9 0.496318
55 52 0.503682
56 3 8.27399e-07
56 9 9.65209e-06
56 29 0.00375801
56 53 0.983229
56 138 0.00253108
56 143 1.71455e-07
56 162 1.9503e-07
56 267 0.00388614
56 449 0.00159468
56 791 0.00372852
56 2262 0.00126131
57 54 1
58 5 0.0301765
58 20 3.23268e-05
58 29 0.000209759
58 55 0.910612
58 179 0.00982822
58 208 0.00982777
58 243 0.0294844
58 372 0.00982837
58 1234 2.72967e-07
58 3820 1.8692e-07
59 56 1
60 57 1
61 58 1
62 2 1
63 60 1
64 61 1
65 62 1
66 63 0.921053
66 1453 0.0789473
67 64 1
68 65 1
69 66 1
70 67 1
71 68 1
72 69 1
73 70 1
74 71 1
75 72 1
76 73 0.916667
76 3387 0.0833332
77 5 5.78424e-07
77 11 0.0165086
77 18 3.43084e-05
77 20 0.00944465
77 36 1.17073e-06
77 53 0.0282823
77 74 0.811563
77 125 0.0845546
77 174 0.00900596
77 230 3.62651e-07
77 392 0.0205775
77 500 2.12823e-05
77 684 2.34116e-07
77 723 0.0150068
77 980 3.85458e-07
77 1021 3.86414e-06
77 1035 0.00499476
78 75 1
79 76 1
80 322 3.19639e-07
80 452 1.34589e-06
80 484 0.965366
80 723 0.0207791
80 1437 0.00692639
80 3585 0.00692636
81 76 0.0242713
81 397 0.975729
82 150 1
83 76 0.164637
83 77 0.835363
84 5 0.000538626
84 29 0.0236095
84 77 0.941187
84 81 1.81869e-07
84 103 0.0171907
84 723 8.5039e-07
84 969 6.48482e-05
84 1365 0.0174088
85 78 1
86 20 7.1908e-05
86 25 0.0749923
86 79 0.849944
86 791 0.0749922
87 80 0.130416
87 932 0.826035
87 1526 7.97326e-05
87 1876 0.0434689
88 14 2.76517e-06
88 20 1.78104e-06
88 81 0.998985
88 166 5.90289e-05
88 551 1.04408e-06
88 1021 0.000950826
89 18 1
90 5 0.0446323
90 20 1.27486e-05
90 80 0.0471521
90 82 0.908203
91 83 1
92 84 1
93 85 1
94 86 1
95 87 1
96 88 0.98969
96 1728 5.95406e-07
96 4047 0.0103098
97 89 1
98 94 1
99 93 1
100 855 0.947371
100 2020 0.0526289
101 238 0.0909091
101 2508 0.909091
102 80 0.36636
102 90 0.506791
102 1909 0.000151028
102 3887 0.126698
103 91 1
104 92 1
105 95 1
106 96 1
107 97 1
108 98 1
109 99 1
110 100 1
111 101 1
112 80 1
113 9 0.0250031
113 11 0.0504185
113 18 8.39046e-07
113 20 0.0243805
113 121 0.891737
113 219 6.46576e-05
113 602 0.00839521
114 80 0.5005
114 102 0.4995
115 102 1
116 15 2.13853e-06
116 18 1.38318e-06
116 103 0.987367
116 121 0.0025485
116 126 8.86805e-06
116 273 0.00751995
116 681 0.00255182
117 104 1
117 1169 2.63093e-07
118 105 1
119 106 0.5
119 2936 0.5
120 107 1
121 108 1
122 3 0.000207392
122 20 2.2224e-05
122 29 2.20859e-05
122 80 0.98379
122 138 0.00904043
122 171 0.000108888
122 227 1.45239e-07
122 286 0.00522142
122 1021 1.31869e-06
122 2058 0.00158595
123 109 1
124 10 0.0151327
124 50 0.0694565
124 110 0.867254
124 126 7.32196e-05
124 190 0.0480837
125 80 0.110335
125 111 0.662109
125 162 0.227556
126 81 0.0493868
126 112 0.740825
126 165 0.0543589
126 378 0.155429
127 113 0.997659
127 4726 0.0023407
128 114 1
129 115 1
130 116 1
131 126 0.0157223
131 500 0.984278
132 2003 0.854377
132 3682 0.00269417
132 4272 0.142929
133 4677 1
134 117 1
135 118 1
136 119 1
137 120 1
138 1715 1
139 136 0.333263
139 2942 0.666737
140 13 1
141 121 0.000279254
141 122 0.999721
142 123 1
143 124 1
144 125 0.9863
144 1010 0.0136997
145 20 1.40687e-05
145 126 0.906755
145 145 0.0125654
145 147 0.0166243
145 273 2.04123e-06
145 500 0.00419118
145 715 0.0167647
145 860 0.0125735
145 1873 0.0125735
145 2147 1.58431e-07
145 2689 0.00116745
145 3723 3.56746e-06
145 3753 0.00419118
145 4506 0.0125735
146 127 1
147 128 1
148 129 1
149 130 1
150 131 1
151 202 0.0535718
151 325 0.035714
151 370 0.0535715
151 458 0.857143
152 132 1
153 133 1
154 134 0.888923
154 147 0.111077
155 135 1
156 136 1
157 137 1
158 10 1.22979e-07
158 80 0.0251015
158 138 0.922058
158 162 1.28407e-06
158 171 0.0271083
158 273 1.37354e-06
158 378 0.0105268
158 559 1.46965e-05
158 794 0.0105471
158 894 0.00111336
158 1702 1.00365e-05
158 1878 0.00351571
158 4963 1.59863e-06
159 81 0.499999
159 139 0.500001
160 140 0.934636
160 614 0.049023
160 2235 0.016341
161 141 1
162 142 0.744867
162 273 0.00684421
162 295 0.248289
163 143 0.963738
163 147 0.0276408
163 602 0.00861483
163 1541 6.02192e-06
164 144 0.989189
164 247 3.27705e-07
164 1010 2.02172e-07
164 1211 0.00540526
164 1973 0.00540526
165 145 0.93671
165 219 0.0054665
165 763 0.0115623
165 3195 3.28118e-07
165 3196 0.0115652
165 4658 0.0346956
166 146 0.353166
166 243 0.470888
166 791 0.175947
167 8 0.00478678
167 11 3.83355e-07
167 50 4.18742e-07
167 147 0.972874
167 157 4.49388e-06
167 221 0.00470011
167 484 0.0143619
167 894 0.00327146
167 2700 4.46295e-07
168 148 1
169 149 1
170 151 0.375
170 1825 0.25
170 4467 0.375
171 3 0.0394055
171 53 0.0404474
171 676 0.866018
171 748 0.0405879
171 749 0.0135219
171 908 1.81113e-05
171 1341 1.64627e-06
172 27 0.2
172 152 0.8
173 144 0.0302594
173 153 0.878829
173 500 0.090912
174 154 0.800006
174 221 0.199994
175 155 1
176 140 0.737136
176 1346 0.262864
177 156 1
178 73 4.63669e-06
178 126 0.0570792
178 157 0.885783
178 3232 0.0428458
178 3468 0.014287
179 158 0.062099
179 325 0.0155247
179 397 0.798236
179 458 0.0154674
179 730 0.0465741
179 1002 0.0465742
179 3527 0.0155247
180 162 0.0146855
180 165 0.955252
180 249 0.0220444
180 760 2.53496e-06
180 1507 0.00734338
180 4253 0.000671777
181 2628 1
182 1009 1
183 159 1
184 160 1
185 80 0.00947414
185 81 0.0310921
185 125 0.0284191
185 166 0.931015
186 161 1
187 136 0.999428
187 919 0.000571711
188 162 1
189 163 1
190 164 0.882389
190 1132 0.0588234
190 1541 0.0587877
191 11 0.0439651
191 29 1.44953e-05
191 126 0.0104257
191 167 0.923597
191 741 0.0109953
191 1550 0.0109953
191 1728 7.4493e-06
192 168 1
193 103 0.0730731
193 169 0.926927
194 170 1
195 140 0.130459
195 158 0.739266
195 325 0.0869724
195 597 0.043303
196 172 0.375004
196 635 0.375004
196 877 0.124991
196 3690 0.125001
197 173 1
198 36 0.0422224
198 174 0.913502
198 332 0.0428204
198 378 0.00145469
199 175 0.75
199 796 0.25
200 176 0.5
200 1102 0.125
200 1110 0.375
201 177 0.914285
201 271 0.0857146
202 178 1
203 9 0.00497185
203 138 0.00308959
203 179 0.986768
203 233 1.52843e-05
203 954 0.0051552
204 180 0.66668
204 378 0.33332
205 181 1
206 3 0.749991
206 2151 0.250009
207 9 7.14541e-05
207 53 0.0836553
207 167 0.000186552
207 267 0.0654332
207 449 0.828821
207 634 2.17883e-05
207 706 0.021811
208 190 0.999909
208 191 9.05467e-05
209 5 0.0150771
209 9 0.000346825
209 18 0.000113916
209 36 0.0245209
209 103 1.98167e-07
209 126 7.60238e-07
209 191 0.0148601
209 219 0.912494
209 393 0.014882
209 500 2.21852e-07
209 1093 1.09839e-07
209 1212 1.0567e-06
209 1665 0.00283429
209 3028 5.59815e-07
209 4436 0.0148675
210 182 1
211 183 0.928102
211 925 0.00050534
211 1045 0.0713925
212 184 0.875
212 1124 0.125
213 185 0.985518
213 925 2.61413e-05
213 1990 0.0144555
214 186 1
215 187 1
216 167 0.000687249
216 188 0.999313
217 103 0.0595227
217 126 0.0146093
217 162 5.1201e-05
217 189 0.925817
218 53 0.38674
218 167 0.0916393
218 253 0.26081
218 2153 0.260811
219 192 1
220 193 0.75
220 1566 0.25
221 194 1
222 195 1
223 196 1
224 197 1
225 198 1
226 199 1
227 200 1
228 201 1
229 201 0.410604
229 2136 0.589396
230 202 0.988353
230 1039 0.0116276
230 3133 1.8923e-05
231 203 1
232 204 1
233 74 0.122176
233 205 0.877824
234 206 0.668401
234 602 0.331599
235 207 0.000110101
235 954 0.99989
236 207 1
237 60 0.0175458
237 169 0.0526376
237 208 0.894838
237 265 0.0175459
237 1884 0.0174323
238 20 6.25488e-05
238 205 0.100009
238 263 0.608478
238 273 0.1216
238 485 0.0730178
238 949 0.0238153
238 4267 0.0730171
239 209 1
240 210 1
241 211 1
242 144 0.499878
242 212 0.499971
242 1097 0.000151663
243 213 1
244 214 1
245 215 1
246 216 1
247 217 0.428571
247 1608 0.571429
248 218 1
249 28 0.0368797
249 36 0.45214
249 113 0.0353813
249 219 0.0889897
249 286 0.0325851
249 717 3.92311e-06
249 1959 0.35402
250 9 0.0171802
250 20 0.00559091
250 190 0.959802
250 219 3.1246e-05
250 500 0.0173946
250 2787 6.53382e-07
251 220 1
252 221 1
253 3 0.160032
253 147 1.8068e-07
253 190 0.127869
253 237 1.65055e-05
253 273 0.000326909
253 378 0.000670095
253 501 0.612549
253 826 0.0160189
253 922 0.0480567
253 1049 0.0160184
253 1545 0.018423
253 2864 1.99338e-05
254 222 0.968925
254 3786 0.0310749
255 223 1
256 224 1
257 225 0.95082
257 794 1.03731e-06
257 4659 0.0491787
258 18 0.0079814
258 226 0.99082
258 1851 0.00119885
259 227 0.984565
259 370 5.17217e-05
259 716 0.0153835
260 228 1
261 229 1
262 36 0.0215622
262 230 0.978438
263 208 0.0384605
263 233 0.961539
264 2375 1
265 231 1
266 232 1
267 234 1
268 235 1
269 236 0.209896
269 561 0.790104
270 236 0.00302109
270 1915 0.996979
271 237 0.936872
271 336 3.63335e-05
271 350 9.22179e-07
271 1829 0.0482198
271 4332 0.0148715
272 238 1
273 9 0.140872
273 81 0.0227272
273 676 0.0227264
273 1025 0.813637
273 1132 9.55158e-07
273 3614 3.61146e-05
274 239 1
275 60 0.176471
275 240 0.647059
275 448 0.176471
276 208 2.21423e-06
276 241 0.89655
276 312 0.103448
277 242 1
278 243 0.947586
278 1021 0.0524142
279 244 1
280 245 1
281 246 1
282 247 1
283 248 0.987929
283 605 0.0120712
284 249 1
285 250 0.818041
285 1545 0.000172221
285 2153 0.0908933
285 4842 0.0908934
286 251 1
287 252 1
288 244 0.0909091
288 253 0.909091
289 254 1
290 255 0.999986
290 1483 1.4177e-05
291 14 0.00155116
291 17 0.101015
291 28 0.0336721
291 172 0.673453
291 206 0.101018
291 448 0.0567033
291 551 0.000327574
291 1769 0.0322362
291 4231 2.41563e-05
292 448 0.058973
292 902 0.896217
292 2626 0.0448105
293 256 1
294 257 1
295 258 0.600038
295 4023 0.200012
295 4378 0.19995
296 259 1
297 169 0.016373
297 260 0.493892
297 286 0.489735
298 261 1
299 262 1
300 264 1
301 265 0.956476
301 892 0.0435244
302 266 1
303 201 1
304 9 0.00323936
304 29 0.0245743
304 267 0.970447
304 1665 0.00173922
305 171 0.200465
305 268 0.602237
305 1437 0.197297
306 267 1
307 238 1
308 268 1
309 162 0.499997
309 269 0.500003
310 270 1
311 272 1
312 274 1
313 275 1
314 276 1
315 277 0.810212
315 378 0.173591
315 2058 0.0161969
316 236 0.939317
316 1271 0.0179872
316 4851 0.0426959
317 278 1
318 279 1
319 280 1
320 281 1
321 5 0.0312624
321 282 0.874989
321 5150 0.0937486
322 283 1
323 179 1.17526e-05
323 260 1.5809e-05
323 284 0.999972
324 169 0.245896
324 179 0.254308
324 260 0.245351
324 285 0.254445
325 287 0.75
325 1850 0.25
326 288 1
327 289 1
328 189 1
329 1684 1
330 290 1
331 290 0.8866
331 2597 0.1134
332 291 1
333 292 1
334 293 1
335 294 1
336 18 3.42063e-06
336 295 0.966678
336 602 0.000265379
336 1898 0.0330532
337 296 1
338 297 1
339 298 1
340 299 1
341 300 0.75
341 2724 0.25
342 301 1
343 202 0.5
343 4619 0.5
344 302 1
345 392 0.999997
345 538 2.93701e-07
345 1049 2.82699e-06
346 303 1
347 304 1
348 305 1
349 306 1
350 307 1
351 308 1
352 309 1
353 310 0.60001
353 738 0.200003
353 2374 0.199986
354 311 1
355 158 0.5
355 313 0.5
356 314 1
357 315 1
358 316 1
359 317 1
360 318 1
361 319 1
362 320 1
363 321 1
364 53 0.0432552
364 166 0.10218
364 322 0.854565
365 323 1
366 138 1
367 136 0.000204591
367 3487 0.999795
368 324 1
369 326 0.875
369 1949 0.125
370 327 1
371 328 1
372 6 0.0776177
372 109 0.0776202
372 255 0.025873
372 329 0.776269
372 908 0.0419379
372 1341 1.24812e-06
372 2262 0.00068052
373 330 1
374 331 1
375 60 0.0344827
375 332 0.965517
376 333 1
377 334 1
378 335 1
379 336 1
380 337 0.13022
380 1230 0.86978
381 337 0.677596
381 3466 0.322404
382 28 2.17301e-05
382 336 0.999978
383 338 1
384 3 0.306428
384 136 0.591429
384 1295 0.102143
385 55 7.30813e-06
385 339 0.999993
386 340 1
387 295 0.230769
387 341 0.769231
388 145 3.01865e-07
388 275 0.0638295
388 342 0.85106
388 392 0.0851101
389 343 1
390 344 1
391 345 1
392 346 0.714286
392 606 0.214286
392 2416 0.0714286
393 347 1
394 348 1
395 349 1
396 80 0.0321217
396 350 0.967878
397 324 1
398 10 0.00029727
398 11 4.86929e-07
398 126 3.29742e-06
398 138 0.0192235
398 171 4.49023e-07
398 222 4.39547e-07
398 378 0.975626
398 594 0.00484082
398 602 6.97944e-06
398 883 4.15205e-07
398 1829 3.58708e-07
399 267 1
400 351 1
401 352 1
402 353 1
403 354 1
404 355 1
405 356 1
406 357 1
407 358 1
408 359 1
409 360 1
410 361 1
411 921 0.115385
411 2856 0.884615
412 7 1
413 369 0.00345339
413 880 0.996547
414 881 1
415 362 1
416 109 3.47857e-06
416 140 0.0928225
416 181 0.0928226
416 325 0.123764
416 363 0.680699
416 4299 0.00988839
417 364 1
418 136 1
419 4053 1
420 365 1
421 366 1
422 367 1
423 368 1
424 369 1
425 144 3.03741e-05
425 370 0.950791
425 1896 0.0163929
425 2439 0.0163929
425 3490 0.0163929
426 371 1
427 11 0.000384038
427 144 0.00777274
427 372 0.984051
427 1751 0.00779176
428 144 0.000500676
428 2970 0.999499
429 373 1
430 374 1
431 80 0.0992228
431 136 0.0562953
431 144 0.168143
431 375 0.676339
432 376 1
433 121 1
434 377 1
435 379 1
436 380 1
437 381 1
438 382 1
439 331 0.5
439 383 0.5
440 322 0.069159
440 384 0.930841
441 273 0.3333
441 4100 0.6667
442 385 1
443 386 1
444 387 1
445 388 1
446 389 1
447 390 1
448 391 1
449 393 0.923077
449 2663 0.076923
450 394 1
451 395 1
452 396 1
453 9 0.577342
453 1212 0.422658
454 398 1
455 399 1
456 423 1
457 400 1
458 401 1
459 402 1
460 403 1
461 404 1
462 405 1
463 406 1
464 29 0.0208692
464 407 0.979131
465 408 1
466 409 1
467 410 1
468 206 0.333333
468 411 0.666667
469 29 0.0926519
469 157 0.116968
469 412 0.79038
470 413 1
471 414 1
472 3 0.1875
472 81 0.0624999
472 415 0.75
473 416 1
474 417 1
475 418 1
476 1557 1
477 419 1
478 420 1
479 421 1
480 422 1
481 424 1
482 420 0.499999
482 425 0.500001
483 55 0.5
483 2239 0.5
484 426 1
485 221 0.00324392
485 427 0.947707
485 1196 0.024483
485 2309 0.024483
485 2310 8.34427e-05
486 378 0.151633
486 428 0.76378
486 1482 0.0370947
486 1483 0.0474918
487 80 0.0857812
487 429 0.831659
487 4299 0.0825597
488 430 1
489 431 1
490 432 1
491 433 1
492 483 1
493 433 1
494 103 1.90576e-05
494 1563 0.999981
495 138 0.090787
495 230 0.000226811
495 794 0.81809
495 932 0.0681721
495 1383 0.0227241
496 919 0.0642976
496 1526 0.935702
497 434 0.999782
497 2439 0.000218323
498 435 1
499 436 1
500 437 1
501 438 1
502 439 1
503 53 0.11425
503 55 0.085717
503 706 0.77146
503 1365 0.0285726
504 444 1
505 1034 1
506 738 1
507 440 1
508 441 1
509 442 1
510 443 1
511 445 1
512 446 1
513 447 1
514 448 0.5
514 1694 0.5
515 449 1
516 29 6.96497e-05
516 954 0.170596
516 1565 0.810379
516 1992 0.018955
517 450 1
518 221 0.332152
518 451 0.333935
518 452 0.333912
519 190 1
520 453 1
521 454 1
522 455 1
523 456 1
524 457 1
525 392 0.0526316
525 459 0.894737
525 829 0.0526314
526 3 0.374947
526 460 0.500036
526 500 0.125009
526 4956 8.42693e-06
527 461 0.250002
527 527 0.0833338
527 1106 0.666665
528 462 1
529 463 0.895382
529 811 0.104618
530 464 1
531 273 0.981674
531 2826 0.0183261
532 465 1
533 466 1
534 467 1
535 138 0.330563
535 468 0.333968
535 864 0.335469
536 469 1
537 230 0.230769
537 2603 0.769231
538 470 0.8
538 4748 0.2
539 471 1
540 81 0.661537
540 4960 0.338463
541 472 1
542 473 0.99999
542 888 9.53085e-06
543 474 1
544 475 1
545 476 1
546 477 0.875
546 2902 0.125
547 478 1
548 479 1
549 922 0.909091
549 1104 0.0909091
550 29 1
551 480 1
552 481 0.833333
552 870 0.166667
553 482 1
554 485 1
555 147 2.86192e-05
555 392 0.00116487
555 486 0.267012
555 2177 0.731794
556 487 1
557 488 1
558 489 1
559 490 1
560 217 0.0533211
560 491 0.946679
561 217 0.485511
561 492 0.514489
562 486 0.628119
562 1040 0.371881
563 397 0.164562
563 493 0.822811
563 2669 0.0126273
564 494 1
565 495 1
566 496 1
567 497 1
568 498 1
569 499 1
570 11 0.187052
570 501 0.187602
570 610 0.625346
571 500 1
572 502 1
573 503 1
574 506 0.75
574 1934 0.25
575 171 0.0107701
575 507 0.98923
576 171 0.494384
576 508 0.505616
577 509 1
578 510 1
579 511 1
580 512 1
581 513 1
582 45 0.0891315
582 53 0.277194
582 1055 0.59407
582 2448 0.0396047
583 505 0.75
583 514 0.25
584 88 0.115347
584 378 0.0384201
584 708 0.692374
584 809 0.0384647
584 1104 0.115394
585 221 0.42844
585 533 0.42867
585 969 0.14289
586 171 1
587 10 0.250005
587 80 0.0833171
587 143 0.250004
587 342 0.0833349
587 1994 0.16667
587 2526 0.16667
588 325 0.299999
588 3735 0.700001
589 504 1
590 514 1
591 458 1
592 515 1
593 516 1
594 81 1
595 687 1
596 517 1
597 518 1
598 519 0.704122
598 865 0.144984
598 4909 0.150895
599 520 1
600 521 1
601 522 1
602 523 1
603 406 0.660245
603 922 0.339755
604 165 0.166561
604 273 0.000154798
604 322 0.166656
604 532 0.666628
605 524 1
606 525 1
607 526 1
608 167 0.0961265
608 527 0.903873
609 528 1
610 529 1
611 530 1
612 141 1
613 165 0.200075
613 493 0.599944
613 1862 0.199981
614 531 1
615 19 0.147875
615 400 0.51193
615 2246 0.340195
616 9 0.00077188
616 122 0.881899
616 4479 0.117329
617 18 2.35331e-07
617 138 4.11535e-05
617 171 0.999454
617 4558 0.000504511
618 534 1
619 535 1
620 536 1
621 506 1
622 537 1
623 538 1
624 539 1
625 539 1
626 876 1
627 3206 1
628 540 1
629 541 1
630 542 1
631 543 1
632 544 1
633 545 1
634 546 1
635 18 0.00746808
635 88 5.05793e-07
635 144 3.32396e-07
635 547 0.0186039
635 640 0.973926
635 954 1.0355e-06
636 548 1
637 993 1
638 28 0.5
638 4643 0.5
639 549 1
640 378 0.0833255
640 399 0.916674
641 295 0.076919
641 550 0.923081
642 551 0.996854
642 997 0.00314603
643 552 0.862752
643 1730 0.137248
644 1737 1
645 1916 1
646 548 1
647 553 1
648 554 1
649 331 0.749974
649 555 3.53274e-05
649 3744 0.249991
650 325 0.230769
650 568 0.769231
651 136 1
652 556 1
653 557 1
654 103 0.0004428
654 558 0.187417
654 608 0.249889
654 721 0.187417
654 1104 0.187417
654 4093 0.187417
655 10 0.0908075
655 171 0.23398
655 1479 0.675212
656 559 0.499997
656 560 0.500003
657 562 1
658 563 1
659 564 1
660 565 1
661 566 1
662 548 1
663 3 0.47269
663 11 0.077323
663 50 0.0536146
663 125 0.00098078
663 378 0.0792597
663 501 0.0788035
663 757 0.236417
663 2386 0.000911567
664 80 1
665 567 1
666 2386 1
667 569 1
668 570 1
669 571 1
670 572 1
671 573 1
672 574 1
673 575 1
674 576 0.727273
674 4873 0.272727
675 577 1
676 578 1
677 74 0.42858
677 169 0.428559
677 1565 0.142862
678 219 1
679 578 1
680 578 1
681 579 1
682 580 1
683 157 0.333321
683 430 0.333339
683 4690 0.333339
684 583 1
685 584 1
686 582 1
687 585 0.375
687 771 0.375
687 2263 0.125
687 3450 0.125
688 586 1
689 587 1
690 588 1
691 589 1
692 590 1
693 591 1
694 592 1
695 593 0.081499
695 4078 0.918501
696 593 0.732177
696 1901 0.267823
697 279 5.23414e-07
697 594 0.948275
697 729 0.0517241
698 595 1
699 596 1
700 597 1
701 19 0.000220319
701 598 0.99978
702 599 0.731872
702 1770 0.0906539
702 2249 0.0990778
702 2991 0.0783928
702 3272 3.04951e-06
703 600 1
704 601 1
705 18 2.96672e-07
705 171 2.27477e-05
705 378 0.0280446
705 468 3.78875e-05
705 602 0.930481
705 908 0.00897849
705 1021 0.00547875
705 2043 0.026956
706 598 0.308671
706 603 0.411569
706 605 0.27976
707 484 0.111202
707 604 0.667441
707 994 0.11124
707 3669 0.110117
708 218 0.946683
708 378 0.0399838
708 1005 0.0133336
709 448 0.918922
709 598 1.48972e-06
709 4849 0.0810768
710 158 0.00235323
710 370 0.166274
710 606 0.775948
710 1751 0.0554248
711 607 1
712 608 1
713 609 0.75
713 987 0.25
714 611 0.965517
714 741 0.0344828
715 612 1
716 613 1
717 103 0.333352
717 611 0.111127
717 614 0.555521
718 612 0.143482
718 613 0.138963
718 614 0.143625
718 615 0.573929
719 616 1
720 617 1
721 452 0.945466
721 618 0.0545342
722 619 0.5
722 756 0.5
723 620 1
724 618 1
725 621 1
726 370 0.0107283
726 622 0.989272
727 623 1
728 624 1
729 625 1
730 626 1
731 627 1
732 5 0.769485
732 239 0.230515
733 628 1
734 629 1
735 630 1
736 631 1
737 392 0.256338
737 2374 0.743662
738 632 0.9
738 1383 0.1
739 633 1
740 144 0.00400416
740 190 0.142285
740 634 0.853711
741 249 0.272727
741 651 0.454545
741 1399 0.272727
742 636 1
743 637 1
744 638 1
745 639 1
746 641 1
747 642 1
748 643 1
749 644 0.937504
749 1449 0.0624959
750 147 0.333285
750 4196 0.666715
751 645 1
752 273 0.249974
752 646 0.750026
753 647 1
754 648 0.333331
754 1495 5.72056e-06
754 4267 0.666663
755 649 1
756 650 1
757 652 1
758 2621 0.355749
758 4587 0.644251
759 652 1
760 652 1
761 652 1
762 652 1
763 652 1
764 652 0.691045
764 653 0.308955
765 3481 1
766 136 0.799997
766 2059 0.200003
767 653 1
768 654 1
769 655 0.956528
769 983 0.0434715
770 656 1
771 657 1
772 658 1
773 659 1
774 500 0.333333
774 660 0.333333
774 4162 0.333333
775 661 1
776 662 1
777 663 1
778 664 1
779 665 1
780 666 1
781 667 1
782 668 1
783 669 1
784 28 0.0819402
784 670 0.753663
784 978 0.0387865
784 4693 0.12561
785 218 0.492202
785 602 0.015568
785 671 0.49223
786 672 1
787 673 1
788 3 0.150416
788 674 0.69966
788 5145 0.149924
789 675 1
790 458 0.0908787
790 677 0.787905
790 2465 0.030304
790 4479 0.0909121
791 678 1
792 679 1
793 143 0.499975
793 680 0.500025
794 681 1
795 682 1
796 683 1
797 684 1
798 602 0.126358
798 671 0.873642
799 103 2.2637e-05
799 685 0.999977
800 686 1
801 36 5.20123e-05
801 687 0.999948
802 688 1
803 689 1
804 55 0.299999
804 690 0.3
804 691 0.400001
805 692 1
806 693 1
807 694 1
808 695 1
809 696 1
810 697 1
811 698 1
812 202 0.0566037
812 699 0.867924
812 716 0.0188679
812 849 4.34256e-07
812 891 0.0566038
813 700 1
814 4749 1
815 250 1
816 165 0.749998
816 1327 0.250002
817 701 1
818 10 0.283713
818 702 0.716287
819 703 1
820 704 1
821 705 0.90927
821 4334 0.0907296
822 397 1
823 171 1
824 10 1
825 707 1
826 10 0.640709
826 707 0.359291
827 19 2.62735e-05
827 742 0.999974
828 10 0.68069
828 707 0.31931
829 707 1
830 709 1
831 710 1
832 710 0.55938
832 711 0.44062
833 711 1
834 712 1
835 713 1
836 714 1
837 715 1
838 716 0.8
838 857 0.2
839 37 1.62044e-06
839 74 0.00265088
839 717 0.970377
839 1565 0.0269568
839 3232 1.35774e-05
840 718 0.727273
840 4120 0.272727
841 18 0.00105883
841 602 0.000518186
841 708 0.298917
841 719 0.299788
841 744 0.299788
841 2280 0.0999294
842 397 0.187471
842 720 0.562538
842 2223 0.0624979
842 4515 0.187494
843 24 0.249959
843 721 0.749883
843 968 0.000157142
844 722 1
845 43 8.51495e-05
845 723 0.999904
845 1298 1.0741e-05
846 724 0.727293
846 2969 0.272707
847 725 1
848 11 0.0322978
848 36 0.000323404
848 147 0.0321483
848 894 0.934392
848 1021 0.000838068
849 726 1
850 727 1
851 728 1
852 202 0.0263158
852 730 0.973684
853 731 1
854 286 1
855 732 1
856 202 0.085699
856 325 0.0285664
856 447 0.00078951
856 733 0.799858
856 2312 0.0847684
856 4145 0.000318951
857 729 1
858 734 1
859 735 1
860 384 1
861 736 1
862 141 0.428571
862 737 0.571429
863 738 1
864 739 0.951361
864 1084 0.0486392
865 740 1
866 741 1
867 743 0.974417
867 2642 0.0255833
868 745 1
869 746 1
870 747 0.5
870 4226 0.5
871 327 1
872 11 0.000361688
872 227 0.000587871
872 749 0.904639
872 883 0.0944114
873 750 1
874 751 1
875 10 0.166667
875 534 0.166667
875 752 0.666667
876 748 1
877 753 1
878 125 0.428229
878 754 0.571771
879 754 1
880 755 1
881 598 0.125
881 756 0.875
882 81 0.047619
882 230 0.142857
882 758 0.809524
883 759 1
884 190 0.0454287
884 760 0.818204
884 2603 0.136367
885 761 1
886 762 1
887 77 0.250156
887 763 0.499844
887 764 0.25
888 765 1
889 77 0.494554
889 763 0.000291457
889 766 0.505154
890 767 1
891 768 0.75
891 1052 0.25
892 769 1
893 770 1
894 771 1
895 772 1
896 773 1
897 53 0.0230396
897 687 0.0233371
897 774 0.850099
897 1990 0.0700113
897 3180 0.023337
897 3181 0.0101756
898 775 1
899 776 1
900 777 1
901 778 1
902 779 1
903 778 0.441625
903 779 0.558375
904 779 1
905 1833 1
906 77 0.0763908
906 162 0.0760464
906 376 0.0763973
906 708 0.0763973
906 1035 0.687576
906 1588 0.00719199
907 125 0.173934
907 2386 0.200982
907 5091 0.625085
908 779 1
909 325 0.0909091
909 780 0.272727
909 904 0.636364
910 781 0.982143
910 1839 0.0178571
911 782 1
912 18 0.508612
912 36 0.491388
913 783 1
914 784 1
915 785 1
916 786 1
917 4 0.0343905
917 3286 0.965609
918 4 1
919 787 1
920 788 1
921 534 0.25
921 789 0.75
922 790 1
923 791 1
924 792 1
925 26 0.0399993
925 279 7.92912e-06
925 793 0.959993
926 794 0.125601
926 866 0.787417
926 1005 0.0432365
926 1986 0.0437448
927 795 1
928 796 1
929 463 0.142857
929 797 0.857143
930 798 1
931 799 1
932 800 1
933 165 0.058826
933 877 0.764747
933 5020 0.176427
934 800 1
935 36 0.697282
935 800 0.302718
936 800 1
937 801 1
938 802 1
939 267 1.52332e-05
939 803 0.999985
940 350 0.249989
940 804 0.750011
941 805 1
942 806 1
943 265 0.076923
943 807 0.923077
944 808 1
945 809 0.5
945 3013 0.5
946 810 1
947 811 1
948 812 1
949 813 1
950 690 0.3
950 814 0.7
951 227 1.54456e-05
951 325 0.0999984
951 815 0.899986
952 249 0.125
952 816 0.875
953 147 0.0302346
953 817 0.969765
954 818 1
955 138 0.0354461
955 147 0.158473
955 448 0.161216
955 1223 0.483648
955 4840 0.161216
956 103 0.297349
956 819 0.301136
956 995 0.401515
957 820 1
958 821 1
959 822 1
960 823 1
961 3344 0.666667
961 3631 0.333333
962 824 1
963 825 0.953907
963 2454 0.0460931
964 50 0.0416656
964 826 0.791667
964 932 0.0416667
964 980 0.124996
964 1341 4.53005e-06
965 827 1
966 828 1
967 829 1
968 153 0.494338
968 1512 0.505662
969 830 1
970 831 1
971 831 0.500133
971 832 0.499867
972 833 1
973 834 1
974 835 1
975 836 1
976 837 1
977 28 0.36391
977 837 0.63609
978 838 1
979 839 1
980 840 1
981 841 1
982 842 1
983 826 0.333333
983 843 0.666667
984 844 0.625
984 1072 0.375
985 845 1
986 846 1
987 165 0.333333
987 690 0.666667
988 847 1
989 848 1
990 849 0.999922
990 1482 8.56808e-06
990 1483 6.97274e-05
991 850 1
992 851 1
993 3095 1
994 851 1
995 4197 1
996 55 1
997 55 1
998 5 0.129069
998 1871 0.870931
999 852 1
1000 853 1
1001 854 0.999993
1001 1876 6.91629e-06
1002 51 0.999799
1002 913 0.000201262
1003 856 1
1004 868 1
1005 28 0.178506
1005 217 0.798615
1005 748 0.00127489
1005 2249 0.0216041
1006 857 0.428571
1006 858 0.571429
1007 859 1
1008 861 1
1009 862 1
1010 863 1
1011 864 1
1012 10 0.0937991
1012 80 0.0932761
1012 865 0.812925
1013 717 0.000330804
1013 2128 0.999669
1014 649 1
1015 867 0.428571
1015 2925 0.571429
1016 55 0.363059
1016 649 1.29316e-05
1016 868 0.636774
1016 4101 0.000154304
1017 869 1
1018 870 0.6
1018 2021 0.2
1018 2022 0.2
1019 871 1
1020 872 1
1021 873 1
1022 874 1
1023 875 1
1024 876 1
1025 878 1
1026 879 1
1027 191 0.863883
1027 221 0.0679158
1027 1579 0.0682013
1028 143 1.02097e-06
1028 882 0.999988
1028 1695 1.06393e-05
1029 883 0.947368
1029 2251 0.0526316
1030 80 1
1031 884 1
1032 885 1
1033 886 1
1034 887 1
1035 888 1
1036 889 1
1037 890 1
1038 53 0.173929
1038 136 0.234788
1038 273 0.00302169
1038 662 6.81892e-07
1038 699 0.00043254
1038 1169 0.000790316
1038 3747 0.587037
1039 890 1
1040 892 0.0827191
1040 894 0.687959
1040 3123 0.229322
1041 893 1
1042 891 1
1043 314 0.749929
1043 895 0.250071
1044 895 0.374971
1044 2421 0.625029
1045 896 1
1046 897 1
1047 898 1
1048 899 1
1049 900 1
1050 901 1
1051 584 1
1052 903 0.666734
1052 2329 0.333266
1053 905 1
1054 906 0.428571
1054 1328 0.571429
1055 914 1
1056 907 1
1057 908 0.999728
1057 1341 0.000271745
1058 88 0.0832547
1058 145 0.083272
1058 909 0.833473
1059 111 7.38736e-05
1059 910 0.999926
1060 911 1
1061 912 1
1062 913 1
1063 140 0.428571
1063 1227 0.571429
1064 915 1
1065 916 1
1066 917 1
1067 918 1
1068 41 0.00169286
1068 918 0.998307
1069 53 4.49612e-05
1069 918 0.648653
1069 4138 0.351302
1070 919 1
1071 140 0.0769231
1071 363 0.230769
1071 920 0.692308
1072 921 1
1073 923 1
1074 924 1
1075 28 0.272727
1075 1290 0.272727
1075 3525 0.454546
1076 925 1
1077 926 1
1078 927 1
1079 928 1
1080 929 1
1081 370 1
1082 500 1.57291e-05
1082 930 0.812487
1082 1290 0.187498
1083 111 2.23865e-06
1083 731 0.1875
1083 931 0.812498
1084 111 3.79696e-05
1084 919 0.749958
1084 3603 0.250004
1085 81 1
1086 933 1
1087 934 1
1088 935 1
1089 295 1
1090 936 1
1091 894 0.249998
1091 937 0.750001
1092 938 1
1093 939 1
1094 940 1
1095 88 1.59599e-05
1095 250 0.230766
1095 941 0.538453
1095 951 0.230766
1096 942 1
1097 943 1
1098 282 0.75
1098 2999 0.25
1099 74 0.999137
1099 5146 0.000862887
1100 3949 1
1101 923 1
1102 944 1
1103 945 1
1104 946 1
1105 273 1
1106 944 1
1107 945 1
1108 947 1
1109 948 1
1110 949 1
1111 950 1
1112 162 1
1113 41 9.53833e-06
1113 952 0.99999
1114 791 0.157893
1114 953 0.789475
1114 1977 0.0526316
1115 954 1
1116 955 1
1117 956 1
1118 957 1
1119 197 0.0917534
1119 370 0.000130553
1119 2693 0.0917535
1119 3527 0.275259
1119 5170 0.275261
1119 5171 0.265843
1120 27 0.0673665
1120 43 0.202096
1120 551 0.0673653
1120 1545 0.0568734
1120 2272 0.606299
1121 370 1
1122 55 0.0256933
1122 2587 0.974307
1123 370 1
1124 976 1
1125 1383 1
1126 763 1
1127 370 1
1128 190 0.214286
1128 1046 0.785714
1129 958 1
1130 959 1
1131 1762 1
1132 960 1
1133 961 1
1134 962 1
1135 963 1
1136 964 1
1137 965 1
1138 966 1
1139 967 1
1140 109 0.00845143
1140 141 7.6322e-07
1140 221 6.69082e-07
1140 247 2.55012e-05
1140 968 0.991522
1141 27 0.0625
1141 969 0.9375
1142 970 1
1143 971 1
1144 972 1
1145 973 1
1146 157 1
1147 974 1
1148 975 1
1149 977 1
1150 978 1
1151 93 1
1152 979 1
1153 11 0.197385
1153 611 0.240785
1153 3169 0.56183
1154 29 1
1155 419 1
1156 3526 1
1157 980 1
1158 981 1
1159 982 1
1160 983 1
1161 984 1
1162 985 1
1163 190 2.98387e-06
1163 448 0.333332
1163 986 0.583332
1163 1010 0.083333
1164 987 1
1165 988 1
1166 989 1
1167 990 1
1168 991 1
1169 52 0.25
1169 992 0.75
1170 994 1
1171 996 1
1172 74 0.166547
1172 103 0.000719262
1172 1195 0.832734
1173 20 0.0822323
1173 295 0.248356
1173 501 0.00713013
1173 2171 0.413927
1173 4240 0.248354
1174 738 1
1175 138 1
1176 717 1
1177 5 0.143103
1177 29 0.570667
1177 36 0.1431
1177 2365 0.14313
1178 997 1
1179 998 1
1180 999 1
1181 1000 1
1182 140 0.499737
1182 1001 0.500263
1183 984 0.434103
1183 1001 0.565897
1184 1004 1
1185 1005 0.785688
1185 3339 0.214278
1185 3929 3.381e-05
1186 949 0.171425
1186 1006 0.828555
1186 1046 2.00887e-05
1187 80 0.170762
1187 147 0.171276
1187 153 0.0897208
1187 190 0.0299069
1187 1010 0.0897207
1187 2013 0.448604
1187 4584 1.05085e-05
1188 126 0.166664
1188 219 0.833336
1189 1003 1
1190 1007 1
1191 602 0.0396836
1191 1008 0.960316
1192 1010 1
1193 1011 1
1194 181 0.333333
1194 1012 0.666667
1195 1523 0.0999904
1195 2950 0.800019
1195 3260 0.0999906
1196 145 0.499996
1196 3884 0.500004
1197 1438 1
1198 3 1
1199 253 0.500006
1199 602 0.374993
1199 1013 0.125001
1200 1014 1
1201 1015 1
1202 2987 1
1203 1016 1
1204 1017 1
1205 286 0.499998
1205 997 0.500002
1206 1018 1
1207 1019 1
1208 1020 1
1209 1021 1
1210 27 0.666828
1210 227 0.333172
1211 145 0.332727
1211 324 0.333637
1211 392 0.333637
1212 1022 1
1213 1023 0.950131
1213 2525 0.0498693
1214 1024 1
1215 1026 1
1216 1027 1
1217 1028 1
1218 397 0.0302987
1218 1029 0.969701
1219 1030 1
1220 1031 1
1221 1032 1
1222 181 1
1223 4825 1
1224 136 0.499994
1224 1033 0.500006
1225 726 0.1
1225 4060 0.9
1226 1026 1
1227 1036 1
1228 1037 1
1229 1038 1
1230 1039 1
1231 1040 1
1232 1041 1
1233 1042 1
1234 1043 1
1235 24 1
1236 1044 1
1237 1045 1
1238 1047 1
1239 144 0.357566
1239 1048 0.256974
1239 3947 0.385461
1240 1049 1
1241 1050 1
1242 1051 1
1243 158 0.33302
1243 165 0.443567
1243 397 1.65133e-05
1243 1052 0.223392
1243 4587 4.32742e-06
1244 378 1
1245 1053 1
1246 1054 1
1247 1056 1
1248 1057 1
1249 1058 1
1250 1059 1
1251 1060 1
1252 1061 1
1253 1062 1
1254 236 0.333332
1254 1063 0.666668
1255 1064 0.5
1255 1444 0.5
1256 1065 1
1257 1064 1
1258 1066 1
1259 610 1
1260 1067 1
1261 88 0.0354179
1261 103 0.145545
1261 144 1.16435e-06
1261 461 0.819036
1262 1068 0.334078
1262 1069 0.665922
1263 1069 0.00333089
1263 1070 0.498335
1263 1086 0.498335
1264 1071 1
1265 1072 1
1266 1073 1
1267 1074 1
1268 1075 1
1269 1076 1
1270 1077 1
1271 1078 0.978533
1271 3479 0.0214674
1272 1079 1
1273 909 1
1274 1080 1
1275 1045 0.2
1275 1081 0.8
1276 1082 1
1277 1083 1
1278 90 1
1279 1084 1
1280 1085 1
1281 29 1
1282 1087 1
1283 767 0.499966
1283 1088 0.500034
1284 1089 1
1285 1090 0.75
1285 3221 0.25
1286 1091 1
1287 190 1
1288 1331 1
1289 190 1
1290 53 1
1291 1079 1
1292 1092 1
1293 37 0.414955
1293 249 0.138332
1293 378 0.138115
1293 1093 0.308598
1294 1094 1
1295 551 1
1296 1095 1
1297 1096 1
1298 4956 1
1299 794 0.031248
1299 1097 0.937502
1299 1383 0.0312501
1300 1098 1
1301 5 0.000161031
1301 1099 0.999839
1302 151 1
1303 534 0.5
1303 3825 0.5
1304 1100 1
1305 3078 1
1306 1101 1
1307 1696 1
1308 1103 1
1309 179 0.2
1309 1104 0.8
1310 1105 1
1311 53 1
1312 1107 1
1313 3540 1
1314 1108 1
1315 103 1.01991e-05
1315 1076 0.99999
1316 1109 1
1317 1110 1
1318 325 0.111111
1318 1111 0.888889
1319 1105 1
1320 1112 1
1321 1113 1
1322 1114 1
1323 1115 1
1324 1116 0.998931
1324 2957 0.00106892
1325 50 0.00621368
1325 1117 0.828155
1325 5150 0.165631
1326 1118 1
1327 2748 1
1328 1899 1
1329 11 0.250308
1329 5093 0.749692
1330 1119 1
1331 749 0.00311872
1331 1120 0.996881
1332 1121 1
1333 1122 1
1334 325 1
1335 103 0.00376266
1335 2213 0.996237
1336 1127 1
1337 1123 1
1338 190 0.000746337
1338 370 4.87166e-07
1338 500 0.119924
1338 1124 0.879329
1339 1128 1
1340 1129 1
1341 1130 1
1342 1131 1
1343 1125 1
1344 1126 1
1345 1133 1
1346 1134 1
1347 1135 1
1348 103 0.199795
1348 150 0.200051
1348 250 0.200051
1348 1136 0.400103
1349 1137 1
1350 11 0.000296549
1350 1139 0.999703
1351 1138 1
1352 1140 1
1353 1141 1
1354 1142 0.571429
1354 2856 0.428571
1355 20 0.007165
1355 277 0.992835
1356 1143 1
1357 1144 1
1358 1145 1
1359 1146 1
1360 1147 1
1361 1495 0.142851
1361 4400 0.857149
1362 1148 1
1363 1149 1
1364 1150 1
1365 1151 1
1366 1152 1
1367 1153 1
1368 245 0.166876
1368 255 0.16562
1368 1154 0.166876
1368 4711 0.500628
1369 1155 1
1370 1155 1
1371 1156 1
1372 1157 1
1373 1158 1
1374 378 0.0446228
1374 1159 0.955377
1375 1160 1
1376 1161 1
1377 1162 1
1378 1163 1
1379 1164 1
1380 1165 1
1381 1166 1
1382 1167 0.571429
1382 4690 0.428571
1383 1168 1
1384 36 0.510952
1384 1168 0.489048
1385 36 1
1386 1045 0.6
1386 1169 0.4
1387 1170 1
1388 1171 0.5
1388 1309 0.5
1389 77 0.428532
1389 1172 0.571468
1390 1173 1
1391 558 0.833697
1391 562 0.0416849
1391 4283 0.124618
1392 164 1
1393 29 0.10351
1393 82 0.0344801
1393 295 0.0344801
1393 584 0.79305
1393 791 0.03448
1394 811 1
1395 164 0.095373
1395 1093 0.286119
1395 2561 0.618508
1396 1174 1
1397 1175 1
1398 1176 1
1399 1177 1
1400 1178 1
1401 500 1
1402 36 0.0748167
1402 165 2.43832e-05
1402 208 0.0385477
1402 647 0.115645
1402 1501 0.770966
1403 500 4.04344e-05
1403 957 0.99996
1404 1179 1
1405 4 1.92976e-06
1405 190 0.0241938
1405 1185 0.975804
1406 1186 1
1407 1187 1
1408 1184 1
1409 1324 1
1410 179 1
1411 18 0.249813
1411 1180 0.750187
1412 1181 1
1413 1182 1
1414 1183 1
1415 1184 1
1416 1188 1
1417 1189 1
1418 1190 1
1419 1191 1
1420 219 0.333339
1420 318 0.333332
1420 819 0.333328
1421 1192 1
1422 81 0.187637
1422 141 0.187517
1422 143 0.187468
1422 273 0.0623462
1422 1395 0.375032
1423 788 0.999176
1423 4963 0.000824355
1424 1193 1
1425 1194 1
1426 1196 0.333333
1426 1197 0.333333
1426 1199 0.333333
1427 1198 1
1428 1198 0.00188909
1428 1200 0.998111
1429 318 0.333333
1429 3012 0.666667
1430 894 1
1431 1201 1
1432 1202 1
1433 1203 1
1434 1204 1
1435 1205 1
1436 894 0.25
1436 5143 0.75
1437 1206 1
1438 1207 1
1439 1208 1
1440 52 0.975913
1440 2396 0.0240868
1441 1209 1
1442 933 1
1443 136 0.333098
1443 144 0.333059
1443 1210 0.333844
1444 1039 1
1445 1213 1
1446 74 0.500031
1446 147 0.249954
1446 1214 0.250015
1447 189 0.250097
1447 501 0.249711
1447 1215 0.250096
1447 1216 0.250097
1448 551 0.0588167
1448 1651 0.941183
1449 1217 1
1450 458 1
1451 1218 1
1452 1219 1
1453 1220 1
1454 370 0.333333
1454 1354 0.666667
1455 954 0.428571
1455 1221 0.571429
1456 723 0.0292823
1456 1222 0.941399
1456 2210 0.0293192
1457 568 0.0243902
1457 1196 0.97561
1458 1224 1
1459 1225 1
1460 1226 1
1461 1229 1
1462 1231 1
1463 1232 1
1464 1233 0.500007
1464 1234 0.499993
1465 1235 1
1466 1236 0.7
1466 2365 0.3
1467 1237 1
1468 458 0.13958
1468 925 0.174434
1468 3946 0.685986
1469 284 1
1470 1238 1
1471 1239 1
1472 1240 1
1473 2651 1
1474 1241 1
1475 1242 1
1476 1243 1
1477 1244 1
1478 1245 1
1479 1246 1
1480 1247 1
1481 1248 1
1482 1249 1
1483 1250 1
1484 1251 1
1485 1252 1
1486 1252 1
1487 5154 1
1488 29 1
1489 1253 1
1490 1254 1
1491 1255 1
1492 1256 1
1493 279 0.361575
1493 1395 0.638425
1494 1715 1
1495 279 1
1496 897 0.200114
1496 917 0.200114
1496 1257 0.400229
1496 1702 0.199542
1497 1258 1
1498 684 0.272728
1498 1259 0.454547
1498 4673 0.272724
1499 11 7.31756e-06
1499 165 0.040142
1499 236 8.61774e-06
1499 501 0.0398557
1499 997 0.0317812
1499 1260 0.883138
1499 1271 0.00506692
1500 819 1.09916e-05
1500 4626 0.999989
1501 1261 1
1502 1262 1
1503 1263 1
1504 760 0.327178
1504 1264 0.672822
1505 1265 1
1506 1266 1
1507 1267 1
1508 2851 1
1509 1806 1
1510 1844 1
1511 1268 0.96641
1511 5034 0.0335904
1512 1269 1
1513 1270 1
1514 1271 1
1515 1272 1
1516 1273 1
1517 1274 1
1518 11 6.50187e-05
1518 2939 0.999935
1519 1275 1
1520 1276 0.571429
1520 3102 0.428571
1521 325 1
1522 1277 1
1523 983 0.00156098
1523 1277 0.998439
1524 1278 1
1525 1279 1
1526 1280 1
1527 1281 1
1528 1282 1
1529 1283 1
1530 1284 1
1531 1285 1
1532 1286 1
1533 1287 1
1534 1288 1
1535 1289 1
1536 10 0.428569
1536 1290 0.571431
1537 775 0.75
1537 1291 0.25
1538 1292 1
1539 1293 1
1540 794 0.206887
1540 1294 0.689664
1540 4869 0.10345
1541 1296 1
1542 400 0.933333
1542 2288 0.0666667
1543 53 0.00051922
1543 164 0.49974
1543 1079 0.49974
1544 392 0.222222
1544 1234 0.777778
1545 1297 1
1546 1298 1
1547 1299 1
1548 1300 1
1549 1301 1
1550 1110 1
1551 1302 1
1552 1303 1
1553 1304 1
1554 1305 1
1555 1306 1
1556 1308 1
1557 1309 1
1558 1310 1
1559 81 0.337769
1559 144 0.324456
1559 1311 0.337775
1560 237 0.333334
1560 1307 0.333334
1560 1312 0.333333
1561 1216 0.5
1561 1313 0.5
1562 1314 1
1563 1315 1
1564 190 1
1565 1315 1
1566 1316 1
1567 1317 1
1568 1318 0.699938
1568 2636 0.300062
1569 1319 1
1570 143 0.249999
1570 4754 0.750001
1571 80 0.494899
1571 500 0.505101
1572 1320 1
1573 1321 0.5
1573 3019 0.5
1574 48 0.0542576
1574 50 0.0160599
1574 60 0.929682
1574 208 9.27044e-07
1575 1322 1
1576 1323 1
1577 1325 0.923077
1577 1364 0.0769228
1578 1326 1
1579 2802 1
1580 527 1
1581 527 1
1582 819 1
1583 649 1
1584 982 0.249948
1584 3682 0.750052
1585 1329 1
1586 1330 1
1587 1332 1
1588 1333 1
1589 11 1
1590 1160 0.5
1590 1367 0.5
1591 1326 0.5
1591 1349 0.5
1592 219 1
1593 1329 1
1594 538 0.499995
1594 3131 0.500005
1595 219 1
1596 1334 1
1597 247 0.5
1597 2975 0.5
1598 1335 1
1599 9 1
1600 217 0.1875
1600 1336 0.8125
1601 1337 1
1602 1338 1
1603 1339 1
1604 1340 1
1605 908 0.000431078
1605 1341 0.844484
1605 2044 0.0775426
1605 2981 0.0775426
1606 1342 1
1607 1343 1
1608 1344 1
1609 957 0.333334
1609 1216 0.333333
1609 3795 0.333333
1610 5065 1
1611 1345 1
1612 1347 1
1613 1348 1
1614 1350 1
1615 1351 1
1616 350 1
1617 1352 1
1618 1353 0.999989
1618 4786 1.09118e-05
1619 11 1
1620 1355 1
1621 1356 1
1622 1357 1
1623 1358 1
1624 458 0.0769225
1624 1745 0.923078
1625 717 1
1626 273 0.499068
1626 1359 0.500932
1627 1360 1
1628 5 0.49999
1628 147 0.499997
1628 602 1.32439e-05
1629 10 0.250002
1629 24 0.249993
1629 1361 0.500004
1630 154 0.0624998
1630 392 0.0624999
1630 1362 0.875
1631 1363 1
1632 1365 1
1633 249 0.75
1633 1366 0.25
1634 77 1
1635 1368 1
1636 1369 1
1637 1370 1
1638 1371 1
1639 160 0.428571
1639 1372 0.571429
1640 1373 1
1641 1374 1
1642 1375 1
1643 217 0.0330041
1643 864 0.966996
1644 1376 1
1645 55 0.5
1645 2346 0.5
1646 1377 1
1647 1378 1
1648 1216 1
1649 1252 0.0698881
1649 1379 0.930112
1650 1380 1
1651 1381 1
1652 1382 1
1653 1025 0.5
1653 1383 0.5
1654 763 1
1655 1384 1
1656 103 0.249969
1656 1385 0.750031
1657 219 1
1658 1386 0.9
1658 1387 0.0999999
1659 1388 1
1660 1389 1
1661 1390 0.993092
1661 3829 7.71262e-05
1661 3835 0.00683112
1662 1391 1
1663 1392 1
1664 174 0.332932
1664 1393 0.667068
1665 1394 1
1666 1189 1
1667 1396 1
1668 1397 1
1669 608 2.37858e-05
1669 1398 0.999976
1670 171 0.0925228
1670 378 0.26412
1670 2396 0.643357
1671 1399 1
1672 1400 1
1673 1401 0.600001
1673 3056 0.199999
1673 3590 0.2
1674 1402 1
1675 1403 0.333333
1675 2287 0.666667
1676 1404 1
1677 1405 1
1678 1406 1
1679 1407 1
1680 1408 1
1681 1409 1
1682 378 0.49896
1682 1410 0.50104
1683 1411 1
1684 1412 1
1685 1413 1
1686 147 1
1687 684 0.66667
1687 863 0.33333
1688 863 1.1839e-06
1688 1655 0.999999
1689 11 0.00622572
1689 1035 0.993774
1690 11 0.497427
1690 1414 0.502573
1691 1415 1
1692 1416 1
1693 1417 1
1694 1418 1
1695 1419 1
1696 1420 1
1697 1421 1
1698 1422 1
1699 1423 1
1700 1424 1
1701 1425 1
1702 1426 1
1703 18 1
1704 1427 1
1705 1428 1
1706 1429 1
1707 1430 1
1708 1431 1
1709 486 0.000430263
1709 1432 0.99957
1710 1433 1
1711 1434 1
1712 1435 1
1713 1436 1
1714 370 1.01469e-05
1714 891 0.99999
1715 26 0.25
1715 1437 0.5
1715 1466 0.25
1716 4228 1
1717 1439 1
1718 29 0.0700619
1718 378 0.213416
1718 825 0.426894
1718 863 0.0711489
1718 982 0.0711489
1718 2555 0.142298
1718 3181 0.00503301
1719 1440 1
1720 1441 1
1721 1442 1
1722 1443 1
1723 1445 1
1724 9 0.0656342
1724 681 0.934366
1725 1446 0.986571
1725 1768 0.0134285
1726 88 0.208332
1726 1132 0.791668
1727 1447 1
1728 1448 1
1729 50 0.999932
1729 1449 6.77953e-05
1730 1450 1
1731 1451 1
1732 10 0.83568
1732 1452 0.16432
1733 1453 1
1734 50 0.499987
1734 1454 0.500013
1735 172 0.499221
1735 817 0.500779
1736 1455 1
1737 1456 0.400001
1737 2037 0.599999
1738 1457 1
1739 1458 1
1740 1459 1
1741 1460 1
1742 1461 1
1743 699 1
1744 1462 1
1745 406 0.539192
1745 1463 0.460808
1746 1464 1
1747 1465 1
1748 819 1
1749 1467 1
1750 1468 1
1751 1469 1
1752 273 0.249964
1752 4632 0.750036
1753 632 0.500002
1753 937 0.499998
1754 1470 1
1755 1471 1
1756 1472 1
1757 857 1
1758 1473 1
1759 1474 1
1760 1475 1
1761 1476 1
1762 1477 1
1763 1005 0.000447075
1763 3249 0.999553
1764 1478 1
1765 1480 1
1766 583 1
1767 1481 1
1768 255 0.387833
1768 849 0.612167
1769 255 0.261489
1769 1305 0.738511
1770 1484 1
1771 1485 1
1772 1305 0.5
1772 2000 0.5
1773 53 0.0888088
1773 1486 0.911191
1774 1487 1
1775 1488 1
1776 1489 1
1777 1490 1
1778 1491 1
1779 1492 1
1780 1493 1
1781 1494 1
1782 1495 1
1783 1496 1
1784 1497 1
1785 1498 1
1786 1499 1
1787 14 1
1788 1500 1
1789 1502 1
1790 1503 1
1791 29 0.0134034
1791 265 0.197319
1791 530 0.591958
1791 857 0.197319
1792 1504 1
1793 1505 1
1794 1506 1
1795 1507 1
1796 1508 1
1797 1509 1
1798 1510 0.4
1798 2071 0.6
1799 1511 1
1800 1513 1
1801 1514 1
1802 1515 1
1803 1516 1
1804 1517 1
1805 1518 1
1806 1519 1
1807 88 0.428627
1807 225 0.142746
1807 1520 0.428628
1808 1521 1
1809 1522 1
1810 1524 1
1811 1525 1
1812 1527 1
1813 1528 1
1814 1529 1
1815 88 1
1816 1530 1
1817 141 0.142857
1817 1531 0.857143
1818 1532 1
1819 1533 1
1820 1534 1
1821 1535 1
1822 1536 1
1823 1537 1
1824 1541 1
1825 1538 1
1826 1539 1
1827 1540 1
1828 1542 1
1829 1543 1
1830 1544 1
1831 1545 0.700183
1831 5146 0.299817
1832 1546 1
1833 1547 1
1834 1548 1
1835 524 0.499996
1835 1549 0.500004
1836 145 0.160994
1836 271 0.839006
1837 1550 1
1838 954 0.5
1838 1221 0.5
1839 1551 1
1840 1552 1
1841 1553 1
1842 1554 1
1843 1555 1
1844 1556 1
1845 1558 1
1846 1559 1
1847 1560 1
1848 1561 1
1849 1562 1
1850 1564 1
1851 1567 1
1852 309 0.979668
1852 919 0.0203322
1853 1568 1
1854 1569 1
1855 1570 1
1856 1571 1
1857 1572 1
1858 1573 1
1859 1573 1
1860 1574 1
1861 1575 1
1862 1575 1
1863 1576 1
1864 1577 1
1865 1578 1
1866 60 0.6
1866 1579 0.2
1866 1975 0.2
1867 41 0.0967624
1867 80 0.0322505
1867 174 0.0967745
1867 370 1.62861e-05
1867 1580 0.774196
1868 1581 1
1869 1582 1
1870 1583 1
1871 1584 1
1872 1585 1
1873 1586 1
1874 1587 1
1875 184 1
1876 1588 1
1877 1589 1
1878 1590 1
1879 1591 1
1880 1592 1
1881 52 1
1882 1593 1
1883 1594 1
1884 177 2.04928e-05
1884 1595 0.999979
1885 1596 1
1886 1597 0.574946
1886 2285 0.425054
1887 1598 1
1888 50 0.0152685
1888 3506 0.984732
1889 50 1
1890 1599 1
1891 1600 1
1892 1601 1
1893 1602 1
1894 50 0.0921311
1894 1603 0.907869
1895 1604 1
1896 1605 1
1897 1606 1
1898 36 1
1899 1607 1
1900 1609 1
1901 1610 1
1902 1611 1
1903 1612 1
1904 1613 0.666769
1904 1614 0.333231
1905 1613 1
1906 265 1
1907 102 1
1908 1615 1
1909 1616 1
1910 1617 1
1911 1618 1
1912 1619 1
1913 1620 1
1914 1621 1
1915 1622 1
1916 1623 1
1917 1624 1
1918 1625 1
1919 1626 1
1920 1627 1
1921 1628 1
1922 921 1
1923 1629 1
1924 1630 1
1925 247 0.125058
1925 430 0.375174
1925 2439 0.124594
1925 4759 0.375174
1926 987 0.499972
1926 1631 0.500028
1927 867 0.6
1927 1632 0.4
1928 1633 1
1929 1634 1
1930 1634 1
1931 1635 1
1932 1636 1
1933 1637 1
1934 1638 1
1935 1639 1
1936 1640 1
1937 1641 1
1938 1642 1
1939 1643 1
1940 1644 1
1941 1645 1
1942 237 0.499738
1942 1646 0.500262
1943 222 1
1944 1647 1
1945 140 0.5
1945 1648 0.5
1946 770 0.0526316
1946 1649 0.947368
1947 1650 1
1948 1652 1
1949 1415 1
1950 1653 0.999993
1950 4726 7.1942e-06
1951 1654 1
1952 1656 1
1953 1657 1
1954 3234 1
1955 1658 1
1956 1659 0.5
1956 2759 0.5
1957 1660 1
1958 1661 1
1959 970 0.25
1959 1662 0.75
1960 1663 1
1961 1664 1
1962 28 0.0833329
1962 1702 0.0833334
1962 3472 0.833334
1963 1273 0.299688
1963 1415 0.0998961
1963 1665 0.00103875
1963 4191 0.599377
1964 1666 1
1965 1667 1
1966 1668 1
1967 1669 1
1968 1670 1
1969 1671 1
1970 1672 1
1971 353 0.333333
1971 1673 0.666667
1972 925 0.222221
1972 1982 0.777779
1973 1674 1
1974 1675 1
1975 1676 1
1976 1677 1
1977 93 0.898331
1977 1046 0.101669
1978 1678 1
1979 1679 1
1980 2071 1
1981 1680 1
1982 1681 1
1983 1682 1
1984 30 0.598724
1984 1683 0.401276
1985 1685 1
1986 1686 1
1987 1687 1
1988 1688 1
1989 1689 1
1990 1690 1
1991 138 0.125114
1991 3807 0.874887
1992 143 4.63736e-06
1992 794 0.319216
1992 1691 0.319279
1992 1694 0.319278
1992 1695 0.0422223
1993 1692 1
1994 4 4.20982e-05
1994 190 0.0898897
1994 925 0.0313191
1994 1501 0.329531
1994 1693 0.549218
1995 81 0.501363
1995 143 0.498601
1995 1695 3.68161e-05
1996 10 0.333001
1996 125 0.00022287
1996 1697 0.55532
1996 2386 0.000392082
1996 2832 0.111064
1997 1698 1
1998 136 1
1999 1699 1
2000 1700 1
2001 1701 1
2002 9 0.488955
2002 1703 0.511045
2003 270 0.05
2003 1706 0.95
2004 1102 1
2005 104 0.333429
2005 662 0.3331
2005 1707 0.333472
2006 1708 1
2007 3 0.0308645
2007 43 0.969136
2008 3 0.01106
2008 1709 0.98894
2009 1710 1
2010 1711 1
2011 70 0.997957
2011 1169 0.00204322
2012 699 0.498047
2012 1704 0.501953
2013 662 0.000549328
2013 1169 2.66509e-05
2013 1705 0.999424
2014 126 0.0907481
2014 877 7.54429e-06
2014 1712 0.909244
2015 3293 1
2016 1121 0.25
2016 1196 0.249999
2016 2058 0.25
2016 2425 0.25
2017 723 0.333298
2017 1713 0.666702
2018 1714 1
2019 1715 0.25
2019 3944 0.75
2020 298 1
2021 1197 0.5
2021 3465 0.5
2022 1716 1
2023 1717 1
2024 1718 1
2025 1399 0.00125077
2025 1719 0.499375
2025 1720 0.499375
2026 165 1
2027 88 1
2028 925 0.476417
2028 1721 0.523583
2029 208 0.920439
2029 925 0.0795606
2030 322 0.111106
2030 1722 0.777782
2030 1787 0.111112
2031 202 0.25
2031 1723 0.0833331
2031 1965 0.666667
2032 1724 1
2033 1725 1
2034 484 0.75
2034 1726 0.25
2035 1727 0.560497
2035 1728 0.439503
2036 1729 0.4
2036 4856 0.6
2037 1224 1
2038 1731 1
2039 1695 1
2040 1732 1
2041 250 0.333333
2041 350 0.333333
2041 1733 0.333333
2042 1734 1
2043 1735 1
2044 1736 1
2045 88 0.6
2045 1132 0.2
2045 2092 0.2
2046 1738 1
2047 1739 1
2048 1740 1
2049 143 1
2050 88 6.61753e-05
2050 143 0.999934
2051 980 0.333333
2051 1741 0.666667
2052 1742 1
2053 1743 1
2054 1744 1
2055 1192 1
2056 1746 1
2057 1747 1
2058 1748 1
2059 1749 1
2060 1750 1
2061 1751 1
2062 1752 1
2063 1753 1
2064 1754 1
2065 1755 1
2066 8 0.313552
2066 219 0.343224
2066 1756 0.343224
2067 8 0.0383159
2067 1757 0.961684
2068 1758 1
2069 1759 1
2070 1760 1
2071 1761 1
2072 1763 1
2073 478 1
2074 1764 1
2075 1765 1
2076 1766 1
2077 1767 0.25
2077 4561 0.75
2078 1768 1
2079 1769 1
2080 1770 1
2081 1465 1
2082 1771 1
2083 378 0.327112
2083 461 0.336444
2083 1772 0.336444
2084 1773 1
2085 1774 1
2086 1775 1
2087 190 0.333333
2087 370 0.333333
2087 1776 0.333333
2088 1777 1
2089 1778 1
2090 1779 1
2091 1780 1
2092 1781 1
2093 1782 1
2094 1783 1
2095 1784 1
2096 1785 1
2097 1786 1
2098 221 0.49965
2098 1787 0.50035
2099 1788 1
2100 1789 1
2101 1790 1
2102 1791 1
2103 1792 1
2104 1793 1
2105 1794 0.666667
2105 1808 0.333333
2106 1795 1
2107 262 1
2108 250 0.75
2108 1787 0.25
2109 1796 1
2110 153 0.0526316
2110 1797 0.947368
2111 1798 1
2112 1799 1
2113 1800 1
2114 14 0.0394632
2114 551 0.0845706
2114 1801 0.58406
2114 4231 0.291906
2115 1802 1
2116 428 0.2
2116 2201 0.8
2117 1803 1
2118 1804 1
2119 1805 1
2120 1807 1
2121 326 0.5
2121 1565 0.5
2122 1805 1
2123 18 0.102538
2123 2934 0.897462
2124 18 0.141025
2124 2166 0.858975
2125 190 0.333319
2125 1809 0.666681
2126 1810 0.5
2126 1815 0.5
2127 1811 1
2128 1812 1
2129 1813 1
2130 1814 0.875
2130 2604 0.125
2131 1816 1
2132 1817 1
2133 1818 1
2134 1819 1
2135 1820 1
2136 1821 1
2137 1822 1
2138 1823 1
2139 1202 0.499957
2139 1824 0.500043
2140 1826 1
2141 5 0.997743
2141 1826 0.00225712
2142 5 1
2143 286 0.0136404
2143 1827 0.98636
2144 1828 1
2145 1829 1
2146 20 0.562581
2146 222 0.437419
2147 1830 1
2148 1831 1
2149 1832 1
2150 219 1
2151 295 0.2
2151 1565 0.2
2151 1834 0.6
2152 1835 1
2153 143 0.333314
2153 1399 0.333344
2153 1836 0.333342
2154 221 0.249949
2154 4597 0.750051
2155 1837 1
2156 1838 1
2157 202 1
2158 53 0.0255861
2158 655 0.108268
2158 1840 0.866146
2159 1841 1
2160 1842 1
2161 1843 1
2162 1646 1
2163 11 0.000144846
2163 1845 0.999855
2164 136 1
2165 1846 1
2166 1847 1
2167 145 1
2168 25 0.244634
2168 1848 0.503577
2168 2080 0.251789
2169 10 0.125036
2169 267 0.124995
2169 1849 0.749969
2170 1851 1
2171 1852 1
2172 1853 1
2173 327 0.5
2173 3494 0.5
2174 88 0.185128
2174 136 0.187781
2174 144 0.0592603
2174 145 0.189158
2174 630 0.378673
2175 5 1
2176 1855 1
2177 144 1
2178 1856 1
2179 1857 1
2180 1858 1
2181 550 1
2182 1859 1
2183 1860 1
2184 18 0.662221
2184 501 0.00911899
2184 1854 0.000278485
2184 1860 0.328381
2185 1861 1
2186 55 0.110727
2186 63 0.0369892
2186 285 0.110968
2186 372 0.0385219
2186 1863 0.665806
2186 3249 0.0369883
2187 1864 1
2188 1865 1
2189 1866 1
2190 103 0.495081
2190 1867 0.504919
2191 55 0.448794
2191 1868 0.551206
2192 812 1
2193 1869 1
2194 1870 1
2195 304 1
2196 1872 1
2197 1873 1
2198 77 0.323813
2198 165 0.1074
2198 166 0.1064
2198 1874 0.462386
2199 1875 1
2200 1877 1
2201 1878 1
2202 1879 1
2203 83 0.333333
2203 219 0.333334
2203 558 0.333334
2204 165 0.449241
2204 1880 0.550759
2205 1884 1
2206 136 0.278467
2206 458 0.00457703
2206 1881 0.435869
2206 4140 0.281087
2207 1882 1
2208 1883 1
2209 816 0.99412
2209 1884 0.00588034
2210 1885 1
2211 1886 1
2212 1887 1
2213 1888 1
2214 1889 0.999796
2214 4133 0.000203792
2215 1890 1
2216 1891 1
2217 1892 1
2218 1893 1
2219 980 0.25
2219 4013 0.75
2220 1894 1
2221 1895 1
2222 144 1
2223 1897 1
2224 608 0.36224
2224 1898 0.63776
2225 1900 1
2226 951 1
2227 410 0.999992
2227 4838 7.69501e-06
2228 1902 1
2229 1903 1
2230 165 0.491469
2230 4391 0.508531
2231 1904 0.450129
2231 2940 0.549871
2232 2042 0.740606
2232 4522 0.259394
2233 137 1
2234 428 0.485328
2234 1029 0.485328
2234 1904 0.0293442
2235 1905 1
2236 1906 1
2237 136 0.499996
2237 1907 0.500004
2238 1908 1
2239 1909 1
2240 1910 1
2241 190 0.00233993
2241 1911 0.99766
2242 171 0.324355
2242 279 0.337828
2242 559 0.337817
2243 1912 1
2244 1913 1
2245 1914 1
2246 80 0.468861
2246 3076 0.531139
2247 917 1
2248 1917 0.999157
2248 2094 0.000842977
2249 6 0.333286
2249 313 0.333357
2249 461 0.333357
2250 1918 1
2251 5 1
2252 142 1
2253 1919 1
2254 1924 1
2255 1920 1
2256 1921 1
2257 1922 1
2258 1923 1
2259 1925 1
2260 1545 0.499999
2260 1926 0.500001
2261 1927 1
2262 925 1
2263 1928 1
2264 1929 1
2265 143 0.332429
2265 1930 0.556309
2265 1940 0.111262
2266 1931 1
2267 1932 1
2268 1933 1
2269 1935 1
2270 1936 1
2271 103 0.6
2271 1937 0.4
2272 177 0.199993
2272 1938 0.200002
2272 2223 0.600005
2273 1939 1
2274 247 0.319466
2274 286 0.041601
2274 1383 0.319466
2274 2993 0.319466
2275 1941 1
2276 53 0.000231852
2276 81 0.200493
2276 111 0.197589
2276 1942 0.401188
2276 2154 0.200498
2277 1943 1
2278 171 0.248659
2278 189 0.250473
2278 247 0.250394
2278 3616 0.250473
2279 255 1.42974e-05
2279 1944 0.999986
2280 484 0.499687
2280 1945 0.500313
2281 1946 1
2282 1947 1
2283 1948 1
2284 1950 1
2285 1951 1
2286 1952 1
2287 218 0.6
2287 1072 0.2
2287 2401 0.2
2288 312 1
2289 1953 1
2290 80 1
2291 1954 1
2292 1955 1
2293 1956 1
2294 1957 1
2295 1958 1
2296 81 1
2297 1532 1
2298 1960 1
2299 1961 1
2300 1962 1
2301 1963 1
2302 1964 1
2303 1966 1
2304 1967 1
2305 1968 1
2306 1969 0.666667
2306 1993 0.333333
2307 1970 1
2308 1971 1
2309 1972 1
2310 221 1
2311 11 1
2312 1973 1
2313 5 1
2314 121 1
2315 6 1
2316 1894 1
2317 1974 1
2318 1976 1
2319 1978 1
2320 501 1
2321 1979 1
2322 1980 1
2323 88 0.249999
2323 1981 0.750001
2324 1983 1
2325 1984 1
2326 144 3.4801e-05
2326 1985 0.999965
2327 1987 1
2328 1988 1
2329 1989 1
2330 1990 1
2331 427 0.5
2331 3090 0.5
2332 50 1
2333 1886 0.5
2333 1991 0.5
2334 10 0.50083
2334 37 0.49917
2335 221 5.94963e-05
2335 2490 0.999941
2336 1973 1
2337 1995 1
2338 1996 1
2339 1997 1
2340 1998 1
2341 1999 1
2342 2000 1
2343 2001 1
2344 2002 1
2345 41 0.00162432
2345 739 0.998376
2346 2004 1
2347 2005 1
2348 103 0.439326
2348 2006 0.560674
2349 2007 1
2350 2008 1
2351 2009 1
2352 2010 1
2353 2011 1
2354 2012 1
2355 2012 1
2356 4 0.0177741
2356 1039 0.982226
2357 1614 1
2358 2014 1
2359 2015 1
2360 2016 1
2361 4 0.961355
2361 190 0.0386451
2362 2017 0.5
2362 2108 0.5
2363 140 0.13637
2363 378 0.136321
2363 1460 0.13637
2363 2018 0.454568
2363 4101 0.13637
2364 2019 1
2365 190 7.37342e-05
2365 2020 0.999926
2366 2021 0.5
2366 2022 0.5
2367 147 1.15053e-05
2367 1049 0.134052
2367 2023 0.865937
2368 2024 1
2369 415 0.571641
2369 1049 0.00468652
2369 1305 0.0425786
2369 2153 0.381094
2370 2025 1
2371 2026 1
2372 2027 1
2373 2028 1
2374 2029 1
2375 2030 1
2376 774 0.5
2376 2022 0.5
2377 2031 1
2378 2032 1
2379 80 0.499979
2379 2033 0.500021
2380 2034 1
2381 5 1.56598e-05
2381 1613 0.999984
2382 2035 1
2383 2036 1
2384 219 0.250003
2384 267 0.749997
2385 45 0.017131
2385 2037 0.982869
2386 2038 1
2387 2039 1
2388 2040 1
2389 2041 1
2390 2043 1
2391 2045 1
2392 706 0.500022
2392 1224 0.499978
2393 29 0.00355281
2393 1224 0.930018
2393 2046 0.0664295
2394 2047 1
2395 680 1
2396 2048 1
2397 2049 1
2398 2050 1
2399 2051 1
2400 2052 1
2401 2053 1
2402 3064 1
2403 138 1
2404 4066 1
2405 693 1
2406 559 1
2407 2054 1
2408 2055 1
2409 2056 1
2410 2057 1
2411 145 1.48658e-05
2411 2058 0.499993
2411 2424 0.499993
2412 189 1
2413 2059 1
2414 103 1
2415 1824 1
2416 2060 1
2417 126 1
2418 2050 1
2419 2061 1
2420 2062 1
2421 190 0.344072
2421 2062 0.655928
2422 190 1
2423 190 1
2424 2063 1
2425 2064 1
2426 2065 1
2427 2066 1
2428 1124 1
2429 2067 1
2430 126 0.246705
2430 434 0.251098
2430 774 0.251098
2430 2068 0.251098
2431 2069 1
2432 2070 1
2433 122 0.5
2433 384 0.5
2434 2071 0.25
2434 4054 0.75
2435 2072 1
2436 2073 1
2437 2074 1
2438 865 0.157894
2438 2075 0.842106
2439 2076 1
2440 2077 1
2441 2078 1
2442 2079 1
2443 2081 1
2444 2082 1
2445 2083 1
2446 153 1
2447 162 0.249987
2447 4271 0.750013
2448 77 0.299989
2448 249 0.300011
2448 635 0.299996
2448 2084 0.100004
2449 2085 1
2450 2086 1
2451 2087 1
2452 2088 1
2453 2089 1
2454 501 0.183102
2454 1124 0.0628383
2454 1566 0.75406
2455 2090 1
2456 2091 1
2457 2093 1
2458 88 0.157834
2458 2094 0.842166
2459 179 0.365538
2459 1398 0.634462
2460 179 1
2461 179 1
2462 2095 1
2463 2096 1
2464 2097 1
2465 2098 1
2466 2099 1
2467 2100 1
2468 2101 1
2469 2102 1
2470 2103 1
2471 2104 1
2472 50 1
2473 181 0.6
2473 2105 0.4
2474 2106 1
2475 2107 1
2476 2109 1
2477 2110 1
2478 2111 1
2479 2112 1
2480 2113 1
2481 2114 1
2482 2115 1
2483 2116 1
2484 2117 1
2485 164 0.5
2485 2914 0.5
2486 2118 1
2487 169 1
2488 190 0.719044
2488 2118 0.280956
2489 2119 1
2490 2120 1
2491 2121 1
2492 2122 1
2493 2123 1
2494 2124 1
2495 2125 1
2496 2126 1
2497 2127 0.998552
2497 2669 0.00144774
2498 19 0.428438
2498 2129 0.571562
2499 18 0.498414
2499 2130 0.386621
2499 5072 0.114964
2500 2131 1
2501 2132 1
2502 2133 1
2503 2134 1
2504 2135 1
2505 1874 1
2506 2137 0.799872
2506 2272 0.199968
2506 3897 0.000159425
2507 2138 1
2508 2140 1
2509 563 0.75
2509 2141 0.25
2510 2142 1
2511 273 0.000265798
2511 4741 0.999734
2512 18 1
2513 2143 1
2514 2144 1
2515 4119 1
2516 2145 1
2517 2146 1
2518 2147 0.333326
2518 2148 0.333337
2518 2149 0.333337
2519 2150 1
2520 2152 1
2521 2153 1
2522 1942 0.499762
2522 2661 0.500238
2523 121 1
2524 2155 1
2525 2156 1
2526 190 1
2527 2157 1
2528 2158 1
2529 2159 1
2530 1661 1
2531 2160 1
2532 2161 1
2533 2162 1
2534 2163 1
2535 2164 1
2536 2165 1
2537 2147 1
2538 2166 1
2539 2167 1
2540 50 1
2541 830 1
2542 141 4.23288e-06
2542 247 6.27187e-06
2542 2190 0.99999
2543 830 1
2544 2168 1
2545 2169 1
2546 370 1
2547 2170 1
2548 2172 1
2549 2173 1
2550 2174 1
2551 2175 1
2552 1694 0.5
2552 2176 0.5
2553 809 1
2554 2178 1
2555 48 0.000269641
2555 2179 0.99973
2556 2180 1
2557 2181 1
2558 162 0.00100491
2558 2182 0.998995
2559 2183 1
2560 2184 1
2561 559 0.5
2561 2459 0.5
2562 2185 1
2563 484 0.213658
2563 2186 0.0714869
2563 2768 0.214447
2563 3492 0.500408
2564 2187 1
2565 2188 1
2566 2189 1
2567 143 0.166666
2567 225 0.166663
2567 1563 0.166668
2567 4293 0.500003
2568 221 5.29033e-05
2568 227 0.332781
2568 247 1.2447e-05
2568 2191 0.667154
2569 109 0.649859
2569 141 0.175158
2569 247 0.174982
2570 493 0.136364
2570 2759 0.863636
2571 370 1
2572 2192 1
2573 2193 1
2574 2194 1
2575 2195 1
2576 2196 1
2577 1046 0.00622066
2577 5101 0.993779
2578 2197 1
2579 2198 1
2580 2199 1
2581 2200 1
2582 2202 1
2583 2203 1
2584 752 0.5
2584 2204 0.5
2585 219 1
2586 2205 1
2587 36 1
2588 2206 1
2589 2206 1
2590 2207 1
2591 2208 1
2592 2209 1
2593 2214 1
2594 2215 1
2595 680 0.4
2595 4410 0.6
2596 2211 1
2597 2212 1
2598 2216 1
2599 2217 1
2600 2218 1
2601 2219 1
2602 2220 1
2603 2221 1
2604 2222 1
2605 3529 1
2606 2222 1
2607 36 1
2608 2222 1
2609 1264 0.25
2609 3887 0.75
2610 2223 1
2611 2224 1
2612 2225 1
2613 2225 1
2614 2226 1
2615 2227 1
2616 174 0.155213
2616 2228 0.844787
2617 2228 1
2618 2229 1
2619 2230 1
2620 2231 1
2621 2232 1
2622 1053 0.374983
2622 1096 0.125039
2622 2233 0.499978
2623 2234 1
2624 2235 1
2625 2236 1
2626 2847 1
2627 174 1
2628 2237 1
2629 2238 1
2630 2239 1
2631 301 1
2632 20 0.443565
2632 53 0.556435
2633 408 1
2634 2240 1
2635 2044 0.400016
2635 4395 0.599984
2636 195 0.5
2636 2241 0.5
2637 2242 1
2638 2243 1
2639 2244 1
2640 2245 1
2641 2247 1
2642 2248 1
2643 2250 0.823529
2643 2603 0.176471
2644 383 1
2645 2252 1
2646 2253 1
2647 2254 1
2648 2255 1
2649 2256 1
2650 2257 1
2651 452 0.19998
2651 2258 0.80002
2652 2259 1
2653 2260 1
2654 458 1
2655 2261 1
2656 2264 1
2657 140 1
2658 1124 1
2659 2265 0.99965
2659 2267 0.000350425
2660 2266 0.334753
2660 2267 0.334628
2660 2268 0.33062
2661 2269 1
2662 2268 0.995659
2662 5150 0.00434134
2663 2270 1
2664 2271 1
2665 2273 1
2666 2274 0.625037
2666 3929 0.374963
2667 2275 1
2668 2276 1
2669 1005 1
2670 125 1
2671 125 1
2672 2277 1
2673 2278 1
2674 2279 1
2675 332 1
2676 2281 1
2677 2282 1
2678 2283 1
2679 2284 1
2680 2286 1
2681 2287 0.25
2681 2783 0.75
2682 29 0.316731
2682 191 0.341293
2682 2279 0.341977
2683 397 0.75
2683 427 0.25
2684 2289 1
2685 2246 0.00635593
2685 2290 0.993644
2686 2291 1
2687 191 0.0123981
2687 2544 0.987602
2688 2292 1
2689 2293 1
2690 18 0.599855
2690 2294 0.400145
2691 2295 1
2692 2296 1
2693 2297 1
2694 2298 1
2695 2299 1
2696 2300 1
2697 2301 1
2698 2302 1
2699 2302 1
2700 2302 1
2701 2539 1
2702 24 0.749984
2702 594 0.250016
2703 2303 1
2704 2304 1
2705 80 0.499983
2705 1048 0.500017
2706 2305 1
2707 2006 1
2708 27 0.182727
2708 2306 0.817273
2709 547 0.700002
2709 816 0.299998
2710 2307 1
2711 80 0.74711
2711 2308 0.25289
2712 2311 1
2713 157 1
2714 2312 1
2715 2313 1
2716 2314 1
2717 2315 1
2718 2316 1
2719 2317 1
2720 2318 1
2721 2319 1
2722 1581 1
2723 11 0.411112
2723 757 0.441666
2723 2320 0.147222
2724 2321 1
2725 88 1
2726 2323 1
2727 24 0.00191325
2727 273 0.993974
2727 2322 0.00411242
2728 1742 1
2729 2324 1
2730 2325 1
2731 2326 1
2732 2327 1
2733 2328 1
2734 1045 0.75
2734 2329 0.25
2735 2330 1
2736 2331 1
2737 136 1
2738 2332 1
2739 2333 1
2740 2334 1
2741 2335 1
2742 2336 1
2743 864 1
2744 2337 1
2745 2338 1
2746 2339 1
2747 1603 1
2748 2340 1
2749 2341 1
2750 2342 1
2751 2343 1
2752 2344 1
2753 2345 1
2754 2347 1
2755 2348 1
2756 1940 1
2757 2349 1
2758 1770 1
2759 2350 1
2760 2351 1
2761 2352 1
2762 2353 1
2763 2354 1
2764 2355 1
2765 2356 1
2766 500 1
2767 500 0.232735
2767 2357 0.767265
2768 2357 1
2769 2358 1
2770 136 1
2771 2359 1
2772 2360 1
2773 2361 1
2774 2362 1
2775 2363 1
2776 2364 1
2777 485 1
2778 2366 1
2779 2367 1
2780 2368 1
2781 2369 1
2782 81 0.251191
2782 208 0.250656
2782 2370 0.498153
2783 7 0.479975
2783 109 0.520025
2784 2371 1
2785 2372 1
2786 2373 1
2787 2376 1
2788 2377 1
2789 2378 1
2790 2379 1
2791 427 0.333333
2791 3576 0.666667
2792 2370 0.0166673
2792 2380 0.983333
2793 174 0.499998
2793 2381 0.500002
2794 2382 1
2795 2383 0.25
2795 4203 0.75
2796 2384 1
2797 2385 1
2798 1212 0.428864
2798 2387 0.571136
2799 2390 1
2800 2391 1
2801 791 0.199985
2801 1072 0.199998
2801 2388 0.200005
2801 2392 0.400011
2802 219 0.25
2802 826 0.25
2802 2326 0.25
2802 2393 0.25
2803 11 0.2
2803 19 0.2
2803 145 0.2
2803 2389 0.2
2803 2394 0.2
2804 2395 1
2805 1053 1
2806 2397 1
2807 1703 1
2808 2398 1
2809 434 1
2810 434 1
2811 2399 1
2812 2400 1
2813 2402 0.948409
2813 4040 0.0515914
2814 2403 1
2815 2404 1
2816 2405 1
2817 2406 1
2818 938 1
2819 2407 1
2820 2408 1
2821 2410 1
2822 629 1
2823 2411 1
2824 1045 1
2825 2412 1
2826 750 1
2827 2413 1
2828 2414 1
2829 2415 1
2830 977 1
2831 2418 1
2832 529 0.0909091
2832 2419 0.909091
2833 2417 1
2834 202 1
2835 717 1
2836 138 0.29582
2836 2420 0.70418
2837 138 0.000110521
2837 2423 0.999889
2838 2422 1
2839 2426 1
2840 2427 1
2841 2428 0.499723
2841 2429 0.500277
2842 2428 0.500276
2842 2429 0.499724
2843 2430 1
2844 449 5.92975e-06
2844 2431 0.999994
2845 2432 1
2846 2433 1
2847 2434 1
2848 2435 1
2849 2436 0.2
2849 3188 0.6
2849 3685 0.2
2850 309 0.463204
2850 2437 0.536796
2851 145 0.332959
2851 392 0.333521
2851 1520 0.333521
2852 1104 1
2853 8 0.166366
2853 370 0.00130891
2853 2438 0.66586
2853 2440 0.166465
2854 2441 1
2855 2442 1
2856 2443 1
2857 11 1
2858 221 1
2859 2444 0.25
2859 5125 0.75
2860 2445 1
2861 2446 1
2862 2447 1
2863 2449 1
2864 103 0.481395
2864 2450 0.518605
2865 2451 1
2866 2452 1
2867 2433 1
2868 2453 1
2869 392 1
2870 144 0.499991
2870 3175 0.500009
2871 190 1
2872 2455 1
2873 2456 1
2874 19 1
2875 2457 1
2876 370 0.486913
2876 2924 0.513087
2877 2458 1
2878 2460 1
2879 309 0.0355918
2879 723 0.496823
2879 2437 0.467585
2880 2461 1
2881 2462 1
2882 2463 1
2883 5046 1
2884 2466 1
2885 2464 1
2886 247 1
2887 273 1
2888 144 2.97982e-06
2888 2842 0.249999
2888 4306 0.749998
2889 2467 1
2890 2468 1
2891 80 0.249992
2891 2469 0.750008
2892 2470 1
2893 2471 1
2894 864 0.142857
2894 4235 0.142857
2894 4832 0.714286
2895 2472 1
2896 894 0.499117
2896 2473 0.500883
2897 2474 1
2898 2475 1
2899 2476 1
2900 2477 1
2901 2478 1
2902 2479 1
2903 1993 1
2904 2480 1
2905 2481 1
2906 2482 1
2907 2483 1
2908 2484 1
2909 2485 1
2910 2486 1
2911 2487 1
2912 955 1
2913 2488 1
2914 887 0.5
2914 2489 0.5
2915 2491 1
2916 265 0.5
2916 1171 0.5
2917 70 0.5
2917 2492 0.5
2918 2493 1
2919 2494 1
2920 2495 1
2921 2496 1
2922 2497 1
2923 2498 1
2924 2499 1
2925 2500 1
2926 18 0.415528
2926 3823 0.584472
2927 18 0.0871167
2927 1485 0.912883
2928 2501 1
2929 2502 1
2930 2503 1
2931 2504 1
2932 197 0.292674
2932 2505 0.707326
2933 2505 1
2934 2506 1
2935 80 1
2936 121 0.00616553
2936 924 0.864204
2936 1045 0.129631
2937 2507 1
2938 2509 1
2939 2510 1
2940 468 0.666667
2940 1565 0.333333
2941 2511 1
2942 2512 0.666667
2942 2553 0.333333
2943 2513 1
2944 2514 1
2945 2515 1
2946 9 0.122884
2946 1093 0.1162
2946 2519 0.760916
2947 2515 1
2948 2896 1
2949 2516 1
2950 2517 1
2951 2518 0.25
2951 4724 0.75
2952 2520 1
2953 2521 1
2954 761 0.333333
2954 2532 0.666667
2955 2522 1
2956 2523 1
2957 2524 1
2958 2604 1
2959 80 0.600002
2959 1023 0.199466
2959 2525 0.200532
2960 126 0.202927
2960 602 0.263388
2960 794 0.266841
2960 2533 0.266844
2961 2526 1
2962 2527 1
2963 2528 1
2964 684 0.499989
2964 2529 0.500011
2965 2530 1
2966 2531 1
2967 2519 1
2968 1257 1
2969 2534 0.7
2969 4274 0.3
2970 2527 1
2971 2535 1
2972 2536 1
2973 677 1
2974 245 1
2975 2542 1
2976 2537 1
2977 126 1
2978 2538 1
2979 2540 1
2980 2541 1
2981 856 1
2982 140 0.125
2982 3491 0.875
2983 279 1
2984 19 0.494525
2984 2543 0.505475
2985 2545 1
2986 447 1
2987 1383 0.256692
2987 5034 0.743308
2988 2546 1
2989 2547 1
2990 2548 1
2991 2549 1
2992 162 1
2993 163 1
2994 28 0.333341
2994 2550 0.33333
2994 2551 0.33333
2995 2552 1
2996 1512 1
2997 153 1
2998 2554 1
2999 171 1
3000 732 1
3001 2556 1
3002 163 0.337639
3002 378 0.324721
3002 598 0.337639
3003 2557 1
3004 2558 1
3005 2559 1
3006 165 0.272727
3006 2560 0.727273
3007 30 0.136364
3007 2562 0.863636
3008 2563 1
3009 2564 1
3010 2059 0.5
3010 2698 0.5
3011 2565 1
3012 2566 1
3013 2567 1
3014 2568 1
3015 162 9.19222e-06
3015 336 0.749991
3015 2569 0.249999
3016 2570 1
3017 2571 1
3018 2572 1
3019 2573 1
3020 2574 1
3021 172 0.75
3021 2575 0.25
3022 2576 1
3023 55 1
3024 2569 1
3025 2577 1
3026 2578 1
3027 921 1
3028 2579 1
3029 26 0.5
3029 81 0.5
3030 1597 1
3031 2580 1
3032 2285 1
3033 2581 1
3034 2582 1
3035 2583 1
3036 2584 1
3037 2585 1
3038 2586 1
3039 2588 1
3040 2589 1
3041 2590 1
3042 2591 1
3043 250 0.5
3043 2129 0.5
3044 2592 1
3045 1981 1
3046 1702 1
3047 2593 1
3048 2249 1
3049 172 1
3050 2594 1
3051 883 0.25
3051 4091 0.75
3052 1702 1
3053 2595 1
3054 791 0.00894955
3054 2596 0.99105
3055 2598 1
3056 2599 1
3057 2600 1
3058 19 0.149855
3058 37 0.149883
3058 867 0.550205
3058 1345 0.150056
3059 2601 1
3060 138 1
3061 2602 0.5
3061 3621 0.5
3062 458 1
3063 2605 1
3064 225 0.0711099
3064 969 0.0707153
3064 1924 0.858175
3065 2606 1
3066 1099 1
3067 143 0.249939
3067 865 0.249855
3067 1924 0.250103
3067 2607 0.250103
3068 165 1
3069 26 0.25
3069 793 0.75
3070 2608 1
3071 2609 1
3072 2610 1
3073 2611 1
3074 2612 1
3075 2612 1
3076 2613 0.25
3076 3936 0.75
3077 780 1
3078 2388 0.67413
3078 2615 0.32587
3079 2326 0.333333
3079 2614 0.333333
3079 2616 0.333333
3080 2617 1
3081 2618 1
3082 2619 1
3083 2620 1
3084 298 1
3085 2622 1
3086 9 0.673222
3086 2623 0.326778
3087 428 0.0999527
3087 500 1.1689e-05
3087 2624 0.802427
3087 3028 0.0976089
3088 2625 1
3089 484 1
3090 2626 1
3091 2627 1
3092 452 0.491794
3092 2629 0.508206
3093 2630 1
3094 2631 1
3095 2632 1
3096 2633 1
3097 2634 1
3098 2635 1
3099 2636 1
3100 2637 1
3101 1602 0.5
3101 2638 0.5
3102 2639 1
3103 2225 1
3104 2640 1
3105 2641 0.998976
3105 2642 0.00102445
3106 2643 1
3107 2644 1
3108 2645 1
3109 2646 1
3110 2647 1
3111 2648 1
3112 9 0.451137
3112 448 0.548863
3113 2649 1
3114 2650 1
3115 2652 1
3116 2653 1
3117 2654 1
3118 2655 1
3119 2656 1
3120 2657 1
3121 2660 1
3122 2662 1
3123 2658 1
3124 3 1
3125 189 0.333333
3125 2659 0.333333
3125 2664 0.333333
3126 2642 1
3127 80 1
3128 2665 1
3129 2666 1
3130 2667 1
3131 2668 1
3132 2669 1
3133 1696 0.659576
3133 2669 0.340424
3134 2669 1
3135 2642 1
3136 2670 1
3137 4256 1
3138 88 0.250819
3138 939 0.50162
3138 3471 0.247561
3139 1342 0.5
3139 2671 0.5
3140 2448 1
3141 1124 0.375001
3141 2448 0.624999
3142 2672 1
3143 122 0.311587
3143 160 0.688413
3144 53 0.461405
3144 2626 0.538595
3145 370 1
3146 3 1
3147 3 0.758421
3147 863 0.241579
3148 2673 1
3149 2674 1
3150 2675 1
3151 2676 1
3152 2677 1
3153 2678 1
3154 2679 1
3155 2680 1
3156 2681 1
3157 2682 1
3158 2683 1
3159 125 1
3160 2684 1
3161 2684 1
3162 2685 1
3163 2686 1
3164 2687 1
3165 2688 0.580905
3165 2689 0.419095
3166 2690 1
3167 2689 1
3168 2691 1
3169 2692 1
3170 2694 1
3171 2695 1
3172 2696 1
3173 1362 1
3174 2697 1
3175 2699 1
3176 86 9.409e-06
3176 2700 0.684463
3176 2704 0.315528
3177 2701 1
3178 2702 1
3179 2703 1
3180 86 0.266905
3180 2608 0.26692
3180 2700 0.199256
3180 2705 0.266919
3181 2706 1
3182 2707 1
3183 5 0.311417
3183 684 0.344292
3183 2706 0.344291
3184 2708 1
3185 2709 1
3186 1325 0.25
3186 4201 0.75
3187 2707 1
3188 60 0.142857
3188 218 0.142857
3188 2710 0.571429
3188 2732 0.142857
3189 2712 1
3190 2713 1
3191 81 0.234676
3191 142 0.000142689
3191 273 0.123858
3191 602 0.172059
3191 708 0.23458
3191 2714 0.234684
3192 125 0.333097
3192 142 0.333342
3192 2715 0.333561
3193 2716 1
3194 28 0.25
3194 4427 0.75
3195 2717 1
3196 2718 1
3197 179 0.333328
3197 788 0.333336
3197 2719 0.333336
3198 2720 1
3199 1383 0.25
3199 4747 0.75
3200 2721 1
3201 2722 1
3202 2723 1
3203 2725 1
3204 2726 0.5
3204 3013 0.5
3205 2727 1
3206 2728 1
3207 2729 1
3208 2730 1
3209 18 0.00181899
3209 126 0.998181
3210 2731 1
3211 484 0.249972
3211 868 0.250009
3211 1264 0.250009
3211 2733 0.250009
3212 2734 1
3213 2735 1
3214 2736 1
3215 2737 1
3216 2738 1
3217 126 1
3218 2739 1
3219 2738 1
3220 2738 1
3221 2740 1
3222 2741 1
3223 2320 1
3224 2742 1
3225 2743 1
3226 2744 1
3227 2745 1
3228 2746 1
3229 2747 1
3230 2749 1
3231 2750 1
3232 2751 1
3233 2752 1
3234 2753 1
3235 2754 1
3236 2755 1
3237 2756 1
3238 2757 1
3239 2758 1
3240 2758 1
3241 41 0.000102491
3241 2758 0.999897
3242 2758 1
3243 2760 1
3244 2761 1
3245 2762 1
3246 2763 1
3247 2764 1
3248 2765 1
3249 2766 1
3250 80 0.0769144
3250 2767 0.923086
3251 2768 1
3252 2769 1
3253 88 1
3254 88 1
3255 2306 1
3256 2770 1
3257 2771 1
3258 2772 1
3259 2773 1
3260 2774 1
3261 2775 1
3262 2776 1
3263 36 1
3264 2777 1
3265 2778 1
3266 2779 1
3267 2780 1
3268 2781 1
3269 2782 1
3270 2783 1
3271 2784 1
3272 2785 1
3273 2786 1
3274 392 0.499975
3274 2787 0.500025
3275 1049 0.2
3275 3367 0.8
3276 2788 1
3277 857 1
3278 29 0.0285095
3278 555 0.97149
3279 417 1
3280 29 1
3281 177 1
3282 2789 1
3283 2790 1
3284 2791 1
3285 723 0.499997
3285 2792 0.500003
3286 2793 1
3287 2794 1
3288 2795 1
3289 2796 1
3290 774 1
3291 174 1
3292 1728 0.81659
3292 3225 0.18341
3293 2797 1
3294 2798 1
3295 2799 1
3296 2800 1
3297 2801 1
3298 2802 1
3299 2803 1
3300 2804 1
3301 2805 1
3302 2806 1
3303 2807 1
3304 2808 1
3305 2809 1
3306 2368 1
3307 2810 1
3308 2811 1
3309 2812 1
3310 28 0.25
3310 647 0.75
3311 2813 1
3312 121 0.00171167
3312 894 6.7553e-05
3312 2814 0.998221
3313 829 1
3314 534 1
3315 2815 1
3316 138 0.0769068
3316 147 0.0768671
3316 2816 0.846226
3317 2817 1
3318 2818 1
3319 2819 1
3320 2820 1
3321 2821 1
3322 2822 1
3323 2823 1
3324 138 1
3325 2824 0.5
3325 2825 0.5
3326 2826 1
3327 2827 1
3328 378 0.424438
3328 2828 0.575562
3329 2829 1
3330 397 1
3331 675 1
3332 2833 1
3333 397 0.58106
3333 675 0.41894
3334 2830 1
3335 2831 1
3336 5 0.333319
3336 221 1.49357e-05
3336 2832 0.666666
3337 4388 1
3338 2262 1
3339 2834 1
3340 2835 1
3341 2836 1
3342 2837 1
3343 1257 1
3344 2838 1
3345 2839 1
3346 2840 1
3347 2841 1
3348 111 0.599926
3348 2652 0.200037
3348 2867 0.200037
3349 2843 1
3350 2844 1
3351 2845 1
3352 2846 1
3353 867 1
3354 2848 1
3355 273 0.571414
3355 727 0.428586
3356 2849 1
3357 121 0.149238
3357 2850 0.850762
3358 3232 0.299996
3358 3873 0.699991
3358 5150 1.21581e-05
3359 506 1
3360 2852 1
3361 2853 1
3362 2854 1
3363 2855 1
3364 2857 1
3365 2858 1
3366 167 1
3367 2859 1
3368 2860 1
3369 2860 1
3370 2861 1
3371 2862 1
3372 2863 1
3373 171 0.499716
3373 2864 0.500284
3374 2865 1
3375 2866 1
3376 1124 0.249173
3376 3383 0.750827
3377 1124 0.00438464
3377 3341 0.995615
3378 2869 1
3379 2868 1
3380 2870 1
3381 2871 1
3382 2872 1
3383 2873 1
3384 2874 1
3385 2875 1
3386 2876 1
3387 2877 1
3388 2878 1
3389 2879 1
3390 2880 1
3391 2881 1
3392 3956 1
3393 2882 1
3394 2883 1
3395 2884 1
3396 2885 1
3397 2886 1
3398 2887 1
3399 4021 1
3400 2888 1
3401 2889 1
3402 2890 1
3403 2891 1
3404 2892 1
3405 864 0.428571
3405 2893 0.571429
3406 2894 1
3407 2895 1
3408 309 0.5
3408 2897 0.5
3409 2898 1
3410 2899 1
3411 2900 1
3412 2901 1
3413 80 0.499993
3413 169 0.250004
3413 397 0.250004
3414 1460 0.411018
3414 2903 0.588982
3415 870 1
3416 723 0.500626
3416 2904 0.499374
3417 2904 0.00264891
3417 2905 0.997351
3418 2648 0.75
3418 2906 0.25
3419 2907 1
3420 2908 1
3421 2909 1
3422 2910 1
3423 2911 1
3424 2912 1
3425 2913 1
3426 2913 1
3427 2915 1
3428 2916 1
3429 378 1
3430 110 1
3431 110 0.939997
3431 2917 0.0600029
3432 2917 1
3433 2918 1
3434 2919 1
3435 2920 1
3436 2921 1
3437 2922 1
3438 2923 1
3439 1410 1
3440 1045 0.25
3440 3427 0.75
3441 2926 1
3442 2926 1
3443 2927 1
3444 2928 1
3445 2929 1
3446 2930 0.923069
3446 2931 0.0769309
3447 2932 1
3448 2933 1
3449 2935 1
3450 2936 1
3451 2937 1
3452 2938 1
3453 53 0.488166
3453 2939 0.511834
3454 2941 1
3455 2943 1
3456 2944 1
3457 2944 1
3458 2161 1
3459 2945 1
3460 2946 1
3461 2947 1
3462 2948 1
3463 2949 1
3464 2951 1
3465 88 0.332385
3465 279 0.333805
3465 2952 0.333809
3466 448 0.499983
3466 2953 0.500017
3467 1201 1
3468 2954 1
3469 2955 1
3470 2956 1
3471 2958 1
3472 2957 1
3473 2959 1
3474 2960 1
3475 2961 1
3476 2962 1
3477 2963 1
3478 2964 1
3479 2965 1
3480 2966 1
3481 762 1
3482 2967 1
3483 2968 1
3484 2969 1
3485 2971 1
3486 111 1
3487 2972 1
3488 2973 1
3489 2974 1
3490 2976 1
3491 2977 1
3492 2978 1
3493 1045 0.522422
3493 1072 0.477578
3494 2979 1
3495 2980 1
3496 2272 1
3497 2982 1
3498 2983 1
3499 2983 1
3500 2984 1
3501 2985 1
3502 2986 1
3503 2988 1
3504 2989 1
3505 2990 1
3506 667 0.00629599
3506 954 0.948463
3506 2991 0.0452409
3507 2992 1
3508 2994 1
3509 291 0.477011
3509 2995 0.522989
3510 291 1
3511 2995 1
3512 291 0.946338
3512 2995 0.0536616
3513 2995 1
3514 2996 1
3515 2997 1
3516 2998 1
3517 3000 1
3518 3001 1
3519 3002 1
3520 3003 1
3521 3004 1
3522 3005 1
3523 3006 1
3524 3007 1
3525 296 1
3526 3008 1
3527 3009 1
3528 3010 1
3529 3011 1
3530 1545 0.125
3530 3447 0.875
3531 3014 1
3532 3015 1
3533 3016 1
3534 3017 1
3535 3018 1
3536 5 0.325576
3536 1776 0.674424
3537 3020 1
3538 3021 1
3539 2110 0.283431
3539 3022 0.716569
3540 3023 1
3541 3024 1
3542 3025 1
3543 3026 1
3544 3027 1
3545 2999 1
3546 3028 1
3547 3029 1
3548 3029 1
3549 3030 1
3550 3031 1
3551 3032 1
3552 980 0.5
3552 1010 0.5
3553 3033 1
3554 3034 1
3555 5 0.0263158
3555 11 0.0263158
3555 18 0.0263158
3555 20 0.0263158
3555 36 0.0263158
3555 41 0.0263158
3555 53 0.0263158
3555 144 0.0263158
3555 179 0.0263158
3555 342 0.0263158
3555 406 0.0263158
3555 452 0.0263158
3555 840 0.0263158
3555 841 0.0263158
3555 871 0.0263158
3555 1352 0.0263158
3555 1500 0.0263158
3555 1514 0.0263158
3555 1995 0.0263158
3555 2294 0.0263158
3555 2419 0.0263158
3555 3007 0.0263158
3555 3013 0.0263158
3555 3023 0.0263158
3555 3024 0.0263158
3555 3035 0.0263158
3555 3036 0.0263158
3555 3037 0.0263158
3555 3038 0.0263158
3555 3039 0.0263158
3555 3040 0.0263158
3555 3041 0.0263158
3555 3042 0.0263158
3555 3043 0.0263158
3555 3044 0.0263158
3555 3045 0.0263158
3555 3046 0.0263158
3555 3047 0.0263158
3556 3007 1
3557 3013 0.249998
3557 4691 0.750002
3558 3035 1
3559 3036 0.608247
3559 4036 0.391753
3560 3037 1
3561 3038 1
3562 3039 1
3563 3040 1
3564 3041 1
3565 3042 1
3566 3043 1
3567 3044 1
3568 3045 1
3569 3046 1
3570 3047 1
3571 3048 1
3572 3049 1
3573 3050 1
3574 3051 1
3575 448 1
3576 3052 1
3577 382 0.499995
3577 1486 0.500005
3578 3053 1
3579 3054 1
3580 3055 1
3581 174 0.5
3581 3056 0.5
3582 3057 1
3583 922 0.75
3583 3058 0.25
3584 158 0.32376
3584 3059 0.67624
3585 3060 1
3586 3061 1
3587 3062 1
3588 3063 0.5
3588 3629 0.5
3589 3065 1
3590 20 1
3591 3066 1
3592 3067 1
3593 372 1
3594 3068 1
3595 164 1
3596 558 0.383249
3596 3059 0.383239
3596 3069 0.233512
3597 3069 1
3598 3070 1
3599 3071 1
3600 3072 1
3601 3073 1
3602 3074 1
3603 3074 1
3604 19 1
3605 3987 1
3606 19 1
3607 2162 1
3608 3075 1
3609 3077 1
3610 3078 1
3611 166 0.00164562
3611 3079 0.998352
3611 3080 2.55451e-06
3612 166 1.03621e-05
3612 3081 0.999984
3612 3085 6.04503e-06
3613 3082 1
3614 3083 1
3615 3084 1
3616 37 0.499776
3616 166 2.64244e-05
3616 3085 0.500198
3617 37 8.32659e-05
3617 3080 0.333331
3617 3085 0.333249
3617 3086 0.333337
3618 3087 1
3619 3088 1
3620 3089 1
3621 3091 1
3622 3092 1
3623 3093 1
3624 3094 1
3625 2027 1
3626 919 0.0445517
3626 4661 0.955448
3627 3096 1
3628 3097 1
3629 504 0.333335
3629 538 0.333335
3629 1364 0.333329
3630 550 0.521624
3630 3098 0.478376
3631 3099 1
3632 3100 1
3633 3101 1
3634 25 0.365219
3634 208 0.634781
3635 842 0.0535507
3635 3102 0.946449
3636 3103 1
3637 3104 1
3638 3105 0.7
3638 4522 0.3
3639 29 0.145041
3639 3106 0.854959
3640 3107 1
3641 3108 1
3642 3109 1
3643 3110 1
3644 162 0.000446899
3644 3111 0.999553
3645 3112 1
3646 3113 1
3647 3114 1
3648 2758 1
3649 3115 1
3650 3116 1
3651 3117 1
3652 3118 1
3653 3119 1
3654 3121 1
3655 3120 1
3656 3121 1
3657 3122 1
3658 552 1
3659 3310 1
3660 336 1
3661 18 1
3662 3179 1
3663 4497 1
3664 19 0.495246
3664 4504 0.504754
3665 3124 1
3666 3125 1
3667 3126 1
3668 3127 1
3669 3128 1
3670 3129 1
3671 3130 1
3672 3132 1
3673 2711 1
3674 1465 1
3675 3133 1
3676 3134 1
3677 29 6.28505e-05
3677 1712 0.599962
3677 3135 0.399975
3678 2688 1
3679 3136 1
3680 190 0.5
3680 3137 0.5
3681 3138 1
3682 3139 1
3683 3140 1
3684 3141 1
3685 3142 1
3686 3143 1
3687 1861 1
3688 145 0.142856
3688 3969 0.857144
3689 3144 1
3690 3145 1
3691 3146 1
3692 285 0.5
3692 3147 0.5
3693 749 1
3694 3149 1
3695 138 0.00392674
3695 3151 0.996073
3696 162 1
3697 3152 1
3698 3153 1
3699 3154 1
3700 3155 1
3701 3156 1
3702 179 1
3703 3157 1
3704 3158 1
3705 3159 1
3706 3160 1
3707 5074 1
3708 165 1
3709 3161 1
3710 3162 1
3711 3163 1
3712 311 0.571429
3712 331 0.428571
3713 174 0.164519
3713 3164 0.835481
3714 2864 1
3715 3165 1
3716 3166 1
3717 3167 1
3718 3168 1
3719 3170 1
3720 3171 1
3721 3172 1
3722 3172 1
3723 3172 1
3724 3173 1
3725 9 1
3726 3174 1
3727 3176 1
3728 3177 1
3729 3178 1
3730 3182 1
3731 3183 1
3732 3184 1
3733 3185 1
3734 3186 1
3735 25 0.999697
3735 3187 0.000303384
3736 3187 1
3737 1025 0.862776
3737 3187 0.137224
3738 116 0.428571
3738 3188 0.571429
3739 3189 1
3740 3190 1
3741 3191 1
3742 3192 1
3743 1717 0.333333
3743 3193 0.666667
3744 3194 1
3745 1092 1
3746 3430 1
3747 11 0.526531
3747 110 0.0774068
3747 3197 0.396062
3748 3198 1
3749 3199 1
3750 3200 1
3751 3201 1
3752 3202 1
3753 3203 1
3754 3204 1
3755 3205 1
3756 3207 1
3757 3208 1
3758 3209 1
3759 3210 1
3760 3211 1
3761 3212 1
3762 584 1
3763 3213 1
3764 3214 1
3765 3215 1
3766 3216 1
3767 758 1
3768 3217 1
3769 3218 1
3770 3219 1
3771 3220 0.333333
3771 3226 0.333333
3771 3255 0.333333
3772 439 1
3773 3222 1
3774 3223 1
3775 3223 1
3776 2153 0.999523
3776 3223 0.000477164
3777 3224 1
3778 3225 0.245954
3778 3233 0.754046
3779 748 0.199334
3779 3227 0.800666
3780 3228 1
3781 3229 1
3782 3230 1
3783 3231 1
3784 1338 1
3785 1338 1
3786 3232 0.999987
3786 5150 1.33069e-05
3787 3235 1
3788 3236 1
3789 3225 1
3790 3237 1
3791 3238 1
3792 3239 1
3793 3240 1
3794 3241 1
3795 3242 1
3796 3243 1
3797 3244 1
3798 3245 1
3799 3246 1
3800 3247 1
3801 3248 1
3802 202 0.75
3802 3250 0.25
3803 3251 1
3804 3252 1
3805 3253 1
3806 3254 1
3807 3256 1
3808 3257 1
3809 1001 1
3810 3258 1
3811 3259 1
3812 2950 1
3813 3261 1
3814 3262 1
3815 3263 1
3816 3264 1
3817 3265 1
3818 3266 1
3819 3267 1
3820 2214 0.5
3820 3268 0.5
3821 3269 1
3822 3270 1
3823 6 0.249953
3823 5086 0.750048
3824 174 3.36848e-05
3824 3273 0.999966
3825 174 0.000270888
3825 3271 0.99958
3825 3272 0.000148862
3826 174 0.249744
3826 1362 0.250122
3826 3272 0.500134
3827 3274 1
3828 11 1
3829 3271 1
3830 3275 1
3831 3276 1
3832 3277 1
3833 3278 1
3834 3279 1
3835 53 0.77859
3835 949 0.22141
3836 53 1
3837 3280 1
3838 3281 1
3839 3282 1
3840 3283 1
3841 63 0.5
3841 3284 0.5
3842 3285 1
3843 729 0.5
3843 3156 0.5
3844 1347 1
3845 3287 1
3846 3288 1
3847 88 0.993473
3847 3289 0.00652694
3848 3289 0.33187
3848 3290 0.66813
3849 3291 1
3850 3292 1
3851 3292 1
3852 3294 1
3853 3295 1
3854 3296 1
3855 3297 1
3856 3298 1
3857 983 1.18101e-05
3857 3826 0.999988
3858 3299 1
3859 3300 1
3860 3301 1
3861 3302 1
3862 3303 1
3863 3304 1
3864 18 1
3865 3304 1
3866 3305 1
3867 3306 1
3868 3307 1
3869 3308 1
3870 3309 1
3871 3310 0.25
3871 4840 0.75
3872 3311 1
3873 3312 1
3874 3313 1
3875 3314 1
3876 3315 1
3877 4032 1
3878 976 1
3879 1271 1
3880 3316 1
3881 88 0.299716
3881 3317 0.400103
3881 5171 0.000102938
3881 5172 0.300078
3882 3318 1
3883 1501 1
3884 3319 1
3885 3320 1
3886 3321 1
3887 3322 1
3888 3323 1
3889 3243 1
3890 3324 1
3891 286 1
3892 3325 1
3893 3326 1
3894 3327 1
3895 3328 1
3896 3329 1
3897 3330 1
3898 3331 1
3899 3332 1
3900 3333 1
3901 3334 1
3902 3335 1
3903 3336 1
3904 3337 1
3905 2439 1
3906 3338 1
3907 3339 1
3908 3340 1
3909 3342 1
3910 3343 1
3911 3345 1
3912 332 1
3913 3346 1
3914 3347 1
3915 3348 1
3916 738 0.11111
3916 3349 0.88889
3917 1039 1
3918 468 1
3919 894 1
3920 3350 0.5
3920 3503 0.5
3921 3351 1
3922 3352 1
3923 3353 1
3924 3180 0.75
3924 3354 0.25
3925 4026 0.5
3925 4945 0.5
3926 3355 1
3927 3356 1
3928 3357 1
3929 3358 1
3930 3359 1
3931 3359 1
3932 3359 1
3933 3360 1
3934 3361 1
3935 3362 1
3936 3363 1
3937 3364 1
3938 1790 1
3939 3365 1
3940 3366 1
3941 1002 0.5
3941 3809 0.5
3942 2127 0.25
3942 4802 0.75
3943 3368 1
3944 74 0.999852
3944 208 0.0001479
3945 208 1
3946 3369 1
3947 3369 1
3948 3370 1
3949 3371 1
3950 3372 1
3951 3373 1
3952 3374 1
3953 3375 1
3954 3376 1
3955 3377 1
3956 77 7.18418e-05
3956 448 0.604907
3956 3378 0.395021
3957 3379 1
3958 3378 0.0393059
3958 3380 0.960694
3959 3381 1
3960 3382 1
3961 250 0.333333
3961 3846 0.666667
3962 3383 1
3963 3383 1
3964 3383 1
3965 3384 1
3966 3385 1
3967 202 0.974115
3967 2116 0.0258851
3968 202 1
3969 8 1
3970 3386 1
3971 5 1
3972 1459 1
3973 3388 1
3974 3389 1
3975 3390 1
3976 3391 1
3977 3392 1
3978 3393 1
3979 3394 1
3980 3395 1
3981 9 0.300906
3981 788 0.699094
3982 9 1
3983 3396 1
3984 1459 0.5
3984 3397 0.5
3985 3398 1
3986 3399 1
3987 3400 1
3988 3401 1
3989 3402 1
3990 3403 1
3991 233 0.499258
3991 2401 0.500742
3992 3404 1
3993 3079 1.74447e-06
3993 3405 0.999998
3994 3406 1
3995 19 0.326902
3995 147 8.2028e-06
3995 500 0.00107381
3995 1383 0.331721
3995 2698 0.331721
3995 3028 0.0085744
3996 428 2.08037e-05
3996 500 0.498988
3996 3028 0.000268328
3996 3407 0.500723
3997 3408 1
3998 3409 1
3999 763 0.333329
3999 3410 0.666671
4000 5 1.557e-05
4000 1541 0.333326
4000 3411 0.666658
4001 3412 1
4002 3413 1
4003 144 0.243656
4003 189 0.252115
4003 3414 0.252115
4003 3868 0.252115
4004 3415 1
4005 190 1
4006 3416 1
4007 2409 1
4008 3417 1
4009 3418 1
4010 3419 1
4011 20 1
4012 3420 1
4013 3421 1
4014 3422 1
4015 3423 1
4016 3424 1
4017 3425 1
4018 3426 1
4019 3427 1
4020 3428 1
4021 3428 1
4022 427 1
4023 15 0.504488
4023 80 0.495512
4024 3429 1
4025 1565 1
4026 3431 1
4027 3432 1
4028 3433 1
4029 3434 1
4030 3435 1
4031 3436 1
4032 3437 1
4033 1097 1
4034 3438 1
4035 3439 0.25
4035 4627 0.75
4036 3440 1
4037 3441 1
4038 3442 1
4039 3443 1
4040 3444 1
4041 3445 1
4042 3445 1
4043 3445 1
4044 3446 1
4045 3448 1
4046 3449 1
4047 3450 1
4048 3451 1
4049 3452 1
4050 325 0.500002
4050 547 0.499998
4051 147 0.306568
4051 1805 0.346716
4051 3453 0.346716
4052 3454 1
4053 3455 1
4054 3456 1
4055 3457 1
4056 3451 0.5
4056 3458 0.5
4057 3459 1
4058 3460 1
4059 3461 1
4060 3462 1
4061 325 1
4062 3464 1
4063 3467 1
4064 3468 1
4065 237 1
4066 3469 1
4067 162 0.499616
4067 3470 0.500384
4068 647 0.57147
4068 3232 0.42853
4069 113 1
4070 3463 1
4071 1198 1
4072 3472 1
4073 52 1
4074 322 0.499839
4074 448 0.500161
4075 3473 1
4076 3474 1
4077 3475 1
4078 3476 1
4079 3477 1
4080 3478 1
4081 392 1
4082 3479 1
4083 3480 1
4084 3482 1
4085 3483 1
4086 376 1
4087 3484 1
4088 3485 1
4089 45 0.799137
4089 3485 0.200863
4090 3486 1
4091 3486 1
4092 3488 1
4093 3489 1
4094 3493 1
4095 3495 1
4096 286 0.230767
4096 3496 0.769233
4097 449 0.277694
4097 1575 0.361153
4097 3497 0.361153
4098 3498 1
4099 3499 1
4100 3500 1
4101 3501 1
4102 3502 1
4103 3504 1
4104 3505 1
4105 3504 1
4106 3507 1
4107 3508 1
4108 3509 1
4109 3510 1
4110 3511 1
4111 3512 0.907619
4111 4247 0.092381
4112 3513 1
4113 80 1
4114 3514 1
4115 3515 1
4116 80 1
4117 80 1
4118 325 1
4119 4722 1
4120 147 5.22168e-06
4120 434 0.499997
4120 2135 0.499997
4121 28 0.332206
4121 3516 0.667794
4122 3517 1
4123 3518 1
4124 3519 1
4125 3520 1
4126 3521 1
4127 3522 1
4128 3523 1
4129 1159 1
4130 397 1
4131 3524 1
4132 3528 1
4133 1005 1
4134 3530 1
4135 332 1
4136 3531 1
4137 3532 1
4138 3533 1
4139 2272 1
4140 3534 1
4141 3535 1
4142 3536 1
4143 832 1
4144 3537 1
4145 3538 1
4146 913 0.199807
4146 3539 0.800193
4147 776 0.15
4147 3181 0.85
4148 3541 1
4149 756 0.3
4149 2561 0.0999999
4149 4839 0.6
4150 3542 1
4151 3543 1
4152 3544 1
4153 3545 1
4154 458 1
4155 3546 1
4156 3547 1
4157 3548 1
4158 484 0.575626
4158 3549 0.424374
4159 2863 1
4160 77 0.49946
4160 484 0.000956335
4160 3550 0.499584
4161 28 1
4162 3551 1
4163 3552 1
4164 3553 1
4165 3554 1
4166 3555 1
4167 1035 0.5
4167 3557 0.5
4168 3558 1
4169 3559 1
4170 3556 1
4171 894 0.333339
4171 3560 0.333322
4171 3561 0.333339
4172 3562 1
4173 3563 1
4174 3564 1
4175 3565 1
4176 3566 1
4177 138 0.490756
4177 174 0.509244
4178 3567 1
4179 3568 1
4180 3569 1
4181 3570 1
4182 3571 1
4183 3572 1
4184 3573 1
4185 3574 1
4186 3575 1
4187 3577 1
4188 3578 1
4189 2561 0.250001
4189 3579 0.749999
4190 3580 1
4191 3581 1
4192 863 0.333335
4192 3582 0.333335
4192 3583 0.333329
4193 3584 1
4194 3586 1
4195 3587 1
4196 3588 1
4197 125 1
4198 3589 1
4199 3583 1
4200 2531 1
4201 19 0.199986
4201 36 2.69968e-05
4201 3591 0.799987
4202 3592 1
4203 3593 1
4204 73 0.499917
4204 219 0.500082
4205 3594 1
4206 189 0.333332
4206 3579 0.333337
4206 3595 0.333332
4207 25 0.219421
4207 3596 0.780579
4208 176 1
4209 144 0.499991
4209 3597 0.500009
4210 50 1
4211 177 1
4212 3598 0.5
4212 3642 0.5
4213 3599 1
4214 3600 1
4215 136 1
4216 3556 1
4217 3601 1
4218 3602 1
4219 3604 1
4220 3605 1
4221 448 1
4222 3606 1
4223 3607 1
4224 1093 1
4225 3608 1
4226 3609 0.999963
4226 3614 3.65431e-05
4227 3471 1
4228 3610 1
4229 3611 1
4230 3612 1
4231 3613 1
4232 3585 1
4233 550 0.37484
4233 3615 0.125032
4233 3773 0.500128
4234 3617 1
4235 3618 1
4236 1009 1
4237 3619 1
4238 3620 1
4239 3622 1
4240 221 1
4241 138 1
4242 3623 1
4243 80 5.16293e-06
4243 3624 0.999995
4244 3625 1
4245 3626 1
4246 3627 1
4247 3628 1
4248 3629 1
4249 1055 1
4250 162 1
4251 3630 1
4252 162 0.000200112
4252 5105 0.9998
4253 856 1
4254 166 0.499546
4254 3632 0.500454
4255 3633 1
4256 3634 1
4257 3635 1
4258 3636 1
4259 3637 1
4260 3638 1
4261 3639 1
4262 3640 1
4263 19 0.248615
4263 4425 0.751385
4264 3641 1
4265 3643 1
4266 11 0.613388
4266 3644 0.386612
4267 3644 1
4268 3645 1
4269 3646 1
4270 53 1
4271 20 0.653502
4271 53 0.346498
4272 3647 1
4273 3648 1
4274 3649 1
4275 3650 0.499978
4275 3651 0.500022
4276 20 0.242829
4276 3651 0.757171
4277 1097 0.333333
4277 3652 0.333333
4277 3656 0.333333
4278 1863 1
4279 3653 1
4280 3654 1
4281 3655 1
4282 676 1
4283 3657 1
4284 3658 1
4285 3659 1
4286 88 1
4287 3660 1
4288 3661 1
4289 3662 1
4290 3663 1
4291 3664 1
4292 3665 1
4293 3666 1
4294 3667 1
4295 3668 1
4296 5 0.189786
4296 500 0.189808
4296 602 0.0498196
4296 3669 0.570586
4297 3670 1
4298 3671 1
4299 3672 1
4300 449 1
4301 3673 1
4302 3674 1
4303 3675 1
4304 3676 1
4305 3677 1
4306 3678 1
4307 2858 1
4308 3679 1
4309 3680 0.5
4309 3696 0.5
4310 3681 1
4311 3516 1
4312 3683 1
4313 3684 1
4314 243 6.82226e-06
4314 3685 0.999993
4315 3686 1
4316 3687 1
4317 3688 1
4318 11 1
4319 3689 1
4320 3691 1
4321 3692 1
4322 2732 1
4323 3693 1
4324 3694 1
4325 925 1
4326 3695 1
4327 602 1
4328 3697 1
4329 3698 1
4330 3699 1
4331 3700 1
4332 3701 1
4333 3702 1
4334 3703 1
4335 143 0.332362
4335 2223 0.333819
4335 4015 0.333819
4336 54 0.5
4336 989 0.5
4337 3704 1
4338 2770 0.995328
4338 3682 0.00467153
4339 3705 1
4340 3705 1
4341 3706 1
4342 273 1
4343 3707 1
4344 2671 1
4345 3708 1
4346 3709 1
4347 3710 1
4348 3711 1
4349 3712 1
4350 3713 1
4351 3714 1
4352 3715 1
4353 3716 1
4354 3717 1
4355 3718 1
4356 3719 1
4357 3720 1
4358 605 1
4359 3721 1
4360 3722 1
4361 3723 1
4362 227 0.0001442
4362 282 0.000602248
4362 731 0.333084
4362 3724 0.333085
4362 3727 0.333085
4363 2448 0.333333
4363 3725 0.333333
4363 3728 0.333334
4364 3726 1
4365 29 0.249009
4365 121 0.25034
4365 227 0.00014708
4365 3723 0.25014
4365 3729 0.250364
4366 88 0.24986
4366 227 5.66489e-06
4366 282 0.249742
4366 3730 0.250196
4366 3731 0.250196
4367 3732 1
4368 3733 1
4369 3734 1
4370 270 1
4371 748 1
4372 3739 1
4373 3736 1
4374 3737 1
4375 3738 1
4376 3740 1
4377 3741 1
4378 3742 1
4379 3743 1
4380 4523 1
4381 3745 1
4382 3746 1
4383 77 1
4384 1471 1
4385 3748 1
4386 3749 1
4387 3750 1
4388 1488 1
4389 195 1
4390 165 1
4391 94 0.33334
4391 166 0.33332
4391 3751 0.33334
4392 3752 1
4393 3753 1
4394 219 1
4395 3754 1
4396 3755 1
4397 3756 1
4398 25 0.749871
4398 3757 0.250129
4399 3758 1
4400 346 1
4401 3759 1
4402 3760 1
4403 3761 1
4404 3135 1
4405 286 0.299996
4405 3762 0.700004
4406 3763 1
4407 3764 1
4408 3765 1
4409 3766 1
4410 3767 1
4411 3768 1
4412 88 1
4413 3769 1
4414 2155 1
4415 4062 1
4416 3770 1
4417 3771 1
4418 3772 1
4419 3774 1
4420 9 0.000693073
4420 4110 0.999307
4421 325 1
4422 3775 1
4423 3776 1
4424 3777 1
4425 3778 1
4426 3779 1
4427 3780 1
4428 3781 1
4429 3782 1
4430 3783 1
4431 1159 0.0598955
4431 4144 0.940104
4432 3784 1
4433 3785 0.998988
4433 3786 0.00101199
4434 3787 1
4435 3788 1
4436 3789 1
4437 3790 1
4438 3791 1
4439 53 1
4440 20 1
4441 2744 0.5
4441 3792 0.5
4442 3793 1
4443 3794 1
4444 3796 1
4445 3797 1
4446 140 0.333414
4446 1990 0.333173
4446 3798 0.333413
4447 3799 1
4448 3800 1
4449 3801 1
4450 3802 1
4451 3803 1
4452 3804 1
4453 242 0.25
4453 994 0.75
4454 3805 1
4455 147 0.749997
4455 3806 0.250003
4456 683 1
4457 52 0.496129
4457 162 0.49323
4457 949 0.0106415
4458 3798 1
4459 151 1
4460 3808 1
4461 3810 1
4462 3811 1
4463 3812 1
4464 3813 1
4465 3814 1
4466 3815 1
4467 3816 1
4468 3817 1
4469 103 1
4470 1937 0.75
4470 3818 0.25
4471 3819 1
4472 1364 0.250001
4472 3820 0.749999
4473 3821 1
4474 3822 1
4475 3824 1
4476 397 1
4477 916 1
4478 3827 1
4479 3828 1
4480 247 0.201856
4480 676 0.201859
4480 3829 0.596285
4481 3830 1
4482 3831 1
4483 3832 1
4484 3833 1
4485 3834 1
4486 501 0.337625
4486 677 0.337741
4486 3829 0.0152407
4486 3835 0.309393
4487 3836 1
4488 3837 1
4489 3986 1
4490 1494 1
4491 3838 1
4492 3839 1
4493 3840 1
4494 3841 1
4495 3842 1
4496 3843 1
4497 3844 1
4498 3845 1
4499 3847 1
4500 11 0.496951
4500 756 0.503049
4501 3848 1
4502 3849 1
4503 144 0.327895
4503 1039 0.336053
4503 3850 0.336053
4504 3851 1
4505 286 0.0666321
4505 1515 0.133338
4505 4134 0.80003
4506 2773 0.9922
4506 3852 0.00779993
4507 3852 0.498101
4507 3853 0.501899
4508 3853 0.000296707
4508 3854 0.999703
4509 3855 1
4510 3856 1
4511 2310 1
4512 3857 1
4513 3858 1
4514 3852 1
4515 3859 1
4516 3860 1
4517 3861 1
4518 3862 1
4519 3863 1
4520 3864 1
4521 3865 1
4522 230 0.136117
4522 4284 0.863883
4523 3866 1
4524 3867 1
4525 3869 1
4526 3870 1
4527 3871 1
4528 3872 1
4529 350 1
4530 162 0.00108943
4530 279 0.998911
4531 93 1
4532 3874 1
4533 3875 1
4534 825 1
4535 1206 1
4536 3876 1
4537 3876 1
4538 3877 1
4539 3878 1
4540 3879 1
4541 3744 1
4542 3880 1
4543 3881 1
4544 3882 1
4545 88 0.33313
4545 153 4.61422e-06
4545 370 0.333433
4545 3883 0.333432
4546 3885 1
4547 3886 1
4548 3888 1
4549 3889 1
4550 3890 1
4551 3891 1
4552 3892 1
4553 81 1
4554 3893 1
4555 3894 1
4556 427 1
4557 3895 1
4558 3896 1
4559 3897 0.000515175
4559 3899 0.999485
4560 3900 1
4561 3901 1
4562 1045 1
4563 3898 1
4564 3902 1
4565 3903 1
4566 3904 1
4567 3905 1
4568 3906 1
4569 3907 1
4570 171 0.296766
4570 559 0.350433
4570 3908 0.352801
4571 221 0.0591994
4571 3909 0.940801
4572 3910 1
4573 3911 1
4574 3912 1
4575 3913 1
4576 3914 1
4577 3915 1
4578 3916 1
4579 3917 1
4580 3918 1
4581 10 0.50063
4581 3908 0.49937
4582 3919 1
4583 3920 1
4584 3921 1
4585 3922 1
4586 3898 1
4587 3923 1
4588 3924 1
4589 3925 1
4590 3926 1
4591 3927 1
4592 3928 1
4593 3928 1
4594 458 1
4595 60 1
4596 53 1
4597 3929 1
4598 3930 1
4599 3931 1
4600 3932 1
4601 3933 1
4602 3934 1
4603 3897 1
4604 3935 1
4605 355 0.0364489
4605 3936 0.963551
4606 3937 1
4607 3938 1
4608 3939 1
4609 3940 1
4610 3941 1
4611 2625 1
4612 80 0.552177
4612 355 0.447823
4613 3942 1
4614 3257 1
4615 3943 1
4616 3943 1
4617 2249 0.888889
4617 2991 0.111111
4618 3945 1
4619 1942 0.5
4619 4816 0.5
4620 103 1
4621 249 0.5
4621 4848 0.5
4622 3948 1
4623 3950 1
4624 2410 1
4625 3951 1
4626 36 1
4627 36 1
4628 121 1
4629 121 1
4630 3952 1
4631 3339 1
4632 3339 1
4633 3953 1
4634 397 1
4635 3818 1
4636 3954 1
4637 3955 1
4638 3956 1
4639 3957 1
4640 3532 1
4641 3958 1
4642 3959 1
4643 3960 1
4644 3961 1
4645 3962 1
4646 3963 1
4647 3964 1
4648 3965 1
4649 3966 1
4650 271 1
4651 3967 1
4652 832 0.5
4652 3968 0.5
4653 3970 1
4654 3971 1
4655 1712 1
4656 3972 1
4657 3973 1
4658 9 1
4659 3974 1
4660 3975 1
4661 3976 1
4662 3977 1
4663 10 1
4664 3978 1
4665 1097 1
4666 3979 1
4667 3980 1
4668 3980 1
4669 3981 1
4670 3982 1
4671 3983 1
4672 3744 1
4673 3984 1
4674 3984 1
4675 1870 1
4676 993 0.61362
4676 1870 0.38638
4677 3985 1
4678 3988 1
4679 3989 1
4680 3990 1
4681 3991 1
4682 3992 1
4683 3993 1
4684 3994 1
4685 3995 1
4686 3996 1
4687 3997 1
4688 3998 1
4689 3999 1
4690 1228 0.0167423
4690 3806 0.00398099
4690 4000 0.979277
4691 1228 0.124659
4691 3806 0.43443
4691 4001 0.440911
4692 4002 1
4693 4003 1
4694 174 1
4695 143 1
4696 4004 1
4697 4005 1
4698 4006 1
4699 4007 1
4700 4008 1
4701 4009 1
4702 4010 1
4703 4011 1
4704 110 0.249999
4704 4012 0.750001
4705 1990 0.5
4705 4521 0.5
4706 4014 1
4707 4016 1
4708 4017 1
4709 3498 1
4710 2322 1
4711 1712 1
4712 4007 0.5
4712 4018 0.5
4713 4019 1
4714 3613 0.274324
4714 3964 0.362838
4714 4020 0.362838
4715 19 1
4716 640 0.25
4716 4022 0.25
4716 4659 0.249999
4716 4660 0.25
4717 4024 1
4718 4025 1
4719 4026 0.5
4719 4549 0.5
4720 4027 1
4721 4028 1
4722 4029 1
4723 4030 1
4724 18 1
4725 18 1
4726 4031 1
4727 794 1
4728 4033 1
4729 4034 1
4730 4035 1
4731 4036 1
4732 4037 1
4733 4018 1
4734 4038 1
4735 4039 1
4736 4040 1
4737 4041 1
4738 2249 1
4739 4042 1
4740 4043 1
4741 4044 1
4742 4045 1
4743 4046 1
4744 36 1
4745 1614 0.99943
4745 4047 0.000569524
4746 4048 1
4747 4049 1
4748 4050 1
4749 190 1
4750 4051 1
4751 4052 1
4752 77 0.499992
4752 4055 0.499992
4752 4436 1.61897e-05
4753 4056 1
4754 4057 1
4755 4058 1
4756 4059 1
4757 4061 1
4758 4063 1
4759 4064 1
4760 3885 1
4761 486 1
4762 4065 1
4763 4067 1
4764 4068 1
4765 5 0.391003
4765 80 0.304493
4765 4069 0.304504
4766 9 1
4767 1811 1
4768 4070 1
4769 4071 1
4770 217 1
4771 4072 1
4772 4073 1
4773 4074 1
4774 80 0.498505
4774 217 0.501495
4775 4075 1
4776 4076 1
