1 1 4 100 1
0 2 4 100 0.174019
1 2 4 100 0.825981
0 3 4 100 1
0 4 4 100 0.0412302
1 4 4 100 0.95877
0 5 4 100 2.68277e-05
2 5 4 100 0.999973
3 6 4 100 1
3 7 4 100 1
0 8 4 100 0.342503
1 8 4 100 0.657497
0 9 4 100 0.0536388
1 9 4 100 0.946361
1 10 4 100 1
4 11 4 100 1
1 1 6 100 1
0 2 6 100 5.84217e-06
2 2 6 100 0.999994
0 3 6 100 2.22554e-05
3 3 6 100 0.666644
4 3 6 100 0.333334
0 4 6 100 2.82265e-05
2 4 6 100 4.41848e-06
4 4 6 100 0.666634
5 4 6 100 0.333333
0 5 6 100 0.100248
4 5 6 100 0.333333
5 5 6 100 0.233085
6 5 6 100 0.333333
5 6 6 100 1
6 7 6 100 1
0 1 7 100 0.00727719
1 1 7 100 0.992723
0 2 7 100 7.44902e-05
1 2 7 100 0.166597
2 2 7 100 0.833329
0 3 7 100 5.18493e-06
2 3 7 100 0.166666
3 3 7 100 0.833329
3 4 7 100 0.166667
4 4 7 100 0.589727
5 4 7 100 0.166667
6 4 7 100 0.0769394
4 5 7 100 0.166667
5 5 7 100 0.5
6 5 7 100 0.166667
7 5 7 100 0.166667
0 6 7 100 0.199999
5 6 7 100 0.2
6 6 7 100 0.2
7 6 7 100 0.4
6 7 7 100 0.666667
7 7 7 100 0.333333
7 8 7 100 1
1 1 8 100 1
0 2 8 100 0.333334
2 2 8 100 0.666666
0 3 8 100 0.333333
3 3 8 100 0.666667
0 4 8 100 0.333334
4 4 8 100 0.666666
0 5 8 100 0.333333
5 5 8 100 0.666667
2 6 8 100 0.333333
6 6 8 100 0.666667
0 7 8 100 0.334958
3 7 8 100 0.333334
7 7 8 100 0.331709
4 8 8 100 0.333333
7 8 8 100 0.666667
5 9 8 100 0.333333
8 9 8 100 0.666667
6 10 8 100 1
7 11 8 100 1
8 12 8 100 1
0 1 9 100 1.70123e-06
1 1 9 100 0.923075
4 1 9 100 0.0769231
0 2 9 100 0.000593321
1 2 9 100 0.153293
2 2 9 100 0.653834
6 2 9 100 0.115357
7 2 9 100 0.0769231
0 3 9 100 5.22158e-06
2 3 9 100 0.153846
3 3 9 100 0.538458
4 3 9 100 0.0769231
7 3 9 100 0.153844
8 3 9 100 0.0769231
0 4 9 100 8.23636e-06
3 4 9 100 0.153846
4 4 9 100 0.538462
5 4 9 100 0.0769149
8 4 9 100 0.153845
9 4 9 100 0.0769231
0 5 9 100 0.0347042
2 5 9 100 0.0833088
4 5 9 100 0.16666
5 5 9 100 0.548636
6 5 9 100 0.0833332
8 5 9 100 2.3988e-05
9 5 9 100 0.0833334
0 6 9 100 0.0886419
3 6 9 100 0.00194356
4 6 9 100 0.000334582
5 6 9 100 0.272726
6 6 9 100 0.545445
7 6 9 100 0.0909092
0 7 9 100 7.50656e-06
3 7 9 100 0.002063
4 7 9 100 4.11885e-06
5 7 9 100 4.41602e-06
6 7 9 100 0.36363
7 7 9 100 0.363637
8 7 9 100 0.179745
9 7 9 100 0.0909092
0 8 9 100 2.10697e-06
7 8 9 100 0.499998
8 8 9 100 0.3
9 8 9 100 0.2
8 9 9 100 0.625
9 9 9 100 0.375
9 10 9 100 1
1 1 10 100 1
0 2 10 100 0.00112154
2 2 10 100 0.882349
3 2 10 100 0.0588235
4 2 10 100 0.0577062
0 3 10 100 0.0591525
3 3 10 100 0.622743
5 3 10 100 0.200781
6 3 10 100 0.0588235
8 3 10 100 0.0585006
0 4 10 100 0.000565184
3 4 10 100 1.37153e-05
4 4 10 100 0.517958
5 4 10 100 0.0588307
6 4 10 100 0.212352
7 4 10 100 0.0932243
8 4 10 100 0.117057
0 5 10 100 0.0168715
2 5 10 100 0.0587801
3 5 10 100 2.68013e-06
4 5 10 100 0.00030444
5 5 10 100 0.413361
6 5 10 100 0.157743
7 5 10 100 0.176467
8 5 10 100 0.117646
9 5 10 100 0.0588235
0 6 10 100 0.000722341
3 6 10 100 0.0588214
6 6 10 100 0.40975
7 6 10 100 0.17647
8 6 10 100 0.176471
9 6 10 100 0.118942
10 6 10 100 0.0588236
0 7 10 100 1.24522e-06
4 7 10 100 0.0625
7 7 10 100 0.3125
8 7 10 100 0.187499
9 7 10 100 0.1875
10 7 10 100 0.25
0 8 10 100 1.40575e-06
5 8 10 100 0.0833333
7 8 10 100 0.0833333
8 8 10 100 0.29291
9 8 10 100 0.290422
10 8 10 100 0.25
0 9 10 100 3.68605e-06
6 9 10 100 0.111107
8 9 10 100 0.111111
9 9 10 100 0.333333
10 9 10 100 0.444444
7 10 10 100 0.2
9 10 10 100 0.2
10 10 10 100 0.6
8 11 10 100 0.5
10 11 10 100 0.5
9 12 10 100 1
10 13 10 100 1
1 1 11 100 1
0 2 11 100 0.0454857
1 2 11 100 0.0454442
2 2 11 100 0.863659
3 2 11 100 0.0454116
0 3 11 100 0.0454647
1 3 11 100 0.0454545
3 3 11 100 0.863629
4 3 11 100 0.0454516
0 4 11 100 0.0455868
1 4 11 100 0.0453283
2 4 11 100 0.0454546
4 4 11 100 0.818176
5 4 11 100 0.0454546
0 5 11 100 0.0454712
2 5 11 100 0.0454427
3 5 11 100 0.045453
5 5 11 100 0.772721
6 5 11 100 0.0454546
7 5 11 100 0.0454546
9 5 11 100 3.23536e-06
0 6 11 100 0.000368994
3 6 11 100 0.090909
4 6 11 100 0.0454546
6 6 11 100 0.77236
8 6 11 100 0.0909078
0 7 11 100 0.0457635
4 7 11 100 0.0454545
5 7 11 100 0.0454546
7 7 11 100 0.772418
9 7 11 100 0.0909092
0 8 11 100 0.0454687
5 8 11 100 0.0454546
6 8 11 100 0.0454545
8 8 11 100 0.77271
9 8 11 100 3.42131e-06
10 8 11 100 0.0909092
0 9 11 100 0.0307969
4 9 11 100 0.0454546
6 9 11 100 0.0454545
7 9 11 100 0.0454546
9 9 11 100 0.70532
10 9 11 100 0.0366106
11 9 11 100 0.0909091
0 10 11 100 0.0500014
5 10 11 100 0.0499999
7 10 11 100 0.0499999
8 10 11 100 0.0499986
10 10 11 100 0.7
11 10 11 100 0.1
0 11 11 100 0.0555566
6 11 11 100 0.0555556
8 11 11 100 0.0555556
9 11 11 100 0.0555544
10 11 11 100 0.0555556
11 11 11 100 0.722222
7 12 11 100 0.2
9 12 11 100 0.4
10 12 11 100 0.2
11 12 11 100 0.2
8 13 11 100 0.25
10 13 11 100 0.5
11 13 11 100 0.25
0 14 11 100 5.09927e-05
9 14 11 100 0.333282
11 14 11 100 0.666667
10 15 11 100 1
11 16 11 100 1
1 1 12 100 0.965517
3 1 12 100 0.0344828
0 2 12 100 1.4166e-05
2 2 12 100 0.827572
3 2 12 100 0.0689656
4 2 12 100 0.0689655
8 2 12 100 0.0344824
0 3 12 100 0.031289
3 3 12 100 0.727334
4 3 12 100 0.103448
5 3 12 100 0.0689634
7 3 12 100 0.0228347
9 3 12 100 0.0461307
0 4 12 100 5.7283e-05
3 4 12 100 0.0344828
4 4 12 100 0.724137
5 4 12 100 0.103392
6 4 12 100 0.0689655
10 4 12 100 0.0689655
0 5 12 100 2.14937e-05
2 5 12 100 0.0342853
4 5 12 100 0.0344828
5 5 12 100 0.689527
6 5 12 100 0.103729
7 5 12 100 0.0689888
11 5 12 100 0.0689656
0 6 12 100 0.00126631
4 6 12 100 0.0344798
5 6 12 100 0.0344819
6 6 12 100 0.688394
7 6 12 100 0.103447
8 6 12 100 0.0689656
9 6 12 100 0.0344825
12 6 12 100 0.0344828
0 7 12 100 2.06419e-05
5 7 12 100 0.0357171
6 7 12 100 0.071422
7 7 12 100 0.628786
8 7 12 100 0.142833
9 7 12 100 0.0854829
10 7 12 100 0.0357143
11 7 12 100 2.42424e-05
0 8 12 100 1.31212e-05
6 8 12 100 0.0714285
7 8 12 100 0.0357143
8 8 12 100 0.607135
9 8 12 100 0.142851
10 8 12 100 0.0714286
11 8 12 100 0.0357143
12 8 12 100 0.0357143
0 9 12 100 1.75632e-05
7 9 12 100 0.0740711
8 9 12 100 0.0370361
9 9 12 100 0.520652
10 9 12 100 0.217284
11 9 12 100 0.0768651
12 9 12 100 0.0740741
0 10 12 100 8.97581e-05
8 10 12 100 0.04
9 10 12 100 0.0799103
10 10 12 100 0.48
11 10 12 100 0.24
12 10 12 100 0.16
0 11 12 100 7.7919e-05
9 11 12 100 0.0476188
10 11 12 100 0.0951547
11 11 12 100 0.571434
12 11 12 100 0.285714
0 12 12 100 0.0666644
8 12 12 100 5.96902e-06
10 12 12 100 0.066663
11 12 12 100 0.133333
12 12 12 100 0.733333
0 13 12 100 0.25
11 13 12 100 0.5
12 13 12 100 0.25
0 14 12 100 0.333333
12 14 12 100 0.666667
12 15 12 100 1
1 1 13 100 0.972973
2 1 13 100 0.027027
0 2 13 100 0.000308936
1 2 13 100 0.027027
2 2 13 100 0.866115
3 2 13 100 0.0269261
4 2 13 100 0.0796228
6 2 13 100 5.30512e-07
0 3 13 100 0.0540748
3 3 13 100 0.805215
4 3 13 100 0.0219405
5 3 13 100 0.0270271
6 3 13 100 0.0270292
7 3 13 100 0.0647139
0 4 13 100 1.01179e-05
1 4 13 100 0.027027
2 4 13 100 0.027027
4 4 13 100 0.729687
5 4 13 100 0.0270484
6 4 13 100 0.0498774
7 4 13 100 0.0540544
8 4 13 100 0.085269
0 5 13 100 0.0270753
2 5 13 100 0.0270264
3 5 13 100 0.027027
5 5 13 100 0.6088
6 5 13 100 0.0669611
7 5 13 100 0.0540005
8 5 13 100 0.081052
9 5 13 100 0.108057
0 6 13 100 4.38519e-05
3 6 13 100 0.027027
4 6 13 100 0.027027
5 6 13 100 0.0270203
6 6 13 100 0.621586
7 6 13 100 0.081082
8 6 13 100 0.0270264
9 6 13 100 0.108107
10 6 13 100 0.0810798
0 7 13 100 0.0270451
4 7 13 100 0.0270266
5 7 13 100 0.0270275
7 7 13 100 0.579556
8 7 13 100 0.0810811
9 7 13 100 0.0420533
10 7 13 100 0.135131
11 7 13 100 0.0810791
0 8 13 100 3.82423e-05
5 8 13 100 0.054054
6 8 13 100 0.0270062
8 8 13 100 0.486473
9 8 13 100 0.0810805
10 8 13 100 0.0810796
11 8 13 100 0.16216
12 8 13 100 0.108108
0 9 13 100 2.24029e-05
6 9 13 100 0.0540503
7 9 13 100 0.000165046
9 9 13 100 0.459454
10 9 13 100 0.13496
11 9 13 100 0.108105
12 9 13 100 0.135135
13 9 13 100 0.108108
0 10 13 100 0.0264218
7 10 13 100 0.0606061
10 10 13 100 0.484784
11 10 13 100 0.181814
12 10 13 100 0.0645566
13 10 13 100 0.181818
0 11 13 100 0.0830035
6 11 13 100 2.14542e-06
8 11 13 100 0.0740771
11 11 13 100 0.546621
12 11 13 100 0.222222
13 11 13 100 0.0740741
0 12 13 100 5.10796e-05
8 12 13 100 0.0399555
9 12 13 100 0.0799993
11 12 13 100 0.04
12 12 13 100 0.599994
13 12 13 100 0.24
9 13 13 100 0.0526316
10 13 13 100 0.105263
12 13 13 100 0.105263
13 13 13 100 0.736842
0 14 13 100 0.000229712
10 14 13 100 0.199783
11 14 13 100 0.399988
12 14 13 100 0.2
13 14 13 100 0.2
11 15 13 100 0.249888
12 15 13 100 0.500112
13 15 13 100 0.25
12 16 13 100 0.333333
13 16 13 100 0.666667
13 17 13 100 1
0 1 14 100 1.4545e-06
1 1 14 100 0.999999
0 2 14 100 0.000222399
1 2 14 100 0.0181251
2 2 14 100 0.893461
3 2 14 100 0.0427941
5 2 14 100 0.00908206
11 2 14 100 0.0363153
0 3 14 100 0.0182104
1 3 14 100 0.0181818
2 3 14 100 0.018181
3 3 14 100 0.841945
4 3 14 100 0.067113
5 3 14 100 1.5306e-05
6 3 14 100 0.0181664
10 3 14 100 5.26278e-06
12 3 14 100 0.0181818
0 4 14 100 0.0350952
1 4 14 100 1.52395e-05
3 4 14 100 0.0181818
4 4 14 100 0.747067
5 4 14 100 0.109088
7 4 14 100 0.0363633
8 4 14 100 0.0178253
11 4 14 100 0.0181818
13 4 14 100 0.0181818
0 5 14 100 0.0231171
1 5 14 100 0.0181817
3 5 14 100 0.0363637
4 5 14 100 0.0363542
5 5 14 100 0.727258
6 5 14 100 0.0702881
7 5 14 100 0.0175634
8 5 14 100 0.0363637
9 5 14 100 0.0163292
11 5 14 100 0.0181809
0 6 14 100 0.0187659
3 6 14 100 0.0181818
4 6 14 100 0.0362445
5 6 14 100 0.0540996
6 6 14 100 0.700005
7 6 14 100 0.0817921
8 6 14 100 0.0363624
9 6 14 100 0.0363632
10 6 14 100 1.13928e-06
11 6 14 100 0.0181839
0 7 14 100 0.03181
2 7 14 100 0.0360881
3 7 14 100 0.00141359
4 7 14 100 0.0363953
5 7 14 100 0.0395462
6 7 14 100 0.0365815
7 7 14 100 0.654532
8 7 14 100 0.0609196
9 7 14 100 0.0481678
10 7 14 100 0.0363637
11 7 14 100 0.0181818
0 8 14 100 0.0518335
1 8 14 100 0.0181813
3 8 14 100 0.0363442
5 8 14 100 0.0181867
6 8 14 100 0.0393244
7 8 14 100 0.0363636
8 8 14 100 0.652338
9 8 14 100 0.0545451
10 8 14 100 0.0564617
11 8 14 100 0.0181811
12 8 14 100 0.01824
0 9 14 100 0.000124342
2 9 14 100 0.0181806
4 9 14 100 0.0181818
5 9 14 100 0.0362481
6 9 14 100 0.0181818
7 9 14 100 0.0727267
8 9 14 100 0.0401835
9 9 14 100 0.56934
10 9 14 100 0.113944
11 9 14 100 0.0545455
12 9 14 100 0.0258031
13 9 14 100 0.0325405
0 10 14 100 0.00159565
1 10 14 100 0.0177865
3 10 14 100 0.0181809
6 10 14 100 0.0363637
7 10 14 100 0.0185772
8 10 14 100 0.0545435
9 10 14 100 0.0727261
10 10 14 100 0.532719
11 10 14 100 0.109086
12 10 14 100 0.0545444
13 10 14 100 0.0475133
14 10 14 100 0.0363637
0 11 14 100 0.00117459
4 11 14 100 0.0188679
5 11 14 100 2.59853e-07
7 11 14 100 0.0566035
9 11 14 100 0.0566055
10 11 14 100 0.0754435
11 11 14 100 0.545998
12 11 14 100 0.111278
13 11 14 100 0.058557
14 11 14 100 0.0754717
0 12 14 100 0.000255996
2 12 14 100 1.46145e-06
5 12 14 100 0.0204082
8 12 14 100 0.0612244
9 12 14 100 0.020392
10 12 14 100 0.0408163
11 12 14 100 0.169961
12 12 14 100 0.482859
13 12 14 100 0.142857
14 12 14 100 0.0612245
0 13 14 100 0.0655802
2 13 14 100 1.74279e-06
3 13 14 100 1.74444e-06
6 13 14 100 0.021741
9 13 14 100 0.0652174
10 13 14 100 0.0217389
11 13 14 100 0.0434777
12 13 14 100 0.173601
13 13 14 100 0.478206
14 13 14 100 0.130435
0 14 14 100 0.0247309
7 14 14 100 0.025
8 14 14 100 0.000269456
10 14 14 100 0.0749997
11 14 14 100 0.025
12 14 14 100 0.075
13 14 14 100 0.275
14 14 14 100 0.5
0 15 14 100 0.0500011
5 15 14 100 6.17747e-06
8 15 14 100 0.05
11 15 14 100 0.149992
12 15 14 100 0.05
13 15 14 100 0.15
14 15 14 100 0.55
0 16 14 100 0.0416716
7 16 14 100 0.0691128
9 16 14 100 0.111111
12 16 14 100 0.333333
13 16 14 100 0.111438
14 16 14 100 0.333333
0 17 14 100 0.000163525
10 17 14 100 0.166503
13 17 14 100 0.5
14 17 14 100 0.333333
11 18 14 100 0.25
14 18 14 100 0.75
0 19 14 100 0.00249941
12 19 14 100 0.997501
13 20 14 100 1
14 21 14 100 1
0 1 15 100 5.62492e-06
1 1 15 100 0.978722
2 1 15 100 2.36738e-07
6 1 15 100 1.10405e-06
8 1 15 100 0.021271
0 2 15 100 0.000166649
1 2 15 100 0.00282691
2 2 15 100 0.891017
3 2 15 100 0.0421779
4 2 15 100 0.0212766
5 2 15 100 0.010897
7 2 15 100 0.0212571
8 2 15 100 0.0103814
0 3 15 100 0.0805384
3 3 15 100 0.834173
4 3 15 100 0.0426664
5 3 15 100 0.000118287
6 3 15 100 2.41075e-06
8 3 15 100 0.0212258
9 3 15 100 0.0212742
11 3 15 100 1.03343e-06
0 4 15 100 0.0425824
3 4 15 100 0.0212766
4 4 15 100 0.829755
5 4 15 100 0.0425532
6 4 15 100 0.0212766
7 4 15 100 0.021278
10 4 15 100 0.0212766
12 4 15 100 1.3169e-06
0 5 15 100 0.0218563
2 5 15 100 0.0212766
3 5 15 100 0.0212766
4 5 15 100 0.0211827
5 5 15 100 0.767515
6 5 15 100 0.0528281
7 5 15 100 0.0302337
8 5 15 100 0.0425532
10 5 15 100 1.10329e-06
11 5 15 100 0.0212766
0 6 15 100 0.0133469
3 6 15 100 0.0212705
4 6 15 100 0.0526539
5 6 15 100 0.0212766
6 6 15 100 0.699963
7 6 15 100 0.0851063
8 6 15 100 0.0425532
9 6 15 100 0.0425532
12 6 15 100 0.0212766
0 7 15 100 0.0636814
3 7 15 100 0.000112901
4 7 15 100 0.0212771
5 7 15 100 0.0436117
6 7 15 100 0.0637867
7 7 15 100 0.658594
8 7 15 100 0.0638288
9 7 15 100 0.0212766
10 7 15 100 0.0212762
12 7 15 100 9.11799e-07
13 7 15 100 0.0212766
15 7 15 100 0.0212766
0 8 15 100 0.0216824
4 8 15 100 0.0218127
6 8 15 100 0.0434783
7 8 15 100 0.0652159
8 8 15 100 0.649869
9 8 15 100 0.0652174
10 8 15 100 0.0649165
11 8 15 100 0.0217396
12 8 15 100 0.0243289
14 8 15 100 0.0217391
0 9 15 100 0.000236832
1 9 15 100 0.0217386
5 9 15 100 0.0215363
7 9 15 100 0.0652151
8 9 15 100 0.0652169
9 9 15 100 0.586946
10 9 15 100 0.0651982
11 9 15 100 0.0652174
12 9 15 100 0.0434783
13 9 15 100 0.0434776
15 9 15 100 0.0217391
0 10 15 100 0.00359071
2 10 15 100 0.0222222
6 10 15 100 0.0224248
8 10 15 100 0.0666666
9 10 15 100 0.0666649
10 10 15 100 0.61843
11 10 15 100 0.0444472
12 10 15 100 0.0444428
13 10 15 100 0.0444439
14 10 15 100 0.0444445
15 10 15 100 0.0222222
0 11 15 100 0.000674859
3 11 15 100 0.0227273
7 11 15 100 0.0227273
9 11 15 100 0.0681819
10 11 15 100 0.0681818
11 11 15 100 0.63485
12 11 15 100 0.0462937
13 11 15 100 0.0454546
14 11 15 100 0.0454546
15 11 15 100 0.0454546
0 12 15 100 2.72849e-05
4 12 15 100 0.0238095
8 12 15 100 0.0238095
10 12 15 100 0.0714259
11 12 15 100 0.0952292
12 12 15 100 0.595221
13 12 15 100 0.07143
14 12 15 100 0.0476191
15 12 15 100 0.0714286
0 13 15 100 1.06596e-05
5 13 15 100 0.025641
9 13 15 100 0.025641
11 13 15 100 0.0769229
12 13 15 100 0.0769231
13 13 15 100 0.643129
14 13 15 100 0.10045
15 13 15 100 0.0512821
0 14 15 100 0.0270259
6 14 15 100 0.0269574
10 14 15 100 0.027027
12 14 15 100 0.0810788
13 14 15 100 0.0811543
14 14 15 100 0.621622
15 14 15 100 0.135135
0 15 15 100 3.80545e-06
7 15 15 100 0.03125
11 15 15 100 0.0312462
13 15 15 100 0.09375
14 15 15 100 0.125
15 15 15 100 0.71875
8 16 15 100 0.111111
12 16 15 100 0.111111
14 16 15 100 0.333333
15 16 15 100 0.444445
9 17 15 100 0.2
13 17 15 100 0.2
15 17 15 100 0.6
0 18 15 100 6.63865e-05
10 18 15 100 0.499934
14 18 15 100 0.5
11 19 15 100 0.5
15 19 15 100 0.5
0 20 15 100 4.02084e-05
12 20 15 100 0.99996
0 21 15 100 0.000132773
13 21 15 100 0.999867
14 22 15 100 1
15 23 15 100 1
1 1 16 100 0.966004
2 1 16 100 0.0136457
3 1 16 100 0.0203507
0 2 16 100 0.0396792
2 2 16 100 0.837871
3 2 16 100 0.0816308
4 2 16 100 0.0408154
6 2 16 100 1.48734e-06
8 2 16 100 1.53683e-06
0 3 16 100 0.0286658
2 3 16 100 0.0355831
3 3 16 100 0.813295
4 3 16 100 0.0612236
5 3 16 100 0.0408156
7 3 16 100 0.0204082
9 3 16 100 9.0948e-06
0 4 16 100 0.04099
3 4 16 100 0.0408163
4 4 16 100 0.775361
5 4 16 100 5.64467e-07
6 4 16 100 0.0612245
8 4 16 100 0.0611984
10 4 16 100 0.0203287
12 4 16 100 7.9383e-05
13 4 16 100 1.15309e-06
0 5 16 100 0.0408849
3 5 16 100 0.0408019
4 5 16 100 0.0204078
5 5 16 100 0.75505
7 5 16 100 0.0612241
9 5 16 100 0.0612227
11 5 16 100 0.0204077
15 5 16 100 3.8485e-07
0 6 16 100 0.0206723
2 6 16 100 0.000135584
4 6 16 100 0.0204082
5 6 16 100 0.043256
6 6 16 100 0.711616
7 6 16 100 0.0408163
8 6 16 100 0.0612198
9 6 16 100 0.0204081
10 6 16 100 0.0610596
12 6 16 100 0.0204082
0 7 16 100 0.0394735
5 7 16 100 0.0204082
6 7 16 100 0.0408177
7 7 16 100 0.67482
8 7 16 100 0.0204076
9 7 16 100 0.0816314
10 7 16 100 0.0204071
11 7 16 100 0.0816351
13 7 16 100 0.0203998
0 8 16 100 8.02293e-05
1 8 16 100 0.0204082
5 8 16 100 0.0204082
6 8 16 100 0.0204082
7 8 16 100 0.0611884
8 8 16 100 0.653022
9 8 16 100 0.0204082
10 8 16 100 0.0612267
11 8 16 100 0.0408118
12 8 16 100 0.0816303
14 8 16 100 0.0204082
0 9 16 100 0.0208607
2 9 16 100 0.0215236
3 9 16 100 1.36275e-06
4 9 16 100 2.69019e-07
5 9 16 100 7.37599e-07
6 9 16 100 0.0205728
7 9 16 100 0.0391005
8 9 16 100 0.0612202
9 9 16 100 0.612237
10 9 16 100 0.0408145
11 9 16 100 0.0612232
12 9 16 100 0.0408157
13 9 16 100 0.0816291
0 10 16 100 0.000106728
3 10 16 100 0.0204081
7 10 16 100 0.0408163
8 10 16 100 0.0204082
9 10 16 100 0.0816078
10 10 16 100 0.612137
11 10 16 100 0.0204101
12 10 16 100 0.0816402
13 10 16 100 0.0408225
14 10 16 100 0.0816402
15 10 16 100 2.67991e-06
0 11 16 100 0.0213774
4 11 16 100 0.0204082
8 11 16 100 0.0407365
9 11 16 100 0.0204082
10 11 16 100 0.0612214
11 11 16 100 0.560337
12 11 16 100 0.0612227
13 11 16 100 0.0408211
14 11 16 100 0.0510187
15 11 16 100 0.0816327
16 11 16 100 0.0408163
0 12 16 100 0.000414858
5 12 16 100 0.0212758
9 12 16 100 0.0425532
10 12 16 100 0.0213577
11 12 16 100 0.0851064
12 12 16 100 0.573978
13 12 16 100 0.0212734
14 12 16 100 0.0638277
15 12 16 100 0.0851064
16 12 16 100 0.0851064
0 13 16 100 0.0234949
5 13 16 100 0.00536087
6 13 16 100 0.0232558
9 13 16 100 0.0232571
11 13 16 100 0.0465132
12 13 16 100 0.0697809
13 13 16 100 0.557904
14 13 16 100 0.0697626
15 13 16 100 0.0876472
16 13 16 100 0.0930233
0 14 16 100 1.08804e-05
7 14 16 100 0.025641
10 14 16 100 0.025641
12 14 16 100 0.102564
13 14 16 100 0.0769201
14 14 16 100 0.641018
15 14 16 100 0.0512821
16 14 16 100 0.0769231
0 15 16 100 0.0556213
8 15 16 100 0.0277778
11 15 16 100 0.0277767
13 15 16 100 0.0554958
14 15 16 100 0.111107
15 15 16 100 0.611111
16 15 16 100 0.111111
0 16 16 100 7.71761e-07
9 16 16 100 0.03125
12 16 16 100 0.03125
13 16 16 100 0.03125
14 16 16 100 0.0624992
15 16 16 100 0.15625
16 16 16 100 0.6875
0 17 16 100 4.7518e-06
10 17 16 100 0.0989996
11 17 16 100 0.000995695
13 17 16 100 0.1
14 17 16 100 0.1
15 17 16 100 0.2
16 17 16 100 0.5
12 18 16 100 0.2
15 18 16 100 0.4
16 18 16 100 0.4
13 19 16 100 0.333333
16 19 16 100 0.666667
14 20 16 100 1
15 21 16 100 1
16 22 16 100 1
0 1 17 100 5.23624e-05
1 1 17 100 0.967941
2 1 17 100 0.015625
3 1 17 100 0.015625
5 1 17 100 0.000756464
0 2 17 100 0.000226294
1 2 17 100 0.0156282
2 2 17 100 0.906054
3 2 17 100 0.0156254
4 2 17 100 0.000180376
5 2 17 100 0.03125
6 2 17 100 0.0310322
16 2 17 100 3.50656e-06
0 3 17 100 0.0235318
1 3 17 100 0.000537528
3 3 17 100 0.860207
4 3 17 100 0.0380987
5 3 17 100 7.15731e-06
6 3 17 100 0.0312982
8 3 17 100 0.0306951
13 3 17 100 0.0156249
0 4 17 100 0.0158522
2 4 17 100 9.41463e-07
4 4 17 100 0.790975
5 4 17 100 0.0861031
6 4 17 100 0.0213949
7 4 17 100 0.0392819
9 4 17 100 0.0156254
12 4 17 100 4.68849e-07
13 4 17 100 0.0151411
16 4 17 100 0.015625
0 5 17 100 0.0157095
1 5 17 100 0.015625
4 5 17 100 5.70565e-05
5 5 17 100 0.738909
6 5 17 100 0.108779
7 5 17 100 0.0271707
8 5 17 100 0.046875
9 5 17 100 0.015625
10 5 17 100 0.015625
16 5 17 100 0.015625
0 6 17 100 0.0198843
2 6 17 100 0.0312152
5 6 17 100 0.0271464
6 6 17 100 0.734255
7 6 17 100 0.0781244
8 6 17 100 0.03125
9 6 17 100 0.046875
10 6 17 100 0.0156243
11 6 17 100 0.015625
0 7 17 100 0.0459918
3 7 17 100 0.03125
5 7 17 100 0.015625
6 7 17 100 0.0156244
7 7 17 100 0.66495
8 7 17 100 0.0781218
9 7 17 100 0.0625
10 7 17 100 0.0468743
11 7 17 100 0.015625
12 7 17 100 0.0234375
0 8 17 100 0.0388452
1 8 17 100 1.9829e-06
2 8 17 100 0.000175257
4 8 17 100 0.0234424
5 8 17 100 1.77515e-07
6 8 17 100 0.0313068
7 8 17 100 0.0168869
8 8 17 100 0.625031
9 8 17 100 0.0937494
10 8 17 100 0.0611937
11 8 17 100 0.0468669
12 8 17 100 0.03125
13 8 17 100 0.03125
0 9 17 100 0.0313686
2 9 17 100 0.0156252
5 9 17 100 0.0156238
7 9 17 100 0.0624551
8 9 17 100 0.0457777
9 9 17 100 0.589399
10 9 17 100 0.104281
11 9 17 100 0.041722
12 9 17 100 0.03125
13 9 17 100 0.0312489
14 9 17 100 0.0312489
0 10 17 100 0.0320893
2 10 17 100 8.91605e-07
3 10 17 100 0.015625
6 10 17 100 0.015625
7 10 17 100 0.0148721
8 10 17 100 0.0624993
9 10 17 100 0.0312871
10 10 17 100 0.492832
11 10 17 100 0.163298
12 10 17 100 0.0625
13 10 17 100 0.0468727
14 10 17 100 0.03125
15 10 17 100 0.0312484
0 11 17 100 9.32379e-05
4 11 17 100 0.015625
7 11 17 100 0.0155551
8 11 17 100 0.015625
9 11 17 100 0.0781233
10 11 17 100 0.0782054
11 11 17 100 0.421976
12 11 17 100 0.202937
13 11 17 100 0.0624848
14 11 17 100 0.0468749
15 11 17 100 0.0312498
16 11 17 100 0.03125
0 12 17 100 0.0012151
4 12 17 100 0.0154868
5 12 17 100 0.015625
7 12 17 100 9.20805e-07
8 12 17 100 0.0147638
9 12 17 100 0.0312376
10 12 17 100 0.0779409
11 12 17 100 0.0781239
12 12 17 100 0.390516
13 12 17 100 0.218841
14 12 17 100 0.0625
15 12 17 100 0.0468735
16 12 17 100 0.03125
17 12 17 100 0.015625
0 13 17 100 0.0159049
1 13 17 100 0.000577578
5 13 17 100 0.0152954
6 13 17 100 0.015873
10 13 17 100 0.0317249
11 13 17 100 0.095238
12 13 17 100 0.0634921
13 13 17 100 0.27848
14 13 17 100 0.285658
15 13 17 100 0.0793644
16 13 17 100 0.070773
17 13 17 100 0.0476191
0 14 17 100 0.0156654
1 14 17 100 0.0166052
4 14 17 100 4.81946e-05
7 14 17 100 0.0166667
9 14 17 100 0.0166667
11 14 17 100 0.05
12 14 17 100 0.0843631
13 14 17 100 0.066663
14 14 17 100 0.266662
15 14 17 100 0.283327
16 14 17 100 0.1
17 14 17 100 0.0833334
0 15 17 100 0.0364326
2 15 17 100 0.0181818
6 15 17 100 1.00895e-06
8 15 17 100 0.0181818
10 15 17 100 0.0181818
12 15 17 100 0.0363634
13 15 17 100 0.0909091
14 15 17 100 0.0727234
15 15 17 100 0.309085
16 15 17 100 0.309031
17 15 17 100 0.0909091
0 16 17 100 0.0389815
3 16 17 100 0.02
4 16 17 100 5.67558e-05
8 16 17 100 4.77589e-06
11 16 17 100 0.0199998
12 16 17 100 0.000977204
13 16 17 100 0.06
14 16 17 100 0.0999974
15 16 17 100 0.0799995
16 16 17 100 0.379983
17 16 17 100 0.3
0 17 17 100 0.0286648
12 17 17 100 0.0285711
14 17 17 100 0.0857133
15 17 17 100 0.142856
16 17 17 100 0.171337
17 17 17 100 0.542857
0 18 17 100 0.00631222
8 18 17 100 0.0561948
13 18 17 100 0.0625
15 18 17 100 0.187494
16 18 17 100 0.312499
17 18 17 100 0.375
0 19 17 100 0.100001
9 19 17 100 0.1
14 19 17 100 0.0999989
16 19 17 100 0.3
17 19 17 100 0.4
10 20 17 100 0.166667
11 20 17 100 0.166667
15 20 17 100 0.166667
17 20 17 100 0.5
11 21 17 100 0.333333
16 21 17 100 0.333333
17 21 17 100 0.333333
12 22 17 100 0.499999
17 22 17 100 0.500001
13 23 17 100 1
14 24 17 100 1
15 25 17 100 1
16 26 17 100 1
0 27 17 100 1
16 28 17 100 1
0 29 17 100 1
17 30 17 100 1
0 1 18 100 1.54911e-07
1 1 18 100 0.956174
3 1 18 100 0.0299369
14 1 18 100 0.0138889
0 2 18 100 0.0139143
1 2 18 100 0.0138836
2 2 18 100 0.880627
4 2 18 100 0.0360195
5 2 18 100 0.0138889
6 2 18 100 0.00588585
7 2 18 100 0.0179407
9 2 18 100 0.00395126
15 2 18 100 0.0138889
0 3 18 100 0.0277667
1 3 18 100 0.0277778
2 3 18 100 0.0278079
3 3 18 100 0.750798
4 3 18 100 0.0345506
5 3 18 100 0.0306539
6 3 18 100 0.0299502
7 3 18 100 0.0110127
8 3 18 100 0.0277771
10 3 18 100 0.0138889
11 3 18 100 0.00412677
12 3 18 100 0.0138889
0 4 18 100 0.00837106
2 4 18 100 0.0333198
3 4 18 100 0.0416663
4 4 18 100 0.736092
5 4 18 100 0.0277771
6 4 18 100 0.0555531
7 4 18 100 0.0138889
8 4 18 100 0.0138883
9 4 18 100 0.0277776
11 4 18 100 0.0138887
12 4 18 100 0.027777
0 5 18 100 0.0279314
2 5 18 100 0.0138889
3 5 18 100 0.0277778
4 5 18 100 0.0416667
5 5 18 100 0.708195
6 5 18 100 0.0555424
7 5 18 100 0.0416658
8 5 18 100 0.0138889
9 5 18 100 0.0138878
10 5 18 100 0.0277778
12 5 18 100 0.0138889
13 5 18 100 0.0138889
0 6 18 100 0.0363927
2 6 18 100 0.013867
3 6 18 100 0.0139346
4 6 18 100 0.0416666
5 6 18 100 0.0684028
6 6 18 100 0.639113
7 6 18 100 0.0686161
8 6 18 100 0.0416667
9 6 18 100 0.0138889
10 6 18 100 0.0138889
11 6 18 100 0.020785
13 6 18 100 0.0138888
14 6 18 100 0.0138889
15 6 18 100 3.61559e-07
0 7 18 100 0.0385211
3 7 18 100 7.78219e-05
4 7 18 100 0.0138886
5 7 18 100 0.0586523
6 7 18 100 0.0833308
7 7 18 100 0.607398
8 7 18 100 0.0833333
9 7 18 100 0.041666
10 7 18 100 0.0138893
11 7 18 100 0.0138891
12 7 18 100 0.0175765
14 7 18 100 0.0138889
15 7 18 100 0.0138886
0 8 18 100 0.0267857
4 8 18 100 0.0138887
5 8 18 100 0.0138889
6 8 18 100 0.069437
7 8 18 100 0.09722
8 8 18 100 0.556217
9 8 18 100 0.0972971
10 8 18 100 0.0335191
11 8 18 100 0.0274006
12 8 18 100 0.0138879
13 8 18 100 0.0226807
15 8 18 100 0.0138885
16 8 18 100 0.0138889
0 9 18 100 0.0139375
6 9 18 100 0.0277778
7 9 18 100 0.0694073
8 9 18 100 0.0973274
9 9 18 100 0.483501
10 9 18 100 0.131944
11 9 18 100 0.0416657
12 9 18 100 0.051212
13 9 18 100 0.0138889
14 9 18 100 0.0277776
16 9 18 100 0.0138889
17 9 18 100 0.0276727
0 10 18 100 0.0158166
7 10 18 100 0.0277771
8 10 18 100 0.0555549
9 10 18 100 0.0974467
10 10 18 100 0.456186
11 10 18 100 0.166666
12 10 18 100 0.0555541
13 10 18 100 0.041667
14 10 18 100 0.0138884
15 10 18 100 0.0416661
17 10 18 100 0.0138889
18 10 18 100 0.0138889
0 11 18 100 0.0212636
7 11 18 100 0.0140567
8 11 18 100 0.028169
9 11 18 100 0.0563378
10 11 18 100 0.0915448
11 11 18 100 0.411797
12 11 18 100 0.186687
13 11 18 100 0.0563381
14 11 18 100 0.056338
15 11 18 100 0.0211298
16 11 18 100 0.0422535
18 11 18 100 0.0140845
0 12 18 100 0.0469694
5 12 18 100 4.68408e-07
7 12 18 100 0.0142857
9 12 18 100 0.0285714
10 12 18 100 0.0714273
11 12 18 100 0.0857141
12 12 18 100 0.373916
13 12 18 100 0.188636
14 12 18 100 0.061958
15 12 18 100 0.0478211
16 12 18 100 0.0332046
17 12 18 100 0.047496
0 13 18 100 0.0250414
8 13 18 100 0.0141946
10 13 18 100 0.0285714
11 13 18 100 0.0714123
12 13 18 100 0.080108
13 13 18 100 0.342856
14 13 18 100 0.216467
15 13 18 100 0.078413
16 13 18 100 0.0571422
17 13 18 100 0.0286514
18 13 18 100 0.0571429
0 14 18 100 0.0151766
2 14 18 100 0.0151319
5 14 18 100 4.7473e-07
7 14 18 100 0.0151515
11 14 18 100 0.0303019
12 14 18 100 0.0757565
13 14 18 100 0.0909091
14 14 18 100 0.348482
15 14 18 100 0.21212
16 14 18 100 0.106061
17 14 18 100 0.0606061
18 14 18 100 0.030303
0 15 18 100 0.0155931
3 15 18 100 0.0155614
8 15 18 100 3.57834e-07
9 15 18 100 9.31827e-05
12 15 18 100 0.0468716
13 15 18 100 0.0937726
14 15 18 100 0.0781271
15 15 18 100 0.343738
16 15 18 100 0.218742
17 15 18 100 0.109375
18 15 18 100 0.078125
0 16 18 100 0.00848799
4 16 18 100 0.0169492
10 16 18 100 0.0254197
13 16 18 100 0.0508475
14 16 18 100 0.0847444
15 16 18 100 0.0847432
16 16 18 100 0.355921
17 16 18 100 0.254243
18 16 18 100 0.118644
0 17 18 100 3.11612e-06
5 17 18 100 0.0192307
11 17 18 100 0.0384608
14 17 18 100 0.0576922
15 17 18 100 0.0961539
16 17 18 100 0.0961515
17 17 18 100 0.403846
18 17 18 100 0.288462
0 18 18 100 0.0810795
6 18 18 100 0.027027
7 18 18 100 8.53311e-07
9 18 18 100 1.11707e-06
12 18 18 100 0.027027
15 18 18 100 0.108108
16 18 18 100 0.135134
17 18 18 100 0.135135
18 18 18 100 0.486487
0 19 18 100 0.105264
7 19 18 100 0.0526316
12 19 18 100 2.86447e-06
13 19 18 100 0.0526316
16 19 18 100 0.210522
17 19 18 100 0.315789
18 19 18 100 0.263158
0 20 18 100 0.212218
14 20 18 100 0.0714286
17 20 18 100 0.216353
18 20 18 100 0.5
0 21 18 100 0.14284
9 21 18 100 1.69181e-05
15 21 18 100 0.142857
18 21 18 100 0.714286
0 22 18 100 0.499999
16 22 18 100 0.500001
17 23 18 100 1
18 24 18 100 1
0 1 19 100 2.98282e-05
1 1 19 100 0.977613
2 1 19 100 0.00765101
3 1 19 100 0.0147059
0 2 19 100 0.000249124
1 2 19 100 0.0147059
2 2 19 100 0.88232
3 2 19 100 0.0468562
4 2 19 100 0.00325701
6 2 19 100 0.029196
7 2 19 100 0.00871026
10 2 19 100 0.0147059
0 3 19 100 0.014732
2 3 19 100 0.0294055
3 3 19 100 0.830575
4 3 19 100 0.0520098
5 3 19 100 0.0144544
7 3 19 100 0.0294111
8 3 19 100 0.0147064
11 3 19 100 0.0147058
0 4 19 100 5.15675e-05
1 4 19 100 0.0147059
3 4 19 100 0.0294113
4 4 19 100 0.772817
5 4 19 100 0.0948027
6 4 19 100 0.0294117
8 4 19 100 0.0147059
9 4 19 100 0.0147059
12 4 19 100 0.0147059
15 4 19 100 1.4889e-06
17 4 19 100 0.0146806
0 5 19 100 0.0156649
2 5 19 100 0.0147059
4 5 19 100 0.0294118
5 5 19 100 0.749043
6 5 19 100 0.0882331
7 5 19 100 0.0294116
9 5 19 100 0.0147059
10 5 19 100 0.0294118
13 5 19 100 0.0147059
18 5 19 100 0.0147059
0 6 19 100 0.0297346
2 6 19 100 0.0147059
3 6 19 100 0.0147059
5 6 19 100 0.0588223
6 6 19 100 0.671321
7 6 19 100 0.094603
8 6 19 100 0.0346425
9 6 19 100 0.0131782
10 6 19 100 0.0241681
11 6 19 100 0.0294118
14 6 19 100 0.0147059
16 6 19 100 6.64886e-07
0 7 19 100 4.514e-05
3 7 19 100 0.0146764
4 7 19 100 0.0147059
6 7 19 100 0.117645
7 7 19 100 0.617636
8 7 19 100 0.102941
9 7 19 100 0.0294114
10 7 19 100 0.0294118
11 7 19 100 0.0294103
12 7 19 100 0.0294117
15 7 19 100 0.0147049
0 8 19 100 0.0147696
4 8 19 100 0.0147059
5 8 19 100 2.22589e-07
7 8 19 100 0.132352
8 8 19 100 0.521145
9 8 19 100 0.147033
10 8 19 100 0.0587263
11 8 19 100 0.0294233
12 8 19 100 0.0294118
13 8 19 100 0.0147073
14 8 19 100 0.0147043
15 8 19 100 0.00831575
16 8 19 100 0.0147059
0 9 19 100 0.0283308
5 9 19 100 0.0303533
8 9 19 100 0.132473
9 9 19 100 0.500115
10 9 19 100 0.132395
11 9 19 100 0.0294109
12 9 19 100 0.0441114
13 9 19 100 0.0294093
14 9 19 100 0.029285
15 9 19 100 0.0147056
16 9 19 100 0.0147058
17 9 19 100 0.0147046
0 10 19 100 0.0148558
6 10 19 100 0.0147031
9 10 19 100 0.160828
10 10 19 100 0.503142
11 10 19 100 0.121047
12 10 19 100 0.0383654
13 10 19 100 0.0441176
14 10 19 100 0.0294117
15 10 19 100 0.0294118
16 10 19 100 0.0147059
17 10 19 100 0.0147059
18 10 19 100 0.0147059
0 11 19 100 0.000224858
7 11 19 100 0.0294118
9 11 19 100 0.0146797
10 11 19 100 0.147055
11 11 19 100 0.448355
12 11 19 100 0.13235
13 11 19 100 0.0441152
14 11 19 100 0.0758059
15 11 19 100 0.0294118
16 11 19 100 0.0197667
17 11 19 100 0.0294118
18 11 19 100 0.0147059
19 11 19 100 0.0147059
0 12 19 100 0.00174502
5 12 19 100 0.0149253
8 12 19 100 0.0149376
10 12 19 100 0.0285066
11 12 19 100 0.148977
12 12 19 100 0.402544
13 12 19 100 0.119835
14 12 19 100 0.0595762
15 12 19 100 0.0746269
16 12 19 100 0.0447746
17 12 19 100 0.0221369
18 12 19 100 0.0375646
19 12 19 100 0.0298508
0 13 19 100 0.0145618
5 13 19 100 0.000617481
6 13 19 100 0.000225679
9 13 19 100 0.0153841
11 13 19 100 0.0307692
12 13 19 100 0.153844
13 13 19 100 0.384605
14 13 19 100 0.139961
15 13 19 100 0.0754189
16 13 19 100 0.0769227
17 13 19 100 0.0461518
18 13 19 100 0.0153846
19 13 19 100 0.0461539
0 14 19 100 5.41706e-05
7 14 19 100 0.016129
10 14 19 100 0.016129
12 14 19 100 0.0464228
13 14 19 100 0.161287
14 14 19 100 0.354797
15 14 19 100 0.177415
16 14 19 100 0.0806436
17 14 19 100 0.0806413
18 14 19 100 0.0342224
19 14 19 100 0.0322581
0 15 19 100 0.0166833
8 15 19 100 0.0166575
11 15 19 100 0.0166667
13 15 19 100 0.0499766
14 15 19 100 0.166694
15 15 19 100 0.340807
16 15 19 100 0.159527
17 15 19 100 0.0996539
18 15 19 100 0.0833334
19 15 19 100 0.05
0 16 19 100 0.0166703
3 16 19 100 3.99216e-06
9 16 19 100 0.0175439
12 16 19 100 0.0175438
14 16 19 100 0.0526316
15 16 19 100 0.176372
16 16 19 100 0.368358
17 16 19 100 0.14035
18 16 19 100 0.0877194
19 16 19 100 0.122807
0 17 19 100 0.0199175
10 17 19 100 0.0199999
11 17 19 100 9.75642e-05
13 17 19 100 0.02
15 17 19 100 0.0399996
16 17 19 100 0.239997
17 17 19 100 0.379998
18 17 19 100 0.17999
19 17 19 100 0.1
0 18 19 100 9.85636e-06
11 18 19 100 0.0222222
14 18 19 100 0.0222222
16 18 19 100 0.0444436
17 18 19 100 0.266658
18 18 19 100 0.444444
19 18 19 100 0.2
0 19 19 100 4.25499e-06
12 19 19 100 0.0277764
13 19 19 100 3.93277e-07
15 19 19 100 0.0277745
17 19 19 100 0.0555556
18 19 19 100 0.333333
19 19 19 100 0.555556
13 20 19 100 0.0625
16 20 19 100 0.0625
18 20 19 100 0.125
19 20 19 100 0.75
14 21 19 100 0.25
19 21 19 100 0.75
15 22 19 100 1
16 23 19 100 1
17 24 19 100 1
18 25 19 100 1
19 26 19 100 1
0 1 20 100 3.48495e-05
1 1 20 100 0.943213
3 1 20 100 0.0142857
4 1 20 100 0.0139303
8 1 20 100 0.0142854
11 1 20 100 0.0142512
0 2 20 100 0.0156764
1 2 20 100 0.0271917
2 2 20 100 0.885698
3 2 20 100 0.0142906
5 2 20 100 0.0142857
7 2 20 100 0.0142857
12 2 20 100 0.0142857
15 2 20 100 0.0142857
0 3 20 100 0.00178753
1 3 20 100 0.0134785
2 3 20 100 0.0285714
3 3 20 100 0.863836
4 3 20 100 0.00744202
5 3 20 100 3.95994e-07
6 3 20 100 0.0147096
7 3 20 100 0.0142851
9 3 20 100 0.0139321
10 3 20 100 0.0142857
11 3 20 100 0.0142857
16 3 20 100 0.0133856
0 4 20 100 2.76878e-05
1 4 20 100 0.0142857
3 4 20 100 0.0428567
4 4 20 100 0.807273
5 4 20 100 0.0335906
6 4 20 100 0.0117404
7 4 20 100 0.0142845
8 4 20 100 0.0188002
10 4 20 100 0.0285698
11 4 20 100 0.0142857
12 4 20 100 0.0142857
0 5 20 100 6.25862e-05
2 5 20 100 0.0142857
3 5 20 100 0.0142857
4 5 20 100 0.0285711
5 5 20 100 0.771412
6 5 20 100 0.0285708
7 5 20 100 0.0285714
8 5 20 100 0.0142857
9 5 20 100 0.0285714
10 5 20 100 0.0142593
11 5 20 100 0.0142857
12 5 20 100 0.014285
18 5 20 100 0.0142857
19 5 20 100 0.0142682
0 6 20 100 0.0710002
1 6 20 100 4.03208e-06
3 6 20 100 0.0142817
4 6 20 100 3.80014e-05
5 6 20 100 0.0142856
6 6 20 100 0.742782
7 6 20 100 0.0429106
8 6 20 100 0.0285809
9 6 20 100 0.0142856
10 6 20 100 0.0142853
12 6 20 100 0.0142857
13 6 20 100 0.0142857
18 6 20 100 0.000404936
19 6 20 100 0.0285703
0 7 20 100 0.0399364
2 7 20 100 7.77758e-07
4 7 20 100 0.0285728
5 7 20 100 0.0142857
6 7 20 100 0.0142857
7 7 20 100 0.6854
8 7 20 100 0.0988487
9 7 20 100 0.0285721
10 7 20 100 0.0285699
11 7 20 100 0.0142857
13 7 20 100 0.0142857
14 7 20 100 0.0142845
15 7 20 100 4.90357e-07
17 7 20 100 0.00438585
19 7 20 100 0.0142857
0 8 20 100 0.0142341
1 8 20 100 0.0142857
5 8 20 100 0.0428571
6 8 20 100 0.0142857
7 8 20 100 8.73466e-05
8 8 20 100 0.635213
9 8 20 100 0.121475
10 8 20 100 0.0499361
11 8 20 100 0.0428566
12 8 20 100 0.0219119
14 8 20 100 0.0142857
15 8 20 100 0.0285714
0 9 20 100 0.0143139
2 9 20 100 0.0142859
4 9 20 100 0.0142848
6 9 20 100 0.0428565
7 9 20 100 0.0285714
9 9 20 100 0.593711
10 9 20 100 0.128569
11 9 20 100 0.0428555
12 9 20 100 0.0428557
13 9 20 100 0.0359716
15 9 20 100 0.0142844
16 9 20 100 0.0142857
17 9 20 100 0.0131546
18 9 20 100 1.74461e-07
0 10 20 100 0.0143562
3 10 20 100 0.0142857
4 10 20 100 0.00672309
7 10 20 100 0.0428565
8 10 20 100 0.0285714
9 10 20 100 0.0142857
10 10 20 100 0.571413
11 10 20 100 0.114283
12 10 20 100 0.0571421
13 10 20 100 0.0361234
14 10 20 100 0.0428561
16 10 20 100 0.0142857
17 10 20 100 0.0142837
18 10 20 100 0.0142857
19 10 20 100 0.014249
0 11 20 100 0.0143048
4 11 20 100 0.0142857
5 11 20 100 0.0142859
8 11 20 100 0.0428572
9 11 20 100 0.0142857
10 11 20 100 0.0142857
11 11 20 100 0.57863
12 11 20 100 0.11428
13 11 20 100 0.0571408
14 11 20 100 0.0356463
15 11 20 100 0.042857
16 11 20 100 0.0142855
17 11 20 100 0.0142837
18 11 20 100 0.0142856
19 11 20 100 0.0142857
0 12 20 100 0.0290045
3 12 20 100 7.02231e-05
5 12 20 100 0.0142836
6 12 20 100 0.0142857
9 12 20 100 0.0427098
10 12 20 100 0.0142857
11 12 20 100 0.0285702
12 12 20 100 0.55679
13 12 20 100 0.114286
14 12 20 100 0.0428572
15 12 20 100 0.0409224
16 12 20 100 0.0447911
17 12 20 100 8.82885e-07
18 12 20 100 0.0142856
19 12 20 100 0.0142857
20 12 20 100 0.0285714
0 13 20 100 0.0291796
4 13 20 100 3.44137e-06
6 13 20 100 0.0147059
8 13 20 100 3.93884e-07
10 13 20 100 0.0294118
11 13 20 100 0.0294127
12 13 20 100 0.0590725
13 13 20 100 0.514695
14 13 20 100 0.132349
15 13 20 100 0.0588199
16 13 20 100 0.0294124
17 13 20 100 0.0588217
18 13 20 100 3.83641e-05
19 13 20 100 0.0293719
20 13 20 100 0.0147059
0 14 20 100 0.000137311
7 14 20 100 0.0149254
11 14 20 100 0.0298507
12 14 20 100 0.0447761
13 14 20 100 0.0684449
14 14 20 100 0.52435
15 14 20 100 0.138412
16 14 20 100 0.0597011
17 14 20 100 0.0298505
18 14 20 100 0.0597007
19 14 20 100 0.0149254
20 14 20 100 0.0149254
0 15 20 100 0.000209363
8 15 20 100 0.0151515
12 15 20 100 0.0303028
13 15 20 100 0.0454533
14 15 20 100 0.0757279
15 15 20 100 0.484743
16 15 20 100 0.166595
17 15 20 100 0.0606056
18 15 20 100 0.0454535
19 15 20 100 0.0606061
20 15 20 100 0.0151515
0 16 20 100 0.0307913
9 16 20 100 0.0153845
13 16 20 100 0.0307692
14 16 20 100 0.0461534
15 16 20 100 0.0769212
16 16 20 100 0.423751
17 16 20 100 0.18461
18 16 20 100 0.0615333
19 16 20 100 0.0685481
20 16 20 100 0.0615385
0 17 20 100 4.80841e-05
10 17 20 100 0.0163766
14 17 20 100 0.0327869
15 17 20 100 0.0655738
16 17 20 100 0.081967
17 17 20 100 0.434693
18 17 20 100 0.196913
19 17 20 100 0.0896743
20 17 20 100 0.0819672
0 18 20 100 0.000266364
5 18 20 100 3.91952e-07
11 18 20 100 0.0178571
15 18 20 100 0.0357131
16 18 20 100 0.0714277
17 18 20 100 0.0892816
18 18 20 100 0.419206
19 18 20 100 0.259105
20 18 20 100 0.107143
0 19 20 100 0.0183557
1 19 20 100 0.0199999
12 19 20 100 0.02
16 19 20 100 0.04
17 19 20 100 0.04
18 19 20 100 0.0999996
19 19 20 100 0.401645
20 19 20 100 0.36
0 20 20 100 7.28327e-05
2 20 20 100 0.0311819
4 20 20 100 1.22178e-06
13 20 20 100 0.03125
17 20 20 100 0.0625
18 20 20 100 0.0624995
19 20 20 100 0.187494
20 20 20 100 0.625
3 21 20 100 0.0833333
14 21 20 100 0.0833334
18 21 20 100 0.166666
19 21 20 100 0.166667
20 21 20 100 0.5
0 22 20 100 0.00034417
2 22 20 100 6.51672e-06
4 22 20 100 0.166316
15 22 20 100 0.166667
19 22 20 100 0.333333
20 22 20 100 0.333333
0 23 20 100 0.000375568
5 23 20 100 0.249977
16 23 20 100 0.249648
20 23 20 100 0.5
6 24 20 100 0.5
20 24 20 100 0.5
7 25 20 100 0.999964
8 25 20 100 3.64403e-05
8 26 20 100 0.999966
19 26 20 100 3.43565e-05
0 27 20 100 1.66527e-05
9 27 20 100 0.999983
10 28 20 100 1
11 29 20 100 1
12 30 20 100 1
13 31 20 100 1
0 32 20 100 0.00130401
14 32 20 100 0.998696
15 33 20 100 1
5 34 20 100 2.90632e-05
16 34 20 100 0.999971
17 35 20 100 1
0 36 20 100 1.278e-05
18 36 20 100 0.997311
19 36 20 100 0.00267631
8 37 20 100 1.72469e-05
19 37 20 100 0.999983
20 38 20 100 1
0 1 21 100 1.42316e-07
1 1 21 100 0.974359
2 1 21 100 0.0128205
8 1 21 100 0.0128205
0 2 21 100 0.0383531
2 2 21 100 0.887919
3 2 21 100 0.035266
4 2 21 100 0.0128199
6 2 21 100 0.0128205
9 2 21 100 0.0128205
11 2 21 100 4.38793e-07
17 2 21 100 3.61385e-07
0 3 21 100 0.0384139
1 3 21 100 0.0130474
2 3 21 100 1.60713e-06
3 3 21 100 0.833146
4 3 21 100 0.0384616
5 3 21 100 0.0471051
6 3 21 100 0.0170031
7 3 21 100 0.0128204
9 3 21 100 1.02781e-06
0 4 21 100 0.0119144
2 4 21 100 0.0247165
3 4 21 100 0.0256037
4 4 21 100 0.784041
5 4 21 100 0.0511589
6 4 21 100 0.0384636
7 4 21 100 0.0256402
8 4 21 100 0.025641
13 4 21 100 0.0128205
0 5 21 100 0.0505309
2 5 21 100 0.0128205
3 5 21 100 0.0130155
4 5 21 100 0.0384612
5 5 21 100 0.718214
6 5 21 100 0.0543272
7 5 21 100 0.0667552
8 5 21 100 0.0132168
9 5 21 100 0.0326579
16 5 21 100 4.68105e-07
0 6 21 100 0.00669664
1 6 21 100 0.0128202
3 6 21 100 0.0128202
4 6 21 100 0.0190372
5 6 21 100 0.0641
6 6 21 100 0.679401
7 6 21 100 0.0512814
8 6 21 100 0.0641016
9 6 21 100 0.0384604
10 6 21 100 0.0512814
0 7 21 100 0.0224297
2 7 21 100 0.0128205
4 7 21 100 0.0128205
5 7 21 100 0.0131148
6 7 21 100 0.0768822
7 7 21 100 0.649901
8 7 21 100 0.0512787
9 7 21 100 0.0512806
10 7 21 100 0.0581903
11 7 21 100 0.0512814
19 7 21 100 3.98673e-07
0 8 21 100 6.63855e-05
4 8 21 100 0.0128203
5 8 21 100 0.0128205
6 8 21 100 0.0128205
7 8 21 100 0.0768981
8 8 21 100 0.622234
9 8 21 100 0.0640906
10 8 21 100 0.0572388
11 8 21 100 0.0641012
12 8 21 100 0.0641012
13 8 21 100 0.0128081
0 9 21 100 0.0403721
5 9 21 100 0.0128205
6 9 21 100 0.0128202
7 9 21 100 0.0128204
8 9 21 100 0.0768788
9 9 21 100 0.558375
10 9 21 100 0.0641017
11 9 21 100 0.0384643
12 9 21 100 0.0769206
13 9 21 100 0.07025
14 9 21 100 0.0256404
16 9 21 100 0.00341983
18 9 21 100 0.00711575
0 10 21 100 0.0134412
6 10 21 100 0.0128204
7 10 21 100 0.0128205
8 10 21 100 0.025641
9 10 21 100 0.114742
10 10 21 100 0.507108
11 10 21 100 0.0897425
12 10 21 100 0.0384615
13 10 21 100 0.0641025
14 10 21 100 0.0641022
15 10 21 100 0.0384605
16 10 21 100 0.00569944
18 10 21 100 3.71832e-05
19 10 21 100 4.18215e-07
21 10 21 100 0.0128205
0 11 21 100 4.83854e-05
7 11 21 100 0.0199854
8 11 21 100 0.0129869
9 11 21 100 0.0259734
10 11 21 100 0.109864
11 11 21 100 0.480524
12 11 21 100 0.113034
13 11 21 100 0.0519481
14 11 21 100 0.0687529
15 11 21 100 0.0649344
16 11 21 100 0.038961
17 11 21 100 0.012987
0 12 21 100 9.21575e-05
8 12 21 100 0.025974
9 12 21 100 0.012987
10 12 21 100 0.025974
11 12 21 100 0.103896
12 12 21 100 0.480508
13 12 21 100 0.0909253
14 12 21 100 0.0649337
15 12 21 100 0.0778297
16 12 21 100 0.064934
17 12 21 100 0.0389597
18 12 21 100 0.0129863
0 13 21 100 0.000932409
8 13 21 100 0.00840735
9 13 21 100 6.22738e-07
10 13 21 100 0.0129869
11 13 21 100 0.0259728
12 13 21 100 0.103894
13 13 21 100 0.471452
14 13 21 100 0.0952119
15 13 21 100 0.064934
16 13 21 100 0.0941204
17 13 21 100 0.0695133
18 13 21 100 0.0389609
19 13 21 100 0.0136124
0 14 21 100 0.0118937
11 14 21 100 0.012987
12 14 21 100 0.025974
13 14 21 100 0.090909
14 14 21 100 0.441129
15 14 21 100 0.118414
16 14 21 100 0.0779186
17 14 21 100 0.103895
18 14 21 100 0.0649327
19 14 21 100 0.03896
20 14 21 100 0.012987
0 15 21 100 0.0136524
11 15 21 100 0.012987
12 15 21 100 0.012987
13 15 21 100 0.0259737
14 15 21 100 0.103875
15 15 21 100 0.422102
16 15 21 100 0.136319
17 15 21 100 0.0519475
18 15 21 100 0.090945
19 15 21 100 0.0561565
20 15 21 100 0.0600682
21 15 21 100 0.012987
0 16 21 100 0.0132714
8 16 21 100 9.6124e-07
12 16 21 100 0.0131579
13 16 21 100 0.0131579
14 16 21 100 0.0263147
15 16 21 100 0.118419
16 16 21 100 0.381487
17 16 21 100 0.144495
18 16 21 100 0.052859
19 16 21 100 0.0921009
20 16 21 100 0.0789474
21 16 21 100 0.0657895
0 17 21 100 0.043449
8 17 21 100 0.000345583
9 17 21 100 2.22787e-06
13 17 21 100 0.00936053
14 17 21 100 0.0140845
15 17 21 100 0.0414363
16 17 21 100 0.116684
17 17 21 100 0.366182
18 17 21 100 0.169013
19 17 21 100 0.0704217
20 17 21 100 0.112684
21 17 21 100 0.0563381
0 18 21 100 0.000140599
14 18 21 100 0.0149254
15 18 21 100 0.0297671
16 18 21 100 0.0447761
17 18 21 100 0.134328
18 18 21 100 0.332883
19 18 21 100 0.234222
20 18 21 100 0.0895545
21 18 21 100 0.119403
0 19 21 100 0.0273204
6 19 21 100 4.33902e-05
14 19 21 100 0.000154672
15 19 21 100 0.0168504
16 19 21 100 0.0338983
17 19 21 100 0.0508473
18 19 21 100 0.159023
19 19 21 100 0.35593
20 19 21 100 0.254237
21 19 21 100 0.101695
0 20 21 100 0.000154233
15 20 21 100 0.0188679
17 20 21 100 0.0377344
18 20 21 100 0.0377358
19 20 21 100 0.207392
20 20 21 100 0.415097
21 20 21 100 0.283019
0 21 21 100 0.0785148
4 21 21 100 3.16173e-07
9 21 21 100 0.000429578
10 21 21 100 2.13773e-05
15 21 21 100 3.64948e-06
16 21 21 100 8.27454e-06
18 21 21 100 0.0526302
19 21 21 100 0.0526312
20 21 21 100 0.315761
21 21 21 100 0.5
0 22 21 100 0.0526311
6 22 21 100 6.33696e-05
9 22 21 100 1.11736e-06
10 22 21 100 0.0508854
15 22 21 100 0.0016819
19 22 21 100 0.105263
20 22 21 100 0.157895
21 22 21 100 0.63158
0 23 21 100 0.142856
2 23 21 100 0.142857
7 23 21 100 1.7322e-06
9 23 21 100 2.08065e-05
16 23 21 100 0.142837
20 23 21 100 0.285713
21 23 21 100 0.285714
2 24 21 100 0.2
8 24 21 100 0.2
20 24 21 100 0.2
21 24 21 100 0.4
2 25 21 100 0.333333
8 25 21 100 0.11753
15 25 21 100 0.000157671
17 25 21 100 0.215804
20 25 21 100 0.333176
0 26 21 100 0.332385
2 26 21 100 0.000946465
16 26 21 100 4.20432e-06
18 26 21 100 0.33333
21 26 21 100 0.333334
0 27 21 100 0.5
19 27 21 100 0.5
0 28 21 100 5.27883e-06
20 28 21 100 0.999995
21 29 21 100 1
1 1 22 100 1
0 2 22 100 0.000209025
2 2 22 100 0.970951
4 2 22 100 0.0144928
8 2 22 100 0.0143471
0 3 22 100 0.0292471
2 3 22 100 5.79219e-05
3 3 22 100 0.898232
4 3 22 100 0.0144922
5 3 22 100 0.0231127
6 3 22 100 0.0144928
7 3 22 100 0.00587272
9 3 22 100 0.0144926
0 4 22 100 0.032856
1 4 22 100 0.000381733
2 4 22 100 0.0138642
3 4 22 100 0.0144928
4 4 22 100 0.822461
5 4 22 100 0.0289878
6 4 22 100 0.0289855
7 4 22 100 0.0289855
8 4 22 100 0.0144928
10 4 22 100 0.0144928
0 5 22 100 0.0145489
2 5 22 100 0.0289362
4 5 22 100 0.0289827
5 5 22 100 0.797086
6 5 22 100 0.0289855
7 5 22 100 0.0434766
8 5 22 100 0.0289855
9 5 22 100 0.0144925
10 5 22 100 1.35419e-05
11 5 22 100 0.0144928
0 6 22 100 2.60538e-05
2 6 22 100 0.0144928
3 6 22 100 0.0144928
4 6 22 100 2.87249e-07
5 6 22 100 0.0289855
6 6 22 100 0.768096
7 6 22 100 0.0435102
8 6 22 100 0.0579367
9 6 22 100 0.028985
10 6 22 100 0.0289825
12 6 22 100 0.0144923
0 7 22 100 8.54913e-05
3 7 22 100 0.0144928
4 7 22 100 0.0289842
6 7 22 100 0.0289848
7 7 22 100 0.732875
8 7 22 100 0.0578089
9 7 22 100 0.078796
10 7 22 100 0.0289853
11 7 22 100 0.0144925
13 7 22 100 0.0144928
16 7 22 100 2.04329e-06
0 8 22 100 0.000122926
2 8 22 100 2.31278e-06
4 8 22 100 0.0144928
5 8 22 100 0.0289831
7 8 22 100 0.0289855
8 8 22 100 0.695536
9 8 22 100 0.0869538
10 8 22 100 0.0869538
11 8 22 100 0.0289839
12 8 22 100 0.0144928
14 8 22 100 0.0144928
0 9 22 100 0.000105836
5 9 22 100 0.0144928
6 9 22 100 0.0289855
8 9 22 100 0.0289853
9 9 22 100 0.666565
10 9 22 100 0.115939
11 9 22 100 0.0869556
12 9 22 100 0.021559
13 9 22 100 0.0219193
15 9 22 100 0.0144924
0 10 22 100 0.000201775
6 10 22 100 0.0144922
7 10 22 100 0.0289843
9 10 22 100 0.0433074
10 10 22 100 0.601427
11 10 22 100 0.13044
12 10 22 100 0.101439
13 10 22 100 0.0289842
14 10 22 100 0.0362325
16 10 22 100 0.0144928
0 11 22 100 9.364e-05
7 11 22 100 0.0144928
8 11 22 100 0.0289855
10 11 22 100 0.0434783
11 11 22 100 0.608608
12 11 22 100 0.115939
13 11 22 100 0.0724618
14 11 22 100 0.0434768
15 11 22 100 0.0434783
17 11 22 100 0.0144928
18 11 22 100 0.0144928
0 12 22 100 5.84415e-05
8 12 22 100 0.0144928
9 12 22 100 0.0289855
11 12 22 100 0.0579707
12 12 22 100 0.565212
13 12 22 100 0.115942
14 12 22 100 0.0796692
15 12 22 100 0.057971
16 12 22 100 0.0434783
17 12 22 100 0.00104167
18 12 22 100 0.0144928
19 12 22 100 0.0134048
20 12 22 100 0.00728055
0 13 22 100 0.000103982
9 13 22 100 0.0144926
10 13 22 100 0.0144928
11 13 22 100 0.0144928
12 13 22 100 0.0579103
13 13 22 100 0.550689
14 13 22 100 0.130431
15 13 22 100 0.0724632
16 13 22 100 0.0434757
17 13 22 100 0.0579705
19 13 22 100 0.0144928
20 13 22 100 0.0144927
22 13 22 100 0.0144928
0 14 22 100 1.19108e-05
10 14 22 100 0.0147059
11 14 22 100 0.0147059
12 14 22 100 0.0147052
13 14 22 100 0.0588236
14 14 22 100 0.523807
15 14 22 100 0.139648
16 14 22 100 0.0757032
17 14 22 100 0.0517007
18 14 22 100 0.0588258
19 14 22 100 0.0179505
20 14 22 100 0.0147059
21 14 22 100 0.0147059
0 15 22 100 0.000224831
11 15 22 100 0.0147054
12 15 22 100 0.0147059
13 15 22 100 0.0294096
14 15 22 100 0.0586234
15 15 22 100 0.468685
16 15 22 100 0.149585
17 15 22 100 0.0887698
18 15 22 100 0.0701574
19 15 22 100 0.0588234
20 15 22 100 0.0268803
21 15 22 100 0.0194307
0 16 22 100 1.2098e-05
12 16 22 100 0.0147059
13 16 22 100 0.0147046
14 16 22 100 0.02941
15 16 22 100 0.0735293
16 16 22 100 0.426464
17 16 22 100 0.133578
18 16 22 100 0.101715
19 16 22 100 0.058823
20 16 22 100 0.0735286
21 16 22 100 0.0294118
22 16 22 100 0.0441177
0 17 22 100 2.20831e-05
13 17 22 100 0.0153846
14 17 22 100 0.0153846
15 17 22 100 0.0307692
16 17 22 100 0.0615369
17 17 22 100 0.430758
18 17 22 100 0.138458
19 17 22 100 0.123072
20 17 22 100 0.0615381
21 17 22 100 0.0769229
22 17 22 100 0.0461539
0 18 22 100 0.0161525
14 18 22 100 0.016129
16 18 22 100 0.032257
17 18 22 100 0.0483861
18 18 22 100 0.451604
19 18 22 100 0.14515
20 18 22 100 0.129032
21 18 22 100 0.0645161
22 18 22 100 0.0967742
0 19 22 100 0.0181548
12 19 22 100 6.38162e-07
15 19 22 100 0.0178571
17 19 22 100 0.0357143
18 19 22 100 0.0535714
19 19 22 100 0.446135
20 19 22 100 0.178567
21 19 22 100 0.142857
22 19 22 100 0.107143
0 20 22 100 1.77583e-05
16 20 22 100 0.0199996
17 20 22 100 0.02
18 20 22 100 0.04
19 20 22 100 0.059998
20 20 22 100 0.468698
21 20 22 100 0.211287
22 20 22 100 0.18
0 21 22 100 8.2434e-06
17 21 22 100 0.0243894
18 21 22 100 0.0243902
19 21 22 100 0.0487802
20 21 22 100 0.0731675
21 21 22 100 0.560972
22 21 22 100 0.268293
0 22 22 100 0.0666666
18 22 22 100 0.0333333
19 22 22 100 0.0333333
20 22 22 100 0.0666666
21 22 22 100 0.1
22 22 22 100 0.7
0 23 22 100 0.110943
19 23 22 100 0.11111
20 23 22 100 0.111111
21 23 22 100 0.333501
22 23 22 100 0.333334
20 24 22 100 0.166667
21 24 22 100 0.333333
22 24 22 100 0.500001
0 25 22 100 0.331842
7 25 22 100 0.00149148
21 25 22 100 0.333333
22 25 22 100 0.333333
0 26 22 100 0.164725
6 26 22 100 8.79376e-05
8 26 22 100 9.08806e-06
21 26 22 100 0.335178
22 26 22 100 0.5
0 27 22 100 1
0 28 22 100 1
6 29 22 100 1
6 30 22 100 1
0 31 22 100 0.99999
12 31 22 100 1.02562e-05
0 32 22 100 1
0 33 22 100 1.96581e-05
21 33 22 100 0.99998
22 34 22 100 1
1 1 23 100 0.957033
2 1 23 100 0.0153993
3 1 23 100 0.0160735
8 1 23 100 0.0114943
0 2 23 100 0.027057
2 2 23 100 0.9099
3 2 23 100 0.0114933
4 2 23 100 0.0114943
5 2 23 100 0.0229885
9 2 23 100 0.0114943
10 2 23 100 1.45635e-06
11 2 23 100 0.00556948
12 2 23 100 1.48539e-06
0 3 23 100 0.0115896
1 3 23 100 0.0117321
2 3 23 100 0.0229885
3 3 23 100 0.87919
4 3 23 100 0.01733
6 3 23 100 0.0459753
12 3 23 100 0.0111944
20 3 23 100 4.08117e-07
0 4 23 100 0.000482873
2 4 23 100 0.0344401
3 4 23 100 0.0225646
4 4 23 100 0.85009
5 4 23 100 0.0464349
7 4 23 100 0.045977
19 4 23 100 1.01809e-05
0 5 23 100 3.54217e-05
3 5 23 100 0.045977
4 5 23 100 0.0114941
5 5 23 100 0.810189
6 5 23 100 0.0747312
8 5 23 100 0.0460789
10 5 23 100 0.0114943
0 6 23 100 0.0131854
4 6 23 100 0.0459769
5 6 23 100 0.0229884
6 6 23 100 0.77992
7 6 23 100 0.0689638
9 6 23 100 0.0459769
10 6 23 100 0.0114942
11 6 23 100 0.0114943
0 7 23 100 0.0114948
5 7 23 100 0.045977
6 7 23 100 0.034386
7 7 23 100 0.762175
8 7 23 100 0.0598814
9 7 23 100 0.00598238
10 7 23 100 0.057113
11 7 23 100 0.0114943
12 7 23 100 0.0114965
0 8 23 100 0.0115559
6 8 23 100 0.0459764
7 8 23 100 0.0344819
8 8 23 100 0.701337
9 8 23 100 0.103224
10 8 23 100 0.01192
11 8 23 100 0.057471
12 8 23 100 0.022539
13 8 23 100 0.0114943
0 9 23 100 0.0229473
7 9 23 100 0.034482
8 9 23 100 0.0636469
9 9 23 100 0.633734
10 9 23 100 0.141745
11 9 23 100 0.0114937
12 9 23 100 0.0574693
13 9 23 100 0.0229876
14 9 23 100 0.0114943
0 10 23 100 0.000766307
8 10 23 100 0.045977
9 10 23 100 0.0804571
10 10 23 100 0.597676
11 10 23 100 0.130403
12 10 23 100 0.0527668
13 10 23 100 0.0574713
14 10 23 100 0.0229885
15 10 23 100 0.0114943
0 11 23 100 0.0136502
7 11 23 100 1.59461e-06
9 11 23 100 0.0459763
10 11 23 100 0.0574684
11 11 23 100 0.545985
12 11 23 100 0.160866
13 11 23 100 0.0689646
14 11 23 100 0.0574702
15 11 23 100 0.0229885
16 11 23 100 0.0171852
17 11 23 100 0.00941052
22 11 23 100 3.36607e-05
0 12 23 100 0.0242559
4 12 23 100 7.13642e-07
10 12 23 100 0.0459476
11 12 23 100 0.081173
12 12 23 100 0.48207
13 12 23 100 0.15965
14 12 23 100 0.0919518
15 12 23 100 0.0574713
16 12 23 100 0.0344822
17 12 23 100 0.0229881
22 12 23 100 8.99995e-06
0 13 23 100 0.0130229
4 13 23 100 3.46313e-07
10 13 23 100 0.02298
11 13 23 100 0.0344815
12 13 23 100 0.0689631
13 13 23 100 0.45981
14 13 23 100 0.172412
15 13 23 100 0.105514
16 13 23 100 0.0574698
17 13 23 100 0.0308221
18 13 23 100 0.023022
22 13 23 100 8.48909e-06
23 13 23 100 0.0114943
0 14 23 100 0.0209267
11 14 23 100 0.00598702
12 14 23 100 0.0342735
13 14 23 100 0.0813773
14 14 23 100 0.43434
15 14 23 100 0.177848
16 14 23 100 0.113208
17 14 23 100 0.0813974
18 14 23 100 0.0116275
19 14 23 100 0.039015
0 15 23 100 0.0115533
3 15 23 100 2.16134e-07
10 15 23 100 2.45959e-07
13 15 23 100 0.0348837
14 15 23 100 0.0814914
15 15 23 100 0.413181
16 15 23 100 0.17983
17 15 23 100 0.116276
18 15 23 100 0.0813905
19 15 23 100 0.0116279
20 15 23 100 0.0581389
23 15 23 100 0.0116279
0 16 23 100 0.0237725
2 16 23 100 4.21859e-07
13 16 23 100 0.0117647
14 16 23 100 0.0235402
15 16 23 100 0.0823506
16 16 23 100 0.386222
17 16 23 100 0.176466
18 16 23 100 0.142945
19 16 23 100 0.0823513
20 16 23 100 0.0117647
21 16 23 100 0.0588228
0 17 23 100 0.0204014
3 17 23 100 2.14915e-07
10 17 23 100 2.41242e-07
14 17 23 100 0.0150034
15 17 23 100 0.0235294
16 17 23 100 0.0878632
17 17 23 100 0.315329
18 17 23 100 0.213673
19 17 23 100 0.141106
20 17 23 100 0.100741
21 17 23 100 0.0117644
22 17 23 100 0.0588236
23 17 23 100 0.0117647
0 18 23 100 0.000131099
14 18 23 100 0.0237178
15 18 23 100 0.0237865
16 18 23 100 0.0238076
17 18 23 100 0.0947734
18 18 23 100 0.298077
19 18 23 100 0.206875
20 18 23 100 0.150261
21 18 23 100 0.107142
22 18 23 100 0.0119048
23 18 23 100 0.0595238
0 19 23 100 5.41915e-05
15 19 23 100 0.0126582
16 19 23 100 0.0126623
17 19 23 100 0.0379747
18 19 23 100 0.0886055
19 19 23 100 0.316431
20 19 23 100 0.215147
21 19 23 100 0.189885
22 19 23 100 0.113924
23 19 23 100 0.0126582
0 20 23 100 0.0356674
15 20 23 100 6.74511e-07
16 20 23 100 0.0128198
17 20 23 100 0.025641
18 20 23 100 0.0384609
19 20 23 100 0.0797357
20 20 23 100 0.29486
21 20 23 100 0.205123
22 20 23 100 0.179487
23 20 23 100 0.128205
0 21 23 100 0.0149855
16 21 23 100 0.0149254
17 21 23 100 0.0149245
18 21 23 100 0.0298507
19 21 23 100 0.0596891
20 21 23 100 0.0895173
21 21 23 100 0.343272
22 21 23 100 0.238806
23 21 23 100 0.19403
0 22 23 100 0.019499
15 22 23 100 5.78301e-07
18 22 23 100 0.0185176
19 22 23 100 0.0370377
20 22 23 100 0.07406
21 22 23 100 0.129629
22 22 23 100 0.42496
23 22 23 100 0.296296
0 23 23 100 0.0526278
5 23 23 100 5.47896e-07
10 23 23 100 5.48506e-07
15 23 23 100 6.0055e-06
20 23 23 100 0.0526277
21 23 23 100 0.157895
22 23 23 100 0.157895
23 23 23 100 0.578948
0 24 23 100 0.124929
10 24 23 100 4.62427e-05
21 24 23 100 0.125071
22 24 23 100 0.374954
23 24 23 100 0.375001
21 25 23 100 0.1
22 25 23 100 0.3
23 25 23 100 0.6
0 26 23 100 0.249994
13 26 23 100 5.21977e-06
23 26 23 100 0.75
0 27 23 100 0.999936
5 27 23 100 2.06267e-05
10 27 23 100 2.082e-05
20 27 23 100 2.28422e-05
22 28 23 100 1
23 29 23 100 1
1 1 24 100 0.968751
5 1 24 100 0.015625
6 1 24 100 0.0156241
0 2 24 100 2.31355e-05
1 2 24 100 0.00601282
2 2 24 100 0.933325
3 2 24 100 0.015625
5 2 24 100 0.00781112
6 2 24 100 0.0215779
7 2 24 100 0.015625
0 3 24 100 0.0156525
3 3 24 100 0.888909
4 3 24 100 0.0173329
5 3 24 100 0.00764785
6 3 24 100 0.015625
7 3 24 100 0.0312145
8 3 24 100 0.0236184
18 3 24 100 2.87221e-07
0 4 24 100 0.0312812
4 4 24 100 0.859344
5 4 24 100 0.015624
6 4 24 100 0.0156251
7 4 24 100 0.015625
8 4 24 100 0.03125
9 4 24 100 0.015625
10 4 24 100 0.015625
19 4 24 100 2.87218e-07
0 5 24 100 1.94952e-05
2 5 24 100 0.015625
3 5 24 100 0.015625
5 5 24 100 0.828106
6 5 24 100 0.0156259
7 5 24 100 0.015625
8 5 24 100 0.015625
9 5 24 100 0.0468741
10 5 24 100 0.0156249
11 5 24 100 0.015625
12 5 24 100 0.015625
0 6 24 100 0.000184379
2 6 24 100 0.015625
3 6 24 100 0.015625
5 6 24 100 3.12579e-06
6 6 24 100 0.78183
7 6 24 100 0.0359663
8 6 24 100 0.015625
9 6 24 100 0.0255571
10 6 24 100 0.0470881
11 6 24 100 0.0156257
12 6 24 100 0.0312474
13 6 24 100 0.0156234
0 7 24 100 0.0156553
3 7 24 100 0.015625
4 7 24 100 0.015614
6 7 24 100 0.0312501
7 7 24 100 0.718736
8 7 24 100 0.0312483
9 7 24 100 0.0156249
10 7 24 100 0.0312497
11 7 24 100 0.0312472
12 7 24 100 0.046875
13 7 24 100 0.0312497
14 7 24 100 0.015625
0 8 24 100 3.43603e-05
4 8 24 100 0.015625
5 8 24 100 0.015625
7 8 24 100 0.046873
8 8 24 100 0.71091
9 8 24 100 0.0312499
10 8 24 100 0.015625
11 8 24 100 0.03125
12 8 24 100 0.0390602
13 8 24 100 0.0468733
14 8 24 100 0.0312491
15 8 24 100 0.015625
0 9 24 100 3.20045e-05
5 9 24 100 0.015625
6 9 24 100 0.0156243
8 9 24 100 0.0312493
9 9 24 100 0.718732
10 9 24 100 0.0312485
11 9 24 100 0.0156166
12 9 24 100 0.03125
13 9 24 100 0.0468737
14 9 24 100 0.046874
15 9 24 100 0.03125
16 9 24 100 0.015625
0 10 24 100 0.0156589
6 10 24 100 0.0156249
7 10 24 100 0.015625
9 10 24 100 0.031247
10 10 24 100 0.703571
11 10 24 100 0.0464026
13 10 24 100 0.03125
14 10 24 100 0.0468747
15 10 24 100 0.046875
16 10 24 100 0.0312473
17 10 24 100 0.0156234
0 11 24 100 5.96552e-05
7 11 24 100 0.015625
8 11 24 100 0.015625
10 11 24 100 0.0313052
11 11 24 100 0.656249
12 11 24 100 0.0937537
13 11 24 100 5.41076e-05
14 11 24 100 0.0312508
15 11 24 100 0.0623298
16 11 24 100 0.0468734
17 11 24 100 0.0312489
18 11 24 100 0.015625
0 12 24 100 0.000509735
8 12 24 100 0.0151373
9 12 24 100 0.015624
11 12 24 100 0.03125
12 12 24 100 0.635165
13 12 24 100 0.0937408
15 12 24 100 0.0679422
16 12 24 100 0.0468827
17 12 24 100 0.0468731
18 12 24 100 0.03125
19 12 24 100 0.015625
20 12 24 100 1.69427e-07
0 13 24 100 0.0156589
10 13 24 100 0.015624
12 13 24 100 0.0312478
13 13 24 100 0.614049
14 13 24 100 0.0546436
15 13 24 100 0.0156242
16 13 24 100 0.0812809
17 13 24 100 0.0624964
18 13 24 100 0.046875
19 13 24 100 0.0312497
20 13 24 100 0.015625
24 13 24 100 0.015625
0 14 24 100 0.000437287
8 14 24 100 0.015873
11 14 24 100 0.015873
13 14 24 100 0.031746
14 14 24 100 0.618613
15 14 24 100 0.0476174
16 14 24 100 0.015873
17 14 24 100 0.0793635
18 14 24 100 0.0634928
19 14 24 100 0.0476183
20 14 24 100 0.031746
21 14 24 100 0.015873
24 14 24 100 0.015873
0 15 24 100 0.000635531
9 15 24 100 0.0161169
12 15 24 100 0.0161274
14 15 24 100 0.0477978
15 15 24 100 0.597728
16 15 24 100 0.0635347
17 15 24 100 0.016129
18 15 24 100 0.0806434
19 15 24 100 0.0645158
20 15 24 100 0.0483847
21 15 24 100 0.0322581
22 15 24 100 0.016129
0 16 24 100 0.000349211
10 16 24 100 0.016129
13 16 24 100 0.016129
14 16 24 100 0.0159883
15 16 24 100 0.032258
16 16 24 100 0.56471
17 16 24 100 0.0963774
18 16 24 100 0.0161258
19 16 24 100 0.080645
20 16 24 100 0.0645158
21 16 24 100 0.0483871
22 16 24 100 0.0322562
23 16 24 100 0.016129
0 17 24 100 0.00468658
5 17 24 100 0.016129
11 17 24 100 0.0207936
14 17 24 100 0.0321836
16 17 24 100 0.0322581
17 17 24 100 0.571337
18 17 24 100 0.0645515
19 17 24 100 0.032256
20 17 24 100 0.0806426
21 17 24 100 0.0645161
22 17 24 100 0.048387
23 17 24 100 0.0322591
0 18 24 100 0.0161504
6 18 24 100 0.016129
12 18 24 100 0.016129
15 18 24 100 0.016129
17 18 24 100 0.0324536
18 18 24 100 0.515916
19 18 24 100 0.0887081
20 18 24 100 0.0322581
21 18 24 100 0.0806439
22 18 24 100 0.0725797
23 18 24 100 0.0483869
24 18 24 100 0.0645161
0 19 24 100 0.000155683
7 19 24 100 0.0172414
8 19 24 100 2.31918e-07
10 19 24 100 5.01802e-07
11 19 24 100 0.0172394
13 19 24 100 0.0172414
14 19 24 100 0.0172413
16 19 24 100 0.017241
18 19 24 100 0.0344828
19 19 24 100 0.524795
20 19 24 100 0.0785071
21 19 24 100 0.0517176
22 19 24 100 0.0862051
23 19 24 100 0.0862069
24 19 24 100 0.0517242
0 20 24 100 0.000228739
8 20 24 100 0.0181818
9 20 24 100 4.07452e-07
10 20 24 100 0.0135192
11 20 24 100 0.00466214
14 20 24 100 0.0181818
15 20 24 100 0.0181176
17 20 24 100 0.0181818
19 20 24 100 0.0192116
20 20 24 100 0.517418
21 20 24 100 0.117752
22 20 24 100 0.0545454
23 20 24 100 0.0909085
24 20 24 100 0.109091
0 21 24 100 2.91686e-05
9 21 24 100 0.0204078
10 21 24 100 0.020408
11 21 24 100 2.10635e-07
15 21 24 100 0.0204082
16 21 24 100 0.0204082
18 21 24 100 0.0204061
20 21 24 100 0.0408163
21 21 24 100 0.550566
22 21 24 100 0.14285
23 21 24 100 0.0616593
24 21 24 100 0.102041
0 22 24 100 6.50153e-06
10 22 24 100 0.0227426
11 22 24 100 0.0227117
16 22 24 100 0.0227271
17 22 24 100 0.0227273
19 22 24 100 0.0227268
20 22 24 100 0.0227273
21 22 24 100 0.0227269
22 22 24 100 0.568176
23 22 24 100 0.159091
24 22 24 100 0.113636
0 23 24 100 0.000192881
12 23 24 100 2.78034e-07
17 23 24 100 0.025641
18 23 24 100 0.025641
20 23 24 100 0.0512812
21 23 24 100 0.0254488
22 23 24 100 0.025641
23 23 24 100 0.641026
24 23 24 100 0.205128
0 24 24 100 1.99037e-06
18 24 24 100 0.0322566
19 24 24 100 0.0322575
21 24 24 100 0.0645159
22 24 24 100 0.032258
23 24 24 100 0.0322581
24 24 24 100 0.806452
0 25 24 100 1.84815e-05
19 25 24 100 0.166659
20 25 24 100 0.166656
22 25 24 100 0.333333
23 25 24 100 0.166667
24 25 24 100 0.166667
20 26 24 100 0.2
21 26 24 100 0.2
23 26 24 100 0.4
24 26 24 100 0.2
21 27 24 100 0.25
22 27 24 100 0.25
24 27 24 100 0.5
22 28 24 100 0.5
23 28 24 100 0.5
23 29 24 100 0.5
24 29 24 100 0.5
24 30 24 100 1
1 1 25 100 0.964185
3 1 25 100 0.0224698
5 1 25 100 0.0112313
24 1 25 100 0.00211386
0 2 25 100 0.0160042
1 2 25 100 0.00661311
2 2 25 100 0.84758
3 2 25 100 0.0224719
4 2 25 100 0.0112354
5 2 25 100 0.028796
6 2 25 100 0.0224718
7 2 25 100 0.01759
11 2 25 100 0.00460818
12 2 25 100 2.20794e-05
14 2 25 100 2.36726e-07
18 2 25 100 2.25296e-07
20 2 25 100 0.011236
22 2 25 100 0.011236
23 2 25 100 0.000134329
0 3 25 100 0.0336517
1 3 25 100 0.0222356
2 3 25 100 0.0224704
3 3 25 100 0.798005
4 3 25 100 0.0224697
5 3 25 100 0.0112323
6 3 25 100 0.0224705
7 3 25 100 0.0224719
9 3 25 100 0.0112353
12 3 25 100 0.011236
14 3 25 100 2.85548e-07
19 3 25 100 2.33846e-07
21 3 25 100 0.0112352
22 3 25 100 4.99592e-05
23 3 25 100 0.011236
0 4 25 100 0.0403902
1 4 25 100 0.011236
2 4 25 100 0.0224691
3 4 25 100 0.0335834
4 4 25 100 0.786503
5 4 25 100 0.011236
6 4 25 100 0.0224719
7 4 25 100 0.0249339
8 4 25 100 0.00177103
10 4 25 100 0.000533554
11 4 25 100 0.011236
13 4 25 100 0.0223998
22 4 25 100 0.011236
0 5 25 100 0.00963152
1 5 25 100 4.86293e-06
2 5 25 100 0.033703
3 5 25 100 0.024095
4 5 25 100 0.0337079
5 5 25 100 0.770999
6 5 25 100 0.015622
7 5 25 100 0.0335852
8 5 25 100 0.0224719
9 5 25 100 0.0112359
12 5 25 100 0.011236
14 5 25 100 0.0224719
18 5 25 100 3.29957e-07
23 5 25 100 0.0112353
0 6 25 100 7.77949e-05
2 6 25 100 0.0111772
3 6 25 100 0.0336595
4 6 25 100 0.0224718
5 6 25 100 0.0337082
6 6 25 100 0.741547
7 6 25 100 0.0440641
8 6 25 100 0.0337079
9 6 25 100 0.0345845
13 6 25 100 0.0224719
15 6 25 100 0.011236
20 6 25 100 5.84828e-05
24 6 25 100 0.011236
0 7 25 100 0.011435
2 7 25 100 0.011106
3 7 25 100 0.011236
4 7 25 100 0.0337079
6 7 25 100 0.0337079
7 7 25 100 0.730218
8 7 25 100 0.0449427
9 7 25 100 0.0337077
10 7 25 100 0.056231
14 7 25 100 0.0224716
16 7 25 100 0.0112359
0 8 25 100 0.0128874
3 8 25 100 0.0208216
4 8 25 100 0.0112384
5 8 25 100 0.0337035
6 8 25 100 1.4015e-06
7 8 25 100 0.0281012
8 8 25 100 0.667581
9 8 25 100 0.0786508
10 8 25 100 0.0402694
11 8 25 100 0.0786499
12 8 25 100 0.00560584
14 8 25 100 1.67683e-05
15 8 25 100 0.011236
17 8 25 100 0.011236
21 8 25 100 7.33794e-07
0 9 25 100 0.0330443
4 9 25 100 0.0112001
5 9 25 100 0.0112319
6 9 25 100 0.0267091
8 9 25 100 0.0447856
9 9 25 100 0.606725
10 9 25 100 0.0830857
11 9 25 100 0.0561792
12 9 25 100 0.0820889
13 9 25 100 0.011236
16 9 25 100 0.011236
17 9 25 100 0.011236
18 9 25 100 0.011236
19 9 25 100 7.47803e-07
20 9 25 100 5.45712e-06
0 10 25 100 0.000225542
4 10 25 100 1.90632e-06
5 10 25 100 0.0224719
7 10 25 100 0.0337079
9 10 25 100 0.0561782
10 10 25 100 0.595291
11 10 25 100 0.0786485
12 10 25 100 0.0561775
13 10 25 100 0.0898839
14 10 25 100 0.0224727
17 10 25 100 0.011236
18 10 25 100 0.0112354
19 10 25 100 0.011236
21 10 25 100 0.011234
0 11 25 100 0.0235536
2 11 25 100 5.82539e-05
6 11 25 100 0.011236
7 11 25 100 0.0102708
8 11 25 100 0.0224719
10 11 25 100 0.0561781
11 11 25 100 0.561687
12 11 25 100 0.0674158
13 11 25 100 0.112297
14 11 25 100 0.0624441
15 11 25 100 0.027443
18 11 25 100 0.011236
19 11 25 100 0.011236
20 11 25 100 0.011236
22 11 25 100 0.011236
0 12 25 100 0.0245346
4 12 25 100 2.18475e-07
6 12 25 100 0.0112263
7 12 25 100 0.011236
9 12 25 100 0.0224716
11 12 25 100 0.112355
12 12 25 100 0.492616
13 12 25 100 0.0674156
14 12 25 100 0.135051
15 12 25 100 0.0556782
16 12 25 100 0.0337081
19 12 25 100 0.011236
20 12 25 100 0.011236
21 12 25 100 0.011236
0 13 25 100 0.0303085
7 13 25 100 0.011236
8 13 25 100 0.0224697
10 13 25 100 0.0224711
12 13 25 100 0.123398
13 13 25 100 0.453043
14 13 25 100 0.0786512
15 13 25 100 0.134798
16 13 25 100 0.0562093
17 13 25 100 0.0337079
21 13 25 100 0.0112355
22 13 25 100 0.0112358
25 13 25 100 0.011236
0 14 25 100 0.0113765
7 14 25 100 3.05328e-07
8 14 25 100 0.011363
9 14 25 100 0.0227272
11 14 25 100 0.0227273
12 14 25 100 0.0113625
13 14 25 100 0.147727
14 14 25 100 0.437507
15 14 25 100 0.0791919
16 14 25 100 0.125
17 14 25 100 0.0681802
18 14 25 100 0.0340902
19 14 25 100 0.0060198
22 14 25 100 0.0113636
23 14 25 100 0.0113636
0 15 25 100 0.0114578
3 15 25 100 3.29853e-07
6 15 25 100 3.8054e-07
9 15 25 100 0.0113636
10 15 25 100 0.0227273
12 15 25 100 0.0227268
14 15 25 100 0.159115
15 15 25 100 0.420347
16 15 25 100 0.0909022
17 15 25 100 0.124997
18 15 25 100 0.0681813
19 15 25 100 0.0340109
20 15 25 100 3.99199e-05
21 15 25 100 3.99196e-05
23 15 25 100 0.0113636
24 15 25 100 0.0113636
25 15 25 100 0.0113636
0 16 25 100 0.0115233
2 16 25 100 2.54383e-07
10 16 25 100 0.0114943
11 16 25 100 0.0229885
13 16 25 100 0.0229885
14 16 25 100 1.38879e-07
15 16 25 100 0.160918
16 16 25 100 0.40319
17 16 25 100 0.0967445
18 16 25 100 0.126459
19 16 25 100 0.0821213
20 16 25 100 0.0385837
24 16 25 100 0.0114935
25 16 25 100 0.0114943
0 17 25 100 0.00961774
8 17 25 100 0.0023748
9 17 25 100 1.2725e-05
10 17 25 100 3.18164e-06
11 17 25 100 0.0116279
12 17 25 100 0.0230945
14 17 25 100 0.0232554
15 17 25 100 0.0116279
16 17 25 100 0.174233
17 17 25 100 0.372077
18 17 25 100 0.10465
19 17 25 100 0.12943
20 17 25 100 0.093014
21 17 25 100 0.044982
0 18 25 100 0.0246683
2 18 25 100 2.59924e-07
10 18 25 100 0.0115877
12 18 25 100 0.0116265
13 18 25 100 0.0232557
15 18 25 100 0.0232554
17 18 25 100 0.162807
18 18 25 100 0.355691
19 18 25 100 0.114823
20 18 25 100 0.127906
21 18 25 100 0.0813939
22 18 25 100 0.0582384
24 18 25 100 0.00474661
0 19 25 100 9.63369e-05
11 19 25 100 0.0116279
13 19 25 100 0.0116279
14 19 25 100 0.0232557
16 19 25 100 0.0348709
17 19 25 100 0.0116279
18 19 25 100 0.162788
19 19 25 100 0.337137
20 19 25 100 0.111082
21 19 25 100 0.116278
22 19 25 100 0.0813937
23 19 25 100 0.0633304
24 19 25 100 0.0116279
25 19 25 100 0.0232558
0 20 25 100 0.0376665
3 20 25 100 1.77949e-07
10 20 25 100 3.22465e-07
12 20 25 100 0.0119046
14 20 25 100 0.0119045
15 20 25 100 0.0237262
17 20 25 100 0.0357133
18 20 25 100 0.0119048
19 20 25 100 0.142895
20 20 25 100 0.33138
21 20 25 100 0.0768548
22 20 25 100 0.127848
23 20 25 100 0.0714286
24 20 25 100 0.0810598
25 20 25 100 0.0357143
0 21 25 100 0.0123984
8 21 25 100 0.0123458
13 21 25 100 0.0123457
15 21 25 100 0.0123457
16 21 25 100 0.0246912
18 21 25 100 0.0370375
20 21 25 100 0.185182
21 21 25 100 0.279197
22 21 25 100 0.0953685
23 21 25 100 0.148145
24 21 25 100 0.0821777
25 21 25 100 0.0987655
0 22 25 100 2.35365e-05
14 22 25 100 0.013698
16 22 25 100 0.0136986
17 22 25 100 0.0273943
19 22 25 100 0.0410948
21 22 25 100 0.208267
22 22 25 100 0.259944
23 22 25 100 0.134186
24 22 25 100 0.192103
25 22 25 100 0.109589
0 23 25 100 0.000132453
15 23 25 100 0.0153846
17 23 25 100 0.0153846
18 23 25 100 0.0307692
20 23 25 100 0.0768037
22 23 25 100 0.215376
23 23 25 100 0.262781
24 23 25 100 0.167983
25 23 25 100 0.215385
0 24 25 100 0.000184593
16 24 25 100 0.0196078
18 24 25 100 0.0196078
19 24 25 100 0.0392157
21 24 25 100 0.0786069
22 24 25 100 0.0192481
23 24 25 100 0.274509
24 24 25 100 0.294118
25 24 25 100 0.254902
0 25 25 100 1.37165e-06
19 25 25 100 0.0263158
20 25 25 100 0.0526302
21 25 25 100 0.0263158
22 25 25 100 0.0526316
23 25 25 100 0.0263158
24 25 25 100 0.368421
25 25 25 100 0.447368
0 26 25 100 2.10319e-06
21 26 25 100 0.0952381
22 26 25 100 0.0476175
23 26 25 100 0.0952375
24 26 25 100 0.047619
25 26 25 100 0.714286
0 27 25 100 3.19015e-06
22 27 25 100 0.33333
23 27 25 100 0.166667
24 27 25 100 0.333333
25 27 25 100 0.166667
23 28 25 100 0.399999
24 28 25 100 0.2
25 28 25 100 0.4
24 29 25 100 0.666667
25 29 25 100 0.333333
25 30 25 100 1
1 1 26 100 0.934222
4 1 26 100 0.0263143
5 1 26 100 0.0263056
18 1 26 100 0.0131579
0 2 26 100 0.0131834
2 2 26 100 0.864979
3 2 26 100 0.0263139
6 2 26 100 0.0131575
8 2 26 100 0.0168536
11 2 26 100 0.0263158
14 2 26 100 0.012881
19 2 26 100 0.0131579
25 2 26 100 0.0131579
0 3 26 100 0.0131559
2 3 26 100 0.0263153
3 3 26 100 0.832486
4 3 26 100 0.0394898
6 3 26 100 0.0131579
7 3 26 100 0.0131579
9 3 26 100 0.0227643
12 3 26 100 0.0263146
25 3 26 100 0.0131579
0 4 26 100 0.013185
3 4 26 100 0.0263158
4 4 26 100 0.815765
5 4 26 100 0.0394709
7 4 26 100 0.0131579
8 4 26 100 0.0131579
10 4 26 100 0.0263157
13 4 26 100 0.0263158
14 4 26 100 3.9108e-07
15 4 26 100 0.0131579
25 4 26 100 0.0131579
0 5 26 100 0.0132349
3 5 26 100 0.0131579
4 5 26 100 0.0131579
5 5 26 100 0.783096
6 5 26 100 0.0343221
7 5 26 100 0.0195176
8 5 26 100 0.0131579
9 5 26 100 0.0277639
11 5 26 100 0.0300192
14 5 26 100 0.0263158
16 5 26 100 0.0131579
19 5 26 100 0.0130987
0 6 26 100 0.0276948
1 6 26 100 1.69058e-06
4 6 26 100 0.00694079
5 6 26 100 0.0393196
6 6 26 100 0.736818
7 6 26 100 0.0203665
8 6 26 100 0.0322695
9 6 26 100 0.0161523
10 6 26 100 0.0050202
11 6 26 100 0.0131577
12 6 26 100 0.0496292
15 6 26 100 0.0263154
17 6 26 100 0.0131579
20 6 26 100 0.0131561
21 6 26 100 1.34327e-07
0 7 26 100 2.59005e-05
2 7 26 100 0.0131579
3 7 26 100 0.0131579
6 7 26 100 0.0394725
7 7 26 100 0.731879
8 7 26 100 0.0131579
9 7 26 100 0.0394737
10 7 26 100 0.0131579
11 7 26 100 0.0131579
12 7 26 100 0.0131576
13 7 26 100 0.0526316
15 7 26 100 0.00494092
16 7 26 100 0.0263142
18 7 26 100 0.0131574
21 7 26 100 0.0131579
0 8 26 100 0.0121882
3 8 26 100 0.0131579
5 8 26 100 0.0131576
7 8 26 100 0.0404669
8 8 26 100 0.697353
9 8 26 100 0.0131579
10 8 26 100 0.0526289
11 8 26 100 0.0131569
12 8 26 100 0.0131579
13 8 26 100 0.0131578
14 8 26 100 0.0394718
15 8 26 100 0.0131576
16 8 26 100 0.013134
17 8 26 100 0.0263158
19 8 26 100 0.0131579
21 8 26 100 2.18604e-05
22 8 26 100 0.0131579
0 9 26 100 0.0131898
6 9 26 100 0.0131579
7 9 26 100 0.0131572
8 9 26 100 0.0263152
9 9 26 100 0.670632
10 9 26 100 0.0268115
11 9 26 100 0.0462138
12 9 26 100 0.0262124
13 9 26 100 0.00641935
14 9 26 100 0.0263158
15 9 26 100 0.0526295
16 9 26 100 0.0131579
17 9 26 100 0.0131572
18 9 26 100 0.0263144
20 9 26 100 0.0131579
23 9 26 100 0.0131579
0 10 26 100 0.0395787
8 10 26 100 0.0263131
9 10 26 100 0.0393644
10 10 26 100 0.592111
11 10 26 100 0.0657988
12 10 26 100 0.0394737
13 10 26 100 0.0263144
14 10 26 100 0.0131579
15 10 26 100 0.0263149
16 10 26 100 0.0526283
17 10 26 100 0.0131574
18 10 26 100 0.0131579
19 10 26 100 0.0263146
21 10 26 100 0.0131579
24 10 26 100 0.0131574
0 11 26 100 0.0131739
3 11 26 100 0.0131576
9 11 26 100 0.0263157
10 11 26 100 0.0394732
11 11 26 100 0.592095
12 11 26 100 0.0789453
13 11 26 100 0.039474
14 11 26 100 0.0263158
15 11 26 100 0.0131579
16 11 26 100 0.0263133
17 11 26 100 0.0526312
18 11 26 100 0.0131579
19 11 26 100 0.0131579
20 11 26 100 0.0263158
22 11 26 100 0.0131574
25 11 26 100 0.0131579
0 12 26 100 0.0131866
5 12 26 100 0.0263157
6 12 26 100 5.22851e-07
7 12 26 100 0.0131579
8 12 26 100 0.0131579
9 12 26 100 3.77222e-06
10 12 26 100 0.0263148
11 12 26 100 0.0394737
12 12 26 100 0.57892
13 12 26 100 0.0921037
14 12 26 100 0.0394733
15 12 26 100 0.0263158
16 12 26 100 0.0131571
17 12 26 100 0.0263158
18 12 26 100 0.0526299
19 12 26 100 0.0131579
21 12 26 100 0.0131579
23 12 26 100 0.0131579
0 13 26 100 0.039572
2 13 26 100 0.0130962
6 13 26 100 0.0131579
8 13 26 100 1.35275e-07
9 13 26 100 0.0131574
10 13 26 100 2.20281e-07
11 13 26 100 0.0263158
12 13 26 100 0.0394718
13 13 26 100 0.552602
14 13 26 100 0.0921012
15 13 26 100 0.0394739
16 13 26 100 0.0394737
17 13 26 100 0.0131579
18 13 26 100 0.0263158
19 13 26 100 0.0526318
20 13 26 100 0.0131579
21 13 26 100 1.31592e-07
22 13 26 100 0.0131557
23 13 26 100 2.27596e-07
24 13 26 100 0.0131578
0 14 26 100 0.0132374
7 14 26 100 0.013157
8 14 26 100 0.0131579
10 14 26 100 0.039418
12 14 26 100 0.0263158
13 14 26 100 0.052639
14 14 26 100 0.499983
15 14 26 100 0.10526
16 14 26 100 0.0526311
17 14 26 100 0.0263131
18 14 26 100 0.0263128
19 14 26 100 0.0263154
20 14 26 100 0.0526274
21 14 26 100 0.0131579
22 14 26 100 0.0131579
23 14 26 100 0.0131577
25 14 26 100 0.0131579
0 15 26 100 3.29452e-05
8 15 26 100 0.0131579
9 15 26 100 0.0131579
10 15 26 100 0.0131579
11 15 26 100 0.0263158
13 15 26 100 0.0394734
14 15 26 100 0.052628
15 15 26 100 0.486817
16 15 26 100 0.118421
17 15 26 100 0.0526296
18 15 26 100 0.0263153
19 15 26 100 0.0263158
20 15 26 100 0.0263157
21 15 26 100 0.0526305
22 15 26 100 0.0131575
23 15 26 100 0.0131578
24 15 26 100 0.0131579
26 15 26 100 0.0131579
0 16 26 100 0.000330715
9 16 26 100 0.0133331
10 16 26 100 0.0133333
11 16 26 100 0.0133329
12 16 26 100 0.0133333
13 16 26 100 0.0133236
14 16 26 100 0.0399998
15 16 26 100 0.053102
16 16 26 100 0.473748
17 16 26 100 0.126239
18 16 26 100 0.04
19 16 26 100 0.0342638
20 16 26 100 0.0323307
21 16 26 100 0.0266667
22 16 26 100 0.0666656
23 16 26 100 0.013333
24 16 26 100 0.0133319
25 16 26 100 0.0133333
0 17 26 100 0.0134593
10 17 26 100 0.0133333
11 17 26 100 0.0133331
12 17 26 100 0.0133333
13 17 26 100 0.0133328
14 17 26 100 0.0133333
15 17 26 100 0.0399986
16 17 26 100 0.0533326
17 17 26 100 0.413391
18 17 26 100 0.14666
19 17 26 100 0.0664994
20 17 26 100 0.0266635
21 17 26 100 0.0399983
22 17 26 100 0.0266664
23 17 26 100 0.066665
24 17 26 100 0.0133333
25 17 26 100 0.0133333
26 17 26 100 0.0133333
0 18 26 100 0.0270779
6 18 26 100 4.79749e-07
11 18 26 100 0.0135135
12 18 26 100 0.0135135
13 18 26 100 0.0135135
14 18 26 100 0.0135135
15 18 26 100 0.0135134
16 18 26 100 0.0405396
17 18 26 100 0.0405406
18 18 26 100 0.391601
19 18 26 100 0.1692
20 18 26 100 0.0540137
21 18 26 100 0.0337849
22 18 26 100 0.0405407
23 18 26 100 0.027027
24 18 26 100 0.0675671
25 18 26 100 0.0135135
26 18 26 100 0.027027
0 19 26 100 0.0137272
12 19 26 100 0.0277778
13 19 26 100 0.0138889
14 19 26 100 0.000498054
15 19 26 100 0.0140966
16 19 26 100 0.0138889
17 19 26 100 0.0416667
18 19 26 100 0.0689116
19 19 26 100 0.339232
20 19 26 100 0.19444
21 19 26 100 0.0635389
22 19 26 100 0.0508779
23 19 26 100 0.0416667
24 19 26 100 0.0324548
25 19 26 100 0.0694445
26 19 26 100 0.0138889
0 20 26 100 0.0141367
13 20 26 100 0.0140843
14 20 26 100 0.0140845
16 20 26 100 0.0140845
17 20 26 100 0.0281434
18 20 26 100 0.028169
19 20 26 100 0.0985774
20 20 26 100 0.309858
21 20 26 100 0.190413
22 20 26 100 0.0422517
23 20 26 100 0.0563349
24 20 26 100 0.0490168
25 20 26 100 0.0422535
26 20 26 100 0.0985916
0 21 26 100 0.020021
14 21 26 100 0.0156265
15 21 26 100 0.015625
17 21 26 100 0.0156249
18 21 26 100 0.0312494
19 21 26 100 0.03125
20 21 26 100 0.136384
21 21 26 100 0.281104
22 21 26 100 0.21874
23 21 26 100 0.0468756
24 21 26 100 0.0468741
25 21 26 100 0.046875
26 21 26 100 0.09375
0 22 26 100 4.73704e-05
6 22 26 100 5.97043e-07
7 22 26 100 0.00645554
15 22 26 100 0.0280271
16 22 26 100 0.0172414
18 22 26 100 0.0172414
19 22 26 100 0.0172414
20 22 26 100 0.051723
21 22 26 100 0.137378
22 22 26 100 0.310859
23 22 26 100 0.224131
24 22 26 100 0.086206
25 22 26 100 0.0517242
26 22 26 100 0.0517242
0 23 26 100 4.73781e-05
4 23 26 100 1.85618e-07
16 23 26 100 0.0182094
17 23 26 100 0.0181818
19 23 26 100 0.0181818
20 23 26 100 0.0181815
21 23 26 100 0.0726932
22 23 26 100 0.145433
23 23 26 100 0.309082
24 23 26 100 0.238867
25 23 26 100 0.106577
26 23 26 100 0.0545455
0 24 26 100 0.0192436
3 24 26 100 4.19315e-07
7 24 26 100 4.35899e-07
17 24 26 100 0.0192308
18 24 26 100 0.0192308
20 24 26 100 0.0192308
21 24 26 100 0.0192308
22 24 26 100 0.0769216
23 24 26 100 0.115378
24 24 26 100 0.326917
25 24 26 100 0.25
26 24 26 100 0.134615
0 25 26 100 0.0444601
18 25 26 100 0.0222222
19 25 26 100 0.0222217
21 25 26 100 0.0222222
22 25 26 100 0.0222264
23 25 26 100 0.133315
24 25 26 100 0.133329
25 25 26 100 0.333336
26 25 26 100 0.266667
0 26 26 100 0.0303216
14 26 26 100 5.66675e-07
20 26 26 100 0.030303
22 26 26 100 0.030303
23 26 26 100 0.030303
24 26 26 100 0.151511
25 26 26 100 0.242408
26 26 26 100 0.484849
0 27 26 100 0.057478
6 27 26 100 2.41624e-05
21 27 26 100 0.0588232
23 27 26 100 0.0588405
24 27 26 100 0.0601277
25 27 26 100 0.294118
26 27 26 100 0.470589
0 28 26 100 0.111791
7 28 26 100 1.99424e-06
19 28 26 100 0.110429
22 28 26 100 0.111111
24 28 26 100 0.111111
25 28 26 100 0.111111
26 28 26 100 0.444445
0 29 26 100 5.13849e-06
12 29 26 100 0.2
23 29 26 100 0.199995
25 29 26 100 0.4
26 29 26 100 0.2
12 30 26 100 0.25
24 30 26 100 0.25
26 30 26 100 0.5
0 31 26 100 0.499972
17 31 26 100 5.05384e-06
19 31 26 100 2.27588e-05
25 31 26 100 0.5
0 32 26 100 0.499979
19 32 26 100 1.27193e-05
22 32 26 100 8.21248e-06
26 32 26 100 0.5
0 33 26 100 0.00550965
19 33 26 100 0.99449
26 34 26 100 1
0 1 27 100 1.79082e-06
1 1 27 100 0.959644
2 1 27 100 0.0123016
4 1 27 100 0.0131688
6 1 27 100 0.0127258
7 1 27 100 0.00207904
25 1 27 100 7.94639e-05
0 2 27 100 0.0259899
1 2 27 100 0.012987
2 2 27 100 0.862206
3 2 27 100 0.0208964
5 2 27 100 0.012987
6 2 27 100 0.012987
7 2 27 100 0.0120447
8 2 27 100 0.012987
9 2 27 100 0.0139275
15 2 27 100 0.012987
0 3 27 100 0.0389883
1 3 27 100 0.012987
2 3 27 100 0.012987
3 3 27 100 0.812146
4 3 27 100 0.0579588
7 3 27 100 0.0129861
9 3 27 100 0.0129967
10 3 27 100 0.012987
11 3 27 100 0.0129762
16 3 27 100 0.0129863
18 3 27 100 2.5178e-07
21 3 27 100 4.9062e-07
0 4 27 100 3.94417e-05
1 4 27 100 0.025974
2 4 27 100 0.012981
3 4 27 100 0.000548475
4 4 27 100 0.767838
5 4 27 100 0.10207
6 4 27 100 2.74337e-05
7 4 27 100 0.0129868
8 4 27 100 0.0129873
9 4 27 100 0.0126059
10 4 27 100 0.0129812
11 4 27 100 0.0129862
12 4 27 100 0.012987
15 4 27 100 3.96984e-07
17 4 27 100 0.012987
0 5 27 100 0.005956
2 5 27 100 0.0259409
3 5 27 100 0.012987
4 5 27 100 0.0129877
5 5 27 100 0.740242
6 5 27 100 0.110979
7 5 27 100 0.025974
9 5 27 100 0.012987
11 5 27 100 0.012987
12 5 27 100 0.0129862
13 5 27 100 0.012987
18 5 27 100 0.0129863
0 6 27 100 0.0130151
3 6 27 100 0.0259739
5 6 27 100 0.012987
6 6 27 100 0.714209
7 6 27 100 0.137759
8 6 27 100 0.0129908
9 6 27 100 0.0181306
10 6 27 100 0.012987
12 6 27 100 0.0129865
13 6 27 100 0.012987
14 6 27 100 0.012987
19 6 27 100 0.0129863
0 7 27 100 0.0130179
4 7 27 100 0.0259719
6 7 27 100 0.0259735
7 7 27 100 0.662315
8 7 27 100 0.136217
9 7 27 100 0.0326116
10 7 27 100 0.0308397
12 7 27 100 0.00525211
13 7 27 100 0.0259737
14 7 27 100 0.012987
15 7 27 100 0.0158537
20 7 27 100 0.0061721
21 7 27 100 0.00681492
0 8 27 100 0.0249441
2 8 27 100 0.0129861
3 8 27 100 1.94581e-06
5 8 27 100 0.0259742
7 8 27 100 0.0259711
8 8 27 100 0.636955
9 8 27 100 0.155235
10 8 27 100 0.0131604
11 8 27 100 0.0389611
12 8 27 100 0.000855336
14 8 27 100 1.31762e-07
15 8 27 100 0.0259728
16 8 27 100 0.025974
21 8 27 100 2.12982e-05
22 8 27 100 0.0129868
0 9 27 100 0.000614065
3 9 27 100 0.0253792
6 9 27 100 0.0259739
8 9 27 100 0.025974
9 9 27 100 0.603509
10 9 27 100 0.168826
11 9 27 100 0.0458298
12 9 27 100 0.0389607
14 9 27 100 0.012987
16 9 27 100 0.0259728
17 9 27 100 0.0129861
23 9 27 100 0.012987
0 10 27 100 3.1726e-05
1 10 27 100 0.0129829
4 10 27 100 0.012987
7 10 27 100 0.025974
9 10 27 100 0.0259734
10 10 27 100 0.597377
11 10 27 100 0.168836
12 10 27 100 0.0519426
13 10 27 100 0.038961
15 10 27 100 0.012987
17 10 27 100 0.025974
18 10 27 100 0.0129867
24 10 27 100 0.0129868
0 11 27 100 2.40409e-05
2 11 27 100 0.012987
5 11 27 100 0.0129867
8 11 27 100 0.0259738
10 11 27 100 0.0259733
11 11 27 100 0.571417
12 11 27 100 0.181812
13 11 27 100 0.0649314
14 11 27 100 0.0389609
16 11 27 100 0.012987
18 11 27 100 0.025974
19 11 27 100 0.0129868
25 11 27 100 0.0129862
0 12 27 100 0.0129114
6 12 27 100 0.012987
9 12 27 100 0.0259737
11 12 27 100 0.025974
12 12 27 100 0.571303
13 12 27 100 0.16908
14 12 27 100 0.0649345
15 12 27 100 0.0389604
17 12 27 100 0.0259285
19 12 27 100 0.0259737
20 12 27 100 0.012987
26 12 27 100 0.012987
0 13 27 100 0.0242993
4 13 27 100 0.000152617
7 13 27 100 0.0129873
9 13 27 100 0.012987
10 13 27 100 0.025974
12 13 27 100 0.0389605
13 13 27 100 0.534007
14 13 27 100 0.194797
15 13 27 100 0.0649345
16 13 27 100 0.038961
18 13 27 100 0.012987
20 13 27 100 0.025966
21 13 27 100 0.012987
23 13 27 100 2.76867e-07
0 14 27 100 0.013281
6 14 27 100 0.0129659
8 14 27 100 0.012987
10 14 27 100 0.0129863
11 14 27 100 0.0258801
13 14 27 100 0.0649339
14 14 27 100 0.493476
15 14 27 100 0.194759
16 14 27 100 0.064746
17 14 27 100 0.0520375
18 14 27 100 0.0129859
19 14 27 100 0.012987
21 14 27 100 0.012987
22 14 27 100 0.0129869
0 15 27 100 0.0461659
5 15 27 100 1.45448e-07
6 15 27 100 2.80221e-07
7 15 27 100 0.0129872
9 15 27 100 0.012987
11 15 27 100 0.012987
12 15 27 100 0.0262707
14 15 27 100 0.0649301
15 15 27 100 0.459914
16 15 27 100 0.193594
17 15 27 100 0.0791209
18 15 27 100 0.0389983
20 15 27 100 0.0259739
21 15 27 100 2.56261e-05
22 15 27 100 0.00491009
23 15 27 100 0.0210638
25 15 27 100 7.0332e-05
0 16 27 100 0.0126769
8 16 27 100 0.0126512
10 16 27 100 0.0129864
12 16 27 100 0.012987
13 16 27 100 0.0259736
15 16 27 100 0.0649351
16 16 27 100 0.467509
17 16 27 100 0.182155
18 16 27 100 0.077922
19 16 27 100 0.0649351
21 16 27 100 0.0263097
24 16 27 100 0.025974
26 16 27 100 0.0129849
0 17 27 100 0.01349
5 17 27 100 2.8472e-07
11 17 27 100 0.012987
14 17 27 100 0.025974
15 17 27 100 0.0129389
16 17 27 100 0.0649316
17 17 27 100 0.409729
18 17 27 100 0.207781
19 17 27 100 0.10389
20 17 27 100 0.0703576
22 17 27 100 0.0389608
25 17 27 100 0.0259739
27 17 27 100 0.012987
0 18 27 100 0.026422
4 18 27 100 0.000147088
7 18 27 100 3.27008e-07
12 18 27 100 0.0131577
15 18 27 100 0.0263151
16 18 27 100 0.0131579
17 18 27 100 0.0787174
18 18 27 100 0.368405
19 18 27 100 0.236838
20 18 27 100 0.105261
21 18 27 100 0.0526311
23 18 27 100 0.0263158
24 18 27 100 0.0131579
26 18 27 100 0.0263158
27 18 27 100 0.0131579
0 19 27 100 7.90927e-05
12 19 27 100 1.77509e-07
13 19 27 100 0.0133333
16 19 27 100 0.0266661
17 19 27 100 0.0266658
18 19 27 100 0.0799992
19 19 27 100 0.364117
20 19 27 100 0.226659
21 19 27 100 0.133277
22 19 27 100 0.0596224
24 19 27 100 0.0133333
25 19 27 100 0.0162474
26 19 27 100 0.0133333
27 19 27 100 0.0266667
0 20 27 100 0.0136022
12 20 27 100 3.0627e-07
14 20 27 100 0.0136986
17 20 27 100 0.0273973
18 20 27 100 0.0273973
19 20 27 100 0.0684911
20 20 27 100 0.342455
21 20 27 100 0.232989
22 20 27 100 0.150682
23 20 27 100 0.0684928
25 20 27 100 0.0136986
26 20 27 100 0.0136986
27 20 27 100 0.0273973
0 21 27 100 0.0422814
10 21 27 100 3.02683e-07
13 21 27 100 3.14442e-07
15 21 27 100 0.0140845
18 21 27 100 0.0281668
19 21 27 100 0.028169
20 21 27 100 0.0704225
21 21 27 100 0.32394
22 21 27 100 0.23942
23 21 27 100 0.154926
24 21 27 100 0.0704201
26 21 27 100 0.0140845
27 21 27 100 0.0140845
0 22 27 100 0.00114516
15 22 27 100 0.0142628
16 22 27 100 0.0142856
19 22 27 100 0.0285708
20 22 27 100 0.0571408
21 22 27 100 0.0571448
22 22 27 100 0.316531
23 22 27 100 0.239497
24 22 27 100 0.171423
25 22 27 100 0.0714281
27 22 27 100 0.0285714
0 23 27 100 0.0155359
15 23 27 100 4.69883e-07
16 23 27 100 0.0147059
17 23 27 100 0.0147059
20 23 27 100 0.0294112
21 23 27 100 0.0585463
22 23 27 100 0.0583884
23 23 27 100 0.279368
24 23 27 100 0.249905
25 23 27 100 0.205868
26 23 27 100 0.0735647
0 24 27 100 0.0147583
18 24 27 100 0.0147053
21 24 27 100 0.0294098
22 24 27 100 0.0588225
23 24 27 100 0.0882259
24 24 27 100 0.264671
25 24 27 100 0.235289
26 24 27 100 0.191177
27 24 27 100 0.102941
0 25 27 100 9.83869e-06
19 25 27 100 0.0163934
22 25 27 100 0.0327862
23 25 27 100 0.0655737
24 25 27 100 0.114754
25 25 27 100 0.295073
26 25 27 100 0.295082
27 25 27 100 0.180328
0 26 27 100 0.0200056
4 26 27 100 4.41888e-07
7 26 27 100 4.48602e-07
20 26 27 100 0.0199999
23 26 27 100 0.04
24 26 27 100 0.08
25 26 27 100 0.139993
26 26 27 100 0.36
27 26 27 100 0.34
0 27 27 100 1.62442e-06
21 27 27 100 0.0303025
24 27 27 100 0.0606054
25 27 27 100 0.0909088
26 27 27 100 0.242424
27 27 27 100 0.575758
0 28 27 100 4.42502e-06
22 28 27 100 0.0714286
25 28 27 100 0.142853
26 28 27 100 0.214286
27 28 27 100 0.571429
23 29 27 100 0.166667
26 29 27 100 0.333333
27 29 27 100 0.5
0 30 27 100 1.50362e-05
24 30 27 100 0.333318
27 30 27 100 0.666667
25 31 27 100 1
26 32 27 100 1
27 33 27 100 1
0 1 28 100 6.23446e-07
1 1 28 100 0.959777
2 1 28 100 0.0114943
3 1 28 100 0.0114943
5 1 28 100 0.00573917
13 1 28 100 0.0114943
0 2 28 100 0.011613
2 2 28 100 0.919498
3 2 28 100 0.0198526
4 2 28 100 0.011352
5 2 28 100 0.00313551
6 2 28 100 0.0229885
14 2 28 100 0.0115602
16 2 28 100 3.84658e-07
0 3 28 100 0.0116586
1 3 28 100 0.0114982
3 3 28 100 0.896523
4 3 28 100 0.0342908
6 3 28 100 0.0114943
7 3 28 100 0.0344826
15 3 28 100 5.23633e-05
0 4 28 100 8.61882e-05
1 4 28 100 0.0114291
2 4 28 100 0.0114937
3 4 28 100 0.0114943
4 4 28 100 0.846563
5 4 28 100 0.0575093
7 4 28 100 0.0229487
8 4 28 100 0.0384752
0 5 28 100 0.0115038
3 5 28 100 0.0114888
4 5 28 100 0.0114997
5 5 28 100 0.827
6 5 28 100 0.0574713
8 5 28 100 0.0344811
9 5 28 100 0.0426745
10 5 28 100 0.00386828
17 5 28 100 1.20185e-05
0 6 28 100 4.79081e-05
2 6 28 100 0.0114773
4 6 28 100 0.0114943
5 6 28 100 0.0114943
6 6 28 100 0.785341
7 6 28 100 0.0804541
9 6 28 100 0.0459767
10 6 28 100 0.0459752
11 6 28 100 0.00773912
0 7 28 100 2.62955e-05
3 7 28 100 0.0114943
5 7 28 100 0.0114942
6 7 28 100 0.0114925
7 7 28 100 0.761801
8 7 28 100 0.0919525
10 7 28 100 0.0459755
11 7 28 100 0.0459759
12 7 28 100 0.0114943
13 7 28 100 0.0025469
21 7 28 100 0.00320006
26 7 28 100 0.0025469
0 8 28 100 0.011516
4 8 28 100 0.0114943
6 8 28 100 0.0114943
7 8 28 100 0.022993
8 8 28 100 0.724121
9 8 28 100 0.0880199
10 8 28 100 0.00392819
11 8 28 100 0.0459749
12 8 28 100 0.045977
13 8 28 100 0.0114943
20 8 28 100 0.0114932
28 8 28 100 0.0114943
0 9 28 100 0.00241484
5 9 28 100 0.0116279
7 9 28 100 0.0232558
8 9 28 100 0.0348837
9 9 28 100 0.7209
10 9 28 100 0.0813943
11 9 28 100 0.0116279
12 9 28 100 0.0325011
13 9 28 100 0.0581392
14 9 28 100 0.0116275
22 9 28 100 0.0116279
0 10 28 100 0.011643
6 10 28 100 0.0116279
8 10 28 100 0.0348832
9 10 28 100 0.0232554
10 10 28 100 0.675096
11 10 28 100 0.103948
12 10 28 100 0.0232699
13 10 28 100 0.0116266
14 10 28 100 0.0697656
15 10 28 100 0.0116279
16 10 28 100 0.0116279
17 10 28 100 3.16148e-07
23 10 28 100 0.0116279
0 11 28 100 1.96841e-05
4 11 28 100 4.72803e-05
7 11 28 100 0.0116277
9 11 28 100 0.0348827
10 11 28 100 0.023256
11 11 28 100 0.662777
12 11 28 100 0.110348
13 11 28 100 0.0232547
14 11 28 100 0.0175563
15 11 28 100 0.081347
16 11 28 100 0.0116278
17 11 28 100 0.0116279
24 11 28 100 0.0116279
0 12 28 100 0.0233945
8 12 28 100 0.0232576
9 12 28 100 2.61561e-07
10 12 28 100 0.0348836
11 12 28 100 0.0116271
12 12 28 100 0.656737
13 12 28 100 0.104648
14 12 28 100 0.0232554
15 12 28 100 0.0292753
16 12 28 100 0.0812931
17 12 28 100 0.011628
18 12 28 100 5.15305e-07
26 12 28 100 1.72195e-07
0 13 28 100 0.0116753
8 13 28 100 4.72899e-07
9 13 28 100 0.0232558
11 13 28 100 0.0465115
12 13 28 100 0.0116279
13 13 28 100 0.645144
14 13 28 100 0.104647
15 13 28 100 0.0232578
16 13 28 100 0.0348811
17 13 28 100 0.0813883
18 13 28 100 0.0176112
0 14 28 100 0.000275692
10 14 28 100 0.0232537
12 14 28 100 0.0465112
13 14 28 100 0.0232542
14 14 28 100 0.617514
15 14 28 100 0.0988569
16 14 28 100 0.0234945
17 14 28 100 0.0323236
18 14 28 100 0.0813991
19 14 28 100 0.0116279
20 14 28 100 0.00612006
21 14 28 100 2.86119e-06
22 14 28 100 0.00550211
25 14 28 100 0.0116204
27 14 28 100 0.00661574
28 14 28 100 0.0116279
0 15 28 100 1.79174e-05
11 15 28 100 0.0235293
13 15 28 100 0.0470577
14 15 28 100 0.0352941
15 15 28 100 0.588222
16 15 28 100 0.0941162
17 15 28 100 0.0385936
18 15 28 100 0.0352928
19 15 28 100 0.0823529
20 15 28 100 0.0117643
23 15 28 100 0.0117647
26 15 28 100 0.0202296
28 15 28 100 0.0117647
0 16 28 100 0.000429683
8 16 28 100 3.76907e-05
12 16 28 100 0.0238095
14 16 28 100 0.047619
15 16 28 100 0.047618
16 16 28 100 0.531259
17 16 28 100 0.135375
18 16 28 100 0.0471862
19 16 28 100 0.0357136
20 16 28 100 0.0595238
21 16 28 100 0.0270567
22 16 28 100 0.00865677
24 16 28 100 0.0119048
27 16 28 100 0.0238095
0 17 28 100 0.0340623
13 17 28 100 0.0238095
14 17 28 100 0.0119048
15 17 28 100 0.0357137
16 17 28 100 0.0714241
17 17 28 100 0.449317
18 17 28 100 0.167007
19 17 28 100 0.0476184
20 17 28 100 0.035714
21 17 28 100 0.0476191
22 17 28 100 0.0357126
23 17 28 100 0.0119048
25 17 28 100 0.0119048
27 17 28 100 0.0043828
28 17 28 100 0.0119048
0 18 28 100 0.00893428
14 18 28 100 0.0120482
15 18 28 100 0.0120482
16 18 28 100 0.0421623
17 18 28 100 0.0541038
18 18 28 100 0.460731
19 18 28 100 0.19622
20 18 28 100 0.0421661
21 18 28 100 0.0361433
22 18 28 100 0.0481926
23 18 28 100 0.0361445
24 18 28 100 0.0120475
26 18 28 100 0.0120482
27 18 28 100 0.00291408
28 18 28 100 0.0240964
0 19 28 100 0.0129916
1 19 28 100 3.87095e-05
15 19 28 100 0.0123457
16 19 28 100 0.0123457
17 19 28 100 0.0493827
18 19 28 100 0.0493814
19 19 28 100 0.413641
20 19 28 100 0.203428
21 19 28 100 0.0856922
22 19 28 100 0.04964
23 19 28 100 0.037039
24 19 28 100 0.037037
25 19 28 100 0.012345
27 19 28 100 0.0123457
28 19 28 100 0.0123457
0 20 28 100 0.03754
2 20 28 100 0.0125
9 20 28 100 2.54529e-07
14 20 28 100 3.31082e-07
16 20 28 100 0.0125
17 20 28 100 0.0124996
18 20 28 100 0.0499995
19 20 28 100 0.0499726
20 20 28 100 0.374988
21 20 28 100 0.212503
22 20 28 100 0.0749985
23 20 28 100 0.05
24 20 28 100 0.0377919
25 20 28 100 0.0497067
26 20 28 100 0.0125
28 20 28 100 0.0125
0 21 28 100 0.0252663
3 21 28 100 0.0126582
18 21 28 100 0.0126582
19 21 28 100 0.0506321
20 21 28 100 0.0506329
21 21 28 100 0.380058
22 21 28 100 0.199745
23 21 28 100 0.0783732
24 21 28 100 0.0632848
25 21 28 100 0.0634011
26 21 28 100 0.0506325
27 21 28 100 0.0126582
0 22 28 100 0.0127041
19 22 28 100 0.0126628
20 22 28 100 0.063283
21 22 28 100 0.0379727
22 22 28 100 0.36706
23 22 28 100 0.227841
24 22 28 100 0.0886043
25 22 28 100 0.0632903
26 22 28 100 0.0632906
27 22 28 100 0.0506329
28 22 28 100 0.0126582
0 23 28 100 2.57589e-05
20 23 28 100 0.0256309
21 23 28 100 0.0641068
22 23 28 100 0.0384614
23 23 28 100 0.320504
24 23 28 100 0.256401
25 23 28 100 0.0769208
26 23 28 100 0.0769229
27 23 28 100 0.0641025
28 23 28 100 0.0769231
0 24 28 100 1.62513e-05
6 24 28 100 0.0138858
21 24 28 100 0.0138889
22 24 28 100 0.083332
23 24 28 100 0.0416667
24 24 28 100 0.353871
25 24 28 100 0.222221
26 24 28 100 0.111404
27 24 28 100 0.0902696
28 24 28 100 0.0694445
0 25 28 100 0.0298726
7 25 28 100 0.0149253
9 25 28 100 2.91973e-07
13 25 28 100 3.16348e-07
18 25 28 100 3.2986e-07
19 25 28 100 1.57989e-07
22 25 28 100 0.0149254
23 25 28 100 0.0895516
24 25 28 100 0.0448039
25 25 28 100 0.328314
26 25 28 100 0.2388
27 25 28 100 0.134328
28 25 28 100 0.104478
0 26 28 100 6.04596e-05
20 26 28 100 0.0166201
23 26 28 100 7.54002e-06
24 26 28 100 0.133321
25 26 28 100 0.0499978
26 26 28 100 0.383327
27 26 28 100 0.266666
28 26 28 100 0.15
0 27 28 100 0.0271094
21 27 28 100 0.0196078
25 27 28 100 0.129757
26 27 28 100 0.0784275
27 27 28 100 0.431372
28 27 28 100 0.313726
22 28 28 100 0.0285714
26 28 28 100 0.2
27 28 28 100 0.142857
28 28 28 100 0.628572
23 29 28 100 0.0769231
27 29 28 100 0.538462
28 29 28 100 0.384615
28 30 28 100 1
0 1 29 100 0.000505994
1 1 29 100 0.958904
5 1 29 100 0.0136986
11 1 29 100 0.00817414
13 1 29 100 0.00552449
18 1 29 100 0.0131926
0 2 29 100 0.0289712
1 2 29 100 0.0136986
2 2 29 100 0.890386
6 2 29 100 0.0136984
7 2 29 100 0.0136958
14 2 29 100 0.0136989
15 2 29 100 0.012137
17 2 29 100 9.30878e-06
18 2 29 100 0.0137052
0 3 29 100 0.00878213
2 3 29 100 0.0193745
3 3 29 100 0.876371
4 3 29 100 0.0137089
5 3 29 100 0.0132728
6 3 29 100 1.66976e-07
7 3 29 100 0.0136986
8 3 29 100 0.0136972
15 3 29 100 0.0136973
17 3 29 100 2.09079e-06
18 3 29 100 0.0136986
19 3 29 100 0.0136965
0 4 29 100 0.0138669
2 4 29 100 0.0138053
3 4 29 100 0.0254855
4 4 29 100 0.848828
5 4 29 100 0.0136986
6 4 29 100 0.0136981
7 4 29 100 0.000295088
8 4 29 100 0.0136986
9 4 29 100 0.0136985
10 4 29 100 0.0018315
16 4 29 100 0.0136986
18 4 29 100 0.0136964
20 4 29 100 0.0136986
0 5 29 100 0.0313903
2 5 29 100 1.05568e-05
3 5 29 100 0.0142216
4 5 29 100 0.0410955
5 5 29 100 0.817401
6 5 29 100 0.0110662
7 5 29 100 0.0136986
8 5 29 100 0.0136986
9 5 29 100 0.014636
10 5 29 100 0.0136986
11 5 29 100 0.00168307
12 5 29 100 1.83707e-06
17 5 29 100 0.0136986
21 5 29 100 0.0136986
23 5 29 100 2.79024e-07
0 6 29 100 1.70738e-05
1 6 29 100 0.0273973
4 6 29 100 0.013699
5 6 29 100 0.0547912
6 6 29 100 0.739719
7 6 29 100 0.0547909
8 6 29 100 0.0273973
9 6 29 100 0.0136986
10 6 29 100 0.0136986
11 6 29 100 0.0136972
13 6 29 100 0.0136986
18 6 29 100 0.0136979
22 6 29 100 0.0136977
0 7 29 100 0.0137438
2 7 29 100 0.0136986
3 7 29 100 9.44068e-07
6 7 29 100 0.0547924
7 7 29 100 0.72599
8 7 29 100 0.0755368
9 7 29 100 0.0273958
10 7 29 100 0.0203496
11 7 29 100 0.0136957
12 7 29 100 0.0136986
15 7 29 100 7.19333e-07
16 7 29 100 0.0136986
19 7 29 100 0.0136986
23 7 29 100 0.0136986
25 7 29 100 1.1018e-06
0 8 29 100 0.0137234
3 8 29 100 0.0136985
7 8 29 100 0.054793
8 8 29 100 0.671222
9 8 29 100 0.0684926
10 8 29 100 0.0410959
11 8 29 100 0.0410956
12 8 29 100 0.0236383
13 8 29 100 0.0137008
16 8 29 100 0.00374539
17 8 29 100 0.0273973
20 8 29 100 0.0136984
24 8 29 100 0.0136986
0 9 29 100 0.00475296
2 9 29 100 4.95571e-06
3 9 29 100 0.0136983
4 9 29 100 0.0136701
7 9 29 100 8.37103e-07
8 9 29 100 0.0273997
9 9 29 100 0.643824
10 9 29 100 0.0821871
11 9 29 100 0.068491
12 9 29 100 0.0410959
13 9 29 100 0.0273973
14 9 29 100 0.0136986
17 9 29 100 0.0136986
18 9 29 100 0.0226828
21 9 29 100 0.0136986
25 9 29 100 0.0136986
0 10 29 100 0.00110958
4 10 29 100 0.0136986
5 10 29 100 0.0136986
9 10 29 100 0.0412227
10 10 29 100 0.616835
11 10 29 100 0.0547927
12 10 29 100 0.0901824
13 10 29 100 0.044461
14 10 29 100 0.0411007
15 10 29 100 0.0136986
16 10 29 100 0.000706777
18 10 29 100 0.0136986
19 10 29 100 0.0273973
22 10 29 100 0.0136986
26 10 29 100 0.0136986
0 11 29 100 2.42619e-05
5 11 29 100 0.0136984
6 11 29 100 0.0136983
10 11 29 100 0.0342516
11 11 29 100 0.605947
12 11 29 100 0.0574171
13 11 29 100 0.0890331
14 11 29 100 0.0547934
15 11 29 100 0.0410959
16 11 29 100 0.0165941
17 11 29 100 0.00495473
19 11 29 100 0.0136985
20 11 29 100 0.0273973
23 11 29 100 0.0136977
27 11 29 100 0.0136986
0 12 29 100 0.000187374
6 12 29 100 0.0136986
7 12 29 100 0.0136986
11 12 29 100 0.0273952
12 12 29 100 0.589023
13 12 29 100 0.0546344
14 12 29 100 0.0821894
15 12 29 100 0.0547945
16 12 29 100 0.0547948
17 12 29 100 0.0136986
18 12 29 100 0.0136984
19 12 29 100 0.0136948
20 12 29 100 0.0136986
21 12 29 100 0.0273973
24 12 29 100 0.0136986
28 12 29 100 0.0136976
0 13 29 100 0.000209415
7 13 29 100 0.0136986
8 13 29 100 0.0136986
11 13 29 100 0.0135306
12 13 29 100 0.0273945
13 13 29 100 0.564785
14 13 29 100 0.0435872
15 13 29 100 0.0958851
16 13 29 100 0.062846
17 13 29 100 0.0684761
18 13 29 100 0.0136972
19 13 29 100 0.0136986
20 13 29 100 0.0136986
21 13 29 100 0.0136986
22 13 29 100 0.0273969
25 13 29 100 0.0136986
0 14 29 100 0.00796635
8 14 29 100 0.0136985
9 14 29 100 0.0136986
11 14 29 100 2.24866e-07
13 14 29 100 0.0410963
14 14 29 100 0.533943
15 14 29 100 0.06849
16 14 29 100 0.0882681
17 14 29 100 0.0684929
18 14 29 100 0.0547596
19 14 29 100 0.0136968
20 14 29 100 0.0136982
21 14 29 100 0.0136986
22 14 29 100 0.0136986
23 14 29 100 0.0410958
26 14 29 100 0.0136985
0 15 29 100 0.0137465
9 15 29 100 0.013698
10 15 29 100 0.0273972
14 15 29 100 0.0396907
15 15 29 100 0.507854
16 15 29 100 0.0811545
17 15 29 100 0.082178
18 15 29 100 0.0684932
19 15 29 100 0.041093
20 15 29 100 0.0273973
21 15 29 100 0.0151058
22 15 29 100 0.0136986
23 15 29 100 0.0136986
24 15 29 100 0.0410959
27 15 29 100 0.0136986
0 16 29 100 0.000113464
2 16 29 100 0.0136986
10 16 29 100 0.0136986
11 16 29 100 0.0136984
15 16 29 100 0.041093
16 16 29 100 0.520487
17 16 29 100 0.0547927
18 16 29 100 0.082188
19 16 29 100 0.0821509
20 16 29 100 0.0410941
21 16 29 100 0.0273967
22 16 29 100 0.0273972
23 16 29 100 0.0136986
24 16 29 100 0.00896095
25 16 29 100 0.0410951
26 16 29 100 0.00473769
28 16 29 100 0.0136986
0 17 29 100 0.0139019
3 17 29 100 0.0136986
4 17 29 100 2.90154e-07
11 17 29 100 0.0136986
12 17 29 100 0.0136986
16 17 29 100 0.0410959
17 17 29 100 0.500265
18 17 29 100 0.0547927
19 17 29 100 0.0684927
20 17 29 100 0.0821916
21 17 29 100 0.0410951
22 17 29 100 0.0273973
23 17 29 100 0.0273973
24 17 29 100 0.0136986
25 17 29 100 0.00672325
26 17 29 100 0.0544711
27 17 29 100 0.0136828
29 17 29 100 0.0136986
0 18 29 100 0.0137912
4 18 29 100 0.000154752
10 18 29 100 1.52866e-06
11 18 29 100 9.78707e-05
12 18 29 100 0.0138889
13 18 29 100 0.0138885
17 18 29 100 0.0555511
18 18 29 100 0.480441
19 18 29 100 0.0555543
20 18 29 100 0.0833208
21 18 29 100 0.0833321
22 18 29 100 0.0415479
23 18 29 100 0.0277778
24 18 29 100 0.0277778
25 18 29 100 0.0138889
27 18 29 100 0.0555541
28 18 29 100 0.0195422
29 18 29 100 0.0138889
0 19 29 100 0.0281858
5 19 29 100 0.0140845
14 19 29 100 0.028169
18 19 29 100 0.056338
19 19 29 100 0.429266
20 19 29 100 0.0844781
21 19 29 100 0.0777956
22 19 29 100 0.0845044
23 19 29 100 0.0422535
24 19 29 100 0.0422489
25 19 29 100 0.028169
26 19 29 100 0.0140845
27 19 29 100 2.9332e-07
28 19 29 100 0.0422533
29 19 29 100 0.028169
0 20 29 100 0.0145166
6 20 29 100 0.0144928
7 20 29 100 3.49025e-07
15 20 29 100 0.0289855
19 20 29 100 0.0724576
20 20 29 100 0.420276
21 20 29 100 0.115942
22 20 29 100 0.0724644
23 20 29 100 0.086968
24 20 29 100 0.0289855
25 20 29 100 0.0579565
26 20 29 100 0.0289852
27 20 29 100 0.0144913
29 20 29 100 0.0434783
0 21 29 100 0.0304381
7 21 29 100 0.0151515
10 21 29 100 0.000111687
14 21 29 100 8.87969e-07
16 21 29 100 0.0303029
20 21 29 100 0.075742
21 21 29 100 0.401174
22 21 29 100 0.109373
23 21 29 100 0.0909079
24 21 29 100 0.102204
25 21 29 100 0.0309585
26 21 29 100 0.0606011
27 21 29 100 0.0378835
28 21 29 100 0.0151515
0 22 29 100 0.0233146
8 22 29 100 0.0151516
12 22 29 100 3.05204e-07
17 22 29 100 0.0302841
21 22 29 100 0.0757556
22 22 29 100 0.34036
23 22 29 100 0.143998
24 22 29 100 0.106059
25 22 29 100 0.095403
26 22 29 100 0.0378128
27 22 29 100 0.0606038
28 22 29 100 0.0561066
29 22 29 100 0.0151515
0 23 29 100 0.015174
9 23 29 100 0.0153846
18 23 29 100 0.0299386
19 23 29 100 0.000278692
21 23 29 100 0.0307692
22 23 29 100 0.0615374
23 23 29 100 0.31565
24 23 29 100 0.145815
25 23 29 100 0.107686
26 23 29 100 0.092311
27 23 29 100 0.031566
28 23 29 100 0.0769664
29 23 29 100 0.0769231
0 24 29 100 0.0167592
19 24 29 100 0.0333333
22 24 29 100 0.0332596
23 24 29 100 0.0833281
24 24 29 100 0.307592
25 24 29 100 0.149741
26 24 29 100 0.116664
27 24 29 100 0.109324
28 24 29 100 0.0499988
29 24 29 100 0.1
0 25 29 100 0.000469764
20 25 29 100 0.037037
23 25 29 100 0.0370368
24 25 29 100 0.0925902
25 25 29 100 0.314811
26 25 29 100 0.221761
27 25 29 100 0.11111
28 25 29 100 0.0925925
29 25 29 100 0.0925926
0 26 29 100 0.020436
12 26 29 100 3.96444e-07
21 26 29 100 0.0408163
24 26 29 100 0.0408155
25 26 29 100 0.102035
26 26 29 100 0.367329
27 26 29 100 0.183669
28 26 29 100 0.142857
29 26 29 100 0.102041
0 27 29 100 2.32946e-05
22 27 29 100 0.0454529
25 27 29 100 0.0454545
26 27 29 100 0.136313
27 27 29 100 0.386344
28 27 29 100 0.227321
29 27 29 100 0.159091
0 28 29 100 0.0270307
23 28 29 100 0.0540541
26 28 29 100 0.0270204
27 28 29 100 0.135132
28 28 29 100 0.459466
29 28 29 100 0.297297
0 29 29 100 0.00295684
21 29 29 100 9.59796e-06
23 29 29 100 0.0384615
24 29 29 100 0.0384615
27 29 29 100 0.0384615
28 29 29 100 0.304726
29 29 29 100 0.576923
24 30 29 100 0.0909091
25 30 29 100 0.0909091
28 30 29 100 0.0909088
29 30 29 100 0.727273
0 31 29 100 4.72664e-06
25 31 29 100 0.333333
26 31 29 100 0.333329
29 31 29 100 0.333334
0 32 29 100 1.32638e-05
26 32 29 100 0.5
27 32 29 100 0.499987
0 33 29 100 6.88948e-06
27 33 29 100 0.499993
28 33 29 100 0.5
28 34 29 100 0.5
29 34 29 100 0.5
29 35 29 100 1
1 1 30 100 0.929839
2 1 30 100 0.0316994
4 1 30 100 0.0128205
5 1 30 100 0.0128205
10 1 30 100 0.0128205
0 2 30 100 0.0289232
1 2 30 100 0.0128066
2 2 30 100 0.820465
3 2 30 100 0.0384615
5 2 30 100 0.0128205
6 2 30 100 0.0128205
7 2 30 100 0.0128205
11 2 30 100 0.0128205
13 2 30 100 0.0128205
15 2 30 100 2.08658e-07
16 2 30 100 0.0128205
18 2 30 100 2.07482e-07
21 2 30 100 2.88512e-06
23 2 30 100 3.463e-07
25 2 30 100 0.0224172
0 3 30 100 0.0384012
1 3 30 100 0.0128204
2 3 30 100 0.0513684
3 3 30 100 0.705109
4 3 30 100 0.0769197
5 3 30 100 0.0128198
6 3 30 100 0.0128204
7 3 30 100 0.025641
8 3 30 100 0.01282
12 3 30 100 0.0128181
14 3 30 100 0.0128205
