2 0.0815486 0.907216 0.0078281 0.00339126 1.58452e-05 0 0 0 0 0 
3 0.11213 0.887805 3.17982e-05 1.84458e-05 1.49247e-05 0 0 0 0 0 
4 0.0899252 0.903197 0.00491189 0.000776302 0.000970626 0.000176947 4.23441e-05 0 0 0 
5 0.108926 0.88985 0.000874052 0.000138102 0.000172672 3.14785e-05 7.53291e-06 0 0 0 
6 0.0876343 0.900292 0.00841229 0.00364434 1.70276e-05 0 0 0 0 0 
7 0.0828406 0.888684 0.0182298 0.0076857 0.00197925 0.0005806 0 0 0 0 
8 0.150164 0.849819 1.29154e-05 0 4.23188e-06 0 0 0 0 0 
9 0.128828 0.871172 0 0 0 0 0 0 0 0 
10 0.115349 0.883142 0.000736421 0.000427285 0.000345719 0 0 0 0 0 
11 0.102208 0.887152 0.00942656 0.00047884 0.000598704 0.000109145 2.61188e-05 0 0 0 
12 0.14059 0.859328 6.23347e-05 0 2.039e-05 0 0 0 0 0 
13 0.122901 0.876096 1.60579e-05 0.000377175 0.000609487 0 0 0 0 0 
14 0.0965675 0.903213 0.00016605 0 5.3899e-05 0 0 0 0 0 
15 0.0828406 0.888684 0.0182298 0.0076857 0.00197925 0.0005806 0 0 0 0 
16 0.0772146 0.913971 0.0054935 0.00207702 0.000851271 0.0003922 0 0 0 0 
17 0.130845 0.86898 8.53484e-05 4.9444e-05 4.00055e-05 0 0 0 0 0 
18 0.0896672 0.902925 0.00462717 0.00173951 0.00071294 0.000328467 0 0 0 0 
19 0.0753646 0.923851 0.000382483 0.000221923 0.00017956 0 0 0 0 0 
20 0.0749765 0.916465 0.00533426 0.00201682 0.000826597 0.000380832 0 0 0 0 
21 0.156799 0.843184 1.23562e-05 0 4.03773e-06 0 0 0 0 0 
22 0.0828406 0.888684 0.0182298 0.0076857 0.00197925 0.0005806 0 0 0 0 
23 0.0862724 0.913728 0 0 0 0 0 0 0 0 
24 0.0725321 0.910979 0.0127243 0.00177296 0.000980108 0.00101162 0 0 0 0 
25 0.0026048 0.997395 0 0 0 0 0 0 0 0 
26 0.0783845 0.912668 0.00557673 0.00210849 0.000864169 0.000398142 0 0 0 0 
27 0.0818978 0.91733 0.000376643 0.000218535 0.000176818 0 0 0 0 0 
28 0.139482 0.860518 0 0 0 0 0 0 0 0 
29 0.0735597 0.894029 0.027515 0.00233922 0.00255672 0 0 0 0 0 
30 0.0947344 0.895342 0.00765814 0.00106706 0.00058988 0.000608847 0 0 0 0 
31 0.0769234 0.896635 0.0169276 0.00713673 0.00183788 0.000539128 0 0 0 0 
32 0.0776909 0.864402 0.037178 0.0167804 2.04787e-06 1.06395e-05 0.00393584 0 0 0 
33 0.0875399 0.901052 0.00980775 0.00100115 0.000410325 0.000189046 0 0 0 0 
34 0.0728645 0.918818 0.005184 0.00196001 0.000803312 0.000370104 0 0 0 0 
35 0.0745168 0.899386 0.0171387 0.00733053 0.00162671 1.33609e-06 0 0 0 0 
36 0.1124 0.88516 0.00174296 0.000275462 0.000344416 6.27878e-05 1.50253e-05 0 0 0 
37 0.0686127 0.919994 0.00793836 0.00343902 1.60683e-05 0 0 0 0 0 
38 0.0610596 0.902393 0.0365477 0 0 0 0 0 0 0 
39 0.155442 0.844535 1.69515e-05 0 5.53141e-06 0 0 0 0 0 
40 0.0779715 0.91561 0.0040007 0.00151261 0.000619948 0.000285624 0 0 0 0 
41 0.0630525 0.914865 0.014502 0.00620276 0.00137645 1.13053e-06 0 0 0 0 
42 0.0673513 0.917338 0.0118154 0.00164632 0.000910101 0.000939364 0 0 0 0 
43 0.0913087 0.886804 0.0198906 0.000788319 0.000985559 0.00017967 4.29956e-05 0 0 0 
44 0.0913086 0.901707 0.00498746 0.000788245 0.000985559 0.00017967 4.29956e-05 0 0 0 
45 0.124605 0.87506 0.000251712 0 8.27735e-05 0 0 0 0 0 
46 0.0791859 0.893595 0.0174255 0.00734663 0.00189193 0.000554985 0 0 0 0 
47 0.0631722 0.936171 0.000320391 0.000185897 0.00015041 0 0 0 0 0 
48 0.139377 0.854273 0.00395773 0.00149635 0.000613282 0.000282553 0 0 0 0 
49 0.100749 0.899123 9.655e-05 0 3.17488e-05 0 0 0 0 0 
50 0.0714331 0.912328 0.0125315 0.0017461 0.000965258 0.000996295 0 0 0 0 
51 0.0758628 0.898441 0.0204457 0.00525102 0 0 0 0 0 0 
52 0.0714331 0.912328 0.0125315 0.0017461 0.000965258 0.000996295 0 0 0 0 
53 0.0836298 0.91637 0 0 0 0 0 0 0 0 
54 0.0783845 0.912668 0.00557673 0.00210849 0.000864169 0.000398142 0 0 0 0 
55 0.0881129 0.911887 0 0 0 0 0 0 0 0 
56 0.20137 0.798558 5.53724e-05 0 1.70416e-05 0 0 0 0 0 
57 0.0744937 0.92373 0.00128619 0.000193343 0.000241741 4.40699e-05 1.05461e-05 0 0 0 
58 0.10783 0.891929 0.000118764 6.80002e-05 5.50194e-05 0 0 0 0 0 
59 0.0695536 0.893125 0.0316839 0.00269365 0.0029441 0 0 0 0 0 
60 0.072628 0.920424 0.00433033 0.00163718 0.000671002 0.000309146 0 0 0 0 
61 0.105243 0.891616 0.00195788 0.000740215 0.000303378 0.000139773 0 0 0 0 
62 0.0850056 0.898755 0.0125315 0.0017461 0.000965258 0.000996295 0 0 0 0 
63 0.0589323 0.92767 0.0103385 0.00144053 0.000796338 0.000821943 0 0 0 0 
64 0.0758628 0.898389 0.0204971 0.00525102 0 0 0 0 0 0 
65 0.0888439 0.904737 0.0040007 0.00151261 0.000619948 0.000285624 0 0 0 0 
66 0.0615879 0.931382 0.00438172 0.00165667 0.00067899 0.000312826 0 0 0 0 
67 0.0705203 0.905593 0.0190058 0.00488123 0 0 0 0 0 0 
68 0.101945 0.896523 0.000747579 0.000433759 0.000350957 0 0 0 0 0 
69 0.0727089 0.915217 0.00841229 0.00364434 1.70276e-05 0 0 0 0 0 
70 0.0999851 0.899716 0.000146009 8.46984e-05 6.85301e-05 0 0 0 0 0 
71 0.070367 0.913636 0.0123445 0.00172004 0.000950851 0.000981425 0 0 0 0 
72 0.0686127 0.919994 0.00793836 0.00343902 1.60683e-05 0 0 0 0 0 
73 0.0817035 0.900991 0.0137695 0.0035364 0 0 0 0 0 0 
74 0.0795904 0.911324 0.00566253 0.00214093 0.000877464 0.000404268 0 0 0 0 
75 0.0795904 0.911324 0.00566253 0.00214093 0.000877464 0.000404268 0 0 0 0 
76 0.0795904 0.911324 0.00566253 0.00214093 0.000877464 0.000404268 0 0 0 0 
77 0.0725321 0.910979 0.0127243 0.00177296 0.000980108 0.00101162 0 0 0 0 
78 0.075663 0.897838 0.0174024 0.00744331 0.00165174 1.35664e-06 0 0 0 0 
79 0.0761945 0.909515 0.0110277 0.00153657 0.000849427 0.000876739 0 0 0 0 
80 0.0625868 0.916073 0.0170083 0.00433209 0 0 0 0 0 0 
81 0.0745166 0.899386 0.0171387 0.00733053 0.00162671 1.33609e-06 0 0 0 0 
82 0.0765138 0.866456 0.0366147 0.0165262 2.01684e-06 1.04783e-05 0.00387621 0 0 0 
83 0.0680708 0.924159 0.00484296 0.00183106 0.000750463 0.000345755 0 0 0 0 
84 0.0770299 0.896878 0.0207602 0.0053318 0 0 0 0 0 0 
85 0.0776986 0.920037 0.00141496 0.000531146 0.000217691 0.000100295 0 0 0 0 
86 0.0839139 0.907769 0.005184 0.00196001 0.000803312 0.000370104 0 0 0 0 
87 0.10059 0.873703 0.0168829 0.00722112 0.00160243 1.31614e-06 0 0 0 0 
88 0.0749462 0.912609 0.00867113 0.00375647 1.75516e-05 0 0 0 0 0 
89 0.137099 0.861469 0.00102329 0.000161119 0.000201451 3.67249e-05 8.7884e-06 0 0 0 
90 0.070367 0.898384 0.0275962 0.00172004 0.000950851 0.000981425 0 0 0 0 
91 0.092404 0.902552 0.00360223 0.000569288 0.000711793 0.000129761 3.10524e-05 0 0 0 
92 0.130009 0.869585 0.000198182 0.000114972 9.30248e-05 0 0 0 0 0 
93 0.0921385 0.899048 0.0054935 0.00207702 0.000851271 0.0003922 0 0 0 0 
94 0.0890381 0.910255 0.000345041 0.000200196 0.00016198 0 0 0 0 0 
95 0.116692 0.876632 0.00476742 0.000753469 0.000942078 0.000171743 4.10987e-05 0 0 0 
96 0.0948373 0.895416 0.00679064 0.00294182 1.37452e-05 0 0 0 0 0 
97 0.0723249 0.902345 0.0166346 0.00711493 0.00157887 1.29679e-06 0 0 0 0 
98 0.0758628 0.898441 0.0204457 0.00525102 0 0 0 0 0 0 
99 0.0745166 0.899386 0.0171387 0.00733053 0.00162671 1.33609e-06 0 0 0 0 
100 0.0828201 0.901647 0.0119867 0.00167018 0.000923291 0.000952978 0 0 0 0 
101 0.0769234 0.896635 0.0169276 0.00713673 0.00183788 0.000539128 0 0 0 0 
102 0.0352836 0.963473 0.000888197 0.000140372 0.00017551 3.19959e-05 7.65674e-06 0 0 0 
103 0.131532 0.86797 0.000243057 0.000141025 0.000114104 0 0 0 0 0 
104 0.090785 0.900531 0.00541271 0.00204648 0.000838753 0.000386432 0 0 0 0 
105 0.0745166 0.899386 0.0171387 0.00733053 0.00162671 1.33609e-06 0 0 0 0 
106 0.0797888 0.904386 0.014334 0.000588919 0.000736337 0.000134236 3.21231e-05 0 0 0 
107 0.0957605 0.897287 0.00433485 0.00163718 0.000671002 0.000309146 0 0 0 0 
108 0.0772242 0.908292 0.0111767 0.00155733 0.000860906 0.000888587 0 0 0 0 
109 0.0706237 0.89148 0.0321714 0.00273509 0.00298939 0 0 0 0 0 
110 0.0749462 0.912609 0.00867113 0.00375647 1.75516e-05 0 0 0 0 0 
111 0.0654804 0.919634 0.0114872 0.00160059 0.00088482 0.00091327 0 0 0 0 
112 0.075663 0.897838 0.0174024 0.00744331 0.00165174 1.35664e-06 0 0 0 0 
113 0.0725321 0.910979 0.0127243 0.00177296 0.000980108 0.00101162 0 0 0 0 
114 0.0749462 0.912609 0.00867113 0.00375647 1.75516e-05 0 0 0 0 0 
115 0.075663 0.897838 0.0174024 0.00744331 0.00165174 1.35664e-06 0 0 0 0 
116 0.0770299 0.896878 0.0207602 0.0053318 0 0 0 0 0 0 
117 0.0758628 0.898441 0.0204457 0.00525102 0 0 0 0 0 0 
118 0.176751 0.823146 7.71685e-05 0 2.53758e-05 0 0 0 0 0 
119 0.0831631 0.888361 0.0182298 0.0076857 0.00197925 0.0005806 0 0 0 0 
120 0.0706237 0.89148 0.0321714 0.00273509 0.00298939 0 0 0 0 0 
121 0.118901 0.88045 0.000463213 7.31942e-05 9.15162e-05 1.66836e-05 3.99245e-06 0 0 0 
122 0.0714331 0.912328 0.0125315 0.0017461 0.000965258 0.000996295 0 0 0 0 
123 0.0734044 0.900888 0.0168829 0.00722112 0.00160243 1.31614e-06 0 0 0 0 
124 0.0845442 0.876564 0.0304451 0.00691164 0.00153376 1.25974e-06 0 0 0 0 
125 0.0758628 0.898441 0.0204457 0.00525102 0 0 0 0 0 0 
126 0.137482 0.862474 3.32602e-05 0 1.08133e-05 0 0 0 0 0 
127 0.072325 0.902345 0.0166347 0.00711493 0.00157887 1.29679e-06 0 0 0 0 
128 0.072709 0.915217 0.0084123 0.00364434 1.70276e-05 0 0 0 0 0 
129 0.0824314 0.911264 0.00450256 0.00071161 0.000889741 0.000162202 3.88154e-05 0 0 0 
130 0.153249 0.844323 0.00173362 0.000273989 0.000342574 6.2452e-05 1.4945e-05 0 0 0 
131 0.126113 0.862098 0.0112317 0.000307829 0.000249066 0 0 0 0 0 
132 0.0632662 0.926228 0.00731978 0.00317105 1.48163e-05 0 0 0 0 0 
133 0.0833567 0.906138 0.00731984 0.00317105 1.48163e-05 0 0 0 0 0 
134 0.0695536 0.893125 0.0316839 0.00269365 0.0029441 0 0 0 0 0 
135 0.0716397 0.916464 0.00828858 0.00359075 1.67772e-05 0 0 0 0 0 
136 0.0728987 0.924075 0.00216123 0.000341573 0.000427076 7.78569e-05 1.86314e-05 0 0 0 
137 0.11511 0.883791 0.000536306 0.000311175 0.000251774 0 0 0 0 0 
138 0.0815854 0.890371 0.0179535 0.00756925 0.00194926 0.000571803 0 0 0 0 
139 0.0714331 0.912328 0.0125315 0.0017461 0.000965258 0.000996295 0 0 0 0 
140 0.0828406 0.888684 0.0182298 0.0076857 0.00197925 0.0005806 0 0 0 0 
141 0.0693322 0.914906 0.0121629 0.00169474 0.000936868 0.000966992 0 0 0 0 
142 0.0996043 0.880705 0.0126058 0.00531458 0.00136863 0.000401478 0 0 0 0 
143 0.106148 0.886182 0.00478006 0.00180728 0.000740717 0.000341265 0 0 0 0 
144 0.0863456 0.901758 0.00828858 0.00359075 1.67772e-05 0 0 0 0 0 
145 0.075663 0.897838 0.0174024 0.00744331 0.00165174 1.35664e-06 0 0 0 0 
146 0.0734044 0.900888 0.0168829 0.00722112 0.00160243 1.31614e-06 0 0 0 0 
147 0.0761945 0.909515 0.0110278 0.00153657 0.000849427 0.000876739 0 0 0 0 
148 0.0915777 0.899117 0.00721378 0.000984978 0.000544505 0.000562012 0 0 0 0 
149 0.163234 0.836693 5.50571e-05 0 1.80129e-05 0 0 0 0 0 
150 0.0897118 0.90894 0.000657869 0.000381708 0.000308842 0 0 0 0 0 
151 0.0725321 0.910979 0.0127243 0.00177296 0.000980108 0.00101162 0 0 0 0 
152 0.0716397 0.916464 0.00828858 0.00359075 1.67772e-05 0 0 0 0 0 
153 0.0834409 0.879794 0.0312111 0.00265344 0.00290016 0 0 0 0 0 
154 0.0811815 0.8959 0.0182353 0.00468334 0 0 0 0 0 0 
155 0.0477861 0.951996 0.000107018 6.13021e-05 4.95999e-05 0 0 0 0 0 
156 0.0846469 0.896273 0.0173945 0.00105426 0.000432085 0.000199071 0 0 0 0 
157 0.0745166 0.899386 0.0171387 0.00733053 0.00162671 1.33609e-06 0 0 0 0 
158 0.0927388 0.8829 0.0221514 0.00219974 1.02779e-05 0 0 0 0 0 
159 0.191042 0.808872 6.50607e-05 0 2.13938e-05 0 0 0 0 0 
160 0.0864076 0.912647 0.000461123 0.000267552 0.000216478 0 0 0 0 0 
161 0.0627389 0.929675 0.00533552 0.0022401 1.04665e-05 0 0 0 0 0 
162 0.115814 0.882982 0.000587383 0.000340811 0.000275752 0 0 0 0 0 
163 0.0981961 0.896815 0.00356247 0.000563032 0.000703971 0.000128335 3.07111e-05 0 0 0 
164 0.0739054 0.905366 0.0175502 0.00198801 0.000814788 0.000375391 0 0 0 0 
165 0.073264 0.912995 0.0106036 0.00147747 0.000816757 0.000843019 0 0 0 0 
166 0.066856 0.932272 0.000425364 0.000246794 0.000199683 0 0 0 0 0 
167 0.0899252 0.903197 0.00491189 0.000776302 0.000970626 0.000176947 4.23441e-05 0 0 0 
168 0.0758403 0.884004 0.0167068 0.0211055 0.00181199 0.000531535 0 0 0 0 
169 0.0770299 0.896878 0.0207602 0.0053318 0 0 0 0 0 0 
170 0.149443 0.846896 0.00261449 0.000413193 0.000516624 9.41817e-05 2.2538e-05 0 0 0 
171 0.0689784 0.923148 0.00490752 0.00185547 0.000760469 0.000350365 0 0 0 0 
172 0.0745166 0.899386 0.0171387 0.00733053 0.00162671 1.33609e-06 0 0 0 0 
173 0.0734044 0.900888 0.0168829 0.00722112 0.00160243 1.31614e-06 0 0 0 0 
174 0.0815863 0.89037 0.0179535 0.00756925 0.00194926 0.000571803 0 0 0 0 
175 0.088583 0.904641 0.00483858 0.000764715 0.000956139 0.000174306 4.17121e-05 0 0 0 
176 0.0712767 0.903761 0.0163936 0.00701181 0.00155599 1.278e-06 0 0 0 0 
177 0.0734044 0.900871 0.0168999 0.00722112 0.00160243 1.31614e-06 0 0 0 0 
178 0.0815854 0.890371 0.0179535 0.00756925 0.00194926 0.000571803 0 0 0 0 
179 0.0739054 0.917658 0.00525806 0.00198801 0.000814788 0.000375391 0 0 0 0 
180 0.075663 0.897838 0.0174024 0.00744331 0.00165174 1.35664e-06 0 0 0 0 
181 0.0989469 0.899566 0.000725591 0.000421001 0.000340635 0 0 0 0 0 
182 0.100424 0.898067 0.000736421 0.000427285 0.000345719 0 0 0 0 0 
183 0.0913086 0.901707 0.00498746 0.000788245 0.000985559 0.00017967 4.29956e-05 0 0 0 
184 0.0693324 0.897717 0.0293472 0.00169969 0.000936868 0.000966992 0 0 0 0 
185 0.0823087 0.917264 0.000208413 0.000120794 9.77349e-05 0 0 0 0 0 
186 0.067152 0.908347 0.0245014 0 0 0 0 0 0 0 
187 0.0725321 0.910979 0.0127243 0.00177296 0.000980108 0.00101162 0 0 0 0 
188 0.0954375 0.893327 0.00782815 0.00339126 1.58452e-05 0 0 0 0 0 
189 0.0838786 0.904565 0.00805176 0.00348815 1.62979e-05 0 0 0 0 0 
190 0.0791859 0.864261 0.0467594 0.00734663 0.00189193 0.000554985 0 0 0 0 
191 0.0705203 0.905593 0.0190058 0.00488123 0 0 0 0 0 0 
192 0.0645834 0.920735 0.0113299 0.00157866 0.000872699 0.00090076 0 0 0 0 
193 0.0693322 0.914906 0.0121629 0.00169474 0.000936868 0.000966992 0 0 0 0 
194 0.0933569 0.898085 0.00533426 0.00201682 0.000826597 0.000380832 0 0 0 0 
195 0.0828736 0.888651 0.0182298 0.0076857 0.00197925 0.0005806 0 0 0 0 
196 0.0967045 0.875251 0.0179535 0.00756925 0.00194926 0.000571803 0 0 0 0 
197 0.0795904 0.911324 0.00566254 0.00214093 0.000877464 0.000404268 0 0 0 0 
198 0.113263 0.88233 0.00274675 0.00103851 0.000425636 0.0001961 0 0 0 0 
199 0.0714457 0.912315 0.0125315 0.0017461 0.000965258 0.000996295 0 0 0 0 
200 0.0769666 0.92083 0.00157372 0.000248718 0.000310977 5.66919e-05 1.35666e-05 0 0 0 
201 0.075663 0.897838 0.0174024 0.00744331 0.00165174 1.35664e-06 0 0 0 0 
202 0.0788283 0.914682 0.00404466 0.00152924 0.00062676 0.000288763 0 0 0 0 
203 0.0965203 0.902131 0.000657869 0.000381708 0.000308842 0 0 0 0 0 
204 0.0508691 0.940705 0.00587109 0.00254345 1.18839e-05 0 0 0 0 0 
205 0.153597 0.83761 0.00612634 0.00265403 1.24006e-05 0 0 0 0 0 
206 0.0738106 0.913933 0.00853984 0.00369956 1.72856e-05 0 0 0 0 0 
207 0.0758628 0.898441 0.0204458 0.00525102 0 0 0 0 0 0 
208 0.0795904 0.911324 0.00566253 0.00214093 0.000877464 0.000404268 0 0 0 0 
209 0.0725321 0.910979 0.0127243 0.00177296 0.000980108 0.00101162 0 0 0 0 
210 0.0770299 0.896878 0.0207602 0.0053318 0 0 0 0 0 0 
211 0.075663 0.897838 0.0174024 0.00744331 0.00165174 1.35664e-06 0 0 0 0 
212 0.086431 0.913187 0.000186189 0.00010803 8.74082e-05 0 0 0 0 0 
213 0.0856829 0.910152 0.00297418 0.000470054 0.000587719 0.000107142 2.56396e-05 0 0 0 
214 0.0896681 0.884235 0.0171387 0.00733053 0.00162671 1.33609e-06 0 0 0 0 
215 0.0749462 0.912609 0.00867113 0.00375647 1.75516e-05 0 0 0 0 0 
216 0.0747305 0.870108 0.0499885 0.00517265 0 0 0 0 0 0 
217 0.0950008 0.89878 0.00444089 0.000701862 0.000877552 0.00015998 3.82837e-05 0 0 0 
218 0.0828201 0.901647 0.0119867 0.00167018 0.000923291 0.000952978 0 0 0 0 
219 0.0749462 0.912609 0.00867113 0.00375647 1.75516e-05 0 0 0 0 0 
220 0.088583 0.904641 0.00483858 0.000764715 0.000956139 0.000174306 4.17121e-05 0 0 0 
221 0.0747305 0.899956 0.0201405 0.00517265 0 0 0 0 0 0 
222 0.0880785 0.899665 0.00853975 0.00369956 1.72856e-05 0 0 0 0 0 
223 0.0770299 0.881544 0.0360941 0.0053318 0 0 0 0 0 0 
224 0.109358 0.890395 0.000185472 0 6.0991e-05 0 0 0 0 0 
225 0.0624843 0.932737 0.00341247 0.000539325 0.00067433 0.000122932 2.9418e-05 0 0 0 
226 0.0821972 0.889936 0.0196543 0.00671965 0.00149115 1.22475e-06 0 0 0 0 
227 0.0936555 0.906229 8.96981e-05 0 2.58475e-05 0 0 0 0 0 
228 0.0915236 0.907802 0.000328939 0.000190854 0.000154421 0 0 0 0 0 
229 0.0612284 0.912011 0.0235822 0.00149666 0.000827364 0.000853967 0 0 0 0 
230 0.103514 0.894931 0.00075908 0.000440432 0.000356357 0 0 0 0 0 
231 0.0725321 0.910979 0.0127243 0.00177296 0.000980108 0.00101162 0 0 0 0 
232 0.0830269 0.908656 0.005184 0.00196001 0.000803312 0.000370104 0 0 0 0 
233 0.267443 0.732417 0.000105193 0 3.45919e-05 0 0 0 0 0 
234 0.0622544 0.915943 0.0143184 0.00612424 0.00135903 1.11622e-06 0 0 0 0 
235 0.117772 0.877521 0.00342244 0.000507286 0.000634271 0.000115629 2.76704e-05 0 0 0 
236 0.0625874 0.916213 0.0168677 0.00433209 0 0 0 0 0 0 
237 0.0693322 0.914906 0.0121629 0.00169474 0.000936868 0.000966992 0 0 0 0 
238 0.107284 0.891705 0.000493402 0.000286281 0.000231632 0 0 0 0 0 
239 0.115859 0.883576 0.000276361 0.000159933 0.000129403 0 0 0 0 0 
240 0.0749462 0.912609 0.00867113 0.00375647 1.75516e-05 0 0 0 0 0 
241 0.0894866 0.909345 0.000579553 0.000325319 0.000263218 0 0 0 0 0 
242 0.0899252 0.903197 0.00491189 0.000776302 0.000970626 0.000176947 4.23441e-05 0 0 0 
243 0.169477 0.830456 5.167e-05 0 1.49849e-05 0 0 0 0 0 
244 0.0883298 0.885962 0.0168829 0.00722112 0.00160243 1.31614e-06 0 0 0 0 
245 0.0699105 0.922109 0.00497384 0.00188055 0.000770746 0.0003551 0 0 0 0 
246 0.0931757 0.906421 0.000196664 0.000114056 9.22835e-05 0 0 0 0 0 
247 0.0497608 0.947003 0.00225458 0.000976683 4.56341e-06 0 0 0 0 0 
248 0.0715277 0.904244 0.0192774 0.00495096 0 0 0 0 0 0 
249 0.0714331 0.912328 0.0125315 0.0017461 0.000965258 0.000996295 0 0 0 0 
250 0.0776909 0.864402 0.037178 0.0167804 2.04787e-06 1.06395e-05 0.00393584 0 0 0 
251 0.073226 0.919105 0.00478006 0.00180728 0.000740717 0.000341265 0 0 0 0 
252 0.0725644 0.902856 0.0195567 0.00502271 0 0 0 0 0 0 
253 0.0749462 0.912609 0.00867113 0.00375647 1.75516e-05 0 0 0 0 0 
254 0.161106 0.83403 0.0031659 0.00106229 0.000435383 0.000200591 0 0 0 0 
255 0.0828406 0.888684 0.0182298 0.0076857 0.00197925 0.0005806 0 0 0 0 
256 0.075663 0.882482 0.032759 0.00744332 0.00165174 1.35664e-06 0 0 0 0 
257 0.0783845 0.912668 0.00557673 0.00210849 0.000864169 0.000398142 0 0 0 0 
258 0.10256 0.885367 0.00841229 0.00364434 1.70276e-05 0 0 0 0 0 
259 0.0876701 0.900256 0.00841229 0.00364434 1.70276e-05 0 0 0 0 0 
260 0.070367 0.913636 0.0123445 0.00172004 0.000950851 0.000981425 0 0 0 0 
261 0.0852923 0.898711 0.0123445 0.00172004 0.000950851 0.000981425 0 0 0 0 
262 0.0795904 0.911324 0.00566253 0.00214093 0.000877464 0.000404268 0 0 0 0 
263 0.0725321 0.910979 0.0127243 0.00177296 0.000980108 0.00101162 0 0 0 0 
264 0.0854355 0.902488 0.00841489 0.00364434 1.70276e-05 0 0 0 0 0 
265 0.0747305 0.885047 0.0350502 0.00517265 0 0 0 0 0 0 
266 0.0749765 0.916465 0.00533426 0.00201682 0.000826597 0.000380832 0 0 0 0 
267 0.0857267 0.906071 0.005112 0.00193278 0.000792155 0.000364964 0 0 0 0 
268 0.117336 0.859688 0.0196155 0.0033448 1.56281e-05 0 0 0 0 0 
269 0.0758628 0.898441 0.0204457 0.00525102 0 0 0 0 0 0 
270 0.0815854 0.890371 0.0179535 0.00756925 0.00194926 0.000571803 0 0 0 0 
271 0.0801737 0.8993 0.0176367 0.00180728 0.000740717 0.000341265 0 0 0 0 
272 0.058763 0.936742 0.0032098 0.000507286 0.000634271 0.000115629 2.76704e-05 0 0 0 
273 0.0736315 0.901416 0.0198555 0.00509658 0 0 0 0 0 0 
274 0.0749462 0.912609 0.00867113 0.00375647 1.75516e-05 0 0 0 0 0 
275 0.070367 0.913636 0.0123446 0.00172004 0.000950851 0.000981425 0 0 0 0 
276 0.274567 0.724828 0.000295455 0.000171426 0.000138702 0 0 0 0 0 
277 0.0913086 0.901707 0.00498746 0.000788245 0.000985559 0.00017967 4.29956e-05 0 0 0 
278 0.0673513 0.917334 0.011819 0.00164632 0.000910101 0.000939363 0 0 0 0 
279 0.0610596 0.917542 0.0213981 0 0 0 0 0 0 0 
280 0.0857414 0.906057 0.005112 0.00193278 0.000792155 0.000364964 0 0 0 0 
281 0.0725321 0.910979 0.0127243 0.00177296 0.000980108 0.00101162 0 0 0 0 
282 0.0828406 0.888684 0.0182298 0.0076857 0.00197925 0.0005806 0 0 0 0 
283 0.177691 0.819584 0.00169997 0.000641293 0.000262835 0.000121094 0 0 0 0 
284 0.0840381 0.9002 0.0121629 0.00169474 0.000936868 0.000966992 0 0 0 0 
285 0.0649542 0.92426 0.00751498 0.00325561 1.52114e-05 0 0 0 0 0 
286 0.0795904 0.911324 0.00566253 0.00214093 0.000877464 0.000404268 0 0 0 0 
287 0.121869 0.864599 0.0135315 0 0 0 0 0 0 0 
288 0.0673513 0.917338 0.0118154 0.00164632 0.000910101 0.000939364 0 0 0 0 
289 0.102702 0.89208 0.00372626 0.000588919 0.000736337 0.000134236 3.21231e-05 0 0 0 
290 0.075663 0.897838 0.0174024 0.00744331 0.00165174 1.35664e-06 0 0 0 0 
291 0.0799743 0.89675 0.0152859 0.00653804 0.00145085 1.19164e-06 0 0 0 0 
292 0.0663262 0.926103 0.0047189 0.00178411 0.00073122 0.00033689 0 0 0 0 
293 0.075873 0.902045 0.014502 0.00620276 0.00137645 1.13053e-06 0 0 0 0 
294 0.0706237 0.89148 0.0321714 0.00273509 0.00298939 0 0 0 0 0 
295 0.0727089 0.915217 0.0084123 0.00364434 1.70276e-05 0 0 0 0 0 
296 0.0601217 0.933695 0.00431082 0.0018639 8.70879e-06 0 0 0 0 0 
297 0.0773378 0.9215 0.000567129 0.000329058 0.000266243 0 0 0 0 0 
298 0.0673712 0.909034 0.0154953 0.0066276 0.00147073 1.20797e-06 0 0 0 0 
299 0.106996 0.890236 0.00197707 0.000312414 0.000390618 7.12105e-05 1.70409e-05 0 0 0 
300 0.0881581 0.909074 0.00197674 0.000312414 0.000390618 7.12105e-05 1.70409e-05 0 0 0 
301 0.0846048 0.891508 0.0190058 0.00488123 0 0 0 0 0 0 
302 0.0738106 0.913933 0.00853975 0.00369956 1.72856e-05 0 0 0 0 0 
303 0.0770299 0.896878 0.0207602 0.0053318 0 0 0 0 0 0 
304 0.0828201 0.901647 0.0119867 0.00167018 0.000923291 0.000952978 0 0 0 0 
305 0.0725321 0.910979 0.0127243 0.00177296 0.000980108 0.00101162 0 0 0 0 
306 0.0743228 0.915437 0.00713447 0.00309077 1.44412e-05 0 0 0 0 0 
307 0.0725321 0.910979 0.0127243 0.00177296 0.000980108 0.00101162 0 0 0 0 
308 0.0830254 0.908548 0.00587108 0.00254345 1.18839e-05 0 0 0 0 0 
309 0.0672304 0.92016 0.00973035 0.00135579 0.000749495 0.000773594 0 0 0 0 
310 0.0749462 0.912609 0.00867113 0.00375647 1.75516e-05 0 0 0 0 0 
311 0.0745166 0.899386 0.0171387 0.00733053 0.00162671 1.33609e-06 0 0 0 0 
312 0.0714331 0.912328 0.0125315 0.0017461 0.000965258 0.000996295 0 0 0 0 
313 0.0658311 0.923237 0.00761653 0.0032996 1.54169e-05 0 0 0 0 0 
314 0.0913086 0.901707 0.00498746 0.000788245 0.000985559 0.00017967 4.29956e-05 0 0 0 
315 0.0770299 0.896878 0.0207602 0.0053318 0 0 0 0 0 0 
316 0.0738106 0.913933 0.00853975 0.00369956 1.72856e-05 0 0 0 0 0 
317 0.103045 0.895606 0.000657878 0.000381708 0.000308842 0 0 0 0 0 
318 0.0810698 0.895335 0.0154953 0.0066276 0.00147073 1.20797e-06 0 0 0 0 
319 0.0791342 0.914729 0.00440612 0.000683146 0.000854151 0.000155714 3.72628e-05 0 0 0 
320 0.0893453 0.900149 0.00731981 0.00317105 1.48163e-05 0 0 0 0 0 
321 0.0749462 0.912609 0.00867113 0.00375647 1.75516e-05 0 0 0 0 0 
322 0.0689784 0.923148 0.00490752 0.00185547 0.000760469 0.000350365 0 0 0 0 
323 0.0828406 0.888684 0.0182298 0.0076857 0.00197925 0.0005806 0 0 0 0 
324 0.163777 0.836145 5.9007e-05 0 1.93676e-05 0 0 0 0 0 
325 0.0640987 0.925257 0.0074161 0.00321277 1.50112e-05 0 0 0 0 0 
326 0.0695928 0.918851 0.00805177 0.00348815 1.62979e-05 0 0 0 0 0 
327 0.0791342 0.914813 0.00432246 0.000683146 0.000854151 0.000155714 3.72628e-05 0 0 0 
328 0.0826972 0.905909 0.00793836 0.00343902 1.60683e-05 0 0 0 0 0 
329 0.000613442 0.858806 0.14058 0 0 0 0 0 0 0 
330 0.0706237 0.89148 0.0321714 0.00273509 0.00298939 0 0 0 0 0 
331 0.0765138 0.866456 0.0366147 0.0165262 2.01684e-06 1.04783e-05 0.00387621 0 0 0 
332 0.0928552 0.906069 0.000524896 0.000304554 0.000246417 0 0 0 0 0 
333 0.0685931 0.924845 0.0040896 0.00154623 0.000633724 0.000291971 0 0 0 0 
334 0.0747305 0.899956 0.0201405 0.00517265 0 0 0 0 0 0 
335 0.0714331 0.912328 0.0125315 0.0017461 0.000965258 0.000996295 0 0 0 0 
336 0.0793446 0.909724 0.00761653 0.0032996 1.54169e-05 0 0 0 0 0 
337 0.0872803 0.906044 0.00476742 0.000753469 0.000942078 0.000171743 4.10987e-05 0 0 0 
338 0.11202 0.88743 0.000268301 0.000155587 0.000125887 0 0 0 0 0 
339 0.0758628 0.883289 0.0355972 0.00525102 0 0 0 0 0 0 
340 0.0881821 0.911057 0.000370987 0.000215249 0.000174159 0 0 0 0 0 
341 0.0770299 0.896878 0.0207602 0.0053318 0 0 0 0 0 0 
342 0.0986434 0.897605 0.00267922 0.000423437 0.000529433 9.65167e-05 2.30968e-05 0 0 0 
343 0.0601344 0.918792 0.0210739 0 0 0 0 0 0 0 
344 0.0689784 0.923148 0.00490752 0.00185547 0.000760469 0.000350365 0 0 0 0 
345 0.0706237 0.89148 0.0321714 0.00273509 0.00298939 0 0 0 0 0 
346 0.108478 0.882633 0.00619368 0.0026832 1.25368e-05 0 0 0 0 0 
347 0.0810223 0.883279 0.0303064 0.00257653 0.0028161 0 0 0 0 0 
348 0.0890113 0.910719 0.000132862 7.55358e-05 6.11165e-05 0 0 0 0 0 
349 0.075663 0.890715 0.0245254 0.00744331 0.00165174 1.35664e-06 0 0 0 0 
350 0.0695536 0.893125 0.0316839 0.00269365 0.0029441 0 0 0 0 0 
351 0.0776909 0.864402 0.037178 0.0167804 2.04787e-06 1.06395e-05 0.00393584 0 0 0 
352 0.070817 0.891861 0.0316839 0.00269365 0.0029441 0 0 0 0 0 
353 0.0866883 0.907637 0.00405231 0.000640449 0.000800767 0.000145982 3.49339e-05 0 0 0 
354 0.0821958 0.893882 0.0157105 0.00671965 0.00149115 1.22475e-06 0 0 0 0 
355 0.0828406 0.888684 0.0182298 0.0076857 0.00197925 0.0005806 0 0 0 0 
356 0.0714331 0.912328 0.0125315 0.0017461 0.000965258 0.000996295 0 0 0 0 
357 0.0913086 0.901707 0.00498746 0.000788245 0.000985559 0.00017967 4.29956e-05 0 0 0 
358 0.0826972 0.905909 0.00793836 0.00343902 1.60683e-05 0 0 0 0 0 
359 0.0912509 0.902776 0.00426559 0.000674157 0.000842912 0.000153665 3.67725e-05 0 0 0 
360 0.189891 0.809077 0.000737712 0.000116445 0.000145594 2.65421e-05 6.35161e-06 0 0 0 
361 0.0738106 0.913933 0.00853975 0.00369956 1.72856e-05 0 0 0 0 0 
362 0.0795904 0.911324 0.00566253 0.00214093 0.000877464 0.000404268 0 0 0 0 
363 0.0749462 0.912609 0.00867113 0.00375647 1.75516e-05 0 0 0 0 0 
364 0.0780383 0.895137 0.017173 0.00724016 0.00186451 0.000546942 0 0 0 0 
365 0.0664026 0.918502 0.011649 0.00162313 0.000897282 0.000926133 0 0 0 0 
366 0.0725321 0.910979 0.0127243 0.00177296 0.000980108 0.00101162 0 0 0 0 
367 0.0699105 0.922109 0.00497384 0.00188055 0.000770746 0.0003551 0 0 0 0 
368 0.0990723 0.894442 0.00463121 0.000731942 0.000915162 0.000166836 3.99245e-05 0 0 0 
369 0.0706237 0.89148 0.0321714 0.00273509 0.00298939 0 0 0 0 0 
370 0.0749462 0.912609 0.00867113 0.00375647 1.75516e-05 0 0 0 0 0 
371 0.100571 0.88548 0.0139479 0 0 0 0 0 0 0 
372 0.0778494 0.914949 0.00448863 0.00169708 0.000695551 0.000320456 0 0 0 0 
373 0.0725644 0.902856 0.0195567 0.00502271 0 0 0 0 0 0 
374 0.088911 0.905269 0.00415622 0.000656871 0.000821299 0.000149725 3.58296e-05 0 0 0 
375 0.0739054 0.917658 0.00525806 0.00198801 0.000814788 0.000375391 0 0 0 0 
376 0.0788188 0.913237 0.00553915 0.00239383 1.11848e-05 0 0 0 0 0 
377 0.0675079 0.881562 0.0454575 0.00261485 0.00285751 0 0 0 0 0 
378 0.088832 0.910006 0.000567129 0.000329058 0.000266243 0 0 0 0 0 
379 0.0842539 0.889247 0.0174024 0.00744331 0.00165174 1.35664e-06 0 0 0 0 
380 0.0678534 0.910749 0.0213981 0 0 0 0 0 0 0 
381 0.0680708 0.924159 0.00484295 0.00183106 0.000750463 0.000345755 0 0 0 0 
382 0.0866885 0.907637 0.00405233 0.000640449 0.000800767 0.000145982 3.49339e-05 0 0 0 
383 0.116488 0.88216 0.00066169 0.000381708 0.000308842 0 0 0 0 0 
384 0.0820962 0.907664 0.00713447 0.00309077 1.44412e-05 0 0 0 0 0 
385 0.0899252 0.903197 0.00491189 0.000776302 0.000970626 0.000176947 4.23441e-05 0 0 0 
386 0.103514 0.894931 0.00075908 0.000440432 0.000356357 0 0 0 0 0 
387 0.0770299 0.896878 0.0207602 0.0053318 0 0 0 0 0 0 
388 0.0716397 0.901758 0.0229942 0.00359099 1.67772e-05 0 0 0 0 0 
389 0.078942 0.909162 0.00828858 0.00359075 1.67772e-05 0 0 0 0 0 
390 0.0725644 0.902856 0.0195567 0.00502271 0 0 0 0 0 0 
391 0.143437 0.856137 0.000320361 0 0.000105348 0 0 0 0 0 
392 0.0501552 0.938443 0.00879872 0.00122598 0.000677735 0.000699526 0 0 0 0 
393 0.0654804 0.919634 0.0114872 0.00160059 0.00088482 0.00091327 0 0 0 0 
394 0.0948484 0.904028 0.000548765 0.00031809 0.000257369 0 0 0 0 0 
395 0.0661032 0.917897 0.0127305 0.0032695 0 0 0 0 0 0 
396 0.0879058 0.907654 0.0027674 0.00104632 0.000428836 0.000197574 0 0 0 0 
397 0.103045 0.895606 0.000657869 0.000381708 0.000308842 0 0 0 0 0 
398 0.0725321 0.910979 0.0127243 0.00177296 0.000980108 0.00101162 0 0 0 0 
399 0.0673513 0.917338 0.0118154 0.00164632 0.000910101 0.000939364 0 0 0 0 
400 0.0973132 0.871785 0.0236627 0.00543012 0.00139838 0.000410206 0 0 0 0 
401 0.0840381 0.9002 0.0121629 0.00169474 0.000936868 0.000966992 0 0 0 0 
402 0.0828201 0.901626 0.0120079 0.00167018 0.00092329 0.000952977 0 0 0 0 
403 0.0640632 0.922705 0.0102109 0.00142275 0.000786507 0.000811796 0 0 0 0 
404 0.0877841 0.902586 0.0067098 0.00290679 1.35816e-05 0 0 0 0 0 
405 0.088583 0.904641 0.00483858 0.000764715 0.000956139 0.000174306 4.17121e-05 0 0 0 
406 0.075663 0.882454 0.0174024 0.00745038 0.0169664 6.42389e-05 0 0 0 0 
407 0.0706555 0.888288 0.039512 0.000609951 0.000762635 0.00013903 3.32704e-05 0 0 0 
408 0.0562601 0.924684 0.015162 0.00389401 0 0 0 0 0 0 
409 0.0979638 0.895285 0.00514879 0.000632542 0.000790881 0.000144179 3.45026e-05 0 0 0 
410 0.0877918 0.907874 0.00366176 0.000265471 0.000331924 6.05105e-05 1.44804e-05 0 0 0 
411 0.0955847 0.897836 0.00469834 0.000742549 0.000928425 0.000169254 4.05031e-05 0 0 0 
412 0.0931383 0.882256 0.0161594 0.00691164 0.00153376 1.25974e-06 0 0 0 0 
413 0.0897152 0.889529 0.0136322 0.0058291 0.00129353 1.06243e-06 0 0 0 0 
414 0.0828406 0.888684 0.0182298 0.0076857 0.00197925 0.0005806 0 0 0 0 
415 0.124927 0.869893 0.00322892 0.00122071 0.000500309 0.000230503 0 0 0 0 
416 0.0897375 0.906849 0.00243749 0.000385233 0.000481664 8.78085e-05 2.10129e-05 0 0 0 
417 0.0749462 0.912609 0.00867113 0.00375647 1.75516e-05 0 0 0 0 0 
418 0.10571 0.888394 0.00421019 0.000665402 0.000831965 0.000151669 3.6295e-05 0 0 0 
419 0.0900657 0.904039 0.00421019 0.000665402 0.000831965 0.000151669 3.6295e-05 0 0 0 
420 0.0671867 0.925144 0.00478006 0.00180728 0.000740717 0.000341265 0 0 0 0 
421 0.0828406 0.888684 0.0182298 0.0076857 0.00197925 0.0005806 0 0 0 0 
422 0.0913087 0.886323 0.00499963 0.0161606 0.000985605 0.00017967 4.29956e-05 0 0 0 
423 0.114611 0.866725 0.0164596 0.00103822 0.000573937 0.000592391 0 0 0 0 
424 0.0725321 0.910979 0.0127243 0.00177296 0.000980108 0.00101162 0 0 0 0 
425 0.0913086 0.901707 0.00498746 0.000788245 0.000985559 0.00017967 4.29956e-05 0 0 0 
426 0.0896681 0.884235 0.0171387 0.00733053 0.00162671 1.33609e-06 0 0 0 0 
427 0.0770299 0.896878 0.0207602 0.0053318 0 0 0 0 0 0 
428 0.128096 0.871243 0.000322486 0.000187112 0.000151393 0 0 0 0 0 
429 0.0851273 0.912979 0.00135354 0.000213483 0.000266922 4.86605e-05 1.16446e-05 0 0 0 
430 0.0720673 0.906067 0.0187604 0.00309077 1.44412e-05 0 0 0 0 0 
431 0.0797699 0.919188 0.000508662 0.000295135 0.000238796 0 0 0 0 0 
432 0.0725321 0.910979 0.0127243 0.00177296 0.000980108 0.00101162 0 0 0 0 
433 0.0714331 0.912328 0.0125315 0.0017461 0.000965258 0.000996295 0 0 0 0 
434 0.0770299 0.896878 0.0207602 0.0053318 0 0 0 0 0 0 
435 0.075663 0.897838 0.0174024 0.00744331 0.00165174 1.35664e-06 0 0 0 0 
436 0.0795904 0.911324 0.00566253 0.00214093 0.000877464 0.000404268 0 0 0 0 
437 0.0699105 0.908917 0.0181657 0.00188055 0.000770746 0.0003551 0 0 0 0 
438 0.0749462 0.912609 0.00867113 0.00375647 1.75516e-05 0 0 0 0 0 
439 0.075663 0.897838 0.0174024 0.00744331 0.00165174 1.35664e-06 0 0 0 0 
440 0.075663 0.897838 0.0174024 0.00744331 0.00165174 1.35664e-06 0 0 0 0 
441 0.070367 0.913636 0.0123445 0.00172004 0.000950851 0.000981425 0 0 0 0 
442 0.104274 0.875161 0.0131659 0.00555079 0.00142946 0.000419322 0 0 0 0 
443 0.0828406 0.888684 0.0182298 0.0076857 0.00197925 0.0005806 0 0 0 0 
444 0.0648657 0.912765 0.0146904 0.00628331 0.00139433 1.14522e-06 0 0 0 0 
445 0.0727089 0.915217 0.00841229 0.00364434 1.70276e-05 0 0 0 0 0 
446 0.0826972 0.905909 0.00793836 0.00343902 1.60683e-05 0 0 0 0 0 
447 0.0728645 0.918818 0.005184 0.00196001 0.000803312 0.000370104 0 0 0 0 
448 0.0828406 0.888684 0.0182298 0.0076857 0.00197925 0.0005806 0 0 0 0 
449 0.0734258 0.916461 0.00704627 0.00305213 1.42606e-05 0 0 0 0 0 
450 0.087379 0.903536 0.00566253 0.00214093 0.000877464 0.000404268 0 0 0 0 
451 0.0770299 0.896878 0.0207602 0.0053318 0 0 0 0 0 0 
452 0.0727089 0.915217 0.00841229 0.00364434 1.70276e-05 0 0 0 0 0 
453 0.089131 0.884772 0.0171387 0.00733053 0.00162671 1.33609e-06 0 0 0 0 
454 0.0821225 0.889833 0.0179535 0.00756925 0.00194926 0.000571803 0 0 0 0 
455 0.0823117 0.909814 0.00490752 0.00185547 0.000760469 0.000350365 0 0 0 0 
456 0.0749462 0.912609 0.00867113 0.00375647 1.75516e-05 0 0 0 0 0 
457 0.072695 0.920886 0.00400081 0.00151261 0.000619948 0.000285624 0 0 0 0 
458 0.0645834 0.920735 0.0113299 0.00157866 0.000872699 0.00090076 0 0 0 0 
459 0.0695928 0.918851 0.00805176 0.00348815 1.62979e-05 0 0 0 0 0 
460 0.088811 0.89495 0.0125315 0.0017461 0.000965258 0.000996295 0 0 0 0 
461 0.113212 0.885555 0.000601727 0.000349123 0.000282478 0 0 0 0 0 
462 0.0899252 0.903197 0.00491189 0.000776302 0.000970626 0.000176947 4.23441e-05 0 0 0 
463 0.0673513 0.917337 0.0118156 0.00164632 0.000910101 0.000939364 0 0 0 0 
464 0.0918403 0.895344 0.00990255 0.00137193 0.000758417 0.000782803 0 0 0 0 
465 0.0725321 0.910979 0.0127243 0.00177296 0.000980108 0.00101162 0 0 0 0 
466 0.0749462 0.912609 0.00867113 0.00375647 1.75516e-05 0 0 0 0 0 
467 0.0894692 0.901972 0.00533426 0.00201682 0.000826597 0.000380832 0 0 0 0 
468 0.0706237 0.89148 0.0321714 0.00273509 0.00298939 0 0 0 0 0 
469 0.0868335 0.904849 0.005184 0.00196001 0.000803312 0.000370104 0 0 0 0 
470 0.0828406 0.888684 0.0182298 0.0076857 0.00197925 0.0005806 0 0 0 0 
471 0.0915265 0.851444 0.0366147 0.0165262 2.01684e-06 1.04783e-05 0.00387621 0 0 0 
472 0.0749462 0.912609 0.00867113 0.00375647 1.75516e-05 0 0 0 0 0 
473 0.120282 0.876279 0.0024561 0.000388151 0.000485313 8.84737e-05 2.11721e-05 0 0 0 
474 0.0975128 0.901022 0.000715075 0.0004149 0.000335698 0 0 0 0 0 
475 0.0736315 0.901428 0.0198443 0.00509658 0 0 0 0 0 0 
476 0.093536 0.897516 0.00557673 0.00210849 0.000864169 0.000398142 0 0 0 0 
477 0.0782867 0.910927 0.00751498 0.00325561 1.52114e-05 0 0 0 0 0 
478 0.0772566 0.9121 0.00741611 0.00321277 1.50112e-05 0 0 0 0 0 
479 0.0913086 0.901707 0.00498746 0.000788245 0.000985559 0.00017967 4.29956e-05 0 0 0 
480 0.0714475 0.912313 0.0125315 0.0017461 0.000965258 0.000996295 0 0 0 0 
481 0.0758628 0.898441 0.0204457 0.00525102 0 0 0 0 0 0 
482 0.0673513 0.917338 0.0118154 0.00164632 0.000910101 0.000939364 0 0 0 0 
483 0.075663 0.897838 0.0174024 0.00744331 0.00165174 1.35664e-06 0 0 0 0 
484 0.0731291 0.915315 0.00805176 0.00348815 1.62979e-05 0 0 0 0 0 
485 0.0770299 0.896878 0.0207602 0.0053318 0 0 0 0 0 0 
486 0.0913086 0.901707 0.00498746 0.000788245 0.000985559 0.00017967 4.29956e-05 0 0 0 
487 0.0749462 0.912609 0.00867113 0.00375647 1.75516e-05 0 0 0 0 0 
488 0.103514 0.894931 0.00075908 0.000440432 0.000356357 0 0 0 0 0 
489 0.0962945 0.8974 0.00450257 0.00071161 0.000889741 0.000162202 3.88154e-05 0 0 0 
490 0.0758628 0.898441 0.0204457 0.00525102 0 0 0 0 0 0 
491 0.0770299 0.896878 0.0207602 0.0053318 0 0 0 0 0 0 
492 0.0725321 0.910979 0.0127243 0.00177296 0.000980108 0.00101162 0 0 0 0 
493 0.0913086 0.901707 0.00498746 0.000788245 0.000985559 0.00017967 4.29956e-05 0 0 0 
494 0.0727089 0.915217 0.00841229 0.00364434 1.70276e-05 0 0 0 0 0 
495 0.0725321 0.910979 0.0127243 0.00177296 0.000980108 0.00101162 0 0 0 0 
496 0.0725321 0.910979 0.0127243 0.00177296 0.000980108 0.00101162 0 0 0 0 
497 0.0770299 0.896878 0.0207602 0.0053318 0 0 0 0 0 0 
498 0.094909 0.891142 0.0139479 0 0 0 0 0 0 0 
499 0.0714331 0.912328 0.0125315 0.0017461 0.000965258 0.000996295 0 0 0 0 
500 0.094766 0.90381 0.000694932 0.000403212 0.000326242 0 0 0 0 0 
501 0.0685882 0.908179 0.0184851 0.0047475 0 0 0 0 0 0 
502 0.11864 0.880127 0.00060171 0.000349123 0.000282478 0 0 0 0 0 
503 0.0813022 0.912479 0.00444089 0.000701862 0.000877552 0.00015998 3.82837e-05 0 0 0 
504 0.0727089 0.915217 0.00841229 0.00364434 1.70276e-05 0 0 0 0 0 
505 0.0845442 0.89085 0.0161594 0.00691164 0.00153376 1.25974e-06 0 0 0 0 
506 0.0725321 0.910979 0.0127243 0.00177296 0.000980108 0.00101162 0 0 0 0 
507 0.0645834 0.920735 0.0113299 0.00157866 0.000872699 0.00090076 0 0 0 0 
508 0.0803678 0.892007 0.0176856 0.00745628 0.00192017 0.000563268 0 0 0 0 
509 0.0721354 0.927029 0.00040777 0.000236596 0.000191431 0 0 0 0 0 
510 0.0725321 0.910979 0.0127243 0.00177296 0.000980108 0.00101162 0 0 0 0 
511 0.100894 0.895532 0.00255264 0.000403432 0.00050442 9.19569e-05 2.20056e-05 0 0 0 
512 0.0727654 0.902187 0.0160485 0.00675096 0.00173853 0.000509986 0 0 0 0 
513 0.0828406 0.888684 0.0182298 0.0076857 0.00197925 0.0005806 0 0 0 0 
514 0.0913086 0.901707 0.00498746 0.000788245 0.000985559 0.00017967 4.29956e-05 0 0 0 
515 0.084394 0.908659 0.00433017 0.00163718 0.000671002 0.000309146 0 0 0 0 
516 0.0676597 0.921105 0.00782811 0.00339126 1.58452e-05 0 0 0 0 0 
517 0.10319 0.887404 0.00655378 0.0028392 1.32657e-05 0 0 0 0 0 
518 0.0758628 0.898441 0.0204457 0.00525102 0 0 0 0 0 0 
519 0.0749462 0.897224 0.00867115 0.019141 1.76678e-05 0 0 0 0 0 
520 0.139218 0.845896 0.0147831 0 0.00010225 0 0 0 0 0 
521 0.0856357 0.90876 0.00400228 0.000632542 0.000790881 0.000144179 3.45026e-05 0 0 0 
522 0.0969738 0.89949 0.00220404 0.000833296 0.000341528 0.00015735 0 0 0 0 
523 0.11163 0.883269 0.00364252 0.000575684 0.00071979 0.000131219 3.14013e-05 0 0 0 
524 0.0899252 0.903197 0.00491189 0.000776302 0.000970626 0.000176947 4.23441e-05 0 0 0 
525 0.0706237 0.89148 0.0321714 0.00273509 0.00298939 0 0 0 0 0 
526 0.0872803 0.906044 0.00476742 0.000753469 0.000942078 0.000171743 4.10987e-05 0 0 0 
527 0.0873584 0.90736 0.00354334 0.00108719 0.000445587 0.000205292 0 0 0 0 
528 0.0877252 0.889309 0.0150821 0.00645087 0.00143151 1.17576e-06 0 0 0 0 
529 0.0857695 0.889268 0.0163936 0.00701181 0.00155599 1.278e-06 0 0 0 0 
530 0.0723788 0.922085 0.00395347 0.000624828 0.000781236 0.000142421 3.40819e-05 0 0 0 
531 0.0957662 0.904034 0.00015093 0 4.89646e-05 0 0 0 0 0 
532 0.0739055 0.917658 0.00525806 0.00198801 0.000814788 0.000375391 0 0 0 0 
533 0.0736315 0.901428 0.0198443 0.00509658 0 0 0 0 0 0 
534 0.0706021 0.917674 0.0081685 0.00353871 1.65341e-05 0 0 0 0 0 
535 0.075663 0.897838 0.0174024 0.00744331 0.00165174 1.35664e-06 0 0 0 0 
536 0.0772566 0.912099 0.0074161 0.00321277 1.50112e-05 0 0 0 0 0 
537 0.0693322 0.914906 0.0121629 0.00169474 0.000936868 0.000966992 0 0 0 0 
538 0.0727089 0.915217 0.00841229 0.00364434 1.70276e-05 0 0 0 0 0 
539 0.0795904 0.911324 0.00566253 0.00214093 0.000877464 0.000404268 0 0 0 0 
540 0.0695536 0.878163 0.0466455 0.00269365 0.0029441 0 0 0 0 0 
541 0.088583 0.904641 0.00483858 0.000764715 0.000956139 0.000174306 4.17121e-05 0 0 0 
542 0.0749765 0.916465 0.00533426 0.00201682 0.000826597 0.000380832 0 0 0 0 
543 0.0523817 0.93892 0.00606047 0.00262549 1.22672e-05 0 0 0 0 0 
544 0.0908047 0.902801 0.00456598 0.000721633 0.000902272 0.000164486 3.93621e-05 0 0 0 
545 0.096737 0.875219 0.0179535 0.00756925 0.00194926 0.000571803 0 0 0 0 
546 0.0764441 0.902158 0.0213981 0 0 0 0 0 0 0 
547 0.0742634 0.870384 0.0355378 0.0160401 1.95752e-06 1.01701e-05 0.0037622 0 0 0 
548 0.0889621 0.898781 0.00853975 0.00369956 1.72856e-05 0 0 0 0 0 
549 0.144037 0.852789 0.00226703 0.000358293 0.000447981 8.1668e-05 1.95434e-05 0 0 0 
550 0.0683274 0.91614 0.0119867 0.00167018 0.000923291 0.000952978 0 0 0 0 
551 0.116378 0.882273 0.000657869 0.000381708 0.000308842 0 0 0 0 0 
552 0.183906 0.815813 0.000211438 0 6.95298e-05 0 0 0 0 0 
553 0.10461 0.888679 0.00418275 0.00158137 0.000648127 0.000298607 0 0 0 0 
554 0.0749462 0.912609 0.00867113 0.00375647 1.75516e-05 0 0 0 0 0 
555 0.0749462 0.912609 0.00867113 0.00375647 1.75516e-05 0 0 0 0 0 
556 0.0795904 0.911324 0.00566253 0.00214093 0.000877464 0.000404268 0 0 0 0 
557 0.0749462 0.912609 0.00867113 0.00375647 1.75516e-05 0 0 0 0 0 
558 0.075663 0.897838 0.0174024 0.00744331 0.00165174 1.35664e-06 0 0 0 0 
559 0.0683274 0.91614 0.0119867 0.00167018 0.000923291 0.000952978 0 0 0 0 
560 0.0913086 0.901707 0.00498746 0.000788245 0.000985559 0.00017967 4.29956e-05 0 0 0 
561 0.0654804 0.919634 0.0114872 0.00160059 0.00088482 0.00091327 0 0 0 0 
562 0.0783845 0.912668 0.00557673 0.00210849 0.000864169 0.000398142 0 0 0 0 
563 0.0913086 0.901707 0.00498746 0.000788245 0.000985559 0.00017967 4.29956e-05 0 0 0 
564 0.075663 0.897838 0.0174024 0.00744331 0.00165174 1.35664e-06 0 0 0 0 
565 0.0975128 0.901022 0.000715075 0.0004149 0.000335698 0 0 0 0 0 
566 0.1168 0.88007 0.00223576 0.000353351 0.000441802 8.05416e-05 1.92739e-05 0 0 0 
567 0.0849794 0.888929 0.0207602 0.0053318 0 0 0 0 0 0 
568 0.0791342 0.914813 0.00432246 0.000683146 0.000854151 0.000155714 3.72628e-05 0 0 0 
569 0.0835924 0.910014 0.004566 0.000721633 0.000902272 0.000164486 3.93621e-05 0 0 0 
570 0.0704154 0.913588 0.0123445 0.00172004 0.000950851 0.000981425 0 0 0 0 
571 0.0665788 0.911891 0.0141394 0.00604769 0.00134204 1.10227e-06 0 0 0 0 
572 0.0723249 0.902345 0.0166346 0.00711493 0.00157887 1.29679e-06 0 0 0 0 
573 0.0913086 0.901707 0.00498746 0.000788245 0.000985559 0.00017967 4.29956e-05 0 0 0 
574 0.113232 0.881022 0.0041036 0.000648556 0.000810903 0.000147829 3.53761e-05 0 0 0 
575 0.0725321 0.910979 0.0127243 0.00177296 0.000980108 0.00101162 0 0 0 0 
576 0.0686127 0.919994 0.00793836 0.00343902 1.60683e-05 0 0 0 0 0 
577 0.0776939 0.864399 0.037178 0.0167804 2.04787e-06 1.06395e-05 0.00393584 0 0 0 
578 0.070367 0.913636 0.0123446 0.00172004 0.000950851 0.000981425 0 0 0 0 
579 0.0692689 0.906472 0.0159318 0.0068143 0.00151216 1.242e-06 0 0 0 0 
580 0.0754984 0.913327 0.00957448 0.00100116 0.000410325 0.000189046 0 0 0 0 
581 0.124749 0.875038 0.00016018 0 5.26741e-05 0 0 0 0 0 
582 0.083424 0.908596 0.00497384 0.00188055 0.000770746 0.0003551 0 0 0 0 
583 0.0676597 0.921105 0.0078281 0.00339126 1.58452e-05 0 0 0 0 0 
584 0.0828406 0.888684 0.0182298 0.0076857 0.00197925 0.0005806 0 0 0 0 
585 0.0770299 0.896878 0.0207602 0.0053318 0 0 0 0 0 0 
586 0.0860154 0.907405 0.00469833 0.000742549 0.000928425 0.000169254 4.05031e-05 0 0 0 
587 0.0689784 0.923148 0.00490752 0.00185547 0.000760469 0.000350365 0 0 0 0 
588 0.0913086 0.901707 0.00498746 0.000788245 0.000985559 0.00017967 4.29956e-05 0 0 0 
589 0.0747305 0.899956 0.0201406 0.00517265 0 0 0 0 0 0 
590 0.0725321 0.910979 0.0127243 0.00177296 0.000980108 0.00101162 0 0 0 0 
591 0.0725321 0.910979 0.0127243 0.00177296 0.000980108 0.00101162 0 0 0 0 
592 0.0654823 0.919632 0.0114873 0.00160059 0.00088482 0.00091327 0 0 0 0 
593 0.0683274 0.91614 0.0119867 0.00167018 0.000923291 0.000952978 0 0 0 0 
594 0.0749462 0.912609 0.00867113 0.00375647 1.75516e-05 0 0 0 0 0 
595 0.0934878 0.883236 0.0152859 0.00653804 0.00145085 1.19164e-06 0 0 0 0 
596 0.0913086 0.901707 0.00498746 0.000788245 0.000985559 0.00017967 4.29956e-05 0 0 0 
597 0.0908208 0.88268 0.0174024 0.00744331 0.00165174 1.35664e-06 0 0 0 0 
598 0.0628618 0.922848 0.0110277 0.00153657 0.000849427 0.000876739 0 0 0 0 
599 0.088911 0.905269 0.00415621 0.000656871 0.000821299 0.000149725 3.58296e-05 0 0 0 
600 0.0749462 0.912609 0.00867113 0.00375647 1.75516e-05 0 0 0 0 0 
601 0.0885522 0.889132 0.0177555 0.0045601 0 0 0 0 0 0 
602 0.107156 0.888393 0.00317832 0.000502313 0.000628052 0.000114495 2.73991e-05 0 0 0 
603 0.0770299 0.896878 0.0207602 0.0053318 0 0 0 0 0 0 
604 0.075663 0.897838 0.0174024 0.00744331 0.00165174 1.35664e-06 0 0 0 0 
605 0.0894693 0.901972 0.00533426 0.00201682 0.000826597 0.000380832 0 0 0 0 
606 0.0716041 0.918531 0.00687346 0.00297769 1.39128e-05 0 0 0 0 0 
607 0.0770299 0.896878 0.0207602 0.0053318 0 0 0 0 0 0 
608 0.0835924 0.910014 0.00456598 0.000721633 0.000902272 0.000164486 3.93621e-05 0 0 0 
609 0.0714331 0.912328 0.0125315 0.0017461 0.000965258 0.000996295 0 0 0 0 
610 0.0734044 0.900888 0.016883 0.00722112 0.00160243 1.31614e-06 0 0 0 0 
611 0.103514 0.894931 0.00075908 0.000440432 0.000356357 0 0 0 0 0 
612 0.103514 0.894931 0.00075908 0.000440432 0.000356357 0 0 0 0 0 
613 0.0714331 0.912328 0.0125315 0.0017461 0.000965258 0.000996295 0 0 0 0 
614 0.0770299 0.896878 0.0207602 0.0053318 0 0 0 0 0 0 
615 0.125087 0.853713 0.0168677 0.00433209 0 0 0 0 0 0 
616 0.0823117 0.909814 0.00490752 0.00185547 0.000760469 0.000350365 0 0 0 0 
617 0.067859 0.932141 0 0 0 0 0 0 0 0 
618 0.0725321 0.910979 0.0127243 0.00177296 0.000980108 0.00101162 0 0 0 0 
619 0.0906978 0.897406 0.00828858 0.00359075 1.67772e-05 0 0 0 0 0 
620 0.0616646 0.928096 0.00713447 0.00309077 1.44412e-05 0 0 0 0 0 
621 0.0758628 0.898441 0.0204457 0.00525102 0 0 0 0 0 0 
622 0.092413 0.881495 0.0207602 0.0053318 0 0 0 0 0 0 
623 0.0795904 0.911324 0.00566253 0.00214093 0.000877464 0.000404268 0 0 0 0 
624 0.0716397 0.901759 0.022994 0.00359078 1.67772e-05 0 0 0 0 0 
625 0.0968359 0.89754 0.00350538 0.00132534 0.000543192 0.000250261 0 0 0 0 
626 0.0738106 0.913933 0.00853975 0.00369956 1.72856e-05 0 0 0 0 0 
627 0.105858 0.886666 0.00465906 0.00176153 0.000721964 0.000332625 0 0 0 0 
628 0.103514 0.894931 0.00075908 0.000440432 0.000356357 0 0 0 0 0 
629 0.0666841 0.929928 0.00241929 0.000382358 0.00047807 8.71532e-05 2.08561e-05 0 0 0 
630 0.0896681 0.884235 0.0171387 0.00733053 0.00162671 1.33609e-06 0 0 0 0 
631 0.055358 0.93545 0.00640481 0.00277467 1.29642e-05 0 0 0 0 0 
632 0.0683274 0.91614 0.0119867 0.00167018 0.000923291 0.000952978 0 0 0 0 
633 0.107571 0.891253 0.000573735 0.000332885 0.000269339 0 0 0 0 0 
634 0.0889693 0.855678 0.0355378 0.0160401 1.95752e-06 1.01701e-05 0.0037622 0 0 0 
635 0.0938167 0.891088 0.011649 0.00162313 0.000897282 0.000926133 0 0 0 0 
636 0.0769234 0.896635 0.0169276 0.00713673 0.00183788 0.000539128 0 0 0 0 
637 0.0770299 0.896878 0.0207602 0.0053318 0 0 0 0 0 0 
638 0.0628612 0.922848 0.0110277 0.00153657 0.000849427 0.000876739 0 0 0 0 
639 0.0658948 0.920186 0.0107413 0.00149666 0.000827364 0.000853967 0 0 0 0 
640 0.114031 0.868303 0.0140564 0.00361008 0 0 0 0 0 0 
641 0.0749765 0.916465 0.00533426 0.00201682 0.000826597 0.000380832 0 0 0 0 
642 0.0664026 0.918502 0.011649 0.00162313 0.000897282 0.000926133 0 0 0 0 
643 0.0539355 0.941624 0.00276741 0.00104632 0.000428836 0.000197574 0 0 0 0 
644 0.0738106 0.913933 0.00853975 0.00369956 1.72856e-05 0 0 0 0 0 
645 0.0799186 0.907322 0.00984618 0.00137193 0.000758417 0.000782803 0 0 0 0 
646 0.0587884 0.934501 0.00418258 0.00158137 0.000648127 0.000298607 0 0 0 0 
647 0.132195 0.867565 0.000180716 0 5.94272e-05 0 0 0 0 0 
648 0.0845739 0.90989 0.00395347 0.000624828 0.000781236 0.000142421 3.40819e-05 0 0 0 
649 0.114192 0.88059 0.00372626 0.000588919 0.000736337 0.000134236 3.21231e-05 0 0 0 
650 0.059465 0.933747 0.00423062 0.00159955 0.000655577 0.000302039 0 0 0 0 
651 0.11587 0.878725 0.00385934 0.000609951 0.000762635 0.00013903 3.32704e-05 0 0 0 
652 0.0913086 0.901707 0.00498746 0.000788245 0.000985559 0.00017967 4.29956e-05 0 0 0 
653 0.0783845 0.912668 0.00557673 0.00210849 0.000864169 0.000398142 0 0 0 0 
654 0.0749462 0.912609 0.00867113 0.00375647 1.75516e-05 0 0 0 0 0 
655 0.0725321 0.910979 0.0127243 0.00177296 0.000980108 0.00101162 0 0 0 0 
656 0.0894322 0.904001 0.00412234 0.00152924 0.00062676 0.000288763 0 0 0 0 
657 0.111737 0.881774 0.00404466 0.00152924 0.00062676 0.000288763 0 0 0 0 
658 0.12137 0.87827 0.000271075 0 8.91407e-05 0 0 0 0 0 
659 0.0714331 0.907985 0.0168743 0.0017461 0.000965258 0.000996295 0 0 0 0 
660 0.0954639 0.900589 0.00281901 0.00044553 0.000557055 0.000101552 2.43018e-05 0 0 0 
661 0.0640987 0.925257 0.0074161 0.00321277 1.50112e-05 0 0 0 0 0 
662 0.113653 0.88486 0.000725591 0.000421001 0.000340635 0 0 0 0 0 
663 0.0712767 0.903761 0.0163936 0.00701181 0.00155599 1.278e-06 0 0 0 0 
664 0.0964853 0.893403 0.00704531 0.00305213 1.42606e-05 0 0 0 0 0 
665 0.0716397 0.916464 0.00828859 0.00359075 1.67772e-05 0 0 0 0 0 
666 0.0984744 0.894411 0.00443451 0.00167663 0.000687171 0.000316595 0 0 0 0 
667 0.0676597 0.921105 0.0078281 0.00339126 1.58452e-05 0 0 0 0 0 
668 0.0758628 0.898441 0.0204457 0.00525102 0 0 0 0 0 0 
669 0.129223 0.870604 0.000129749 0 4.26563e-05 0 0 0 0 0 
670 0.0855618 0.905645 0.00612634 0.00265403 1.24006e-05 0 0 0 0 0 
671 0.0899252 0.903197 0.00491189 0.000776302 0.000970626 0.000176947 4.23441e-05 0 0 0 
672 0.0828406 0.888684 0.0182298 0.0076857 0.00197925 0.0005806 0 0 0 0 
673 0.0989469 0.899566 0.000725591 0.000421001 0.000340635 0 0 0 0 0 
674 0.0716397 0.916464 0.00828858 0.00359075 1.67772e-05 0 0 0 0 0 
675 0.0749462 0.912609 0.00867113 0.00375647 1.75516e-05 0 0 0 0 0 
676 0.075663 0.897838 0.0174024 0.00744331 0.00165174 1.35664e-06 0 0 0 0 
677 0.0913086 0.901707 0.00498746 0.000788245 0.000985559 0.00017967 4.29956e-05 0 0 0 
678 0.145644 0.853924 0.000325289 0 0.000106969 0 0 0 0 0 
679 0.0921697 0.906445 0.000675893 0.000392166 0.000317304 0 0 0 0 0 
680 0.135876 0.843186 0.0166594 0.00427861 0 0 0 0 0 0 
681 0.0734926 0.919477 0.00438172 0.00165667 0.00067899 0.000312826 0 0 0 0 
682 0.075663 0.897838 0.0174024 0.00744331 0.00165174 1.35664e-06 0 0 0 0 
683 0.093536 0.897516 0.00557673 0.00210849 0.000864169 0.000398142 0 0 0 0 
684 0.0795904 0.911324 0.00566253 0.00214093 0.000877464 0.000404268 0 0 0 0 
685 0.0742154 0.911865 0.0107413 0.00149666 0.000827364 0.000853967 0 0 0 0 
686 0.0845703 0.90734 0.00504199 0.00190631 0.000781304 0.000359964 0 0 0 0 
687 0.0796113 0.905503 0.0114872 0.00160059 0.00088482 0.00091327 0 0 0 0 
688 0.0913087 0.901707 0.00498746 0.000788245 0.000985559 0.00017967 4.29956e-05 0 0 0 
689 0.0782867 0.910927 0.00751498 0.00325561 1.52114e-05 0 0 0 0 0 
690 0.0808447 0.892656 0.0174024 0.00744331 0.00165174 1.35664e-06 0 0 0 0 
691 0.0889621 0.898781 0.00853975 0.00369956 1.72856e-05 0 0 0 0 0 
692 0.0857695 0.889268 0.0163936 0.00701181 0.00155599 1.278e-06 0 0 0 0 
693 0.0791459 0.913283 0.00471877 0.00178411 0.00073122 0.00033689 0 0 0 0 
694 0.088583 0.904641 0.00483858 0.000764715 0.000956139 0.000174306 4.17121e-05 0 0 0 
695 0.0523817 0.93892 0.00606048 0.00262549 1.22672e-05 0 0 0 0 0 
696 0.088828 0.898102 0.0100864 0.0014054 0.000776915 0.000801896 0 0 0 0 
697 0.0850942 0.888689 0.00816877 0.0180312 1.65341e-05 0 0 0 0 0 
698 0.101689 0.883822 0.000649222 0.0135343 0.000305037 0 0 0 0 0 
699 0.0899245 0.884006 0.0166892 0.00703621 0.00181199 0.000531535 0 0 0 0 
700 0.0960851 0.89268 0.0078281 0.00339126 1.58452e-05 0 0 0 0 0 
701 0.0752226 0.908781 0.0123445 0.00172004 0.000950851 0.000981425 0 0 0 0 
702 0.0654804 0.919634 0.0114872 0.00160059 0.00088482 0.00091327 0 0 0 0 
703 0.107544 0.884685 0.00484295 0.00183106 0.000750463 0.000345755 0 0 0 0 
704 0.0969375 0.895082 0.00497384 0.00188055 0.000770746 0.0003551 0 0 0 0 
705 0.0673513 0.917338 0.0118154 0.00164632 0.000910101 0.000939364 0 0 0 0 
706 0.0953181 0.904087 0.000290239 0.0001684 0.000136254 0 0 0 0 0 
707 0.0725321 0.910979 0.0127243 0.00177296 0.000980108 0.00101162 0 0 0 0 
708 0.0745166 0.899386 0.0171387 0.00733053 0.00162671 1.33609e-06 0 0 0 0 
709 0.0910245 0.907786 0.000580482 0.000336801 0.000272508 0 0 0 0 0 
710 0.0952931 0.877081 0.0176856 0.00745628 0.00192017 0.000563268 0 0 0 0 
711 0.0810907 0.903598 0.0118154 0.00164632 0.000910101 0.000939364 0 0 0 0 
712 0.093141 0.900144 0.00418705 0.00158137 0.000648127 0.000298607 0 0 0 0 
713 0.070367 0.913636 0.0123445 0.00172004 0.000950851 0.000981425 0 0 0 0 
714 0.0847866 0.908728 0.00463121 0.000731942 0.000915162 0.000166836 3.99245e-05 0 0 0 
715 0.0680708 0.924159 0.00484295 0.00183106 0.000750463 0.000345755 0 0 0 0 
716 0.0909223 0.907888 0.000580473 0.000336801 0.000272508 0 0 0 0 0 
717 0.137685 0.86193 0.000289641 0 9.52463e-05 0 0 0 0 0 
718 0.0554997 0.9445 0 0 0 0 0 0 0 0 
719 0.0823373 0.912934 0.00337701 0.000533707 0.000667306 0.000121651 2.91116e-05 0 0 0 
720 0.0979489 0.897371 0.00334233 0.000528205 0.000660426 0.000120397 2.88115e-05 0 0 0 
721 0.0608938 0.928994 0.00704529 0.00305213 1.42606e-05 0 0 0 0 0 
722 0.15088 0.848751 0.000278208 0 9.14865e-05 0 0 0 0 0 
723 0.0693322 0.914906 0.0121629 0.00169474 0.000936868 0.000966992 0 0 0 0 
724 0.062034 0.923801 0.0109457 0.00151635 0.000838251 0.000865203 0 0 0 0 
725 0.11058 0.883001 0.0040007 0.00151261 0.000619948 0.000285624 0 0 0 0 
726 0.0865847 0.897176 0.0125315 0.0017461 0.000965258 0.000996295 0 0 0 0 
727 0.0874536 0.901144 0.00879939 0.00122598 0.000677735 0.000699526 0 0 0 0 
728 0.0773233 0.914587 0.00504198 0.00190631 0.000781304 0.000359964 0 0 0 0 
729 0.075286 0.90364 0.0210739 0 0 0 0 0 0 0 
730 0.085165 0.888743 0.0207602 0.0053318 0 0 0 0 0 0 
731 0.075663 0.897838 0.0174024 0.00744331 0.00165174 1.35664e-06 0 0 0 0 
732 0.067991 0.927471 0.00326528 0.000502313 0.000628052 0.000114495 2.73991e-05 0 0 0 
733 0.0874613 0.90355 0.00626254 0.00271301 1.26761e-05 0 0 0 0 0 
734 0.0654804 0.919634 0.0114872 0.00160059 0.00088482 0.00091327 0 0 0 0 
735 0.0984619 0.876856 0.0158021 0.00666094 0.00171535 0.000503186 0 0 0 0 
736 0.198358 0.801304 0.000254774 0 8.37708e-05 0 0 0 0 0 
737 0.101986 0.891338 0.00476742 0.000753469 0.000942078 0.000171743 4.10987e-05 0 0 0 
738 0.075663 0.897838 0.0174024 0.00744331 0.00165174 1.35664e-06 0 0 0 0 
739 0.121878 0.854074 0.0153982 0.00648793 0.0016708 0.000490116 0 0 0 0 
740 0.108847 0.885617 0.00395347 0.000624828 0.000781236 0.000142421 3.40819e-05 0 0 0 
741 0.0714331 0.912328 0.0125315 0.0017461 0.000965258 0.000996295 0 0 0 0 
742 0.101689 0.89698 0.000649213 0.000376685 0.000304779 0 0 0 0 0 
743 0.0749462 0.912609 0.00867113 0.00375647 1.75516e-05 0 0 0 0 0 
744 0.114665 0.88378 0.00075908 0.000440432 0.000356357 0 0 0 0 0 
745 0.0840381 0.9002 0.0121629 0.00169474 0.000936868 0.000966992 0 0 0 0 
746 0.0817593 0.901752 0.0127243 0.00177296 0.000980108 0.00101162 0 0 0 0 
747 0.0888534 0.908309 0.00202616 0.000320225 0.000400383 7.29908e-05 1.7467e-05 0 0 0 
748 0.098664 0.89456 0.00483858 0.000764715 0.000956139 0.000174306 4.17121e-05 0 0 0 
749 0.151693 0.847899 0.000306432 0 0.000100768 0 0 0 0 0 
750 0.075663 0.897838 0.0174024 0.00744331 0.00165174 1.35664e-06 0 0 0 0 
751 0.0943866 0.897843 0.00484295 0.00183106 0.000750463 0.000345755 0 0 0 0 
752 0.148686 0.850697 0.000300855 0.000174562 0.000141239 0 0 0 0 0 
753 0.0795904 0.911324 0.00566253 0.00214093 0.000877464 0.000404268 0 0 0 0 
754 0.0795904 0.911324 0.00566253 0.00214093 0.000877464 0.000404268 0 0 0 0 
755 0.0815854 0.875462 0.032862 0.00756925 0.00194926 0.000571803 0 0 0 0 
756 0.0745166 0.899386 0.0171387 0.00733053 0.00162671 1.33609e-06 0 0 0 0 
757 0.0749462 0.912609 0.00867113 0.00375647 1.75516e-05 0 0 0 0 0 
758 0.0721416 0.874087 0.0345224 0.0155818 1.9016e-06 9.87957e-06 0.00365471 0 0 0 
759 0.0738106 0.913933 0.00853975 0.00369956 1.72856e-05 0 0 0 0 0 
760 0.0731619 0.920349 0.00404466 0.00152924 0.00062676 0.000288763 0 0 0 0 
761 0.0770299 0.896878 0.0207602 0.0053318 0 0 0 0 0 0 
762 0.0738106 0.913933 0.00853975 0.00369956 1.72856e-05 0 0 0 0 0 
763 0.0770299 0.896878 0.0207602 0.0053318 0 0 0 0 0 0 
764 0.0800051 0.903506 0.0127243 0.00177296 0.000980108 0.00101162 0 0 0 0 
765 0.0836545 0.890649 0.0204457 0.00525102 0 0 0 0 0 0 
766 0.116665 0.828784 0.0350228 0.0158076 1.92915e-06 1.00227e-05 0.00370768 0 0 0 
767 0.0822138 0.881562 0.0307521 0.00261442 0.00285751 0 0 0 0 0 
768 0.0770299 0.896878 0.0207602 0.0053318 0 0 0 0 0 0 
769 0.10208 0.894006 0.00279474 0.000441689 0.000552253 0.000100677 2.40924e-05 0 0 0 
770 0.0745166 0.899386 0.0171387 0.00733053 0.00162671 1.33609e-06 0 0 0 0 
771 0.103514 0.894931 0.00075908 0.000440432 0.000356357 0 0 0 0 0 
772 0.0734044 0.900888 0.0168829 0.00722112 0.00160243 1.31614e-06 0 0 0 0 
773 0.0913087 0.886323 0.0203719 0.000788256 0.000985559 0.00017967 4.29956e-05 0 0 0 
774 0.0702585 0.905135 0.0161594 0.00691164 0.00153376 1.25974e-06 0 0 0 0 
775 0.088583 0.904641 0.00483858 0.000764715 0.000956139 0.000174306 4.17121e-05 0 0 0 
776 0.105077 0.888045 0.00491189 0.000776302 0.000970626 0.000176947 4.23441e-05 0 0 0 
777 0.0734044 0.900888 0.0168829 0.00722112 0.00160243 1.31614e-06 0 0 0 0 
778 0.0647118 0.912625 0.0148836 0.00636599 0.00141267 1.16029e-06 0 0 0 0 
779 0.0772146 0.913971 0.0054935 0.00207702 0.000851271 0.0003922 0 0 0 0 
780 0.0760791 0.915237 0.00541271 0.00204648 0.000838753 0.000386432 0 0 0 0 
781 0.0745166 0.899386 0.0171387 0.00733053 0.00162671 1.33609e-06 0 0 0 0 
782 0.101251 0.894546 0.00300171 0.000474407 0.000593161 0.000108135 2.5877e-05 0 0 0 
783 0.0738106 0.913932 0.00854002 0.00369956 1.72856e-05 0 0 0 0 0 
784 0.0921789 0.881729 0.0207602 0.0053318 0 0 0 0 0 0 
785 0.124229 0.870096 0.00405231 0.000640449 0.000800767 0.000145982 3.49339e-05 0 0 0 
786 0.0695928 0.918851 0.00805176 0.00348815 1.62979e-05 0 0 0 0 0 
787 0.0793693 0.905745 0.0114872 0.00160059 0.00088482 0.00091327 0 0 0 0 
788 0.0749462 0.912609 0.00867113 0.00375647 1.75516e-05 0 0 0 0 0 
789 0.0902403 0.887444 0.0177559 0.0045601 0 0 0 0 0 0 
790 0.0989469 0.899566 0.000725591 0.000421001 0.000340635 0 0 0 0 0 
791 0.0647209 0.912615 0.0148837 0.00636599 0.00141267 1.16029e-06 0 0 0 0 
792 0.0683274 0.91614 0.0119867 0.00167018 0.000923291 0.000952978 0 0 0 0 
793 0.067637 0.925072 0.004544 0.00171803 0.000704138 0.000324412 0 0 0 0 
794 0.0686155 0.918759 0.00917063 0.00343902 1.60683e-05 0 0 0 0 0 
795 0.141438 0.858182 0.000285728 0 9.39591e-05 0 0 0 0 0 
796 0.070367 0.913636 0.0123445 0.00172004 0.000950851 0.000981425 0 0 0 0 
797 0.0638691 0.92884 0.004544 0.00171803 0.000704138 0.000324412 0 0 0 0 
798 0.0991724 0.896968 0.00240565 0.000909546 0.000372779 0.000171748 0 0 0 0 
799 0.0714331 0.912328 0.0125315 0.0017461 0.000965258 0.000996295 0 0 0 0 
800 0.101945 0.896523 0.000747579 0.000433759 0.000350957 0 0 0 0 0 
801 0.0894426 0.901999 0.00533426 0.00201682 0.000826597 0.000380832 0 0 0 0 
802 0.0854197 0.893316 0.0139649 0.00597303 0.00132547 1.08866e-06 0 0 0 0 
803 0.0749462 0.912609 0.00867113 0.00375647 1.75516e-05 0 0 0 0 0 
804 0.0913086 0.901707 0.00498746 0.000788245 0.000985559 0.00017967 4.29956e-05 0 0 0 
805 0.0706237 0.89148 0.0321714 0.00273509 0.00298939 0 0 0 0 0 
806 0.0838786 0.904565 0.00805176 0.00348815 1.62979e-05 0 0 0 0 0 
807 0.0772146 0.913971 0.0054935 0.00207702 0.000851271 0.0003922 0 0 0 0 
808 0.0795904 0.911324 0.00566253 0.00214093 0.000877464 0.000404268 0 0 0 0 
809 0.164904 0.833847 0.000609185 0.000353433 0.000285965 0 0 0 0 0 
810 0.0708682 0.921042 0.00504198 0.00190631 0.000781304 0.000359964 0 0 0 0 
811 0.0728645 0.918818 0.005184 0.00196001 0.000803312 0.000370104 0 0 0 0 
812 0.0669663 0.933034 0 0 0 0 0 0 0 0 
813 0.0899252 0.903197 0.00491189 0.000776302 0.000970626 0.000176947 4.23441e-05 0 0 0 
814 0.173459 0.826333 0.000156621 0 5.15035e-05 0 0 0 0 0 
815 0.0734044 0.900888 0.0168829 0.00722112 0.00160243 1.31614e-06 0 0 0 0 
816 0.0693322 0.914906 0.0121629 0.00169474 0.000936868 0.000966992 0 0 0 0 
817 0.075663 0.897838 0.0174024 0.00744331 0.00165174 1.35664e-06 0 0 0 0 
818 0.0592369 0.920004 0.0207593 0 0 0 0 0 0 0 
819 0.0664026 0.918502 0.011649 0.00162313 0.000897282 0.000926133 0 0 0 0 
820 0.0749462 0.912609 0.00867113 0.00375647 1.75516e-05 0 0 0 0 0 
821 0.116041 0.877807 0.00446601 0.000665402 0.000831965 0.000151669 3.6295e-05 0 0 0 
822 0.0738106 0.913933 0.00853975 0.00369956 1.72856e-05 0 0 0 0 0 
823 0.0872803 0.906016 0.00479526 0.000753469 0.000942078 0.000171743 4.10987e-05 0 0 0 
824 0.0776918 0.864401 0.037178 0.0167804 2.04787e-06 1.06395e-05 0.00393584 0 0 0 
825 0.0893349 0.89822 0.00867113 0.00375647 1.75516e-05 0 0 0 0 0 
826 0.0950009 0.89878 0.00444089 0.000701862 0.000877552 0.00015998 3.82837e-05 0 0 0 
827 0.075663 0.897838 0.0174024 0.00744331 0.00165174 1.35664e-06 0 0 0 0 
828 0.0745166 0.899386 0.0171387 0.00733053 0.00162671 1.33609e-06 0 0 0 0 
829 0.0592547 0.919993 0.0136284 0.0058291 0.00129353 1.06243e-06 0 0 0 0 
830 0.0815854 0.890371 0.0179535 0.00756925 0.00194926 0.000571803 0 0 0 0 
831 0.075663 0.897838 0.0174024 0.00744331 0.00165174 1.35664e-06 0 0 0 0 
832 0.0756631 0.897838 0.0174024 0.00744331 0.00165174 1.35664e-06 0 0 0 0 
833 0.0734044 0.900888 0.0168829 0.00722112 0.00160243 1.31614e-06 0 0 0 0 
834 0.0749462 0.912609 0.00867113 0.00375647 1.75516e-05 0 0 0 0 0 
835 0.075663 0.897838 0.0174024 0.00744331 0.00165174 1.35664e-06 0 0 0 0 
836 0.0758628 0.898441 0.0204457 0.00525102 0 0 0 0 0 0 
837 0.0725321 0.910979 0.0127243 0.00177296 0.000980108 0.00101162 0 0 0 0 
838 0.0872803 0.906044 0.00476742 0.000753469 0.000942078 0.000171743 4.10987e-05 0 0 0 
839 0.0745166 0.899386 0.0171387 0.00733053 0.00162671 1.33609e-06 0 0 0 0 
840 0.0770299 0.896878 0.0207602 0.0053318 0 0 0 0 0 0 
841 0.0706237 0.89148 0.0321714 0.00273509 0.00298939 0 0 0 0 0 
842 0.0693322 0.914906 0.0121629 0.00169474 0.000936868 0.000966992 0 0 0 0 
843 0.0793446 0.909724 0.00761653 0.0032996 1.54169e-05 0 0 0 0 0 
844 0.0601344 0.918792 0.0210739 0 0 0 0 0 0 0 
845 0.0975128 0.901022 0.000715075 0.0004149 0.000335698 0 0 0 0 0 
846 0.107447 0.871801 0.0136284 0.0058291 0.00129353 1.06243e-06 0 0 0 0 
847 0.0899671 0.903814 0.00444089 0.000701862 0.000877552 0.00015998 3.82837e-05 0 0 0 
848 0.149171 0.850634 0.000146871 0 4.82846e-05 0 0 0 0 0 
849 0.0723249 0.902345 0.0166346 0.00711493 0.00157887 1.29679e-06 0 0 0 0 
850 0.075663 0.897838 0.0174024 0.00744331 0.00165174 1.35664e-06 0 0 0 0 
851 0.0810698 0.895335 0.0154953 0.0066276 0.00147073 1.20797e-06 0 0 0 0 
852 0.0899245 0.884006 0.0166892 0.00703621 0.00181199 0.000531535 0 0 0 0 
853 0.0795904 0.911324 0.00566253 0.00214093 0.000877464 0.000404268 0 0 0 0 
854 0.0783845 0.912668 0.00557673 0.00210849 0.000864169 0.000398142 0 0 0 0 
855 0.0749462 0.912609 0.00867113 0.00375647 1.75516e-05 0 0 0 0 0 
856 0.0804315 0.908487 0.00772087 0.0033448 1.56281e-05 0 0 0 0 0 
857 0.0780929 0.915934 0.00426559 0.000674157 0.000842912 0.000153665 3.67725e-05 0 0 0 
858 0.0769234 0.896635 0.0169276 0.00713673 0.00183788 0.000539128 0 0 0 0 
859 0.0826972 0.905909 0.00793836 0.00343902 1.60683e-05 0 0 0 0 0 
860 0.0751337 0.924643 0.000167808 0 5.51824e-05 0 0 0 0 0 
861 0.0725321 0.910979 0.0127243 0.00177296 0.000980108 0.00101162 0 0 0 0 
862 0.0749765 0.916465 0.00533426 0.00201682 0.000826597 0.000380832 0 0 0 0 
863 0.0950008 0.89878 0.00444089 0.000701862 0.000877552 0.00015998 3.82837e-05 0 0 0 
864 0.0770299 0.896878 0.0207602 0.0053318 0 0 0 0 0 0 
865 0.0728645 0.918818 0.005184 0.00196001 0.000803312 0.000370104 0 0 0 0 
866 0.0645834 0.920735 0.0113299 0.00157866 0.000872699 0.00090076 0 0 0 0 
867 0.0760791 0.915237 0.00541271 0.00204648 0.000838753 0.000386432 0 0 0 0 
868 0.0921399 0.883601 0.0159318 0.0068143 0.00151216 1.242e-06 0 0 0 0 
869 0.0685155 0.89472 0.0312111 0.00265344 0.00290016 0 0 0 0 0 
870 0.0589323 0.92767 0.0103385 0.00144053 0.000796338 0.000821943 0 0 0 0 
871 0.0749462 0.912609 0.00867113 0.00375647 1.75516e-05 0 0 0 0 0 
872 0.0636625 0.930055 0.00391558 0.00148043 0.000606757 0.000279547 0 0 0 0 
873 0.0747867 0.899506 0.0164574 0.00693848 0.00178682 0.000524152 0 0 0 0 
874 0.0758628 0.898441 0.0204457 0.00525102 0 0 0 0 0 0 
875 0.0828406 0.888684 0.0182298 0.0076857 0.00197925 0.0005806 0 0 0 0 
876 0.0695536 0.893125 0.0316839 0.00269365 0.0029441 0 0 0 0 0 
877 0.098001 0.883071 0.0124303 0.00531665 0.00117981 9.69029e-07 0 0 0 0 
878 0.0990723 0.894442 0.00463121 0.000731942 0.000915162 0.000166836 3.99245e-05 0 0 0 
879 0.0968106 0.890933 0.00853975 0.00369956 1.72856e-05 0 0 0 0 0 
880 0.0829503 0.890551 0.0174024 0.00744331 0.00165174 1.35664e-06 0 0 0 0 
881 0.0828406 0.888684 0.0182298 0.0076857 0.00197925 0.0005806 0 0 0 0 
882 0.0751113 0.923811 0.000526292 0.000304554 0.000246417 0 0 0 0 0 
883 0.078282 0.907036 0.0113299 0.00157866 0.000872699 0.00090076 0 0 0 0 
884 0.0776909 0.864402 0.037178 0.0167804 2.04787e-06 1.06395e-05 0.00393584 0 0 0 
885 0.0628843 0.903372 0.0286467 0.00243535 0.00266179 0 0 0 0 0 
886 0.0734044 0.900888 0.0168829 0.00722112 0.00160243 1.31614e-06 0 0 0 0 
887 0.0795904 0.911324 0.00566253 0.00214093 0.000877464 0.000404268 0 0 0 0 
888 0.0742154 0.911865 0.0107413 0.00149666 0.000827364 0.000853967 0 0 0 0 
889 0.0888885 0.883067 0.0179535 0.00756925 0.00194926 0.000571803 0 0 0 0 
890 0.088583 0.904641 0.00483858 0.000764715 0.000956139 0.000174306 4.17121e-05 0 0 0 
891 0.0913087 0.886323 0.00498746 0.00121628 0.0159384 0.000183432 4.29956e-05 0 0 0 
892 0.0599504 0.935464 0.00327462 0.000517534 0.000647084 0.000117965 2.82294e-05 0 0 0 
893 0.078144 0.914381 0.00465904 0.00176153 0.000721964 0.000332625 0 0 0 0 
894 0.0813022 0.912479 0.00444089 0.000701862 0.000877552 0.00015998 3.82837e-05 0 0 0 
895 0.0772146 0.913971 0.0054935 0.00207702 0.000851271 0.0003922 0 0 0 0 
896 0.0714331 0.912328 0.0125315 0.0017461 0.000965258 0.000996295 0 0 0 0 
897 0.0772146 0.913971 0.0054935 0.00207702 0.000851271 0.0003922 0 0 0 0 
898 0.111761 0.881845 0.00456598 0.000721633 0.000902272 0.000164486 3.93621e-05 0 0 0 
899 0.0749462 0.912609 0.00867113 0.00375647 1.75516e-05 0 0 0 0 0 
900 0.0881911 0.903373 0.00525806 0.00198801 0.000814788 0.000375391 0 0 0 0 
901 0.0976769 0.895929 0.00456598 0.000721633 0.000902272 0.000164486 3.93621e-05 0 0 0 
902 0.0739054 0.917658 0.00525806 0.00198801 0.000814788 0.000375391 0 0 0 0 
903 0.0685594 0.923771 0.00478006 0.00180728 0.000740717 0.000341265 0 0 0 0 
904 0.074701 0.887403 0.0321714 0.00273509 0.00298939 0 0 0 0 0 
905 0.0899252 0.903197 0.00491189 0.000776302 0.000970626 0.000176947 4.23441e-05 0 0 0 
906 0.0495707 0.950429 0 0 0 0 0 0 0 0 
907 0.119567 0.879048 0.000675956 0.000392166 0.000317304 0 0 0 0 0 
908 0.111349 0.888352 0.000224934 0 7.39678e-05 0 0 0 0 0 
909 0.101945 0.896523 0.000747579 0.000433759 0.000350957 0 0 0 0 0 
910 0.0672511 0.913176 0.012854 0.0054979 0.00122004 1.00206e-06 0 0 0 0 
911 0.0725321 0.910979 0.0127243 0.00177296 0.000980108 0.00101162 0 0 0 0 
912 0.0641307 0.921386 0.0111767 0.00155733 0.000860906 0.000888587 0 0 0 0 
913 0.0776909 0.849017 0.0525625 0.0167805 2.04787e-06 1.06395e-05 0.00393584 0 0 0 
914 0.134911 0.863926 0.000567129 0.000329058 0.000266243 0 0 0 0 0 
915 0.0749462 0.912609 0.00867113 0.00375647 1.75516e-05 0 0 0 0 0 
916 0.0749462 0.912609 0.00867113 0.00375647 1.75516e-05 0 0 0 0 0 
917 0.0803678 0.892007 0.0176856 0.00745628 0.00192017 0.000563268 0 0 0 0 
918 0.0828701 0.91713 0 0 0 0 0 0 0 0 
919 0.0780383 0.895137 0.017173 0.00724016 0.00186451 0.000546942 0 0 0 0 
920 0.0765138 0.866456 0.0366147 0.0165262 2.01684e-06 1.04783e-05 0.00387621 0 0 0 
921 0.0714331 0.912328 0.0125315 0.0017461 0.000965258 0.000996295 0 0 0 0 
922 0.0835924 0.910014 0.00456598 0.000721633 0.000902272 0.000164486 3.93621e-05 0 0 0 
923 0.0725321 0.910979 0.0127243 0.00177296 0.000980108 0.00101162 0 0 0 0 
924 0.0876323 0.900294 0.00841229 0.00364434 1.70276e-05 0 0 0 0 0 
925 0.0770299 0.896878 0.0207602 0.0053318 0 0 0 0 0 0 
926 0.0872803 0.906044 0.00476742 0.000753469 0.000942078 0.000171743 4.10987e-05 0 0 0 
927 0.0702585 0.89085 0.0161783 0.0211784 0.00153376 1.25974e-06 0 0 0 0 
928 0.0770299 0.896878 0.0207602 0.0053318 0 0 0 0 0 0 
929 0.0770299 0.896878 0.0207602 0.0053318 0 0 0 0 0 0 
930 0.073264 0.912995 0.0106036 0.00147747 0.000816757 0.000843019 0 0 0 0 
931 0.0752851 0.905318 0.0166836 0.00169708 0.000695551 0.000320456 0 0 0 0 
932 0.075663 0.897838 0.0174024 0.00744331 0.00165174 1.35664e-06 0 0 0 0 
933 0.0738106 0.913933 0.00853975 0.00369956 1.72856e-05 0 0 0 0 0 
934 0.0831043 0.890804 0.0207602 0.0053318 0 0 0 0 0 0 
935 0.0714324 0.90267 0.0228385 0.00144053 0.000796338 0.000821943 0 0 0 0 
936 0.0766153 0.913638 0.00679064 0.00294182 1.37452e-05 0 0 0 0 0 
937 0.0770299 0.896878 0.0207602 0.0053318 0 0 0 0 0 0 
938 0.0770299 0.896878 0.0207602 0.0053318 0 0 0 0 0 0 
939 0.075663 0.897838 0.0174024 0.00744331 0.00165174 1.35664e-06 0 0 0 0 
940 0.0950008 0.89878 0.00444089 0.000701862 0.000877552 0.00015998 3.82837e-05 0 0 0 
941 0.0610596 0.917542 0.0213981 0 0 0 0 0 0 0 
942 0.0934121 0.892851 0.0137365 0 0 0 0 0 0 0 
943 0.0795904 0.911324 0.00566253 0.00214093 0.000877464 0.000404268 0 0 0 0 
944 0.075663 0.897838 0.0174024 0.00744331 0.00165174 1.35664e-06 0 0 0 0 
945 0.103508 0.889716 0.00483863 0.000764715 0.000956139 0.000174306 4.17121e-05 0 0 0 
946 0.0830813 0.890417 0.017405 0.00744331 0.00165174 1.35664e-06 0 0 0 0 
947 0.0725352 0.910976 0.0127243 0.00177296 0.000980108 0.00101162 0 0 0 0 
948 0.0770299 0.896878 0.0207602 0.0053318 0 0 0 0 0 0 
949 0.0899252 0.903197 0.00491189 0.000776302 0.000970626 0.000176947 4.23441e-05 0 0 0 
950 0.0876343 0.900292 0.00841229 0.00364434 1.70276e-05 0 0 0 0 0 
951 0.07584 0.884205 0.0305754 0.00703621 0.00181199 0.000531535 0 0 0 0 
952 0.075663 0.897838 0.0174024 0.00744331 0.00165174 1.35664e-06 0 0 0 0 
953 0.0802045 0.913661 0.00438087 0.000692377 0.000865694 0.000157818 3.77664e-05 0 0 0 
954 0.0948493 0.891202 0.0139479 0 0 0 0 0 0 0 
955 0.0714323 0.91517 0.0103385 0.00144053 0.000796338 0.000821943 0 0 0 0 
956 0.103514 0.894931 0.00075908 0.000440432 0.000356357 0 0 0 0 0 
957 0.065024 0.918218 0.0167575 0 0 0 0 0 0 0 
958 0.0770299 0.896878 0.0207602 0.0053318 0 0 0 0 0 0 
959 0.0725321 0.910979 0.0127243 0.00177296 0.000980108 0.00101162 0 0 0 0 
960 0.0828701 0.91713 0 0 0 0 0 0 0 0 
961 0.0795904 0.911324 0.00566253 0.00214093 0.000877464 0.000404268 0 0 0 0 
962 0.0913086 0.901707 0.00498746 0.000788245 0.000985559 0.00017967 4.29956e-05 0 0 0 
963 0.0745166 0.899386 0.0171387 0.00733053 0.00162671 1.33609e-06 0 0 0 0 
964 0.0948493 0.891202 0.0139479 0 0 0 0 0 0 0 
965 0.075663 0.897838 0.0174024 0.00744331 0.00165174 1.35664e-06 0 0 0 0 
966 0.0695536 0.879882 0.0449263 0.00269365 0.0029441 0 0 0 0 0 
967 0.092163 0.881745 0.0207602 0.0053318 0 0 0 0 0 0 
968 0.060596 0.922442 0.0169619 0 0 0 0 0 0 0 
969 0.0816419 0.903043 0.0118194 0.00164632 0.000910101 0.000939363 0 0 0 0 
970 0.0749462 0.912609 0.00867113 0.00375647 1.75516e-05 0 0 0 0 0 
971 0.096737 0.875219 0.0179535 0.00756925 0.00194926 0.000571803 0 0 0 0 
972 0.0675082 0.896245 0.0307748 0.00261442 0.00285751 0 0 0 0 0 
973 0.0956997 0.9043 0 0 0 0 0 0 0 0 
974 0.0692689 0.905055 0.017348 0.0068143 0.00151216 1.242e-06 0 0 0 0 
975 0.0749462 0.900537 0.020743 0.00375647 1.75516e-05 0 0 0 0 0 
976 0.0913086 0.901707 0.00498746 0.000788245 0.000985559 0.00017967 4.29956e-05 0 0 0 
977 0.0913086 0.901707 0.00498746 0.000788245 0.000985559 0.00017967 4.29956e-05 0 0 0 
978 0.0913086 0.901707 0.00498746 0.000788245 0.000985559 0.00017967 4.29956e-05 0 0 0 
979 0.0775004 0.91955 0.00210714 0.000332701 0.000415983 7.58346e-05 1.81475e-05 0 0 0 
980 0.0776909 0.864402 0.037178 0.0167804 2.04787e-06 1.06395e-05 0.00393584 0 0 0 
981 0.113519 0.878279 0.00511218 0.00193278 0.000792155 0.000364964 0 0 0 0 
982 0.103043 0.872016 0.0198443 0.00509658 0 0 0 0 0 0 
983 0.0685079 0.924916 0.00410393 0.00154623 0.000633724 0.000291971 0 0 0 0 
984 0.133336 0.866268 0.0002978 0 9.79293e-05 0 0 0 0 0 
985 0.0429771 0.953237 0.00235939 0.000892054 0.00036561 0.000168445 0 0 0 0 
986 0.0758628 0.898441 0.0204457 0.00525102 0 0 0 0 0 0 
987 0.0734044 0.900888 0.0168829 0.00722112 0.00160243 1.31614e-06 0 0 0 0 
988 0.0776909 0.864402 0.037178 0.0167804 2.04787e-06 1.06395e-05 0.00393584 0 0 0 
989 0.0852924 0.898711 0.0123445 0.00172004 0.000950851 0.000981425 0 0 0 0 
990 0.0730521 0.92361 0.00238371 0.000376735 0.000471039 8.58715e-05 2.05494e-05 0 0 0 
991 0.103514 0.894931 0.00075908 0.000440432 0.000356357 0 0 0 0 0 
992 0.0828201 0.901647 0.0119867 0.00167018 0.000923291 0.000952978 0 0 0 0 
993 0.0749462 0.912609 0.00867113 0.00375647 1.75516e-05 0 0 0 0 0 
994 0.0770299 0.896878 0.0207602 0.0053318 0 0 0 0 0 0 
995 0.0756635 0.897838 0.0174024 0.00744331 0.00165174 1.35664e-06 0 0 0 0 
996 0.0968765 0.878161 0.0163936 0.00701181 0.00155599 1.278e-06 0 0 0 0 
997 0.0838786 0.896222 0.0163954 0.00348815 1.62979e-05 0 0 0 0 0 
998 0.090785 0.900531 0.00541271 0.00204648 0.000838753 0.000386432 0 0 0 0 
999 0.0749462 0.912609 0.00867113 0.00375647 1.75516e-05 0 0 0 0 0 
1000 0.0952931 0.877081 0.0176856 0.00745628 0.00192017 0.000563268 0 0 0 0 
1001 0.0776909 0.864402 0.037178 0.0167804 2.04787e-06 1.06395e-05 0.00393584 0 0 0 
1002 0.070367 0.913636 0.0123445 0.00172004 0.000950851 0.000981425 0 0 0 0 
1003 0.0600404 0.926562 0.0103385 0.00144053 0.000796338 0.000821943 0 0 0 0 
1004 0.075663 0.897838 0.0174024 0.00744331 0.00165174 1.35664e-06 0 0 0 0 
1005 0.164037 0.835593 0.000278208 0 9.14865e-05 0 0 0 0 0 
1006 0.0587637 0.936742 0.00320975 0.000507286 0.000634271 0.000115629 2.76704e-05 0 0 0 
1007 0.0915822 0.885142 0.0152859 0.00653804 0.00145085 1.19164e-06 0 0 0 0 
1008 0.0723083 0.903086 0.0161594 0.00691164 0.00153376 1.25974e-06 0 0 0 0 
1009 0.0815856 0.89037 0.0179535 0.00756925 0.00194926 0.000571803 0 0 0 0 
1010 0.0801741 0.912157 0.00478006 0.00180728 0.000740717 0.000341265 0 0 0 0 
1011 0.0883498 0.897548 0.0108826 0.00151635 0.000838251 0.000865203 0 0 0 0 
1012 0.0706237 0.89148 0.0321714 0.00273509 0.00298939 0 0 0 0 0 
1013 0.0770299 0.896878 0.0207602 0.0053318 0 0 0 0 0 0 
1014 0.075663 0.897838 0.0174024 0.00744331 0.00165174 1.35664e-06 0 0 0 0 
1015 0.0883298 0.885962 0.0168829 0.00722112 0.00160243 1.31614e-06 0 0 0 0 
1016 0.0745166 0.899386 0.0171387 0.00733053 0.00162671 1.33609e-06 0 0 0 0 
1017 0.0765138 0.866456 0.0366147 0.0165262 2.01684e-06 1.04783e-05 0.00387621 0 0 0 
1018 0.0665295 0.897771 0.0303064 0.00257653 0.0028161 0 0 0 0 0 
1019 0.0725321 0.910979 0.0127243 0.00177296 0.000980108 0.00101162 0 0 0 0 
1020 0.0708682 0.921042 0.00504198 0.00190631 0.000781304 0.000359964 0 0 0 0 
1021 0.0749462 0.912609 0.00867113 0.00375647 1.75516e-05 0 0 0 0 0 
1022 0.0692689 0.906472 0.0159318 0.0068143 0.00151216 1.242e-06 0 0 0 0 
1023 0.0783845 0.912668 0.00557673 0.00210849 0.000864169 0.000398142 0 0 0 0 
1024 0.0828406 0.888684 0.0182298 0.0076857 0.00197925 0.0005806 0 0 0 0 
1025 0.103514 0.894931 0.00075908 0.000440432 0.000356357 0 0 0 0 0 
1026 0.081637 0.903041 0.0118262 0.00164632 0.000910101 0.000939364 0 0 0 0 
1027 0.0780838 0.909454 0.0096172 0.00134003 0.00074078 0.000764598 0 0 0 0 
1028 0.0896587 0.884244 0.0171387 0.00733053 0.00162671 1.33609e-06 0 0 0 0 
1029 0.0883498 0.897548 0.0108826 0.00151635 0.000838251 0.000865203 0 0 0 0 
1030 0.0916653 0.851305 0.0366147 0.0165262 2.01684e-06 1.04783e-05 0.00387621 0 0 0 
1031 0.0571598 0.939574 0.00233265 0.000368604 0.000460873 8.40182e-05 2.01059e-05 0 0 0 
1032 0.0906165 0.891905 0.00422532 0.0123317 0.000632673 0.000288763 0 0 0 0 
1033 0.0835924 0.910014 0.00456598 0.000721633 0.000902272 0.000164486 3.93621e-05 0 0 0 
1034 0.0776909 0.864402 0.037178 0.0167804 2.04787e-06 1.06395e-05 0.00393584 0 0 0 
1035 0.0973129 0.887154 0.0119867 0.00167018 0.000923291 0.000952978 0 0 0 0 
1036 0.093536 0.897516 0.00557673 0.00210849 0.000864169 0.000398142 0 0 0 0 
1037 0.105077 0.888045 0.00491189 0.000776302 0.000970626 0.000176947 4.23441e-05 0 0 0 
1038 0.0902704 0.904571 0.00368392 0.000582226 0.00072797 0.000132711 3.17581e-05 0 0 0 
1039 0.130329 0.868547 0.000548686 0.00031809 0.000257369 0 0 0 0 0 
1040 0.0614762 0.904494 0.0266394 0.00604769 0.00134204 1.10227e-06 0 0 0 0 
1041 0.0541907 0.93349 0.00950668 0.00132463 0.000732265 0.00075581 0 0 0 0 
1042 0.0725321 0.910979 0.0127243 0.00177296 0.000980108 0.00101162 0 0 0 0 
1043 0.0828406 0.888684 0.0182298 0.0076857 0.00197925 0.0005806 0 0 0 0 
1044 0.106771 0.878134 0.0116491 0.00162313 0.000897282 0.000926133 0 0 0 0 
1045 0.0761657 0.922691 0.000561304 0.000321664 0.00026026 0 0 0 0 0 
1046 0.0989469 0.899566 0.000725591 0.000421001 0.000340635 0 0 0 0 0 
1047 0.0770299 0.896878 0.0207602 0.0053318 0 0 0 0 0 0 
1048 0.0769234 0.896635 0.0169276 0.00713673 0.00183788 0.000539128 0 0 0 0 
1049 0.086086 0.900173 0.0106036 0.00147747 0.000816757 0.000843019 0 0 0 0 
1050 0.0883298 0.885962 0.0168829 0.00722112 0.00160243 1.31614e-06 0 0 0 0 
1051 0.0716397 0.916464 0.00828858 0.00359075 1.67772e-05 0 0 0 0 0 
1052 0.0686127 0.919994 0.00793836 0.00343902 1.60683e-05 0 0 0 0 0 
1053 0.0749462 0.912609 0.00867113 0.00375647 1.75516e-05 0 0 0 0 0 
1054 0.0692689 0.906472 0.0159318 0.0068143 0.00151216 1.242e-06 0 0 0 0 
1055 0.0785305 0.909024 0.00867113 0.00375647 1.75516e-05 0 0 0 0 0 
1056 0.0945345 0.87699 0.0182298 0.0076857 0.00197925 0.0005806 0 0 0 0 
1057 0.0820999 0.905455 0.00867113 0.00375647 1.75516e-05 0 0 0 0 0 
1058 0.0909283 0.899987 0.00566253 0.00214093 0.000877464 0.000404268 0 0 0 0 
1059 0.109378 0.880635 0.00695831 0.00301445 1.40846e-05 0 0 0 0 0 
1060 0.0549815 0.945019 0 0 0 0 0 0 0 0 
1061 0.0725321 0.910979 0.0127243 0.00177296 0.000980108 0.00101162 0 0 0 0 
1062 0.0749462 0.912609 0.00867113 0.00375647 1.75516e-05 0 0 0 0 0 
1063 0.0957862 0.86516 0.0162342 0.0199006 0.00240158 0.000516972 0 0 0 0 
1064 0.0734044 0.900888 0.0168829 0.00722112 0.00160243 1.31614e-06 0 0 0 0 
1065 0.0906831 0.901547 0.00484295 0.00183106 0.000750463 0.000345755 0 0 0 0 
1066 0.0865847 0.897176 0.0125315 0.0017461 0.000965258 0.000996295 0 0 0 0 
1067 0.0714331 0.912328 0.0125315 0.0017461 0.000965258 0.000996295 0 0 0 0 
1068 0.0888856 0.903816 0.00508867 0.00219974 1.02779e-05 0 0 0 0 0 
1069 0.0640987 0.925257 0.0074161 0.00321277 1.50112e-05 0 0 0 0 0 
1070 0.0857695 0.889268 0.0163936 0.00701181 0.00155599 1.278e-06 0 0 0 0 
1071 0.0695928 0.918851 0.00805176 0.00348815 1.62979e-05 0 0 0 0 0 
1072 0.0706014 0.917675 0.00816846 0.00353871 1.65341e-05 0 0 0 0 0 
1073 0.0715068 0.923024 0.00390584 0.0006173 0.000771823 0.000140705 3.36712e-05 0 0 0 
1074 0.114847 0.883822 0.000649213 0.000376685 0.000304779 0 0 0 0 0 
1075 0.0877603 0.885741 0.0174024 0.00744331 0.00165174 1.35664e-06 0 0 0 0 
1076 0.0883374 0.886722 0.0198443 0.00509658 0 0 0 0 0 0 
1077 0.116457 0.881987 0.00075908 0.000440432 0.000356357 0 0 0 0 0 
1078 0.0824442 0.894892 0.0148836 0.00636599 0.00141267 1.16029e-06 0 0 0 0 
1079 0.116457 0.881987 0.00075908 0.000440432 0.000356357 0 0 0 0 0 
1080 0.103255 0.871037 0.0168829 0.00722112 0.00160243 1.31614e-06 0 0 0 0 
1081 0.0665295 0.897771 0.0303064 0.00257653 0.0028161 0 0 0 0 0 
1082 0.0876343 0.900292 0.00841229 0.00364434 1.70276e-05 0 0 0 0 0 
1083 0.0693324 0.914906 0.0121629 0.00169474 0.000936868 0.000966992 0 0 0 0 
1084 0.0683274 0.91614 0.0119867 0.00167018 0.000923291 0.000952978 0 0 0 0 
1085 0.119632 0.874693 0.00405231 0.000640449 0.000800767 0.000145982 3.49339e-05 0 0 0 
1086 0.081637 0.903052 0.0118154 0.00164632 0.000910101 0.000939364 0 0 0 0 
1087 0.110218 0.862156 0.0176856 0.00745628 0.00192017 0.000563268 0 0 0 0 
1088 0.0714331 0.912328 0.0125315 0.0017461 0.000965258 0.000996295 0 0 0 0 
1089 0.0695536 0.893125 0.0316839 0.00269365 0.0029441 0 0 0 0 0 
1090 0.0776909 0.864402 0.037178 0.0167804 2.04787e-06 1.06395e-05 0.00393584 0 0 0 
1091 0.0745166 0.899386 0.0171387 0.00733053 0.00162671 1.33609e-06 0 0 0 0 
1092 0.0824314 0.911264 0.00450256 0.00071161 0.000889741 0.000162202 3.88154e-05 0 0 0 
1093 0.106829 0.88829 0.0034859 0.000550924 0.000688832 0.000125576 3.00507e-05 0 0 0 
1094 0.0894692 0.901972 0.00533426 0.00201682 0.000826597 0.000380832 0 0 0 0 
1095 0.094766 0.90381 0.000694932 0.000403212 0.000326242 0 0 0 0 0 
1096 0.0876343 0.900292 0.00841229 0.00364434 1.70276e-05 0 0 0 0 0 
1097 0.0770299 0.896878 0.0207602 0.0053318 0 0 0 0 0 0 
1098 0.0682739 0.92232 0.00655376 0.00283919 1.32657e-05 0 0 0 0 0 
1099 0.0708682 0.921042 0.00504198 0.00190631 0.000781304 0.000359964 0 0 0 0 
1100 0.0760791 0.915237 0.00541271 0.00204648 0.000838753 0.000386432 0 0 0 0 
1101 0.133279 0.865572 0.000560687 0.000325319 0.000263218 0 0 0 0 0 
1102 0.0795904 0.911324 0.00566253 0.00214093 0.000877464 0.000404268 0 0 0 0 
1103 0.0706237 0.89148 0.0321714 0.00273509 0.00298939 0 0 0 0 0 
1104 0.075663 0.897838 0.0174024 0.00744331 0.00165174 1.35664e-06 0 0 0 0 
1105 0.0714331 0.912328 0.0125315 0.0017461 0.000965258 0.000996295 0 0 0 0 
1106 0.0822869 0.89448 0.0184851 0.0047475 0 0 0 0 0 0 
1107 0.0828201 0.901647 0.0119867 0.00167018 0.000923291 0.000952978 0 0 0 0 
1108 0.084038 0.9002 0.0121629 0.00169474 0.000936868 0.000966992 0 0 0 0 
1109 0.075663 0.897838 0.0174024 0.00744331 0.00165174 1.35664e-06 0 0 0 0 
1110 0.0760791 0.915237 0.00541271 0.00204648 0.000838753 0.000386432 0 0 0 0 
1111 0.0706237 0.877136 0.0465158 0.00273509 0.00298939 0 0 0 0 0 
1112 0.0828406 0.888684 0.0182298 0.0076857 0.00197925 0.0005806 0 0 0 0 
1113 0.0913086 0.901707 0.00498746 0.000788245 0.000985559 0.00017967 4.29956e-05 0 0 0 
1114 0.0913086 0.901707 0.00498746 0.000788245 0.000985559 0.00017967 4.29956e-05 0 0 0 
1115 0.122663 0.856085 0.0199791 0.000502325 0.000628052 0.000114495 2.73991e-05 0 0 0 
1116 0.0749462 0.912609 0.00867113 0.00375647 1.75516e-05 0 0 0 0 0 
1117 0.0739054 0.917658 0.00525811 0.00198801 0.000814788 0.000375391 0 0 0 0 
1118 0.084926 0.90626 0.0054935 0.00207702 0.000851271 0.0003922 0 0 0 0 
1119 0.0734044 0.900888 0.0168829 0.00722112 0.00160243 1.31614e-06 0 0 0 0 
1120 0.0881911 0.903373 0.00525806 0.00198801 0.000814788 0.000375391 0 0 0 0 
1121 0.0913086 0.901707 0.00498746 0.000788245 0.000985559 0.00017967 4.29956e-05 0 0 0 
1122 0.0632662 0.926228 0.00731979 0.00317105 1.48163e-05 0 0 0 0 0 
1123 0.0903932 0.892686 0.00394756 0.0120867 0.000606759 0.000279547 0 0 0 0 
1124 0.0780929 0.915934 0.00426559 0.000674157 0.000842912 0.000153665 3.67725e-05 0 0 0 
1125 0.0834057 0.888512 0.0244724 0.00361008 0 0 0 0 0 0 
1126 0.0749765 0.901972 0.00540027 0.0164436 0.000826597 0.000380832 0 0 0 0 
1127 0.0795904 0.911324 0.00566253 0.00214093 0.000877464 0.000404268 0 0 0 0 
1128 0.145644 0.853924 0.000325289 0 0.000106969 0 0 0 0 0 
1129 0.0875068 0.903408 0.00566253 0.00214093 0.000877464 0.000404268 0 0 0 0 
1130 0.0793693 0.905745 0.0114872 0.00160059 0.00088482 0.00091327 0 0 0 0 
1131 0.0824144 0.90514 0.00867113 0.00375647 1.75516e-05 0 0 0 0 0 
1132 0.0973129 0.887154 0.0119867 0.00167018 0.000923291 0.000952978 0 0 0 0 
1133 0.0706699 0.909377 0.0158755 0.00407726 0 0 0 0 0 0 
1134 0.0913086 0.901707 0.00498746 0.000788245 0.000985559 0.00017967 4.29956e-05 0 0 0 
1135 0.0770299 0.896878 0.0207602 0.0053318 0 0 0 0 0 0 
1136 0.0725321 0.910979 0.0127243 0.00177296 0.000980108 0.00101162 0 0 0 0 
1137 0.0780383 0.895137 0.017173 0.00724016 0.00186451 0.000546942 0 0 0 0 
1138 0.0749765 0.916465 0.00533427 0.00201682 0.000826597 0.000380832 0 0 0 0 
1139 0.0869385 0.904744 0.005184 0.00196001 0.000803312 0.000370104 0 0 0 0 
1140 0.0749462 0.912609 0.00867113 0.00375647 1.75516e-05 0 0 0 0 0 
1141 0.0647118 0.899467 0.0280415 0.00636599 0.00141267 1.16029e-06 0 0 0 0 
1142 0.070367 0.913636 0.0123448 0.00172004 0.000950851 0.000981425 0 0 0 0 
1143 0.0725321 0.895605 0.0280983 0.00177319 0.000980108 0.00101162 0 0 0 0 
1144 0.0948493 0.891202 0.0139479 0 0 0 0 0 0 0 
1145 0.0823117 0.909814 0.00490752 0.00185547 0.000760469 0.000350365 0 0 0 0 
1146 0.070367 0.913636 0.0123445 0.00172004 0.000950851 0.000981425 0 0 0 0 
1147 0.0749462 0.912609 0.00867113 0.00375647 1.75516e-05 0 0 0 0 0 
1148 0.0795904 0.911324 0.00566253 0.00214093 0.000877464 0.000404268 0 0 0 0 
1149 0.0749462 0.912609 0.00867113 0.00375647 1.75516e-05 0 0 0 0 0 
1150 0.0592369 0.920004 0.0207593 0 0 0 0 0 0 0 
1151 0.088583 0.904641 0.00483858 0.000764715 0.000956139 0.000174306 4.17121e-05 0 0 0 
1152 0.0989469 0.899566 0.000725591 0.000421001 0.000340635 0 0 0 0 0 
1153 0.075663 0.897838 0.0174024 0.00744331 0.00165174 1.35664e-06 0 0 0 0 
1154 0.0770299 0.896878 0.0207602 0.0053318 0 0 0 0 0 0 
1155 0.088197 0.903367 0.00525806 0.00198801 0.000814788 0.000375391 0 0 0 0 
1156 0.120874 0.878074 0.000601406 0.00024894 0.000201419 0 0 0 0 0 
1157 0.0872803 0.906044 0.00476744 0.000753469 0.000942078 0.000171743 4.10987e-05 0 0 0 
1158 0.0725321 0.895594 0.0281086 0.00177296 0.000980108 0.00101162 0 0 0 0 
1159 0.0865847 0.897176 0.0125315 0.0017461 0.000965258 0.000996295 0 0 0 0 
1160 0.0899252 0.903197 0.00491189 0.000776302 0.000970626 0.000176947 4.23441e-05 0 0 0 
1161 0.103514 0.894931 0.00075908 0.000440432 0.000356357 0 0 0 0 0 
1162 0.0749462 0.912609 0.00867113 0.00375647 1.75516e-05 0 0 0 0 0 
1163 0.0795904 0.911324 0.00566253 0.00214093 0.000877464 0.000404268 0 0 0 0 
1164 0.108042 0.865134 0.017173 0.00724016 0.00186451 0.000546942 0 0 0 0 
1165 0.0770299 0.896878 0.0207602 0.0053318 0 0 0 0 0 0 
1166 0.0738106 0.913933 0.00853975 0.00369956 1.72856e-05 0 0 0 0 0 
1167 0.0950008 0.89878 0.00444089 0.000701862 0.000877552 0.00015998 3.82837e-05 0 0 0 
1168 0.0867213 0.887949 0.0166346 0.00711493 0.00157887 1.29679e-06 0 0 0 0 
1169 0.0920179 0.89445 0.0135315 0 0 0 0 0 0 0 
1170 0.0745166 0.899386 0.0171387 0.00733053 0.00162671 1.33609e-06 0 0 0 0 
1171 0.0714331 0.912328 0.0125315 0.0017461 0.000965258 0.000996295 0 0 0 0 
1172 0.0712767 0.903761 0.0163936 0.00701181 0.00155599 1.278e-06 0 0 0 0 
1173 0.0745166 0.899386 0.0171387 0.00733053 0.00162671 1.33609e-06 0 0 0 0 
1174 0.0714331 0.897176 0.0276828 0.0017461 0.000965258 0.000996295 0 0 0 0 
1175 0.088583 0.904641 0.00483858 0.000764715 0.000956139 0.000174306 4.17121e-05 0 0 0 
1176 0.0987728 0.899879 0.000657869 0.000381708 0.000308842 0 0 0 0 0 
1177 0.0725321 0.910979 0.0127243 0.00177296 0.000980108 0.00101162 0 0 0 0 
1178 0.0783845 0.912668 0.00557673 0.00210849 0.000864169 0.000398142 0 0 0 0 
1179 0.113102 0.881152 0.0041036 0.000648556 0.000810903 0.000147829 3.53761e-05 0 0 0 
1180 0.0795904 0.911324 0.00566253 0.00214093 0.000877464 0.000404268 0 0 0 0 
1181 0.0795904 0.911324 0.00566253 0.00214093 0.000877464 0.000404268 0 0 0 0 
1182 0.0707983 0.917807 0.00793948 0.00343902 1.60683e-05 0 0 0 0 0 
1183 0.0780929 0.90284 0.0173593 0.000674157 0.000842912 0.000153665 3.67725e-05 0 0 0 
1184 0.0783409 0.897431 0.0192774 0.00495096 0 0 0 0 0 0 
1185 0.0727089 0.915217 0.00841229 0.00364434 1.70276e-05 0 0 0 0 0 
1186 0.0772427 0.894758 0.0246925 0.00155733 0.000860906 0.000888587 0 0 0 0 
1187 0.075663 0.897838 0.0174024 0.00744331 0.00165174 1.35664e-06 0 0 0 0 
1188 0.0749462 0.912609 0.00867113 0.00375647 1.75516e-05 0 0 0 0 0 
1189 0.0770299 0.896878 0.0207602 0.0053318 0 0 0 0 0 0 
1190 0.0913086 0.901707 0.00498746 0.000788245 0.000985559 0.00017967 4.29956e-05 0 0 0 
1191 0.0725321 0.910979 0.0127243 0.00177296 0.000980108 0.00101162 0 0 0 0 
1192 0.0815854 0.890371 0.0179535 0.00756925 0.00194926 0.000571803 0 0 0 0 
1193 0.0833534 0.892387 0.0159319 0.0068143 0.00151216 1.242e-06 0 0 0 0 
1194 0.0717952 0.903526 0.0157991 0.00666094 0.00171535 0.000503186 0 0 0 0 
1195 0.0725321 0.910979 0.0127243 0.00177296 0.000980108 0.00101162 0 0 0 0 
1196 0.0487603 0.935291 0.0104737 0.00447977 0.000994103 8.16497e-07 0 0 0 0 
1197 0.0783845 0.912668 0.00557673 0.00210849 0.000864169 0.000398142 0 0 0 0 
1198 0.078282 0.907036 0.0113299 0.00157866 0.000872699 0.00090076 0 0 0 0 
1199 0.0738106 0.913933 0.00853975 0.00369956 1.72856e-05 0 0 0 0 0 
1200 0.0714331 0.912328 0.0125315 0.0017461 0.000965258 0.000996295 0 0 0 0 
1201 0.0869513 0.904731 0.005184 0.00196001 0.000803312 0.000370104 0 0 0 0 
1202 0.0795904 0.911324 0.00566253 0.00214093 0.000877464 0.000404268 0 0 0 0 
1203 0.0802035 0.913662 0.00438087 0.000692377 0.000865694 0.000157818 3.77664e-05 0 0 0 
1204 0.0899252 0.903197 0.00491189 0.000776302 0.000970626 0.000176947 4.23441e-05 0 0 0 
1205 0.075663 0.897838 0.0174024 0.00744331 0.00165174 1.35664e-06 0 0 0 0 
1206 0.0725321 0.910979 0.0127243 0.00177296 0.000980108 0.00101162 0 0 0 0 
1207 0.112006 0.886529 0.000715075 0.0004149 0.000335698 0 0 0 0 0 
1208 0.0758628 0.89844 0.0204457 0.00525102 0 0 0 0 0 0 
1209 0.0772146 0.913971 0.00549351 0.00207702 0.000851271 0.0003922 0 0 0 0 
1210 0.0673712 0.909034 0.0154953 0.0066276 0.00147073 1.20797e-06 0 0 0 0 
1211 0.0732728 0.92112 0.00400564 0.000632542 0.000790881 0.000144179 3.45026e-05 0 0 0 
1212 0.117951 0.880682 0.000666987 0.000386866 0.000313016 0 0 0 0 0 
1213 0.105491 0.885825 0.00541271 0.00204648 0.000838753 0.000386432 0 0 0 0 
1214 0.0728647 0.918818 0.005184 0.00196001 0.000803312 0.000370104 0 0 0 0 
1215 0.070367 0.913636 0.0123445 0.00172004 0.000950851 0.000981425 0 0 0 0 
1216 0.0715277 0.904244 0.0192774 0.00495096 0 0 0 0 0 0 
1217 0.0780122 0.899962 0.0175249 0.00450087 0 0 0 0 0 0 
1218 0.0956028 0.898928 0.00390584 0.0006173 0.000771823 0.000140705 3.36712e-05 0 0 0 
1219 0.103639 0.891681 0.00334211 0.000528205 0.000660426 0.000120397 2.88115e-05 0 0 0 
1220 0.088583 0.904641 0.00483858 0.000764715 0.000956139 0.000174306 4.17121e-05 0 0 0 
1221 0.0916653 0.851305 0.0366147 0.0165262 2.01684e-06 1.04783e-05 0.00387621 0 0 0 
1222 0.0683069 0.907771 0.0157105 0.00671965 0.00149115 1.22475e-06 0 0 0 0 
1223 0.0725321 0.910979 0.0127243 0.00177296 0.000980108 0.00101162 0 0 0 0 
1224 0.075663 0.897838 0.0174024 0.00744331 0.00165174 1.35664e-06 0 0 0 0 
1225 0.0716397 0.916464 0.00828858 0.00359075 1.67772e-05 0 0 0 0 0 
1226 0.088583 0.904641 0.00483858 0.000764715 0.000956139 0.000174306 4.17121e-05 0 0 0 
1227 0.0889186 0.904306 0.00483858 0.000764715 0.000956139 0.000174306 4.17121e-05 0 0 0 
1228 0.106879 0.892898 0.000167808 0 5.51824e-05 0 0 0 0 0 
1229 0.088583 0.904632 0.00484785 0.000764715 0.000956139 0.000174306 4.17121e-05 0 0 0 
1230 0.0664026 0.918502 0.011649 0.00162313 0.000897282 0.000926133 0 0 0 0 
1231 0.07584 0.898091 0.0166892 0.00703621 0.00181199 0.000531535 0 0 0 0 
1232 0.0780383 0.895137 0.017173 0.00724016 0.00186451 0.000546942 0 0 0 0 
1233 0.0711729 0.834498 0.062989 0.0277245 1.87481e-06 9.74042e-06 0.00360324 0 0 0 
1234 0.0596783 0.926755 0.0104694 0.00145877 0.000806418 0.000832347 0 0 0 0 
1235 0.0654804 0.919634 0.0114872 0.00160059 0.00088482 0.00091327 0 0 0 0 
1236 0.0721719 0.894628 0.0137969 0.018093 0.00130931 1.07539e-06 0 0 0 0 
1237 0.0770299 0.896878 0.0207602 0.0053318 0 0 0 0 0 0 
1238 0.108314 0.887006 0.00334211 0.000528205 0.000660426 0.000120397 2.88115e-05 0 0 0 
1239 0.0747305 0.899956 0.0201405 0.00517265 0 0 0 0 0 0 
1240 0.106372 0.882697 0.00761653 0.0032996 1.54169e-05 0 0 0 0 0 
1241 0.0705696 0.905501 0.0190483 0.00488123 0 0 0 0 0 0 
1242 0.0685155 0.89472 0.0312112 0.00265344 0.00290016 0 0 0 0 0 
1243 0.0886935 0.876404 0.0273225 0.00620276 0.00137645 1.13053e-06 0 0 0 0 
1244 0.081637 0.888807 0.0260607 0.00164632 0.000910101 0.000939364 0 0 0 0 
1245 0.0725321 0.910979 0.0127243 0.00177296 0.000980108 0.00101162 0 0 0 0 
1246 0.134251 0.862529 0.00229919 0.000363375 0.000454336 8.28264e-05 1.98207e-05 0 0 0 
1247 0.100907 0.891564 0.0047824 0.00171803 0.000704138 0.000324412 0 0 0 0 
1248 0.0702585 0.905135 0.0161594 0.00691164 0.00153376 1.25974e-06 0 0 0 0 
1249 0.0948493 0.891202 0.0139479 0 0 0 0 0 0 0 
1250 0.088583 0.889716 0.0197635 0.000764727 0.000956139 0.000174306 4.17121e-05 0 0 0 
1251 0.0706237 0.89148 0.0321714 0.00273509 0.00298939 0 0 0 0 0 
1252 0.0770299 0.896878 0.0207602 0.0053318 0 0 0 0 0 0 
1253 0.0784115 0.909515 0.00841229 0.00364434 1.70276e-05 0 0 0 0 0 
1254 0.074915 0.91385 0.0078281 0.00339126 1.58452e-05 0 0 0 0 0 
1255 0.0772146 0.913971 0.0054935 0.00207702 0.000851271 0.0003922 0 0 0 0 
1256 0.0959855 0.880782 0.0184851 0.0047475 0 0 0 0 0 0 
1257 0.145644 0.853924 0.000325289 0 0.000106969 0 0 0 0 0 
1258 0.111509 0.884577 0.0027947 0.000441689 0.000552253 0.000100677 2.40923e-05 0 0 0 
1259 0.0725321 0.910979 0.0127243 0.00177296 0.000980108 0.00101162 0 0 0 0 
1260 0.0887247 0.896985 0.0110277 0.00153657 0.000849427 0.000876739 0 0 0 0 
1261 0.0714332 0.897214 0.0276454 0.0017461 0.000965258 0.000996295 0 0 0 0 
1262 0.0905121 0.898407 0.00772087 0.0033448 1.56281e-05 0 0 0 0 0 
1263 0.0706237 0.89148 0.0321714 0.00273509 0.00298939 0 0 0 0 0 
1264 0.0745166 0.899386 0.0171387 0.00733053 0.00162671 1.33609e-06 0 0 0 0 
1265 0.0725321 0.910979 0.0127243 0.00177296 0.000980108 0.00101162 0 0 0 0 
1266 0.0770299 0.896878 0.0207602 0.0053318 0 0 0 0 0 0 
1267 0.083002 0.860819 0.0360682 0.0162795 1.98674e-06 1.03219e-05 0.00381835 0 0 0 
1268 0.075663 0.897838 0.0174024 0.00744331 0.00165174 1.35664e-06 0 0 0 0 
1269 0.0728645 0.918818 0.005184 0.00196001 0.000803312 0.000370104 0 0 0 0 
1270 0.0610596 0.917542 0.0213981 0 0 0 0 0 0 0 
1271 0.066247 0.926049 0.00536813 0.00232544 1.08653e-05 0 0 0 0 0 
1272 0.0723253 0.902345 0.0166346 0.00711493 0.00157887 1.29679e-06 0 0 0 0 
1273 0.132648 0.867206 0.000110133 0 3.62134e-05 0 0 0 0 0 
1274 0.0765138 0.866456 0.0366147 0.0165262 2.01684e-06 1.04783e-05 0.00387621 0 0 0 
1275 0.0863456 0.901758 0.00828858 0.00359075 1.67772e-05 0 0 0 0 0 
1276 0.0858833 0.889154 0.0163936 0.00701181 0.00155599 1.278e-06 0 0 0 0 
1277 0.075663 0.897838 0.0174024 0.00744331 0.00165174 1.35664e-06 0 0 0 0 
1278 0.000613442 0.858806 0.14058 0 0 0 0 0 0 0 
1279 0.0913086 0.901707 0.00498746 0.000788245 0.000985559 0.00017967 4.29956e-05 0 0 0 
1280 0.0721416 0.874087 0.0345224 0.0155818 1.9016e-06 9.87957e-06 0.00365471 0 0 0 
1281 0.0777741 0.905737 0.0127243 0.00177296 0.000980108 0.00101162 0 0 0 0 
1282 0.0832443 0.891048 0.0168829 0.00722112 0.00160243 1.31614e-06 0 0 0 0 
1283 0.0695536 0.893125 0.0316839 0.00269365 0.0029441 0 0 0 0 0 
1284 0.101767 0.892387 0.00418216 0.000656871 0.000821299 0.000149725 3.58296e-05 0 0 0 
1285 0.0714318 0.917166 0.00879872 0.00122598 0.000677735 0.000699526 0 0 0 0 
1286 0.0783845 0.912668 0.00557673 0.00210849 0.000864169 0.000398142 0 0 0 0 
1287 0.0706237 0.89148 0.0321714 0.00273509 0.00298939 0 0 0 0 0 
1288 0.0758628 0.898441 0.0204457 0.00525102 0 0 0 0 0 0 
1289 0.0758628 0.898441 0.0204457 0.00525102 0 0 0 0 0 0 
1290 0.0937228 0.899247 0.00438172 0.00165667 0.00067899 0.000312826 0 0 0 0 
1291 0.0840704 0.890222 0.0168829 0.00722112 0.00160243 1.31614e-06 0 0 0 0 
1292 0.06545 0.913152 0.0213981 0 0 0 0 0 0 0 
1293 0.0815854 0.890371 0.0179535 0.00756925 0.00194926 0.000571803 0 0 0 0 
1294 0.0727089 0.915217 0.00841229 0.00364434 1.70276e-05 0 0 0 0 0 
1295 0.0822138 0.881562 0.0307521 0.00261442 0.00285751 0 0 0 0 0 
1296 0.08097 0.904643 0.0130623 0.000522816 0.000653687 0.000119169 2.85175e-05 0 0 0 
1297 0.0679914 0.927558 0.00317828 0.000502313 0.000628052 0.000114495 2.73991e-05 0 0 0 
1298 0.101945 0.896523 0.000747579 0.000433759 0.000350957 0 0 0 0 0 
1299 0.0760791 0.915237 0.00541271 0.00204648 0.000838753 0.000386432 0 0 0 0 
1300 0.0913086 0.901707 0.00498746 0.000788245 0.000985559 0.00017967 4.29956e-05 0 0 0 
1301 0.0725321 0.910979 0.0127243 0.00177296 0.000980108 0.00101162 0 0 0 0 
1302 0.0760791 0.915237 0.00541271 0.00204648 0.000838753 0.000386432 0 0 0 0 
1303 0.0749462 0.912609 0.00867114 0.00375647 1.75516e-05 0 0 0 0 0 
1304 0.0760791 0.915237 0.00541272 0.00204648 0.000838753 0.000386432 0 0 0 0 
1305 0.0673437 0.904112 0.0251458 0.00160059 0.00088482 0.00091327 0 0 0 0 
1306 0.0683274 0.91614 0.0119867 0.00167018 0.000923291 0.000952978 0 0 0 0 
1307 0.0899252 0.903197 0.00491189 0.000776302 0.000970626 0.000176947 4.23441e-05 0 0 0 
1308 0.0708393 0.907135 0.0175249 0.00450087 0 0 0 0 0 0 
1309 0.0895288 0.896178 0.0110304 0.00153657 0.000849427 0.000876739 0 0 0 0 
1310 0.0758628 0.89844 0.020446 0.00525102 0 0 0 0 0 0 
1311 0.0844155 0.910755 0.00344877 0.000545063 0.000681504 0.00012424 2.9731e-05 0 0 0 
1312 0.179396 0.819505 0.000536332 0.000311175 0.000251774 0 0 0 0 0 
1313 0.0693322 0.914906 0.0121629 0.00169474 0.000936868 0.000966992 0 0 0 0 
1314 0.0772146 0.913971 0.0054935 0.00207702 0.000851271 0.0003922 0 0 0 0 
1315 0.141296 0.858285 0.000315579 0 0.000103776 0 0 0 0 0 
1316 0.0916322 0.903782 0.00327459 0.000517534 0.000647084 0.000117965 2.82294e-05 0 0 0 
1317 0.0747305 0.899956 0.0201405 0.00517265 0 0 0 0 0 0 
1318 0.0899252 0.903197 0.00491189 0.000776302 0.000970626 0.000176947 4.23441e-05 0 0 0 
1319 0.08833 0.885962 0.0168829 0.00722112 0.00160243 1.31614e-06 0 0 0 0 
1320 0.15393 0.845657 0.000310938 0 0.00010225 0 0 0 0 0 
1321 0.0714331 0.912328 0.0125315 0.0017461 0.000965258 0.000996295 0 0 0 0 
1322 0.0686127 0.919994 0.00793836 0.00343902 1.60683e-05 0 0 0 0 0 
1323 0.0800926 0.897294 0.0179922 0.0046209 0 0 0 0 0 0 
1324 0.0695536 0.893125 0.0316839 0.00269365 0.0029441 0 0 0 0 0 
1325 0.0776909 0.864402 0.037178 0.0167804 2.04787e-06 1.06395e-05 0.00393584 0 0 0 
1326 0.0770299 0.896878 0.0207602 0.0053318 0 0 0 0 0 0 
1327 0.0771672 0.915451 0.0046008 0.00173951 0.00071294 0.000328467 0 0 0 0 
1328 0.0965236 0.878514 0.0163936 0.00701181 0.00155599 1.278e-06 0 0 0 0 
1329 0.117748 0.880866 0.000675893 0.000392166 0.000317304 0 0 0 0 0 
1330 0.0747305 0.899956 0.0201405 0.00517265 0 0 0 0 0 0 
1331 0.0874341 0.903481 0.00566253 0.00214093 0.000877464 0.000404268 0 0 0 0 
1332 0.0832039 0.890297 0.0174024 0.00744331 0.00165174 1.35664e-06 0 0 0 0 
1333 0.0835924 0.910014 0.00456598 0.000721633 0.000902272 0.000164486 3.93621e-05 0 0 0 
1334 0.0795904 0.911324 0.00566253 0.00214093 0.000877464 0.000404268 0 0 0 0 
1335 0.0772147 0.913971 0.0054935 0.00207702 0.000851271 0.0003922 0 0 0 0 
1336 0.0896559 0.885031 0.0201405 0.00517265 0 0 0 0 0 0 
1337 0.075663 0.897838 0.0174024 0.00744331 0.00165174 1.35664e-06 0 0 0 0 
1338 0.0818661 0.862781 0.0355378 0.0160401 1.95752e-06 1.01701e-05 0.0037622 0 0 0 
1339 0.103514 0.894931 0.00075908 0.000440432 0.000356357 0 0 0 0 0 
1340 0.0880793 0.903484 0.00525806 0.00198801 0.000814788 0.000375391 0 0 0 0 
1341 0.0835924 0.910014 0.00456598 0.000721633 0.000902272 0.000164486 3.93621e-05 0 0 0 
1342 0.0714331 0.912328 0.0125315 0.0017461 0.000965258 0.000996295 0 0 0 0 
1343 0.0749462 0.912609 0.00867113 0.00375647 1.75516e-05 0 0 0 0 0 
1344 0.0683274 0.91614 0.0119867 0.00167018 0.000923291 0.000952978 0 0 0 0 
1345 0.0783845 0.912668 0.00557673 0.00210849 0.000864169 0.000398142 0 0 0 0 
1346 0.0834225 0.908597 0.00497384 0.00188055 0.000770746 0.0003551 0 0 0 0 
1347 0.0815486 0.907216 0.0078281 0.00339126 1.58452e-05 0 0 0 0 0 
1348 0.0736315 0.901428 0.0198443 0.00509658 0 0 0 0 0 0 
1349 0.0645835 0.917188 0.0148762 0.00157866 0.000872699 0.00090076 0 0 0 0 
1350 0.0725321 0.910979 0.0127243 0.00177296 0.000980108 0.00101162 0 0 0 0 
1351 0.083879 0.891371 0.0212459 0.00348815 1.62979e-05 0 0 0 0 0 
1352 0.0738106 0.913933 0.00853975 0.00369956 1.72856e-05 0 0 0 0 0 
1353 0.0706237 0.89148 0.0321714 0.00273509 0.00298939 0 0 0 0 0 
1354 0.0712767 0.903761 0.0163936 0.00701181 0.00155599 1.278e-06 0 0 0 0 
1355 0.088583 0.904641 0.00483858 0.000764715 0.000956139 0.000174306 4.17121e-05 0 0 0 
1356 0.0772146 0.913971 0.0054935 0.00207702 0.000851271 0.0003922 0 0 0 0 
1357 0.094465 0.888235 0.0157551 0.000609951 0.000762635 0.00013903 3.32704e-05 0 0 0 
1358 0.0810223 0.870081 0.0435039 0.00257653 0.0028161 0 0 0 0 0 
1359 0.0815854 0.890371 0.0179535 0.00756925 0.00194926 0.000571803 0 0 0 0 
1360 0.0753718 0.868449 0.0360682 0.0162795 1.98674e-06 1.03219e-05 0.00381835 0 0 0 
1361 0.0604435 0.925816 0.0106036 0.00147747 0.000816757 0.000843019 0 0 0 0 
1362 0.0860845 0.900175 0.0106036 0.00147747 0.000816757 0.000843019 0 0 0 0 
1363 0.0758628 0.898441 0.0204457 0.00525102 0 0 0 0 0 0 
1364 0.0770299 0.896878 0.0207602 0.0053318 0 0 0 0 0 0 
1365 0.0764589 0.922392 0.000560684 0.000325319 0.000263218 0 0 0 0 0 
1366 0.0889621 0.898781 0.00853975 0.00369956 1.72856e-05 0 0 0 0 0 
1367 0.0764082 0.912036 0.00805176 0.00348815 1.62979e-05 0 0 0 0 0 
1368 0.101945 0.896523 0.000747579 0.000433759 0.000350957 0 0 0 0 0 
1369 0.0689784 0.923148 0.00490752 0.00185547 0.000760469 0.000350365 0 0 0 0 
1370 0.0950008 0.89878 0.00444089 0.000701862 0.000877552 0.00015998 3.82837e-05 0 0 0 
1371 0.0867176 0.88087 0.0275169 0.00233922 0.00255672 0 0 0 0 0 
