1 4 100 4 1
2 7 100 4 1
3 8 100 4 1
4 9 100 4 1
3 0 100 5 1
1 1 100 5 1
2 2 100 5 1
3 3 100 5 1
3 4 100 5 0.650041
4 4 100 5 0.349959
4 5 100 5 1
2 6 100 5 0.25489
4 6 100 5 0.235332
5 6 100 5 0.509778
3 7 100 5 0.499937
5 7 100 5 0.500063
4 8 100 5 1
5 9 100 5 1
2 0 100 6 0.00994403
4 0 100 6 0.990056
1 1 100 6 1
2 2 100 6 1
3 3 100 6 1
4 4 100 6 1
3 5 100 6 0.333333
5 5 100 6 0.666667
4 6 100 6 1
3 7 100 6 0.248693
4 7 100 6 0.000202819
6 7 100 6 0.751104
4 8 100 6 1
3 9 100 6 0.44934
5 9 100 6 0.55066
4 10 100 6 0.5
6 10 100 6 0.5
5 11 100 6 1
6 12 100 6 1
2 0 100 7 5.82017e-05
3 0 100 7 0.000383227
4 0 100 7 0.000497729
5 0 100 7 0.999061
1 1 100 7 1
2 2 100 7 0.999999
4 2 100 7 1.47283e-06
3 3 100 7 1
4 4 100 7 0.881173
5 4 100 7 0.118827
5 5 100 7 0.740231
6 5 100 7 0.259769
3 6 100 7 0.125345
6 6 100 7 0.623965
7 6 100 7 0.25069
4 7 100 7 0.613044
7 7 100 7 0.386956
5 8 100 7 1
2 9 100 7 9.0592e-05
6 9 100 7 0.674358
7 9 100 7 0.325552
7 10 100 7 1
7 15 100 7 1
1 0 100 8 0.0216194
2 0 100 8 0.00039315
3 0 100 8 3.09923e-05
4 0 100 8 5.3016e-05
5 0 100 8 2.98896e-05
6 0 100 8 0.977868
7 0 100 8 6.00325e-06
1 1 100 8 0.899599
2 1 100 8 0.100401
2 2 100 8 0.750027
3 2 100 8 0.125005
5 2 100 8 0.124968
2 3 100 8 0.150811
3 3 100 8 0.691731
4 3 100 8 0.150811
6 3 100 8 0.00322421
7 3 100 8 0.00342236
3 4 100 8 0.227811
4 4 100 8 0.54353
5 4 100 8 0.227811
6 4 100 8 0.000838434
7 4 100 8 1.03215e-05
3 5 100 8 0.220361
4 5 100 8 0.311839
5 5 100 8 0.311855
6 5 100 8 0.155938
7 5 100 8 7.57439e-06
2 6 100 8 0.103981
4 6 100 8 0.271916
5 6 100 8 0.208036
6 6 100 8 0.20803
7 6 100 8 0.208037
3 7 100 8 0.126834
5 7 100 8 0.380503
6 7 100 8 0.126837
7 7 100 8 0.112151
8 7 100 8 0.253674
4 8 100 8 0.167293
5 8 100 8 4.81568e-05
6 8 100 8 0.501885
7 8 100 8 0.330774
7 9 100 8 0.629186
8 9 100 8 0.370814
8 10 100 8 1
7 11 100 8 1
8 12 100 8 1
7 13 100 8 1
2 16 100 8 1
3 17 100 8 1
4 18 100 8 1
5 19 100 8 1
6 20 100 8 1
7 21 100 8 1
7 26 100 8 1
8 28 100 8 1
1 0 100 9 1.69351e-05
2 0 100 9 0.000298361
3 0 100 9 0.00424917
4 0 100 9 0.00509088
5 0 100 9 0.220378
6 0 100 9 0.00014347
7 0 100 9 0.769823
1 1 100 9 1
2 2 100 9 1
2 3 100 9 9.14704e-07
3 3 100 9 0.999974
4 3 100 9 2.11961e-05
5 3 100 9 4.14197e-06
2 4 100 9 0.247192
3 4 100 9 3.21852e-06
4 4 100 9 0.752373
5 4 100 9 0.000432657
2 5 100 9 0.0408426
3 5 100 9 0.239282
4 5 100 9 0.079769
5 5 100 9 0.640107
2 6 100 9 1.45185e-06
3 6 100 9 1.43017e-05
4 6 100 9 0.28389
5 6 100 9 0.198347
6 6 100 9 0.517748
3 7 100 9 0.125037
5 7 100 9 0.18756
6 7 100 9 0.187562
7 7 100 9 0.374799
8 7 100 9 0.125042
2 8 100 9 0.0284469
3 8 100 9 0.0579815
4 8 100 9 0.183935
6 8 100 9 0.174902
7 8 100 9 0.174904
8 8 100 9 0.263228
9 8 100 9 0.116603
3 9 100 9 0.0690298
5 9 100 9 0.207107
6 9 100 9 0.0690371
7 9 100 9 0.207113
8 9 100 9 0.240601
9 9 100 9 0.207113
4 10 100 9 0.0909095
6 10 100 9 0.272724
7 10 100 9 0.0909095
8 10 100 9 0.181819
9 10 100 9 0.363638
1 11 100 9 0.0131665
3 11 100 9 0.0011656
4 11 100 9 6.76162e-06
5 11 100 9 0.141072
7 11 100 9 0.421369
8 11 100 9 0.141077
9 11 100 9 0.282143
2 12 100 9 0.0738846
4 12 100 9 1.9627e-05
5 12 100 9 3.21379e-07
6 12 100 9 0.132291
8 12 100 9 0.529223
9 12 100 9 0.264581
7 13 100 9 0.2
9 13 100 9 0.8
8 14 100 9 1
9 15 100 9 1
2 0 100 10 0.0140316
3 0 100 10 0.00042661
4 0 100 10 0.000252009
5 0 100 10 0.977828
6 0 100 10 0.000680389
7 0 100 10 0.00641433
8 0 100 10 0.000327504
9 0 100 10 3.97658e-05
1 1 100 10 0.923333
2 1 100 10 0.0766675
2 2 100 10 0.870137
3 2 100 10 0.0870147
7 2 100 10 0.042848
1 3 100 10 0.0453656
3 3 100 10 0.818538
4 3 100 10 0.0907311
8 3 100 10 0.0453656
2 4 100 10 0.0476208
4 4 100 10 0.761904
5 4 100 10 0.0952379
6 4 100 10 0.0476167
9 4 100 10 0.0476208
3 5 100 10 0.0551074
5 5 100 10 0.724458
6 5 100 10 0.165328
7 5 100 10 0.0551061
3 6 100 10 0.0888789
4 6 100 10 0.0535846
6 6 100 10 0.589111
7 6 100 10 0.214869
8 6 100 10 0.0535562
4 7 100 10 0.146766
5 7 100 10 0.119406
7 7 100 10 0.440298
8 7 100 10 0.244608
9 7 100 10 0.048922
2 8 100 10 0.0476214
5 8 100 10 0.190436
6 8 100 10 0.190484
8 8 100 10 0.333349
9 8 100 10 0.238109
3 9 100 10 0.0488704
5 9 100 10 0.0438911
6 9 100 10 0.24435
7 9 100 10 0.146611
9 9 100 10 0.271924
10 9 100 10 0.244353
4 10 100 10 0.0675431
6 10 100 10 4.23227e-06
7 10 100 10 0.405248
8 10 100 10 0.270174
9 10 100 10 0.0544015
10 10 100 10 0.202629
2 11 100 10 0.0747809
3 11 100 10 0.0222194
5 11 100 10 0.0747809
8 11 100 10 0.373898
9 11 100 10 0.304759
10 11 100 10 0.149562
3 12 100 10 0.0868892
4 12 100 10 0.0447602
6 12 100 10 7.77677e-06
8 12 100 10 0.0867644
9 12 100 10 0.434105
10 12 100 10 0.347473
4 13 100 10 0.115087
5 13 100 10 0.110615
9 13 100 10 0.110614
10 13 100 10 0.663684
5 14 100 10 4.11387e-06
6 14 100 10 0.333332
10 14 100 10 0.666663
7 15 100 10 0.499726
10 15 100 10 0.500274
8 16 100 10 1
9 17 100 10 1
9 18 100 10 0.206959
10 18 100 10 0.793041
6 19 100 10 1
9 20 100 10 1
10 21 100 10 1
2 0 100 11 0.105948
3 0 100 11 0.607638
4 0 100 11 0.0253116
5 0 100 11 0.00144004
6 0 100 11 0.012792
7 0 100 11 0.00435985
8 0 100 11 0.209524
9 0 100 11 0.0329866
1 1 100 11 0.880484
2 1 100 11 0.022494
4 1 100 11 0.0261103
8 1 100 11 0.0179057
9 1 100 11 0.0257724
10 1 100 11 0.0272331
1 2 100 11 0.0229224
2 2 100 11 0.942796
5 2 100 11 0.0342813
2 3 100 11 0.0666377
3 3 100 11 0.866693
6 3 100 11 0.0333346
7 3 100 11 0.0333346
3 4 100 11 0.0999981
4 4 100 11 0.866668
11 4 100 11 0.0333339
2 5 100 11 0.0181671
3 5 100 11 3.0617e-05
4 5 100 11 0.072739
5 5 100 11 0.909063
2 6 100 11 0.0144121
3 6 100 11 0.0339795
4 6 100 11 0.0340083
5 6 100 11 0.102108
6 6 100 11 0.815492
2 7 100 11 0.00981346
4 7 100 11 0.0336384
5 7 100 11 0.033639
6 7 100 11 0.10091
7 7 100 11 0.75478
8 7 100 11 0.0672187
5 8 100 11 0.0370443
6 8 100 11 0.0370411
7 8 100 11 0.148152
8 8 100 11 0.695891
9 8 100 11 0.0818716
2 9 100 11 0.0108229
6 9 100 11 0.0760863
7 9 100 11 0.0972352
8 9 100 11 0.152167
9 9 100 11 0.549606
10 9 100 11 0.114083
2 10 100 11 0.0375572
3 10 100 11 0.0375572
7 10 100 11 0.0375572
8 10 100 11 0.116636
9 10 100 11 0.230365
10 10 100 11 0.50277
11 10 100 11 0.0375572
3 11 100 11 0.04
4 11 100 11 0.0399995
8 11 100 11 0.0400029
9 11 100 11 0.119995
10 11 100 11 0.240001
11 11 100 11 0.520002
4 12 100 11 0.0739206
5 12 100 11 0.0739206
8 12 100 11 0.0819406
9 12 100 11 0.104906
10 12 100 11 0.221789
11 12 100 11 0.443524
3 13 100 11 0.000306123
5 13 100 11 0.111195
6 13 100 11 0.110824
9 13 100 11 0.320225
10 13 100 11 0.235059
11 13 100 11 0.22239
2 14 100 11 1.40954e-07
6 14 100 11 0.124975
7 14 100 11 0.125166
8 14 100 11 4.1379e-07
10 14 100 11 0.249958
11 14 100 11 0.4999
7 15 100 11 0.248721
8 15 100 11 0.24939
10 15 100 11 4.2099e-05
11 15 100 11 0.501847
8 16 100 11 0.25
9 16 100 11 0.25
11 16 100 11 0.499999
9 17 100 11 0.497776
10 17 100 11 0.502224
10 18 100 11 0.5
11 18 100 11 0.5
11 19 100 11 1
2 0 100 12 0.247303
3 0 100 12 0.247329
4 0 100 12 0.247555
5 0 100 12 0.247604
6 0 100 12 0.00938824
7 0 100 12 9.97578e-05
8 0 100 12 0.000338348
9 0 100 12 0.000282776
10 0 100 12 6.36812e-05
11 0 100 12 3.56364e-05
1 1 100 12 1
2 2 100 12 0.935454
5 2 100 12 0.0320735
6 2 100 12 0.0324726
2 3 100 12 0.125814
3 3 100 12 0.842731
7 3 100 12 0.0314541
3 4 100 12 0.151263
4 4 100 12 0.785865
6 4 100 12 0.031436
8 4 100 12 0.031436
4 5 100 12 0.163791
5 5 100 12 0.770681
7 5 100 12 0.0327642
9 5 100 12 0.0327642
5 6 100 12 0.153232
6 6 100 12 0.778951
8 6 100 12 0.0338954
10 6 100 12 0.0339215
3 7 100 12 0.0483081
5 7 100 12 0.0334639
6 7 100 12 0.138573
7 7 100 12 0.744801
9 7 100 12 0.00021155
11 7 100 12 0.0346422
4 8 100 12 0.107968
6 8 100 12 0.0359911
7 8 100 12 0.120593
8 8 100 12 0.699457
12 8 100 12 0.0359911
5 9 100 12 0.121253
6 9 100 12 0.0404429
7 9 100 12 0.0666997
8 9 100 12 0.121328
9 9 100 12 0.650273
11 9 100 12 3.60344e-06
6 10 100 12 0.103272
7 10 100 12 0.0345144
8 10 100 12 0.103072
9 10 100 12 0.206874
10 10 100 12 0.517752
11 10 100 12 0.0345168
7 11 100 12 0.140328
8 11 100 12 0.0350791
9 11 100 12 0.0701644
10 11 100 12 0.24557
11 11 100 12 0.473776
12 11 100 12 0.0350822
7 12 100 12 0.0189324
8 12 100 12 0.151969
9 12 100 12 0.0757248
10 12 100 12 0.0757226
11 12 100 12 0.261165
12 12 100 12 0.416486
8 13 100 12 0.0662171
9 13 100 12 0.264857
10 13 100 12 0.132433
11 13 100 12 0.13919
12 13 100 12 0.397303
6 14 100 12 0.000880292
9 14 100 12 0.0709346
10 14 100 12 0.397038
11 14 100 12 0.233255
12 14 100 12 0.297893
2 15 100 12 2.27054e-06
6 15 100 12 1.10896e-05
8 15 100 12 0.0363552
10 15 100 12 0.120442
11 15 100 12 0.481824
12 15 100 12 0.361365
3 16 100 12 3.63354e-06
9 16 100 12 0.166271
11 16 100 12 0.166745
12 16 100 12 0.66698
6 17 100 12 5.75037e-06
9 17 100 12 0.317356
10 17 100 12 0.340807
11 17 100 12 0.00102419
12 17 100 12 0.340807
10 18 100 12 0.499956
11 18 100 12 0.500044
11 19 100 12 0.333334
12 19 100 12 0.666666
9 20 100 12 1.74733e-06
12 20 100 12 0.999998
2 0 100 13 0.166461
3 0 100 13 0.626626
4 0 100 13 0.0032963
5 0 100 13 0.000180998
6 0 100 13 0.000208839
7 0 100 13 0.152389
8 0 100 13 0.000112491
9 0 100 13 6.22782e-05
10 0 100 13 0.000911246
11 0 100 13 0.0497309
12 0 100 13 2.1855e-05
1 1 100 13 0.933316
3 1 100 13 0.0444435
4 1 100 13 1.86257e-05
5 1 100 13 0.0222216
1 2 100 13 0.0258778
2 2 100 13 0.896509
4 2 100 13 0.051755
5 2 100 13 0.0258584
1 3 100 13 0.023452
2 3 100 13 0.0829185
3 3 100 13 0.776225
4 3 100 13 0.0234564
5 3 100 13 0.0469119
6 3 100 13 0.0469119
7 3 100 13 0.000124468
2 4 100 13 0.0545225
3 4 100 13 0.0498882
4 4 100 13 0.79608
5 4 100 13 0.0248779
6 4 100 13 0.0248779
7 4 100 13 0.0497535
2 5 100 13 2.33642e-06
4 5 100 13 0.06867
5 5 100 13 0.820558
6 5 100 13 0.0273515
7 5 100 13 0.0287135
8 5 100 13 0.0547045
1 6 100 13 1.3478e-06
2 6 100 13 0.0259739
4 6 100 13 0.0259739
5 6 100 13 0.0259739
6 6 100 13 0.818182
7 6 100 13 0.0259739
8 6 100 13 0.0259739
9 6 100 13 0.0519469
2 7 100 13 0.041563
4 7 100 13 0.0127736
5 7 100 13 0.0261025
6 7 100 13 0.0391177
7 7 100 13 0.776033
8 7 100 13 0.0261025
9 7 100 13 0.0261025
10 7 100 13 0.052205
3 8 100 13 0.0267769
4 8 100 13 0.052998
5 8 100 13 0.0267775
6 8 100 13 0.0267775
7 8 100 13 0.0535538
8 8 100 13 0.732785
9 8 100 13 0.0267768
10 8 100 13 0.0267767
11 8 100 13 0.0267775
3 9 100 13 0.0300094
4 9 100 13 0.0300111
5 9 100 13 0.0600221
6 9 100 13 0.0300111
7 9 100 13 0.0300111
8 9 100 13 0.0600216
9 9 100 13 0.669881
10 9 100 13 0.0300111
11 9 100 13 0.0300105
12 9 100 13 0.0300111
3 10 100 13 0.0270321
5 10 100 13 0.0540641
6 10 100 13 0.0270308
7 10 100 13 0.02703
8 10 100 13 0.0540642
9 10 100 13 0.108128
10 10 100 13 0.594562
11 10 100 13 0.0540238
12 10 100 13 0.0270321
13 10 100 13 0.0270321
4 11 100 13 0.0552671
6 11 100 13 0.0552671
7 11 100 13 0.0276335
8 11 100 13 0.0552827
9 11 100 13 0.0829006
10 11 100 13 0.110531
11 11 100 13 0.530218
12 11 100 13 0.0552671
13 11 100 13 0.0276335
5 12 100 13 0.0561489
7 12 100 13 0.0636185
8 12 100 13 0.0561503
9 12 100 13 0.0754455
10 12 100 13 0.0842231
11 12 100 13 0.168451
12 12 100 13 0.467887
13 12 100 13 0.0280752
6 13 100 13 0.0652858
8 13 100 13 0.0533093
9 13 100 13 0.0652835
10 13 100 13 0.0652858
11 13 100 13 0.0979774
12 13 100 13 0.195857
13 13 100 13 0.457001
7 14 100 13 0.103483
8 14 100 13 0.0517387
9 14 100 13 0.154786
10 14 100 13 0.103489
11 14 100 13 0.129357
12 14 100 13 0.146681
13 14 100 13 0.310466
2 15 100 13 1.66587e-06
3 15 100 13 0.000145869
4 15 100 13 6.48915e-07
8 15 100 13 0.131403
9 15 100 13 0.0651197
10 15 100 13 0.259314
11 15 100 13 0.130931
12 15 100 13 0.281681
13 15 100 13 0.131403
2 16 100 13 1.13813e-06
4 16 100 13 4.92027e-06
9 16 100 13 0.16365
10 16 100 13 0.0817743
11 16 100 13 0.245478
12 16 100 13 0.181793
13 16 100 13 0.327299
5 17 100 13 2.74647e-06
8 17 100 13 4.09759e-06
10 17 100 13 0.201285
11 17 100 13 0.205946
12 17 100 13 0.283812
13 17 100 13 0.308951
4 18 100 13 1.12893e-05
11 18 100 13 0.233273
12 18 100 13 0.300052
13 18 100 13 0.466664
3 19 100 13 4.0229e-05
12 19 100 13 0.399713
13 19 100 13 0.600247
4 20 100 13 8.82272e-06
12 20 100 13 0.2899
13 20 100 13 0.710091
3 21 100 13 0.899768
11 21 100 13 0.000103167
12 21 100 13 0.100129
11 22 100 13 0.417724
12 22 100 13 0.0526282
13 22 100 13 0.529648
3 23 100 13 6.58313e-06
13 23 100 13 0.999993
1 24 100 13 0.281182
2 24 100 13 1.0814e-05
3 24 100 13 0.00254306
12 24 100 13 0.00156445
13 24 100 13 0.7147
13 25 100 13 1
2 0 100 14 0.000208033
3 0 100 14 0.175082
4 0 100 14 0.000718047
5 0 100 14 0.000165049
6 0 100 14 0.000545735
7 0 100 14 0.000105447
8 0 100 14 0.000143226
9 0 100 14 0.1186
10 0 100 14 0.190962
11 0 100 14 0.338387
12 0 100 14 0.000113821
13 0 100 14 0.174969
1 1 100 14 0.957508
2 1 100 14 0.0212731
4 1 100 14 0.0212189
2 2 100 14 0.975615
5 2 100 14 0.0243846
2 3 100 14 0.0250004
3 3 100 14 0.949999
6 3 100 14 0.0250004
2 4 100 14 0.0476192
3 4 100 14 0.0238102
4 4 100 14 0.90476
7 4 100 14 0.0238101
2 5 100 14 0.0234062
3 5 100 14 0.0516586
4 5 100 14 0.0234062
5 5 100 14 0.878119
7 5 100 14 3.82453e-06
8 5 100 14 0.0234062
3 6 100 14 0.0231337
4 6 100 14 0.0449343
5 6 100 14 0.033317
6 6 100 14 0.831218
7 6 100 14 0.022463
8 6 100 14 0.0224671
9 6 100 14 0.0224671
3 7 100 14 0.0189728
4 7 100 14 0.0239256
5 7 100 14 0.0478554
6 7 100 14 0.0478558
7 7 100 14 0.813536
9 7 100 14 0.023926
10 7 100 14 0.0239279
4 8 100 14 0.0232552
5 8 100 14 0.0232563
6 8 100 14 0.0465091
7 8 100 14 0.0697688
8 8 100 14 0.790696
10 8 100 14 0.0232562
11 8 100 14 0.0232587
3 9 100 14 0.0209619
5 9 100 14 0.0216012
6 9 100 14 0.0216028
7 9 100 14 0.0648084
8 9 100 14 0.0648085
9 9 100 14 0.719854
10 9 100 14 0.0215544
11 9 100 14 0.0216027
12 9 100 14 0.0432057
4 10 100 14 0.0233029
6 10 100 14 0.0233051
7 10 100 14 0.0233048
8 10 100 14 0.0466096
9 10 100 14 0.0699179
10 10 100 14 0.720382
11 10 100 14 0.0232642
12 10 100 14 0.0233038
13 10 100 14 0.0466101
5 11 100 14 0.0232192
7 11 100 14 0.0232192
8 11 100 14 0.0464384
9 11 100 14 0.0464375
10 11 100 14 0.0696573
11 11 100 14 0.651713
12 11 100 14 0.0464384
13 11 100 14 0.0464384
14 11 100 14 0.0464384
6 12 100 14 0.0262126
8 12 100 14 0.0262106
9 12 100 14 0.0524251
10 12 100 14 0.0524251
11 12 100 14 0.0917358
12 12 100 14 0.672353
13 12 100 14 0.0262125
14 12 100 14 0.0524251
7 13 100 14 0.0290615
9 13 100 14 0.0290615
10 13 100 14 0.0871802
11 13 100 14 0.0581297
12 13 100 14 0.116244
13 13 100 14 0.651261
14 13 100 14 0.0290615
8 14 100 14 0.0307003
10 14 100 14 0.0306992
11 14 100 14 0.112226
12 14 100 14 0.0920979
13 14 100 14 0.12027
14 14 100 14 0.614007
9 15 100 14 0.0721973
11 15 100 14 0.108322
12 15 100 14 0.241848
13 15 100 14 0.216612
14 15 100 14 0.36102
1 16 100 14 0.0228184
2 16 100 14 3.01568e-05
7 16 100 14 4.0615e-07
9 16 100 14 3.24222e-06
10 16 100 14 0.0869331
11 16 100 14 0.0381942
12 16 100 14 0.173866
13 16 100 14 0.417356
14 16 100 14 0.260798
9 17 100 14 2.73272e-07
11 17 100 14 0.106708
12 17 100 14 0.115015
13 17 100 14 0.222365
14 17 100 14 0.555911
12 18 100 14 0.230149
13 18 100 14 0.30943
14 18 100 14 0.460421
13 19 100 14 0.333333
14 19 100 14 0.666667
14 20 100 14 1
2 22 100 14 1
13 23 100 14 1
14 24 100 14 1
14 28 100 14 1
2 0 100 15 0.0622442
3 0 100 15 0.0747847
4 0 100 15 0.0659515
5 0 100 15 0.0674452
6 0 100 15 0.0346904
7 0 100 15 0.19766
8 0 100 15 8.2409e-05
9 0 100 15 0.0618551
10 0 100 15 0.0106475
11 0 100 15 0.0699901
12 0 100 15 0.0899533
13 0 100 15 0.198804
14 0 100 15 0.0658918
1 1 100 15 0.982456
3 1 100 15 0.0175439
2 2 100 15 0.96723
3 2 100 15 0.0135474
4 2 100 15 0.0182194
9 2 100 15 0.00100203
13 2 100 15 1.46062e-06
1 3 100 15 0.0356452
2 3 100 15 0.017618
3 3 100 15 0.928913
5 3 100 15 0.0178214
9 3 100 15 1.1901e-06
13 3 100 15 1.43016e-06
3 4 100 15 0.0275479
4 4 100 15 0.908828
5 4 100 15 0.0183027
6 4 100 15 0.0270094
8 4 100 15 0.0183119
9 4 100 15 2.4139e-07
4 5 100 15 0.0194216
5 5 100 15 0.917847
6 5 100 15 0.038833
7 5 100 15 0.0194204
9 5 100 15 7.01942e-07
13 5 100 15 0.00447702
2 6 100 15 0.0196543
3 6 100 15 0.009765
4 6 100 15 0.0269126
5 6 100 15 0.0196529
6 6 100 15 0.864719
7 6 100 15 0.0393034
8 6 100 15 0.0196529
9 6 100 15 0.000159468
10 6 100 15 0.000179163
13 6 100 15 1.64257e-06
2 7 100 15 0.0179472
3 7 100 15 0.0179464
4 7 100 15 0.0179473
5 7 100 15 0.0487791
6 7 100 15 0.0538417
7 7 100 15 0.771749
8 7 100 15 0.0358944
9 7 100 15 0.0179472
10 7 100 15 0.0179472
3 8 100 15 0.0180646
4 8 100 15 0.0180653
5 8 100 15 0.0180653
6 8 100 15 0.0425584
7 8 100 15 0.0361293
8 8 100 15 0.812922
9 8 100 15 0.0361304
11 8 100 15 0.0180632
12 8 100 15 1.61748e-06
3 9 100 15 8.04418e-06
4 9 100 15 0.0180506
5 9 100 15 0.0180506
6 9 100 15 0.0180567
7 9 100 15 0.0541519
8 9 100 15 0.0361013
9 9 100 15 0.80143
10 9 100 15 0.0541511
4 10 100 15 0.0180932
5 10 100 15 0.0181639
6 10 100 15 0.0298511
7 10 100 15 0.0181644
8 10 100 15 0.0368157
9 10 100 15 0.0363129
10 10 100 15 0.788037
11 10 100 15 0.0544917
12 10 100 15 6.99154e-05
5 11 100 15 0.0168063
6 11 100 15 0.0168066
7 11 100 15 0.0336116
8 11 100 15 0.0331568
9 11 100 15 0.0436983
10 11 100 15 0.0336126
11 11 100 15 0.688046
12 11 100 15 0.134261
13 11 100 15 1.1352e-06
4 12 100 15 6.5968e-05
6 12 100 15 0.0169594
7 12 100 15 7.26786e-07
8 12 100 15 0.0339188
9 12 100 15 0.0508776
10 12 100 15 0.0508781
11 12 100 15 0.0339188
12 12 100 15 0.627062
13 12 100 15 0.135441
14 12 100 15 0.0339187
15 12 100 15 0.0169594
7 13 100 15 0.0176404
9 13 100 15 0.035293
10 13 100 15 0.052944
11 13 100 15 0.0705748
12 13 100 15 0.0470873
13 13 100 15 0.564684
14 13 100 15 0.194128
15 13 100 15 0.017648
1 14 100 15 0.0189107
2 14 100 15 0.0185127
8 14 100 15 0.0189107
10 14 100 15 0.0378213
11 14 100 15 0.056732
12 14 100 15 0.056732
13 14 100 15 0.0567317
14 14 100 15 0.527632
15 14 100 15 0.208017
2 15 100 15 0.0264769
4 15 100 15 0.0264769
5 15 100 15 4.99292e-07
11 15 100 15 0.0529537
12 15 100 15 0.0794305
13 15 100 15 0.126263
14 15 100 15 0.0794306
15 15 100 15 0.608968
5 16 100 15 0.0608108
10 16 100 15 0.0270338
12 16 100 15 0.121616
13 16 100 15 0.243243
14 16 100 15 0.304054
15 16 100 15 0.243243
6 17 100 15 0.0769259
7 17 100 15 2.05987e-07
11 17 100 15 0.076927
13 17 100 15 0.153808
14 17 100 15 0.307707
15 17 100 15 0.384632
2 18 100 15 1.3316e-07
4 18 100 15 1.91238e-06
7 18 100 15 0.109435
12 18 100 15 0.0854538
14 18 100 15 0.230024
15 18 100 15 0.575085
8 19 100 15 0.191921
13 19 100 15 0.191921
14 19 100 15 0.0403993
15 19 100 15 0.575759
5 20 100 15 2.05242e-06
9 20 100 15 0.333334
14 20 100 15 0.333334
15 20 100 15 0.333329
10 21 100 15 0.500001
15 21 100 15 0.499999
7 22 100 15 2.61026e-05
10 22 100 15 0.00012924
11 22 100 15 0.999845
12 23 100 15 0.500001
15 23 100 15 0.499999
13 24 100 15 1
11 25 100 15 7.1191e-06
14 25 100 15 0.499998
15 25 100 15 0.499995
12 26 100 15 4.04321e-05
15 26 100 15 0.99996
14 27 100 15 1
15 28 100 15 1
2 0 100 16 0.0675387
3 0 100 16 0.0674385
4 0 100 16 0.12957
5 0 100 16 0.134648
6 0 100 16 0.00750945
7 0 100 16 0.255253
8 0 100 16 0.135036
9 0 100 16 0.0674244
10 0 100 16 0.000312132
11 0 100 16 0.00492407
12 0 100 16 0.0629513
13 0 100 16 0.000174265
14 0 100 16 0.0672188
15 0 100 16 9.3812e-07
1 1 100 16 0.973267
2 1 100 16 0.0133666
4 1 100 16 0.0133666
2 2 100 16 0.971188
3 2 100 16 0.014406
5 2 100 16 0.0144057
9 2 100 16 2.83374e-07
1 3 100 16 0.0172927
3 3 100 16 0.923288
4 3 100 16 0.0145716
5 3 100 16 0.0145716
6 3 100 16 0.0291432
7 3 100 16 0.00113291
2 4 100 16 0.00979002
3 4 100 16 0.0264722
4 4 100 16 0.915142
6 4 100 16 0.0161829
7 4 100 16 0.0162297
9 4 100 16 0.0161829
2 5 100 16 0.014737
3 5 100 16 0.0394163
4 5 100 16 0.071954
5 5 100 16 0.81053
6 5 100 16 0.0165176
7 5 100 16 0.00263396
8 5 100 16 0.0294741
10 5 100 16 0.014737
2 6 100 16 0.0139723
3 6 100 16 0.0187824
4 6 100 16 0.0472153
5 6 100 16 0.0850065
6 6 100 16 0.750045
7 6 100 16 0.0283086
8 6 100 16 0.014168
9 6 100 16 0.0283339
11 6 100 16 0.014168
2 7 100 16 0.00835768
4 7 100 16 0.0145197
5 7 100 16 0.042505
6 7 100 16 0.0982224
7 7 100 16 0.707734
8 7 100 16 0.0578178
9 7 100 16 0.0283373
10 7 100 16 0.0283373
12 7 100 16 0.0141686
2 8 100 16 0.014929
4 8 100 16 0.0198453
5 8 100 16 0.0301588
6 8 100 16 0.0452382
7 8 100 16 0.0904728
8 8 100 16 0.649621
9 8 100 16 0.0743379
10 8 100 16 0.0301588
11 8 100 16 0.0301585
13 8 100 16 0.0150794
3 9 100 16 0.0158162
5 9 100 16 0.0316339
6 9 100 16 0.0458007
7 9 100 16 0.0474483
8 9 100 16 0.0948986
9 9 100 16 0.622022
10 9 100 16 0.0633013
11 9 100 16 0.0316327
12 9 100 16 0.0316325
14 9 100 16 0.015814
4 10 100 16 0.0151575
6 10 100 16 0.0303138
7 10 100 16 0.0606296
8 10 100 16 0.0955038
9 10 100 16 0.131476
10 10 100 16 0.530502
11 10 100 16 0.0606301
12 10 100 16 0.0303151
13 10 100 16 0.0303151
15 10 100 16 0.0151575
2 11 100 16 0.00628882
5 11 100 16 0.0153338
7 11 100 16 0.0306676
8 11 100 16 0.0613272
9 11 100 16 0.0470758
10 11 100 16 0.183915
11 11 100 16 0.496854
12 11 100 16 0.0818695
13 11 100 16 0.0306672
14 11 100 16 0.0306666
16 11 100 16 0.0153338
3 12 100 16 0.0150218
6 12 100 16 0.0150213
8 12 100 16 0.0380628
9 12 100 16 0.0600808
10 12 100 16 0.0751074
11 12 100 16 0.195659
12 12 100 16 0.460479
13 12 100 16 0.0654581
14 12 100 16 0.0450654
15 12 100 16 0.0300436
3 13 100 16 0.0156146
4 13 100 16 0.0307455
7 13 100 16 0.0156147
8 13 100 16 0.0155996
9 13 100 16 0.0624183
10 13 100 16 0.0624587
11 13 100 16 0.0624588
12 13 100 16 0.204111
13 13 100 16 0.406019
14 13 100 16 0.0468863
15 13 100 16 0.0468441
16 13 100 16 0.0312294
5 14 100 16 0.0145672
8 14 100 16 0.0145672
9 14 100 16 0.0291336
10 14 100 16 0.0582676
11 14 100 16 0.0946756
12 14 100 16 0.0582682
13 14 100 16 0.264376
14 14 100 16 0.364174
15 14 100 16 0.0582687
16 14 100 16 0.0437015
6 15 100 16 0.0154623
9 15 100 16 0.015462
10 15 100 16 0.0463857
11 15 100 16 0.0618491
12 15 100 16 0.0906803
13 15 100 16 0.0848712
14 15 100 16 0.262854
15 15 100 16 0.360586
16 15 100 16 0.0618493
7 16 100 16 0.0167482
10 16 100 16 0.0167484
11 16 100 16 0.0502451
12 16 100 16 0.0692609
13 16 100 16 0.0837422
14 16 100 16 0.117238
15 16 100 16 0.277552
16 16 100 16 0.368465
8 17 100 16 0.0259952
11 17 100 16 0.0259952
12 17 100 16 0.077983
13 17 100 16 0.129972
14 17 100 16 0.12997
15 17 100 16 0.220157
16 17 100 16 0.389929
8 18 100 16 6.0105e-07
9 18 100 16 0.0449481
11 18 100 16 8.04841e-07
12 18 100 16 0.0449482
13 18 100 16 0.134713
14 18 100 16 0.225941
15 18 100 16 0.234813
16 18 100 16 0.314636
10 19 100 16 0.0615113
13 19 100 16 0.0615113
14 19 100 16 0.183531
15 19 100 16 0.262869
16 19 100 16 0.430577
3 20 100 16 1.4914e-05
8 20 100 16 5.74261e-07
11 20 100 16 0.102811
13 20 100 16 2.35058e-06
14 20 100 16 0.102811
15 20 100 16 0.383115
16 20 100 16 0.411244
8 21 100 16 6.12384e-07
10 21 100 16 3.01674e-07
12 21 100 16 0.137137
15 21 100 16 0.17718
16 21 100 16 0.685682
13 22 100 16 0.249541
16 22 100 16 0.750459
14 23 100 16 1
15 24 100 16 1
16 25 100 16 1
1 0 100 17 0.000229648
2 0 100 17 0.000642788
3 0 100 17 0.122942
4 0 100 17 0.178357
5 0 100 17 0.137427
6 0 100 17 0.000700294
7 0 100 17 0.000321103
8 0 100 17 0.129155
9 0 100 17 0.0686118
10 0 100 17 0.0596722
11 0 100 17 0.0690706
12 0 100 17 0.000852454
13 0 100 17 0.000732009
14 0 100 17 0.0682102
15 0 100 17 0.137375
16 0 100 17 0.0257008
1 1 100 17 0.981647
2 1 100 17 0.00207437
3 1 100 17 0.000181014
13 1 100 17 0.000567219
14 1 100 17 0.0155308
1 2 100 17 0.0316171
2 2 100 17 0.946264
4 2 100 17 0.00630943
12 2 100 17 1.13207e-06
15 2 100 17 0.0158086
2 3 100 17 0.0160703
3 3 100 17 0.919647
4 3 100 17 0.0321405
5 3 100 17 0.0160716
16 3 100 17 0.0160703
1 4 100 17 0.0321415
3 4 100 17 0.0322933
4 4 100 17 0.821918
5 4 100 17 0.0487502
6 4 100 17 0.0487122
8 4 100 17 5.50849e-05
12 4 100 17 0.0161302
1 5 100 17 0.000787438
2 5 100 17 0.0325296
3 5 100 17 0.0159866
4 5 100 17 0.073087
5 5 100 17 0.764433
6 5 100 17 0.0487694
7 5 100 17 0.0487344
13 5 100 17 0.0156729
2 6 100 17 0.0307717
3 6 100 17 0.0307821
4 6 100 17 0.0461588
5 6 100 17 0.0923169
6 6 100 17 0.707648
7 6 100 17 0.0461601
8 6 100 17 0.0461606
9 6 100 17 1.05546e-06
11 6 100 17 8.91305e-07
3 7 100 17 0.0156049
4 7 100 17 0.0156048
5 7 100 17 0.0538777
6 7 100 17 0.109359
7 7 100 17 0.702218
8 7 100 17 0.03121
9 7 100 17 0.0624179
12 7 100 17 9.19628e-07
16 7 100 17 0.00970656
1 8 100 17 0.0163624
3 8 100 17 0.0163624
4 8 100 17 0.0163624
5 8 100 17 0.0163624
6 8 100 17 0.0327229
7 8 100 17 0.130897
8 8 100 17 0.65624
9 8 100 17 0.0327224
10 8 100 17 0.0654477
12 8 100 17 0.0163442
14 8 100 17 0.000176358
2 9 100 17 0.01586
3 9 100 17 9.24387e-07
4 9 100 17 0.01586
5 9 100 17 0.0245404
6 9 100 17 0.0158599
7 9 100 17 0.0317196
8 9 100 17 0.158686
9 9 100 17 0.578886
10 9 100 17 0.0475801
11 9 100 17 0.0634401
12 9 100 17 0.0158475
13 9 100 17 0.03172
5 10 100 17 0.0153746
6 10 100 17 0.0461215
7 10 100 17 0.0153722
8 10 100 17 0.0307477
9 10 100 17 0.207542
10 10 100 17 0.54642
11 10 100 17 0.0461984
12 10 100 17 0.0461197
13 10 100 17 0.0153737
14 10 100 17 0.0307301
1 11 100 17 0.0092261
2 11 100 17 0.0154616
6 11 100 17 0.0154616
7 11 100 17 0.0463839
8 11 100 17 0.0309231
9 11 100 17 0.0463837
10 11 100 17 0.19865
11 11 100 17 0.498363
12 11 100 17 0.0463847
13 11 100 17 0.0463846
14 11 100 17 0.0154616
15 11 100 17 0.0309162
3 12 100 17 0.014925
4 12 100 17 9.23769e-07
7 12 100 17 0.0149245
8 12 100 17 0.0596983
9 12 100 17 0.0149235
10 12 100 17 0.0558077
11 12 100 17 0.235143
12 12 100 17 0.470247
13 12 100 17 0.044775
14 12 100 17 0.0447737
15 12 100 17 0.0149317
16 12 100 17 0.0298499
1 13 100 17 0.00631168
4 13 100 17 0.0156505
8 13 100 17 0.0156506
9 13 100 17 0.0626006
10 13 100 17 0.0156506
11 13 100 17 0.0625997
12 13 100 17 0.242574
13 13 100 17 0.453713
14 13 100 17 0.0469499
15 13 100 17 0.0469517
16 13 100 17 0.0156965
17 13 100 17 0.0156506
2 14 100 17 0.0155888
5 14 100 17 0.0155888
9 14 100 17 0.0155888
10 14 100 17 0.0623549
11 14 100 17 0.0155888
12 14 100 17 0.0622245
13 14 100 17 0.266523
14 14 100 17 0.406245
15 14 100 17 0.0623528
16 14 100 17 0.0467665
17 14 100 17 0.0311777
2 15 100 17 0.0163481
3 15 100 17 0.0163465
6 15 100 17 0.0163476
10 15 100 17 0.0163464
11 15 100 17 0.0653913
12 15 100 17 0.0326956
13 15 100 17 0.0801419
14 15 100 17 0.282295
15 15 100 17 0.343303
16 15 100 17 0.0817403
17 15 100 17 0.0490442
3 16 100 17 0.0169797
4 16 100 17 0.0169806
7 16 100 17 0.0169787
11 16 100 17 0.0169806
12 16 100 17 0.067921
13 16 100 17 0.0339612
14 16 100 17 0.0874148
15 16 100 17 0.308509
16 16 100 17 0.349371
17 16 100 17 0.084903
4 17 100 17 0.0201683
5 17 100 17 0.0201683
8 17 100 17 0.0201683
13 17 100 17 0.0806729
14 17 100 17 0.0464359
15 17 100 17 0.106496
16 17 100 17 0.322693
17 17 100 17 0.383198
5 18 100 17 0.0333318
6 18 100 17 0.0333319
9 18 100 17 0.0333302
14 18 100 17 0.133337
15 18 100 17 0.0999963
16 18 100 17 0.166668
17 18 100 17 0.500005
3 19 100 17 9.08033e-07
6 19 100 17 0.0306769
7 19 100 17 0.0567098
10 19 100 17 0.0567099
11 19 100 17 6.16848e-07
14 19 100 17 0.0968657
15 19 100 17 0.226038
16 19 100 17 0.249451
17 19 100 17 0.283548
7 20 100 17 0.0215265
8 20 100 17 0.0737639
11 20 100 17 0.0791171
13 20 100 17 1.92869e-06
15 20 100 17 0.145401
16 20 100 17 0.309857
17 20 100 17 0.370333
4 21 100 17 8.39567e-07
7 21 100 17 0.0814484
9 21 100 17 0.114819
12 21 100 17 0.114819
16 21 100 17 0.229638
17 21 100 17 0.459275
8 22 100 17 0.16759
10 22 100 17 0.168203
13 22 100 17 0.159828
17 22 100 17 0.504379
9 23 100 17 0.250404
11 23 100 17 0.248891
14 23 100 17 0.250302
17 23 100 17 0.250403
8 24 100 17 0.00023861
10 24 100 17 0.360524
12 24 100 17 0.319619
15 24 100 17 0.319619
6 25 100 17 5.08744e-06
11 25 100 17 0.331586
13 25 100 17 0.334204
14 25 100 17 1.79146e-06
16 25 100 17 0.334204
2 26 100 17 1.5868e-06
12 26 100 17 0.268499
14 26 100 17 0.268453
15 26 100 17 0.194548
16 26 100 17 6.66386e-07
17 26 100 17 0.268498
3 27 100 17 1.97681e-06
15 27 100 17 0.333333
16 27 100 17 0.333333
17 27 100 17 0.333332
16 28 100 17 0.599402
17 28 100 17 0.400598
16 29 100 17 0.109049
17 29 100 17 0.890951
4 30 100 17 0.527838
5 30 100 17 0.472162
10 31 100 17 1
17 32 100 17 1
17 34 100 17 1
1 0 100 18 1.70786e-06
2 0 100 18 0.000762681
3 0 100 18 0.149406
4 0 100 18 0.0752604
5 0 100 18 0.0873415
6 0 100 18 0.0765689
7 0 100 18 0.144307
8 0 100 18 0.137409
9 0 100 18 0.00684546
10 0 100 18 0.0748449
11 0 100 18 7.25338e-05
12 0 100 18 0.000362622
13 0 100 18 0.00558002
14 0 100 18 0.0699056
15 0 100 18 0.0749753
16 0 100 18 0.0710323
17 0 100 18 0.0253234
1 1 100 18 0.958384
2 1 100 18 0.0279319
10 1 100 18 0.0136846
1 2 100 18 0.00753839
2 2 100 18 0.920051
3 2 100 18 0.0434989
7 2 100 18 0.0144894
10 2 100 18 8.26805e-07
13 2 100 18 0.0144215
1 3 100 18 0.0287725
2 3 100 18 0.0437706
3 3 100 18 0.839784
4 3 100 18 0.0438444
5 3 100 18 0.0292296
8 3 100 18 0.0145992
2 4 100 18 0.0307259
3 4 100 18 0.0696968
4 4 100 18 0.838054
5 4 100 18 0.0307262
6 4 100 18 0.015363
7 4 100 18 0.0153466
14 4 100 18 4.44246e-05
16 4 100 18 4.35968e-05
2 5 100 18 0.00724659
3 5 100 18 0.0231174
4 5 100 18 0.0862933
5 5 100 18 0.753316
6 5 100 18 0.0576342
7 5 100 18 0.0289913
8 5 100 18 3.88925e-06
9 5 100 18 0.0288993
11 5 100 18 1.99638e-07
12 5 100 18 0.0144956
15 5 100 18 1.79094e-06
1 6 100 18 0.0149134
3 6 100 18 0.0447427
4 6 100 18 0.037123
5 6 100 18 0.0869758
6 6 100 18 0.739244
7 6 100 18 0.0298285
8 6 100 18 0.0173429
10 6 100 18 0.0298285
15 6 100 18 8.27622e-07
2 7 100 18 0.0141154
3 7 100 18 0.0057198
4 7 100 18 0.0564608
5 7 100 18 0.0564607
6 7 100 18 0.0908043
7 7 100 18 0.664396
8 7 100 18 0.0282307
9 7 100 18 0.0411593
10 7 100 18 0.000306915
11 7 100 18 0.0423458
1 8 100 18 0.0140782
3 8 100 18 0.0140786
4 8 100 18 0.0140786
5 8 100 18 0.0426709
6 8 100 18 0.0563123
7 8 100 18 0.0844714
8 8 100 18 0.675759
9 8 100 18 0.0422372
10 8 100 18 0.0140786
12 8 100 18 0.0422356
13 8 100 18 1.4474e-07
5 9 100 18 0.0148141
6 9 100 18 0.0444414
7 9 100 18 0.0592576
8 9 100 18 0.0963401
9 9 100 18 0.666633
10 9 100 18 0.044442
11 9 100 18 0.0148144
12 9 100 18 0.0148144
13 9 100 18 0.0444432
4 10 100 18 0.014891
5 10 100 18 0.014891
6 10 100 18 0.014891
7 10 100 18 0.0595641
8 10 100 18 0.0669558
9 10 100 18 0.0893459
10 10 100 18 0.605442
11 10 100 18 0.0744551
12 10 100 18 0.0148905
13 10 100 18 2.49296e-07
14 10 100 18 0.0446729
2 11 100 18 0.014849
5 11 100 18 0.0148489
6 11 100 18 0.0148507
7 11 100 18 0.0148487
8 11 100 18 0.0593935
9 11 100 18 0.0742433
10 11 100 18 0.101576
11 11 100 18 0.556903
12 11 100 18 0.0742439
13 11 100 18 0.029698
15 11 100 18 0.0445447
3 12 100 18 0.0140236
4 12 100 18 4.20832e-07
6 12 100 18 0.0280472
7 12 100 18 0.0140248
8 12 100 18 0.0140248
9 12 100 18 0.0629348
10 12 100 18 0.11219
11 12 100 18 0.122095
12 12 100 18 0.49085
13 12 100 18 0.070124
14 12 100 18 0.028925
16 12 100 18 0.0427596
4 13 100 18 0.0151947
7 13 100 18 0.0303876
8 13 100 18 0.0151938
9 13 100 18 0.0229796
10 13 100 18 0.0607752
11 13 100 18 0.0759669
12 13 100 18 0.121654
13 13 100 18 0.480658
14 13 100 18 0.0759641
15 13 100 18 0.0455465
17 13 100 18 0.0556792
5 14 100 18 0.0148291
8 14 100 18 0.0296573
9 14 100 18 0.0148291
10 14 100 18 0.0370732
11 14 100 18 0.0785047
12 14 100 18 0.0741453
13 14 100 18 0.133457
14 14 100 18 0.439595
15 14 100 18 0.0889362
16 14 100 18 0.0444853
18 14 100 18 0.0444872
6 15 100 18 0.0155004
9 15 100 18 0.0310008
10 15 100 18 0.0155004
11 15 100 18 0.0465012
12 15 100 18 0.0928922
13 15 100 18 0.092998
14 15 100 18 0.139503
15 15 100 18 0.442101
16 15 100 18 0.0775017
17 15 100 18 0.0465012
7 16 100 18 0.0147649
10 16 100 18 0.0295234
11 16 100 18 0.0220723
12 16 100 18 0.0590518
13 16 100 18 0.0922282
14 16 100 18 0.088577
15 16 100 18 0.147626
16 16 100 18 0.413337
17 16 100 18 0.103293
18 16 100 18 0.0295259
8 17 100 18 0.0167061
11 17 100 18 0.033411
12 17 100 18 0.0346123
13 17 100 18 0.0834806
14 17 100 18 0.116941
15 17 100 18 0.0759567
16 17 100 18 0.150357
17 17 100 18 0.388299
18 17 100 18 0.100236
1 18 100 18 0.0202143
9 18 100 18 0.0202143
11 18 100 18 0.0202143
12 18 100 18 0.0404286
13 18 100 18 0.0404875
14 18 100 18 0.0808558
15 18 100 18 0.130505
16 18 100 18 0.0808503
17 18 100 18 0.202372
18 18 100 18 0.363857
2 19 100 18 0.0295872
7 19 100 18 9.2006e-07
10 19 100 18 0.0295856
12 19 100 18 0.0273662
13 19 100 18 0.0605987
14 19 100 18 0.0992728
15 19 100 18 0.118357
16 19 100 18 0.207101
17 19 100 18 0.161846
18 19 100 18 0.266285
2 20 100 18 2.54707e-07
9 20 100 18 3.82438e-07
11 20 100 18 0.0368039
13 20 100 18 0.0368043
14 20 100 18 0.0748104
15 20 100 18 0.142126
16 20 100 18 0.220209
17 20 100 18 0.268423
18 20 100 18 0.220822
2 21 100 18 7.2668e-07
10 21 100 18 0.00016684
13 21 100 18 2.14397e-07
14 21 100 18 0.0457839
15 21 100 18 0.0985188
16 21 100 18 0.197018
17 21 100 18 0.264437
18 21 100 18 0.394074
12 22 100 18 1.56285e-06
14 22 100 18 0.0770549
16 22 100 18 0.152398
17 22 100 18 0.30822
18 22 100 18 0.462325
15 23 100 18 0.12483
17 23 100 18 0.250617
18 23 100 18 0.624553
3 24 100 18 2.89602e-06
6 24 100 18 9.18959e-07
12 24 100 18 3.64026e-06
15 24 100 18 0.0342473
16 24 100 18 0.191377
18 24 100 18 0.774368
2 25 100 18 7.15951e-05
3 25 100 18 1.1682e-06
10 25 100 18 1.40376e-06
13 25 100 18 4.48161e-05
17 25 100 18 0.999881
15 26 100 18 0.00086531
16 26 100 18 1.20147e-05
17 26 100 18 0.000567769
18 26 100 18 0.998555
13 27 100 18 1.37414e-05
15 27 100 18 1.55268e-05
16 27 100 18 0.433314
17 27 100 18 0.125891
18 27 100 18 0.440767
16 28 100 18 2.20702e-06
18 28 100 18 0.999998
16 29 100 18 5.59982e-06
17 29 100 18 0.38722
18 29 100 18 0.612774
18 30 100 18 1
1 0 100 19 3.718e-06
2 0 100 19 0.0693996
3 0 100 19 0.173089
4 0 100 19 0.000222275
5 0 100 19 0.0747804
6 0 100 19 0.296655
7 0 100 19 9.07314e-05
8 0 100 19 0.0382736
9 0 100 19 0.0657779
10 0 100 19 0.000147202
11 0 100 19 0.00122031
12 0 100 19 0.00200635
13 0 100 19 0.138665
14 0 100 19 0.000233247
15 0 100 19 0.070121
16 0 100 19 0.00034052
17 0 100 19 0.0689731
18 0 100 19 9.10755e-07
1 1 100 19 1
2 2 100 19 0.945206
3 2 100 19 0.0274066
5 2 100 19 0.0137033
6 2 100 19 0.0136843
2 3 100 19 0.0388854
3 3 100 19 0.904372
4 3 100 19 0.0283736
6 3 100 19 0.0141827
7 3 100 19 0.0141868
1 4 100 19 0.000271771
2 4 100 19 0.040535
3 4 100 19 0.0272237
4 4 100 19 0.864718
5 4 100 19 0.0270726
6 4 100 19 3.59429e-05
7 4 100 19 0.0135119
8 4 100 19 0.0202721
10 4 100 19 0.0063589
3 5 100 19 0.0340517
4 5 100 19 0.0546136
5 5 100 19 0.8186
6 5 100 19 0.0237198
7 5 100 19 0.0273068
8 5 100 19 0.0136536
9 5 100 19 0.0144004
11 5 100 19 0.0136536
1 6 100 19 0.0129103
3 6 100 19 0.0132159
4 6 100 19 0.0263506
5 6 100 19 0.0653723
6 6 100 19 0.737179
7 6 100 19 0.0658735
8 6 100 19 0.0395737
9 6 100 19 0.0131747
10 6 100 19 0.0131753
12 6 100 19 0.0131753
2 7 100 19 0.0133007
3 7 100 19 0.014343
4 7 100 19 0.0143437
5 7 100 19 0.028687
6 7 100 19 0.0737162
7 7 100 19 0.697872
8 7 100 19 0.0573724
9 7 100 19 0.0716772
10 7 100 19 0.0143437
11 7 100 19 0.0143437
2 8 100 19 0.00424407
3 8 100 19 0.00773091
4 8 100 19 0.0151097
5 8 100 19 0.0151103
6 8 100 19 0.0302206
7 8 100 19 0.119498
8 8 100 19 0.626821
9 8 100 19 0.0755515
10 8 100 19 0.0755508
11 8 100 19 0.015053
12 8 100 19 0.0151103
13 8 100 19 4.04716e-07
2 9 100 19 0.0010046
3 9 100 19 0.0101281
4 9 100 19 0.013872
5 9 100 19 0.0277439
6 9 100 19 0.0256039
7 9 100 19 0.0476753
8 9 100 19 0.152643
9 9 100 19 0.540993
10 9 100 19 0.0693598
11 9 100 19 0.0693599
12 9 100 19 0.013872
13 9 100 19 0.0277447
3 10 100 19 0.0135363
4 10 100 19 0.0135357
5 10 100 19 0.0135362
6 10 100 19 0.0137212
7 10 100 19 0.0321447
8 10 100 19 0.0608749
9 10 100 19 0.148897
10 10 100 19 0.541442
11 10 100 19 0.0676807
12 10 100 19 0.067558
14 10 100 19 0.0270727
3 11 100 19 6.74684e-07
4 11 100 19 0.0138898
5 11 100 19 0.0138906
6 11 100 19 0.0138912
8 11 100 19 0.0277805
9 11 100 19 0.0555605
10 11 100 19 0.152792
11 11 100 19 0.555441
12 11 100 19 0.0694536
13 11 100 19 0.0694533
15 11 100 19 0.027779
17 11 100 19 6.77612e-05
5 12 100 19 0.0137073
6 12 100 19 0.0137082
7 12 100 19 0.046671
8 12 100 19 0.0231188
9 12 100 19 0.0274164
10 12 100 19 0.0411246
11 12 100 19 0.123368
12 12 100 19 0.520644
13 12 100 19 0.0685391
14 12 100 19 0.0942864
16 12 100 19 0.0274164
6 13 100 19 0.0137882
7 13 100 19 0.0137882
8 13 100 19 0.0413653
9 13 100 19 0.0137881
10 13 100 19 0.0348641
11 13 100 19 0.0689409
12 13 100 19 0.124094
13 13 100 19 0.496356
14 13 100 19 0.0689409
15 13 100 19 0.0827097
16 13 100 19 0.0137882
17 13 100 19 0.0275764
7 14 100 19 0.0138893
9 14 100 19 0.041667
10 14 100 19 0.0138893
11 14 100 19 0.0277773
12 14 100 19 0.0694443
13 14 100 19 0.138889
14 14 100 19 0.513867
15 14 100 19 0.0694646
16 14 100 19 0.0833341
17 14 100 19 0.0138893
18 14 100 19 0.0138893
4 15 100 19 1.3927e-06
7 15 100 19 0.00303797
8 15 100 19 0.0275097
10 15 100 19 0.0412669
11 15 100 19 0.0137556
12 15 100 19 0.0412669
13 15 100 19 0.0687775
14 15 100 19 0.130456
15 15 100 19 0.495107
16 15 100 19 0.0687761
17 15 100 19 0.0687779
18 15 100 19 0.0275113
19 15 100 19 0.0137556
8 16 100 19 0.0176216
9 16 100 19 0.0276762
11 16 100 19 0.0415129
12 16 100 19 0.0276758
13 16 100 19 0.0415119
14 16 100 19 0.0691906
15 16 100 19 0.138316
16 16 100 19 0.470439
17 16 100 19 0.0691889
18 16 100 19 0.0691906
19 16 100 19 0.0276762
9 17 100 19 0.0275797
10 17 100 19 0.0275802
12 17 100 19 0.0413694
13 17 100 19 0.027579
14 17 100 19 0.0484821
15 17 100 19 0.0689485
16 17 100 19 0.165479
17 17 100 19 0.468868
18 17 100 19 0.0689518
19 17 100 19 0.0551615
6 18 100 19 0.000453931
10 18 100 19 0.032028
11 18 100 19 0.0320284
13 18 100 19 0.0480425
14 18 100 19 0.0179648
15 18 100 19 0.0640578
16 18 100 19 0.0800686
17 18 100 19 0.192168
18 18 100 19 0.453117
19 18 100 19 0.0800709
11 19 100 19 0.0380878
12 19 100 19 0.0380878
14 19 100 19 0.0571315
15 19 100 19 0.0190442
16 19 100 19 0.0761759
17 19 100 19 0.0952201
18 19 100 19 0.29537
19 19 100 19 0.380883
12 20 100 19 0.0555556
13 20 100 19 0.0555556
15 20 100 19 0.0833293
16 20 100 19 0.0277778
17 20 100 19 0.111111
18 20 100 19 0.166671
19 20 100 19 0.5
6 21 100 19 2.42078e-07
11 21 100 19 3.64314e-07
13 21 100 19 0.111147
14 21 100 19 0.111149
16 21 100 19 0.166721
17 21 100 19 0.0552414
18 21 100 19 0.2223
19 21 100 19 0.333441
6 22 100 19 3.92396e-06
11 22 100 19 1.36291e-07
14 22 100 19 0.145484
15 22 100 19 0.126425
17 22 100 19 0.218424
18 22 100 19 0.0728101
19 22 100 19 0.436853
1 23 100 19 8.1424e-05
8 23 100 19 0.000245261
15 23 100 19 0.305092
16 23 100 19 0.152519
18 23 100 19 0.406537
19 23 100 19 0.135525
1 24 100 19 0.00255556
2 24 100 19 2.59122e-07
6 24 100 19 2.41811e-06
16 24 100 19 0.380933
17 24 100 19 0.145619
18 24 100 19 0.0340321
19 24 100 19 0.436857
8 25 100 19 2.9434e-07
14 25 100 19 1.84949e-06
17 25 100 19 0.399989
18 25 100 19 0.200006
19 25 100 19 0.400003
3 26 100 19 1.65045e-06
16 26 100 19 0.0781112
17 26 100 19 1.04404e-06
18 26 100 19 0.614588
19 26 100 19 0.307298
1 27 100 19 0.150719
4 27 100 19 1.44641e-06
8 27 100 19 0.00103816
14 27 100 19 7.9774e-06
17 27 100 19 0.266663
18 27 100 19 0.0441899
19 27 100 19 0.537381
18 28 100 19 0.587941
19 28 100 19 0.412059
18 29 100 19 0.0685308
19 29 100 19 0.931469
10 30 100 19 1
18 31 100 19 1
9 32 100 19 3.23143e-05
12 32 100 19 3.8292e-05
15 32 100 19 4.3532e-05
16 32 100 19 3.73661e-05
19 32 100 19 0.999848
18 33 100 19 1
18 35 100 19 1
19 36 100 19 1
1 0 100 20 6.49108e-05
2 0 100 20 0.026695
3 0 100 20 0.000403009
4 0 100 20 0.0901546
5 0 100 20 0.126079
6 0 100 20 0.0827811
7 0 100 20 0.145145
8 0 100 20 0.0317698
9 0 100 20 0.0739173
10 0 100 20 0.0698931
11 0 100 20 0.0322431
12 0 100 20 0.0329252
13 0 100 20 0.0348114
14 0 100 20 0.000369681
15 0 100 20 0.127724
16 0 100 20 0.062212
17 0 100 20 0.0311798
18 0 100 20 0.0316313
19 0 100 20 5.07445e-07
1 1 100 20 0.942147
2 1 100 20 0.0287612
3 1 100 20 0.00991814
5 1 100 20 0.00958828
10 1 100 20 0.00958527
1 2 100 20 0.00349827
2 2 100 20 0.893582
3 2 100 20 0.0412293
4 2 100 20 0.0102977
6 2 100 20 0.0308124
11 2 100 20 0.0102971
14 2 100 20 0.0102837
1 3 100 20 0.00413675
2 3 100 20 0.041534
3 3 100 20 0.840918
4 3 100 20 0.0515339
5 3 100 20 0.0207668
6 3 100 20 3.41619e-05
7 3 100 20 0.0208252
9 3 100 20 0.00990793
15 3 100 20 0.0103412
16 3 100 20 2.3628e-06
1 4 100 20 0.0104036
2 4 100 20 0.0104675
3 4 100 20 0.0523388
4 4 100 20 0.80118
5 4 100 20 0.052336
6 4 100 20 0.0314028
8 4 100 20 0.0209346
9 4 100 20 0.010467
10 4 100 20 1.77597e-06
16 4 100 20 0.0104676
1 5 100 20 0.0320192
2 5 100 20 0.0426981
3 5 100 20 0.0106856
4 5 100 20 0.0582766
5 5 100 20 0.715727
6 5 100 20 0.0845958
7 5 100 20 0.0346494
9 5 100 20 0.0106737
17 5 100 20 0.0106745
2 6 100 20 0.0245461
3 6 100 20 0.0412337
4 6 100 20 0.0206199
5 6 100 20 0.089113
6 6 100 20 0.649237
7 6 100 20 0.103091
8 6 100 20 0.0515406
9 6 100 20 3.56e-07
10 6 100 20 0.0103093
18 6 100 20 0.0103093
3 7 100 20 0.0319274
4 7 100 20 0.0532524
5 7 100 20 0.0293343
6 7 100 20 0.0426263
7 7 100 20 0.598444
8 7 100 20 0.11722
9 7 100 20 0.0638748
10 7 100 20 0.0101373
11 7 100 20 0.0212324
12 7 100 20 0.0106505
14 7 100 20 0.0106505
19 7 100 20 0.0106505
2 8 100 20 0.0107302
3 8 100 20 0.0210791
4 8 100 20 0.0231516
5 8 100 20 0.0537459
6 8 100 20 0.0536373
7 8 100 20 0.0487746
8 8 100 20 0.59551
9 8 100 20 0.118065
10 8 100 20 0.0643804
13 8 100 20 0.0106617
15 8 100 20 2.45735e-07
16 8 100 20 7.83884e-07
17 8 100 20 0.000263279
3 9 100 20 0.0106052
4 9 100 20 0.0105976
5 9 100 20 0.0336836
6 9 100 20 0.0659953
7 9 100 20 0.0529875
8 9 100 20 0.0529774
9 9 100 20 0.551013
10 9 100 20 0.137307
11 9 100 20 0.0635831
12 9 100 20 0.0211866
15 9 100 20 6.32004e-05
2 10 100 20 1.34398e-06
4 10 100 20 0.011111
5 10 100 20 0.0106073
6 10 100 20 0.0318233
7 10 100 20 0.0790697
8 10 100 20 0.0636327
9 10 100 20 0.0644846
10 10 100 20 0.500646
11 10 100 20 0.1432
12 10 100 20 0.0636159
13 10 100 20 0.0212005
16 10 100 20 0.0106073
18 10 100 20 2.6842e-07
3 11 100 20 0.010378
5 11 100 20 0.0145862
6 11 100 20 0.00515715
7 11 100 20 0.0311582
8 11 100 20 0.0727057
9 11 100 20 0.041544
10 11 100 20 0.0768768
11 11 100 20 0.477749
12 11 100 20 0.165991
13 11 100 20 0.0726946
14 11 100 20 0.0207733
17 11 100 20 0.0103863
2 12 100 20 1.40685e-06
4 12 100 20 0.0108865
5 12 100 20 1.45994e-06
6 12 100 20 0.0301753
7 12 100 20 0.010881
8 12 100 20 0.038101
9 12 100 20 0.0762127
10 12 100 20 0.039201
11 12 100 20 0.0979527
12 12 100 20 0.435367
13 12 100 20 0.163248
14 12 100 20 0.0761985
15 12 100 20 0.0217728
5 13 100 20 0.0106241
6 13 100 20 0.0106241
7 13 100 20 0.0318724
8 13 100 20 0.0106241
9 13 100 20 0.042497
10 13 100 20 0.0783178
11 13 100 20 0.0478026
12 13 100 20 0.0956166
13 13 100 20 0.421432
14 13 100 20 0.165584
15 13 100 20 0.0531337
16 13 100 20 0.0318724
6 14 100 20 0.0109045
8 14 100 20 0.032712
9 14 100 20 0.0109045
10 14 100 20 0.0436251
11 14 100 20 0.0763307
12 14 100 20 0.0763255
13 14 100 20 0.101763
14 14 100 20 0.38589
15 14 100 20 0.17431
16 14 100 20 0.0545218
17 14 100 20 0.0327132
6 15 100 20 2.83549e-07
7 15 100 20 0.010891
9 15 100 20 0.0435673
10 15 100 20 0.0108918
11 15 100 20 0.0435686
12 15 100 20 0.0762445
13 15 100 20 0.0787547
14 15 100 20 0.109113
15 15 100 20 0.36492
16 15 100 20 0.16402
17 15 100 20 0.0544613
18 15 100 20 0.0435679
6 16 100 20 4.89726e-07
7 16 100 20 0.0108317
8 16 100 20 0.0108317
10 16 100 20 0.0433241
11 16 100 20 0.0108317
12 16 100 20 0.0541637
13 16 100 20 0.0758202
14 16 100 20 0.0866515
15 16 100 20 0.102864
16 16 100 20 0.344722
17 16 100 20 0.162474
18 16 100 20 0.0541583
19 16 100 20 0.0433268
8 17 100 20 0.0214969
9 17 100 20 0.0106671
11 17 100 20 0.0429935
12 17 100 20 0.0214592
13 17 100 20 0.0611568
14 17 100 20 0.0967351
15 17 100 20 0.0859873
16 17 100 20 0.10837
17 17 100 20 0.303924
18 17 100 20 0.161222
19 17 100 20 0.0537423
20 17 100 20 0.0322454
9 18 100 20 0.0184194
12 18 100 20 0.0444937
13 18 100 20 0.0111238
14 18 100 20 0.044495
15 18 100 20 0.100109
16 18 100 20 0.101055
17 18 100 20 0.135247
18 18 100 20 0.300335
19 18 100 20 0.166857
20 18 100 20 0.0778664
4 19 100 20 1.06847e-05
5 19 100 20 0.0120482
7 19 100 20 0.012063
9 19 100 20 8.02845e-07
10 19 100 20 0.0361579
13 19 100 20 0.0482518
14 19 100 20 0.012063
15 19 100 20 0.0603146
16 19 100 20 0.103375
17 19 100 20 0.120617
18 19 100 20 0.162838
19 19 100 20 0.287504
20 19 100 20 0.144756
6 20 100 20 7.72266e-05
9 20 100 20 7.20613e-06
10 20 100 20 0.0048351
11 20 100 20 0.0296742
14 20 100 20 0.0671528
15 20 100 20 0.0148371
16 20 100 20 0.0804905
17 20 100 20 0.141881
18 20 100 20 0.133533
19 20 100 20 0.230769
20 20 100 20 0.296742
8 21 100 20 1.38952e-06
10 21 100 20 0.0212729
11 21 100 20 0.0212765
12 21 100 20 0.042553
14 21 100 20 5.23535e-06
15 21 100 20 0.0851042
16 21 100 20 0.0212762
17 21 100 20 0.106388
18 21 100 20 0.191487
19 21 100 20 0.191488
20 21 100 20 0.319147
6 22 100 20 6.75675e-06
7 22 100 20 3.75326e-07
9 22 100 20 5.24061e-05
10 22 100 20 3.25289e-07
11 22 100 20 0.0297438
12 22 100 20 0.026367
13 22 100 20 0.04428
14 22 100 20 0.0145471
16 22 100 20 0.134603
17 22 100 20 0.0548858
18 22 100 20 0.17686
19 22 100 20 0.246986
20 22 100 20 0.271667
3 23 100 20 3.61845e-07
5 23 100 20 6.29969e-07
7 23 100 20 8.24195e-07
11 23 100 20 1.02303e-07
12 23 100 20 4.40951e-07
13 23 100 20 0.035405
14 23 100 20 0.106184
15 23 100 20 0.0354049
17 23 100 20 0.176122
18 23 100 20 0.0552418
19 23 100 20 0.234035
20 23 100 20 0.357605
3 24 100 20 8.45333e-06
4 24 100 20 4.35013e-07
7 24 100 20 4.1723e-06
9 24 100 20 5.10623e-07
14 24 100 20 0.0552583
15 24 100 20 0.16286
16 24 100 20 0.055049
18 24 100 20 0.27516
19 24 100 20 0.121364
20 24 100 20 0.330296
1 25 100 20 0.0566935
3 25 100 20 5.50126e-07
4 25 100 20 1.36908e-07
5 25 100 20 7.80508e-07
9 25 100 20 0.000135386
10 25 100 20 7.47498e-07
15 25 100 20 0.071645
16 25 100 20 0.214276
17 25 100 20 0.0717069
18 25 100 20 0.000193142
19 25 100 20 0.370229
20 25 100 20 0.215119
2 26 100 20 0.00745006
4 26 100 20 5.87715e-07
9 26 100 20 1.22021e-07
16 26 100 20 0.0764203
17 26 100 20 0.228189
18 26 100 20 0.0764333
19 26 100 20 0.076477
20 26 100 20 0.53503
3 27 100 20 3.62171e-06
17 27 100 20 0.143049
18 27 100 20 0.427801
19 27 100 20 0.143049
20 27 100 20 0.286097
18 28 100 20 0.251561
19 28 100 20 0.572856
20 28 100 20 0.175583
2 29 100 20 1.869e-06
5 29 100 20 1.07052e-06
19 29 100 20 0.249998
20 29 100 20 0.749999
12 30 100 20 1.34165e-06
20 30 100 20 0.999999
19 31 100 20 1
20 32 100 20 1
1 0 100 21 3.52978e-06
2 0 100 21 0.088324
3 0 100 21 0.0859624
4 0 100 21 0.000199584
5 0 100 21 7.67116e-05
6 0 100 21 0.0717625
7 0 100 21 0.000170702
8 0 100 21 0.0442147
9 0 100 21 0.0942279
10 0 100 21 0.0467835
11 0 100 21 0.0445882
12 0 100 21 0.0491619
13 0 100 21 0.0353907
14 0 100 21 0.0452903
15 0 100 21 0.000424193
16 0 100 21 0.0441669
17 0 100 21 0.000127452
18 0 100 21 0.0890742
19 0 100 21 0.17302
20 0 100 21 0.0870302
1 1 100 21 0.988254
8 1 100 21 0.0117457
1 2 100 21 0.00789537
2 2 100 21 0.922081
3 2 100 21 0.0233392
4 2 100 21 0.0116691
5 2 100 21 0.0116721
6 2 100 21 0.0116721
9 2 100 21 0.0116715
2 3 100 21 0.0248736
3 3 100 21 0.912967
4 3 100 21 0.0124369
5 3 100 21 0.0124368
6 3 100 21 0.0124369
7 3 100 21 0.0124119
10 3 100 21 0.0124363
11 3 100 21 4.96161e-07
1 4 100 21 0.0124045
3 4 100 21 0.0572715
4 4 100 21 0.8807
5 4 100 21 0.0124045
7 4 100 21 0.0124043
8 4 100 21 0.0124046
11 4 100 21 0.0124046
13 4 100 21 5.57437e-06
1 5 100 21 0.0122536
4 5 100 21 0.0612707
5 5 100 21 0.852953
6 5 100 21 0.0245073
7 5 100 21 0.0122536
8 5 100 21 0.0122536
9 5 100 21 0.0122536
12 5 100 21 0.012254
14 5 100 21 3.83933e-07
17 5 100 21 2.68642e-07
2 6 100 21 0.0124727
4 6 100 21 0.0151782
5 6 100 21 0.0672334
6 6 100 21 0.817827
7 6 100 21 0.0249463
9 6 100 21 0.0249455
10 6 100 21 0.0124708
13 6 100 21 0.0124732
14 6 100 21 0.0124529
2 7 100 21 2.76963e-07
3 7 100 21 0.0124039
5 7 100 21 0.012403
6 7 100 21 0.0947775
7 7 100 21 0.799778
8 7 100 21 0.0186184
10 7 100 21 0.0248071
11 7 100 21 0.0124039
14 7 100 21 0.0124039
15 7 100 21 0.0124039
4 8 100 21 0.0134213
6 8 100 21 0.0202642
7 8 100 21 0.0939351
8 8 100 21 0.792083
9 8 100 21 0.0135324
11 8 100 21 0.02684
12 8 100 21 0.013431
15 8 100 21 0.01342
16 8 100 21 0.013073
3 9 100 21 0.0119324
5 9 100 21 0.0238648
6 9 100 21 0.00942569
7 9 100 21 0.0181428
8 9 100 21 0.142899
9 9 100 21 0.686377
10 9 100 21 0.0477167
11 9 100 21 0.0119111
12 9 100 21 0.0238648
13 9 100 21 0.011932
16 9 100 21 0.0119324
18 9 100 21 4.93185e-07
1 10 100 21 0.0125377
3 10 100 21 3.62908e-06
4 10 100 21 0.0159698
6 10 100 21 0.0047817
7 10 100 21 0.0376125
8 10 100 21 0.0250755
9 10 100 21 0.138759
10 10 100 21 0.653562
11 10 100 21 0.0376132
12 10 100 21 0.0239463
13 10 100 21 0.0250754
14 10 100 21 0.0125377
17 10 100 21 0.0125254
2 11 100 21 0.0228212
4 11 100 21 0.0228448
5 11 100 21 0.0228509
6 11 100 21 0.0228514
7 11 100 21 0.0228516
8 11 100 21 0.0342767
9 11 100 21 0.0228508
10 11 100 21 0.131651
11 11 100 21 0.548469
12 11 100 21 0.0457021
13 11 100 21 0.0342773
14 11 100 21 0.0342765
15 11 100 21 0.0114258
18 11 100 21 0.0114258
20 11 100 21 0.0114258
2 12 100 21 2.45694e-05
3 12 100 21 0.0250038
4 12 100 21 0.0125031
6 12 100 21 0.0125026
7 12 100 21 0.0125027
8 12 100 21 0.0187411
9 12 100 21 0.0375096
10 12 100 21 0.041154
11 12 100 21 0.162494
12 12 100 21 0.524434
13 12 100 21 0.0656425
14 12 100 21 0.0250062
15 12 100 21 0.0375065
16 12 100 21 0.012503
19 12 100 21 0.0124725
4 13 100 21 0.0131319
7 13 100 21 0.0131319
8 13 100 21 0.0131318
9 13 100 21 0.0131319
10 13 100 21 0.0398366
11 13 100 21 0.0657031
12 13 100 21 0.169263
13 13 100 21 0.501952
14 13 100 21 0.0656594
15 13 100 21 0.0393985
16 13 100 21 0.0393957
17 13 100 21 0.0131319
20 13 100 21 0.0131319
2 14 100 21 2.6908e-07
4 14 100 21 0.00336525
5 14 100 21 0.0255432
6 14 100 21 4.28403e-05
9 14 100 21 0.0255428
10 14 100 21 0.0255441
11 14 100 21 0.0326649
12 14 100 21 0.0893997
13 14 100 21 0.159606
14 14 100 21 0.472258
15 14 100 21 0.0638598
16 14 100 21 0.0383148
17 14 100 21 0.0383148
18 14 100 21 0.0127716
21 14 100 21 0.0127716
6 15 100 21 0.0250219
8 15 100 21 0.0125109
10 15 100 21 0.025021
11 15 100 21 0.0429322
12 15 100 21 0.0508728
13 15 100 21 0.101871
14 15 100 21 0.153871
15 15 100 21 0.437771
16 15 100 21 0.0625531
17 15 100 21 0.0375325
18 15 100 21 0.0375328
19 15 100 21 0.0125094
2 16 100 21 0.0121684
4 16 100 21 0.00298659
7 16 100 21 0.0122049
9 16 100 21 0.0154131
10 16 100 21 0.011757
11 16 100 21 0.0243345
12 16 100 21 0.0365054
13 16 100 21 0.0547898
14 16 100 21 0.105854
15 16 100 21 0.170352
16 16 100 21 0.407615
17 16 100 21 0.0608419
18 16 100 21 0.0365046
19 16 100 21 0.0365042
20 16 100 21 0.0121684
3 17 100 21 0.0124965
4 17 100 21 0.012475
5 17 100 21 0.0124965
7 17 100 21 0.0124585
8 17 100 21 0.0124942
10 17 100 21 0.0124965
12 17 100 21 0.024993
13 17 100 21 0.0374896
14 17 100 21 0.0624848
15 17 100 21 0.112465
16 17 100 21 0.149957
17 17 100 21 0.399876
18 17 100 21 0.0624799
19 17 100 21 0.024993
20 17 100 21 0.0378477
21 17 100 21 0.0124965
2 18 100 21 2.50414e-07
4 18 100 21 0.0124884
5 18 100 21 0.0124886
6 18 100 21 0.0124886
8 18 100 21 0.0124886
9 18 100 21 0.0124886
11 18 100 21 0.0248395
12 18 100 21 0.000937764
13 18 100 21 0.0276595
14 18 100 21 0.0374652
15 18 100 21 0.0624418
16 18 100 21 0.124886
17 18 100 21 0.16242
18 18 100 21 0.347043
19 18 100 21 0.0624429
20 18 100 21 0.0249773
21 18 100 21 0.0624432
5 19 100 21 0.0133246
7 19 100 21 0.0133246
9 19 100 21 0.0133246
10 19 100 21 0.0133245
11 19 100 21 0.000146328
12 19 100 21 0.0133246
13 19 100 21 1.57508e-07
14 19 100 21 0.0266488
15 19 100 21 0.0398799
16 19 100 21 0.0818756
17 19 100 21 0.148245
18 19 100 21 0.19578
19 19 100 21 0.320883
20 19 100 21 0.0799452
21 19 100 21 0.0399738
6 20 100 21 0.00712336
8 20 100 21 0.0148084
10 20 100 21 0.0148075
11 20 100 21 0.0148068
13 20 100 21 0.0147994
15 20 100 21 0.029669
16 20 100 21 0.049709
17 20 100 21 0.08885
18 20 100 21 0.162892
19 20 100 21 0.177699
20 20 100 21 0.335985
21 20 100 21 0.0888513
9 21 100 21 0.016482
11 21 100 21 0.016482
12 21 100 21 0.0329639
15 21 100 21 5.78999e-05
16 21 100 21 0.0333901
17 21 100 21 0.0637554
18 21 100 21 0.107131
19 21 100 21 0.230745
20 21 100 21 0.185835
21 21 100 21 0.313157
2 22 100 21 0.0225892
10 22 100 21 0.0225892
11 22 100 21 4.54798e-07
12 22 100 21 0.0225892
13 22 100 21 0.0534758
17 22 100 21 0.0677667
18 22 100 21 0.0903541
19 22 100 21 0.173103
20 22 100 21 0.29905
21 22 100 21 0.248481
3 23 100 21 0.0305309
6 23 100 21 1.67198e-07
11 23 100 21 0.0304516
12 23 100 21 0.030531
13 23 100 21 0.030531
14 23 100 21 0.0846992
17 23 100 21 0.000233272
18 23 100 21 0.0610552
19 23 100 21 0.151999
20 23 100 21 0.183068
21 23 100 21 0.3969
1 24 100 21 0.0349347
2 24 100 21 0.000138504
4 24 100 21 1.84529e-06
5 24 100 21 5.93682e-06
6 24 100 21 2.48068e-07
9 24 100 21 1.41957e-05
12 24 100 21 0.0454839
13 24 100 21 0.0233139
14 24 100 21 0.0470505
15 24 100 21 0.134999
18 24 100 21 0.0449998
19 24 100 21 0.113213
20 24 100 21 0.330846
21 24 100 21 0.224998
5 25 100 21 0.000414361
13 25 100 21 0.055091
14 25 100 21 0.055091
15 25 100 21 0.055091
16 25 100 21 0.162196
17 25 100 21 1.70587e-07
19 25 100 21 0.0567901
20 25 100 21 0.174599
21 25 100 21 0.440727
5 26 100 21 2.43974e-07
6 26 100 21 1.9976e-07
14 26 100 21 0.0513033
15 26 100 21 0.0721307
16 26 100 21 0.0797627
17 26 100 21 0.23847
20 26 100 21 0.0797621
21 26 100 21 0.47857
3 27 100 21 7.41844e-07
15 27 100 21 0.142872
16 27 100 21 0.142872
17 27 100 21 0.142872
18 27 100 21 0.428513
21 27 100 21 0.142871
11 28 100 21 0.000386302
16 28 100 21 0.17203
17 28 100 21 0.166854
18 28 100 21 0.166854
19 28 100 21 0.493875
4 29 100 21 0.000747857
6 29 100 21 7.5976e-07
17 29 100 21 0.129803
18 29 100 21 0.146861
19 29 100 21 0.147159
20 29 100 21 0.575427
13 30 100 21 1.66336e-07
17 30 100 21 1.27408e-06
18 30 100 21 0.14286
19 30 100 21 0.14286
20 30 100 21 0.14286
21 30 100 21 0.57142
2 31 100 21 7.50805e-05
3 31 100 21 0.00237076
11 31 100 21 1.45861e-06
19 31 100 21 0.305173
20 31 100 21 0.387208
21 31 100 21 0.305172
3 32 100 21 0.197301
20 32 100 21 0.40135
21 32 100 21 0.401349
10 33 100 21 1.41297e-05
18 33 100 21 3.16202e-05
21 33 100 21 0.999954
21 35 100 21 1
21 36 100 21 1
2 0 100 22 7.89129e-05
3 0 100 22 0.0932526
4 0 100 22 0.077297
5 0 100 22 0.082912
6 0 100 22 0.104333
7 0 100 22 0.0829949
8 0 100 22 0.0417047
9 0 100 22 0.16505
10 0 100 22 0.0442519
11 0 100 22 0.000156409
12 0 100 22 0.0859635
13 0 100 22 0.0822131
14 0 100 22 0.000675706
15 0 100 22 8.27787e-05
16 0 100 22 0.000218816
17 0 100 22 0.0710713
18 0 100 22 5.27601e-05
19 0 100 22 0.0672423
20 0 100 22 0.000395396
21 0 100 22 5.32888e-05
1 1 100 22 0.98717
3 1 100 22 0.000334713
8 1 100 22 0.0124954
1 2 100 22 0.0128692
2 2 100 22 0.961434
3 2 100 22 1.61323e-06
4 2 100 22 0.0128308
9 2 100 22 0.0128648
1 3 100 22 0.0123944
2 3 100 22 0.0463257
3 3 100 22 0.891426
4 3 100 22 0.0125125
5 3 100 22 0.0248501
10 3 100 22 0.0124294
12 3 100 22 6.10984e-05
16 3 100 22 1.17021e-06
3 4 100 22 0.051572
4 4 100 22 0.877703
5 4 100 22 0.0257876
6 4 100 22 0.019146
7 4 100 22 0.0128938
11 4 100 22 0.0128938
12 4 100 22 4.81003e-07
13 4 100 22 3.01732e-06
2 5 100 22 0.0106589
4 5 100 22 0.064722
5 5 100 22 0.835331
6 5 100 22 0.0510204
7 5 100 22 0.0127555
8 5 100 22 0.0127555
12 5 100 22 0.012755
13 5 100 22 1.23745e-06
3 6 100 22 0.0254762
5 6 100 22 0.0701945
6 6 100 22 0.802421
7 6 100 22 0.0636499
8 6 100 22 0.0127381
9 6 100 22 0.012737
13 6 100 22 0.0127381
17 6 100 22 1.27439e-05
19 6 100 22 3.26098e-05
1 7 100 22 0.0124894
4 7 100 22 0.0249788
6 7 100 22 0.0864461
7 7 100 22 0.757177
8 7 100 22 0.0624468
9 7 100 22 0.0124894
10 7 100 22 0.0124894
11 7 100 22 0.0067322
14 7 100 22 0.0124894
19 7 100 22 0.0122617
1 8 100 22 0.0128461
2 8 100 22 0.0221952
5 8 100 22 0.0256922
7 8 100 22 0.0665265
8 8 100 22 0.732139
9 8 100 22 0.0642306
11 8 100 22 0.0256922
12 8 100 22 0.0249842
13 8 100 22 1.48993e-06
15 8 100 22 0.0128461
20 8 100 22 0.0128461
2 9 100 22 0.012823
3 9 100 22 0.0128876
4 9 100 22 0.0125978
6 9 100 22 0.0266489
8 9 100 22 0.0897498
9 9 100 22 0.666703
10 9 100 22 0.12743
12 9 100 22 0.0126938
14 9 100 22 0.012823
16 9 100 22 0.012823
21 9 100 22 0.0128203
3 10 100 22 0.00758158
4 10 100 22 0.0256885
5 10 100 22 0.0256649
7 10 100 22 0.0454806
8 10 100 22 0.0128444
9 10 100 22 0.137445
10 10 100 22 0.636686
11 10 100 22 0.0829689
15 10 100 22 0.0128444
17 10 100 22 0.0127159
19 10 100 22 8.03194e-05
5 11 100 22 0.0134019
6 11 100 22 0.0134019
7 11 100 22 0.00878768
8 11 100 22 0.053606
9 11 100 22 0.00688224
10 11 100 22 0.112857
11 11 100 22 0.683475
12 11 100 22 0.0806504
13 11 100 22 0.0134024
16 11 100 22 0.0134018
17 11 100 22 0.000133442
3 12 100 22 0.00348661
6 12 100 22 0.013591
7 12 100 22 0.0135907
8 12 100 22 0.0135912
9 12 100 22 0.0449313
10 12 100 22 0.013591
11 12 100 22 0.108722
12 12 100 22 0.652356
13 12 100 22 0.0817761
14 12 100 22 0.0271824
17 12 100 22 0.013591
18 12 100 22 0.0135912
2 13 100 22 0.0130693
7 13 100 22 0.0130747
9 13 100 22 0.0325279
10 13 100 22 0.0392219
11 13 100 22 0.0261494
12 13 100 22 0.117671
13 13 100 22 0.614465
14 13 100 22 0.0915229
15 13 100 22 0.0261483
18 13 100 22 0.0130747
19 13 100 22 0.0130747
3 14 100 22 0.0129304
8 14 100 22 0.0129864
10 14 100 22 0.0519457
11 14 100 22 0.0519451
12 14 100 22 0.0132431
13 14 100 22 0.129862
14 14 100 22 0.584237
15 14 100 22 0.0909051
16 14 100 22 0.0259725
19 14 100 22 0.0129863
20 14 100 22 0.0129864
8 15 100 22 0.0125774
9 15 100 22 0.000130229
10 15 100 22 0.000144707
11 15 100 22 0.0503088
12 15 100 22 0.0497505
13 15 100 22 0.0251197
14 15 100 22 0.138302
15 15 100 22 0.560118
16 15 100 22 0.113197
17 15 100 22 0.0251553
19 15 100 22 4.23056e-05
20 15 100 22 0.0125776
21 15 100 22 0.0125776
3 16 100 22 0.00199215
5 16 100 22 4.75213e-07
7 16 100 22 0.0129224
10 16 100 22 0.0253749
12 16 100 22 0.0519482
13 16 100 22 0.0651099
14 16 100 22 0.0130152
15 16 100 22 0.136209
16 16 100 22 0.520528
17 16 100 22 0.12084
18 16 100 22 0.02603
21 16 100 22 0.0130152
22 16 100 22 0.0130152
4 17 100 22 0.013694
9 17 100 22 1.17318e-06
10 17 100 22 0.000530942
11 17 100 22 0.013694
13 17 100 22 0.0547761
14 17 100 22 0.0684682
15 17 100 22 0.013694
16 17 100 22 0.177779
17 17 100 22 0.465646
18 17 100 22 0.13694
19 17 100 22 0.027388
20 17 100 22 0.013694
22 17 100 22 0.013694
5 18 100 22 0.0134399
7 18 100 22 2.69459e-05
10 18 100 22 3.89797e-05
11 18 100 22 0.0134399
12 18 100 22 0.0134399
14 18 100 22 0.0537566
15 18 100 22 0.067199
16 18 100 22 0.0137007
17 18 100 22 0.188151
18 18 100 22 0.456949
19 18 100 22 0.139539
20 18 100 22 0.0268796
21 18 100 22 0.0134399
6 19 100 22 0.0133699
7 19 100 22 3.90123e-07
12 19 100 22 0.0133661
13 19 100 22 0.0133645
14 19 100 22 0.0133699
15 19 100 22 0.0534794
16 19 100 22 0.0668472
17 19 100 22 0.0401124
18 19 100 22 0.192226
19 19 100 22 0.406796
20 19 100 22 0.160328
21 19 100 22 0.0267397
3 20 100 22 4.57448e-07
7 20 100 22 0.0129027
13 20 100 22 0.0128836
14 20 100 22 0.0128836
15 20 100 22 0.0257672
16 20 100 22 0.0386484
17 20 100 22 0.0772949
18 20 100 22 0.0466656
19 20 100 22 0.193214
20 20 100 22 0.386499
21 20 100 22 0.167473
22 20 100 22 0.0257673
8 21 100 22 0.0138057
14 21 100 22 0.0138063
15 21 100 22 0.0138063
16 21 100 22 0.031377
17 21 100 22 0.0414171
18 21 100 22 0.0828374
19 21 100 22 0.0631708
20 21 100 22 0.207089
21 21 100 22 0.367014
22 21 100 22 0.165676
8 22 100 22 0.0179447
9 22 100 22 0.0179447
12 22 100 22 0.0179447
15 22 100 22 0.0179447
16 22 100 22 0.0309895
17 22 100 22 0.0358894
18 22 100 22 0.053834
19 22 100 22 0.107666
20 22 100 22 0.053834
21 22 100 22 0.26917
22 22 100 22 0.376839
9 23 100 22 0.0285537
10 23 100 22 0.0285541
13 23 100 22 0.0285541
16 23 100 22 0.0285541
17 23 100 22 0.0571081
18 23 100 22 0.0285541
19 23 100 22 0.0856622
20 23 100 22 0.171324
21 23 100 22 0.0862705
22 23 100 22 0.456865
1 24 100 22 1.09548e-07
7 24 100 22 1.24508e-05
8 24 100 22 2.982e-07
10 24 100 22 0.0373315
11 24 100 22 0.041208
12 24 100 22 0.0148988
14 24 100 22 0.0436722
15 24 100 22 1.15303e-07
16 24 100 22 1.91435e-07
17 24 100 22 0.0437458
18 24 100 22 0.0828341
19 24 100 22 0.0436722
20 24 100 22 0.172329
21 24 100 22 0.301936
22 24 100 22 0.218359
1 25 100 22 9.65387e-07
2 25 100 22 2.62416e-05
9 25 100 22 0.000133155
11 25 100 22 0.0552702
12 25 100 22 0.0440997
13 25 100 22 4.20449e-07
15 25 100 22 0.0552702
16 25 100 22 2.18672e-05
18 25 100 22 0.057708
19 25 100 22 0.100242
20 25 100 22 0.0552702
21 25 100 22 0.189799
22 25 100 22 0.442159
2 26 100 22 1.0111e-06
6 26 100 22 6.40396e-07
9 26 100 22 0.000314046
11 26 100 22 0.000175331
12 26 100 22 0.100013
13 26 100 22 0.099866
16 26 100 22 0.0995539
17 26 100 22 3.49366e-07
19 26 100 22 0.100011
20 26 100 22 0.200022
21 26 100 22 0.100011
22 26 100 22 0.300032
9 27 100 22 4.34167e-07
13 27 100 22 0.141906
14 27 100 22 0.142295
17 27 100 22 0.00600555
20 27 100 22 0.140466
21 27 100 22 0.284664
22 27 100 22 0.284662
13 28 100 22 5.13383e-05
14 28 100 22 0.240985
15 28 100 22 0.241009
16 28 100 22 1.2916e-06
17 28 100 22 0.0359353
21 28 100 22 0.241009
22 28 100 22 0.241009
7 29 100 22 0.00122438
8 29 100 22 1.65703e-06
11 29 100 22 7.47733e-06
12 29 100 22 3.50093e-07
15 29 100 22 0.222019
16 29 100 22 0.313526
17 29 100 22 2.02442e-06
18 29 100 22 0.239279
22 29 100 22 0.223941
11 30 100 22 7.13601e-07
16 30 100 22 0.250003
17 30 100 22 0.249987
18 30 100 22 0.250003
19 30 100 22 0.250003
20 30 100 22 3.3226e-06
4 31 100 22 5.58363e-07
9 31 100 22 6.49429e-07
17 31 100 22 0.183852
18 31 100 22 0.183799
19 31 100 22 0.181609
20 31 100 22 0.183853
21 31 100 22 0.0830354
22 31 100 22 0.18385
3 32 100 22 3.29514e-07
17 32 100 22 4.02039e-05
18 32 100 22 0.166732
19 32 100 22 0.166297
20 32 100 22 0.166732
21 32 100 22 0.166736
22 32 100 22 0.333463
7 33 100 22 4.0384e-07
9 33 100 22 6.61329e-07
19 33 100 22 1.0267e-05
20 33 100 22 0.200004
21 33 100 22 0.199998
22 33 100 22 0.599987
11 34 100 22 1.02386e-06
18 34 100 22 1.08439e-06
21 34 100 22 0.5
22 34 100 22 0.499998
22 35 100 22 1
3 36 100 22 1
21 38 100 22 1
15 39 100 22 2.01665e-06
20 39 100 22 2.21699e-06
22 39 100 22 0.999996
4 40 100 22 1
21 41 100 22 1
22 42 100 22 1
1 0 100 23 2.26804e-05
2 0 100 23 0.149868
3 0 100 23 0.0755435
4 0 100 23 0.12795
5 0 100 23 0.0610321
6 0 100 23 0.071283
7 0 100 23 0.071593
8 0 100 23 0.000260308
9 0 100 23 0.0719312
10 0 100 23 0.000997
11 0 100 23 0.000509863
12 0 100 23 0.0121226
13 0 100 23 0.0709888
14 0 100 23 0.143888
15 0 100 23 0.0667674
16 0 100 23 0.00133476
17 0 100 23 0.0713551
18 0 100 23 0.00103192
19 0 100 23 0.00123086
20 0 100 23 0.000171511
21 0 100 23 0.000114411
22 0 100 23 3.52733e-06
1 1 100 23 0.9164
2 1 100 23 0.0232314
3 1 100 23 0.0359434
4 1 100 23 0.0122111
6 1 100 23 3.44654e-06
9 1 100 23 0.0122108
2 2 100 23 0.917852
3 2 100 23 0.0136999
4 2 100 23 0.0410482
5 2 100 23 0.0136999
10 2 100 23 0.0136999
1 3 100 23 0.0135816
2 3 100 23 0.0201896
3 3 100 23 0.869196
4 3 100 23 0.0271652
5 3 100 23 0.0427067
6 3 100 23 0.0135777
11 3 100 23 0.0135816
14 3 100 23 6.85263e-07
15 3 100 23 1.3851e-06
2 4 100 23 0.0140252
3 4 100 23 0.0280504
4 4 100 23 0.845717
5 4 100 23 0.02805
6 4 100 23 0.0561035
7 4 100 23 0.0140265
12 4 100 23 0.0140259
13 4 100 23 4.22589e-07
15 4 100 23 8.20152e-07
1 5 100 23 0.00655484
2 5 100 23 0.0135424
3 5 100 23 0.013538
4 5 100 23 0.0499132
5 5 100 23 0.79457
6 5 100 23 0.0406272
7 5 100 23 0.0270848
8 5 100 23 0.0270848
13 5 100 23 0.0135424
17 5 100 23 0.0135424
2 6 100 23 0.0147489
3 6 100 23 0.0147498
4 6 100 23 0.0148018
5 6 100 23 0.029498
6 6 100 23 0.793498
7 6 100 23 0.0442469
8 6 100 23 0.0294972
9 6 100 23 0.0294978
13 6 100 23 7.15398e-07
14 6 100 23 0.0147109
15 6 100 23 1.29404e-06
18 6 100 23 0.0147489
2 7 100 23 0.0136731
3 7 100 23 0.0273713
4 7 100 23 0.0303699
5 7 100 23 0.0409085
6 7 100 23 0.0482421
7 7 100 23 0.716292
8 7 100 23 0.0410295
9 7 100 23 0.0273712
10 7 100 23 0.0273706
14 7 100 23 3.67717e-07
15 7 100 23 0.0136856
19 7 100 23 0.0136856
1 8 100 23 0.0138949
3 8 100 23 0.0138654
4 8 100 23 0.0138986
5 8 100 23 0.0277971
6 8 100 23 0.0555943
7 8 100 23 0.0694914
8 8 100 23 0.672895
9 8 100 23 0.0352735
10 8 100 23 0.0416957
11 8 100 23 0.0277971
16 8 100 23 0.0138986
20 8 100 23 0.0138986
5 9 100 23 0.0279899
6 9 100 23 0.0279893
7 9 100 23 0.0559803
8 9 100 23 0.0839694
9 9 100 23 0.63634
10 9 100 23 0.0558158
11 9 100 23 0.0419843
12 9 100 23 0.0279867
17 9 100 23 0.013995
19 9 100 23 0.013955
21 9 100 23 0.0139947
4 10 100 23 6.069e-07
5 10 100 23 0.00503673
6 10 100 23 0.0299323
7 10 100 23 0.0300012
8 10 100 23 0.0686031
9 10 100 23 0.0746853
10 10 100 23 0.627119
11 10 100 23 0.0598608
12 10 100 23 0.0448986
13 10 100 23 0.0299324
18 10 100 23 0.0149642
22 10 100 23 0.0149662
1 11 100 23 0.0205214
2 11 100 23 1.14137e-06
6 11 100 23 0.0094005
7 11 100 23 0.0457558
8 11 100 23 0.055846
9 11 100 23 0.0837724
10 11 100 23 0.083347
11 11 100 23 0.561741
12 11 100 23 0.0558471
13 11 100 23 0.0418825
14 11 100 23 0.0279235
19 11 100 23 0.0139618
2 12 100 23 0.0136336
5 12 100 23 0.0136336
7 12 100 23 0.0136336
8 12 100 23 0.0451642
9 12 100 23 0.0680607
10 12 100 23 0.0828165
11 12 100 23 0.0844095
12 12 100 23 0.529395
13 12 100 23 0.0545334
14 12 100 23 0.0401858
15 12 100 23 0.027267
20 12 100 23 0.0272666
2 13 100 23 0.0131181
3 13 100 23 0.0131181
6 13 100 23 0.0131167
7 13 100 23 0.00306074
8 13 100 23 0.0131181
9 13 100 23 0.0393542
10 13 100 23 0.0655891
11 13 100 23 0.131108
12 13 100 23 0.07871
13 13 100 23 0.49853
14 13 100 23 0.052471
15 13 100 23 0.039354
16 13 100 23 0.0262362
21 13 100 23 0.0131163
2 14 100 23 0.000103085
3 14 100 23 0.0131575
4 14 100 23 0.0131584
7 14 100 23 0.0131584
9 14 100 23 0.0131579
10 14 100 23 0.0526334
11 14 100 23 0.0263167
12 14 100 23 0.14474
13 14 100 23 0.07895
14 14 100 23 0.499987
15 14 100 23 0.0526311
16 14 100 23 0.0263156
17 14 100 23 0.0263167
18 14 100 23 0.0262154
22 14 100 23 0.0131584
4 15 100 23 0.0136606
5 15 100 23 0.0136605
7 15 100 23 0.001914
8 15 100 23 0.0136735
10 15 100 23 0.0136606
11 15 100 23 0.0409819
12 15 100 23 0.0273213
13 15 100 23 0.150265
14 15 100 23 0.0683018
15 15 100 23 0.506261
16 15 100 23 0.0683039
17 15 100 23 0.0273209
18 15 100 23 0.0273203
19 15 100 23 0.0136942
23 15 100 23 0.0136606
5 16 100 23 0.0136226
6 16 100 23 0.0136235
8 16 100 23 0.00935003
9 16 100 23 0.0136235
10 16 100 23 0.000702899
11 16 100 23 0.0301278
12 16 100 23 0.0408698
13 16 100 23 0.0272469
14 16 100 23 0.150359
15 16 100 23 0.0945168
16 16 100 23 0.476816
17 16 100 23 0.06102
18 16 100 23 0.0272469
19 16 100 23 0.0272513
20 16 100 23 0.0136227
2 17 100 23 0.00692622
6 17 100 23 0.0138106
7 17 100 23 0.013811
9 17 100 23 0.013811
10 17 100 23 0.0138096
11 17 100 23 0.00499537
12 17 100 23 0.0138109
13 17 100 23 0.027622
14 17 100 23 0.0276192
15 17 100 23 0.152796
16 17 100 23 0.0966725
17 17 100 23 0.490556
18 17 100 23 0.0547053
19 17 100 23 0.027622
20 17 100 23 0.027622
21 17 100 23 0.0138102
3 18 100 23 0.0136909
5 18 100 23 4.02051e-07
7 18 100 23 0.0136909
8 18 100 23 0.0136909
10 18 100 23 0.0136909
11 18 100 23 0.0136909
12 18 100 23 0.0136907
13 18 100 23 0.0139717
14 18 100 23 0.0273787
15 18 100 23 0.0273917
16 18 100 23 0.164047
17 18 100 23 0.0958366
18 18 100 23 0.479702
19 18 100 23 0.0410724
20 18 100 23 0.0273819
21 18 100 23 0.0273818
22 18 100 23 0.0136903
4 19 100 23 0.0136186
8 19 100 23 0.0136183
9 19 100 23 0.013618
11 19 100 23 0.0136185
12 19 100 23 0.0136186
13 19 100 23 0.0136186
14 19 100 23 0.013619
15 19 100 23 0.0272371
16 19 100 23 0.0272371
17 19 100 23 0.163419
18 19 100 23 0.0953297
19 19 100 23 0.4825
20 19 100 23 0.0544729
21 19 100 23 0.0272369
22 19 100 23 0.0272371
5 20 100 23 0.0141743
9 20 100 23 0.0141743
10 20 100 23 0.0141743
12 20 100 23 0.0283474
13 20 100 23 0.0141743
14 20 100 23 0.0141739
15 20 100 23 0.0283482
16 20 100 23 0.0141743
17 20 100 23 0.0283453
18 20 100 23 0.170091
19 20 100 23 0.113795
20 20 100 23 0.432635
21 20 100 23 0.0566954
22 20 100 23 0.0283487
23 20 100 23 0.0283487
2 21 100 23 3.3775e-06
6 21 100 23 0.0150077
10 21 100 23 0.0150085
11 21 100 23 0.0150085
13 21 100 23 0.0447166
14 21 100 23 0.0150085
15 21 100 23 0.0150162
16 21 100 23 0.0450241
18 21 100 23 0.0300169
19 21 100 23 0.1801
20 21 100 23 0.131195
21 21 100 23 0.41272
22 21 100 23 0.051158
23 21 100 23 0.0300169
7 22 100 23 0.0152797
11 22 100 23 0.0152797
12 22 100 23 0.0152767
14 22 100 23 0.0458388
15 22 100 23 0.0152797
16 22 100 23 0.0305592
17 22 100 23 0.0611165
19 22 100 23 0.0385814
20 22 100 23 0.179303
21 22 100 23 0.140737
22 22 100 23 0.396909
23 22 100 23 0.045839
8 23 100 23 0.0169603
12 23 100 23 0.0169604
13 23 100 23 0.0169604
15 23 100 23 0.0339207
16 23 100 23 0.0339207
17 23 100 23 0.0339207
18 23 100 23 0.050881
20 23 100 23 0.0508773
21 23 100 23 0.220481
22 23 100 23 0.15199
23 23 100 23 0.373128
9 24 100 23 0.0271819
13 24 100 23 0.0271795
14 24 100 23 0.0271768
16 24 100 23 0.0543591
18 24 100 23 0.0815386
19 24 100 23 0.0815384
20 24 100 23 0.000634686
21 24 100 23 0.101802
22 24 100 23 0.381153
23 24 100 23 0.217436
2 25 100 23 1.00714e-07
5 25 100 23 2.10014e-07
6 25 100 23 2.17884e-07
7 25 100 23 2.98647e-05
8 25 100 23 3.18496e-07
10 25 100 23 0.0252581
12 25 100 23 1.88573e-07
14 25 100 23 0.0348938
15 25 100 23 0.0325532
16 25 100 23 7.58669e-07
17 25 100 23 0.0673001
18 25 100 23 4.75139e-06
19 25 100 23 0.104677
20 25 100 23 0.135956
21 25 100 23 0.00187859
22 25 100 23 0.108893
23 25 100 23 0.488555
2 26 100 23 3.71326e-07
6 26 100 23 4.3089e-07
11 26 100 23 0.0714667
15 26 100 23 0.0714667
16 26 100 23 0.104707
17 26 100 23 2.37169e-06
18 26 100 23 0.144804
20 26 100 23 0.141225
21 26 100 23 0.251928
23 26 100 23 0.214399
2 27 100 23 1.30781e-05
7 27 100 23 4.55436e-07
8 27 100 23 4.7233e-07
9 27 100 23 4.66352e-07
10 27 100 23 3.95837e-07
11 27 100 23 9.79041e-07
12 27 100 23 0.0754176
15 27 100 23 1.16117e-05
16 27 100 23 0.0753774
17 27 100 23 0.0754169
19 27 100 23 0.150828
20 27 100 23 0.144585
21 27 100 23 0.176687
22 27 100 23 0.30166
3 28 100 23 4.1204e-07
4 28 100 23 0.0347519
13 28 100 23 0.0584248
17 28 100 23 0.0584271
18 28 100 23 0.0584265
19 28 100 23 0.000195341
20 28 100 23 0.116895
21 28 100 23 0.116543
22 28 100 23 0.205778
23 28 100 23 0.350559
2 29 100 23 0.00640115
5 29 100 23 8.87512e-06
6 29 100 23 3.62763e-07
14 29 100 23 0.0729749
18 29 100 23 0.0730405
19 29 100 23 0.0829458
21 29 100 23 0.165693
22 29 100 23 0.184209
23 29 100 23 0.414726
2 30 100 23 0.0610018
5 30 100 23 7.86707e-07
11 30 100 23 1.60691e-07
15 30 100 23 0.11683
19 30 100 23 0.116836
20 30 100 23 0.237526
22 30 100 23 0.234121
23 30 100 23 0.233684
5 31 100 23 7.71613e-07
16 31 100 23 0.14272
20 31 100 23 0.140268
21 31 100 23 0.286737
23 31 100 23 0.430274
9 32 100 23 1.83142e-06
16 32 100 23 5.29921e-06
17 32 100 23 0.200743
21 32 100 23 0.199819
22 32 100 23 0.399613
23 32 100 23 0.199817
10 33 100 23 2.33288e-07
18 33 100 23 0.215636
19 33 100 23 1.0877e-06
20 33 100 23 7.03727e-07
22 33 100 23 0.342153
23 33 100 23 0.442209
23 34 100 23 1
21 35 100 23 1
20 36 100 23 1.63252e-06
23 36 100 23 0.999998
19 37 100 23 1
22 39 100 23 1
23 40 100 23 1
1 0 100 24 0.000103787
2 0 100 24 0.0876146
3 0 100 24 0.171926
4 0 100 24 0.0156225
5 0 100 24 0.0432572
6 0 100 24 0.0496432
7 0 100 24 0.0298705
8 0 100 24 0.0430583
9 0 100 24 0.000166912
10 0 100 24 0.0430345
11 0 100 24 0.0215687
12 0 100 24 0.0430621
13 0 100 24 0.000118397
14 0 100 24 0.000100507
15 0 100 24 0.00286282
16 0 100 24 0.0645606
17 0 100 24 0.0436475
18 0 100 24 0.0433479
19 0 100 24 0.000502112
20 0 100 24 0.12328
21 0 100 24 0.0437396
22 0 100 24 0.085964
23 0 100 24 0.0429484
1 1 100 24 0.951987
2 1 100 24 0.00421824
3 1 100 24 0.021872
4 1 100 24 0.0109616
8 1 100 24 0.0109616
1 2 100 24 0.000381116
2 2 100 24 0.921851
4 2 100 24 0.0326151
5 2 100 24 0.0338534
8 2 100 24 1.80284e-06
9 2 100 24 0.0112973
1 3 100 24 0.000135253
3 3 100 24 0.91654
4 3 100 24 0.0119036
5 3 100 24 0.0119036
6 3 100 24 0.0476139
10 3 100 24 0.0119036
20 3 100 24 1.77931e-07
1 4 100 24 0.0112264
2 4 100 24 1.37568e-06
4 4 100 24 0.905785
5 4 100 24 0.0118555
6 4 100 24 2.34978e-07
7 4 100 24 0.0592762
11 4 100 24 0.0118555
3 5 100 24 0.00299664
4 5 100 24 1.9377e-06
5 5 100 24 0.911693
6 5 100 24 0.0121881
7 5 100 24 2.9117e-07
8 5 100 24 0.0609339
12 5 100 24 0.0121863
1 6 100 24 3.50933e-06
2 6 100 24 0.0127855
3 6 100 24 1.55845e-07
5 6 100 24 7.32462e-07
6 6 100 24 0.867427
7 6 100 24 0.0510326
8 6 100 24 1.59477e-06
9 6 100 24 0.0559631
13 6 100 24 0.0127855
15 6 100 24 4.28153e-07
1 7 100 24 0.0137993
2 7 100 24 0.035394
3 7 100 24 0.0298355
5 7 100 24 0.00574935
6 7 100 24 0.0374894
7 7 100 24 0.770679
8 7 100 24 0.0475788
10 7 100 24 0.0356842
11 7 100 24 0.0118951
14 7 100 24 0.0118951
18 7 100 24 3.75557e-07
3 8 100 24 0.0242326
4 8 100 24 0.0284413
6 8 100 24 0.0297118
7 8 100 24 0.0301565
8 8 100 24 0.754172
9 8 100 24 0.0484675
11 8 100 24 0.0363508
12 8 100 24 0.0242339
15 8 100 24 0.012117
21 8 100 24 0.0121167
4 9 100 24 0.0239162
5 9 100 24 0.0324422
6 9 100 24 0.0166957
7 9 100 24 0.0419885
8 9 100 24 0.0239213
9 9 100 24 0.741446
10 9 100 24 0.0478343
12 9 100 24 0.0358775
13 9 100 24 0.0239183
16 9 100 24 0.011959
21 9 100 24 1.41629e-06
1 10 100 24 0.0120861
2 10 100 24 1.97942e-07
3 10 100 24 0.00297165
5 10 100 24 0.0241843
6 10 100 24 0.0362555
7 10 100 24 0.0241724
8 10 100 24 0.0362583
9 10 100 24 0.0195969
10 10 100 24 0.735712
11 10 100 24 0.0423042
13 10 100 24 0.0241729
14 10 100 24 0.0241705
16 10 100 24 0.00604039
17 10 100 24 0.0120741
1 11 100 24 0.0113694
3 11 100 24 0.011397
4 11 100 24 0.011397
6 11 100 24 0.0341897
7 11 100 24 0.0240623
8 11 100 24 0.0357467
9 11 100 24 0.0569821
10 11 100 24 0.0227927
11 11 100 24 0.674796
12 11 100 24 0.0341927
13 11 100 24 0.011397
14 11 100 24 0.0227939
15 11 100 24 0.0227938
17 11 100 24 0.014693
18 11 100 24 0.0113969
2 12 100 24 0.0115321
4 12 100 24 0.0115321
5 12 100 24 0.0115309
7 12 100 24 0.0358105
8 12 100 24 0.0245554
9 12 100 24 0.034596
10 12 100 24 0.0576589
11 12 100 24 0.0345954
12 12 100 24 0.662869
13 12 100 24 0.0345952
14 12 100 24 0.0115316
15 12 100 24 0.0230642
16 12 100 24 0.0230642
18 12 100 24 0.0115321
19 12 100 24 0.0115321
2 13 100 24 0.0113475
6 13 100 24 0.0113475
8 13 100 24 0.0340424
9 13 100 24 0.022695
10 13 100 24 0.0354965
11 13 100 24 0.0567374
12 13 100 24 0.0453887
13 13 100 24 0.646776
14 13 100 24 0.0453899
15 13 100 24 0.022695
16 13 100 24 0.022694
17 13 100 24 0.022695
19 13 100 24 0.0113475
20 13 100 24 0.0113475
3 14 100 24 0.0120741
7 14 100 24 0.0120741
9 14 100 24 0.0362209
10 14 100 24 0.0241463
11 14 100 24 0.0457548
12 14 100 24 0.0603674
13 14 100 24 0.0603702
14 14 100 24 0.628243
15 14 100 24 0.036231
16 14 100 24 0.0120739
17 14 100 24 0.0241481
18 14 100 24 0.0241481
20 14 100 24 0.0120741
21 14 100 24 0.0120741
4 15 100 24 0.0229971
8 15 100 24 0.0171456
10 15 100 24 0.0344957
11 15 100 24 0.0229971
12 15 100 24 0.0519472
13 15 100 24 0.0574943
14 15 100 24 0.103094
15 15 100 24 0.586407
16 15 100 24 0.0344953
17 15 100 24 0.0114986
18 15 100 24 0.0229326
19 15 100 24 0.0114986
21 15 100 24 0.0114986
22 15 100 24 0.0114986
2 16 100 24 0.0112925
5 16 100 24 0.0112754
9 16 100 24 0.0225848
10 16 100 24 0.0112927
11 16 100 24 0.0338769
12 16 100 24 0.0225835
13 16 100 24 0.0564612
14 16 100 24 0.0564621
15 16 100 24 0.0901826
16 16 100 24 0.548615
17 16 100 24 0.0563417
18 16 100 24 0.0225847
19 16 100 24 0.0225854
20 16 100 24 0.0112927
22 16 100 24 0.0112927
23 16 100 24 0.0112757
2 17 100 24 3.29333e-07
3 17 100 24 0.0116834
6 17 100 24 0.0116835
7 17 100 24 0.00358693
10 17 100 24 0.0233669
11 17 100 24 0.0116835
12 17 100 24 0.0350501
13 17 100 24 0.0233669
14 17 100 24 0.046734
15 17 100 24 0.0584136
16 17 100 24 0.0983376
17 17 100 24 0.522602
18 17 100 24 0.071705
19 17 100 24 0.0350504
20 17 100 24 0.0233694
23 17 100 24 0.0233669
4 18 100 24 0.0119065
5 18 100 24 0.0119154
7 18 100 24 0.0119065
11 18 100 24 0.0238123
12 18 100 24 0.0119061
13 18 100 24 0.0357184
14 18 100 24 0.0357186
15 18 100 24 0.0476256
16 18 100 24 0.0476255
17 18 100 24 0.0952513
18 18 100 24 0.523738
19 18 100 24 0.0714373
20 18 100 24 0.0238131
21 18 100 24 0.0238125
24 18 100 24 0.0238131
5 19 100 24 0.0119422
6 19 100 24 0.0119415
8 19 100 24 0.0119422
12 19 100 24 0.0238845
13 19 100 24 0.0119422
14 19 100 24 0.0358251
15 19 100 24 0.0358267
16 19 100 24 0.0597109
17 19 100 24 0.0477669
18 19 100 24 0.105985
19 19 100 24 0.531654
20 19 100 24 0.0638098
21 19 100 24 0.0238843
22 19 100 24 0.0238843
5 20 100 24 0.000208906
6 20 100 24 0.0110198
8 20 100 24 0.011019
9 20 100 24 0.01102
13 20 100 24 0.0220394
14 20 100 24 0.01102
15 20 100 24 0.0545373
16 20 100 24 0.04408
17 20 100 24 0.0771399
18 20 100 24 0.044047
19 20 100 24 0.0991744
20 20 100 24 0.482481
21 20 100 24 0.0771138
22 20 100 24 0.02204
23 20 100 24 0.0220398
24 20 100 24 0.01102
5 21 100 24 3.8618e-05
7 21 100 24 0.012427
10 21 100 24 0.012427
14 21 100 24 0.0248533
15 21 100 24 0.0124253
16 21 100 24 0.0497053
17 21 100 24 0.0372809
18 21 100 24 0.0745614
19 21 100 24 0.0497072
20 21 100 24 0.0994136
21 21 100 24 0.500341
22 21 100 24 0.077093
23 21 100 24 0.0248728
24 21 100 24 0.024854
3 22 100 24 5.95101e-05
5 22 100 24 2.01253e-06
8 22 100 24 0.0133812
9 22 100 24 0.0133839
11 22 100 24 0.013384
15 22 100 24 0.0134483
16 22 100 24 0.013384
17 22 100 24 0.0535359
18 22 100 24 0.0401518
19 22 100 24 0.0732331
20 22 100 24 0.0402104
21 22 100 24 0.1303
22 22 100 24 0.47507
23 22 100 24 0.0803039
24 22 100 24 0.040152
5 23 100 24 2.8749e-07
9 23 100 24 0.0141135
10 23 100 24 0.0141143
12 23 100 24 0.0141113
16 23 100 24 0.0141143
17 23 100 24 0.00930915
18 23 100 24 0.056457
19 23 100 24 0.0423405
20 23 100 24 0.0846966
21 23 100 24 0.0423428
22 23 100 24 0.173603
23 23 100 24 0.450112
24 23 100 24 0.0846855
3 24 100 24 1.28326e-06
5 24 100 24 0.0156513
10 24 100 24 0.0160342
11 24 100 24 0.0160342
13 24 100 24 0.0160363
15 24 100 24 0.0159565
16 24 100 24 1.44126e-06
17 24 100 24 0.021492
19 24 100 24 0.0801625
20 24 100 24 0.0481026
21 24 100 24 0.096202
22 24 100 24 0.0801945
23 24 100 24 0.193276
24 24 100 24 0.400855
7 25 100 24 1.87714e-06
11 25 100 24 0.023338
14 25 100 24 0.0233384
16 25 100 24 0.0466569
17 25 100 24 3.35486e-06
18 25 100 24 0.0233384
19 25 100 24 0.0233233
20 25 100 24 0.140005
21 25 100 24 0.116377
22 25 100 24 0.140086
23 25 100 24 0.160132
24 25 100 24 0.303399
2 26 100 24 1.82157e-06
3 26 100 24 2.85044e-07
4 26 100 24 1.50464e-07
5 26 100 24 7.7135e-05
6 26 100 24 2.94885e-07
9 26 100 24 4.61565e-06
11 26 100 24 3.26414e-07
12 26 100 24 0.0328991
13 26 100 24 3.4654e-07
15 26 100 24 0.033342
16 26 100 24 3.01271e-06
17 26 100 24 0.0560656
18 26 100 24 0.027589
19 26 100 24 0.0328965
20 26 100 24 0.0336019
21 26 100 24 0.192029
22 26 100 24 0.183965
23 26 100 24 0.17723
24 26 100 24 0.230294
1 27 100 24 0.026144
9 27 100 24 1.17553e-05
13 27 100 24 0.0420989
15 27 100 24 1.23822e-06
16 27 100 24 0.0422935
17 27 100 24 0.0369638
18 27 100 24 0.0420959
19 27 100 24 0.0420986
20 27 100 24 0.0420985
21 27 100 24 0.0528913
22 27 100 24 0.168101
23 27 100 24 0.210514
24 27 100 24 0.294688
1 28 100 24 0.00381653
2 28 100 24 5.26998e-05
3 28 100 24 5.76948e-07
5 28 100 24 0.00287637
11 28 100 24 1.12714e-05
14 28 100 24 0.0569096
17 28 100 24 0.0576212
18 28 100 24 0.0592165
19 28 100 24 1.2882e-06
20 28 100 24 0.0311427
21 28 100 24 0.0578074
22 28 100 24 0.133823
23 28 100 24 0.308524
24 28 100 24 0.288197
15 29 100 24 0.0738833
17 29 100 24 1.82497e-07
18 29 100 24 0.0731019
19 29 100 24 0.0738801
21 29 100 24 0.0738805
22 29 100 24 0.0724485
23 29 100 24 0.189527
24 29 100 24 0.443278
1 30 100 24 6.69473e-06
3 30 100 24 1.6365e-07
12 30 100 24 1.14199e-06
13 30 100 24 0.000698722
16 30 100 24 0.125537
18 30 100 24 7.16287e-07
19 30 100 24 0.125509
20 30 100 24 0.123691
22 30 100 24 0.248029
24 30 100 24 0.376527
15 31 100 24 0.00118675
17 31 100 24 0.145015
20 31 100 24 0.145013
21 31 100 24 0.141249
22 31 100 24 0.000213665
23 31 100 24 0.567322
5 32 100 24 3.75111e-07
9 32 100 24 6.99663e-05
15 32 100 24 5.22125e-05
18 32 100 24 0.142859
21 32 100 24 0.142723
22 32 100 24 0.142859
24 32 100 24 0.571436
3 33 100 24 1.25641e-05
13 33 100 24 7.67965e-05
16 33 100 24 4.15843e-07
19 33 100 24 0.248834
22 33 100 24 0.25036
23 33 100 24 0.25036
24 33 100 24 0.250356
11 34 100 24 4.33142e-05
17 34 100 24 3.04813e-05
20 34 100 24 0.296814
23 34 100 24 0.406299
24 34 100 24 0.296813
21 35 100 24 0.333289
24 35 100 24 0.666711
7 36 100 24 2.51743e-05
22 36 100 24 0.999975
23 37 100 24 0.501669
24 37 100 24 0.498331
24 38 100 24 1
2 0 100 25 0.0305251
3 0 100 25 0.00199739
4 0 100 25 5.39467e-05
5 0 100 25 8.04519e-05
6 0 100 25 0.000120319
7 0 100 25 0.0488418
8 0 100 25 0.045431
9 0 100 25 0.000324481
10 0 100 25 0.000772135
11 0 100 25 0.0573028
12 0 100 25 0.000177761
13 0 100 25 0.0964299
14 0 100 25 0.0717063
15 0 100 25 0.0755803
16 0 100 25 0.000217025
17 0 100 25 0.087127
18 0 100 25 0.144257
19 0 100 25 0.0487244
20 0 100 25 0.14562
21 0 100 25 0.0476318
22 0 100 25 0.0485673
23 0 100 25 0.0485085
24 0 100 25 3.43963e-06
1 1 100 25 1
1 2 100 25 0.00774581
2 2 100 25 0.961244
4 2 100 25 0.0155029
5 2 100 25 1.59351e-06
11 2 100 25 1.33182e-06
16 2 100 25 0.0155029
22 2 100 25 1.2156e-06
2 3 100 25 0.015153
3 3 100 25 0.924237
4 3 100 25 0.0151552
5 3 100 25 0.0151552
8 3 100 25 1.74919e-07
10 3 100 25 0.0151443
17 3 100 25 0.0151552
3 4 100 25 0.0163846
4 4 100 25 0.950295
5 4 100 25 0.0163846
6 4 100 25 0.016385
13 4 100 25 0.000185181
18 4 100 25 0.000365718
1 5 100 25 0.0375813
4 5 100 25 0.030122
5 5 100 25 0.872145
6 5 100 25 0.0300774
7 5 100 25 0.0150372
8 5 100 25 1.95604e-07
15 5 100 25 1.68409e-07
19 5 100 25 0.0150372
2 6 100 25 0.0461548
5 6 100 25 0.0307704
6 6 100 25 0.861533
7 6 100 25 0.0307715
8 6 100 25 0.0153852
20 6 100 25 0.0153852
1 7 100 25 0.00720192
2 7 100 25 0.0143908
3 7 100 25 0.057562
4 7 100 25 0.014341
6 7 100 25 0.043172
7 7 100 25 0.79138
8 7 100 25 0.0431702
9 7 100 25 0.0143903
13 7 100 25 3.65403e-07
15 7 100 25 2.503e-07
18 7 100 25 3.57647e-07
21 7 100 25 0.0143908
2 8 100 25 0.0230528
3 8 100 25 0.0145273
4 8 100 25 0.058111
5 8 100 25 0.0145259
7 8 100 25 0.0290559
8 8 100 25 0.770593
9 8 100 25 0.0435831
10 8 100 25 0.0290559
17 8 100 25 0.00296708
22 8 100 25 0.0145277
4 9 100 25 0.0154046
5 9 100 25 0.0616175
6 9 100 25 0.0154046
7 9 100 25 0.0154046
8 9 100 25 0.0608967
9 9 100 25 0.738831
10 9 100 25 0.0308092
11 9 100 25 0.0462103
17 9 100 25 1.68581e-05
23 9 100 25 0.0154046
2 10 100 25 0.0150727
3 10 100 25 0.0150717
5 10 100 25 0.0150695
6 10 100 25 0.0602901
7 10 100 25 0.0150707
8 10 100 25 0.0150721
9 10 100 25 0.0798318
10 10 100 25 0.61881
11 10 100 25 0.0452182
12 10 100 25 0.0602508
13 10 100 25 0.0301343
15 10 100 25 0.0150726
17 10 100 25 4.12422e-06
18 10 100 25 0.0150202
24 10 100 25 1.1152e-05
2 11 100 25 0.00728936
3 11 100 25 0.0150447
4 11 100 25 0.0150447
6 11 100 25 0.0150447
7 11 100 25 0.0451309
8 11 100 25 0.0150426
9 11 100 25 0.0380471
10 11 100 25 0.134589
11 11 100 25 0.571692
12 11 100 25 0.0601849
13 11 100 25 0.0599936
14 11 100 25 0.00774627
18 11 100 25 0.000106015
19 11 100 25 0.0150447
3 12 100 25 0.0149681
4 12 100 25 0.015369
5 12 100 25 0.015367
7 12 100 25 0.015369
8 12 100 25 0.0396564
9 12 100 25 0.015369
10 12 100 25 0.0614717
11 12 100 25 0.145849
12 12 100 25 0.568643
13 12 100 25 0.0461109
14 12 100 25 0.0461064
15 12 100 25 0.000351255
19 12 100 25 7.53855e-07
20 12 100 25 0.0153688
2 13 100 25 0.0149457
5 13 100 25 0.0149441
6 13 100 25 0.0149457
7 13 100 25 0.0149453
8 13 100 25 0.022203
9 13 100 25 0.0298914
10 13 100 25 0.0149441
11 13 100 25 0.0448331
12 13 100 25 0.149457
13 13 100 25 0.514494
14 13 100 25 0.0896677
15 13 100 25 0.0448371
16 13 100 25 0.0149457
21 13 100 25 0.0149457
2 14 100 25 3.36838e-07
3 14 100 25 0.0150352
6 14 100 25 0.0150352
7 14 100 25 0.0150352
8 14 100 25 1.52543e-07
9 14 100 25 0.0451054
10 14 100 25 0.0451019
11 14 100 25 0.0227008
12 14 100 25 0.045105
13 14 100 25 0.165373
14 14 100 25 0.496149
15 14 100 25 0.0751757
16 14 100 25 0.0301129
17 14 100 25 0.0150351
22 14 100 25 0.0150345
1 15 100 25 0.0143227
2 15 100 25 0.0126898
4 15 100 25 0.0143231
7 15 100 25 0.0143227
8 15 100 25 0.0143211
9 15 100 25 0.0143226
10 15 100 25 0.042968
11 15 100 25 0.042968
12 15 100 25 0.0286434
13 15 100 25 0.042968
14 15 100 25 0.15071
15 15 100 25 0.478566
16 15 100 25 0.0716062
17 15 100 25 0.0286453
18 15 100 25 0.014295
20 15 100 25 7.53541e-07
22 15 100 25 4.47271e-07
23 15 100 25 0.0143264
2 16 100 25 0.0144877
5 16 100 25 0.0144869
8 16 100 25 0.0144873
9 16 100 25 0.0144874
10 16 100 25 0.0144874
11 16 100 25 0.0434605
12 16 100 25 0.0434621
13 16 100 25 0.0374914
14 16 100 25 0.0434601
15 16 100 25 0.158014
16 16 100 25 0.48578
17 16 100 25 0.0579484
18 16 100 25 0.0289724
21 16 100 25 0.0144873
24 16 100 25 0.0144874
2 17 100 25 9.50742e-05
3 17 100 25 0.0151843
6 17 100 25 0.0151799
9 17 100 25 0.0303632
10 17 100 25 0.0151812
11 17 100 25 0.0276118
12 17 100 25 0.0455458
13 17 100 25 0.0455373
14 17 100 25 0.0528981
15 17 100 25 0.0469478
16 17 100 25 0.143742
17 17 100 25 0.45544
18 17 100 25 0.0455458
19 17 100 25 0.0455461
20 17 100 25 0.015182
2 18 100 25 0.00601695
4 18 100 25 0.0149517
7 18 100 25 0.0149517
10 18 100 25 0.0299027
11 18 100 25 0.0149517
12 18 100 25 0.0149511
13 18 100 25 0.0299013
14 18 100 25 0.0448603
15 18 100 25 0.0598487
16 18 100 25 0.0598068
17 18 100 25 0.179393
18 18 100 25 0.425803
19 18 100 25 0.0448551
20 18 100 25 0.0448544
21 18 100 25 0.0149517
3 19 100 25 0.0287155
5 19 100 25 0.0143554
8 19 100 25 0.0143573
11 19 100 25 0.0287172
12 19 100 25 0.0143558
13 19 100 25 0.0143589
14 19 100 25 0.0287177
15 19 100 25 0.0287147
16 19 100 25 0.0717923
17 19 100 25 0.0861461
18 19 100 25 0.208496
19 19 100 25 0.366238
20 19 100 25 0.0232519
21 19 100 25 0.0574235
22 19 100 25 0.0143594
4 20 100 25 0.0289866
5 20 100 25 5.08694e-07
6 20 100 25 0.0144939
9 20 100 25 0.0144937
11 20 100 25 0.0144938
12 20 100 25 0.0289877
13 20 100 25 0.0144939
14 20 100 25 0.0144939
15 20 100 25 0.0289877
16 20 100 25 0.0289857
17 20 100 25 0.0724711
18 20 100 25 0.0869619
19 20 100 25 0.217403
20 20 100 25 0.333301
21 20 100 25 0.0144939
22 20 100 25 0.0579643
23 20 100 25 0.0289877
3 21 100 25 4.72789e-07
5 21 100 25 0.0284877
7 21 100 25 0.0142441
8 21 100 25 2.33598e-05
9 21 100 25 0.00294027
10 21 100 25 0.0142441
12 21 100 25 0.0142441
13 21 100 25 0.0284861
14 21 100 25 0.0142446
15 21 100 25 0.0142722
16 21 100 25 0.0284882
17 21 100 25 0.0284882
18 21 100 25 0.0569737
19 21 100 25 0.113894
20 21 100 25 0.199411
21 21 100 25 0.313362
22 21 100 25 0.0284879
23 21 100 25 0.0712204
24 21 100 25 0.0284882
6 22 100 25 0.0279805
8 22 100 25 0.0139902
10 22 100 25 0.0137756
11 22 100 25 0.0139892
13 22 100 25 0.0140011
14 22 100 25 0.0279814
15 22 100 25 0.0139907
16 22 100 25 0.0139878
17 22 100 25 0.0279813
18 22 100 25 0.027981
19 22 100 25 0.0628986
20 22 100 25 0.125915
21 22 100 25 0.209816
22 22 100 25 0.293797
23 22 100 25 0.0139907
24 22 100 25 0.0839339
25 22 100 25 0.0139907
7 23 100 25 0.0294106
9 23 100 25 0.0147062
12 23 100 25 0.0147041
14 23 100 25 0.0147059
15 23 100 25 0.0294113
16 23 100 25 0.0147062
17 23 100 25 0.0147054
18 23 100 25 0.0294124
19 23 100 25 0.0294124
20 23 100 25 0.073531
21 23 100 25 0.132352
22 23 100 25 0.20588
23 23 100 25 0.294119
24 23 100 25 0.0147062
25 23 100 25 0.0882372
8 24 100 25 0.0326188
13 24 100 25 0.0163095
15 24 100 25 0.0163095
16 24 100 25 0.0488383
17 24 100 25 0.0163102
18 24 100 25 0.0163095
19 24 100 25 0.032619
20 24 100 25 0.0388081
21 24 100 25 0.081546
22 24 100 25 0.179398
23 24 100 25 0.195704
24 24 100 25 0.308919
25 24 100 25 0.0163095
9 25 100 25 0.0333217
14 25 100 25 0.0333109
16 25 100 25 0.0166609
17 25 100 25 0.0333214
18 25 100 25 0.0166609
19 25 100 25 0.0166609
20 25 100 25 0.0333217
21 25 100 25 0.0503506
22 25 100 25 0.0833034
23 25 100 25 0.199923
24 25 100 25 0.19993
25 25 100 25 0.283235
10 26 100 25 0.0444478
15 26 100 25 0.0444471
17 26 100 25 0.0222215
18 26 100 25 0.0444462
19 26 100 25 0.0443791
20 26 100 25 0.0222239
21 26 100 25 0.0444477
22 26 100 25 0.0666708
23 26 100 25 0.133343
24 26 100 25 0.266686
25 26 100 25 0.266687
1 27 100 25 1.02645e-07
4 27 100 25 2.59142e-07
5 27 100 25 1.4491e-05
7 27 100 25 3.24069e-07
11 27 100 25 0.0614902
12 27 100 25 8.43614e-07
13 27 100 25 2.33972e-07
16 27 100 25 0.0642801
18 27 100 25 0.0314558
19 27 100 25 0.0629502
20 27 100 25 0.0629192
21 27 100 25 0.0308102
22 27 100 25 0.0629114
23 27 100 25 0.0613397
24 27 100 25 0.215816
25 27 100 25 0.346011
1 28 100 25 5.15685e-05
3 28 100 25 4.83318e-07
5 28 100 25 2.37424e-07
9 28 100 25 2.31465e-07
10 28 100 25 1.10526e-07
12 28 100 25 0.0917307
17 28 100 25 0.0362425
19 28 100 25 0.0459879
20 28 100 25 0.0917286
21 28 100 25 0.0923563
22 28 100 25 0.0459878
23 28 100 25 0.137517
24 28 100 25 0.136483
25 28 100 25 0.321913
1 29 100 25 6.54981e-05
10 29 100 25 2.91035e-05
13 29 100 25 0.0625703
18 29 100 25 0.0624614
20 29 100 25 0.0566035
21 29 100 25 0.124922
22 29 100 25 0.131198
23 29 100 25 0.0624614
24 29 100 25 0.187384
25 29 100 25 0.312305
4 30 100 25 5.22015e-07
5 30 100 25 0.0544406
6 30 100 25 5.07795e-07
7 30 100 25 3.96711e-05
11 30 100 25 3.2086e-05
14 30 100 25 0.0873123
15 30 100 25 1.04169e-06
17 30 100 25 4.92104e-07
18 30 100 25 2.04095e-06
19 30 100 25 0.0873118
21 30 100 25 0.0869041
22 30 100 25 0.171313
23 30 100 25 0.163393
24 30 100 25 0.0873123
25 30 100 25 0.261936
10 31 100 25 2.44122e-06
12 31 100 25 5.16516e-06
15 31 100 25 0.125004
20 31 100 25 0.125004
22 31 100 25 0.124963
23 31 100 25 0.250009
24 31 100 25 0.250009
25 31 100 25 0.125003
7 32 100 25 2.81023e-06
14 32 100 25 0.00271632
16 32 100 25 0.134917
21 32 100 25 0.123227
23 32 100 25 0.120763
24 32 100 25 0.247351
25 32 100 25 0.371023
8 33 100 25 0.0712582
17 33 100 25 0.185829
22 33 100 25 0.185829
24 33 100 25 0.185428
25 33 100 25 0.371657
7 34 100 25 4.07321e-06
18 34 100 25 0.333332
23 34 100 25 0.333332
25 34 100 25 0.333332
3 35 100 25 1.98092e-06
9 35 100 25 2.52039e-06
19 35 100 25 0.33242
24 35 100 25 0.333807
25 35 100 25 0.333769
11 36 100 25 6.25083e-06
20 36 100 25 0.499946
25 36 100 25 0.500048
5 37 100 25 0.000504926
12 37 100 25 1.19713e-05
21 37 100 25 0.999239
24 37 100 25 0.000244385
22 38 100 25 0.500025
25 38 100 25 0.499975
23 39 100 25 1
24 40 100 25 1
25 41 100 25 1
2 0 100 26 0.000573592
3 0 100 26 0.0609558
4 0 100 26 0.0614422
5 0 100 26 0.000253568
6 0 100 26 9.55695e-05
7 0 100 26 0.00045335
8 0 100 26 0.0309514
9 0 100 26 0.0618977
10 0 100 26 0.0312822
11 0 100 26 0.0619345
12 0 100 26 0.094791
13 0 100 26 0.0820183
14 0 100 26 0.0367567
15 0 100 26 0.0615165
16 0 100 26 0.031972
17 0 100 26 0.0544465
18 0 100 26 0.00424032
19 0 100 26 0.000288075
20 0 100 26 0.0946319
21 0 100 26 0.10157
22 0 100 26 0.0348662
23 0 100 26 0.0311562
24 0 100 26 0.0619059
25 0 100 26 4.26434e-07
1 1 100 26 0.988472
4 1 100 26 0.0115285
1 2 100 26 0.0221291
2 2 100 26 0.922639
3 2 100 26 0.011044
5 2 100 26 0.022129
6 2 100 26 0.0110645
7 2 100 26 0.0109366
11 2 100 26 5.73651e-05
16 2 100 26 3.96752e-07
2 3 100 26 0.0414055
3 3 100 26 0.88991
4 3 100 26 0.0342719
6 3 100 26 0.0114731
7 3 100 26 0.0114731
8 3 100 26 0.0114664
15 3 100 26 2.13256e-07
17 3 100 26 2.09588e-07
3 4 100 26 0.0694326
4 4 100 26 0.860055
5 4 100 26 0.0469858
7 4 100 26 0.0117595
8 4 100 26 0.0117628
9 4 100 26 4.27374e-06
12 4 100 26 2.91422e-07
4 5 100 26 0.0894139
5 5 100 26 0.796365
6 5 100 26 0.0455069
8 5 100 26 1.72201e-07
9 5 100 26 0.0341265
10 5 100 26 0.0113769
12 5 100 26 0.0227537
13 5 100 26 0.000456627
2 6 100 26 0.0115931
5 6 100 26 0.105895
6 6 100 26 0.799992
7 6 100 26 0.047061
10 6 100 26 0.0117653
12 6 100 26 0.0117555
13 6 100 26 0.0119383
24 6 100 26 1.53204e-07
3 7 100 26 0.0117646
6 7 100 26 0.129451
7 7 100 26 0.752903
8 7 100 26 0.0470582
10 7 100 26 3.17161e-07
11 7 100 26 0.0235295
13 7 100 26 0.0117646
14 7 100 26 0.0235284
3 8 100 26 0.00652788
7 8 100 26 0.163657
8 8 100 26 0.713082
9 8 100 26 0.0699767
12 8 100 26 0.0116924
14 8 100 26 0.0116895
15 8 100 26 0.023374
21 8 100 26 3.07717e-07
5 9 100 26 0.0121191
8 9 100 26 0.177684
9 9 100 26 0.676856
10 9 100 26 0.0848534
13 9 100 26 0.0121219
15 9 100 26 0.0121221
16 9 100 26 0.0242439
4 10 100 26 0.0124679
6 10 100 26 0.0124679
7 10 100 26 0.0124692
8 10 100 26 0.00426094
9 10 100 26 0.162077
10 10 100 26 0.659111
11 10 100 26 0.0872734
14 10 100 26 0.0124679
15 10 100 26 2.63727e-07
16 10 100 26 0.0124679
17 10 100 26 0.024936
20 10 100 26 3.37719e-07
5 11 100 26 0.0121889
7 11 100 26 0.0121889
8 11 100 26 0.0365667
9 11 100 26 0.0244463
10 11 100 26 0.170672
11 11 100 26 0.584947
12 11 100 26 0.110235
15 11 100 26 0.0121885
17 11 100 26 0.0121889
18 11 100 26 0.0243777
6 12 100 26 0.0117177
8 12 100 26 0.011718
9 12 100 26 0.0468709
10 12 100 26 0.0293965
11 12 100 26 0.175762
12 12 100 26 0.537174
13 12 100 26 0.128687
14 12 100 26 0.0117168
16 12 100 26 0.011718
18 12 100 26 0.0117165
19 12 100 26 0.0234354
20 12 100 26 4.48886e-05
22 12 100 26 4.26743e-05
7 13 100 26 0.0122955
9 13 100 26 0.0143584
10 13 100 26 0.0536056
11 13 100 26 0.0368866
12 13 100 26 0.159698
13 13 100 26 0.526433
14 13 100 26 0.147537
17 13 100 26 0.0122959
18 13 100 26 2.55128e-06
19 13 100 26 0.0122961
20 13 100 26 0.0245917
2 14 100 26 0.0120485
3 14 100 26 3.06198e-07
8 14 100 26 0.0120485
10 14 100 26 0.0120596
11 14 100 26 0.060242
12 14 100 26 0.0481933
13 14 100 26 0.156628
14 14 100 26 0.490499
15 14 100 26 0.156758
16 14 100 26 1.10247e-05
17 14 100 26 0.00331691
18 14 100 26 0.0120485
20 14 100 26 0.0120482
21 14 100 26 0.0240971
7 15 100 26 6.2527e-07
9 15 100 26 0.0119074
10 15 100 26 0.00534285
11 15 100 26 0.0238147
12 15 100 26 0.0595355
13 15 100 26 0.0416169
14 15 100 26 0.155949
15 15 100 26 0.464367
16 15 100 26 0.166705
17 15 100 26 0.0112168
18 15 100 26 0.0119074
19 15 100 26 0.0119074
21 15 100 26 0.011909
22 15 100 26 0.0238146
25 15 100 26 5.63232e-06
3 16 100 26 0.0111595
10 16 100 26 0.0283226
12 16 100 26 0.0118001
13 16 100 26 0.0669696
14 16 100 26 0.0447158
15 16 100 26 0.156262
16 16 100 26 0.435304
17 16 100 26 0.167336
18 16 100 26 0.0111619
19 16 100 26 0.0111619
20 16 100 26 0.0111617
22 16 100 26 0.0111619
23 16 100 26 0.0334825
4 17 100 26 0.0117543
10 17 100 26 0.00311185
11 17 100 26 0.0352602
13 17 100 26 0.0352483
14 17 100 26 0.070525
15 17 100 26 0.0587713
16 17 100 26 0.152803
17 17 100 26 0.399638
18 17 100 26 0.162362
19 17 100 26 0.0117542
20 17 100 26 0.0117545
21 17 100 26 0.0117539
22 17 100 26 1.65102e-07
23 17 100 26 0.0117543
24 17 100 26 0.0235085
5 18 100 26 0.0119445
12 18 100 26 0.0358336
14 18 100 26 0.0358056
15 18 100 26 0.0597204
16 18 100 26 0.0593334
17 18 100 26 0.182256
18 18 100 26 0.400107
19 18 100 26 0.155276
21 18 100 26 0.0119454
22 18 100 26 0.0119445
24 18 100 26 0.0119445
25 18 100 26 0.023889
5 19 100 26 0.0123011
6 19 100 26 0.0123568
11 19 100 26 0.0123557
13 19 100 26 0.0370695
15 19 100 26 0.0247135
16 19 100 26 0.0741047
17 19 100 26 0.0370701
18 19 100 26 0.197845
19 19 100 26 0.370604
20 19 100 26 0.159796
22 19 100 26 0.0247135
23 19 100 26 0.0123567
25 19 100 26 0.0123568
26 19 100 26 0.0123568
2 20 100 26 0.0113355
6 20 100 26 0.011334
7 20 100 26 0.0113349
12 20 100 26 0.0113355
14 20 100 26 0.0340066
16 20 100 26 0.0226711
17 20 100 26 0.0793548
18 20 100 26 0.0396713
19 20 100 26 0.192699
20 20 100 26 0.328627
21 20 100 26 0.178289
22 20 100 26 0.0226711
23 20 100 26 0.0226691
24 20 100 26 0.0226711
25 20 100 26 0.0113302
3 21 100 26 0.0116306
7 21 100 26 0.0116313
8 21 100 26 0.0116313
13 21 100 26 0.0116313
14 21 100 26 7.83376e-07
15 21 100 26 0.0465237
17 21 100 26 0.02326
18 21 100 26 0.0814189
19 21 100 26 0.0697855
20 21 100 26 0.1861
21 21 100 26 0.290961
22 21 100 26 0.174094
23 21 100 26 0.0231754
24 21 100 26 0.0232625
25 21 100 26 0.0232626
26 21 100 26 0.0116313
4 22 100 26 0.0119172
8 22 100 26 0.0119172
9 22 100 26 0.0119156
14 22 100 26 0.0119165
16 22 100 26 0.0476684
18 22 100 26 0.0238178
19 22 100 26 0.095336
20 22 100 26 0.0715007
21 22 100 26 0.176128
22 22 100 26 0.299544
23 22 100 26 0.190669
24 22 100 26 0.0119172
25 22 100 26 0.0238345
26 22 100 26 0.0119172
5 23 100 26 0.0129937
9 23 100 26 0.0129945
10 23 100 26 0.0129945
15 23 100 26 0.0129943
17 23 100 26 0.0390213
19 23 100 26 0.025989
20 23 100 26 0.0779666
21 23 100 26 0.0934087
22 23 100 26 0.191865
23 23 100 26 0.272877
24 23 100 26 0.194917
25 23 100 26 0.0129945
26 23 100 26 0.0389835
6 24 100 26 0.01271
10 24 100 26 0.0127095
11 24 100 26 0.01271
16 24 100 26 0.01271
18 24 100 26 0.0508382
20 24 100 26 0.0254195
21 24 100 26 0.0762592
22 24 100 26 0.101677
23 24 100 26 0.228775
24 24 100 26 0.262832
25 24 100 26 0.19065
26 24 100 26 0.01271
11 25 100 26 0.0135123
12 25 100 26 0.0135104
17 25 100 26 0.0239127
18 25 100 26 1.49103e-06
19 25 100 26 0.0540475
20 25 100 26 0.0404769
21 25 100 26 0.0135123
22 25 100 26 0.0810693
23 25 100 26 0.108094
24 25 100 26 0.217578
25 25 100 26 0.2316
26 25 100 26 0.202685
13 26 100 26 0.0172195
18 26 100 26 0.0351915
20 26 100 26 0.0518227
21 26 100 26 0.0344433
22 26 100 26 0.0171327
23 26 100 26 0.103346
24 26 100 26 0.172516
25 26 100 26 0.292775
26 26 100 26 0.275553
5 27 100 26 5.23861e-05
14 27 100 26 0.0226402
19 27 100 26 0.0416975
21 27 100 26 0.123648
22 27 100 26 0.0453946
24 27 100 26 0.149955
25 27 100 26 0.231729
26 27 100 26 0.384884
1 28 100 26 0.0283963
3 28 100 26 2.70262e-07
4 28 100 26 3.93637e-07
9 28 100 26 3.51397e-07
10 28 100 26 1.22962e-06
15 28 100 26 0.0429815
17 28 100 26 3.34576e-05
20 28 100 26 0.0423644
21 28 100 26 3.34936e-07
22 28 100 26 0.115196
23 28 100 26 0.126768
24 28 100 26 0.0509182
25 28 100 26 0.212233
26 28 100 26 0.381107
1 29 100 26 4.8892e-05
2 29 100 26 0.0113733
4 29 100 26 2.71696e-07
12 29 100 26 1.69677e-07
16 29 100 26 0.0564542
18 29 100 26 0.023687
19 29 100 26 0.00176534
20 29 100 26 0.00116834
21 29 100 26 0.109204
23 29 100 26 0.174389
24 29 100 26 0.112922
25 29 100 26 0.226718
26 29 100 26 0.282269
6 30 100 26 5.06305e-07
11 30 100 26 5.73819e-07
13 30 100 26 4.7179e-07
17 30 100 26 0.079111
19 30 100 26 0.00975667
20 30 100 26 4.49149e-07
22 30 100 26 0.236562
23 30 100 26 5.1808e-07
24 30 100 26 0.252294
25 30 100 26 0.184943
26 30 100 26 0.237331
5 31 100 26 1.97277e-07
13 31 100 26 1.4223e-06
17 31 100 26 0.032157
18 31 100 26 0.0780165
20 31 100 26 0.136459
21 31 100 26 0.0525299
23 31 100 26 0.16085
25 31 100 26 0.298712
26 31 100 26 0.241274
12 32 100 26 4.29568e-07
18 32 100 26 0.0338445
19 32 100 26 0.127806
20 32 100 26 0.00121996
21 32 100 26 0.125079
22 32 100 26 0.0717017
24 32 100 26 0.17891
25 32 100 26 0.0141612
26 32 100 26 0.447278
4 33 100 26 1.3191e-06
7 33 100 26 1.38568e-06
10 33 100 26 1.98583e-06
15 33 100 26 7.31012e-07
19 33 100 26 1.92136e-06
20 33 100 26 0.201448
22 33 100 26 0.200923
23 33 100 26 0.195624
25 33 100 26 0.401997
4 34 100 26 6.44514e-07
11 34 100 26 8.39657e-07
12 34 100 26 1.01798e-05
14 34 100 26 9.06146e-07
18 34 100 26 6.65102e-05
19 34 100 26 9.48957e-06
20 34 100 26 0.12532
21 34 100 26 0.143205
23 34 100 26 0.143069
24 34 100 26 0.143135
25 34 100 26 0.015569
26 34 100 26 0.429613
22 35 100 26 0.250056
24 35 100 26 0.249883
25 35 100 26 0.250038
26 35 100 26 0.250022
2 36 100 26 5.50955e-06
3 36 100 26 1.53432e-06
13 36 100 26 2.51911e-06
18 36 100 26 8.79637e-07
20 36 100 26 2.05668e-06
23 36 100 26 0.268808
25 36 100 26 0.462372
26 36 100 26 0.268807
4 37 100 26 1.42332e-06
11 37 100 26 1.897e-06
14 37 100 26 2.3435e-06
17 37 100 26 2.96827e-07
24 37 100 26 0.249788
26 37 100 26 0.750206
15 38 100 26 6.87879e-05
25 38 100 26 0.999931
26 39 100 26 1
1 0 100 27 2.17902e-05
2 0 100 27 0.0480303
3 0 100 27 0.0149644
