0 4 0.209261
0 5 0.20294
0 10 0.0531478
0 13 0.0751552
0 15 0.00686738
0 17 0.0610792
0 19 0.0375712
0 23 1.218e-07
0 24 1.09303e-05
0 33 0.00646194
0 54 0.0453641
0 64 2.5252e-05
0 70 2.5138e-05
0 72 0.00704916
0 82 0.0289869
0 88 6.40588e-07
0 89 0.0202202
0 93 0.00062437
0 104 2.34456e-07
0 109 0.035934
0 119 0.00304144
0 121 0.0296244
0 128 0.0096187
0 129 7.83844e-07
0 131 0.0261853
0 138 1.03503e-05
0 150 3.55548e-05
0 151 1.09939e-05
0 152 0.0061396
0 201 2.21929e-05
0 232 0.0216938
0 276 1.97916e-07
0 299 0.00735604
0 313 4.08e-05
0 314 7.01883e-05
0 326 0.00106662
0 343 8.63624e-05
0 352 5.13327e-06
0 373 1.37315e-06
0 376 0.00170509
0 378 6.0091e-07
0 419 8.9325e-06
0 429 4.35141e-07
0 479 7.80279e-07
0 489 4.93836e-05
0 531 0.0073418
0 532 6.51206e-06
0 534 1.92014e-06
0 535 0.00506885
0 565 0.00719289
0 568 0.000157098
0 573 0.0207477
0 578 4.02068e-07
0 664 9.05451e-05
0 731 3.1513e-05
0 801 0.00140664
0 827 2.31456e-06
0 892 0.0024188
0 980 8.24281e-07
0 1089 0.00766285
0 1135 1.18972e-07
0 1144 1.7533e-06
0 1154 2.01202e-07
0 1165 1.30902e-07
0 1237 0.00160113
0 1255 1.29078e-05
0 1257 1.218e-07
0 1272 0.00408629
0 1295 0.00110029
0 1353 0.00238058
0 1521 0.00239803
0 1528 0.00239833
0 1639 4.04082e-07
0 1647 1.7507e-06
0 1715 3.30444e-07
0 1755 0.000191616
0 1978 0.00217088
0 2061 7.63122e-06
0 2124 4.76233e-07
0 2131 0.000439667
0 2358 0.00222442
0 2362 0.00017115
0 2521 0.001444
0 2538 0.00712196
0 2558 0.000629338
0 2565 2.36947e-06
0 2623 2.2502e-06
0 2670 0.007195
0 2699 0.00430422
0 2856 2.1429e-06
0 2894 1.52822e-05
0 2900 6.69002e-07
0 2925 2.4892e-05
0 2955 2.66146e-07
0 2965 1.4724e-06
0 2998 2.76214e-07
0 3119 0.00320246
0 3172 0.00025872
0 3349 4.3514e-07
0 3351 1.35298e-07
0 3458 0.00697506
2 2 1
3 3 0.937587
3 82 0.0311888
3 121 0.0312239
4 4 0.996128
4 10 0.000594277
4 17 0.000166333
4 33 0.000139204
4 48 8.37633e-07
4 89 3.29491e-06
4 109 8.53002e-05
4 119 8.19799e-07
4 128 0.000755136
4 232 0.000162281
4 299 2.54278e-07
4 609 0.000761808
4 669 6.23906e-07
4 2061 0.00056596
4 2131 0.000635923
5 5 0.988623
5 121 7.54635e-05
5 131 0.00015529
5 373 0.0028344
5 540 0.00280532
5 1116 1.6654e-06
5 3503 0.00550412
6 6 0.956083
6 13 2.41661e-05
6 983 0.0438928
7 7 1
8 8 1
9 9 1
10 10 0.990782
10 17 0.00434878
10 609 3.5857e-07
10 983 0.00480477
10 1416 6.39917e-05
11 11 0.973442
11 13 2.96966e-06
11 1144 0.0265531
11 2832 1.91499e-06
12 12 1
13 13 0.984185
13 17 0.00511089
13 149 1.02765e-07
13 170 0.000197723
13 731 0.00524929
13 1237 1.19449e-07
13 3182 0.005257
14 14 1
15 5 0.016182
15 15 0.786582
15 54 0.0490966
15 213 2.71722e-05
15 347 0.0989482
15 501 0.0491637
15 1237 1.74927e-07
15 1353 5.50298e-07
16 16 0.75
16 1972 0.25
17 17 0.497689
17 18 0.502311
18 13 0.0148628
18 19 0.967358
18 121 0.00649571
18 127 7.93744e-06
18 150 1.91213e-06
18 230 0.00676937
18 310 0.00225637
18 1482 0.00224451
18 3387 3.59172e-06
19 20 1
20 21 1
21 22 0.8
21 436 0.2
22 13 0.00376778
22 23 0.996232
23 24 0.49962
23 25 0.50038
24 26 1
25 27 1
26 28 1
27 29 1
28 30 1
29 3 2.68761e-07
29 31 0.855154
29 54 0.0937302
29 309 8.96945e-07
29 573 0.0511141
29 1978 2.97306e-07
30 32 1
31 33 0.976387
31 195 0.0174387
31 309 3.46777e-07
31 480 0.000288532
31 664 7.24643e-05
31 962 2.73397e-07
31 1615 0.00581311
32 34 1
33 35 1
34 36 1
35 37 0.875
35 931 0.125
36 38 1
37 39 1
38 40 1
39 41 1
40 42 1
41 43 1
42 44 1
43 5 1.46643e-05
43 10 1.79538e-06
43 17 0.985854
43 19 0.000171479
43 33 5.87692e-05
43 89 1.81106e-06
43 104 0.00597198
43 160 0.00595404
43 378 5.15897e-07
43 548 0.00197119
44 45 1
45 46 1
46 47 1
47 5 0.0244057
47 19 0.0510277
47 48 0.752209
47 108 0.128338
47 285 0.0354842
47 720 0.00852831
47 924 2.33086e-06
47 983 4.75258e-06
48 49 1
49 50 1
50 5 0.0498364
50 326 0.900805
50 568 0.0370192
50 920 0.0123398
51 1400 1
52 119 1
53 134 1
54 51 1
55 13 0.0147087
55 51 0.931554
55 126 0.0396641
55 532 3.49865e-07
55 568 0.0129426
55 603 0.00113057
56 52 1
57 13 9.51405e-06
57 53 0.833294
57 572 0.166659
57 2830 1.81744e-05
57 2832 1.9407e-05
58 54 0.23075
58 581 0.76925
59 55 0.999768
59 72 8.00757e-07
59 254 0.000228344
59 376 7.05501e-07
59 1272 2.13135e-06
60 55 1
61 54 0.000855813
61 56 0.999144
62 57 1
63 58 0.973973
63 151 1.14242e-05
63 152 0.0260155
64 59 1
65 60 1
66 61 1
67 62 1
68 63 1
69 64 1
70 65 1
71 70 0.98215
71 152 0.01785
72 71 1
73 69 1
74 1465 1
75 161 0.1
75 1690 0.9
76 66 1
77 67 1
78 68 1
79 72 1
80 73 1
81 74 1
82 75 1
83 76 1
84 77 1
85 78 1
86 79 1
87 80 1
88 81 1
89 5 0.0489193
89 104 0.951081
90 81 0.498668
90 82 0.501332
91 82 1
92 82 0.977798
92 104 2.64623e-06
92 109 6.26178e-06
92 276 0.0152078
92 923 0.00502593
92 2288 0.00195833
92 2832 7.66857e-07
93 83 0.999971
93 1144 2.86392e-05
94 84 1
95 85 0.5
95 2572 0.5
96 86 1
97 87 1
98 4 0.000668486
98 5 0.000291378
98 54 0.94158
98 121 0.0382319
98 378 0.00498511
98 489 0.0142432
99 88 1
100 89 0.982163
100 104 0.00592542
100 326 0.00591204
100 343 8.63951e-05
100 381 0.00591272
101 90 1
102 91 1
103 92 0.899772
103 109 0.000254251
103 131 6.58368e-05
103 150 0.0815049
103 532 0.0184029
103 891 3.64441e-07
104 54 0.166654
104 93 0.833346
105 55 0.0575777
105 94 0.690926
105 253 0.00118999
105 399 0.0575769
105 573 0.19273
106 95 1
107 96 1
108 97 1
109 98 1
110 109 0.0412372
110 342 0.958763
111 1336 1
112 98 1
113 99 1
114 100 1
115 101 1
116 102 1
117 103 1
118 1148 1
119 4 0.366657
119 1970 0.633343
120 90 1
121 105 1
122 106 1
123 107 1
124 108 1
125 109 0.950816
125 131 0.0242244
125 487 0.0249595
126 110 1
127 111 1
128 112 1
129 113 1
130 114 1
131 346 0.954546
131 1087 0.0454542
132 115 1
133 116 1
134 117 1
135 118 1
136 119 1
137 120 1
138 54 0.0209381
138 121 0.936959
138 378 1.62826e-05
138 479 8.82246e-07
138 533 0.0227842
138 548 1.19764e-06
138 563 0.00352301
138 1277 0.00759473
138 1474 0.00759471
138 3175 0.000587852
139 55 0.5
139 122 0.5
140 123 1
141 124 0.873663
141 3172 0.126337
142 125 0.333334
142 206 0.333334
142 276 0.333332
143 24 0.055519
143 82 1.25099e-05
143 126 0.878878
143 378 5.40464e-06
143 563 0.00991863
143 698 0.0185066
143 924 1.59897e-06
143 933 0.000145023
143 936 0.0185064
143 1626 0.0185064
144 33 0.0215392
144 127 0.978435
144 1003 7.88356e-06
144 1755 1.74443e-05
145 128 1
146 82 0.0574342
146 129 0.904094
146 874 0.019236
146 2132 0.019236
147 130 0.6
147 166 0.4
148 104 0.00889655
148 131 0.95536
148 314 0.00892911
148 326 0.026787
148 548 2.69424e-05
148 2894 4.77242e-07
149 132 1
150 133 1
151 3 0.111041
151 135 0.333359
151 1221 0.22224
151 3041 0.333359
152 33 7.66896e-06
152 462 0.999992
153 136 0.272727
153 137 0.727273
154 64 4.836e-06
154 138 0.999995
155 139 0.8
155 314 0.2
156 140 1
157 141 1
158 31 1
159 17 2.30471e-06
159 19 0.110546
159 152 0.000219603
159 195 0.0953734
159 310 0.667614
159 454 0.0953734
159 535 0.030871
160 150 0.999947
160 151 5.33279e-05
161 10 0.0186527
161 33 0.0300843
161 151 0.0284244
161 298 0.871795
161 343 0.0180268
161 1115 0.0284276
161 1116 0.00458596
161 1295 3.17987e-06
162 142 1
163 143 1
164 144 1
165 145 1
166 146 1
167 147 1
168 148 0.999588
168 152 0.000412378
169 82 0.020744
169 149 0.969526
169 3387 0.00973036
170 19 0.417485
170 152 0.0231275
170 178 0.279693
170 2041 0.279695
171 153 1
172 154 0.75
172 1030 0.25
173 155 1
174 156 1
175 157 1
176 158 1
177 159 0.266667
177 1559 0.733333
178 160 0.000249606
178 1303 0.99975
179 160 1
180 161 1
181 13 1.86797e-06
181 17 0.226113
181 664 0.773838
181 924 4.71904e-05
182 162 1
183 34 0.176471
183 163 0.647059
183 309 0.176471
184 164 1
185 165 1
186 166 1
187 167 1
188 168 1
189 169 1
190 131 0.0842467
190 170 0.783989
190 531 0.0475079
190 534 0.0842557
190 1237 5.82194e-07
191 171 1
192 172 1
193 173 1
194 174 0.924248
194 1008 0.0610156
194 2041 0.0147365
195 175 0.839107
195 1165 0.160894
196 176 0.903846
196 273 0.0192307
196 885 0.0192307
196 2094 0.0576923
197 177 1
198 178 1
199 179 1
200 180 0.999959
200 962 4.07754e-05
201 24 0.0468316
201 72 0.00294706
201 79 0.140493
201 181 0.140495
201 376 0.107218
201 532 9.60372e-06
201 886 6.87951e-06
201 936 0.374653
201 1092 0.140495
201 1172 0.0468316
201 2856 1.83033e-05
202 556 1
203 182 1
204 183 1
205 184 0.333352
205 2705 0.333352
205 2953 0.333296
206 185 1
207 186 1
208 187 1
209 188 1
210 189 0.823525
210 276 0.117653
210 601 0.0588223
211 190 1
212 191 1
213 192 0.997073
213 543 0.00292679
214 193 1
215 194 1
216 13 0.0445415
216 82 0.000208711
216 195 0.951485
216 1116 0.00376502
217 196 1
218 195 1
219 253 0.999873
219 801 0.000127397
220 108 0.0535705
220 254 0.946429
221 488 0.999842
221 559 0.000157626
222 161 1
223 196 1
224 197 0.75
224 1231 0.25
225 198 1
226 199 1
227 149 1
228 2151 1
229 200 1
230 119 0.989135
230 578 0.0108651
231 200 1
232 192 0.0357147
232 201 0.821437
232 404 0.107144
232 1273 0.0357045
233 202 1
234 203 1
235 204 1
236 205 1
237 206 0.941575
237 480 0.0584247
238 207 0.831632
238 347 0.16833
238 373 3.83715e-05
239 208 1
240 209 1
241 210 1
242 211 1
243 212 1
244 213 0.5
244 214 0.5
245 215 1
246 24 1
247 216 1
248 217 1
249 218 1
250 219 1
251 220 1
252 221 1
253 222 1
254 19 0.104849
254 223 0.689422
254 254 0.205729
255 224 1
256 121 1
257 119 5.56139e-05
257 609 0.599786
257 2312 0.400158
258 225 1
259 226 1
260 31 0.504236
260 119 0.495764
261 227 1
262 228 1
263 229 1
264 230 0.882352
264 285 0.0294133
264 2465 0.0882352
265 231 1
266 10 7.91346e-05
266 232 0.999748
266 253 0.000171788
266 1273 1.36434e-06
267 233 1
268 234 1
269 235 1
270 236 1
271 237 1
272 238 1
273 239 1
274 240 1
275 225 1
276 109 8.51234e-06
276 121 0.040467
276 419 1.31061e-07
276 532 0.00323222
276 573 0.956292
277 195 1
278 241 1
279 242 1
280 243 1
281 244 1
282 245 1
283 246 1
284 247 1
285 248 1
286 249 1
287 250 1
288 251 1
289 1086 0.15
289 1920 0.85
290 1255 1
291 261 1
292 232 0.0152173
292 251 0.984783
293 252 1
294 89 0.0701702
294 109 0.0174346
294 152 0.912395
295 123 0.157895
295 141 0.157895
295 255 0.631579
295 290 0.0526314
296 256 1
297 119 1
298 119 0.0130686
298 257 0.986931
299 257 1
300 258 1
301 259 1
302 260 1
303 261 1
304 262 0.970588
304 1290 0.0294118
305 263 1
306 264 1
307 265 1
308 128 0.0062371
308 266 0.993763
309 267 1
310 128 0.0037954
310 1989 0.996205
311 268 1
312 269 1
313 54 0.182351
313 119 0.0629325
313 128 0.188147
313 270 0.566569
314 271 1
315 272 1
316 104 1
317 5 2.7099e-06
317 33 1.14312e-05
317 83 0.00630169
317 213 0.0126034
317 273 0.937449
317 294 0.0189051
317 543 0.0184241
317 1165 8.50192e-07
317 1236 0.0063017
318 223 0.114991
318 274 0.885009
319 275 1
320 276 0.5
320 2764 0.5
321 277 1
322 278 1
323 279 1
324 280 1
325 281 1
326 282 1
327 5 1.19345e-06
327 17 0.034607
327 131 2.26864e-06
327 150 0.965236
327 960 1.03909e-05
327 1165 0.000109869
327 1871 3.37633e-05
328 283 1
329 284 1
330 285 0.999907
330 1353 9.27436e-05
331 286 0.981137
331 1774 5.0771e-05
331 1780 0.0188121
332 287 1
333 288 0.870266
333 1755 0.129734
334 289 1
335 1785 1
336 290 1
337 17 0.0403305
337 291 0.95967
338 281 0.380634
338 292 0.619366
339 195 0.0235237
339 293 0.244119
339 693 0.732357
340 294 0.875173
340 314 0.0623154
340 1527 0.0625115
341 295 0.899929
341 961 0.0999921
341 962 7.84445e-05
342 296 1
343 297 1
344 299 0.905272
344 1264 0.0947282
345 300 1
346 301 1
347 302 1
348 325 1
349 302 1
350 82 0.106927
350 1026 0.893073
351 121 0.100324
351 533 0.808414
351 581 0.0654862
351 873 0.0252625
351 983 0.000512911
352 578 0.0550929
352 987 0.944907
353 303 1
354 304 1
355 305 1
356 306 1
357 307 1
358 308 1
359 309 0.75
359 1415 0.25
360 19 0.157893
360 23 0.157926
360 477 0.631539
360 1127 0.052642
361 310 1
362 11 8.33496e-06
362 667 0.0909083
362 1028 0.909083
363 311 1
364 312 0.333926
364 313 0.33216
364 314 0.333914
365 150 0.999814
365 313 0.000186411
366 315 1
367 316 1
368 317 1
369 318 1
370 319 1
371 320 1
372 714 0.142857
372 2946 0.857143
373 13 0.999225
373 321 0.000774851
374 321 1
375 322 0.75
375 742 0.25
376 323 1
377 324 1
378 327 1
379 131 0.00144182
379 328 0.374446
379 1418 0.624113
380 329 1
381 330 1
382 331 1
383 332 1
384 333 1
385 334 0.5
385 1220 0.5
386 328 1
387 290 0.199999
387 335 0.600001
387 342 0.199999
388 336 1
389 337 1
390 338 1
391 339 1
392 340 1
393 341 1
394 342 0.5
394 428 0.5
395 89 0.67685
395 343 0.32315
396 344 1
397 345 1
398 346 1
399 347 1
400 348 1
401 349 1
402 55 1
403 1237 1
404 350 1
405 351 1
406 352 0.784693
406 535 0.00125796
406 3322 0.214049
407 353 1
408 354 1
409 355 1
410 356 1
411 357 1
412 358 0.600519
412 734 0.199863
412 1003 0.199617
413 359 1
414 360 1
415 361 1
416 362 1
417 363 1
418 364 1
419 364 1
420 2188 1
421 2144 1
422 365 1
423 366 1
424 367 1
425 368 1
426 369 1
427 370 1
428 371 1
429 4 0.00101469
429 715 0.998985
430 82 0.993387
430 373 0.00661323
431 372 0.500015
431 1479 0.499985
432 347 0.052558
432 629 0.947442
433 24 1
434 374 1
435 292 1
436 375 1
437 376 0.933336
437 1225 0.0666645
438 377 1
439 2923 1
440 1304 1
441 373 1
442 378 1
443 379 1
444 380 0.999944
444 2698 5.55249e-05
445 381 2.44705e-05
445 382 0.999976
446 383 1
447 384 1
448 385 1
449 54 1
450 15 0.111109
450 31 0.666668
450 343 0.111111
450 1797 0.111111
451 373 1
452 386 1
453 108 0.249998
453 3459 0.750002
454 387 1
455 388 1
456 389 1
457 390 1
458 391 1
459 392 1
460 159 1
461 393 1
462 394 1
463 395 0.986058
463 3293 0.0139416
464 396 1
465 397 1
466 398 1
467 276 0.499997
467 399 0.500003
468 298 1
469 399 1
470 399 1
471 399 1
472 400 1
473 401 1
474 422 1
475 402 1
476 297 1
477 403 1
478 405 0.3
478 406 0.3
478 407 0.3
478 1484 0.1
479 408 1
480 409 1
481 410 1
482 411 1
483 412 1
484 413 1
485 414 1
486 415 1
487 21 0.0132857
487 1298 0.986714
488 416 1
489 417 1
490 418 1
491 419 1
492 232 0.0526166
492 420 0.947383
493 421 0.666667
493 1478 0.166667
493 2013 0.166667
494 109 0.0356521
494 422 0.857213
494 3504 0.107135
495 93 2.90804e-06
495 262 0.249999
495 423 0.666665
495 1176 0.0833331
496 424 1
497 425 1
498 426 1
499 427 1
500 17 0.0993428
500 429 0.894658
500 984 0.00599951
501 430 1
502 431 1
503 432 1
504 433 1
505 434 1
506 435 1
507 313 0.896564
507 436 0.103436
508 437 0.5
508 2421 0.5
509 438 1
510 436 1
511 439 1
512 440 1
513 441 1
514 442 1
515 443 1
516 444 1
517 445 0.5
517 1711 0.5
518 446 0.91431
518 573 0.0856898
519 33 1
520 382 1
521 447 1
522 448 0.999878
522 3090 0.000122369
523 449 1
524 450 1
525 451 1
526 285 0.354513
526 1589 0.645487
527 452 0.857143
527 873 0.142857
528 453 1
529 128 0.0010538
529 150 0.249736
529 454 0.74921
530 173 0.5
530 1154 0.5
531 455 0.6
531 608 0.2
531 2449 0.2
532 456 1
533 457 1
534 458 1
535 459 1
536 31 0.22136
536 131 0.000280957
536 150 0.0368926
536 343 0.700973
536 573 0.0032454
536 1008 0.00035978
536 1353 0.0368881
537 460 0.727273
537 3498 0.272727
538 461 1
539 463 1
540 464 1
541 465 1
542 466 1
543 467 1
544 468 1
545 469 1
546 176 0.107143
546 470 0.892857
547 471 1
548 174 1
549 174 1
550 174 1
551 472 1
552 473 1
553 474 1
554 475 1
555 476 0.86996
555 2925 0.13004
556 290 1
557 378 1
558 126 1
559 126 1
560 126 0.786629
560 478 0.213371
561 1912 1
562 126 1
563 478 1
564 276 0.963556
564 1755 0.000299443
564 1893 0.0361449
565 104 6.75942e-05
565 378 0.0015859
565 479 0.903313
565 548 0.0933538
565 3090 0.00168008
566 480 0.764731
566 493 2.62402e-05
566 573 0.0587663
566 714 0.176476
567 481 1
568 482 1
569 482 1
570 483 1
571 484 1
572 485 1
573 486 1
574 487 1
575 274 1
576 489 1
577 490 1
578 213 0.03125
578 273 0.0312499
578 290 0.812499
578 346 0.03125
578 636 0.0937498
578 892 1.52148e-06
579 491 1
580 492 1
581 493 0.5
581 3063 0.5
582 494 1
583 495 1
584 496 1
585 19 0.992064
585 496 0.0079364
586 497 1
587 498 1
588 499 0.625
588 524 0.375
589 500 1
590 15 0.090906
590 501 0.909094
591 502 1
592 503 1
593 504 1
594 5 0.000290566
594 138 0.745885
594 1733 0.253824
595 70 0.105574
595 88 0.105753
595 180 0.0352533
595 505 0.753232
595 1482 0.000186752
596 4 7.08732e-06
596 506 0.999993
597 507 1
598 507 0.500167
598 508 0.499833
599 509 1
600 510 1
601 511 1
602 512 1
603 513 1
604 24 0.636796
604 513 0.363204
605 514 1
606 515 1
607 516 1
608 517 1
609 518 1
610 54 0.140426
610 127 0.421326
610 230 0.140442
610 1329 0.280884
610 1708 0.0169211
611 501 1
612 519 0.428571
612 520 0.571429
613 521 1
614 522 1
615 523 1
616 253 0.25
616 524 0.75
617 525 1
618 526 1
619 527 0.857844
619 962 0.142156
620 528 1
621 529 1
622 2052 1
623 529 1
624 2948 1
625 23 1
626 23 1
627 33 0.214263
627 1260 0.785737
628 530 1
629 531 1
630 532 1
631 534 0.999995
631 565 5.43329e-06
632 126 0.23077
632 535 0.76923
633 10 0.419061
633 285 0.290469
633 1316 0.290469
634 540 1
635 536 1
636 537 0.833333
636 639 0.166666
637 536 0.916667
637 1028 0.0833333
638 538 1
639 539 0.499996
639 540 7.28314e-06
639 3248 0.499996
640 23 0.380544
640 540 0.0104432
640 541 0.609013
641 10 0.0944668
641 131 0.0754298
641 548 0.830103
642 542 1
643 544 1
644 545 1
645 546 1
646 547 1
647 479 1
648 215 0.749942
648 549 0.250058
649 549 0.749981
649 2448 0.250019
650 550 1
651 551 1
652 552 1
653 553 1
654 554 1
655 555 1
656 406 1
657 557 0.666721
657 3409 0.333279
658 273 0.25
658 558 0.75
659 559 0.812955
659 1225 8.94448e-06
659 2041 0.187036
660 560 1
661 561 0.5
661 2775 0.5
662 571 1
663 562 1
664 563 1
665 564 1
666 565 1
667 343 0.0444389
667 566 0.865826
667 1237 0.000636186
667 2124 0.0445536
667 2125 0.0445455
668 567 1
669 568 1
670 569 1
671 570 1
672 572 1
673 573 1
674 574 1
675 575 1
676 576 1
677 134 1
678 576 1
679 577 1
680 262 0.999979
680 578 2.10049e-05
681 578 0.199992
681 579 0.600007
681 2830 0.200001
682 580 0.75
682 619 0.25
683 93 1
684 55 1
685 582 1
686 583 1
687 584 1
688 206 1
689 585 1
690 586 1
691 587 1
692 588 1
693 589 1
694 590 1
695 174 0.375
695 591 0.625
696 592 1
697 593 1
698 594 0.75
698 2019 0.25
699 48 1
700 2658 1
701 589 1
702 896 1
703 595 1
704 596 1
705 597 1
706 276 1
707 595 1
708 596 1
709 598 1
710 599 1
711 600 1
712 601 1
713 17 0.377961
713 105 0.622039
714 602 1
715 603 1
716 604 1
717 605 1
718 606 1
719 607 1
720 608 1
721 10 0.00583465
721 573 0.00164004
721 609 0.907452
721 2240 0.0850736
722 610 1
723 611 1
724 69 1
725 612 1
726 2113 1
727 13 1
728 613 1
729 613 0.000381244
729 2326 0.999619
730 614 1
731 615 1
732 616 1
733 617 1
734 55 0.75
734 3367 0.25
735 618 1
736 620 1
737 621 1
738 309 0.3
738 622 0.7
739 623 1
740 624 1
741 625 1
742 626 1
743 627 1
744 18 0.25
744 628 0.75
745 630 1
746 631 1
747 632 1
748 48 0.329198
748 82 0.0124058
748 1193 0.658396
749 5 0.199631
749 2225 0.200093
749 2863 0.600277
750 671 1
751 121 1
752 536 1
753 10 0.169287
753 13 0.492119
753 33 0.169295
753 1578 0.169299
754 633 1
755 634 1
756 635 1
757 638 1
758 639 0.668096
758 3155 0.331904
759 601 0.166667
759 640 0.833333
760 54 0.0129115
760 89 0.228763
760 109 0.00346783
760 131 0.348184
760 150 0.0580954
760 3303 0.348578
761 298 1
762 637 1
763 641 1
764 642 1
765 479 0.0714208
765 643 0.928579
766 644 1
767 645 0.999999
767 1237 1.1473e-06
768 646 1
769 647 1
770 984 0.118337
770 1976 0.755726
770 2181 0.125938
771 129 0.498016
771 285 0.00396698
771 2613 0.498017
772 31 0.541375
772 647 0.458625
773 31 1
774 178 0.2
774 479 0.6
774 648 0.2
775 649 1
776 650 1
777 2009 1
778 651 1
779 652 1
780 653 1
781 489 0.499999
781 633 0.500001
782 654 1
783 655 1
784 656 1
785 657 1
786 658 1
787 659 1
788 136 1
789 129 0.333299
789 225 0.333351
789 285 0.333351
790 660 0.890204
790 924 0.109796
791 661 1
792 662 1
793 663 1
794 665 1
795 666 1
796 13 0.00281457
796 500 5.5578e-05
796 667 0.99713
797 668 1
798 573 0.300001
798 669 0.699999
799 670 1
800 671 1
801 672 1
802 131 0.0768739
802 673 0.923126
803 64 0.403897
803 674 0.596103
804 675 1
805 676 1
806 677 1
807 678 1
808 679 1
809 680 0.5
809 921 0.5
810 681 1
811 680 1
812 682 1
813 683 1
814 428 1
815 684 1
816 685 1
817 686 1
818 687 1
819 688 1
820 689 1
821 690 1
822 691 0.934369
822 2302 0.0656309
823 664 0.227563
823 692 0.540706
823 983 0.231731
824 213 0.857372
824 273 0.0714476
824 419 0.0711806
825 694 1
826 695 0.571429
826 1199 0.428571
827 696 1
828 697 1
829 698 1
830 3207 1
831 66 1
832 699 1
833 700 1
834 13 1
835 701 1
836 13 0.0770749
836 19 0.23137
836 493 0.077105
836 1647 0.0744731
836 1840 0.539977
837 935 1
838 702 1
839 703 1
840 704 1
841 705 1
842 706 1
843 707 1
844 152 0.466169
844 708 0.533831
845 150 1
846 2233 0.73057
846 3159 0.26943
847 150 1
848 19 1
849 692 1
850 135 1
851 698 0.5
851 2556 0.5
852 709 1
853 710 1
854 2770 1
855 711 1
856 712 1
857 713 1
858 488 0.25
858 714 0.75
859 716 1
860 708 0.142858
860 717 0.857142
861 19 1
862 718 1
863 2341 1
864 719 1
865 689 1
866 721 1
867 722 1
868 723 1
869 716 1
870 724 1
871 725 1
872 726 1
873 727 1
874 728 1
875 729 1
876 739 1
877 82 0.249835
877 3027 0.750165
878 734 1
879 730 1
880 731 1
881 735 1
882 736 1
883 737 1
884 738 1
885 732 1
886 733 1
887 740 1
888 741 1
889 743 1
890 174 0.333333
890 744 0.666667
891 745 1
892 747 1
893 746 1
894 748 1
895 749 1
896 750 0.571429
896 1920 0.428571
897 669 1
898 751 1
899 752 0.4
899 3255 0.6
900 753 0.975773
900 2861 0.0242271
901 754 1
902 755 1
903 756 1
904 121 0.4994
904 671 0.5006
905 757 1
906 758 0.778069
906 1347 0.0555763
906 2894 0.166355
907 358 1
908 406 0.952381
908 572 0.047619
909 496 1
910 358 0.166667
910 1741 0.833333
911 759 1
912 760 1
913 761 1
914 762 1
915 763 1
916 342 1
917 1115 1
918 764 1
919 765 1
920 771 1
921 772 1
922 773 1
923 770 1
924 825 1
925 488 1
926 4 0.249862
926 766 0.750138
927 767 1
928 768 1
929 769 1
930 773 1
931 774 1
932 775 1
933 776 1
934 777 1
935 778 1
936 779 1
937 548 1
938 780 1
939 781 1
940 782 1
941 783 1
942 784 1
943 609 0.0411159
943 983 0.958884
944 1766 1
945 789 1
946 785 1
947 290 0.0769228
947 786 0.923077
948 787 1
949 788 1
950 790 1
951 791 1
952 792 1
953 793 1
954 794 1
955 795 1
956 796 1
957 797 1
958 798 1
959 799 1
960 799 1
961 3510 1
962 13 1
963 800 1
964 801 0.168072
964 802 0.831928
965 803 1
966 804 1
967 805 1
968 314 1
969 1913 1
970 16 0.124726
970 1209 0.875274
971 1825 1
972 806 0.5
972 3425 0.5
973 807 1
974 808 1
975 809 1
976 810 1
977 811 1
978 812 1
979 814 1
980 479 1.02907e-06
980 573 2.5823e-05
980 815 0.916644
980 866 0.0833292
981 816 1
982 817 0.5
982 1660 0.5
983 55 0.335475
983 128 0.32905
983 818 0.335474
984 160 0.333334
984 813 0.333334
984 819 0.333333
985 820 1
986 821 1
987 822 1
988 150 1
989 822 1
990 34 0.850002
990 131 0.149998
991 173 0.200053
991 276 0.600157
991 573 0.199789
992 823 1
993 824 1
994 594 0.928572
994 896 0.0714281
995 826 1
996 11 0.15
996 827 0.7
996 849 0.15
997 828 1
998 829 1
999 830 1
1000 708 1
1001 708 1
1002 708 1
1003 831 1
1004 832 1
1005 833 1
1006 89 0.984812
1006 1515 0.0151885
1007 10 0.000630995
1007 89 0.595038
1007 378 0.173988
1007 815 0.230342
1008 815 1
1009 815 0.000752146
1009 853 0.999248
1010 829 1
1011 834 1
1012 362 1
1013 298 1
1014 835 1
1015 171 0.499872
1015 378 0.000255338
1015 1994 0.499872
1016 836 1
1017 17 1
1018 837 0.741774
1018 1220 0.258226
1019 838 1
1020 839 1
1021 840 1
1022 841 1
1023 842 1
1024 843 0.833333
1024 1370 0.166667
1025 844 1
1026 845 1
1027 309 0.769232
1027 3283 0.230768
1028 846 1
1029 11 2.60142e-05
1029 1892 0.499987
1029 2527 0.499987
1030 764 1
1031 847 1
1032 309 0.333333
1032 848 0.333334
1032 3269 0.333333
1033 849 1
1034 850 1
1035 851 1
1036 852 1
1037 854 1
1038 855 1
1039 239 1
1040 856 1
1041 857 1
1042 858 1
1043 89 1
1044 859 1
1045 860 1
1046 861 1
1047 862 1
1048 346 0.125
1048 1711 0.875
1049 536 1
1050 276 1
1051 479 0.000202012
1051 863 0.999798
1052 33 0.338322
1052 131 0.323537
1052 479 0.338141
1053 126 0.333335
1053 864 0.333335
1053 865 0.33333
1054 139 0.111111
1054 867 0.888889
1055 868 1
1056 869 1
1057 870 1
1058 871 1
1059 872 1
1060 664 0.499997
1060 873 0.500003
1061 874 1
1062 875 1
1063 876 1
1064 877 1
1065 171 0.137278
1065 878 0.823669
1065 2558 0.0390535
1066 879 1
1067 880 1
1068 609 0.333284
1068 881 0.666716
1069 882 1
1070 124 0.374968
1070 127 0.375019
1070 883 0.250013
1071 775 1
1072 884 1
1073 573 0.999541
1073 886 0.000458797
1074 887 1
1075 888 1
1076 889 1
1077 131 1
1078 886 0.331179
1078 896 0.668821
1079 532 0.000108579
1079 886 0.00113089
1079 1104 0.998761
1080 720 1
1081 89 0.496789
1081 890 0.503202
1081 891 8.98522e-06
1082 532 0.000304886
1082 891 0.999695
1083 893 1
1084 894 1
1085 895 1
1086 897 1
1087 898 1
1088 899 1
1089 900 1
1090 901 1
1091 902 1
1092 903 1
1093 904 1
1094 905 1
1095 906 1
1096 907 1
1097 908 1
1098 4 1
1099 909 1
1100 910 1
1101 911 1
1102 912 1
1103 913 1
1104 328 0.0117455
1104 914 0.988254
1105 915 1
1106 916 1
1107 917 1
1108 918 1
1109 919 1
1110 922 1
1111 17 0.0105386
1111 923 0.989461
1112 923 1
1113 924 0.502789
1113 1171 0.497211
1114 64 0.240119
1114 739 0.759881
1115 925 1
1116 926 1
1117 15 1
1118 927 0.25
1118 3145 0.75
1119 928 1
1120 929 1
1121 126 0.745819
1121 930 0.254181
1122 931 1
1123 932 1
1124 15 0.500555
1124 933 0.499445
1125 934 1
1126 673 1
1127 937 1
1128 938 0.25
1128 1416 0.75
1129 939 1
1130 940 1
1131 941 1
1132 942 1
1133 943 1
1134 944 1
1135 945 1
1136 831 1
1137 946 1
1138 170 0.333332
1138 920 0.333334
1138 947 0.333334
1139 948 1
1140 949 1
1141 950 1
1142 951 1
1143 952 1
1144 953 1
1145 1244 1
1146 2661 1
1147 954 1
1148 126 0.177304
1148 955 0.822696
1149 956 1
1150 957 1
1151 405 1
1152 958 1
1153 959 1
1154 527 1
1155 180 0.500144
1155 960 0.499856
1156 963 1
1157 964 1
1158 960 0.5
1158 1456 0.5
1159 965 1
1160 966 1
1161 967 1
1162 968 1
1163 969 1
1164 970 1
1165 971 1
1166 972 1
1167 973 1
1168 974 1
1169 975 1
1170 976 1
1171 977 1
1172 978 1
1173 979 0.749809
1173 980 0.250191
1174 980 0.881298
1174 1003 9.53883e-05
1174 3173 0.118607
1175 981 1
1176 982 1
1177 985 1
1178 986 1
1179 988 1
1180 989 1
1181 990 1
1182 64 1
1183 64 1.81004e-05
1183 272 0.141187
1183 309 0.00123621
1183 480 0.141187
1183 720 0.705933
1183 1978 0.01044
1184 991 1
1185 619 1
1186 992 1
1187 993 0.71086
1187 2965 0.28914
1188 994 1
1189 995 1
1190 996 1
1191 997 1
1192 998 1
1193 999 1
1194 4 0.640427
1194 1000 0.359573
1195 1000 1
1196 1001 1
1197 1002 1
1198 980 1
1199 1004 1
1200 1005 1
1201 1006 1
1202 1007 1
1203 1008 0.999896
1203 3499 0.000104305
1204 1009 1
1205 1010 1
1206 1011 1
1207 1012 1
1208 667 0.5
1208 1013 0.5
1209 1014 1
1210 1015 1
1211 1016 1
1212 1017 1
1213 1018 1
1214 1019 1
1215 1020 1
1216 1021 1
1217 1022 1
1218 1023 1
1219 1024 1
1220 1025 1
1221 1027 1
1222 1029 1
1223 1031 1
1224 578 1
1225 522 0.934648
1225 578 0.0653518
1226 1032 1
1227 1033 1
1228 885 1
1229 1034 1
1230 1035 1
1231 18 1
1232 1036 1
1233 1037 1
1234 1037 1
1235 1038 1
1236 1039 1
1237 993 1
1238 1040 1
1239 1041 1
1240 1042 1
1241 1043 1
1242 1044 1
1243 1045 1
1244 1046 1
1245 1047 1
1246 1048 1
1247 144 1
1248 1049 1
1249 1050 1
1250 1051 1
1251 1052 1
1252 1053 1
1253 1054 1
1254 1055 1
1255 1611 1
1256 18 1
1257 109 0.218629
1257 1056 0.781371
1258 1057 1
1259 1058 1
1260 1059 1
1261 1060 1
1262 1060 1
1263 1061 1
1264 1062 1
1265 1063 1
1266 1064 1
1267 1065 1
1268 1066 1
1269 1067 1
1270 1068 1
1271 1069 0.666769
1271 1070 0.333231
1272 1069 1
1273 192 1
1274 81 1
1275 13 0.00271808
1275 126 5.92855e-05
1275 1071 0.249383
1275 2830 0.74784
1276 1072 1
1277 1073 1
1278 1074 1
1279 1075 1
1280 1076 1
1281 1077 1
1282 1078 1
1283 1079 1
1284 1080 1
1285 1081 1
1286 1082 1
1287 1083 1
1288 1084 1
1289 1085 1
1290 1086 1
1291 64 0.0709141
1291 262 0.0714681
1291 1087 0.857618
1292 873 1
1293 1088 1
1294 1088 1
1295 1089 1
1296 1090 1
1297 5 0.000118678
1297 126 7.4839e-05
1297 1091 0.999741
1297 2830 6.52538e-05
1298 1092 1
1299 1093 1
1300 1094 1
1301 1095 1
1302 1096 1
1303 1097 1
1304 1098 1
1305 1099 1
1306 1100 1
1307 1101 1
1308 891 1
1309 1102 1
1310 1103 1
1311 1105 1
1312 1106 1
1313 5 0.553208
1313 18 0.446792
1314 1107 1
1315 1108 1
1316 1109 1
1317 4 0.631954
1317 1110 0.368046
1318 1111 1
1319 604 0.3
1319 1112 0.7
1320 1113 1
1321 1114 1
1322 24 0.142857
1322 2296 0.857143
1323 891 0.142857
1323 2826 0.428571
1323 3372 0.428571
1324 1117 1
1325 1118 1
1326 1119 1
1327 1120 1
1328 1121 1
1329 1122 1
1330 1123 1
1331 1124 1
1332 1125 1
1333 1126 1
1334 1127 1
1335 243 0.333333
1335 1128 0.666667
1336 1129 1
1337 1130 1
1338 119 1
1339 865 1
1340 1131 1
1341 1132 1
1342 1136 0.923077
1342 1306 0.0769231
1343 1137 1
1344 1138 1
1345 1139 1
1346 3 0.632267
1346 31 0.367733
1347 31 0.289507
1347 1140 0.710493
1348 17 3.88945e-06
1348 1141 0.999996
1349 1142 1
1350 1143 1
1351 44 0.999977
1351 1144 2.26937e-05
1352 119 0.497086
1352 1135 0.000370448
1352 1144 0.00545494
1352 2481 0.497089
1353 470 0.33367
1353 1133 0.333672
1353 1135 0.332659
1354 1134 1
1355 109 0.142814
1355 1145 0.857186
1356 2203 1
1357 827 1
1358 1146 1
1359 1147 1
1360 1148 0.25
1360 2654 0.75
1361 209 1
1362 1149 1
1363 1012 1
1364 1150 1
1365 1151 1
1366 1152 1
1367 1153 0.496393
1367 1154 0.00721337
1367 1155 0.496393
1368 1154 1
1369 253 1
1370 1156 1
1371 1157 1
1372 1158 1
1373 1159 1
1374 174 0.333334
1374 239 0.333333
1374 1160 0.333334
1375 1161 1
1376 1162 1
1377 1163 1
1378 1164 1
1379 1166 1
1380 1167 1
1381 1168 1
1382 1169 1
1383 1170 0.25
1383 3113 0.75
1384 1171 1
1385 1172 1
1386 1173 1
1387 945 1
1388 1174 1
1389 1175 1
1390 1177 1
1391 1178 1
1392 1179 1
1393 1180 1
1394 1181 1
1395 551 0.333333
1395 576 0.333333
1395 1475 0.333333
1396 1182 1
1397 1183 1
1398 1184 1
1399 1185 1
1400 1186 1
1401 1187 1
1402 1188 0.5
1402 1212 0.5
1403 1189 1
1404 188 1
1405 314 1
1406 174 0.75
1406 1190 0.25
1407 1191 1
1408 1192 1
1409 1194 1
1410 1195 1
1411 1196 1
1412 1197 1
1413 1198 1
1414 1199 1
1415 1200 1
1416 1201 1
1417 1202 0.625101
1417 2856 0.374899
1418 1203 1
1419 1190 0.166667
1419 1620 0.833333
1420 1204 1
1421 295 0.2
1421 1442 0.8
1422 1205 1
1423 1206 1
1424 1207 1
1425 1208 1
1426 1210 1
1427 1028 0.5
1427 1211 0.5
1428 764 1
1429 1208 1
1430 4 1
1431 1410 1
1432 150 0.333065
1432 1213 0.666935
1433 1214 1
1434 1215 1
1435 1216 1
1436 1217 1
1437 1218 0.8
1437 1748 0.2
1438 1219 0.50009
1438 1373 0.49991
1439 299 0.0118153
1439 1220 0.805167
1439 1295 0.0219838
1439 1478 0.0402584
1439 2411 0.120775
1440 1222 1
1441 1222 1
1442 33 1
1443 1223 1
1444 1224 1
1445 1225 1
1446 119 0.00132374
1446 892 0.977818
1446 2521 0.0208584
1447 5 0.602653
1447 892 0.397347
1448 1226 1
1449 119 1
1450 1227 1
1451 1228 1
1452 129 1
1453 1229 1
1454 126 0.250162
1454 195 0.249946
1454 1230 0.499892
1455 1232 1
1456 1233 1
1457 1234 1
1458 447 1
1459 1235 1
1460 33 0.984968
1460 1237 0.0150325
1461 1237 0.232358
1461 1238 0.767642
1462 128 1
1463 1239 1
1464 1240 1
1465 1241 1
1466 1196 0.333333
1466 1242 0.666667
1467 375 1
1468 1243 1
1469 1245 1
1470 1237 4.12062e-06
1470 1246 0.999996
1471 1246 1
1472 1247 1
1473 54 0.0999624
1473 1248 0.900038
1474 335 0.75
1474 1249 0.25
1475 23 0.230769
1475 37 0.076923
1475 603 0.230769
1475 1250 0.461538
1476 1251 1
1477 1252 1
1478 1253 1
1479 1254 1
1480 1255 1
1481 82 0.496864
1481 1256 0.503136
1482 23 0.5
1482 1257 0.499999
1483 497 1
1484 1258 1
1485 1259 1
1486 1261 1
1487 1262 1
1488 1263 1
1489 1264 1
1490 1265 1
1491 1266 1
1492 1267 1
1493 57 0.5
1493 298 0.5
1494 253 0.497019
1494 1268 0.502981
1495 1273 1
1496 1269 1
1497 1270 1
1498 1271 1
1499 1272 1
1500 1274 1
1501 1275 1
1502 1276 1
1503 18 1
1504 1277 1
1505 1278 1
1506 1279 1
1507 1280 1
1508 1281 0.999961
1508 3082 3.94856e-05
1509 1282 1
1510 1283 1
1511 1284 1
1512 1285 1
1513 1286 0.7
1513 3503 0.3
1514 128 0.498427
1514 614 0.501573
1515 1287 1
1516 1288 1
1517 1289 1
1518 1289 1
1519 1291 1
1520 1292 1
1521 1293 1
1522 1294 1
1523 1295 1
1524 1296 1
1525 1297 0.952608
1525 3267 0.0473925
1526 1299 1
1527 1300 1
1528 1301 1
1529 1302 1
1530 54 1
1531 576 1
1532 1305 1
1533 1306 1
1534 1307 0.863941
1534 1401 0.136059
1535 70 0.333028
1535 214 0.333486
1535 685 0.333486
1536 1308 1
1537 1309 1
1538 33 1
1539 125 1
1540 1310 1
1541 1311 1
1542 1312 1
1543 1313 1
1544 1314 1
1545 1315 1
1546 55 1
1547 994 1
1548 1317 1
1549 1318 1
1550 1319 1
1551 1320 1
1552 1321 1
1553 1322 1
1554 1323 1
1555 34 0.75
1555 1324 0.25
1556 1325 1
1557 294 1
1558 19 0.00228389
1558 294 0.491447
1558 378 0.505944
1558 1328 0.000325004
1559 1278 0.5
1559 1326 0.5
1560 126 1
1561 11 0.333274
1561 1327 0.333364
1561 1328 0.333361
1562 254 1
1563 1330 1
1564 1331 1
1565 1332 1
1566 1333 1
1567 543 1
1568 1334 1
1569 1335 1
1570 29 0.00553239
1570 842 0.994468
1571 1053 0.166667
1571 1577 0.833333
1572 1337 1
1573 1338 1
1574 82 0.496816
1574 1339 0.503184
1575 1340 1
1576 1341 1
1577 1342 1
1578 1343 1
1579 1344 1
1580 1345 1
1581 1810 1
1582 1345 1
1583 285 0.4
1583 1346 0.6
1584 1347 1
1585 1348 1
1586 1349 0.5
1586 1350 0.5
1587 1350 1
1588 1351 0.994651
1588 1353 0.00534856
1589 1352 1
1590 398 0.00831762
1590 960 0.213897
1590 2041 0.777786
1591 1354 1
1592 1355 1
1593 1356 1
1594 1357 1
1595 1358 1
1596 1359 1
1597 566 0.5
1597 1350 0.5
1598 1360 1
1599 1361 1
1600 1362 1
1601 1363 1
1602 1364 1
1603 1365 1
1604 1366 1
1605 698 8.14211e-05
1605 873 0.499959
1605 2015 0.499959
1606 1367 1
1607 1368 0.6262
1607 3078 0.3738
1608 1369 1
1609 129 0.249989
1609 1371 0.500008
1609 1625 0.250004
1610 149 1
1611 1372 1
1612 82 1
1613 1219 1
1614 1261 1
1615 1374 1
1616 109 1
1617 150 1
1618 1375 1
1619 1376 1
1620 1377 1
1621 150 0.412267
1621 1377 0.587734
1622 150 1
1623 150 0.568294
1623 1378 0.431706
1624 1378 1
1625 1379 1
1626 1380 1
1627 1381 1
1628 1382 1
1629 1383 1
1630 1384 1
1631 358 0.5
1631 1954 0.5
1632 1385 1
1633 82 1
1634 150 1
1635 404 0.812502
1635 1767 0.187498
1636 1386 1
1637 1387 1
1638 1388 1
1639 1389 1
1640 1390 1
1641 1391 1
1642 1392 1
1643 37 1.11162e-06
1643 55 0.0769433
1643 138 0.230566
1643 1393 0.692489
1644 1394 1
1645 1395 1
1646 1396 1
1647 4 0.999593
1647 1265 0.000406483
1648 1397 0.333333
1648 1493 0.333333
1648 2621 0.333333
1649 1398 1
1650 1399 1
1651 343 0.25
1651 1030 0.75
1652 64 0.253223
1652 1401 0.746777
1653 1402 1
1654 1403 1
1655 1404 1
1656 64 0.333525
1656 128 0.332639
1656 450 0.333836
1657 1405 1
1658 1406 1
1659 1407 1
1660 1408 1
1661 1409 1
1662 1410 1
1663 1411 1
1664 15 1
1665 505 1
1666 3323 1
1667 506 1
1668 1412 1
1669 1413 1
1670 1414 0.5
1670 1415 0.5
1671 11 0.15
1671 1416 0.85
1672 1417 1
1673 493 1
1674 1419 1
1675 12 0.00289947
1675 1420 0.997101
1676 1421 1
1677 1422 1
1678 1423 1
1679 1424 1
1680 1425 1
1681 1426 1
1682 1427 0.674376
1682 2259 0.325624
1683 1428 1
1684 2281 1
1685 262 1
1686 1429 1
1687 1430 1
1688 1431 1
1689 1432 1
1690 1433 1
1691 1434 1
1692 69 1
1693 1435 0.142857
1693 3469 0.857143
1694 1436 1
1695 1437 1
1696 1438 1
1697 1439 1
1698 1440 1
1699 1441 1
1700 1443 1
1701 1444 1
1702 1445 1
1703 2751 0.5
1703 3211 0.5
1704 298 1
1705 1446 1
1706 10 1
1707 1447 1
1708 1447 1
1709 1448 1
1710 1449 1
1711 1450 1
1712 1451 1
1713 1452 1
1714 1453 1
1715 1454 1
1716 1454 1
1717 1455 1
1718 1456 1
1719 89 0.0671379
1719 573 0.057645
1719 1668 0.328206
1719 1718 0.547011
1720 1457 1
1721 89 9.50705e-06
1721 688 0.599936
1721 1458 0.199979
1721 1618 0.200075
1722 1459 1
1723 1460 1
1724 1461 1
1725 64 1
1726 1462 1
1727 1463 1
1728 212 1
1729 5 0.491495
1729 19 0.508505
1730 463 1
1731 1464 1
1732 1370 0.400304
1732 2964 0.599696
1733 156 0.5
1733 1466 0.5
1734 1467 1
1735 1468 1
1736 1469 1
1737 1470 1
1738 232 0.27699
1738 1471 0.72301
1739 1472 1
1740 1473 1
1741 1476 1
1742 1477 1
1743 572 0.232794
1743 1479 0.543207
1743 2955 0.223999
1744 346 1
1745 1480 1
1746 1481 1
1747 89 0.00328681
1747 253 0.0996713
1747 1915 0.897042
1748 180 1.3954e-05
1748 1483 0.999986
1749 1485 1
1750 123 1
1751 731 1
1752 1486 0.999975
1752 1488 2.5083e-05
1753 1487 0.334066
1753 1488 0.334047
1753 1489 0.331887
1754 1490 1
1755 1489 1
1756 1491 1
1757 1492 1
1758 3 0.3
1758 136 0.1
1758 1493 0.6
1759 1494 1
1760 1495 0.99521
1760 3155 0.00478965
1761 531 0.056132
1761 1496 0.943868
1762 1497 1
1763 1498 1
1764 1499 1
1765 639 1
1766 13 0.783909
1766 108 0.216091
1767 108 1
1768 1500 1
1769 1501 1
1770 535 0.249998
1770 1502 0.75
1770 2925 2.84254e-06
1771 151 0.198969
1771 276 0.200258
1771 1503 0.600773
1772 1504 1
1773 1505 1
1774 64 1
1775 1506 1
1776 1507 1
1777 1508 1
1778 378 0.499364
1778 1509 0.500636
1779 1510 1
1780 1511 1
1781 13 0.292631
1781 151 0.35402
1781 1508 0.353349
1782 253 7.05099e-06
1782 1512 0.112074
1782 1524 0.560371
1782 3175 0.327548
1783 294 1
1784 1513 1
1785 1514 1
1786 1515 1
1787 1511 1
1788 1727 1
1789 1516 1
1790 416 0.5
1790 1517 0.5
1791 1518 1
1792 1518 1
1793 54 1
1794 1519 1
1795 1339 1
1796 1520 1
1797 1521 1
1798 151 0.884615
1798 2750 0.115385
1799 1522 1
1800 1523 3.235e-05
1800 2323 0.999968
1801 1523 1
1802 372 0.571558
1802 1272 0.428442
1803 1525 1
1804 54 0.748623
1804 1526 0.251377
1805 192 0.25
1805 2854 0.75
1806 1529 1
1807 422 1
1808 1530 1
1809 1531 1
1810 1532 1
1811 1533 1
1812 1534 1
1813 1535 1
1814 1537 1
1815 276 1
1816 1538 1
1817 865 0.33333
1817 1536 0.333335
1817 1539 0.333334
1818 1540 1
1819 1541 1
1820 1542 1
1821 1543 1
1822 1544 1
1823 1545 1
1824 534 1
1825 1546 1
1826 1547 1
1827 1548 1
1828 1549 1
1829 1550 1
1830 500 0.0100786
1830 1551 0.989921
1831 1552 1
1832 1553 1
1833 1554 1
1834 1555 1
1835 1556 1
1836 1557 1
1837 1558 1
1838 1173 1
1839 1560 1
1840 722 0.322712
1840 1560 0.35458
1840 3306 0.322708
1841 1561 1
1842 1562 1
1843 1563 1
1844 1564 1
1845 1565 1
1846 1566 1
1847 1567 1
1848 342 1
1849 342 0.172402
1849 1568 0.827598
1850 500 0.545453
1850 532 0.0909087
1850 573 0.272697
1850 2125 3.27434e-05
1850 2126 0.0909088
1851 1568 1
1852 1569 1
1853 119 1
1854 1570 1
1855 1571 1
1856 1572 1
1857 1573 1
1858 1574 1
1859 1575 1
1860 1576 1
1861 327 1
1862 1579 1
1863 1580 1
1864 1581 1
1865 1582 1
1866 1583 1
1867 1584 1
1868 55 0.250589
1868 201 0.248254
1868 1585 0.501158
1869 88 0.501348
1869 1255 0.498652
1870 1586 1
1871 1587 1
1872 1588 1
1873 1590 1
1874 1591 1
1875 1592 1
1876 1593 1
1877 1594 1
1878 294 0.333333
1878 2379 0.666667
1879 201 6.65527e-05
1879 1585 7.89833e-05
1879 1595 0.999854
1880 1596 1
1881 609 0.5
1881 1597 0.5
1882 1598 1
1883 1599 1
1884 1416 0.425326
1884 1600 0.14369
1884 2832 0.430984
1885 1601 0.992389
1885 2160 0.00761114
1886 1602 1
1887 573 0.374497
1887 1603 0.625503
1888 688 1
1889 1604 1
1890 1605 1
1891 1606 1
1892 653 1
1893 5 1
1894 1607 1
1895 2475 1
1896 1608 1
1897 1609 1
1898 1610 0.840468
1898 2721 0.159532
1899 1612 1
1900 1613 1
1901 1614 1
1902 1616 1
1903 1371 1
1904 1617 1
1905 1199 1
1906 1618 1
1907 1619 1
1908 1621 1
1909 1621 1
1910 1622 1
1911 1623 1
1912 1624 1
1913 82 0.225398
1913 425 0.309841
1913 2752 0.232381
1913 3228 0.232381
1914 980 0.2
1914 1026 0.2
1914 2901 0.6
1915 1627 1
1916 1628 1
1917 1629 1
1918 1630 1
1919 1631 1
1920 1632 1
1921 310 1.32209e-05
1921 1633 0.999987
1922 1634 1
1923 1635 1
1924 1636 1
1925 1637 1
1926 1638 0.2
1926 2497 0.2
1926 3103 0.6
1927 522 0.499185
1927 1639 0.500815
1928 129 0.333308
1928 285 0.333346
1928 979 0.333346
1929 540 1
1930 1640 1
1931 1641 1
1932 1642 1
1933 89 1
1934 1647 1
1935 1643 1
1936 1644 1
1937 1645 1
1938 709 0.333333
1938 1646 0.666667
1939 1648 1
1940 82 0.492087
1940 1649 0.507913
1941 1650 1
1942 1651 1
1943 1652 1
1944 1635 1
1945 1653 1
1946 1654 1
1947 128 0.499667
1947 2119 0.500333
1948 150 1
1949 1655 1
1950 568 0.483926
1950 1639 0.516074
1951 1656 1
1952 1657 1
1953 1658 1
1954 3435 1
1955 1661 1
1956 1659 1
1957 171 1
1958 276 1
1959 128 0.497958
1959 1907 0.502042
1960 1662 1
1961 1663 1
1962 1664 1
1963 1665 1
1964 1666 1
1965 548 0.00825692
1965 1667 0.991743
1966 1668 1
1967 1669 1
1968 1670 1
1969 1671 1
1970 1672 1
1971 1673 1
1972 1674 1
1973 1675 1
1974 1328 1
1975 1676 1
1976 1677 1
1977 1678 1
1978 1679 1
1979 4 0.480254
1979 2553 0.519746
1980 964 1
1981 396 0.5
1981 1680 0.5
1982 1681 1
1983 1682 1
1984 1683 1
1985 1684 1
1986 1685 1
1987 1181 0.424049
1987 1686 0.575951
1988 1686 1
1989 1687 1
1990 54 1
1991 1688 1
1992 1689 1
1993 1691 1
1994 1692 1
1995 1028 0.999477
1995 1692 0.000523148
1996 1693 1
1997 1694 1
1998 1695 0.666667
1998 1734 0.333333
1999 1696 1
2000 17 0.00287879
2000 1701 0.997121
2001 1696 1
2002 1722 1
2003 1696 1
2004 1697 1
2005 1698 1
2006 1699 1
2007 1700 1
2008 1702 0.666694
2008 1715 0.333306
2009 1703 1
2010 33 0.495052
2010 1693 0.504948
2011 1704 1
2012 1705 1
2013 1706 1
2014 1707 1
2015 1748 1
2016 1708 1
2017 1709 1
2018 1710 1
2019 1712 1
2020 1713 1
2021 1714 1
2022 1701 1
2023 1709 1
2024 1716 1
2025 1717 1
2026 1719 1
2027 935 1
2028 168 1
2029 1726 1
2030 1720 1
2031 4 0.04
2031 5 0.04
2031 13 0.04
2031 17 0.04
2031 19 0.04
2031 29 0.04
2031 54 0.04
2031 89 0.04
2031 109 0.04
2031 168 0.04
2031 651 0.04
2031 807 0.04
2031 935 0.04
2031 1226 0.04
2031 1685 0.04
2031 1692 0.04
2031 1699 0.04
2031 1708 0.04
2031 1720 0.04
2031 1721 0.04
2031 1722 0.04
2031 1723 0.04
2031 1724 0.04
2031 1725 0.04
2031 1726 0.04
2032 1721 1
2033 1723 1
2034 1724 1
2035 1708 0.467942
2035 1725 0.532058
2036 1728 1
2037 308 1
2038 15 0.749999
2038 873 0.250001
2039 1729 1
2040 1730 1
2041 1731 1
2042 1732 1
2043 1733 1
2044 1735 1
2045 420 1
2046 1736 1
2047 1737 1
2048 1738 1
2049 253 0.6
2049 1739 0.4
2050 1181 0.5
2050 1798 0.5
2051 533 0.299998
2051 731 0.299998
2051 1740 0.400004
2052 1742 1
2053 1086 1
2054 1743 1
2055 874 1
2056 1744 1
2057 1372 0.5
2057 1804 0.5
2058 1745 1
2059 1746 1
2060 1747 1
2061 1086 1
2062 1749 1
2063 603 0.154363
2063 980 0.169088
2063 1750 0.676549
2064 1751 1
2065 1752 1
2066 1750 1
2067 253 0.5
2067 1753 0.5
2068 127 0.204041
2068 170 0.181675
2068 1275 0.614284
2069 671 0.500007
2069 1589 0.499993
2070 1754 1
2071 33 4.74208e-05
2071 579 0.999953
2072 209 1
2073 1756 0.375276
2073 3119 0.624724
2074 1757 1
2075 573 0.666659
2075 1758 0.333341
2076 1759 1
2077 1760 1
2078 1761 1
2079 1762 1
2080 1763 1
2081 17 0.35978
2081 309 0.64022
2082 1764 1
2083 1765 1
2084 1767 1
2085 1768 1
2086 1769 1
2087 1770 1
2088 1771 1
2089 1772 1
2090 1776 1
2091 1777 1
2092 1778 1
2093 1779 0.999858
2093 1780 0.000141557
2094 31 0.50028
2094 1774 0.499678
2094 1780 4.24101e-05
2095 149 0.361043
2095 1775 0.361064
2095 1780 0.277893
2096 1773 0.999424
2096 1774 0.000575974
2097 54 1
2098 1781 1
2099 1782 1
2100 3448 1
2101 1783 1
2102 1784 1
2103 1786 1
2104 1787 1
2105 1788 1
2106 1789 1
2107 108 1
2108 1790 1
2109 1791 1
2110 131 0.142136
2110 1792 0.857864
2111 1792 1
2112 1793 1
2113 1794 1
2114 1795 1
2115 2188 1
2116 1796 1
2117 801 1
2118 1799 1
2119 1800 1
2120 1801 1
2121 1802 1
2122 867 1
2123 1803 1
2124 1805 1
2125 1806 1
2126 1807 1
2127 1808 1
2128 1809 1
2129 2857 1
2130 1811 1
2131 121 0.5
2131 127 0.25
2131 273 0.25
2132 1812 0.333333
2132 2406 0.666667
2133 1813 1
2134 1814 1
2135 24 0.25
2135 2996 0.75
2136 1815 1
2137 488 0.25
2137 1092 0.25
2137 1816 0.500001
2138 1817 1
2139 1818 1
2140 873 0.25
2140 3210 0.75
2141 1819 1
2142 1820 1
2143 1821 1
2144 1822 1
2145 1823 1
2146 1824 1
2147 4 0.00138339
2147 109 0.998617
2148 1826 1
2149 1827 1
2150 1828 1
2151 1829 1
2152 1830 1
2153 1831 1
2154 1832 1
2155 109 1
2156 1833 1
2157 1832 1
2158 1832 0.5
2158 1834 0.5
2159 1834 1
2160 1835 1
2161 1836 1
2162 1837 1
2163 1838 1
2164 1839 1
2165 1841 1
2166 1842 1
2167 1843 1
2168 1844 1
2169 1845 1
2170 1846 1
2171 1235 0.591088
2171 1846 0.408912
2172 1235 0.591088
2172 1846 0.408912
2173 1846 1
2174 105 1
2175 1847 1
2176 1848 1
2177 1849 1
2178 1850 1
2179 1851 1
2180 1852 1
2181 1853 1
2182 1854 1
2183 54 0.111083
2183 1855 0.888917
2184 1856 1
2185 1857 1
2186 1858 1
2187 64 1
2188 64 1
2189 29 0.0154884
2189 64 0.984512
2190 64 1
2191 531 0.749998
2191 1859 0.250002
2192 1523 1
2193 1860 1
2194 1861 1
2195 1862 1
2196 16 0.500626
2196 570 0.499374
2197 1863 1
2198 1864 1
2199 1865 1
2200 1866 1
2201 10 1
2202 10 0.013522
2202 609 0.986478
2203 1867 1
2204 1868 1
2205 1869 1
2206 1870 1
2207 285 0.498741
2207 1871 0.501259
2208 1353 0.249999
2208 3239 0.750001
2209 1872 1
2210 1873 1
2211 1874 1
2212 566 1
2213 609 0.0137654
2213 1890 0.986235
2214 2173 1
2215 1875 1
2216 1876 1
2217 1877 1
2218 1878 1
2219 1879 1
2220 1880 1
2221 1881 1
2222 1882 1
2223 1883 1
2224 24 1
2225 1884 1
2226 563 3.86487e-05
2226 1885 0.999961
2227 504 0.999903
2227 563 9.69528e-05
2228 698 1
2229 1886 1
2230 1887 1
2231 1888 1
2232 121 1
2233 831 1
2234 609 0.00445724
2234 1889 0.995543
2235 1891 1
2236 1892 1
2237 1893 1
2238 1894 1
2239 573 0.442549
2239 1895 0.557451
2240 1896 1
2241 1897 1
2242 1898 1
2243 1899 1
2244 1900 1
2245 1901 1
2246 1902 1
2247 1903 1
2248 1475 1
2249 1904 1
2250 1905 1
2251 1906 1
2252 1767 1
2253 1908 1
2254 1909 1
2255 1910 1
2256 1911 1
2257 2738 0.482766
2257 3503 0.0344673
2257 3504 0.482766
2258 359 1
2259 128 0.00505164
2259 1914 0.994948
2260 1916 1
2261 1917 1
2262 1918 1
2263 1919 1
2264 1921 1
2265 1922 1
2266 152 1
2267 1923 1
2268 1924 1
2269 1924 1
2270 1925 1
2271 1926 1
2272 1927 1
2273 1928 1
2274 1929 1
2275 1930 1
2276 1931 1
2277 1932 1
2278 1933 1
2279 1934 1
2280 1935 1
2281 1936 1
2282 1937 1
2283 1938 1
2284 1939 0.75
2284 1942 0.25
2285 1940 1
2286 1941 1
2287 54 0.499982
2287 290 0.250009
2287 404 0.250009
2288 942 0.480147
2288 1943 0.519853
2289 742 1
2290 1944 1
2291 1945 1
2292 1946 1
2293 1947 1
2294 1948 1
2295 1949 1
2296 1950 1
2297 1951 1
2298 1952 1
2299 1953 1
2300 1953 1
2301 1955 1
2302 1956 1
2303 1957 1
2304 195 0.213273
2304 2465 0.786727
2305 517 0.356446
2305 573 0.643554
2306 573 1
2307 92 1
2308 1958 1
2309 1959 1
2310 1960 1
2311 1961 1
2312 1962 1
2313 1963 1
2314 1964 1
2315 1965 1
2316 1965 1
2317 1966 1
2318 1967 1
2319 1968 1
2320 1969 1
2321 1971 1
2322 1973 1
2323 1685 0.652266
2323 1973 0.347734
2324 1985 1
2325 1973 1
2326 1974 1
2327 1975 1
2328 64 0.333301
2328 1091 0.333349
2328 1977 0.333349
2329 309 0.49258
2329 347 0.497055
2329 1978 0.0103653
2330 1979 0.999438
2330 3069 0.000562294
2331 1980 1
2332 1981 1
2333 1982 1
2334 1983 1
2335 1984 1
2336 1685 1
2337 1986 1
2338 1987 1
2339 1988 1
2340 1990 1
2341 93 1
2342 1991 1
2343 1992 1
2344 1993 1
2345 1995 1
2346 1996 1
2347 1997 1
2348 1998 1
2349 1999 0.571429
2349 2790 0.428571
2350 2000 1
2351 13 0.20116
2351 2001 0.79884
2352 2002 1
2353 2003 1
2354 2004 1
2355 2005 1
2356 2005 1
2357 2006 1
2358 2007 1
2359 2008 1
2360 2010 1
2361 2011 1
2362 2012 1
2363 667 0.998511
2363 970 0.00148887
2364 2014 1
2365 2016 1
2366 2017 1
2367 2018 1
2368 2020 1
2369 2021 1
2370 2022 1
2371 2023 1
2372 2024 1
2373 2025 1
2374 2026 1
2375 2027 1
2376 2028 1
2377 207 1
2378 2029 1
2379 2030 1
2380 2031 1
2381 2032 1
2382 1008 1
2383 2033 1
2384 2034 1
2385 2035 1
2386 2036 1
2387 2019 1
2388 2037 1
2389 2038 1
2390 2038 1
2391 2039 1
2392 2040 1
2393 2042 1
2394 614 0.5
2394 645 0.5
2395 2043 1
2396 2044 1
2397 2045 1
2398 2046 1
2399 2047 1
2400 128 0.0207403
2400 2048 0.97926
2401 309 1
2402 2049 1
2403 2050 1
2404 2051 1
2405 2051 1
2406 2053 1
2407 1521 0.000121612
2407 2054 0.999878
2408 299 0.307668
2408 2055 0.346166
2408 2056 0.346166
2409 362 1
2410 375 1
2411 2057 1
2412 2058 1
2413 1356 1
2414 2059 1
2415 299 4.69944e-05
2415 2060 0.999944
2415 2061 9.31289e-06
2416 201 0.787435
2416 2061 0.212565
2417 2062 1
2418 2063 1
2419 2064 1
2420 2065 0.25
2420 3078 0.75
2421 13 0.247147
2421 2066 0.752853
2422 2067 1
2423 2068 1
2424 2069 1
2425 2070 1
2426 2071 1
2427 2072 1
2428 2073 1
2429 2074 1
2430 2075 1
2431 1846 1
2432 2076 1
2433 2060 1
2434 2077 1
2435 2078 1
2436 2079 1
2437 2080 1
2438 2081 1
2439 54 1
2440 2082 1
2441 2083 1
2442 2084 1
2443 2085 1
2444 3158 1
2445 377 0.368345
2445 2085 0.631655
2446 4 1
2447 2123 1
2448 3073 1
2449 4 0.777558
2449 64 0.222442
2450 2086 1
2451 2087 1
2452 2088 1
2453 2089 1
2454 2090 1
2455 2091 1
2456 2092 1
2457 2093 1
2458 1091 1
2459 945 1
2460 2094 1
2461 2095 1
2462 13 0.125594
2462 2096 0.874406
2463 1796 1
2464 2097 1
2465 150 0.5
2465 2098 0.5
2466 2099 1
2467 2100 1
2468 141 0.75
2468 2101 0.25
2469 2102 1
2470 2103 1
2471 2104 1
2472 2105 1
2473 2106 1
2474 1247 1
2475 129 0.142857
2475 2672 0.857143
2476 2107 1
2477 1435 1
2478 2108 1
2479 2109 1
2480 488 1
2481 2110 1
2482 2111 1
2483 2112 1
2484 2114 1
2485 2115 1
2486 2116 1
2487 2116 1
2488 2116 1
2489 2117 1
2490 17 1
2491 1205 1
2492 2118 1
2493 2120 1
2494 2121 1
2495 2122 1
2496 1353 1
2497 2127 1
2498 2128 1
2499 2129 1
2500 2130 1
2501 1070 1
2502 2133 1
2503 2134 1
2504 2135 1
2505 2136 1
2506 2137 1
2507 2138 1
2508 2139 1
2509 2140 1
2510 2141 1
2511 2142 1
2512 2143 1
2513 2145 1
2514 2146 1
2515 2147 1
2516 2148 1
2517 2149 1
2518 2150 1
2519 2152 1
2520 2153 1
2521 121 1
2522 2154 1
2523 1393 1
2524 2155 1
2525 2156 1
2526 2157 1
2527 2158 1
2528 2159 1
2529 2160 1
2530 2161 1
2531 1295 0.249028
2531 2162 0.750972
2532 2163 1
2533 2164 1
2534 2165 1
2535 2166 1
2536 2167 1
2537 2168 1
2538 2169 1
2539 2170 1
2540 2171 1
2541 2172 1
2542 2174 1
2543 2175 1
2544 2176 1
2545 2177 1
2546 2178 1
2547 2179 1
2548 2180 1
2549 1976 1
2550 2182 1
2551 2183 1
2552 2184 1
2553 2185 1
2554 2186 1
2555 2187 1
2556 2189 1
2557 1211 1
2558 2190 1
2559 2191 1
2560 2192 1
2561 89 1
2562 89 1
2563 2191 1
2564 2193 1
2565 1988 0.749944
2565 2194 0.250056
2566 2195 1
2567 2196 1
2568 2197 1
2569 2198 1
2570 2199 1
2571 2200 1
2572 37 0.499996
2572 2201 0.500004
2573 2001 1
2574 2202 1
2575 2204 1
2576 2205 1
2577 2206 1
2578 2207 1
2579 2208 1
2580 618 0.25
2580 3043 0.75
2581 2209 1
2582 2166 1
2583 2210 1
2584 489 1
2585 2211 1
2586 2212 1
2587 2213 1
2588 2214 1
2589 1135 1
2590 2215 1
2591 2216 1
2592 2217 1
2593 2218 1
2594 2219 1
2595 2220 1
2596 2221 1
2597 2222 1
2598 2223 1
2599 2224 1
2600 2226 1
2601 2227 1
2602 2228 1
2603 2229 1
2604 2229 1
2605 2230 1
2606 2231 1
2607 2232 1
2608 2234 1
2609 2235 1
2610 2236 1
2611 2240 1
2612 2237 1
2613 2238 1
2614 2239 1
2615 2241 1
2616 2242 1
2617 2243 1
2618 2124 0.666667
2618 2244 0.333333
2619 3350 1
2620 2245 1
2621 2246 1
2622 2247 1
2623 2248 1
2624 2249 1
2625 2249 1
2626 2249 1
2627 2249 1
2628 176 1
2629 176 1
2630 175 1
2631 2037 0.333326
2631 2250 0.666674
2632 2251 1
2633 33 1
2634 941 1
2635 2253 1
2636 2254 1
2637 2252 0.5
2637 2255 0.5
2638 2256 1
2639 2257 1
2640 2258 1
2641 1383 1
2642 91 1
2643 2258 1
2644 731 0.00101124
2644 756 0.000427253
2644 2259 0.998562
2645 941 0.5
2645 2260 0.5
2646 2261 1
2647 2262 1
2648 2263 1
2649 2264 1
2650 2265 1
2651 2266 1
2652 539 1
2653 2267 1
2654 559 0.495858
2654 1609 0.504142
2655 2268 1
2656 2238 0.000230338
2656 2269 0.99977
2657 2270 1
2658 232 0.330722
2658 873 0.334639
2658 1804 0.334639
2659 295 0.333332
2659 342 0.333334
2659 2271 0.333334
2660 2272 1
2661 2273 1
2662 874 0.333333
2662 2274 0.666667
2663 33 0.24842
2663 1003 0.250526
2663 2275 0.501053
2664 2276 1
2665 2277 1
2666 2278 1
2667 2279 1
2668 150 1
2669 2280 1
2670 1615 1
2671 2282 1
2672 2283 1
2673 2284 1
2674 2285 1
2675 2109 1
2676 5 1
2677 2286 1
2678 2287 1
2679 294 1
2680 54 0.614938
2680 2288 0.385062
2681 2289 1
2682 2290 1
2683 2238 1
2684 1028 1
2685 2291 1
2686 2292 1
2687 2293 1
2688 2294 1
2689 2295 1
2690 2296 1
2691 2297 1
2692 18 1
2693 213 0.428439
2693 253 0.571561
2694 223 0.499999
2694 309 0.500001
2695 2298 1
2696 2299 1
2697 313 0.428435
2697 2300 0.571565
2698 2301 1
2699 285 1
2700 2302 1
2701 2303 1
2702 2304 1
2703 2305 1
2704 2306 1
2705 272 1
2706 2307 1
2707 2308 0.25
2707 2839 0.75
2708 2309 1
2709 2310 1
2710 2310 1
2711 2311 1
2712 2311 1
2713 2313 1
2714 2314 1
2715 2315 1
2716 3413 1
2717 2316 1
2718 2317 1
2719 2318 1
2720 2319 1
2721 2320 1
2722 2321 1
2723 2322 1
2724 2323 1
2725 290 1
2726 2324 1
2727 2325 0.625
2727 2830 0.375
2728 2327 1
2729 2240 1
2730 34 0.499981
2730 2240 0.500019
2731 2328 1
2732 2329 1
2733 2330 1
2734 2331 1
2735 924 0.000377364
2735 1493 0.999623
2736 2332 1
2737 2333 1
2738 2334 1
2739 2335 1
2740 508 1
2741 2336 1
2742 2337 1
2743 2338 1
2744 2339 1
2745 2340 1
2746 2342 1
2747 2343 1
2748 2344 1
2749 2345 1
2750 2346 1
2751 2347 1
2752 2348 1
2753 326 0.608677
2753 2349 0.391323
2754 326 0.000304099
2754 2350 0.999696
2755 51 0.5
2755 2351 0.5
2756 24 1
2757 2352 1
2758 2353 1
2759 2354 1
2760 2355 1
2761 342 1
2762 2356 1
2763 2357 1
2764 176 0.0999998
2764 2358 2.23795e-06
2764 2669 0.899998
2765 720 0.5
2765 2359 0.5
2766 2360 1
2767 2361 1
2768 2358 0.0724111
2768 2362 0.927589
2769 548 0.455999
2769 2363 0.544001
2770 2364 1
2771 2365 1
2772 2366 1
2773 2367 1
2774 2368 1
2775 2369 1
2776 121 0.986401
2776 609 0.0135988
2777 2370 1
2778 2371 1
2779 2372 1
2780 2373 1
2781 2374 1
2782 2375 1
2783 2376 1
2784 2377 1
2785 609 1
2786 2378 1
2787 2380 1
2788 2381 1
2789 2382 1
2790 2383 1
2791 2384 1
2792 2385 1
2793 2386 1
2794 532 0.333326
2794 2387 0.333342
2794 2388 0.333332
2795 2389 1
2796 2390 0.5
2796 2391 0.5
2797 2392 1
2798 2393 1
2799 108 1
2800 2394 1
2801 1560 1
2802 128 0.499997
2802 2395 0.500003
2803 15 1
2804 17 0.205177
2804 1089 0.794823
2805 2396 0.5
2805 2418 0.5
2806 2397 1
2807 2398 1
2808 10 3.62777e-05
2808 232 0.249983
2808 3250 0.74998
2809 2399 1
2810 119 1
2811 2358 1
2812 2400 1
2813 2401 1
2814 2402 1
2815 2403 1
2816 644 1
2817 2404 1
2818 2405 1
2819 2407 1
2820 314 1
2821 121 1
2822 2408 1
2823 2409 1
2824 2410 1
2825 2411 1
2826 2412 1
2827 2413 1
2828 2414 1
2829 2415 1
2830 2416 1
2831 2994 1
2832 2417 1
2833 2419 1
2834 2420 1
2835 2420 1
2836 420 0.375
2836 2421 0.625
2837 2422 1
2838 2423 1
2839 2424 1
2840 2425 1
2841 2426 1
2842 2427 1
2843 2428 1
2844 33 0.500007
2844 82 0.499993
2845 326 0.333331
2845 630 0.333335
2845 2429 0.333335
2846 2430 1
2847 2431 1
2848 54 0.749983
2848 2432 0.250017
2849 310 1
2850 2433 1
2851 2434 1
2852 2435 1
2853 2436 1
2854 2437 1
2855 2438 1
2856 1922 1
2857 54 1
2858 2439 1
2859 2439 0.500074
2859 2440 0.499926
2860 477 0.500782
2860 2457 0.499218
2861 2441 1
2862 2442 1
2863 2443 1
2864 2444 1
2865 2445 1
2866 2446 1
2867 89 1
2868 2447 1
2869 2450 1
2870 2451 1
2871 2452 1
2872 2453 1
2873 2454 1
2874 2455 1
2875 1053 1
2876 2456 1
2877 479 1
2878 2458 1
2879 2459 1
2880 150 0.999294
2880 1053 0.000706412
2881 2460 1
2882 2461 1
2883 2462 1
2884 276 1
2885 844 1
2886 2463 1
2887 2464 1
2888 2466 1
2889 2467 1
2890 2468 1
2891 2469 1
2892 2125 0.769231
2892 2731 0.230769
2893 2470 1
2894 2471 1
2895 2472 1
2896 2473 1
2897 2474 1
2898 1306 1
2899 2476 1
2900 2477 1
2901 2478 1
2902 2479 1
2903 2480 1
2904 51 1
2905 2482 1
2906 2483 1
2907 2484 1
2908 2485 1
2909 968 1
2910 156 1
2911 253 0.499993
2911 2486 0.500007
2912 2487 1
2913 71 1
2914 2488 1
2915 2489 1
2916 298 1
2917 2490 1
2918 2491 1
2919 2492 1
2920 2493 1
2921 299 0.749967
2921 2494 0.250033
2922 235 1
2923 2495 1
2924 2496 1
2925 2498 1
2926 2096 1
2927 2499 1
2928 2500 1
2929 2501 1
2930 2502 1
2931 2503 1
2932 2504 1
2933 2505 1
2934 2506 1
2935 64 1
2936 2507 1
2937 2508 1
2938 123 0.25
2938 255 0.75
2939 2728 1
2940 2509 1
2941 2510 1
2942 2608 1
2943 2511 1
2944 2512 1
2945 2513 1
2946 2514 1
2947 17 0.0125617
2947 2774 0.987438
2948 273 1
2949 2515 1
2950 2516 1
2951 2517 1
2952 3206 1
2953 276 1
2954 2518 1
2955 2519 0.999929
2955 2521 7.09741e-05
2956 2520 1
2957 2522 1
2958 2523 0.5
2958 2524 0.5
2959 2525 1
2960 2526 1
2961 2528 1
2962 2529 1
2963 123 0.333333
2963 1668 0.333333
2963 2530 0.333333
2964 2531 1
2965 2532 1
2966 2533 1
2967 2534 1
2968 2535 1
2969 13 0.00135705
2969 1165 0.998643
2970 2536 1
2971 165 0.25
2971 630 0.75
2972 2537 1
2973 121 0.142843
2973 2773 0.857157
2974 131 0.749977
2974 2538 0.250023
2975 2539 1
2976 1098 1
2977 18 0.5
2977 347 0.5
2978 2540 1
2979 2541 1
2980 2542 1
2981 2543 1
2982 2544 1
2983 1053 0.75
2983 2545 0.25
2984 2546 1
2985 2547 1
2986 2548 1
2987 2549 1
2988 82 1
2989 109 1
2990 2550 1
2991 2551 1
2992 2552 1
2993 2554 1
2994 1475 1
2995 2555 1
2996 2557 1
2997 462 0.333333
2997 2558 0.666667
2998 2559 1
2999 2560 1
3000 2561 1
3001 2562 1
3002 381 1
3003 2563 1
3004 2564 1
3005 343 0.282807
3005 935 0.292478
3005 2558 0.132523
3005 2565 0.292192
3006 2566 1
3007 2567 1
3008 2568 1
3009 2690 1
3010 2569 1
3011 2570 1
3012 2571 1
3013 2572 1
3014 2573 1
3015 2574 1
3016 2575 1
3017 2576 1
3018 2577 1
3019 2578 1
3020 2579 1
3021 2580 1
3022 2581 1
3023 2582 1
3024 2583 1
3025 2584 1
3026 89 0.495601
3026 2421 0.504399
3027 2585 1
3028 2586 1
3029 2587 1
3030 2588 1
3031 128 0.000315998
3031 885 0.499842
3031 2589 0.499842
3032 2590 1
3033 489 0.0297262
3033 974 0.242568
3033 3205 0.727705
3034 1862 1
3035 2591 0.5
3035 2592 0.5
3036 2593 1
3037 663 0.142857
3037 2726 0.857143
3038 2594 1
3039 2595 1
3040 1528 1
3041 2596 1
3042 2597 1
3043 2591 1
3044 2598 1
3045 2599 1
3046 1862 1
3047 2600 1
3048 2601 1
3049 2602 1
3050 2603 1
3051 273 0.659328
3051 500 0.340672
3052 780 1
3053 89 1
3054 2604 1
3055 2605 1
3056 2606 1
3057 2607 1
3058 2608 1
3059 2609 1
3060 2610 1
3061 2611 1
3062 2612 1
3063 2614 1
3064 809 1
3065 2615 1
3066 2615 1
3067 2616 1
3068 2617 1
3069 29 1
3070 262 0.428571
3070 2618 0.571429
3071 2619 1
3072 2620 1
3073 314 0.494125
3073 2623 0.505875
3074 2624 1
3075 2625 1
3076 1199 1
3077 2622 1
3078 2626 1
3079 2627 1
3080 2628 1
3081 2629 1
3082 2630 1
3083 2631 1
3084 2632 1
3085 2633 1
3086 2634 1
3087 2635 1
3088 2636 1
3089 2637 1
3090 2638 1
3091 2639 1
3092 2640 0.25
3092 3054 0.75
3093 2641 1
3094 2642 1
3095 2643 1
3096 2644 1
3097 2644 1
3098 2645 1
3099 2646 1
3100 2647 1
3101 245 0.250034
3101 2648 0.749966
3102 2649 1
3103 2650 1
3104 2651 1
3105 54 1
3106 2648 1
3107 2652 1
3108 2177 1
3109 2653 1
3110 2653 1
3111 1478 0.833333
3111 2013 0.166667
3112 2655 1
3113 2656 1
3114 1602 0.5
3114 3249 0.5
3115 82 1
3116 173 0.5
3116 3280 0.5
3117 960 1
3118 1578 0.333333
3118 2657 0.666667
3119 2659 1
3120 1616 1
3121 290 1
3122 2660 1
3123 2662 1
3124 2663 1
3125 2664 1
3126 2330 1
3127 2665 1
3128 2666 1
3129 2667 1
3130 2668 1
3131 1552 1
3132 2670 1
3133 173 0.250083
3133 1272 0.749917
3134 508 0.5
3134 2671 0.5
3135 2673 1
3136 1145 1
3137 2674 1
3138 120 1
3139 2675 1
3140 17 1
3141 2676 1
3142 2677 1
3143 2678 1
3144 2679 1
3145 126 1
3146 2680 1
3147 1472 1
3148 2681 1
3149 2682 1
3150 2682 1
3151 2683 1
3152 2684 1
3153 2685 1
3154 2686 1
3155 2608 1
3156 2687 1
3157 1259 1
3158 1259 1
3159 1259 1
3160 629 0.547203
3160 1259 0.452797
3161 2688 1
3162 2689 1
3163 2691 1
3164 2692 1
3165 1972 0.497481
3165 2538 0.00503766
3165 2693 0.497481
3166 2694 1
3167 2695 1
3168 2696 1
3169 609 1
3170 124 1
3171 851 1
3172 2697 1
3173 2698 0.424057
3173 2699 0.151831
3173 2700 0.424112
3174 2698 1
3175 2699 1
3176 2701 1
3177 2702 0.990688
3177 3197 0.00931154
3178 2703 1
3179 2699 1
3180 2704 1
3181 2706 1
3182 2707 1
3183 2708 1
3184 2708 0.00290632
3184 3105 0.997094
3185 2709 1
3186 92 0.333333
3186 2710 0.666667
3187 2711 1
3188 2712 1
3189 2713 1
3190 2714 1
3191 2715 1
3192 2716 1
3193 4 1
3194 2717 1
3195 2718 1
3196 2719 1
3197 2720 1
3198 2721 1
3199 2722 1
3200 1478 1
3201 2723 1
3202 2724 1
3203 347 1
3204 2725 1
3205 2727 1
3206 2729 1
3207 2730 1
3208 2732 1
3209 328 1
3210 667 1
3211 2733 1
3212 2734 1
3213 2735 1
3214 2736 1
3215 2737 1
3216 1181 3.84011e-05
3216 2732 0.999962
3217 2739 1
3218 2740 1
3219 2741 1
3220 534 1
3221 2742 1
3222 54 1
3223 33 0.49748
3223 1220 0.50252
3224 342 1
3225 2743 1
3226 1087 0.5
3226 2084 0.5
3227 496 1
3228 2744 1
3229 2745 1
3230 2746 1
3231 2745 1
3232 19 0.49998
3232 3057 0.50002
3233 2747 1
3234 2748 0.666755
3234 2749 0.333245
3235 346 1
3236 2748 1
3237 160 1
3238 2745 1
3239 886 1
3240 2753 1
3241 479 1
3242 2754 1
3243 2755 1
3244 2756 1
3245 5 0.697101
3245 1159 0.302899
3246 2757 1
3247 2758 1
3248 1893 1
3249 2759 1
3250 48 1
3251 2761 1
3252 123 0.163984
3252 573 0.163984
3252 942 0.163984
3252 2760 0.163984
3252 2762 0.344062
3253 420 0.2
3253 479 0.2
3253 685 0.2
3253 825 0.2
3253 2763 0.2
3254 2765 1
3255 295 1
3256 2766 1
3257 2767 1
3258 2768 1
3259 931 1
3260 2769 1
3261 13 1
3262 2771 1
3263 2771 1
3264 2760 1
3265 2772 1
3266 1089 1
3267 2776 1
3268 2777 1
3269 2778 1
3270 2779 1
3271 2780 1
3272 2781 1
3273 2782 1
3274 2783 1
3275 2784 1
3276 2785 1
3277 2786 1
3278 1418 0.5
3278 2787 0.5
3279 126 1
3280 726 1
3281 2788 1
3282 2789 1
3283 2791 1
3284 2792 1
3285 2793 1
3286 2794 1
3287 2795 1
3288 2796 1
3289 2797 1
3290 1269 1
3291 2798 1
3292 2799 1
3293 2800 1
3294 88 1
3295 2801 1
3296 2802 1
3297 1030 1
3298 2803 1
3299 2804 1
3300 2805 1
3301 2806 1
3302 2807 1
3303 2808 1
3304 2809 1
3305 2810 1
3306 2811 1
3307 2812 1
3308 1802 1
3309 2813 1
3310 2814 1
3311 2815 1
3312 2816 1
3313 2096 1
3314 2817 1
3315 2818 1
3316 2819 1
3317 3316 1
3318 2820 1
3319 2821 1
3320 2822 1
3321 2823 1
3322 1740 0.999442
3322 2823 0.000558464
3323 2824 1
3324 2825 1
3325 2827 1
3326 2828 1
3327 2829 1
3328 1740 1
3329 2831 1
3330 938 1
3331 13 0.551229
3331 865 0.448771
3332 13 0.018612
3332 983 0.981388
3333 2833 1
3334 2834 1
3335 2835 1
3336 2836 1
3337 2837 1
3338 2838 1
3339 2840 1
3340 290 1
3341 290 1
3342 290 1
3343 54 1
3344 54 0.999685
3344 89 0.000314772
3345 2841 1
3346 2842 1
3347 2843 1
3348 2844 1
3349 2845 1
3350 2846 1
3351 1527 1
3352 2847 1
3353 2848 1
3354 2849 1
3355 2850 1
3356 2851 1
3357 2852 1
3358 2853 1
3359 2855 1
3360 2854 1
3361 89 0.498213
3361 2858 0.501786
3362 1618 1
3363 2859 1
3364 754 1
3365 2860 1
3366 2860 1
3367 2861 1
3368 2862 1
3369 342 1
3370 2864 1
3371 2865 1
3372 2866 1
3373 2863 1
3374 2867 1
3375 2868 1
3376 2869 1
3377 2870 1
3378 2871 1
3379 983 0.49825
3379 2872 0.50175
3380 533 0.499725
3380 2873 0.500275
3381 533 1
3382 2240 1
3383 2874 1
3384 2875 1
3385 2876 1
3386 2877 1
3387 2878 1
3388 19 0.498705
3388 1086 0.501295
3389 2879 1
3390 2880 1
3391 2881 1
3392 1752 1
3393 2882 1
3394 2883 1
3395 2884 1
3396 2885 1
3397 51 1
3398 2886 1
3399 2887 1
3400 108 1
3401 108 1
3402 2888 1
3403 2889 1
3404 2890 1
3405 2891 1
3406 2892 1
3407 709 1
3408 2893 1
3409 2894 1
3410 591 1
3411 2895 1
3412 2896 1
3413 2897 1
3414 2898 1
3415 2899 0.538662
3415 2900 0.461338
3416 2900 1
3417 1059 1
3418 2902 1
3419 2903 1
3420 176 0.5
3420 2904 0.5
3421 2905 1
3422 51 1
3423 2906 1
3424 121 0.0148466
3424 2752 0.985153
3425 2907 1
3426 2908 1
3427 2909 1
3428 2910 1
3429 2911 1
3430 2912 1
3431 2913 1
3432 273 1
3433 2909 1
3434 2909 1
3435 2914 1
3436 2915 1
3437 13 1
3438 119 0.333143
3438 129 0.333427
3438 2915 0.33343
3439 2916 1
3440 2917 1
3441 2918 1
3442 2919 1
3443 2919 1
3444 2920 1
3445 2921 1
3446 3179 1
3447 2924 1
3448 4 0.9999
3448 2924 9.9529e-05
3449 2926 1
3450 2927 1
3451 2928 1
3452 13 1
3453 123 1
3454 2922 1
3455 89 1
3456 2929 1
3457 2930 1
3458 2931 1
3459 10 0.999853
3459 2931 0.000147447
3460 2932 1
3461 2933 1
3462 2934 1
3463 11 0.5
3463 1465 0.5
3464 2935 1
3465 2936 1
3466 2937 1
3467 2938 1
3468 2939 1
3469 2940 1
3470 121 1
3471 109 0.0220012
3471 2941 0.977999
3472 667 1
3473 1619 1
3474 2942 1
3475 2943 1
3476 2944 1
3477 2945 1
3478 2946 1
3479 2947 1
3480 1199 1
3481 4 1
3482 2949 1
3483 2950 1
3484 2951 1
3485 2952 1
3486 29 0.000281652
3486 635 0.999718
3487 29 3.83485e-05
3487 635 0.999962
3488 7 0.499958
3488 2953 0.500042
3489 2954 1
3490 630 1
3491 2955 1
3492 2956 1
3493 2957 1
3494 2958 1
3495 576 1
3496 488 1
3497 253 0.498266
3497 2959 0.501734
3498 2960 1
3499 2961 1
3500 2962 1
3501 2963 1
3502 126 1
3503 19 0.333276
3503 2964 0.666724
3504 2966 1
3505 2967 1
3506 2968 1
3507 4 0.00126726
3507 10 0.522298
3507 671 0.326361
3507 993 0.00122997
3507 2965 0.148844
3508 2969 1
3509 2970 1
3510 2971 1
3511 2972 1
3512 2973 1
3513 2974 0.584813
3513 2975 0.415187
3514 2975 0.224837
3514 2976 0.775163
3515 2977 1
3516 2978 1
3517 1648 1
3518 1648 1
3519 2979 1
3520 1086 1
3521 33 1
3522 2980 1
3523 2981 1
3524 2982 1
3525 2983 1
3526 2984 1
3527 2985 1
3528 126 1
3529 89 0.49856
3529 3383 0.50144
3530 2986 1
3531 2987 1
3532 2988 1
3533 2989 1
3534 2990 1
3535 1237 0.5
3535 2834 0.5
3536 423 1
3537 423 1
3538 618 1
3539 731 1
3540 618 0.131065
3540 731 0.868935
3541 2991 1
3542 2992 1
3543 2993 1
3544 2995 1
3545 195 1
3546 2997 1
3547 15 0.00726041
3547 314 0.186852
3547 2998 0.805888
3548 2115 1
3549 2999 1
3550 3000 1
3551 3001 1
3552 3002 1
3553 3003 1
3554 3004 1
3555 15 0.00925435
3555 51 0.990746
3556 3005 1
3557 3006 1
3558 3007 1
3559 3008 1
3560 731 0.00073262
3560 3009 0.999267
3561 195 0.999267
3561 731 0.00073262
3562 3010 1
3563 2998 1
3564 3011 1
3565 731 1
3566 3012 1
3567 3013 1
3568 3014 1
3569 1472 1
3570 3015 1
3571 10 1
3572 3016 1
3573 3017 1
3574 3018 1
3575 3019 1
3576 3020 1
3577 1115 0.5
3577 3021 0.5
3578 48 1
3579 48 0.0157135
3579 933 0.984286
3580 3022 1
3581 170 1
3582 3023 1
3583 170 0.529709
3583 698 0.470291
3584 3023 1
3585 3024 1
3586 3025 1
3587 3026 1
3588 3026 1
3589 343 1
3590 109 0.490594
3590 3028 0.509406
3591 3029 1
3592 3030 1
3593 3031 1
3594 3032 1
3595 3033 1
3596 3034 1
3597 3035 1
3598 3036 1
3599 3037 1
3600 3038 0.5
3600 3039 0.5
3601 1541 0.998972
3601 3090 0.00102779
3602 3040 1
3603 892 1
3604 1474 1
3605 3041 1
3606 3042 1
3607 64 1
3608 64 1
3609 294 1
3610 2188 1
3611 3044 1
3612 3045 1
3613 3046 1
3614 3047 1
3615 3048 1
3616 298 0.014263
3616 3048 0.985737
3617 298 1
3618 3049 1
3619 3050 1
3620 3051 1
3621 3052 1
3622 3053 1
3623 17 1
3624 3055 1
3625 3056 1
3626 105 1
3627 206 0.333333
3627 264 0.333333
3627 3068 0.333333
3628 3058 1
3629 3059 1
3630 3057 1
3631 3060 1
3632 3061 1
3633 3062 1
3634 3064 1
3635 159 1
3636 3065 1
3637 3066 1
3638 3067 1
3639 3069 1
3640 3070 1
3641 3071 1
3642 902 1
3643 3072 1
3644 3074 1
3645 3075 1
3646 3076 1
3647 3077 1
3648 3078 1
3649 3079 1
3650 3080 1
3651 3081 1
3652 3082 0.499987
3652 3083 0.500013
3653 3084 1
3654 3085 1
3655 3086 1
3656 3087 1
3657 3088 1
3658 3089 1
3659 3090 1
3660 274 1
3661 993 1
3662 3091 1
3663 3092 1
3664 13 0.99884
3664 89 0.00116045
3665 3093 1
3666 3094 1
3667 3095 1
3668 3096 1
3669 3097 1
3670 3098 1
3671 3099 1
3672 3100 1
3673 3101 1
3674 3102 1
3675 488 1
3676 3104 1
3677 541 1
3678 3106 1
3679 3107 1
3680 3107 1
3681 3108 1
3682 3109 1
3683 171 0.5
3683 422 0.5
3684 3110 1
3685 298 1
3686 3111 1
3687 2711 1
3688 3112 1
3689 581 0.119656
3689 3090 0.880344
3690 1427 1
3691 3114 1
3692 3115 1
3693 195 1
3694 195 1
3695 195 2.23926e-05
3695 645 0.499676
3695 664 0.000625735
3695 3116 0.499676
3696 3117 0.666667
3696 3118 0.333333
3697 3120 1
3698 3121 1
3699 2097 1
3700 3122 1
3701 3123 1
3702 3124 1
3703 3125 1
3704 3126 1
3705 3127 1
3706 3128 1
3707 3129 1
3708 3129 1
3709 3130 1
3710 3131 1
3711 3132 1
3712 3133 1
3713 3134 1
3714 3135 1
3715 3136 1
3716 1237 1
3717 4 1
3718 3137 1
3719 343 1
3720 1247 1
3721 82 1
3722 2839 1
3723 3138 1
3724 3139 1
3725 3140 1
3726 3141 1
3727 232 1
3728 3143 1
3729 3142 1
3730 174 1
3731 3144 1
3732 3146 1
3733 3147 1
3734 3148 1
3735 3149 1
3736 3150 1
3737 3151 1
3738 3152 1
3739 2762 1
3740 2247 1
3741 3153 1
3742 3154 1
3743 1102 1
3744 3156 1
3745 3157 1
3746 3159 1
3747 3160 1
3748 731 1
3749 3161 1
3750 2217 0.000419025
3750 3159 0.999581
3751 3162 1
3752 3163 1
3753 3164 1
3754 3165 1
3755 3166 1
3756 3167 1
3757 3168 1
3758 3169 1
3759 1232 1
3760 3170 1
3761 398 1
3762 3171 1
3763 3174 1
3764 3176 1
3765 3177 1
3766 573 1
3767 3178 1
3768 3180 1
3769 1589 1
3770 3181 1
3771 3182 1
3772 3183 1
3773 3184 1
3774 3185 1
3775 3186 1
3776 3187 1
3777 3188 1
3778 3189 1
3779 3190 1
3780 4 0.999126
3780 3190 0.000873694
3781 4 0.0769231
3781 13 0.0769231
3781 29 0.0769231
3781 54 0.0769231
3781 89 0.0769231
3781 290 0.0769231
3781 1502 0.0769231
3781 2323 0.0769231
3781 2950 0.0769231
3781 3188 0.0769231
3781 3189 0.0769231
3781 3190 0.0769231
3781 3191 0.0769231
3782 13 1
3783 3191 1
3784 3192 1
3785 3193 1
3786 190 1
3787 191 1
3788 3194 1
3789 1215 1
3790 3195 1
3791 3196 1
3792 264 0.631121
3792 3197 0.368879
3793 3197 1
3794 3197 1
3795 3198 1
3796 3199 1
3797 3200 1
3798 3201 1
3799 3202 1
3800 3203 1
3801 3204 1
3802 2766 1
3803 201 0.5
3803 396 0.5
3804 3208 1
3805 3209 1
3806 264 0.676311
3806 2721 0.323689
3807 10 1
3808 419 1
3809 17 1
3810 128 0.498292
3810 1472 0.501708
3811 3 1
3812 48 0.343269
3812 93 0.31359
3812 150 0.343141
3813 3212 1
3814 3213 1
3815 299 0.330909
3815 3214 0.669091
3816 3215 1
3817 138 1
3818 3216 1
3819 3217 1
3820 3218 1
3821 3219 1
3822 3220 1
3823 3221 1
3824 3222 1
3825 3223 1
3826 3224 1
3827 3225 1
3828 3226 1
3829 3226 1
3830 3226 1
3831 29 0.00294584
3831 3226 0.997054
3832 3227 1
3833 2194 1
3834 602 1
3835 3229 1
3836 3230 1
3837 3231 1
3838 3232 1
3839 3233 1
3840 44 1
3841 3234 1
3842 3235 1
3843 3236 1
3844 3237 1
3845 3238 1
3846 3240 1
3847 3241 1
3848 3242 1
3849 89 0.333148
3849 3243 0.666852
3850 3244 1
3851 3245 1
3852 3246 1
3853 3247 1
3854 3251 1
3855 3252 1
3856 3253 1
3857 3243 1
3858 1047 1
3859 124 0.333333
3859 127 0.333333
3859 3464 0.333333
3860 3254 1
3861 3256 1
3862 119 1
3863 3257 1
3864 3258 1
3865 3259 1
3866 3260 1
3867 3261 1
3868 3262 1
3869 2865 0.2
3869 3263 0.8
3870 3264 1
3871 3265 1
3872 3266 1
3873 3267 1
3874 3503 1
3875 3504 1
3876 3525 1
3877 1297 1
3878 3268 1
3879 4 1
3880 3270 1
3881 3271 1
3882 3272 1
3883 2567 1
3884 3273 1
3885 3274 1
3886 3275 1
3887 3276 1
3888 3277 1
3889 3278 1
3890 3265 1
3891 3279 1
3892 181 1
3893 3281 1
3894 3269 1
3895 3282 1
3896 54 1
3897 1626 1
3898 119 1
3899 3284 1
3900 779 1
3901 3113 1
3902 3285 1
3903 4 0.787088
3903 1154 0.212912
3904 3286 1
3905 3287 1
3906 1526 1
3907 3288 1
3908 3289 1
3909 3290 1
3910 3291 1
3911 3290 0.995354
3911 3291 0.00464604
3912 3290 1
3913 3290 0.581656
3913 3291 0.418344
3914 3290 1
3915 3291 1
3916 3291 1
3917 3292 1
3918 1181 1
3919 3293 1
3920 3294 1
3921 3295 1
3922 3309 1
3923 262 1
3924 262 1
3925 1981 1
3926 3296 1
3927 3297 1
3928 3298 1
3929 3299 1
3930 3299 1
3931 3299 1
3932 3300 1
3933 3301 1
3934 3302 1
3935 479 1
3936 3304 1
3937 3305 1
3938 3307 1
3939 3308 1
3940 3310 1
3941 3311 1
3942 3312 1
3943 3313 1
3944 3314 1
3945 3315 1
3946 2296 1
3947 3317 1
3948 3318 1
3949 3319 1
3950 3320 1
3951 3321 1
3952 454 0.76966
3952 535 0.23034
3953 813 1
3954 1980 1
3955 3324 1
3956 3325 1
3957 241 1
3958 241 1
3959 241 0.746044
3959 1400 0.253956
3960 1400 1
3961 3326 1
3962 1393 1
3963 3327 1
3964 298 0.5
3964 3328 0.5
3965 3329 1
3966 3330 1
3967 299 1
3968 3331 1
3969 3332 1
3970 299 6.74416e-06
3970 3333 0.499998
3970 3334 0.499995
3971 3335 1
3972 3336 1
3973 3337 1
3974 104 1
3975 3338 1
3976 3339 1
3977 3340 1
3978 54 0.07418
3978 2451 0.92582
3979 119 1
3980 3341 1
3981 3342 1
3982 3343 1
3983 2955 0.0363803
3983 3344 0.96362
3984 3345 1
3985 119 1
3986 3346 1
3987 3347 1
3988 3348 1
3989 429 0.499999
3989 3349 0.500001
3990 3351 1
3991 500 0.333185
3991 667 0.333408
3991 1013 0.333408
3992 3352 1
3993 3353 1
3994 3354 1
3995 3355 1
3996 3356 1
3997 3357 1
3998 3358 1
3999 3359 1
4000 3360 1
4001 3361 1
4002 3362 1
4003 3363 1
4004 3364 1
4005 3365 1
4006 927 1
4007 3366 1
4008 3368 1
4009 3369 1
4010 2766 1
4011 3370 1
4012 3371 1
4013 3373 1
4014 33 0.499306
4014 3374 0.500694
4015 3375 1
4016 3376 1
4017 3377 1
4018 3378 1
4019 3379 1
4020 3380 1
4021 3381 1
4022 3382 1
4023 3384 1
4024 3385 1
4025 3386 1
4026 126 0.54097
4026 3387 0.45903
4027 378 1
4028 3388 1
4029 3389 1
4030 3390 1
4031 3391 1
4032 3392 1
4033 3393 1
4034 3394 1
4035 3395 1
4036 51 1
4037 3396 1
4038 3397 1
4039 3398 1
4040 614 1
4041 253 0.666666
4041 3399 0.333334
4042 3400 1
4043 2752 1
4044 314 1
4045 3401 1
4046 3402 1
4047 3403 1
4048 3404 1
4049 126 1
4050 2856 1
4051 837 1
4052 3405 1
4053 3406 1
4054 1172 1
4055 3407 1
4056 3408 1
4057 1199 1
4058 557 1
4059 3410 1
4060 2497 1
4061 3411 1
4062 3412 1
4063 3414 1
4064 13 0.999464
4064 3414 0.000536343
4065 3415 1
4066 2857 1
4067 2750 1
4068 3416 1
4069 3417 1
4070 3418 1
4071 3419 1
4072 3420 1
4073 685 1
4074 3421 1
4075 3422 1
4076 3423 1
4077 3424 1
4078 3426 1
4079 534 0.410813
4079 1272 0.178279
4079 1379 0.410908
4080 10 1
4081 3427 1
4082 3428 1
4083 3429 1
4084 3430 1
4085 3431 1
4086 3432 1
4087 3433 1
4088 3434 1
4089 3436 1
4090 3437 1
4091 3438 1
4092 3439 1
4093 13 0.0555556
4093 23 0.0555556
4093 29 0.0555556
4093 31 0.0555556
4093 89 0.0555556
4093 127 0.0555556
4093 151 0.0555556
4093 180 0.0555556
4093 273 0.0555556
4093 1515 0.0555556
4093 1690 0.0555556
4093 1995 0.0555556
4093 2465 0.0555556
4093 3192 0.0555556
4093 3217 0.0555556
4093 3440 0.0555556
4093 3441 0.0555556
4093 3442 0.0555556
4094 1995 1
4095 3441 1
4096 3442 1
4097 1515 1
4098 3440 1
4099 127 1
4100 3443 1
4101 3444 1
4102 64 1
4103 64 1
4104 4 0.0555556
4104 13 0.0555556
4104 29 0.0555556
4104 64 0.0555556
4104 83 0.0555556
4104 128 0.0555556
4104 406 0.0555556
4104 505 0.0555556
4104 573 0.0555556
4104 616 0.0555556
4104 664 0.0555556
4104 746 0.0555556
4104 1336 0.0555556
4104 1354 0.0555556
4104 1583 0.0555556
4104 3441 0.0555556
4104 3443 0.0555556
4104 3444 0.0555556
4105 3445 1
4106 3446 1
4107 3447 1
4108 3449 1
4109 3450 1
4110 3451 1
4111 3452 1
4112 3453 1
4113 3454 1
4114 3455 1
4115 3456 1
4116 1496 1
4117 3457 1
4118 3458 1
4119 151 1
4120 126 0.492533
4120 3458 0.0149331
4120 3460 0.492534
4121 3461 1
4122 3462 1
4123 3463 1
4124 1199 1
4125 136 0.516675
4125 1089 0.483325
4126 3465 1
4127 3466 1
4128 3467 1
4129 3468 1
4130 54 1
4131 3470 1
4132 3471 1
4133 3472 1
4134 3473 1
4135 3474 1
4136 3475 1
4137 3476 1
4138 3477 1
4139 3478 1
4140 3479 1
4141 470 1
4142 3090 1
4143 378 1
4144 3480 1
4145 3481 1
4146 3482 1
4147 3483 1
4148 3484 1
4149 3485 1
4150 3486 1
4151 3487 1
4152 3488 1
4153 3489 1
4154 3202 1
4155 4 0.0769231
4155 29 0.0769231
4155 295 0.0769231
4155 548 0.0769231
4155 573 0.0769231
4155 715 0.0769231
4155 2281 0.0769231
4155 3202 0.0769231
4155 3327 0.0769231
4155 3481 0.0769231
4155 3487 0.0769231
4155 3488 0.0769231
4155 3489 0.0769231
4156 3490 1
4157 3491 1
4158 3492 1
4159 3493 1
4160 542 1
4161 89 1
4162 1223 1
4163 3494 1
4164 3495 1
4165 3496 1
4166 273 1
4167 3497 1
4168 1255 1
4169 3499 1
4170 3500 1
4171 3501 1
4172 3502 1
4173 5 0.00276211
4173 2899 0.997238
4174 2899 1
4175 3504 1
4176 3505 1
4177 3506 1
4178 3507 1
4179 3508 1
4180 3509 1
4181 3511 1
4182 3512 1
4183 3513 1
4184 3514 1
4185 105 1
4186 3515 1
4187 3516 1
4188 3517 1
4189 3518 1
4190 1135 1
4191 3519 1
4192 3520 1
4193 3521 1
4194 24 1
4195 910 1
4196 3522 1
4197 3523 1
4198 3524 1
4199 3526 1
4200 3527 1
4201 3528 1
4202 3529 1
